{"learner":{"attributes":{"scikit_learn":"{\"_estimator_type\": \"classifier\"}"},"feature_names":["pitcherHand_L","pitcherHand_R","hitterHand_L","hitterHand_R","balls_before_pitch_0","balls_before_pitch_1","balls_before_pitch_2","balls_before_pitch_3","strikes_before_pitch_0","strikes_before_pitch_1","strikes_before_pitch_2","pX","pZ","sz_z"],"feature_types":["i","i","i","i","i","i","i","i","i","i","i","float","float","float"],"gradient_booster":{"model":{"gbtree_model_param":{"num_parallel_tree":"1","num_trees":"500"},"iteration_indptr":[0,5,10,15,20,25,30,35,40,45,50,55,60,65,70,75,80,85,90,95,100,105,110,115,120,125,130,135,140,145,150,155,160,165,170,175,180,185,190,195,200,205,210,215,220,225,230,235,240,245,250,255,260,265,270,275,280,285,290,295,300,305,310,315,320,325,330,335,340,345,350,355,360,365,370,375,380,385,390,395,400,405,410,415,420,425,430,435,440,445,450,455,460,465,470,475,480,485,490,495,500],"tree_info":[0,1,2,3,4,0,1,2,3,4,0,1,2,3,4,0,1,2,3,4,0,1,2,3,4,0,1,2,3,4,0,1,2,3,4,0,1,2,3,4,0,1,2,3,4,0,1,2,3,4,0,1,2,3,4,0,1,2,3,4,0,1,2,3,4,0,1,2,3,4,0,1,2,3,4,0,1,2,3,4,0,1,2,3,4,0,1,2,3,4,0,1,2,3,4,0,1,2,3,4,0,1,2,3,4,0,1,2,3,4,0,1,2,3,4,0,1,2,3,4,0,1,2,3,4,0,1,2,3,4,0,1,2,3,4,0,1,2,3,4,0,1,2,3,4,0,1,2,3,4,0,1,2,3,4,0,1,2,3,4,0,1,2,3,4,0,1,2,3,4,0,1,2,3,4,0,1,2,3,4,0,1,2,3,4,0,1,2,3,4,0,1,2,3,4,0,1,2,3,4,0,1,2,3,4,0,1,2,3,4,0,1,2,3,4,0,1,2,3,4,0,1,2,3,4,0,1,2,3,4,0,1,2,3,4,0,1,2,3,4,0,1,2,3,4,0,1,2,3,4,0,1,2,3,4,0,1,2,3,4,0,1,2,3,4,0,1,2,3,4,0,1,2,3,4,0,1,2,3,4,0,1,2,3,4,0,1,2,3,4,0,1,2,3,4,0,1,2,3,4,0,1,2,3,4,0,1,2,3,4,0,1,2,3,4,0,1,2,3,4,0,1,2,3,4,0,1,2,3,4,0,1,2,3,4,0,1,2,3,4,0,1,2,3,4,0,1,2,3,4,0,1,2,3,4,0,1,2,3,4,0,1,2,3,4,0,1,2,3,4,0,1,2,3,4,0,1,2,3,4,0,1,2,3,4,0,1,2,3,4,0,1,2,3,4,0,1,2,3,4,0,1,2,3,4,0,1,2,3,4,0,1,2,3,4,0,1,2,3,4,0,1,2,3,4,0,1,2,3,4,0,1,2,3,4,0,1,2,3,4,0,1,2,3,4,0,1,2,3,4,0,1,2,3,4,0,1,2,3,4,0,1,2,3,4,0,1,2,3,4,0,1,2,3,4,0,1,2,3,4,0,1,2,3,4,0,1,2,3,4,0,1,2,3,4,0,1,2,3,4],"trees":[{"base_weights":[5.721286E-1,9.6421283E-1,3.9207E-1,4.1451144E-1,6.737853E-1,9.8254293E-1,2.5205025E-1,4.7187594E-1,3.9636266E-1,3.683126E-1,-0E0,1.275291E-1,3.3232108E-1,3.1652033E-1,3.687475E-2,2.7634117E-1,5.1727917E-2,1.24333516E-1,6.8678902E-3,7.124298E-2,-1.0774524E-2,-8.086564E-2,2.0166238E-1,-4.8410956E-2,5.7489857E-2,1.3296376E-1,-2.0990115E-2],"categories":[],"categories_nodes":[],"categories_segments":[],"categories_sizes":[],"default_left":[0,0,0,0,0,0,0,0,0,0,0,0,0,0,0,0,0,0,0,0,0,0,0,0,0,0,0],"id":0,"left_children":[1,3,5,-1,7,9,11,13,-1,-1,-1,15,-1,-1,-1,17,19,-1,-1,-1,21,23,25,-1,-1,-1,-1],"loss_changes":[9.803168E1,3.4378662E0,8.224011E1,0E0,4.5171432E0,2.5797577E0,6.8602974E1,2.206847E1,0E0,0E0,0E0,7.7919884E0,0E0,0E0,0E0,2.942295E0,5.36518E0,0E0,0E0,0E0,5.7971926E0,4.063609E0,4.9366117E0,0E0,0E0,0E0,0E0],"parents":[2147483647,0,0,1,1,2,2,4,4,5,5,6,6,7,7,11,11,15,15,16,16,20,20,21,21,22,22],"right_children":[2,4,6,-1,8,10,12,14,-1,-1,-1,16,-1,-1,-1,18,20,-1,-1,-1,22,24,26,-1,-1,-1,-1],"split_conditions":[1.8465819E0,-4.8838088E-1,-7.1083474E-1,4.1451144E-1,4.6167898E-1,4.5913973E-1,6.607721E-1,-3.3165452E-1,3.9636266E-1,3.683126E-1,-0E0,-3.2487777E-1,3.3232108E-1,3.1652033E-1,3.687475E-2,2.633629E0,-2.1102533E-1,1.24333516E-1,6.8678902E-3,7.124298E-2,3.841808E-1,2.333068E-1,1E0,-4.8410956E-2,5.7489857E-2,1.3296376E-1,-2.0990115E-2],"split_indices":[12,13,11,0,11,13,11,11,0,0,0,11,0,0,0,12,13,0,0,0,11,13,10,0,0,0,0],"split_type":[0,0,0,0,0,0,0,0,0,0,0,0,0,0,0,0,0,0,0,0,0,0,0,0,0,0,0],"sum_hessian":[1.51456E3,4.4736005E2,1.0672001E3,2.4928001E2,1.9808002E2,1.8016002E2,8.8704004E2,1.6224E2,3.5840004E1,1.7632E2,3.8400002E0,7.657601E2,1.2128001E2,6.464001E1,9.7600006E1,2.3136002E2,5.344E2,1.7504001E2,5.6320004E1,1.6384001E2,3.7056003E2,2.9568002E2,7.4880005E1,2.5888E2,3.6800003E1,4.7680004E1,2.7200003E1],"tree_param":{"num_deleted":"0","num_feature":"14","num_nodes":"27","size_leaf_vector":"1"}},{"base_weights":[-1.7327268E-1],"categories":[],"categories_nodes":[],"categories_segments":[],"categories_sizes":[],"default_left":[0],"id":1,"left_children":[-1],"loss_changes":[0E0],"parents":[2147483647],"right_children":[-1],"split_conditions":[-6.389219E-2],"split_indices":[0],"split_type":[0],"sum_hessian":[1.4844801E3],"tree_param":{"num_deleted":"0","num_feature":"14","num_nodes":"1","size_leaf_vector":"1"}},{"base_weights":[-4.5077037E-2,-2.6057267E-1,-1.691132E-2,-1.0871718E-1,3.2674804E-2,-7.913719E-2,7.819817E-4,6.793369E-3,-1.4633623E-1,-9.686808E-2,-0E0],"categories":[],"categories_nodes":[],"categories_segments":[],"categories_sizes":[],"default_left":[0,0,0,0,0,0,0,0,0,0,0],"id":2,"left_children":[1,3,5,-1,-1,-1,7,-1,9,-1,-1],"loss_changes":[8.459194E0,2.9397097E0,5.3151956E0,0E0,0E0,0E0,3.0258431E0,0E0,2.6713269E0,0E0,0E0],"parents":[2147483647,0,0,1,1,2,2,6,6,8,8],"right_children":[2,4,6,-1,-1,-1,8,-1,10,-1,-1],"split_conditions":[-8.291691E-1,3.2535586E0,-6.2367785E-1,-1.0871718E-1,3.2674804E-2,-7.913719E-2,7.855913E-1,6.793369E-3,2.3976E0,-9.686808E-2,-0E0],"split_indices":[11,12,13,0,0,0,11,0,12,0,0],"split_type":[0,0,0,0,0,0,0,0,0,0,0],"sum_hessian":[1.4988801E3,1.4592001E2,1.3529601E3,1.4176001E2,4.1600003E0,1.05600006E2,1.2473601E3,1.1427201E3,1.0464001E2,5.8560005E1,4.608E1],"tree_param":{"num_deleted":"0","num_feature":"14","num_nodes":"11","size_leaf_vector":"1"}},{"base_weights":[-1.0625522E-1,-4.0659055E-1,-5.0805565E-2,-1.5565407E-1,3.4068315E-3,-9.185369E-2,4.1313957E-2,9.671271E-2,-1.1014258E-1,-2.517419E-2,4.331058E-2],"categories":[],"categories_nodes":[],"categories_segments":[],"categories_sizes":[],"default_left":[0,0,0,0,0,0,0,0,0,0,0],"id":3,"left_children":[1,3,5,-1,-1,-1,7,9,-1,-1,-1],"loss_changes":[2.3908459E1,2.5408707E0,2.4703247E1,0E0,0E0,0E0,1.7088879E1,2.9967494E0,0E0,0E0,0E0],"parents":[2147483647,0,0,1,1,2,2,6,6,7,7],"right_children":[2,4,6,-1,-1,-1,8,10,-1,-1,-1],"split_conditions":[-7.269209E-1,1E0,1.8465819E0,-1.5565407E-1,3.4068315E-3,-9.185369E-2,7.1054345E-1,-6.0665977E-1,-1.1014258E-1,-2.517419E-2,4.331058E-2],"split_indices":[11,0,12,0,0,0,11,11,0,0,0],"split_type":[0,0,0,0,0,0,0,0,0,0,0],"sum_hessian":[1.5062401E3,2.0992001E2,1.2963201E3,2.0768001E2,2.2400002E0,4.0960004E2,8.867201E2,7.7984E2,1.06880005E2,6.944E1,7.104E2],"tree_param":{"num_deleted":"0","num_feature":"14","num_nodes":"11","size_leaf_vector":"1"}},{"base_weights":[-2.5603673E-1,-1.5809238E-1,-1.5289384E-1,-4.1297588E-1,-7.113261E-2,-1.7851062E-2,-1.7074391E-1,3.218319E-2,-1.4971815E-1,-4.65436E-2,1.0113364E-1,-0E0,2.0765461E-1,1.14598446E-1,1.2260785E-2],"categories":[],"categories_nodes":[],"categories_segments":[],"categories_sizes":[],"default_left":[0,0,0,0,0,0,0,0,0,0,0,0,0,0,0],"id":4,"left_children":[1,-1,3,5,7,-1,-1,9,-1,-1,11,-1,13,-1,-1],"loss_changes":[2.4475662E1,0E0,1.9323372E1,2.4764786E0,2.8179876E1,0E0,0E0,6.821371E0,0E0,0E0,5.2907195E0,0E0,3.0864925E0,0E0,0E0],"parents":[2147483647,0,0,2,2,3,3,4,4,7,7,10,10,12,12],"right_children":[2,-1,4,6,8,-1,-1,10,-1,-1,12,-1,14,-1,-1],"split_conditions":[1.9267234E0,-1.5809238E-1,-6.0665977E-1,1E0,4.7286823E-1,-1.7851062E-2,-1.7074391E-1,-3.3756787E-1,-1.4971815E-1,-4.65436E-2,2.3407156E0,-0E0,9.266839E-2,1.14598446E-1,1.2260785E-2],"split_indices":[12,0,11,2,11,0,0,11,0,0,12,0,13,0,0],"split_type":[0,0,0,0,0,0,0,0,0,0,0,0,0,0,0],"sum_hessian":[1.5017601E3,5.312E2,9.7056006E2,2.0736002E2,7.632001E2,3.52E1,1.7216002E2,5.904E2,1.7280002E2,1.6384001E2,4.2656003E2,2.1664001E2,2.0992001E2,1.14240005E2,9.568001E1],"tree_param":{"num_deleted":"0","num_feature":"14","num_nodes":"15","size_leaf_vector":"1"}},{"base_weights":[4.084226E-1,5.8551735E-1,2.6220098E-1,8.656959E-1,4.8186207E-1,2.8072524E-1,1.9442256E-1,2.3765862E-2,3.635531E-1,3.7083247E-1,2.8667897E-1,1.23083666E-1,2.2586909E-1,2.326899E-1,8.686644E-2,9.366965E-2,5.3623673E-2,7.3218415E-4,6.521492E-2],"categories":[],"categories_nodes":[],"categories_segments":[],"categories_sizes":[],"default_left":[0,0,0,0,0,0,0,0,0,0,0,0,0,0,0,0,0,0,0],"id":5,"left_children":[1,3,5,7,9,-1,11,-1,-1,13,-1,15,-1,-1,-1,-1,17,-1,-1],"loss_changes":[4.020578E1,1.132724E1,2.8603302E1,1.3382385E1,1.1836609E1,0E0,2.3803059E1,0E0,0E0,1.2127632E1,0E0,6.2836456E0,0E0,0E0,0E0,0E0,3.1121511E0,0E0,0E0],"parents":[2147483647,0,0,1,1,2,2,3,3,4,4,6,6,9,9,11,11,16,16],"right_children":[2,4,6,8,10,-1,12,-1,-1,14,-1,16,-1,-1,-1,-1,18,-1,-1],"split_conditions":[2.0031004E0,-5.189282E-1,-9.322109E-1,1E0,4.6167898E-1,2.8072524E-1,7.5388926E-1,2.3765862E-2,3.635531E-1,1.4492018E0,2.8667897E-1,-4.5781788E-1,2.2586909E-1,2.326899E-1,8.686644E-2,9.366965E-2,3.5516068E-1,7.3218415E-4,6.521492E-2],"split_indices":[12,11,11,2,11,0,11,0,0,12,0,11,0,0,0,0,11,0,0],"split_type":[0,0,0,0,0,0,0,0,0,0,0,0,0,0,0,0,0,0,0],"sum_hessian":[1.7217117E3,7.463422E2,9.753694E2,1.5895201E2,5.873902E2,8.998385E1,8.8538556E2,2.7023766E1,1.3192824E2,4.629136E2,1.2447661E2,7.814937E2,1.0389188E2,1.292926E2,3.33621E2,2.4198984E2,5.3950385E2,4.0707834E2,1.3242549E2],"tree_param":{"num_deleted":"0","num_feature":"14","num_nodes":"19","size_leaf_vector":"1"}},{"base_weights":[-1.0371951E-1],"categories":[],"categories_nodes":[],"categories_segments":[],"categories_sizes":[],"default_left":[0],"id":6,"left_children":[-1],"loss_changes":[0E0],"parents":[2147483647],"right_children":[-1],"split_conditions":[-3.8245305E-2],"split_indices":[0],"split_type":[0],"sum_hessian":[1.4250477E3],"tree_param":{"num_deleted":"0","num_feature":"14","num_nodes":"1","size_leaf_vector":"1"}},{"base_weights":[-4.072124E-2,-9.7626425E-2,-2.1534894E-2,-4.4757217E-2,2.51114E-2,-9.979726E-3,-7.4706696E-2],"categories":[],"categories_nodes":[],"categories_segments":[],"categories_sizes":[],"default_left":[0,0,0,0,0,0,0],"id":7,"left_children":[1,-1,3,5,-1,-1,-1],"loss_changes":[5.601883E0,0E0,2.9146554E0,2.5429082E0,0E0,0E0,0E0],"parents":[2147483647,0,0,2,2,3,3],"right_children":[2,-1,4,6,-1,-1,-1],"split_conditions":[-9.47396E-1,-9.7626425E-2,6.344755E-2,7.5388926E-1,2.51114E-2,-9.979726E-3,-7.4706696E-2],"split_indices":[11,0,13,11,0,0,0],"split_type":[0,0,0,0,0,0,0],"sum_hessian":[1.4697372E3,8.755766E1,1.3821796E3,1.1264061E3,2.5577344E2,1.0458754E3,8.0530785E1],"tree_param":{"num_deleted":"0","num_feature":"14","num_nodes":"7","size_leaf_vector":"1"}},{"base_weights":[-8.361045E-2,-7.4118756E-2,-0E0],"categories":[],"categories_nodes":[],"categories_segments":[],"categories_sizes":[],"default_left":[0,0,0],"id":8,"left_children":[1,-1,-1],"loss_changes":[1.4447541E1,0E0,0E0],"parents":[2147483647,0,0],"right_children":[2,-1,-1],"split_conditions":[2.02352E0,-7.4118756E-2,-0E0],"split_indices":[12,0,0],"split_type":[0,0,0],"sum_hessian":[1.4603392E3,5.951211E2,8.652181E2],"tree_param":{"num_deleted":"0","num_feature":"14","num_nodes":"3","size_leaf_vector":"1"}},{"base_weights":[-2.2830646E-1,-3.38306E-1,-1.1338911E-1,-1.309056E-1,-1.4671398E-2,-1.2849383E-1,-3.452161E-2,5.232466E-2,-1.23464316E-1,1.13979295E-1,-2.6412573E-2,1.9235162E-1,-1.4926865E-2,-0E0,9.209928E-2],"categories":[],"categories_nodes":[],"categories_segments":[],"categories_sizes":[],"default_left":[0,0,0,0,0,0,0,0,0,0,0,0,0,0,0],"id":9,"left_children":[1,3,5,-1,-1,-1,7,9,-1,11,-1,13,-1,-1,-1],"loss_changes":[1.637764E1,2.3523178E0,1.2597823E1,0E0,0E0,0E0,1.6205E1,3.7804847E0,0E0,4.484291E0,0E0,2.323822E0,0E0,0E0,0E0],"parents":[2147483647,0,0,1,1,2,2,6,6,7,7,9,9,11,11],"right_children":[2,4,6,-1,-1,-1,8,10,-1,12,-1,14,-1,-1,-1],"split_conditions":[2.1277752E0,1E0,-5.9356827E-1,-1.309056E-1,-1.4671398E-2,-1.2849383E-1,4.7286823E-1,9.266839E-2,-1.23464316E-1,1E0,-2.6412573E-2,-3.3756787E-1,-1.4926865E-2,-0E0,9.209928E-2],"split_indices":[12,7,11,0,0,0,11,13,0,10,0,11,0,0,0],"split_type":[0,0,0,0,0,0,0,0,0,0,0,0,0,0,0],"sum_hessian":[1.4189595E3,6.961063E2,7.2285315E2,6.48294E2,4.7812336E1,1.5820215E2,5.64651E2,4.4348102E2,1.21170006E2,3.1013672E2,1.3334427E2,2.1311833E2,9.70184E1,5.6915966E1,1.5620236E2],"tree_param":{"num_deleted":"0","num_feature":"14","num_nodes":"15","size_leaf_vector":"1"}},{"base_weights":[2.8325748E-1,5.273336E-1,2.0861788E-1,5.4772663E-1,-0E0,1.4458466E-1,1.0889897E-1,2.0655267E-1,-0E0,6.175256E-2,2.0735133E-1,7.959355E-2,-3.4596227E-2,5.76306E-2,1.1484627E-2],"categories":[],"categories_nodes":[],"categories_segments":[],"categories_sizes":[],"default_left":[0,0,0,0,0,0,0,0,0,0,0,0,0,0,0],"id":10,"left_children":[1,3,5,7,-1,-1,9,-1,-1,11,-1,13,-1,-1,-1],"loss_changes":[3.0093628E1,4.237976E0,2.4762547E1,3.0424576E0,0E0,0E0,1.8833626E1,0E0,0E0,2.639368E0,0E0,2.5946221E0,0E0,0E0,0E0],"parents":[2147483647,0,0,1,1,2,2,3,3,6,6,9,9,11,11],"right_children":[2,4,6,8,-1,-1,10,-1,-1,12,-1,14,-1,-1,-1],"split_conditions":[-6.2415695E-1,3.1148543E0,1.806322E0,1E0,-0E0,1.4458466E-1,9.682681E-1,2.0655267E-1,-0E0,1E0,2.0735133E-1,2.1277752E0,-3.4596227E-2,5.76306E-2,1.1484627E-2],"split_indices":[11,12,12,0,0,0,11,0,0,7,0,12,0,0,0],"split_type":[0,0,0,0,0,0,0,0,0,0,0,0,0,0,0],"sum_hessian":[1.8414333E3,3.9769586E2,1.4437375E3,3.8142255E2,1.627331E1,4.8094928E2,9.627882E2,3.735695E2,7.8530354E0,8.957514E2,6.7036804E1,8.255116E2,7.023981E1,2.8455624E2,5.409554E2],"tree_param":{"num_deleted":"0","num_feature":"14","num_nodes":"15","size_leaf_vector":"1"}},{"base_weights":[-8.362243E-2,1.6774736E-2,-4.0034153E-2,-5.017978E-2,1.7078926E-1,-1.4536241E-2,8.71769E-2],"categories":[],"categories_nodes":[],"categories_segments":[],"categories_sizes":[],"default_left":[0,0,0,0,0,0,0],"id":11,"left_children":[1,3,-1,-1,5,-1,-1],"loss_changes":[3.7438097E0,6.9568186E0,0E0,0E0,2.7477903E0,0E0,0E0],"parents":[2147483647,0,0,1,1,4,4],"right_children":[2,4,-1,-1,6,-1,-1],"split_conditions":[-6.157738E-1,-1.6117862E-1,-4.0034153E-2,-5.017978E-2,1E0,-1.4536241E-2,8.71769E-2],"split_indices":[11,13,0,0,2,0,0],"split_type":[0,0,0,0,0,0,0],"sum_hessian":[1.3747573E3,2.5559088E2,1.1191664E3,1.2149079E2,1.341001E2,2.4906487E1,1.0919361E2],"tree_param":{"num_deleted":"0","num_feature":"14","num_nodes":"7","size_leaf_vector":"1"}},{"base_weights":[-3.2111958E-2,-4.403964E-2,-1.1151766E-4,1.947598E-2,-1.4526354E-2],"categories":[],"categories_nodes":[],"categories_segments":[],"categories_sizes":[],"default_left":[0,0,0,0,0],"id":12,"left_children":[1,-1,3,-1,-1],"loss_changes":[3.8557997E0,0E0,2.3424542E0,0E0,0E0],"parents":[2147483647,0,0,2,2],"right_children":[2,-1,4,-1,-1],"split_conditions":[-5.0117534E-1,-4.403964E-2,-6.0351864E-2,1.947598E-2,-1.4526354E-2],"split_indices":[11,0,11,0,0],"split_type":[0,0,0,0,0],"sum_hessian":[1.4647751E3,3.5922687E2,1.1055483E3,4.4214792E2,6.634003E2],"tree_param":{"num_deleted":"0","num_feature":"14","num_nodes":"5","size_leaf_vector":"1"}},{"base_weights":[-7.151422E-2,-1.2344632E-1,-7.792814E-3,4.1234713E-2,-2.3102777E-1,-6.828548E-2,1.2243948E-1,-1.2199612E-1,2.7927058E-3,-7.752853E-2,-0E0,5.7640158E-2,-0E0,-6.5469876E-2,1.555027E-2],"categories":[],"categories_nodes":[],"categories_segments":[],"categories_sizes":[],"default_left":[0,0,0,0,0,0,0,0,0,0,0,0,0,0,0],"id":13,"left_children":[1,-1,3,5,7,9,11,-1,-1,-1,13,-1,-1,-1,-1],"loss_changes":[2.3106466E1,0E0,1.3513393E1,8.925425E0,6.149788E0,3.6290476E0,2.4591055E0,0E0,0E0,0E0,2.6645656E0,0E0,0E0,0E0,0E0],"parents":[2147483647,0,0,2,2,3,3,4,4,5,5,6,6,10,10],"right_children":[2,-1,4,6,8,10,12,-1,-1,-1,14,-1,-1,-1,-1],"split_conditions":[-6.0665977E-1,-1.2344632E-1,5.178111E-1,1.9936073E0,2.4693642E-2,-2.72664E-1,2.7093487E0,-1.2199612E-1,2.7927058E-3,-7.752853E-2,-6.151651E-1,5.7640158E-2,-0E0,-6.5469876E-2,1.555027E-2],"split_indices":[11,0,11,12,13,11,12,0,0,0,13,0,0,0,0],"split_type":[0,0,0,0,0,0,0,0,0,0,0,0,0,0,0],"sum_hessian":[1.4111469E3,2.524594E2,1.1586875E3,9.5341376E2,2.0527371E2,3.945357E2,5.5887805E2,1.4686215E2,5.8411556E1,1.07343834E2,2.871919E2,4.3645E2,1.2242806E2,5.1925022E1,2.3526686E2],"tree_param":{"num_deleted":"0","num_feature":"14","num_nodes":"15","size_leaf_vector":"1"}},{"base_weights":[-1.9420207E-1,-1.2528603E-1,-1.1761201E-1,-1.2983133E-1,-4.955027E-2,6.392331E-3,-1.1148565E-1],"categories":[],"categories_nodes":[],"categories_segments":[],"categories_sizes":[],"default_left":[0,0,0,0,0,0,0],"id":14,"left_children":[1,-1,3,-1,5,-1,-1],"loss_changes":[1.3101498E1,0E0,1.3340799E1,0E0,1.32889E1,0E0,0E0],"parents":[2147483647,0,0,2,2,4,4],"right_children":[2,-1,4,-1,6,-1,-1],"split_conditions":[1.9267234E0,-1.2528603E-1,-6.0665977E-1,-1.2983133E-1,4.431122E-1,6.392331E-3,-1.1148565E-1],"split_indices":[12,0,11,0,11,0,0],"split_type":[0,0,0,0,0,0,0],"sum_hessian":[1.3212793E3,4.22996E2,8.9828326E2,1.769391E2,7.213442E2,5.763534E2,1.4499075E2],"tree_param":{"num_deleted":"0","num_feature":"14","num_nodes":"7","size_leaf_vector":"1"}},{"base_weights":[2.1111774E-1,4.9647197E-1,1.7206264E-1,1.9913682E-1,-0E0,1.3580911E-1,1.11706264E-1,6.465678E-2,1.55522E-1,1.6776402E-1,1.914205E-2,2.6215976E-1,5.507572E-2,-5.316152E-3,4.579353E-2,-0E0,1.1775984E-1,-2.9876266E-2,5.3422008E-2],"categories":[],"categories_nodes":[],"categories_segments":[],"categories_sizes":[],"default_left":[0,0,0,0,0,0,0,0,0,0,0,0,0,0,0,0,0,0,0],"id":15,"left_children":[1,3,5,-1,-1,-1,7,9,-1,11,13,15,17,-1,-1,-1,-1,-1,-1],"loss_changes":[1.840039E1,3.3914452E0,1.8679344E1,0E0,0E0,0E0,1.8242264E1,5.185829E0,0E0,2.726943E0,3.3953066E0,2.8393764E0,2.7609828E0,0E0,0E0,0E0,0E0,0E0,0E0],"parents":[2147483647,0,0,1,1,2,2,6,6,7,7,9,9,10,10,11,11,12,12],"right_children":[2,4,6,-1,-1,-1,8,10,-1,12,14,16,18,-1,-1,-1,-1,-1,-1],"split_conditions":[-8.556117E-1,2.8592246E0,1.6311141E0,1.9913682E-1,-0E0,1.3580911E-1,7.725653E-1,-4.5116246E-1,1.55522E-1,2.2171452E0,3.5516068E-1,1E0,-2.9439824E-2,-5.316152E-3,4.579353E-2,-0E0,1.1775984E-1,-2.9876266E-2,5.3422008E-2],"split_indices":[11,12,12,0,0,0,11,11,0,12,11,2,13,0,0,0,0,0,0],"split_type":[0,0,0,0,0,0,0,0,0,0,0,0,0,0,0,0,0,0,0],"sum_hessian":[1.917586E3,1.9763065E2,1.7199553E3,1.7581795E2,2.1812698E1,3.7320963E2,1.3467457E3,1.1952574E3,1.5148831E2,3.3477615E2,8.6048126E2,1.5733044E2,1.774457E2,6.467163E2,2.1376497E2,2.9437635E1,1.27892815E2,6.0581207E1,1.16864494E2],"tree_param":{"num_deleted":"0","num_feature":"14","num_nodes":"19","size_leaf_vector":"1"}},{"base_weights":[-8.8004924E-2,-0E0,-1.0805621E-1,-1.819841E-2,-6.4131424E-2],"categories":[],"categories_nodes":[],"categories_segments":[],"categories_sizes":[],"default_left":[0,0,0,0,0],"id":16,"left_children":[1,-1,3,-1,-1],"loss_changes":[2.412015E0,0E0,3.6148252E0,0E0,0E0],"parents":[2147483647,0,0,2,2],"right_children":[2,-1,4,-1,-1],"split_conditions":[-6.157738E-1,-0E0,2.1798053E0,-1.819841E-2,-6.4131424E-2],"split_indices":[11,0,12,0,0],"split_type":[0,0,0,0,0],"sum_hessian":[1.3508064E3,2.5439032E2,1.096416E3,6.159985E2,4.8041763E2],"tree_param":{"num_deleted":"0","num_feature":"14","num_nodes":"5","size_leaf_vector":"1"}},{"base_weights":[-1.1658086E-2],"categories":[],"categories_nodes":[],"categories_segments":[],"categories_sizes":[],"default_left":[0],"id":17,"left_children":[-1],"loss_changes":[0E0],"parents":[2147483647],"right_children":[-1],"split_conditions":[-4.2987773E-3],"split_indices":[0],"split_type":[0],"sum_hessian":[1.4339801E3],"tree_param":{"num_deleted":"0","num_feature":"14","num_nodes":"1","size_leaf_vector":"1"}},{"base_weights":[-6.363061E-2,-1.2750117E-1,-2.3243394E-2,1.1756779E-2,-1.3398509E-1,-8.146697E-2,7.005838E-2,-8.89423E-2,-1.1473695E-2,1.711654E-1,8.030944E-3,-3.2547664E-2,2.0729995E-1,-1.2572105E-2,9.549177E-2],"categories":[],"categories_nodes":[],"categories_segments":[],"categories_sizes":[],"default_left":[0,0,0,0,0,0,0,0,0,0,0,0,0,0,0],"id":18,"left_children":[1,-1,3,5,-1,7,9,-1,-1,11,-1,-1,13,-1,-1],"loss_changes":[1.4923777E1,0E0,1.5833509E1,6.309726E0,0E0,2.695309E0,3.0363526E0,0E0,0E0,2.6609159E0,0E0,0E0,3.2549248E0,0E0,0E0],"parents":[2147483647,0,0,2,2,3,3,5,5,6,6,9,9,12,12],"right_children":[2,-1,4,6,-1,8,10,-1,-1,12,-1,-1,14,-1,-1],"split_conditions":[-7.4037546E-1,-1.2750117E-1,7.276877E-1,1.9745408E0,-1.3398509E-1,-4.2481154E-1,-1.7318344E-1,-8.89423E-2,-1.1473695E-2,-3.483141E-1,8.030944E-3,-3.2547664E-2,-5.189282E-1,-1.2572105E-2,9.549177E-2],"split_indices":[11,0,11,12,0,11,13,0,0,13,0,0,11,0,0],"split_type":[0,0,0,0,0,0,0,0,0,0,0,0,0,0,0],"sum_hessian":[1.3823275E3,1.4829831E2,1.2340293E3,1.1284774E3,1.055519E2,4.1549463E2,7.129827E2,7.148638E1,3.4400824E2,1.992397E2,5.1374304E2,1.2976457E1,1.8626324E2,2.5712189E1,1.6055106E2],"tree_param":{"num_deleted":"0","num_feature":"14","num_nodes":"15","size_leaf_vector":"1"}},{"base_weights":[-1.6268802E-1,-1.1540038E-1,-8.9946486E-2,-2.799222E-1,-3.9148554E-2,-0E0,-1.263232E-1,3.9477192E-2,-2.095247E-1,-2.3738815E-2,6.69484E-2,-9.7006515E-2,-0E0,3.300938E-2,-3.2236118E-2],"categories":[],"categories_nodes":[],"categories_segments":[],"categories_sizes":[],"default_left":[0,0,0,0,0,0,0,0,0,0,0,0,0,0,0],"id":19,"left_children":[1,-1,3,5,7,-1,-1,9,11,13,-1,-1,-1,-1,-1],"loss_changes":[1.2188835E1,0E0,7.5174656E0,2.8012552E0,1.027569E1,0E0,0E0,4.9673862E0,2.3341904E0,2.6755736E0,0E0,0E0,0E0,0E0,0E0],"parents":[2147483647,0,0,2,2,3,3,4,4,7,7,8,8,9,9],"right_children":[2,-1,4,6,8,-1,-1,10,12,14,-1,-1,-1,-1,-1],"split_conditions":[1.9267234E0,-1.1540038E-1,-5.9997874E-1,1E0,2.3295529E-1,-0E0,-1.263232E-1,-5.5856664E-2,2.7093487E0,1E0,6.69484E-2,-9.7006515E-2,-0E0,3.300938E-2,-3.2236118E-2],"split_indices":[12,0,11,2,11,0,0,11,12,2,0,0,0,0,0],"split_type":[0,0,0,0,0,0,0,0,0,0,0,0,0,0,0],"sum_hessian":[1.2327228E3,3.715697E2,8.61153E2,1.5426474E2,7.068883E2,3.3482956E1,1.2078178E2,4.8361603E2,2.2327228E2,3.335061E2,1.5010992E2,1.6866113E2,5.4611145E1,1.0374028E2,2.2976582E2],"tree_param":{"num_deleted":"0","num_feature":"14","num_nodes":"15","size_leaf_vector":"1"}},{"base_weights":[1.5548952E-1,1.5976134E-1,1.3169721E-1,1.0862075E-1,1.6718858E-1,1.5693165E-1,8.410213E-2,1.8452206E-1,3.8272075E-2,3.0720446E-1,5.8667414E-2,-1.7860342E-3,1.287198E-1,1.4992513E-1,-4.0379193E-2,-1.476996E-2,5.1505856E-2,6.803986E-2,-2.079586E-2],"categories":[],"categories_nodes":[],"categories_segments":[],"categories_sizes":[],"default_left":[0,0,0,0,0,0,0,0,0,0,0,0,0,0,0,0,0,0,0],"id":20,"left_children":[1,-1,3,5,-1,-1,7,9,11,13,15,-1,17,-1,-1,-1,-1,-1,-1],"loss_changes":[1.0644989E1,0E0,1.1502201E1,1.1796297E1,0E0,0E0,6.990407E0,6.5096054E0,4.91901E0,1.1437511E1,2.5751455E0,0E0,4.633525E0,0E0,0E0,0E0,0E0,0E0,0E0],"parents":[2147483647,0,0,2,2,3,3,6,6,7,7,8,8,9,9,10,10,12,12],"right_children":[2,-1,4,6,-1,-1,8,10,12,14,16,-1,18,-1,-1,-1,-1,-1,-1],"split_conditions":[-9.9034464E-1,1.5976134E-1,9.426505E-1,1.2723553E0,1.6718858E-1,1.5693165E-1,-4.5781788E-1,2.124124E0,3.0032766E-1,1E0,-3.836085E-2,-1.7860342E-3,2.5859046E0,1.4992513E-1,-4.0379193E-2,-1.476996E-2,5.1505856E-2,6.803986E-2,-2.079586E-2],"split_indices":[11,0,11,12,0,0,11,12,11,3,13,0,12,0,0,0,0,0,0],"split_type":[0,0,0,0,0,0,0,0,0,0,0,0,0,0,0,0,0,0,0],"sum_hessian":[1.9563936E3,1.21517715E2,1.8348757E3,1.741892E3,9.2983826E1,9.652197E1,1.64537E3,4.817769E2,1.1635931E3,2.2091652E2,2.6086038E2,7.816519E2,3.819412E2,1.8340323E2,3.7513298E1,1.0833827E2,1.5252211E2,3.0352637E2,7.841483E1],"tree_param":{"num_deleted":"0","num_feature":"14","num_nodes":"19","size_leaf_vector":"1"}},{"base_weights":[-5.85162E-2],"categories":[],"categories_nodes":[],"categories_segments":[],"categories_sizes":[],"default_left":[0],"id":21,"left_children":[-1],"loss_changes":[0E0],"parents":[2147483647],"right_children":[-1],"split_conditions":[-2.1577137E-2],"split_indices":[0],"split_type":[0],"sum_hessian":[1.312693E3],"tree_param":{"num_deleted":"0","num_feature":"14","num_nodes":"1","size_leaf_vector":"1"}},{"base_weights":[4.907E-3,-6.255437E-2,6.530179E-3],"categories":[],"categories_nodes":[],"categories_segments":[],"categories_sizes":[],"default_left":[0,0,0],"id":22,"left_children":[1,-1,-1],"loss_changes":[2.931543E0,0E0,0E0],"parents":[2147483647,0,0],"right_children":[2,-1,-1],"split_conditions":[-9.47396E-1,-6.255437E-2,6.530179E-3],"split_indices":[11,0,0],"split_type":[0,0,0],"sum_hessian":[1.4328096E3,6.9729126E1,1.3630804E3],"tree_param":{"num_deleted":"0","num_feature":"14","num_nodes":"3","size_leaf_vector":"1"}},{"base_weights":[-3.8465098E-2,-1.1494801E-1,-8.443164E-3,2.9450826E-2,-2.184422E-1,-6.63313E-2,3.357179E-2,-1.0367215E-1,-0E0,-9.24992E-2,-2.7937244E-4],"categories":[],"categories_nodes":[],"categories_segments":[],"categories_sizes":[],"default_left":[0,0,0,0,0,0,0,0,0,0,0],"id":23,"left_children":[1,-1,3,5,7,9,-1,-1,-1,-1,-1],"loss_changes":[1.0535948E1,0E0,1.071058E1,6.574511E0,2.6155796E0,4.473685E0,0E0,0E0,0E0,0E0,0E0],"parents":[2147483647,0,0,2,2,3,3,4,4,5,5],"right_children":[2,-1,4,6,8,10,-1,-1,-1,-1,-1],"split_conditions":[-7.793699E-1,-1.1494801E-1,5.050343E-1,1.9936073E0,2.601203E0,-4.2481154E-1,3.357179E-2,-1.0367215E-1,-0E0,-9.24992E-2,-2.7937244E-4],"split_indices":[11,0,11,12,12,11,0,0,0,0,0],"split_type":[0,0,0,0,0,0,0,0,0,0,0],"sum_hessian":[1.3658771E3,1.1026495E2,1.2556122E3,1.067275E3,1.8833714E2,4.018463E2,6.654287E2,1.3952722E2,4.880992E1,8.2171326E1,3.19675E2],"tree_param":{"num_deleted":"0","num_feature":"14","num_nodes":"11","size_leaf_vector":"1"}},{"base_weights":[-1.6003115E-1,-1.1519001E-1,-1.0970426E-1,-3.088761E-1,-6.0139325E-2,-0E0,-1.4022867E-1,-2.524934E-3,-2.7764842E-1,-1.19120374E-1,1.0617394E-2],"categories":[],"categories_nodes":[],"categories_segments":[],"categories_sizes":[],"default_left":[0,0,0,0,0,0,0,0,0,0,0],"id":24,"left_children":[1,-1,3,5,7,-1,-1,-1,9,-1,-1],"loss_changes":[7.3730145E0,0E0,7.8933268E0,3.5485954E0,8.232266E0,0E0,0E0,0E0,2.8637943E0,0E0,0E0],"parents":[2147483647,0,0,2,2,3,3,4,4,8,8],"right_children":[2,-1,4,6,8,-1,-1,-1,10,-1,-1],"split_conditions":[1.811957E0,-1.1519001E-1,-5.9997874E-1,1E0,4.9530005E-1,-0E0,-1.4022867E-1,-2.524934E-3,1E0,-1.19120374E-1,1.0617394E-2],"split_indices":[12,0,11,2,11,0,0,0,2,0,0],"split_type":[0,0,0,0,0,0,0,0,0,0,0],"sum_hessian":[1.1577134E3,2.5191522E2,9.057981E2,1.5173341E2,7.540647E2,3.332774E1,1.1840567E2,6.297269E2,1.2433779E2,1.1428066E2,1.0057124E1],"tree_param":{"num_deleted":"0","num_feature":"14","num_nodes":"11","size_leaf_vector":"1"}},{"base_weights":[1.3768806E-1,1.7529307E-1,3.6720347E-2,1.5387547E-1,1.606743E-1,1.0508999E-1,-0E0,2.4748816E-1,8.855839E-2,-6.1189365E-3,9.392903E-2,-5.3246603E-3,3.1074294E-1,1.08064346E-1,-4.2371053E-2,1.3896976E-1,3.722654E-2,1.09800786E-1,3.0254513E-2],"categories":[],"categories_nodes":[],"categories_segments":[],"categories_sizes":[],"default_left":[0,0,0,0,0,0,0,0,0,0,0,0,0,0,0,0,0,0,0],"id":25,"left_children":[1,3,5,7,-1,-1,9,11,13,-1,-1,-1,15,17,-1,-1,-1,-1,-1],"loss_changes":[7.0365486E0,5.4335556E0,4.948699E0,7.199505E0,0E0,0E0,2.6903229E0,9.742104E0,3.599413E0,0E0,0E0,0E0,4.300518E0,2.5828457E0,0E0,0E0,0E0,0E0,0E0],"parents":[2147483647,0,0,1,1,2,2,3,3,6,6,7,7,8,8,12,12,13,13],"right_children":[2,4,6,8,-1,-1,10,12,14,-1,-1,-1,16,18,-1,-1,-1,-1,-1],"split_conditions":[2.4040835E0,9.000523E-1,-1.0131886E0,-3.2487777E-1,1.606743E-1,1.0508999E-1,1.096419E0,1E0,1E0,-6.1189365E-3,9.392903E-2,-5.3246603E-3,2.124124E0,1.2470493E0,-4.2371053E-2,1.3896976E-1,3.722654E-2,1.09800786E-1,3.0254513E-2],"split_indices":[12,11,11,11,0,0,11,2,7,0,0,0,12,12,0,0,0,0,0],"split_type":[0,0,0,0,0,0,0,0,0,0,0,0,0,0,0,0,0,0,0],"sum_hessian":[2.0005454E3,1.4304437E3,5.701016E2,1.3571937E3,7.325009E1,5.239979E1,5.1770184E2,5.216454E2,8.355483E2,4.9672055E2,2.0981297E1,9.680484E1,4.2484058E2,7.810906E2,5.44577E1,3.031956E2,1.21645E2,5.997697E1,7.211136E2],"tree_param":{"num_deleted":"0","num_feature":"14","num_nodes":"19","size_leaf_vector":"1"}},{"base_weights":[-4.5706782E-2],"categories":[],"categories_nodes":[],"categories_segments":[],"categories_sizes":[],"default_left":[0],"id":26,"left_children":[-1],"loss_changes":[0E0],"parents":[2147483647],"right_children":[-1],"split_conditions":[-1.6853819E-2],"split_indices":[0],"split_type":[0],"sum_hessian":[1.2749624E3],"tree_param":{"num_deleted":"0","num_feature":"14","num_nodes":"1","size_leaf_vector":"1"}},{"base_weights":[-9.149049E-3,-1.17222905E-1,4.070423E-3,-1.0279158E-1,-1.0104445E-2],"categories":[],"categories_nodes":[],"categories_segments":[],"categories_sizes":[],"default_left":[0,0,0,0,0],"id":27,"left_children":[1,3,-1,-1,-1],"loss_changes":[3.4687226E0,2.7560308E0,0E0,0E0,0E0],"parents":[2147483647,0,0,1,1],"right_children":[2,4,-1,-1,-1],"split_conditions":[-6.2415695E-1,-3.0424148E-1,4.070423E-3,-1.0279158E-1,-1.0104445E-2],"split_indices":[11,13,0,0,0],"split_type":[0,0,0,0,0],"sum_hessian":[1.4434106E3,2.321384E2,1.2112722E3,5.9610203E1,1.725282E2],"tree_param":{"num_deleted":"0","num_feature":"14","num_nodes":"5","size_leaf_vector":"1"}},{"base_weights":[-3.194492E-2,-9.60458E-2,-6.2465006E-3,2.604539E-2,-7.624047E-2,-7.274637E-2,2.7386645E-2,2.7517822E-2,-1.5937355E-1,6.030147E-2,-3.973416E-2,-1.0343131E-1,2.5098978E-3],"categories":[],"categories_nodes":[],"categories_segments":[],"categories_sizes":[],"default_left":[0,0,0,0,0,0,0,0,0,0,0,0,0],"id":28,"left_children":[1,-1,3,5,-1,7,-1,9,11,-1,-1,-1,-1],"loss_changes":[7.4299955E0,0E0,8.747283E0,5.3356586E0,0E0,3.4653955E0,0E0,3.5184636E0,4.82209E0,0E0,0E0,0E0,0E0],"parents":[2147483647,0,0,2,2,3,3,5,5,7,7,8,8],"right_children":[2,-1,4,6,-1,8,-1,10,12,-1,-1,-1,-1],"split_conditions":[-7.576398E-1,-9.60458E-2,5.178111E-1,-3.28284E-1,-7.624047E-2,1E0,2.7386645E-2,1.0573609E-1,-1.0788641E-1,6.030147E-2,-3.973416E-2,-1.0343131E-1,2.5098978E-3],"split_indices":[11,0,11,13,0,2,0,11,11,0,0,0,0],"split_type":[0,0,0,0,0,0,0,0,0,0,0,0,0],"sum_hessian":[1.3613981E3,1.11241974E2,1.2501561E3,1.0801072E3,1.7004897E2,3.3485974E2,7.452474E2,1.4810222E2,1.8675754E2,8.0827385E1,6.727483E1,1.09131454E2,7.762608E1],"tree_param":{"num_deleted":"0","num_feature":"14","num_nodes":"13","size_leaf_vector":"1"}},{"base_weights":[-1.01859614E-1,-8.336201E-2,-4.8611317E-2,-1.8755618E-1,-0E0,1.706529E-2,-1.0045456E-1,8.614441E-2,-1.6097747E-1,5.5820294E-2,-1.0898138E-2,-8.043051E-2,2.8236844E-2],"categories":[],"categories_nodes":[],"categories_segments":[],"categories_sizes":[],"default_left":[0,0,0,0,0,0,0,0,0,0,0,0,0],"id":29,"left_children":[1,-1,3,5,7,-1,-1,9,11,-1,-1,-1,-1],"loss_changes":[6.560711E0,0E0,5.710723E0,5.094137E0,8.834032E0,0E0,0E0,3.5549405E0,3.6370425E0,0E0,0E0,0E0,0E0],"parents":[2147483647,0,0,2,2,3,3,4,4,7,7,8,8],"right_children":[2,-1,4,6,8,-1,-1,10,12,-1,-1,-1,-1],"split_conditions":[1.9267234E0,-8.336201E-2,-4.5781788E-1,1E0,2.3295529E-1,1.706529E-2,-1.0045456E-1,1.2040902E-2,1E0,5.5820294E-2,-1.0898138E-2,-8.043051E-2,2.8236844E-2],"split_indices":[12,0,11,2,11,0,0,13,2,0,0,0,0],"split_type":[0,0,0,0,0,0,0,0,0,0,0,0,0],"sum_hessian":[1.104113E3,2.9989505E2,8.0421796E2,1.9929971E2,6.049183E2,4.7726006E1,1.5157372E2,4.029384E2,2.0197986E2,2.6737067E2,1.3556772E2,1.7219826E2,2.9781609E1],"tree_param":{"num_deleted":"0","num_feature":"14","num_nodes":"13","size_leaf_vector":"1"}},{"base_weights":[1.0252882E-1,1.3756461E-1,8.881589E-2,7.199389E-2,3.3675542E-1,1.1073687E-1,5.217043E-2,1.5688577E-1,-0E0,2.485268E-2,-4.0414862E-2],"categories":[],"categories_nodes":[],"categories_segments":[],"categories_sizes":[],"default_left":[0,0,0,0,0,0,0,0,0,0,0],"id":30,"left_children":[1,-1,3,5,7,-1,9,-1,-1,-1,-1],"loss_changes":[5.618561E0,0E0,6.5585165E0,7.1271496E0,3.2276888E0,0E0,4.2504764E0,0E0,0E0,0E0,0E0],"parents":[2147483647,0,0,2,2,3,3,4,4,6,6],"right_children":[2,-1,4,6,8,-1,10,-1,-1,-1,-1],"split_conditions":[-7.377731E-1,1.3756461E-1,9.2144334E-1,-9.9034464E-1,5.050737E-2,1.1073687E-1,1E0,1.5688577E-1,-0E0,2.485268E-2,-4.0414862E-2],"split_indices":[13,0,11,11,13,0,7,0,0,0,0],"split_type":[0,0,0,0,0,0,0,0,0,0,0],"sum_hessian":[1.9596582E3,6.293078E1,1.8967274E3,1.8074261E3,8.930136E1,1.139982E2,1.6934279E3,6.694112E1,2.2360243E1,1.5711006E3,1.2232737E2],"tree_param":{"num_deleted":"0","num_feature":"14","num_nodes":"11","size_leaf_vector":"1"}},{"base_weights":[-3.384461E-2,2.8212136E-3,-3.0627485E-2],"categories":[],"categories_nodes":[],"categories_segments":[],"categories_sizes":[],"default_left":[0,0,0],"id":31,"left_children":[1,-1,-1],"loss_changes":[2.7610085E0,0E0,0E0],"parents":[2147483647,0,0],"right_children":[2,-1,-1],"split_conditions":[1E0,2.8212136E-3,-3.0627485E-2],"split_indices":[3,0,0],"split_type":[0,0,0],"sum_hessian":[1.2389672E3,6.5401715E2,5.8494995E2],"tree_param":{"num_deleted":"0","num_feature":"14","num_nodes":"3","size_leaf_vector":"1"}},{"base_weights":[9.967855E-3],"categories":[],"categories_nodes":[],"categories_segments":[],"categories_sizes":[],"default_left":[0],"id":32,"left_children":[-1],"loss_changes":[0E0],"parents":[2147483647],"right_children":[-1],"split_conditions":[3.675525E-3],"split_indices":[0],"split_type":[0],"sum_hessian":[1.4084657E3],"tree_param":{"num_deleted":"0","num_feature":"14","num_nodes":"1","size_leaf_vector":"1"}},{"base_weights":[-4.6162643E-2,-8.423115E-2,-2.5420913E-2,3.503402E-3,-1.358516E-1,-5.4715965E-2,9.25578E-3,-7.663088E-2,-0E0],"categories":[],"categories_nodes":[],"categories_segments":[],"categories_sizes":[],"default_left":[0,0,0,0,0,0,0,0,0],"id":33,"left_children":[1,-1,3,5,7,-1,-1,-1,-1],"loss_changes":[4.414055E0,0E0,4.324419E0,3.0255635E0,2.5146136E0,0E0,0E0,0E0,0E0],"parents":[2147483647,0,0,2,2,3,3,4,4],"right_children":[2,-1,4,6,8,-1,-1,-1,-1],"split_conditions":[-7.4037546E-1,-8.423115E-2,3.5516068E-1,-5.519314E-1,-5.91351E-2,-5.4715965E-2,9.25578E-3,-7.663088E-2,-0E0],"split_indices":[11,0,11,13,13,0,0,0,0],"split_type":[0,0,0,0,0,0,0,0,0],"sum_hessian":[1.3392141E3,1.0624021E2,1.2329739E3,9.7380084E2,2.5917307E2,9.3967186E1,8.798336E2,1.5849783E2,1.0067524E2],"tree_param":{"num_deleted":"0","num_feature":"14","num_nodes":"9","size_leaf_vector":"1"}},{"base_weights":[-8.206839E-2,-1.934901E-2,-1.7107244E-1,-8.784376E-2,5.6645304E-2,-7.812666E-2,-0E0,-5.5828262E-2,-0E0,6.5804504E-2,-1.36650335E-2,-6.1141726E-2,3.0736025E-2],"categories":[],"categories_nodes":[],"categories_segments":[],"categories_sizes":[],"default_left":[0,0,0,0,0,0,0,0,0,0,0,0,0],"id":34,"left_children":[1,3,5,7,9,-1,-1,-1,-1,-1,11,-1,-1],"loss_changes":[5.5732894E0,3.68903E0,3.4862814E0,2.4629097E0,3.1420088E0,0E0,0E0,0E0,0E0,0E0,3.4679334E0,0E0,0E0],"parents":[2147483647,0,0,1,1,2,2,3,3,4,4,10,10],"right_children":[2,4,6,8,10,-1,-1,-1,-1,-1,12,-1,-1],"split_conditions":[1E0,2.3197603E0,1E0,1E0,1.2040902E-2,-7.812666E-2,-0E0,-5.5828262E-2,-0E0,6.5804504E-2,2.7023773E0,-6.1141726E-2,3.0736025E-2],"split_indices":[10,12,7,5,13,0,0,0,0,0,12,0,0],"split_type":[0,0,0,0,0,0,0,0,0,0,0,0,0],"sum_hessian":[1.0731622E3,6.5848956E2,4.146727E2,3.6151505E2,2.9697452E2,3.416276E2,7.3045105E1,2.1700229E2,1.4451276E2,1.1092939E2,1.8604514E2,7.7063614E1,1.0898152E2],"tree_param":{"num_deleted":"0","num_feature":"14","num_nodes":"13","size_leaf_vector":"1"}},{"base_weights":[4.940637E-2,3.5902858E-2,1.24566615E-1,8.5441865E-2,1.990901E-2,1.00346E-1,1.0743667E-2,2.1400282E-2,-1.723452E-2,-3.6080055E-2,3.372416E-2,7.031897E-2,-3.9327882E-2,1.17699414E-1,-4.620141E-2,6.401987E-2,-2.1137955E-2,-5.0976165E-2,4.733004E-2],"categories":[],"categories_nodes":[],"categories_segments":[],"categories_sizes":[],"default_left":[0,0,0,0,0,0,0,0,0,0,0,0,0,0,0,0,0,0,0],"id":35,"left_children":[1,3,-1,-1,5,-1,7,-1,9,-1,11,13,-1,15,17,-1,-1,-1,-1],"loss_changes":[6.600028E0,5.330579E0,0E0,0E0,3.446384E0,0E0,2.4636047E0,0E0,4.719381E0,0E0,3.476729E0,3.32932E0,0E0,4.510229E0,2.89554E0,0E0,0E0,0E0,0E0],"parents":[2147483647,0,0,1,1,4,4,6,6,8,8,10,10,11,11,13,13,14,14],"right_children":[2,4,-1,-1,6,-1,8,-1,10,-1,12,14,-1,16,18,-1,-1,-1,-1],"split_conditions":[1.0337985E0,-9.9034464E-1,1.24566615E-1,8.5441865E-2,-7.854535E-1,1.00346E-1,-3.0446774E-1,2.1400282E-2,6.266697E-2,-3.6080055E-2,2.5926158E0,1E0,-3.9327882E-2,1E0,2.1336493E0,6.401987E-2,-2.1137955E-2,-5.0976165E-2,4.733004E-2],"split_indices":[11,11,0,0,13,0,11,0,11,0,12,2,0,6,12,0,0,0,0],"split_type":[0,0,0,0,0,0,0,0,0,0,0,0,0,0,0,0,0,0,0],"sum_hessian":[1.9646364E3,1.9044005E3,6.023574E1,1.1379307E2,1.7906075E3,3.515999E1,1.7554475E3,6.7721375E2,1.0782338E3,4.2940765E2,6.488261E2,5.355233E2,1.1330276E2,3.952884E2,1.4023495E2,3.1012344E2,8.516493E1,1.0335176E2,3.688319E1],"tree_param":{"num_deleted":"0","num_feature":"14","num_nodes":"19","size_leaf_vector":"1"}},{"base_weights":[-2.2938153E-2],"categories":[],"categories_nodes":[],"categories_segments":[],"categories_sizes":[],"default_left":[0],"id":36,"left_children":[-1],"loss_changes":[0E0],"parents":[2147483647],"right_children":[-1],"split_conditions":[-8.4581645E-3],"split_indices":[0],"split_type":[0],"sum_hessian":[1.225871E3],"tree_param":{"num_deleted":"0","num_feature":"14","num_nodes":"1","size_leaf_vector":"1"}},{"base_weights":[3.6405792E-4],"categories":[],"categories_nodes":[],"categories_segments":[],"categories_sizes":[],"default_left":[0],"id":37,"left_children":[-1],"loss_changes":[0E0],"parents":[2147483647],"right_children":[-1],"split_conditions":[1.3424193E-4],"split_indices":[0],"split_type":[0],"sum_hessian":[1.4053134E3],"tree_param":{"num_deleted":"0","num_feature":"14","num_nodes":"1","size_leaf_vector":"1"}},{"base_weights":[-1.0884059E-2],"categories":[],"categories_nodes":[],"categories_segments":[],"categories_sizes":[],"default_left":[0],"id":38,"left_children":[-1],"loss_changes":[0E0],"parents":[2147483647],"right_children":[-1],"split_conditions":[-4.013364E-3],"split_indices":[0],"split_type":[0],"sum_hessian":[1.2871078E3],"tree_param":{"num_deleted":"0","num_feature":"14","num_nodes":"1","size_leaf_vector":"1"}},{"base_weights":[-7.9948835E-2,-8.270083E-2,-3.969463E-2,-1.7267576E-1,9.660137E-3,-0E0,-8.583733E-2,3.2328513E-2,-1.6954029E-1,7.2075434E-2,-5.5854082E-2,-8.401118E-2,2.4875583E-2],"categories":[],"categories_nodes":[],"categories_segments":[],"categories_sizes":[],"default_left":[0,0,0,0,0,0,0,0,0,0,0,0,0],"id":39,"left_children":[1,-1,3,5,7,9,-1,-1,11,-1,-1,-1,-1],"loss_changes":[5.300836E0,0E0,6.0431175E0,2.5365252E0,8.862096E0,2.9695978E0,0E0,0E0,3.258367E0,0E0,0E0,0E0,0E0],"parents":[2147483647,0,0,2,2,3,3,4,4,5,5,8,8],"right_children":[2,-1,4,6,8,10,-1,-1,12,-1,-1,-1,-1],"split_conditions":[1.811957E0,-8.270083E-2,-4.073767E-1,1E0,3.0644965E-1,-9.395224E-2,-8.583733E-2,3.2328513E-2,1E0,7.2075434E-2,-5.5854082E-2,-8.401118E-2,2.4875583E-2],"split_indices":[12,0,11,2,11,13,0,0,2,0,0,0,0],"split_type":[0,0,0,0,0,0,0,0,0,0,0,0,0],"sum_hessian":[1.0316179E3,1.936768E2,8.379411E2,2.2766016E2,6.1028094E2,6.3814156E1,1.63846E2,4.4106235E2,1.692186E2,2.5338371E1,3.8475784E1,1.4454346E2,2.4675144E1],"tree_param":{"num_deleted":"0","num_feature":"14","num_nodes":"13","size_leaf_vector":"1"}},{"base_weights":[5.389676E-2,4.227592E-2,1.3463478E-1,5.5665743E-2,1.9003507E-2,9.428766E-2,5.425446E-3,-6.7949514E-3,3.211996E-2],"categories":[],"categories_nodes":[],"categories_segments":[],"categories_sizes":[],"default_left":[0,0,0,0,0,0,0,0,0],"id":40,"left_children":[1,3,-1,-1,5,-1,7,-1,-1],"loss_changes":[6.0402317E0,4.5337534E0,0E0,0E0,4.699591E0,0E0,3.3199494E0,0E0,0E0],"parents":[2147483647,0,0,1,1,4,4,6,6],"right_children":[2,4,-1,-1,6,-1,8,-1,-1],"split_conditions":[1.096419E0,1.5456122E0,1.3463478E-1,5.5665743E-2,-1.1250694E0,9.428766E-2,1E0,-6.7949514E-3,3.211996E-2],"split_indices":[11,12,0,0,11,0,8,0,0],"split_type":[0,0,0,0,0,0,0,0,0],"sum_hessian":[2.0013748E3,1.9568325E3,4.4542248E1,3.0914008E2,1.6476924E3,6.206172E1,1.5856307E3,1.215374E3,3.702567E2],"tree_param":{"num_deleted":"0","num_feature":"14","num_nodes":"9","size_leaf_vector":"1"}},{"base_weights":[-1.8247593E-2,1.07511684E-1,-3.4999058E-2,-3.781264E-2,7.564781E-2,1.859043E-2,-2.2283439E-2],"categories":[],"categories_nodes":[],"categories_segments":[],"categories_sizes":[],"default_left":[0,0,0,0,0,0,0],"id":41,"left_children":[1,3,5,-1,-1,-1,-1],"loss_changes":[2.5010977E0,3.3609881E0,2.518922E0,0E0,0E0,0E0,0E0],"parents":[2147483647,0,0,1,1,2,2],"right_children":[2,4,6,-1,-1,-1,-1],"split_conditions":[-8.291691E-1,-3.0784017E-1,-4.4392434E-1,-3.781264E-2,7.564781E-2,1.859043E-2,-2.2283439E-2],"split_indices":[11,13,13,0,0,0,0],"split_type":[0,0,0,0,0,0,0],"sum_hessian":[1.2192314E3,1.1475102E2,1.1044805E3,2.8288895E1,8.646213E1,2.2754097E2,8.7693945E2],"tree_param":{"num_deleted":"0","num_feature":"14","num_nodes":"7","size_leaf_vector":"1"}},{"base_weights":[-0E0,-2.1427542E-2,7.8417055E-2,-0E0,-5.5117697E-2,-0E0,6.969897E-2],"categories":[],"categories_nodes":[],"categories_segments":[],"categories_sizes":[],"default_left":[0,0,0,0,0,0,0],"id":42,"left_children":[1,3,5,-1,-1,-1,-1],"loss_changes":[2.359921E0,3.051206E0,2.6082435E0,0E0,0E0,0E0,0E0],"parents":[2147483647,0,0,1,1,2,2],"right_children":[2,4,6,-1,-1,-1,-1],"split_conditions":[6.344755E-2,2.4334733E0,5.60322E-2,-0E0,-5.5117697E-2,-0E0,6.969897E-2],"split_indices":[13,12,11,0,0,0,0],"split_type":[0,0,0,0,0,0,0],"sum_hessian":[1.3945726E3,1.1136067E3,2.8096594E2,9.720806E2,1.4152608E2,1.7475339E2,1.06212555E2],"tree_param":{"num_deleted":"0","num_feature":"14","num_nodes":"7","size_leaf_vector":"1"}},{"base_weights":[-9.76002E-3,-6.409587E-2,4.186859E-3,7.5328783E-3,-6.8583116E-2],"categories":[],"categories_nodes":[],"categories_segments":[],"categories_sizes":[],"default_left":[0,0,0,0,0],"id":43,"left_children":[1,-1,3,-1,-1],"loss_changes":[3.4031203E0,0E0,3.3925922E0,0E0,0E0],"parents":[2147483647,0,0,2,2],"right_children":[2,-1,4,-1,-1],"split_conditions":[-7.4037546E-1,-6.409587E-2,7.384813E-1,7.5328783E-3,-6.8583116E-2],"split_indices":[11,0,11,0,0],"split_type":[0,0,0,0,0],"sum_hessian":[1.2844489E3,9.774347E1,1.1867054E3,1.1200526E3,6.665278E1],"tree_param":{"num_deleted":"0","num_feature":"14","num_nodes":"5","size_leaf_vector":"1"}},{"base_weights":[-9.686141E-2,-1.9216752E-1,-5.532813E-2,3.439583E-2,-1.04535356E-1,1.3013079E-2,-1.5358746E-1,7.323226E-2,-3.6122303E-2,-3.2670785E-2,2.7740298E-2,-2.3225032E-1,2.8932406E-2,-1.1441585E-1,-0E0],"categories":[],"categories_nodes":[],"categories_segments":[],"categories_sizes":[],"default_left":[0,0,0,0,0,0,0,0,0,0,0,0,0,0,0],"id":44,"left_children":[1,3,5,7,-1,9,11,-1,-1,-1,-1,13,-1,-1,-1],"loss_changes":[3.3110857E0,6.769594E0,5.5130243E0,2.596121E0,0E0,2.9576783E0,6.7230453E0,0E0,0E0,0E0,0E0,4.413416E0,0E0,0E0,0E0],"parents":[2147483647,0,0,1,1,2,2,3,3,5,5,6,6,11,11],"right_children":[2,4,6,8,-1,10,12,-1,-1,-1,-1,14,-1,-1,-1],"split_conditions":[-3.880062E-1,1E0,1.3434033E-1,-8.672528E-2,-1.04535356E-1,2.0509014E0,1E0,7.323226E-2,-3.6122303E-2,-3.2670785E-2,2.7740298E-2,2.5309584E0,2.8932406E-2,-1.1441585E-1,-0E0],"split_indices":[11,2,11,13,0,12,2,0,0,0,0,12,0,0,0],"split_type":[0,0,0,0,0,0,0,0,0,0,0,0,0,0,0],"sum_hessian":[1.01802216E3,2.7123615E2,7.46786E2,7.361823E1,1.976179E2,4.3534024E2,3.1144577E2,3.6897003E1,3.672123E1,1.4766797E2,2.8767227E2,2.4034308E2,7.11027E1,1.7244456E2,6.7898506E1],"tree_param":{"num_deleted":"0","num_feature":"14","num_nodes":"15","size_leaf_vector":"1"}},{"base_weights":[3.8864605E-2,9.598467E-2,2.6818017E-2,1.8165497E-2,9.58011E-2,7.657007E-2,9.503064E-3,1.3128657E-2,-1.4322329E-2],"categories":[],"categories_nodes":[],"categories_segments":[],"categories_sizes":[],"default_left":[0,0,0,0,0,0,0,0,0],"id":45,"left_children":[1,-1,3,5,-1,-1,7,-1,-1],"loss_changes":[4.4981713E0,0E0,3.1170783E0,2.5300417E0,0E0,0E0,2.3283007E0,0E0,0E0],"parents":[2147483647,0,0,2,2,3,3,6,6],"right_children":[2,-1,4,6,-1,-1,8,-1,-1],"split_conditions":[1.2006327E0,9.598467E-2,1.096419E0,-1.1502101E0,9.58011E-2,7.657007E-2,-9.395224E-2,1.3128657E-2,-1.4322329E-2],"split_indices":[12,0,11,11,0,0,13,0,0],"split_type":[0,0,0,0,0,0,0,0,0],"sum_hessian":[1.9752224E3,7.2135254E1,1.9030872E3,1.863932E3,3.91551E1,5.094849E1,1.8129835E3,1.2128452E3,6.0013824E2],"tree_param":{"num_deleted":"0","num_feature":"14","num_nodes":"9","size_leaf_vector":"1"}},{"base_weights":[-1.970901E-3,2.4513016E-2,-3.7432935E-2,-2.7554503E-2,1.4371857E-2],"categories":[],"categories_nodes":[],"categories_segments":[],"categories_sizes":[],"default_left":[0,0,0,0,0],"id":46,"left_children":[1,-1,3,-1,-1],"loss_changes":[2.9366407E0,0E0,2.5287569E0,0E0,0E0],"parents":[2147483647,0,0,2,2],"right_children":[2,-1,4,-1,-1],"split_conditions":[-4.073767E-1,2.4513016E-2,3.4528753E-1,-2.7554503E-2,1.4371857E-2],"split_indices":[11,0,11,0,0],"split_type":[0,0,0,0,0],"sum_hessian":[1.2016088E3,3.8142023E2,8.201886E2,5.726411E2,2.4754752E2],"tree_param":{"num_deleted":"0","num_feature":"14","num_nodes":"5","size_leaf_vector":"1"}},{"base_weights":[5.2297316E-3],"categories":[],"categories_nodes":[],"categories_segments":[],"categories_sizes":[],"default_left":[0],"id":47,"left_children":[-1],"loss_changes":[0E0],"parents":[2147483647],"right_children":[-1],"split_conditions":[1.9283998E-3],"split_indices":[0],"split_type":[0],"sum_hessian":[1.405521E3],"tree_param":{"num_deleted":"0","num_feature":"14","num_nodes":"1","size_leaf_vector":"1"}},{"base_weights":[-1.228386E-2,-7.227495E-2,-0E0,1.9552456E-2,-4.711549E-2,-3.7336092E-2,1.5477234E-2],"categories":[],"categories_nodes":[],"categories_segments":[],"categories_sizes":[],"default_left":[0,0,0,0,0,0,0],"id":48,"left_children":[1,-1,3,5,-1,-1,-1],"loss_changes":[2.957577E0,0E0,3.1664371E0,2.9099495E0,0E0,0E0,0E0],"parents":[2147483647,0,0,2,2,3,3],"right_children":[2,-1,4,6,-1,-1,-1],"split_conditions":[-8.158357E-1,-7.227495E-2,5.178111E-1,-4.9368048E-1,-4.711549E-2,-3.7336092E-2,1.5477234E-2],"split_indices":[11,0,11,13,0,0,0],"split_type":[0,0,0,0,0,0,0],"sum_hessian":[1.2938606E3,6.3842674E1,1.230018E3,1.0800865E3,1.4993141E2,1.421814E2,9.379051E2],"tree_param":{"num_deleted":"0","num_feature":"14","num_nodes":"7","size_leaf_vector":"1"}},{"base_weights":[-3.6446832E-2,2.1355292E-2,-1.3767684E-1,1.1004951E-1,-3.0186044E-2,-1.21913366E-1,-7.9518095E-2,5.794672E-3,1.950917E-1,7.2322436E-2,-4.1573245E-2,1.2751141E-1,-0E0],"categories":[],"categories_nodes":[],"categories_segments":[],"categories_sizes":[],"default_left":[0,0,0,0,0,0,0,0,0,0,0,0,0],"id":49,"left_children":[1,3,5,7,-1,-1,9,-1,11,-1,-1,-1,-1],"loss_changes":[6.2595615E0,6.1402135E0,2.858367E0,2.3834157E0,0E0,0E0,3.2263565E0,0E0,4.863916E0,0E0,0E0,0E0,0E0],"parents":[2147483647,0,0,1,1,2,2,3,3,6,6,8,8],"right_children":[2,4,6,8,-1,-1,10,-1,12,-1,-1,-1,-1],"split_conditions":[1E0,1E0,1.6485497E0,-4.4150762E-2,-3.0186044E-2,-1.21913366E-1,-4.2793733E-1,5.794672E-3,1E0,7.2322436E-2,-4.1573245E-2,1.2751141E-1,-0E0],"split_indices":[10,4,12,11,0,0,13,0,0,0,0,0,0],"split_type":[0,0,0,0,0,0,0,0,0,0,0,0,0],"sum_hessian":[9.9436914E2,6.269862E2,3.6738293E2,3.4912683E2,2.778594E2,5.564096E1,3.1174197E2,1.8923323E2,1.598936E2,1.6082571E1,2.956594E2,7.909478E1,8.079882E1],"tree_param":{"num_deleted":"0","num_feature":"14","num_nodes":"13","size_leaf_vector":"1"}},{"base_weights":[3.0221835E-2,9.463676E-2,2.1998301E-2,3.7726067E-2,1.9675412E-4],"categories":[],"categories_nodes":[],"categories_segments":[],"categories_sizes":[],"default_left":[0,0,0,0,0],"id":50,"left_children":[1,-1,3,-1,-1],"loss_changes":[2.9381633E0,0E0,3.1204395E0,0E0,0E0],"parents":[2147483647,0,0,2,2],"right_children":[2,-1,4,-1,-1],"split_conditions":[-1.184617E0,9.463676E-2,1.6311141E0,3.7726067E-2,1.9675412E-4],"split_indices":[11,0,12,0,0],"split_type":[0,0,0,0,0],"sum_hessian":[1.9757898E3,3.9603012E1,1.9361869E3,3.70124E2,1.5660629E3],"tree_param":{"num_deleted":"0","num_feature":"14","num_nodes":"5","size_leaf_vector":"1"}},{"base_weights":[-4.0506455E-3],"categories":[],"categories_nodes":[],"categories_segments":[],"categories_sizes":[],"default_left":[0],"id":51,"left_children":[-1],"loss_changes":[0E0],"parents":[2147483647],"right_children":[-1],"split_conditions":[-1.4936262E-3],"split_indices":[0],"split_type":[0],"sum_hessian":[1.1901244E3],"tree_param":{"num_deleted":"0","num_feature":"14","num_nodes":"1","size_leaf_vector":"1"}},{"base_weights":[1.3102978E-2],"categories":[],"categories_nodes":[],"categories_segments":[],"categories_sizes":[],"default_left":[0],"id":52,"left_children":[-1],"loss_changes":[0E0],"parents":[2147483647],"right_children":[-1],"split_conditions":[4.831563E-3],"split_indices":[0],"split_type":[0],"sum_hessian":[1.4137242E3],"tree_param":{"num_deleted":"0","num_feature":"14","num_nodes":"1","size_leaf_vector":"1"}},{"base_weights":[-1.1558087E-2,-4.6110783E-2,4.466736E-3,-1.6848816E-2,1.9523839E-2],"categories":[],"categories_nodes":[],"categories_segments":[],"categories_sizes":[],"default_left":[0,0,0,0,0],"id":53,"left_children":[1,-1,3,-1,-1],"loss_changes":[2.6817455E0,0E0,2.8490784E0,0E0,0E0],"parents":[2147483647,0,0,2,2],"right_children":[2,-1,4,-1,-1],"split_conditions":[-6.0665977E-1,-4.6110783E-2,-2.0278345E-1,-1.6848816E-2,1.9523839E-2],"split_indices":[11,0,13,0,0],"split_type":[0,0,0,0,0],"sum_hessian":[1.2908256E3,1.6292067E2,1.1279049E3,5.304357E2,5.974692E2],"tree_param":{"num_deleted":"0","num_feature":"14","num_nodes":"5","size_leaf_vector":"1"}},{"base_weights":[-5.1392898E-2,-2.563021E-2,-6.652748E-2,2.1032158E-2,-9.270652E-2,-5.2460577E-2,5.7692923E-2],"categories":[],"categories_nodes":[],"categories_segments":[],"categories_sizes":[],"default_left":[0,0,0,0,0,0,0],"id":54,"left_children":[1,3,-1,-1,5,-1,-1],"loss_changes":[2.7198744E0,4.977545E0,0E0,0E0,6.553234E0,0E0,0E0],"parents":[2147483647,0,0,1,1,4,4],"right_children":[2,4,-1,-1,6,-1,-1],"split_conditions":[4.3300343E-1,1E0,-6.652748E-2,2.1032158E-2,9.723458E-2,-5.2460577E-2,5.7692923E-2],"split_indices":[11,2,0,0,11,0,0],"split_type":[0,0,0,0,0,0,0],"sum_hessian":[9.7479767E2,8.4640497E2,1.2839275E2,3.64267E2,4.8213794E2,4.1675842E2,6.53795E1],"tree_param":{"num_deleted":"0","num_feature":"14","num_nodes":"7","size_leaf_vector":"1"}},{"base_weights":[2.6745616E-2],"categories":[],"categories_nodes":[],"categories_segments":[],"categories_sizes":[],"default_left":[0],"id":55,"left_children":[-1],"loss_changes":[0E0],"parents":[2147483647],"right_children":[-1],"split_conditions":[9.86212E-3],"split_indices":[0],"split_type":[0],"sum_hessian":[1.9270856E3],"tree_param":{"num_deleted":"0","num_feature":"14","num_nodes":"1","size_leaf_vector":"1"}},{"base_weights":[-1.1209486E-2],"categories":[],"categories_nodes":[],"categories_segments":[],"categories_sizes":[],"default_left":[0],"id":56,"left_children":[-1],"loss_changes":[0E0],"parents":[2147483647],"right_children":[-1],"split_conditions":[-4.1333614E-3],"split_indices":[0],"split_type":[0],"sum_hessian":[1.1899219E3],"tree_param":{"num_deleted":"0","num_feature":"14","num_nodes":"1","size_leaf_vector":"1"}},{"base_weights":[3.908746E-3],"categories":[],"categories_nodes":[],"categories_segments":[],"categories_sizes":[],"default_left":[0],"id":57,"left_children":[-1],"loss_changes":[0E0],"parents":[2147483647],"right_children":[-1],"split_conditions":[1.4413025E-3],"split_indices":[0],"split_type":[0],"sum_hessian":[1.3828774E3],"tree_param":{"num_deleted":"0","num_feature":"14","num_nodes":"1","size_leaf_vector":"1"}},{"base_weights":[-9.781157E-3],"categories":[],"categories_nodes":[],"categories_segments":[],"categories_sizes":[],"default_left":[0],"id":58,"left_children":[-1],"loss_changes":[0E0],"parents":[2147483647],"right_children":[-1],"split_conditions":[-3.6066824E-3],"split_indices":[0],"split_type":[0],"sum_hessian":[1.273849E3],"tree_param":{"num_deleted":"0","num_feature":"14","num_nodes":"1","size_leaf_vector":"1"}},{"base_weights":[-2.7546542E-2,6.409682E-3,-1.4914224E-1,3.88782E-2,-6.0033806E-2,-2.202587E-1,2.304936E-2,-4.9966134E-2,2.2196626E-2,-1.0997402E-1,-3.3108976E-5],"categories":[],"categories_nodes":[],"categories_segments":[],"categories_sizes":[],"default_left":[0,0,0,0,0,0,0,0,0,0,0],"id":59,"left_children":[1,3,5,-1,7,9,-1,-1,-1,-1,-1],"loss_changes":[4.3953543E0,5.263575E0,4.0867515E0,0E0,4.4626455E0,2.4459238E0,0E0,0E0,0E0,0E0,0E0],"parents":[2147483647,0,0,1,1,2,2,4,4,5,5],"right_children":[2,4,6,-1,8,10,-1,-1,-1,-1,-1],"split_conditions":[2.4570474E-1,1E0,1E0,3.88782E-2,-1.7206125E-1,2.5152793E0,2.304936E-2,-4.9966134E-2,2.2196626E-2,-1.0997402E-1,-3.3108976E-5],"split_indices":[11,2,2,0,11,12,0,0,0,0,0],"split_type":[0,0,0,0,0,0,0,0,0,0,0],"sum_hessian":[9.586756E2,7.474531E2,2.1122243E2,3.1039124E2,4.370619E2,1.6606668E2,4.515575E1,2.793981E2,1.5766379E2,1.0975549E2,5.6311184E1],"tree_param":{"num_deleted":"0","num_feature":"14","num_nodes":"11","size_leaf_vector":"1"}},{"base_weights":[2.0544829E-2,-0E0,1.073769E-1,6.9380075E-2,-7.464939E-3,2.48583E-1,1.4675155E-2,-2.6180008E-2,3.2795347E-2,1.1396963E-1,-8.573781E-3,3.4812696E-2,-2.037955E-2,2.347623E-1,-7.5319572E-3,-2.3211844E-2,1.172922E-1],"categories":[],"categories_nodes":[],"categories_segments":[],"categories_sizes":[],"default_left":[0,0,0,0,0,0,0,0,0,0,0,0,0,0,0,0,0],"id":60,"left_children":[1,3,5,-1,7,9,-1,11,-1,-1,-1,13,-1,15,-1,-1,-1],"loss_changes":[3.5156393E0,2.3351986E0,2.725696E0,0E0,2.7362156E0,2.5823178E0,0E0,2.4894557E0,0E0,0E0,0E0,5.267389E0,0E0,3.5190659E0,0E0,0E0,0E0],"parents":[2147483647,0,0,1,1,2,2,4,4,5,5,7,7,11,11,13,13],"right_children":[2,4,6,-1,8,10,-1,12,-1,-1,-1,14,-1,16,-1,-1,-1],"split_conditions":[4.7286823E-1,-7.4743557E-1,-3.7665468E-1,6.9380075E-2,9.6648514E-2,1E0,1.4675155E-2,-5.2399963E-1,3.2795347E-2,1.1396963E-1,-8.573781E-3,-3.9779952E-1,-2.037955E-2,1E0,-7.5319572E-3,-2.3211844E-2,1.172922E-1],"split_indices":[11,13,13,0,13,2,0,11,0,0,0,13,0,2,0,0,0],"split_type":[0,0,0,0,0,0,0,0,0,0,0,0,0,0,0,0,0],"sum_hessian":[1.9628413E3,1.6036912E3,3.5915018E2,4.5185276E1,1.5585059E3,8.8843925E1,2.7030624E2,1.3372352E3,2.212707E2,7.787321E1,1.0970717E1,4.0389185E2,9.333433E2,8.400316E1,3.198887E2,1.3023342E1,7.097981E1],"tree_param":{"num_deleted":"0","num_feature":"14","num_nodes":"17","size_leaf_vector":"1"}},{"base_weights":[-7.378347E-3],"categories":[],"categories_nodes":[],"categories_segments":[],"categories_sizes":[],"default_left":[0],"id":61,"left_children":[-1],"loss_changes":[0E0],"parents":[2147483647],"right_children":[-1],"split_conditions":[-2.7206757E-3],"split_indices":[0],"split_type":[0],"sum_hessian":[1.1814076E3],"tree_param":{"num_deleted":"0","num_feature":"14","num_nodes":"1","size_leaf_vector":"1"}},{"base_weights":[4.4287974E-3],"categories":[],"categories_nodes":[],"categories_segments":[],"categories_sizes":[],"default_left":[0],"id":62,"left_children":[-1],"loss_changes":[0E0],"parents":[2147483647],"right_children":[-1],"split_conditions":[1.633065E-3],"split_indices":[0],"split_type":[0],"sum_hessian":[1.4147968E3],"tree_param":{"num_deleted":"0","num_feature":"14","num_nodes":"1","size_leaf_vector":"1"}},{"base_weights":[-2.4738074E-3,-4.902975E-2,1.4404179E-2,-6.500241E-2,1.0719479E-2],"categories":[],"categories_nodes":[],"categories_segments":[],"categories_sizes":[],"default_left":[0,0,0,0,0],"id":63,"left_children":[1,-1,3,-1,-1],"loss_changes":[3.1621015E0,0E0,2.9340901E0,0E0,0E0],"parents":[2147483647,0,0,2,2],"right_children":[2,-1,4,-1,-1],"split_conditions":[-6.157738E-1,-4.902975E-2,-6.151651E-1,-6.500241E-2,1.0719479E-2],"split_indices":[11,0,13,0,0],"split_type":[0,0,0,0,0],"sum_hessian":[1.2717653E3,1.4759647E2,1.1241688E3,5.415401E1,1.0700148E3],"tree_param":{"num_deleted":"0","num_feature":"14","num_nodes":"5","size_leaf_vector":"1"}},{"base_weights":[-3.5396308E-2,2.6976364E-3,-1.12423554E-1,-5.8653597E-2,2.0017887E-2],"categories":[],"categories_nodes":[],"categories_segments":[],"categories_sizes":[],"default_left":[0,0,0,0,0],"id":64,"left_children":[1,-1,3,-1,-1],"loss_changes":[3.4383106E0,0E0,3.2482E0,0E0,0E0],"parents":[2147483647,0,0,2,2],"right_children":[2,-1,4,-1,-1],"split_conditions":[1E0,2.6976364E-3,1E0,-5.8653597E-2,2.0017887E-2],"split_indices":[10,0,7,0,0],"split_type":[0,0,0,0,0],"sum_hessian":[9.4520874E2,5.9856525E2,3.466435E2,2.8281464E2,6.3828865E1],"tree_param":{"num_deleted":"0","num_feature":"14","num_nodes":"5","size_leaf_vector":"1"}},{"base_weights":[1.3516328E-2],"categories":[],"categories_nodes":[],"categories_segments":[],"categories_sizes":[],"default_left":[0],"id":65,"left_children":[-1],"loss_changes":[0E0],"parents":[2147483647],"right_children":[-1],"split_conditions":[4.9839816E-3],"split_indices":[0],"split_type":[0],"sum_hessian":[1.9753846E3],"tree_param":{"num_deleted":"0","num_feature":"14","num_nodes":"1","size_leaf_vector":"1"}},{"base_weights":[9.0753855E-3],"categories":[],"categories_nodes":[],"categories_segments":[],"categories_sizes":[],"default_left":[0],"id":66,"left_children":[-1],"loss_changes":[0E0],"parents":[2147483647],"right_children":[-1],"split_conditions":[3.3464378E-3],"split_indices":[0],"split_type":[0],"sum_hessian":[1.1854978E3],"tree_param":{"num_deleted":"0","num_feature":"14","num_nodes":"1","size_leaf_vector":"1"}},{"base_weights":[-0E0],"categories":[],"categories_nodes":[],"categories_segments":[],"categories_sizes":[],"default_left":[0],"id":67,"left_children":[-1],"loss_changes":[0E0],"parents":[2147483647],"right_children":[-1],"split_conditions":[-0E0],"split_indices":[0],"split_type":[0],"sum_hessian":[1.415543E3],"tree_param":{"num_deleted":"0","num_feature":"14","num_nodes":"1","size_leaf_vector":"1"}},{"base_weights":[-1.9388089E-2,-6.899672E-2,-2.1710866E-3],"categories":[],"categories_nodes":[],"categories_segments":[],"categories_sizes":[],"default_left":[0,0,0],"id":68,"left_children":[1,-1,-1],"loss_changes":[2.4010797E0,0E0,0E0],"parents":[2147483647,0,0],"right_children":[2,-1,-1],"split_conditions":[-7.793699E-1,-6.899672E-2,-2.1710866E-3],"split_indices":[11,0,0],"split_type":[0,0,0],"sum_hessian":[1.2564272E3,6.276948E1,1.1936577E3],"tree_param":{"num_deleted":"0","num_feature":"14","num_nodes":"3","size_leaf_vector":"1"}},{"base_weights":[-2.8770705E-4,-4.930994E-2,2.3275834E-2,-4.108381E-2,5.0213788E-2,7.0638485E-2,-6.7268476E-2,1.0637633E-1,4.5119524E-2,-6.6973963E-3,1.05365194E-1,8.900728E-2,7.389326E-8],"categories":[],"categories_nodes":[],"categories_segments":[],"categories_sizes":[],"default_left":[0,0,0,0,0,0,0,0,0,0,0,0,0],"id":69,"left_children":[1,-1,3,-1,5,7,-1,-1,9,-1,11,-1,-1],"loss_changes":[3.2745516E0,0E0,2.8502853E0,0E0,3.2569716E0,2.6233017E0,0E0,0E0,2.6158104E0,0E0,4.301626E0,0E0,0E0],"parents":[2147483647,0,0,2,2,4,4,5,5,8,8,10,10],"right_children":[2,-1,4,-1,6,8,-1,-1,10,-1,12,-1,-1],"split_conditions":[1.7680122E0,-4.930994E-2,-5.724746E-1,-4.108381E-2,7.855913E-1,-3.6622825E-1,-6.7268476E-2,1.0637633E-1,2.3237915E0,-6.6973963E-3,1.2040902E-2,8.900728E-2,7.389326E-8],"split_indices":[12,0,11,0,11,13,0,0,12,0,13,0,0],"split_type":[0,0,0,0,0,0,0,0,0,0,0,0,0],"sum_hessian":[9.203588E2,1.4064691E2,7.797119E2,1.054752E2,6.742367E2,6.4105554E2,3.3181152E1,3.754806E1,6.035075E2,2.8105557E2,3.2245193E2,1.2045781E2,2.0199411E2],"tree_param":{"num_deleted":"0","num_feature":"14","num_nodes":"13","size_leaf_vector":"1"}},{"base_weights":[5.134075E-3],"categories":[],"categories_nodes":[],"categories_segments":[],"categories_sizes":[],"default_left":[0],"id":70,"left_children":[-1],"loss_changes":[0E0],"parents":[2147483647],"right_children":[-1],"split_conditions":[1.8931276E-3],"split_indices":[0],"split_type":[0],"sum_hessian":[1.9579221E3],"tree_param":{"num_deleted":"0","num_feature":"14","num_nodes":"1","size_leaf_vector":"1"}},{"base_weights":[-0E0],"categories":[],"categories_nodes":[],"categories_segments":[],"categories_sizes":[],"default_left":[0],"id":71,"left_children":[-1],"loss_changes":[0E0],"parents":[2147483647],"right_children":[-1],"split_conditions":[-0E0],"split_indices":[0],"split_type":[0],"sum_hessian":[1.1599001E3],"tree_param":{"num_deleted":"0","num_feature":"14","num_nodes":"1","size_leaf_vector":"1"}},{"base_weights":[-1.1273403E-2,-1.0039155E-2,3.7779525E-2],"categories":[],"categories_nodes":[],"categories_segments":[],"categories_sizes":[],"default_left":[0,0,0],"id":72,"left_children":[1,-1,-1],"loss_changes":[2.437992E0,0E0,0E0],"parents":[2147483647,0,0],"right_children":[2,-1,-1],"split_conditions":[1.9563293E-1,-1.0039155E-2,3.7779525E-2],"split_indices":[13,0,0],"split_type":[0,0,0],"sum_hessian":[1.397323E3,1.256226E3,1.4109702E2],"tree_param":{"num_deleted":"0","num_feature":"14","num_nodes":"3","size_leaf_vector":"1"}},{"base_weights":[-1.6678536E-2,-2.9389042E-4,-7.696229E-2],"categories":[],"categories_nodes":[],"categories_segments":[],"categories_sizes":[],"default_left":[0,0,0],"id":73,"left_children":[1,-1,-1],"loss_changes":[3.37105E0,0E0,0E0],"parents":[2147483647,0,0],"right_children":[2,-1,-1],"split_conditions":[7.1054345E-1,-2.9389042E-4,-7.696229E-2],"split_indices":[11,0,0],"split_type":[0,0,0],"sum_hessian":[1.2535862E3,1.1863934E3,6.7192726E1],"tree_param":{"num_deleted":"0","num_feature":"14","num_nodes":"3","size_leaf_vector":"1"}},{"base_weights":[-0E0,-4.633022E-2,2.5953159E-2,-5.1978286E-2,4.7912784E-2,2.5657322E-2,-6.169587E-2],"categories":[],"categories_nodes":[],"categories_segments":[],"categories_sizes":[],"default_left":[0,0,0,0,0,0,0],"id":74,"left_children":[1,-1,3,-1,5,-1,-1],"loss_changes":[3.1199906E0,0E0,2.8457937E0,0E0,3.4137585E0,0E0,0E0],"parents":[2147483647,0,0,2,2,4,4],"right_children":[2,-1,4,-1,6,-1,-1],"split_conditions":[1.7904258E0,-4.633022E-2,-6.928292E-1,-5.1978286E-2,6.7269874E-1,2.5657322E-2,-6.169587E-2],"split_indices":[12,0,11,0,11,0,0],"split_type":[0,0,0,0,0,0,0],"sum_hessian":[9.306166E2,1.4504074E2,7.8557587E2,6.704739E1,7.1852844E2,6.7422754E2,4.4300934E1],"tree_param":{"num_deleted":"0","num_feature":"14","num_nodes":"7","size_leaf_vector":"1"}},{"base_weights":[5.3140153E-3],"categories":[],"categories_nodes":[],"categories_segments":[],"categories_sizes":[],"default_left":[0],"id":75,"left_children":[-1],"loss_changes":[0E0],"parents":[2147483647],"right_children":[-1],"split_conditions":[1.9594785E-3],"split_indices":[0],"split_type":[0],"sum_hessian":[1.9686504E3],"tree_param":{"num_deleted":"0","num_feature":"14","num_nodes":"1","size_leaf_vector":"1"}},{"base_weights":[1.3688812E-2],"categories":[],"categories_nodes":[],"categories_segments":[],"categories_sizes":[],"default_left":[0],"id":76,"left_children":[-1],"loss_changes":[0E0],"parents":[2147483647],"right_children":[-1],"split_conditions":[5.0475826E-3],"split_indices":[0],"split_type":[0],"sum_hessian":[1.1731002E3],"tree_param":{"num_deleted":"0","num_feature":"14","num_nodes":"1","size_leaf_vector":"1"}},{"base_weights":[-0E0],"categories":[],"categories_nodes":[],"categories_segments":[],"categories_sizes":[],"default_left":[0],"id":77,"left_children":[-1],"loss_changes":[0E0],"parents":[2147483647],"right_children":[-1],"split_conditions":[-0E0],"split_indices":[0],"split_type":[0],"sum_hessian":[1.4115283E3],"tree_param":{"num_deleted":"0","num_feature":"14","num_nodes":"1","size_leaf_vector":"1"}},{"base_weights":[4.5073195E-3],"categories":[],"categories_nodes":[],"categories_segments":[],"categories_sizes":[],"default_left":[0],"id":78,"left_children":[-1],"loss_changes":[0E0],"parents":[2147483647],"right_children":[-1],"split_conditions":[1.6620192E-3],"split_indices":[0],"split_type":[0],"sum_hessian":[1.2568441E3],"tree_param":{"num_deleted":"0","num_feature":"14","num_nodes":"1","size_leaf_vector":"1"}},{"base_weights":[-3.155451E-2],"categories":[],"categories_nodes":[],"categories_segments":[],"categories_sizes":[],"default_left":[0],"id":79,"left_children":[-1],"loss_changes":[0E0],"parents":[2147483647],"right_children":[-1],"split_conditions":[-1.1635341E-2],"split_indices":[0],"split_type":[0],"sum_hessian":[9.214259E2],"tree_param":{"num_deleted":"0","num_feature":"14","num_nodes":"1","size_leaf_vector":"1"}},{"base_weights":[7.786327E-3,5.628047E-2,-2.7375659E-2,1.3574393E-1,-0E0,-4.1455682E-2,7.4143805E-2,-1.2299848E-2,7.065947E-2,-1.9692538E-2,5.7512358E-2],"categories":[],"categories_nodes":[],"categories_segments":[],"categories_sizes":[],"default_left":[0,0,0,0,0,0,0,0,0,0,0],"id":80,"left_children":[1,3,5,7,-1,9,-1,-1,-1,-1,-1],"loss_changes":[3.466022E0,3.7940483E0,3.3978148E0,3.8492532E0,0E0,2.4722452E0,0E0,0E0,0E0,0E0,0E0],"parents":[2147483647,0,0,1,1,2,2,3,3,5,5],"right_children":[2,4,6,8,-1,10,-1,-1,-1,-1,-1],"split_conditions":[-2.6027295E-1,2.00964E0,1.096419E0,1E0,-0E0,3.1261355E-1,7.4143805E-2,-1.2299848E-2,7.065947E-2,-1.9692538E-2,5.7512358E-2],"split_indices":[11,12,11,2,0,13,0,0,0,0,0],"split_type":[0,0,0,0,0,0,0,0,0,0,0],"sum_hessian":[1.9569965E3,8.467499E2,1.1102466E3,3.363092E2,5.104407E2,1.0698346E3,4.0411922E1,7.465129E1,2.616579E2,1.0328722E3,3.696239E1],"tree_param":{"num_deleted":"0","num_feature":"14","num_nodes":"11","size_leaf_vector":"1"}},{"base_weights":[4.5512896E-3],"categories":[],"categories_nodes":[],"categories_segments":[],"categories_sizes":[],"default_left":[0],"id":81,"left_children":[-1],"loss_changes":[0E0],"parents":[2147483647],"right_children":[-1],"split_conditions":[1.6782326E-3],"split_indices":[0],"split_type":[0],"sum_hessian":[1.2000482E3],"tree_param":{"num_deleted":"0","num_feature":"14","num_nodes":"1","size_leaf_vector":"1"}},{"base_weights":[7.888327E-3],"categories":[],"categories_nodes":[],"categories_segments":[],"categories_sizes":[],"default_left":[0],"id":82,"left_children":[-1],"loss_changes":[0E0],"parents":[2147483647],"right_children":[-1],"split_conditions":[2.9087246E-3],"split_indices":[0],"split_type":[0],"sum_hessian":[1.3816866E3],"tree_param":{"num_deleted":"0","num_feature":"14","num_nodes":"1","size_leaf_vector":"1"}},{"base_weights":[-2.4585485E-2,4.4837515E-3,-3.19524E-2],"categories":[],"categories_nodes":[],"categories_segments":[],"categories_sizes":[],"default_left":[0,0,0],"id":83,"left_children":[1,-1,-1],"loss_changes":[3.1691735E0,0E0,0E0],"parents":[2147483647,0,0],"right_children":[2,-1,-1],"split_conditions":[1E0,4.4837515E-3,-3.19524E-2],"split_indices":[10,0,0],"split_type":[0,0,0],"sum_hessian":[1.2840897E3,7.914285E2,4.926611E2],"tree_param":{"num_deleted":"0","num_feature":"14","num_nodes":"3","size_leaf_vector":"1"}},{"base_weights":[-5.6579364E-3,1.6766682E-2,-7.160893E-2,2.3384972E-2,-2.2541044E-2],"categories":[],"categories_nodes":[],"categories_segments":[],"categories_sizes":[],"default_left":[0,0,0,0,0],"id":84,"left_children":[1,3,-1,-1,-1],"loss_changes":[4.3663683E0,3.0759337E0,0E0,0E0,0E0],"parents":[2147483647,0,0,1,1],"right_children":[2,4,-1,-1,-1],"split_conditions":[4.8780575E-1,1E0,-7.160893E-2,2.3384972E-2,-2.2541044E-2],"split_indices":[11,10,0,0,0],"split_type":[0,0,0,0,0],"sum_hessian":[8.9919604E2,8.0708716E2,9.2108925E1,5.262559E2,2.8083124E2],"tree_param":{"num_deleted":"0","num_feature":"14","num_nodes":"5","size_leaf_vector":"1"}},{"base_weights":[1.2718149E-2,4.8046573E-3,8.9916594E-2,3.7884556E-2,-1.1804744E-2,1.4285314E-1,1.2488187E-2,-3.686808E-2,7.858575E-2,3.053612E-2,-5.6170493E-2,-1.4886361E-1,2.2646688E-2,-0E0,-9.928166E-2],"categories":[],"categories_nodes":[],"categories_segments":[],"categories_sizes":[],"default_left":[0,0,0,0,0,0,0,0,0,0,0,0,0,0,0],"id":85,"left_children":[1,3,-1,5,-1,7,9,-1,-1,-1,11,13,-1,-1,-1],"loss_changes":[2.9658546E0,2.3805823E0,0E0,2.4099345E0,0E0,3.829796E0,4.4435954E0,0E0,0E0,0E0,5.2128415E0,4.883639E0,0E0,0E0,0E0],"parents":[2147483647,0,0,1,1,3,3,5,5,6,6,10,10,11,11],"right_children":[2,4,-1,6,-1,8,10,-1,-1,-1,12,14,-1,-1,-1],"split_conditions":[1.096419E0,2.1336493E0,8.9916594E-2,-6.2415695E-1,-1.1804744E-2,1E0,1E0,-3.686808E-2,7.858575E-2,3.053612E-2,1E0,-2.0074524E-1,2.2646688E-2,-0E0,-9.928166E-2],"split_indices":[11,12,0,11,0,2,2,0,0,0,10,11,0,0,0],"split_type":[0,0,0,0,0,0,0,0,0,0,0,0,0,0,0],"sum_hessian":[1.9426149E3,1.9064446E3,3.6170334E1,1.0384111E3,8.680334E2,1.673212E2,8.7108997E2,2.8116312E1,1.3920488E2,4.4580426E2,4.252857E2,2.465579E2,1.787278E2,1.1652468E2,1.3003323E2],"tree_param":{"num_deleted":"0","num_feature":"14","num_nodes":"15","size_leaf_vector":"1"}},{"base_weights":[5.8621517E-3,-3.1324695E-3,1.9705755E-1,3.5642646E-2,-1.1688247E-2,-3.260137E-2,1.3144647E-1],"categories":[],"categories_nodes":[],"categories_segments":[],"categories_sizes":[],"default_left":[0,0,0,0,0,0,0],"id":86,"left_children":[1,3,5,-1,-1,-1,-1],"loss_changes":[2.5628371E0,3.2159607E0,4.261689E0,0E0,0E0,0E0,0E0],"parents":[2147483647,0,0,1,1,2,2],"right_children":[2,4,6,-1,-1,-1,-1],"split_conditions":[8.792333E-1,-4.4392434E-1,-2.3587272E-1,3.5642646E-2,-1.1688247E-2,-3.260137E-2,1.3144647E-1],"split_indices":[11,13,13,0,0,0,0],"split_type":[0,0,0,0,0,0,0],"sum_hessian":[1.1935999E3,1.1451168E3,4.8482998E1,2.2635559E2,9.187612E2,1.4875203E1,3.3607796E1],"tree_param":{"num_deleted":"0","num_feature":"14","num_nodes":"7","size_leaf_vector":"1"}},{"base_weights":[9.602579E-3],"categories":[],"categories_nodes":[],"categories_segments":[],"categories_sizes":[],"default_left":[0],"id":87,"left_children":[-1],"loss_changes":[0E0],"parents":[2147483647],"right_children":[-1],"split_conditions":[3.5408342E-3],"split_indices":[0],"split_type":[0],"sum_hessian":[1.3903008E3],"tree_param":{"num_deleted":"0","num_feature":"14","num_nodes":"1","size_leaf_vector":"1"}},{"base_weights":[-0E0],"categories":[],"categories_nodes":[],"categories_segments":[],"categories_sizes":[],"default_left":[0],"id":88,"left_children":[-1],"loss_changes":[0E0],"parents":[2147483647],"right_children":[-1],"split_conditions":[-0E0],"split_indices":[0],"split_type":[0],"sum_hessian":[1.2413955E3],"tree_param":{"num_deleted":"0","num_feature":"14","num_nodes":"1","size_leaf_vector":"1"}},{"base_weights":[-1.5041351E-2],"categories":[],"categories_nodes":[],"categories_segments":[],"categories_sizes":[],"default_left":[0],"id":89,"left_children":[-1],"loss_changes":[0E0],"parents":[2147483647],"right_children":[-1],"split_conditions":[-5.546315E-3],"split_indices":[0],"split_type":[0],"sum_hessian":[9.082937E2],"tree_param":{"num_deleted":"0","num_feature":"14","num_nodes":"1","size_leaf_vector":"1"}},{"base_weights":[2.829636E-2],"categories":[],"categories_nodes":[],"categories_segments":[],"categories_sizes":[],"default_left":[0],"id":90,"left_children":[-1],"loss_changes":[0E0],"parents":[2147483647],"right_children":[-1],"split_conditions":[1.0433938E-2],"split_indices":[0],"split_type":[0],"sum_hessian":[1.9547308E3],"tree_param":{"num_deleted":"0","num_feature":"14","num_nodes":"1","size_leaf_vector":"1"}},{"base_weights":[1.11144185E-2,-7.5891695E-4,5.8202066E-2,1.6373364E-2,-4.747054E-2,5.1131576E-2,-2.6419407E-2],"categories":[],"categories_nodes":[],"categories_segments":[],"categories_sizes":[],"default_left":[0,0,0,0,0,0,0],"id":91,"left_children":[1,3,-1,-1,5,-1,-1],"loss_changes":[2.491913E0,2.4173458E0,0E0,0E0,2.664826E0,0E0,0E0],"parents":[2147483647,0,0,1,1,4,4],"right_children":[2,4,-1,-1,6,-1,-1],"split_conditions":[7.5388926E-1,2.1009572E0,5.8202066E-2,1.6373364E-2,-9.47396E-1,5.1131576E-2,-2.6419407E-2],"split_indices":[11,12,0,0,11,0,0],"split_type":[0,0,0,0,0,0,0],"sum_hessian":[1.193498E3,1.1057887E3,8.7709366E1,5.364405E2,5.693482E2,4.4032883E1,5.253153E2],"tree_param":{"num_deleted":"0","num_feature":"14","num_nodes":"7","size_leaf_vector":"1"}},{"base_weights":[1.0113695E-2],"categories":[],"categories_nodes":[],"categories_segments":[],"categories_sizes":[],"default_left":[0],"id":92,"left_children":[-1],"loss_changes":[0E0],"parents":[2147483647],"right_children":[-1],"split_conditions":[3.7293017E-3],"split_indices":[0],"split_type":[0],"sum_hessian":[1.3986244E3],"tree_param":{"num_deleted":"0","num_feature":"14","num_nodes":"1","size_leaf_vector":"1"}},{"base_weights":[-0E0,-2.7692562E-2,2.4006395E-2,-6.1329722E-2,5.0176546E-2,-4.095607E-2,2.61677E-3,5.1080685E-2,-2.3035694E-2],"categories":[],"categories_nodes":[],"categories_segments":[],"categories_sizes":[],"default_left":[0,0,0,0,0,0,0,0,0],"id":93,"left_children":[1,3,-1,5,7,-1,-1,-1,-1],"loss_changes":[2.3545198E0,2.4459634E0,0E0,2.5107188E0,2.934969E0,0E0,0E0,0E0,0E0],"parents":[2147483647,0,0,1,1,3,3,4,4],"right_children":[2,4,-1,6,8,-1,-1,-1,-1],"split_conditions":[1E0,-1.1506165E-2,2.4006395E-2,1E0,-1.7953983E-1,-4.095607E-2,2.61677E-3,5.1080685E-2,-2.3035694E-2],"split_indices":[0,11,0,9,13,0,0,0,0],"split_type":[0,0,0,0,0,0,0,0,0],"sum_hessian":[1.2577699E3,8.8377454E2,3.7399536E2,6.415028E2,2.4227168E2,3.8526477E2,2.5623807E2,1.4541435E2,9.6857315E1],"tree_param":{"num_deleted":"0","num_feature":"14","num_nodes":"9","size_leaf_vector":"1"}},{"base_weights":[-1.7433638E-2,-2.081041E-2,2.2912322E-2],"categories":[],"categories_nodes":[],"categories_segments":[],"categories_sizes":[],"default_left":[0,0,0],"id":94,"left_children":[1,-1,-1],"loss_changes":[2.9379861E0,0E0,0E0],"parents":[2147483647,0,0],"right_children":[2,-1,-1],"split_conditions":[2.4946415E0,-2.081041E-2,2.2912322E-2],"split_indices":[12,0,0],"split_type":[0,0,0],"sum_hessian":[9.1212427E2,6.359904E2,2.7613382E2],"tree_param":{"num_deleted":"0","num_feature":"14","num_nodes":"3","size_leaf_vector":"1"}},{"base_weights":[3.205672E-3,7.471415E-2,-6.921811E-4],"categories":[],"categories_nodes":[],"categories_segments":[],"categories_sizes":[],"default_left":[0,0,0],"id":95,"left_children":[1,-1,-1],"loss_changes":[2.464883E0,0E0,0E0],"parents":[2147483647,0,0],"right_children":[2,-1,-1],"split_conditions":[-1.1502101E0,7.471415E-2,-6.921811E-4],"split_indices":[11,0,0],"split_type":[0,0,0],"sum_hessian":[1.9292994E3,4.206778E1,1.8872317E3],"tree_param":{"num_deleted":"0","num_feature":"14","num_nodes":"3","size_leaf_vector":"1"}},{"base_weights":[-0E0],"categories":[],"categories_nodes":[],"categories_segments":[],"categories_sizes":[],"default_left":[0],"id":96,"left_children":[-1],"loss_changes":[0E0],"parents":[2147483647],"right_children":[-1],"split_conditions":[-0E0],"split_indices":[0],"split_type":[0],"sum_hessian":[1.1801033E3],"tree_param":{"num_deleted":"0","num_feature":"14","num_nodes":"1","size_leaf_vector":"1"}},{"base_weights":[1.854453E-3],"categories":[],"categories_nodes":[],"categories_segments":[],"categories_sizes":[],"default_left":[0],"id":97,"left_children":[-1],"loss_changes":[0E0],"parents":[2147483647],"right_children":[-1],"split_conditions":[6.8380695E-4],"split_indices":[0],"split_type":[0],"sum_hessian":[1.3735516E3],"tree_param":{"num_deleted":"0","num_feature":"14","num_nodes":"1","size_leaf_vector":"1"}},{"base_weights":[1.172667E-2],"categories":[],"categories_nodes":[],"categories_segments":[],"categories_sizes":[],"default_left":[0],"id":98,"left_children":[-1],"loss_changes":[0E0],"parents":[2147483647],"right_children":[-1],"split_conditions":[4.3240665E-3],"split_indices":[0],"split_type":[0],"sum_hessian":[1.2283971E3],"tree_param":{"num_deleted":"0","num_feature":"14","num_nodes":"1","size_leaf_vector":"1"}},{"base_weights":[-0E0,-1.3324694E-2,7.2001375E-2,-3.934293E-2,4.2438794E-2],"categories":[],"categories_nodes":[],"categories_segments":[],"categories_sizes":[],"default_left":[0,0,0,0,0],"id":99,"left_children":[1,-1,3,-1,-1],"loss_changes":[2.4867778E0,0E0,2.7609544E0,0E0,0E0],"parents":[2147483647,0,0,2,2],"right_children":[2,-1,4,-1,-1],"split_conditions":[2.453716E0,-1.3324694E-2,-5.9997874E-1,-3.934293E-2,4.2438794E-2],"split_indices":[12,0,11,0,0],"split_type":[0,0,0,0,0],"sum_hessian":[8.973164E2,5.8885693E2,3.0845944E2,4.381583E1,2.6464362E2],"tree_param":{"num_deleted":"0","num_feature":"14","num_nodes":"5","size_leaf_vector":"1"}},{"base_weights":[-1.3072275E-2],"categories":[],"categories_nodes":[],"categories_segments":[],"categories_sizes":[],"default_left":[0],"id":100,"left_children":[-1],"loss_changes":[0E0],"parents":[2147483647],"right_children":[-1],"split_conditions":[-4.820242E-3],"split_indices":[0],"split_type":[0],"sum_hessian":[1.9338672E3],"tree_param":{"num_deleted":"0","num_feature":"14","num_nodes":"1","size_leaf_vector":"1"}},{"base_weights":[9.938469E-4],"categories":[],"categories_nodes":[],"categories_segments":[],"categories_sizes":[],"default_left":[0],"id":101,"left_children":[-1],"loss_changes":[0E0],"parents":[2147483647],"right_children":[-1],"split_conditions":[3.6646894E-4],"split_indices":[0],"split_type":[0],"sum_hessian":[1.1654379E3],"tree_param":{"num_deleted":"0","num_feature":"14","num_nodes":"1","size_leaf_vector":"1"}},{"base_weights":[3.3062138E-2,2.0440085E-2,-1.5661104E-2],"categories":[],"categories_nodes":[],"categories_segments":[],"categories_sizes":[],"default_left":[0,0,0],"id":102,"left_children":[1,-1,-1],"loss_changes":[2.4927378E0,0E0,0E0],"parents":[2147483647,0,0],"right_children":[2,-1,-1],"split_conditions":[1E0,2.0440085E-2,-1.5661104E-2],"split_indices":[8,0,0],"split_type":[0,0,0],"sum_hessian":[1.4129528E3,1.1184795E3,2.944733E2],"tree_param":{"num_deleted":"0","num_feature":"14","num_nodes":"3","size_leaf_vector":"1"}},{"base_weights":[1.3561957E-2],"categories":[],"categories_nodes":[],"categories_segments":[],"categories_sizes":[],"default_left":[0],"id":103,"left_children":[-1],"loss_changes":[0E0],"parents":[2147483647],"right_children":[-1],"split_conditions":[5.0008064E-3],"split_indices":[0],"split_type":[0],"sum_hessian":[1.2474529E3],"tree_param":{"num_deleted":"0","num_feature":"14","num_nodes":"1","size_leaf_vector":"1"}},{"base_weights":[-0E0],"categories":[],"categories_nodes":[],"categories_segments":[],"categories_sizes":[],"default_left":[0],"id":104,"left_children":[-1],"loss_changes":[0E0],"parents":[2147483647],"right_children":[-1],"split_conditions":[-0E0],"split_indices":[0],"split_type":[0],"sum_hessian":[9.0369586E2],"tree_param":{"num_deleted":"0","num_feature":"14","num_nodes":"1","size_leaf_vector":"1"}},{"base_weights":[2.1598514E-2],"categories":[],"categories_nodes":[],"categories_segments":[],"categories_sizes":[],"default_left":[0],"id":105,"left_children":[-1],"loss_changes":[0E0],"parents":[2147483647],"right_children":[-1],"split_conditions":[7.964189E-3],"split_indices":[0],"split_type":[0],"sum_hessian":[1.9423137E3],"tree_param":{"num_deleted":"0","num_feature":"14","num_nodes":"1","size_leaf_vector":"1"}},{"base_weights":[-3.1620915E-5,-5.4915287E-2,4.3844394E-2,4.8946696E-3,-1.2353401E-1,4.1177023E-2,-4.1762143E-3,-5.6735974E-2,4.2528857E-2],"categories":[],"categories_nodes":[],"categories_segments":[],"categories_sizes":[],"default_left":[0,0,0,0,0,0,0,0,0],"id":106,"left_children":[1,3,5,-1,7,-1,-1,-1,-1],"loss_changes":[2.938896E0,2.9238968E0,2.688564E0,0E0,2.5863981E0,0E0,0E0,0E0,0E0],"parents":[2147483647,0,0,1,1,2,2,4,4],"right_children":[2,4,6,-1,8,-1,-1,-1,-1],"split_conditions":[1E0,2.0894194E0,-4.073767E-1,4.8946696E-3,1.0337985E0,4.1177023E-2,-4.1762143E-3,-5.6735974E-2,4.2528857E-2],"split_indices":[2,12,11,0,11,0,0,0,0],"split_type":[0,0,0,0,0,0,0,0,0],"sum_hessian":[1.1727662E3,5.4338605E2,6.293801E2,2.623284E2,2.8105768E2,2.935027E2,3.3587744E2,2.6412064E2,1.6937052E1],"tree_param":{"num_deleted":"0","num_feature":"14","num_nodes":"9","size_leaf_vector":"1"}},{"base_weights":[-2.614907E-4],"categories":[],"categories_nodes":[],"categories_segments":[],"categories_sizes":[],"default_left":[0],"id":107,"left_children":[-1],"loss_changes":[0E0],"parents":[2147483647],"right_children":[-1],"split_conditions":[-9.642151E-5],"split_indices":[0],"split_type":[0],"sum_hessian":[1.4151285E3],"tree_param":{"num_deleted":"0","num_feature":"14","num_nodes":"1","size_leaf_vector":"1"}},{"base_weights":[-5.0491192E-3,1.9881087E-3,-6.976681E-2],"categories":[],"categories_nodes":[],"categories_segments":[],"categories_sizes":[],"default_left":[0,0,0],"id":108,"left_children":[1,-1,-1],"loss_changes":[2.9138353E0,0E0,0E0],"parents":[2147483647,0,0],"right_children":[2,-1,-1],"split_conditions":[7.1054345E-1,1.9881087E-3,-6.976681E-2],"split_indices":[11,0,0],"split_type":[0,0,0],"sum_hessian":[1.2570486E3,1.1940231E3,6.302556E1],"tree_param":{"num_deleted":"0","num_feature":"14","num_nodes":"3","size_leaf_vector":"1"}},{"base_weights":[-3.9779805E-3],"categories":[],"categories_nodes":[],"categories_segments":[],"categories_sizes":[],"default_left":[0],"id":109,"left_children":[-1],"loss_changes":[0E0],"parents":[2147483647],"right_children":[-1],"split_conditions":[-1.4668318E-3],"split_indices":[0],"split_type":[0],"sum_hessian":[9.026422E2],"tree_param":{"num_deleted":"0","num_feature":"14","num_nodes":"1","size_leaf_vector":"1"}},{"base_weights":[3.3561134E-4],"categories":[],"categories_nodes":[],"categories_segments":[],"categories_sizes":[],"default_left":[0],"id":110,"left_children":[-1],"loss_changes":[0E0],"parents":[2147483647],"right_children":[-1],"split_conditions":[1.237526E-4],"split_indices":[0],"split_type":[0],"sum_hessian":[1.92146E3],"tree_param":{"num_deleted":"0","num_feature":"14","num_nodes":"1","size_leaf_vector":"1"}},{"base_weights":[2.4337186E-2],"categories":[],"categories_nodes":[],"categories_segments":[],"categories_sizes":[],"default_left":[0],"id":111,"left_children":[-1],"loss_changes":[0E0],"parents":[2147483647],"right_children":[-1],"split_conditions":[8.974041E-3],"split_indices":[0],"split_type":[0],"sum_hessian":[1.1797396E3],"tree_param":{"num_deleted":"0","num_feature":"14","num_nodes":"1","size_leaf_vector":"1"}},{"base_weights":[9.679436E-3],"categories":[],"categories_nodes":[],"categories_segments":[],"categories_sizes":[],"default_left":[0],"id":112,"left_children":[-1],"loss_changes":[0E0],"parents":[2147483647],"right_children":[-1],"split_conditions":[3.569174E-3],"split_indices":[0],"split_type":[0],"sum_hessian":[1.4089203E3],"tree_param":{"num_deleted":"0","num_feature":"14","num_nodes":"1","size_leaf_vector":"1"}},{"base_weights":[-2.3415657E-2,-3.1221498E-2,1.9153289E-3],"categories":[],"categories_nodes":[],"categories_segments":[],"categories_sizes":[],"default_left":[0,0,0],"id":113,"left_children":[1,-1,-1],"loss_changes":[2.4337387E0,0E0,0E0],"parents":[2147483647,0,0],"right_children":[2,-1,-1],"split_conditions":[1.9993081E0,-3.1221498E-2,1.9153289E-3],"split_indices":[12,0,0],"split_type":[0,0,0],"sum_hessian":[1.2565168E3,4.1543793E2,8.4107886E2],"tree_param":{"num_deleted":"0","num_feature":"14","num_nodes":"3","size_leaf_vector":"1"}},{"base_weights":[-2.316694E-3],"categories":[],"categories_nodes":[],"categories_segments":[],"categories_sizes":[],"default_left":[0],"id":114,"left_children":[-1],"loss_changes":[0E0],"parents":[2147483647],"right_children":[-1],"split_conditions":[-8.5425266E-4],"split_indices":[0],"split_type":[0],"sum_hessian":[8.9484106E2],"tree_param":{"num_deleted":"0","num_feature":"14","num_nodes":"1","size_leaf_vector":"1"}},{"base_weights":[1.0104463E-2],"categories":[],"categories_nodes":[],"categories_segments":[],"categories_sizes":[],"default_left":[0],"id":115,"left_children":[-1],"loss_changes":[0E0],"parents":[2147483647],"right_children":[-1],"split_conditions":[3.7258978E-3],"split_indices":[0],"split_type":[0],"sum_hessian":[1.9361796E3],"tree_param":{"num_deleted":"0","num_feature":"14","num_nodes":"1","size_leaf_vector":"1"}},{"base_weights":[2.2784853E-3],"categories":[],"categories_nodes":[],"categories_segments":[],"categories_sizes":[],"default_left":[0],"id":116,"left_children":[-1],"loss_changes":[0E0],"parents":[2147483647],"right_children":[-1],"split_conditions":[8.4016373E-4],"split_indices":[0],"split_type":[0],"sum_hessian":[1.200461E3],"tree_param":{"num_deleted":"0","num_feature":"14","num_nodes":"1","size_leaf_vector":"1"}},{"base_weights":[8.682546E-3],"categories":[],"categories_nodes":[],"categories_segments":[],"categories_sizes":[],"default_left":[0],"id":117,"left_children":[-1],"loss_changes":[0E0],"parents":[2147483647],"right_children":[-1],"split_conditions":[3.2015832E-3],"split_indices":[0],"split_type":[0],"sum_hessian":[1.4051665E3],"tree_param":{"num_deleted":"0","num_feature":"14","num_nodes":"1","size_leaf_vector":"1"}},{"base_weights":[1.316678E-3],"categories":[],"categories_nodes":[],"categories_segments":[],"categories_sizes":[],"default_left":[0],"id":118,"left_children":[-1],"loss_changes":[0E0],"parents":[2147483647],"right_children":[-1],"split_conditions":[4.8550896E-4],"split_indices":[0],"split_type":[0],"sum_hessian":[1.22671E3],"tree_param":{"num_deleted":"0","num_feature":"14","num_nodes":"1","size_leaf_vector":"1"}},{"base_weights":[-5.2321986E-3],"categories":[],"categories_nodes":[],"categories_segments":[],"categories_sizes":[],"default_left":[0],"id":119,"left_children":[-1],"loss_changes":[0E0],"parents":[2147483647],"right_children":[-1],"split_conditions":[-1.9293095E-3],"split_indices":[0],"split_type":[0],"sum_hessian":[8.9489905E2],"tree_param":{"num_deleted":"0","num_feature":"14","num_nodes":"1","size_leaf_vector":"1"}},{"base_weights":[7.974182E-3,1.2204023E-2,-2.6320279E-2],"categories":[],"categories_nodes":[],"categories_segments":[],"categories_sizes":[],"default_left":[0,0,0],"id":120,"left_children":[1,-1,-1],"loss_changes":[3.8419685E0,0E0,0E0],"parents":[2147483647,0,0],"right_children":[2,-1,-1],"split_conditions":[1E0,1.2204023E-2,-2.6320279E-2],"split_indices":[6,0,0],"split_type":[0,0,0],"sum_hessian":[1.9334965E3,1.4997334E3,4.33763E2],"tree_param":{"num_deleted":"0","num_feature":"14","num_nodes":"3","size_leaf_vector":"1"}},{"base_weights":[9.306754E-4],"categories":[],"categories_nodes":[],"categories_segments":[],"categories_sizes":[],"default_left":[0],"id":121,"left_children":[-1],"loss_changes":[0E0],"parents":[2147483647],"right_children":[-1],"split_conditions":[3.4317523E-4],"split_indices":[0],"split_type":[0],"sum_hessian":[1.2054895E3],"tree_param":{"num_deleted":"0","num_feature":"14","num_nodes":"1","size_leaf_vector":"1"}},{"base_weights":[-8.787852E-3],"categories":[],"categories_nodes":[],"categories_segments":[],"categories_sizes":[],"default_left":[0],"id":122,"left_children":[-1],"loss_changes":[0E0],"parents":[2147483647],"right_children":[-1],"split_conditions":[-3.2404133E-3],"split_indices":[0],"split_type":[0],"sum_hessian":[1.4219958E3],"tree_param":{"num_deleted":"0","num_feature":"14","num_nodes":"1","size_leaf_vector":"1"}},{"base_weights":[1.7349092E-2],"categories":[],"categories_nodes":[],"categories_segments":[],"categories_sizes":[],"default_left":[0],"id":123,"left_children":[-1],"loss_changes":[0E0],"parents":[2147483647],"right_children":[-1],"split_conditions":[6.3972664E-3],"split_indices":[0],"split_type":[0],"sum_hessian":[1.252663E3],"tree_param":{"num_deleted":"0","num_feature":"14","num_nodes":"1","size_leaf_vector":"1"}},{"base_weights":[-0E0],"categories":[],"categories_nodes":[],"categories_segments":[],"categories_sizes":[],"default_left":[0],"id":124,"left_children":[-1],"loss_changes":[0E0],"parents":[2147483647],"right_children":[-1],"split_conditions":[-0E0],"split_indices":[0],"split_type":[0],"sum_hessian":[8.906726E2],"tree_param":{"num_deleted":"0","num_feature":"14","num_nodes":"1","size_leaf_vector":"1"}},{"base_weights":[7.593625E-3],"categories":[],"categories_nodes":[],"categories_segments":[],"categories_sizes":[],"default_left":[0],"id":125,"left_children":[-1],"loss_changes":[0E0],"parents":[2147483647],"right_children":[-1],"split_conditions":[2.8000567E-3],"split_indices":[0],"split_type":[0],"sum_hessian":[1.9609171E3],"tree_param":{"num_deleted":"0","num_feature":"14","num_nodes":"1","size_leaf_vector":"1"}},{"base_weights":[-9.207539E-3],"categories":[],"categories_nodes":[],"categories_segments":[],"categories_sizes":[],"default_left":[0],"id":126,"left_children":[-1],"loss_changes":[0E0],"parents":[2147483647],"right_children":[-1],"split_conditions":[-3.3951679E-3],"split_indices":[0],"split_type":[0],"sum_hessian":[1.1752316E3],"tree_param":{"num_deleted":"0","num_feature":"14","num_nodes":"1","size_leaf_vector":"1"}},{"base_weights":[-3.8905304E-3],"categories":[],"categories_nodes":[],"categories_segments":[],"categories_sizes":[],"default_left":[0],"id":127,"left_children":[-1],"loss_changes":[0E0],"parents":[2147483647],"right_children":[-1],"split_conditions":[-1.4345857E-3],"split_indices":[0],"split_type":[0],"sum_hessian":[1.383561E3],"tree_param":{"num_deleted":"0","num_feature":"14","num_nodes":"1","size_leaf_vector":"1"}},{"base_weights":[1.6943632E-2],"categories":[],"categories_nodes":[],"categories_segments":[],"categories_sizes":[],"default_left":[0],"id":128,"left_children":[-1],"loss_changes":[0E0],"parents":[2147483647],"right_children":[-1],"split_conditions":[6.247758E-3],"split_indices":[0],"split_type":[0],"sum_hessian":[1.2408286E3],"tree_param":{"num_deleted":"0","num_feature":"14","num_nodes":"1","size_leaf_vector":"1"}},{"base_weights":[-2.9054983E-3],"categories":[],"categories_nodes":[],"categories_segments":[],"categories_sizes":[],"default_left":[0],"id":129,"left_children":[-1],"loss_changes":[0E0],"parents":[2147483647],"right_children":[-1],"split_conditions":[-1.0713671E-3],"split_indices":[0],"split_type":[0],"sum_hessian":[8.9596857E2],"tree_param":{"num_deleted":"0","num_feature":"14","num_nodes":"1","size_leaf_vector":"1"}},{"base_weights":[-1.211674E-2,5.1324457E-2,-7.685817E-3],"categories":[],"categories_nodes":[],"categories_segments":[],"categories_sizes":[],"default_left":[0,0,0],"id":130,"left_children":[1,-1,-1],"loss_changes":[2.343208E0,0E0,0E0],"parents":[2147483647,0,0],"right_children":[2,-1,-1],"split_conditions":[-1.0473324E0,5.1324457E-2,-7.685817E-3],"split_indices":[11,0,0],"split_type":[0,0,0],"sum_hessian":[1.9321216E3,7.538647E1,1.8567351E3],"tree_param":{"num_deleted":"0","num_feature":"14","num_nodes":"3","size_leaf_vector":"1"}},{"base_weights":[1.503305E-2],"categories":[],"categories_nodes":[],"categories_segments":[],"categories_sizes":[],"default_left":[0],"id":131,"left_children":[-1],"loss_changes":[0E0],"parents":[2147483647],"right_children":[-1],"split_conditions":[5.5432543E-3],"split_indices":[0],"split_type":[0],"sum_hessian":[1.1633545E3],"tree_param":{"num_deleted":"0","num_feature":"14","num_nodes":"1","size_leaf_vector":"1"}},{"base_weights":[-1.2285289E-2],"categories":[],"categories_nodes":[],"categories_segments":[],"categories_sizes":[],"default_left":[0],"id":132,"left_children":[-1],"loss_changes":[0E0],"parents":[2147483647],"right_children":[-1],"split_conditions":[-4.530051E-3],"split_indices":[0],"split_type":[0],"sum_hessian":[1.4138331E3],"tree_param":{"num_deleted":"0","num_feature":"14","num_nodes":"1","size_leaf_vector":"1"}},{"base_weights":[3.695978E-3],"categories":[],"categories_nodes":[],"categories_segments":[],"categories_sizes":[],"default_left":[0],"id":133,"left_children":[-1],"loss_changes":[0E0],"parents":[2147483647],"right_children":[-1],"split_conditions":[1.3628469E-3],"split_indices":[0],"split_type":[0],"sum_hessian":[1.2313784E3],"tree_param":{"num_deleted":"0","num_feature":"14","num_nodes":"1","size_leaf_vector":"1"}},{"base_weights":[1.2105047E-2,1.939176E-2,-2.128107E-2],"categories":[],"categories_nodes":[],"categories_segments":[],"categories_sizes":[],"default_left":[0,0,0],"id":134,"left_children":[1,-1,-1],"loss_changes":[2.6480577E0,0E0,0E0],"parents":[2147483647,0,0],"right_children":[2,-1,-1],"split_conditions":[1E0,1.939176E-2,-2.128107E-2],"split_indices":[4,0,0],"split_type":[0,0,0],"sum_hessian":[9.032789E2,5.9645685E2,3.06822E2],"tree_param":{"num_deleted":"0","num_feature":"14","num_nodes":"3","size_leaf_vector":"1"}},{"base_weights":[7.9088565E-3],"categories":[],"categories_nodes":[],"categories_segments":[],"categories_sizes":[],"default_left":[0],"id":135,"left_children":[-1],"loss_changes":[0E0],"parents":[2147483647],"right_children":[-1],"split_conditions":[2.9162944E-3],"split_indices":[0],"split_type":[0],"sum_hessian":[1.943528E3],"tree_param":{"num_deleted":"0","num_feature":"14","num_nodes":"1","size_leaf_vector":"1"}},{"base_weights":[7.2228243E-3],"categories":[],"categories_nodes":[],"categories_segments":[],"categories_sizes":[],"default_left":[0],"id":136,"left_children":[-1],"loss_changes":[0E0],"parents":[2147483647],"right_children":[-1],"split_conditions":[2.6633285E-3],"split_indices":[0],"split_type":[0],"sum_hessian":[1.1775726E3],"tree_param":{"num_deleted":"0","num_feature":"14","num_nodes":"1","size_leaf_vector":"1"}},{"base_weights":[-0E0],"categories":[],"categories_nodes":[],"categories_segments":[],"categories_sizes":[],"default_left":[0],"id":137,"left_children":[-1],"loss_changes":[0E0],"parents":[2147483647],"right_children":[-1],"split_conditions":[-0E0],"split_indices":[0],"split_type":[0],"sum_hessian":[1.4068319E3],"tree_param":{"num_deleted":"0","num_feature":"14","num_nodes":"1","size_leaf_vector":"1"}},{"base_weights":[-8.794487E-3],"categories":[],"categories_nodes":[],"categories_segments":[],"categories_sizes":[],"default_left":[0],"id":138,"left_children":[-1],"loss_changes":[0E0],"parents":[2147483647],"right_children":[-1],"split_conditions":[-3.24286E-3],"split_indices":[0],"split_type":[0],"sum_hessian":[1.2384573E3],"tree_param":{"num_deleted":"0","num_feature":"14","num_nodes":"1","size_leaf_vector":"1"}},{"base_weights":[-1.7131751E-2],"categories":[],"categories_nodes":[],"categories_segments":[],"categories_sizes":[],"default_left":[0],"id":139,"left_children":[-1],"loss_changes":[0E0],"parents":[2147483647],"right_children":[-1],"split_conditions":[-6.3171247E-3],"split_indices":[0],"split_type":[0],"sum_hessian":[8.9579846E2],"tree_param":{"num_deleted":"0","num_feature":"14","num_nodes":"1","size_leaf_vector":"1"}},{"base_weights":[-6.893443E-4],"categories":[],"categories_nodes":[],"categories_segments":[],"categories_sizes":[],"default_left":[0],"id":140,"left_children":[-1],"loss_changes":[0E0],"parents":[2147483647],"right_children":[-1],"split_conditions":[-2.5418733E-4],"split_indices":[0],"split_type":[0],"sum_hessian":[1.9487682E3],"tree_param":{"num_deleted":"0","num_feature":"14","num_nodes":"1","size_leaf_vector":"1"}},{"base_weights":[-1.3483631E-3],"categories":[],"categories_nodes":[],"categories_segments":[],"categories_sizes":[],"default_left":[0],"id":141,"left_children":[-1],"loss_changes":[0E0],"parents":[2147483647],"right_children":[-1],"split_conditions":[-4.971925E-4],"split_indices":[0],"split_type":[0],"sum_hessian":[1.1739863E3],"tree_param":{"num_deleted":"0","num_feature":"14","num_nodes":"1","size_leaf_vector":"1"}},{"base_weights":[-2.959309E-3],"categories":[],"categories_nodes":[],"categories_segments":[],"categories_sizes":[],"default_left":[0],"id":142,"left_children":[-1],"loss_changes":[0E0],"parents":[2147483647],"right_children":[-1],"split_conditions":[-1.0912091E-3],"split_indices":[0],"split_type":[0],"sum_hessian":[1.405756E3],"tree_param":{"num_deleted":"0","num_feature":"14","num_nodes":"1","size_leaf_vector":"1"}},{"base_weights":[3.8493213E-3],"categories":[],"categories_nodes":[],"categories_segments":[],"categories_sizes":[],"default_left":[0],"id":143,"left_children":[-1],"loss_changes":[0E0],"parents":[2147483647],"right_children":[-1],"split_conditions":[1.4193903E-3],"split_indices":[0],"split_type":[0],"sum_hessian":[1.2444375E3],"tree_param":{"num_deleted":"0","num_feature":"14","num_nodes":"1","size_leaf_vector":"1"}},{"base_weights":[-0E0,-1.1851226E-2,3.5669275E-2],"categories":[],"categories_nodes":[],"categories_segments":[],"categories_sizes":[],"default_left":[0,0,0],"id":144,"left_children":[1,-1,-1],"loss_changes":[2.9160328E0,0E0,0E0],"parents":[2147483647,0,0],"right_children":[2,-1,-1],"split_conditions":[1E0,-1.1851226E-2,3.5669275E-2],"split_indices":[8,0,0],"split_type":[0,0,0],"sum_hessian":[8.920563E2,6.752862E2,2.1677005E2],"tree_param":{"num_deleted":"0","num_feature":"14","num_nodes":"3","size_leaf_vector":"1"}},{"base_weights":[-1.0237387E-2,4.1524515E-2,-8.337124E-3],"categories":[],"categories_nodes":[],"categories_segments":[],"categories_sizes":[],"default_left":[0,0,0],"id":145,"left_children":[1,-1,-1],"loss_changes":[2.790776E0,0E0,0E0],"parents":[2147483647,0,0],"right_children":[2,-1,-1],"split_conditions":[-6.2367785E-1,4.1524515E-2,-8.337124E-3],"split_indices":[13,0,0],"split_type":[0,0,0],"sum_hessian":[1.9298647E3,1.4519171E2,1.784673E3],"tree_param":{"num_deleted":"0","num_feature":"14","num_nodes":"3","size_leaf_vector":"1"}},{"base_weights":[-4.2500063E-3],"categories":[],"categories_nodes":[],"categories_segments":[],"categories_sizes":[],"default_left":[0],"id":146,"left_children":[-1],"loss_changes":[0E0],"parents":[2147483647],"right_children":[-1],"split_conditions":[-1.567138E-3],"split_indices":[0],"split_type":[0],"sum_hessian":[1.1914435E3],"tree_param":{"num_deleted":"0","num_feature":"14","num_nodes":"1","size_leaf_vector":"1"}},{"base_weights":[8.104272E-3],"categories":[],"categories_nodes":[],"categories_segments":[],"categories_sizes":[],"default_left":[0],"id":147,"left_children":[-1],"loss_changes":[0E0],"parents":[2147483647],"right_children":[-1],"split_conditions":[2.9883517E-3],"split_indices":[0],"split_type":[0],"sum_hessian":[1.3951758E3],"tree_param":{"num_deleted":"0","num_feature":"14","num_nodes":"1","size_leaf_vector":"1"}},{"base_weights":[-1.482656E-2],"categories":[],"categories_nodes":[],"categories_segments":[],"categories_sizes":[],"default_left":[0],"id":148,"left_children":[-1],"loss_changes":[0E0],"parents":[2147483647],"right_children":[-1],"split_conditions":[-5.4671136E-3],"split_indices":[0],"split_type":[0],"sum_hessian":[1.2473317E3],"tree_param":{"num_deleted":"0","num_feature":"14","num_nodes":"1","size_leaf_vector":"1"}},{"base_weights":[-1.3266289E-2],"categories":[],"categories_nodes":[],"categories_segments":[],"categories_sizes":[],"default_left":[0],"id":149,"left_children":[-1],"loss_changes":[0E0],"parents":[2147483647],"right_children":[-1],"split_conditions":[-4.8917825E-3],"split_indices":[0],"split_type":[0],"sum_hessian":[8.930555E2],"tree_param":{"num_deleted":"0","num_feature":"14","num_nodes":"1","size_leaf_vector":"1"}},{"base_weights":[-4.198846E-3],"categories":[],"categories_nodes":[],"categories_segments":[],"categories_sizes":[],"default_left":[0],"id":150,"left_children":[-1],"loss_changes":[0E0],"parents":[2147483647],"right_children":[-1],"split_conditions":[-1.5482733E-3],"split_indices":[0],"split_type":[0],"sum_hessian":[1.9586368E3],"tree_param":{"num_deleted":"0","num_feature":"14","num_nodes":"1","size_leaf_vector":"1"}},{"base_weights":[-9.759942E-3],"categories":[],"categories_nodes":[],"categories_segments":[],"categories_sizes":[],"default_left":[0],"id":151,"left_children":[-1],"loss_changes":[0E0],"parents":[2147483647],"right_children":[-1],"split_conditions":[-3.5988598E-3],"split_indices":[0],"split_type":[0],"sum_hessian":[1.1925028E3],"tree_param":{"num_deleted":"0","num_feature":"14","num_nodes":"1","size_leaf_vector":"1"}},{"base_weights":[-1.1547464E-2],"categories":[],"categories_nodes":[],"categories_segments":[],"categories_sizes":[],"default_left":[0],"id":152,"left_children":[-1],"loss_changes":[0E0],"parents":[2147483647],"right_children":[-1],"split_conditions":[-4.257987E-3],"split_indices":[0],"split_type":[0],"sum_hessian":[1.4062253E3],"tree_param":{"num_deleted":"0","num_feature":"14","num_nodes":"1","size_leaf_vector":"1"}},{"base_weights":[1.958231E-2,-1.0375667E-3,3.8121577E-2],"categories":[],"categories_nodes":[],"categories_segments":[],"categories_sizes":[],"default_left":[0,0,0],"id":153,"left_children":[1,-1,-1],"loss_changes":[2.5953496E0,0E0,0E0],"parents":[2147483647,0,0],"right_children":[2,-1,-1],"split_conditions":[1E0,-1.0375667E-3,3.8121577E-2],"split_indices":[6,0,0],"split_type":[0,0,0],"sum_hessian":[1.2325493E3,9.6387115E2,2.686782E2],"tree_param":{"num_deleted":"0","num_feature":"14","num_nodes":"3","size_leaf_vector":"1"}},{"base_weights":[-0E0],"categories":[],"categories_nodes":[],"categories_segments":[],"categories_sizes":[],"default_left":[0],"id":154,"left_children":[-1],"loss_changes":[0E0],"parents":[2147483647],"right_children":[-1],"split_conditions":[-0E0],"split_indices":[0],"split_type":[0],"sum_hessian":[8.7952466E2],"tree_param":{"num_deleted":"0","num_feature":"14","num_nodes":"1","size_leaf_vector":"1"}},{"base_weights":[-1.7507429E-3,-5.9359744E-3,4.233699E-2],"categories":[],"categories_nodes":[],"categories_segments":[],"categories_sizes":[],"default_left":[0,0,0],"id":155,"left_children":[1,-1,-1],"loss_changes":[3.0328846E0,0E0,0E0],"parents":[2147483647,0,0],"right_children":[2,-1,-1],