{"learner":{"attributes":{"scikit_learn":"{\"_estimator_type\": \"classifier\"}"},"feature_names":["velo","velo_diff","extension","extension_ratio","x0_ratio","z0_ratio","spin_rate","adj_spin_dir","HB","IVB","Break","pitcherHand_L","pitcherHand_R"],"feature_types":["float","float","float","float","float","float","float","float","float","float","float","i","i"],"gradient_booster":{"model":{"gbtree_model_param":{"num_parallel_tree":"1","num_trees":"100"},"iteration_indptr":[0,1,2,3,4,5,6,7,8,9,10,11,12,13,14,15,16,17,18,19,20,21,22,23,24,25,26,27,28,29,30,31,32,33,34,35,36,37,38,39,40,41,42,43,44,45,46,47,48,49,50,51,52,53,54,55,56,57,58,59,60,61,62,63,64,65,66,67,68,69,70,71,72,73,74,75,76,77,78,79,80,81,82,83,84,85,86,87,88,89,90,91,92,93,94,95,96,97,98,99,100],"tree_info":[0,0,0,0,0,0,0,0,0,0,0,0,0,0,0,0,0,0,0,0,0,0,0,0,0,0,0,0,0,0,0,0,0,0,0,0,0,0,0,0,0,0,0,0,0,0,0,0,0,0,0,0,0,0,0,0,0,0,0,0,0,0,0,0,0,0,0,0,0,0,0,0,0,0,0,0,0,0,0,0,0,0,0,0,0,0,0,0,0,0,0,0,0,0,0,0,0,0,0,0],"trees":[{"base_weights":[-1.2496148E-3,-5.0975647E-2,1.0829824E-1,-1.7088642E-2,-1.1272344E-1,-1.889903E-2,1.4649649E-1,-6.571484E-2,1.263945E-2,-8.585134E-2,-1.5535428E-1,2.6559466E-3,-1.2878011E-2,1.177835E-1,2.145644E-1,6.858848E-2,-1.2989111E-1,-1.1071595E-2,3.0793358E-2,-1.1504735E-1,-8.404688E-3,-1.6268139E-1,-0E0,2.9748263E-2,-0E0,2.2130693E-1,-0E0,9.2992745E-2,-0E0,-0E0,-1.4095874E-1,1.8027367E-2,-5.890708E-3,-7.6123666E-5,4.153359E-2,-0E0,-2.983126E-2,-0E0,-4.094223E-2,5.488155E-2,-0E0,-0E0,2.5172582E-2,-2.0878632E-1,-9.641596E-2,1.1628136E-2,-5.4086857E-3,-0E0,-2.2617732E-1,-0E0,-1.0781605E-1,-0E0,-5.90865E-2,-2.8991384E-2,-0E0],"categories":[],"categories_nodes":[],"categories_segments":[],"categories_sizes":[],"default_left":[1,1,0,1,0,1,0,1,0,1,1,0,0,0,0,1,0,0,0,1,0,0,0,0,0,0,0,0,0,0,1,0,0,0,0,0,0,0,0,0,0,0,0,0,0,0,0,0,0,0,1,0,0,0,0],"id":0,"left_children":[1,3,5,7,9,11,13,15,17,19,21,-1,-1,23,25,27,29,31,33,35,-1,37,-1,-1,-1,39,-1,41,-1,-1,43,-1,-1,-1,45,-1,-1,-1,-1,-1,-1,-1,-1,47,49,-1,-1,-1,51,-1,53,-1,-1,-1,-1],"loss_changes":[9.009662E2,2.3221277E2,2.5737195E2,1.1081226E2,3.192633E1,1.3994798E1,5.8868652E1,2.5366039E2,2.0733778E1,2.955017E1,1.3306549E1,0E0,0E0,1.5681519E1,1.1104736E1,1.9184238E1,2.8369965E1,1.7466215E1,1.1431629E1,1.8932678E1,0E0,1.2423248E1,0E0,0E0,0E0,9.782532E0,0E0,1.027388E1,0E0,0E0,3.784955E1,0E0,0E0,0E0,9.71637E0,0E0,0E0,0E0,0E0,0E0,0E0,0E0,0E0,2.903955E1,1.2217377E1,0E0,0E0,0E0,1.28776245E1,0E0,1.5462662E1,0E0,0E0,0E0,0E0],"parents":[2147483647,0,0,1,1,2,2,3,3,4,4,5,5,6,6,7,7,8,8,9,9,10,10,13,13,14,14,15,15,16,16,17,17,18,18,19,19,21,21,25,25,27,27,30,30,34,34,43,43,44,44,48,48,50,50],"right_children":[2,4,6,8,10,12,14,16,18,20,22,-1,-1,24,26,28,30,32,34,36,-1,38,-1,-1,-1,40,-1,42,-1,-1,44,-1,-1,-1,46,-1,-1,-1,-1,-1,-1,-1,-1,48,50,-1,-1,-1,52,-1,54,-1,-1,-1,-1],"split_conditions":[9.53E1,1.22E1,1.08E1,9.23E1,1.63E1,1.56E1,9.75E1,1.2020815E1,9.36E1,9.34E1,1.47E2,2.6559466E-3,-1.2878011E-2,1.62E1,7.348523E0,1.4E0,-6E-1,8E-1,1.5616017E1,9.5E1,-8.404688E-3,9.5E1,-0E0,2.9748263E-2,-0E0,1.73E1,-0E0,5.6619744E0,-0E0,-0E0,9.07E1,1.8027367E-2,-5.890708E-3,-7.6123666E-5,7.206034E0,-0E0,-2.983126E-2,-0E0,-4.094223E-2,5.488155E-2,-0E0,-0E0,2.5172582E-2,8.49E1,1.35E2,1.1628136E-2,-5.4086857E-3,-0E0,1.3238202E1,-0E0,7.187431E0,-0E0,-5.90865E-2,-2.8991384E-2,-0E0],"split_indices":[0,8,9,0,8,8,0,10,0,0,7,0,0,8,2,8,8,8,10,7,0,7,0,0,0,8,0,2,0,0,0,0,0,0,2,0,0,0,0,0,0,0,0,0,7,0,0,0,10,0,2,0,0,0,0],"split_type":[0,0,0,0,0,0,0,0,0,0,0,0,0,0,0,0,0,0,0,0,0,0,0,0,0,0,0,0,0,0,0,0,0,0,0,0,0,0,0,0,0,0,0,0,0,0,0,0,0,0,0,0,0,0,0],"sum_hessian":[1.6598377E5,1.1452424E5,5.145953E4,7.4547125E4,3.9977113E4,1.1539557E4,3.9919973E4,2.9010705E4,4.553642E4,2.5354986E4,1.4622128E4,5.235181E3,6.304375E3,2.8679342E4,1.1240632E4,9.092014E3,1.9918691E4,1.8380898E4,2.7155523E4,1.5465755E4,9.88923E3,1.3836888E4,7.852398E2,2.7945754E4,7.335891E2,1.0792493E4,4.4813812E2,7.161726E3,1.9302876E3,1.5782147E3,1.8340477E4,1.8576772E3,1.652322E4,5.6047207E3,2.1550803E4,4.3790778E2,1.5027848E4,3.2961606E2,1.3507272E4,1.0688942E4,1.0355084E2,3.4833008E2,6.813396E3,6.752014E3,1.1588462E4,2.051205E4,1.0387522E3,4.316698E2,6.320344E3,1.2713049E3,1.0317157E4,5.621688E2,5.7581753E3,9.632225E3,6.849327E2],"tree_param":{"num_deleted":"0","num_feature":"13","num_nodes":"55","size_leaf_vector":"1"}},{"base_weights":[-5.275795E-3,-4.895045E-2,6.88948E-2,-6.786149E-2,6.2538216E-5,2.8478473E-2,1.05969444E-1,-9.850705E-2,-3.2177966E-2,-9.175892E-3,7.4163616E-2,-3.4203276E-2,4.7337435E-2,1.1805039E-1,-7.8000664E-3,2.407411E-2,-1.0511513E-1,-5.105583E-2,1.9359475E-2,-2.515795E-2,2.920637E-2,2.5831506E-2,-8.887983E-3,-0E0,-7.751485E-2,5.6409057E-2,-2.606552E-2,4.5712356E-2,1.5295033E-1,-1.1523679E-1,-0E0,-0E0,-5.741013E-2,-0E0,1.6983394E-2,-4.7966864E-2,1.059171E-3,4.970505E-2,-1.3667954E-2,-3.0547135E-2,-0E0,-0E0,6.812304E-2,2.8667534E-2,5.3126723E-2,1.6259693E-2,1.8548098E-1,-1.1988202E-2,-1.2585688E-1,-1.5808087E-2,-0E0,-6.387383E-2,-0E0,-0E0,9.5008865E-2,-0E0,7.535143E-2,5.2312225E-2,-1.572242E-2,-0E0,4.608724E-2,-3.9232552E-2,-9.4788305E-2,-1.9899504E-2,1.0023637E-2,8.7550026E-4,-1.805956E-2,2.7524484E-2,-0E0,6.5280925E-3,2.3689458E-2,-2.5851093E-3,1.6238715E-2,-3.0763408E-2,-8.293658E-3],"categories":[],"categories_nodes":[],"categories_segments":[],"categories_sizes":[],"default_left":[0,0,0,0,1,1,0,0,0,0,0,0,0,0,0,0,0,0,0,0,0,0,0,0,0,0,0,0,0,0,0,0,0,0,0,1,0,0,0,0,0,0,0,0,0,0,0,0,0,0,0,0,0,0,0,0,0,0,0,0,0,0,0,0,0,0,0,0,0,0,0,0,0,0,0],"id":1,"left_children":[1,3,5,7,9,11,13,15,17,19,21,23,25,27,-1,-1,29,31,33,35,37,-1,-1,-1,39,41,-1,43,45,47,-1,-1,49,-1,-1,51,-1,53,-1,-1,-1,-1,55,57,-1,-1,59,-1,61,-1,63,65,-1,-1,67,-1,69,71,-1,-1,-1,-1,73,-1,-1,-1,-1,-1,-1,-1,-1,-1,-1,-1,-1],"loss_changes":[5.355067E2,1.0097089E2,8.356308E1,7.608502E1,2.3114191E1,3.6093307E1,5.6630676E1,5.283258E1,3.7022594E1,1.4806652E1,1.7295254E1,1.0291675E1,3.0233177E1,6.1584778E1,0E0,0E0,4.0483093E1,1.1043602E1,9.463825E0,1.48449135E1,1.0401177E1,0E0,0E0,0E0,1.41627655E1,1.1486694E1,0E0,1.4992283E1,3.8858643E1,1.5056793E1,0E0,0E0,9.258072E0,0E0,0E0,1.1328371E1,0E0,1.5790009E1,0E0,0E0,0E0,0E0,1.0732735E1,1.9913929E1,0E0,0E0,1.0524261E1,0E0,1.754248E1,0E0,1.0910057E1,1.0232338E1,0E0,0E0,9.026682E0,0E0,1.03452835E1,1.0249014E1,0E0,0E0,0E0,0E0,2.2347885E1,0E0,0E0,0E0,0E0,0E0,0E0,0E0,0E0,0E0,0E0,0E0,0E0],"parents":[2147483647,0,0,1,1,2,2,3,3,4,4,5,5,6,6,7,7,8,8,9,9,10,10,11,11,12,12,13,13,16,16,17,17,18,18,19,19,20,20,24,24,25,25,27,27,28,28,29,29,32,32,35,35,37,37,42,42,43,43,46,46,48,48,50,50,51,51,54,54,56,56,57,57,62,62],"right_children":[2,4,6,8,10,12,14,16,18,20,22,24,26,28,-1,-1,30,32,34,36,38,-1,-1,-1,40,42,-1,44,46,48,-1,-1,50,-1,-1,52,-1,54,-1,-1,-1,-1,56,58,-1,-1,60,-1,62,-1,64,66,-1,-1,68,-1,70,72,-1,-1,-1,-1,74,-1,-1,-1,-1,-1,-1,-1,-1,-1,-1,-1,-1],"split_conditions":[9.49E1,2.355E3,9.63E1,9.27E1,1.75E2,1.33E2,9.967776E-1,9.5E1,1.2680036E-1,-1.2037563E-2,1.0192126E0,8.565877E-1,1.0166485E0,8.8633245E-1,-7.8000664E-3,2.407411E-2,1.66E2,8.12961E-1,1.47E2,9.38E1,9.8999465E-1,2.5831506E-2,-8.887983E-3,-0E0,2.2750504E-1,8.7512535E-1,-2.606552E-2,3.6017445E-1,1.42E2,8.222409E-1,-0E0,-0E0,1.59E2,-0E0,1.6983394E-2,2.536E3,1.059171E-3,8.9642376E-1,-1.3667954E-2,-3.0547135E-2,-0E0,-0E0,-3.6963785E-1,-1.9067125E-1,5.3126723E-2,1.6259693E-2,1.944E3,-1.1988202E-2,9.11E1,-1.5808087E-2,-2.1989551E-1,7.581428E-1,-0E0,-0E0,3.970367E-1,-0E0,1.46E2,7.936316E-1,-1.572242E-2,-0E0,4.608724E-2,-3.9232552E-2,1.14713356E-1,-1.9899504E-2,1.0023637E-2,8.7550026E-4,-1.805956E-2,2.7524484E-2,-0E0,6.5280925E-3,2.3689458E-2,-2.5851093E-3,1.6238715E-2,-3.0763408E-2,-8.293658E-3],"split_indices":[0,6,0,0,7,7,5,7,4,4,5,5,5,5,0,0,7,5,7,0,5,0,0,0,4,5,0,4,7,5,0,0,7,0,0,6,0,5,0,0,0,0,4,4,0,0,6,0,0,0,4,5,0,0,4,0,7,5,0,0,0,0,4,0,0,0,0,0,0,0,0,0,0,0,0],"split_type":[0,0,0,0,0,0,0,0,0,0,0,0,0,0,0,0,0,0,0,0,0,0,0,0,0,0,0,0,0,0,0,0,0,0,0,0,0,0,0,0,0,0,0,0,0,0,0,0,0,0,0,0,0,0,0,0,0,0,0,0,0,0,0,0,0,0,0,0,0,0,0,0,0,0,0],"sum_hessian":[1.6565122E5,1.0474583E5,6.0905395E4,7.642335E4,2.8322479E4,2.988276E4,3.1022633E4,4.024589E4,3.617746E4,2.4501414E4,3.8210637E3,6.208806E3,2.3673953E4,2.8905428E4,2.1172043E3,1.02273425E3,3.9223156E4,2.729079E4,8.886672E3,1.8352E4,6.149415E3,3.3772173E3,4.4384637E2,3.2921013E3,2.9167046E3,2.271096E4,9.629937E2,9.945073E3,1.8960355E4,3.568303E4,3.5401245E3,2.3575066E3,2.4933281E4,6.2396636E3,2.6470083E3,1.1439481E4,6.9125186E3,5.499361E3,6.5005414E2,2.0270125E3,8.8969226E2,4.6657007E3,1.804526E4,9.356038E3,5.890349E2,5.6692983E3,1.3291057E4,5.681287E3,3.0001742E4,2.188025E4,3.0530315E3,9.225192E3,2.2142888E3,2.2494314E3,3.2499294E3,1.4069163E3,1.6638344E4,7.951493E3,1.4045449E3,1.2088243E2,1.3170175E4,1.3316372E4,1.6685371E4,1.1594089E3,1.8936224E3,4.504126E2,8.774779E3,3.0264585E3,2.2347105E2,5.9214663E3,1.0716877E4,7.129326E2,7.2385605E3,1.0427363E4,6.258008E3],"tree_param":{"num_deleted":"0","num_feature":"13","num_nodes":"75","size_leaf_vector":"1"}},{"base_weights":[1.9975589E-3,-2.5865633E-2,6.470191E-2,4.941551E-2,-3.633542E-2,-3.148237E-3,9.865847E-2,2.4586223E-2,1.215206E-2,-8.753557E-2,-8.3973715E-3,9.925411E-3,-2.4654273E-2,-0E0,1.0443494E-1,-1.6608847E-2,8.759333E-3,1.8016398E-3,-9.1322586E-2,6.6509647E-3,-1.6634148E-2,9.2582696E-4,-1.22004645E-2,1.10071786E-1,1.2147587E-3,-1.4334784E-1,-1.8071508E-2,-4.124899E-3,3.0162364E-2,2.2487484E-2,3.854349E-2,-0E0,-1.5593264E-1,-2.131818E-2,3.0054469E-3,9.740056E-3,-1.7278634E-2,-0E0,-4.2550813E-2,-2.1596935E-2,-2.2342782E-3],"categories":[],"categories_nodes":[],"categories_segments":[],"categories_sizes":[],"default_left":[1,0,0,0,0,0,0,0,1,0,0,0,1,0,1,0,0,0,0,0,0,0,0,0,0,1,0,0,0,0,0,0,0,1,0,0,0,0,0,0,0],"id":2,"left_children":[1,3,5,7,9,11,13,-1,15,17,19,-1,21,-1,23,-1,-1,-1,25,27,-1,-1,-1,29,-1,31,-1,33,35,-1,-1,-1,37,39,-1,-1,-1,-1,-1,-1,-1],"loss_changes":[2.917039E2,8.9181145E1,1.2436215E2,1.8816975E1,1.3873216E2,1.4761967E1,1.9032104E1,0E0,1.3957835E1,1.7338257E1,6.269453E1,0E0,1.1284081E1,0E0,1.1886353E1,0E0,0E0,0E0,1.8432617E1,1.4640944E1,0E0,0E0,0E0,1.2015625E1,0E0,1.7155563E1,0E0,1.0094213E1,1.5779963E1,0E0,0E0,0E0,2.0363022E1,9.337722E0,0E0,0E0,0E0,0E0,0E0,0E0,0E0],"parents":[2147483647,0,0,1,1,2,2,3,3,4,4,5,5,6,6,8,8,9,9,10,10,12,12,14,14,18,18,19,19,23,23,25,25,27,27,28,28,32,32,33,33],"right_children":[2,4,6,8,10,12,14,-1,16,18,20,-1,22,-1,24,-1,-1,-1,26,28,-1,-1,-1,30,-1,32,-1,34,36,-1,-1,-1,38,40,-1,-1,-1,-1,-1,-1,-1],"split_conditions":[9.53E1,1.2419743E1,1.28E1,8.464632E0,9.23E1,1.25E1,5.897938E0,2.4586223E-2,5.9370365E0,-2.8E0,1.5E1,9.925411E-3,1.0059435E0,-0E0,1.152649E0,-1.6608847E-2,8.759333E-3,1.8016398E-3,8.98E1,1.8984203E1,-1.6634148E-2,9.2582696E-4,-1.22004645E-2,9.77E1,1.2147587E-3,-1.8E0,-1.8071508E-2,9.4E1,7.1226444E0,2.2487484E-2,3.854349E-2,-0E0,8.9696604E-1,5.9636865E0,3.0054469E-3,9.740056E-3,-1.7278634E-2,-0E0,-4.2550813E-2,-2.1596935E-2,-2.2342782E-3],"split_indices":[0,10,9,10,0,8,2,0,2,9,8,0,3,0,3,0,0,0,0,10,0,0,0,0,0,8,0,0,2,0,0,0,3,2,0,0,0,0,0,0,0],"split_type":[0,0,0,0,0,0,0,0,0,0,0,0,0,0,0,0,0,0,0,0,0,0,0,0,0,0,0,0,0,0,0,0,0,0,0,0,0,0,0,0,0],"sum_hessian":[1.6567705E5,1.14077375E5,5.1599676E4,1.3258541E4,1.00818836E5,1.6650633E4,3.4949043E4,4.9382534E3,8.320288E3,3.4864582E4,6.595425E4,4.610235E3,1.2040397E4,2.0149181E3,3.2934125E4,1.3442587E3,6.97603E3,7.581159E2,3.4106465E4,5.1901188E4,1.4053063E4,4.5978115E3,7.4425864E3,3.0623062E4,2.3110623E3,7.7222324E3,2.6384234E4,3.3925055E4,1.7976135E4,2.3058021E4,7.565041E3,4.9157578E2,7.2306562E3,1.8270475E4,1.5654578E4,1.6924383E4,1.0517516E3,7.522568E2,6.4784E3,2.0826687E3,1.6187807E4],"tree_param":{"num_deleted":"0","num_feature":"13","num_nodes":"41","size_leaf_vector":"1"}},{"base_weights":[2.639784E-3,-2.3950001E-2,4.9040433E-2,1.4005519E-2,-3.2010794E-2,7.898532E-2,-2.1887552E-3,-6.403479E-2,-1.0564112E-2,5.9172414E-2,1.18014626E-1,1.5666852E-2,-2.0527123E-2,3.0309265E-3,-7.165256E-2,-0E0,-6.369929E-2,-0E0,1.7334526E-2,-0E0,3.024833E-2,5.5720756E-4,-1.4638667E-2,-9.744259E-2,-3.7153363E-2,-1.654936E-2,4.8168235E-2,-2.134568E-2,-0E0,-0E0,-2.6227936E-2,-9.341164E-2,-2.900083E-3,-1.1488983E-2,-0E0,-0E0,6.711508E-2,-0E0,-3.0867567E-2,1.8693937E-2,-0E0],"categories":[],"categories_nodes":[],"categories_segments":[],"categories_sizes":[],"default_left":[1,1,1,0,1,0,0,0,0,0,0,0,0,0,0,0,1,0,0,0,0,0,0,0,1,0,0,0,0,0,0,0,0,0,0,0,1,0,0,0,0],"id":3,"left_children":[1,3,5,-1,7,9,11,13,15,17,19,-1,21,-1,23,25,27,-1,-1,-1,-1,-1,-1,29,31,33,35,-1,-1,-1,-1,37,-1,-1,-1,-1,39,-1,-1,-1,-1],"loss_changes":[2.0619875E2,6.71291E1,9.834285E1,0E0,6.1602165E1,2.0255737E1,2.4118774E1,2.5168747E1,3.3117374E1,2.0260788E1,9.986496E0,0E0,1.9286617E1,0E0,2.3144867E1,3.9002926E1,1.0387703E1,0E0,0E0,0E0,0E0,0E0,0E0,1.5185623E1,1.6453424E1,1.9199324E1,1.4334145E1,0E0,0E0,0E0,0E0,1.7501274E1,0E0,0E0,0E0,0E0,9.732536E0,0E0,0E0,0E0,0E0],"parents":[2147483647,0,0,1,1,2,2,4,4,5,5,6,6,7,7,8,8,9,9,10,10,12,12,14,14,15,15,16,16,23,23,24,24,25,25,26,26,31,31,36,36],"right_children":[2,4,6,-1,8,10,12,14,16,18,20,-1,22,-1,24,26,28,-1,-1,-1,-1,-1,-1,30,32,34,36,-1,-1,-1,-1,38,-1,-1,-1,-1,40,-1,-1,-1,-1],"split_conditions":[9.49E1,1.0555094E1,1.16E1,1.4005519E-2,9.23E1,9.71E1,9.650107E-1,-1E-1,1.57E1,9.843452E-1,1.31E2,1.5666852E-2,1.56E1,3.0309265E-3,1E0,1E0,1.36E2,-0E0,1.7334526E-2,-0E0,3.024833E-2,5.5720756E-4,-1.4638667E-2,1.3505924E1,8.98E1,9.34E1,9.9083614E-1,-2.134568E-2,-0E0,-0E0,-2.6227936E-2,1.1E2,-2.900083E-3,-1.1488983E-2,-0E0,-0E0,1.1498916E0,-0E0,-3.0867567E-2,1.8693937E-2,-0E0],"split_indices":[0,10,8,0,0,0,3,8,8,3,7,0,8,0,11,11,7,0,0,0,0,0,0,10,0,0,3,0,0,0,0,7,0,0,0,0,3,0,0,0,0],"split_type":[0,0,0,0,0,0,0,0,0,0,0,0,0,0,0,0,0,0,0,0,0,0,0,0,0,0,0,0,0,0,0,0,0,0,0,0,0,0,0,0,0],"sum_hessian":[1.6595206E5,1.047155E5,6.123656E4,8.810158E3,9.590534E4,3.934901E4,2.1887549E4,3.7392367E4,5.8512977E4,2.7082006E4,1.2267006E4,4.065454E3,1.7822094E4,2.7083096E3,3.4684055E4,4.874784E4,9.765136E3,4.1797744E3,2.2902232E4,4.4811093E2,1.18188955E4,1.0364533E4,7.457561E3,1.8892098E4,1.5791959E4,3.6219973E4,1.2527866E4,6.561E3,3.2041355E3,1.9786497E3,1.6913447E4,4.1915547E3,1.1600403E4,1.3187353E4,2.3032621E4,2.8956892E3,9.632177E3,8.003268E2,3.391228E3,9.088823E3,5.43354E2],"tree_param":{"num_deleted":"0","num_feature":"13","num_nodes":"41","size_leaf_vector":"1"}},{"base_weights":[-0E0,-1.5011346E-2,4.307376E-2,-1.1169752E-2,-3.3852246E-2,-2.3500357E-2,5.7372116E-2,3.557726E-2,-1.8618409E-2,1.7477161E-3,-1.30492635E-2,6.4128175E-2,-3.1052258E-2,-1.2071744E-3,1.4754016E-2,-5.183238E-2,-2.402615E-3,2.3939878E-2,7.9061314E-2,1.665515E-2,-1.4015607E-2,-5.3939566E-2,1.1952074E-2,1.590669E-2,-4.902703E-3,1.0320123E-2,2.6524058E-2,-4.63554E-3,-8.3698794E-2,1.4132846E-2,-2.8855912E-3,-0E0,-2.8831162E-2,-6.141472E-3,1.1540888E-2,6.2491152E-2,-0E0,2.235048E-2,-3.3698224E-3],"categories":[],"categories_nodes":[],"categories_segments":[],"categories_sizes":[],"default_left":[1,0,0,1,0,1,0,0,0,0,0,0,0,0,0,0,0,0,0,0,0,0,0,0,0,0,0,0,0,0,0,0,0,0,0,0,0,0,0],"id":4,"left_children":[1,3,5,7,-1,9,11,13,15,-1,-1,17,-1,-1,-1,19,21,23,25,-1,-1,27,29,-1,-1,-1,-1,-1,31,-1,33,-1,-1,-1,35,37,-1,-1,-1],"loss_changes":[1.0722558E2,4.9797836E1,4.2726784E1,4.0762047E1,0E0,8.934149E0,4.126407E1,1.8632523E1,5.314071E1,0E0,0E0,1.5106979E1,0E0,0E0,0E0,2.1164925E1,5.51768E1,2.1622786E1,1.7888596E1,0E0,0E0,1.120245E1,4.0502254E1,0E0,0E0,0E0,0E0,0E0,1.6603516E1,0E0,1.3784926E1,0E0,0E0,0E0,1.5477158E1,1.4916832E1,0E0,0E0,0E0],"parents":[2147483647,0,0,1,1,2,2,3,3,5,5,6,6,7,7,8,8,11,11,15,15,16,16,17,17,18,18,21,21,22,22,28,28,30,30,34,34,35,35],"right_children":[2,4,6,8,-1,10,12,14,16,-1,-1,18,-1,-1,-1,20,22,24,26,-1,-1,28,30,-1,-1,-1,-1,-1,32,-1,34,-1,-1,-1,36,38,-1,-1,-1],"split_conditions":[9.57E1,1.0320948E0,9.1E0,1.3100382E1,-3.3852246E-2,2.126E3,1.0192126E0,2.229E3,1.16E1,1.7477161E-3,-1.30492635E-2,8.8633245E-1,-3.1052258E-2,-1.2071744E-3,1.4754016E-2,6.4117104E-1,9.2E1,1.075385E0,1.62E1,1.665515E-2,-1.4015607E-2,1E0,1E0,1.590669E-2,-4.902703E-3,1.0320123E-2,2.6524058E-2,-4.63554E-3,8.8324946E-1,1.4132846E-2,9.39E1,-0E0,-2.8831162E-2,-6.141472E-3,8.671735E-1,1.7E1,-0E0,2.235048E-2,-3.3698224E-3],"split_indices":[0,5,9,10,0,6,5,6,9,0,0,5,0,0,0,5,0,3,9,0,0,12,12,0,0,0,0,0,5,0,0,0,0,0,5,9,0,0,0],"split_type":[0,0,0,0,0,0,0,0,0,0,0,0,0,0,0,0,0,0,0,0,0,0,0,0,0,0,0,0,0,0,0,0,0,0,0,0,0,0,0],"sum_hessian":[1.6592725E5,1.2309155E5,4.283571E4,1.19831734E5,3.2598086E3,6.865511E3,3.59702E4,1.5411175E4,1.0442056E5,2.4452776E3,4.420234E3,3.5001742E4,9.6845844E2,4.9707773E3,1.0440397E4,3.3094418E4,7.132614E4,1.0524382E4,2.447736E4,9.8705023E2,3.2107367E4,1.6402867E4,5.4923273E4,6.110987E3,4.413395E3,1.1730882E4,1.2746477E4,8.427636E3,7.975232E3,1.4368641E4,4.0554633E4,2.7642441E3,5.210988E3,1.7519887E4,2.3034746E4,4.7429355E3,1.829181E4,3.9823486E3,7.605866E2],"tree_param":{"num_deleted":"0","num_feature":"13","num_nodes":"39","size_leaf_vector":"1"}},{"base_weights":[-2.6737496E-3,5.706734E-3,-4.805108E-2,-3.196243E-2,1.173548E-2,-5.200345E-4,-6.86459E-2,-5.302526E-2,-0E0,1.4241683E-2,-4.8082575E-2,-1.059392E-1,-1.0494645E-4,-1.815876E-2,-0E0,4.163152E-2,1.2888554E-2,-0E0,-2.4926802E-2,-1.2895404E-2,-4.145744E-2,1.5952598E-3,6.8647224E-3],"categories":[],"categories_nodes":[],"categories_segments":[],"categories_sizes":[],"default_left":[1,0,0,0,1,0,0,0,0,0,0,0,0,0,0,0,0,0,0,0,0,0,0],"id":5,"left_children":[1,3,5,7,9,-1,11,13,-1,15,17,19,-1,-1,-1,-1,21,-1,-1,-1,-1,-1,-1],"loss_changes":[6.5395996E1,3.0348534E1,2.137424E1,1.0531691E1,1.6192932E1,0E0,3.8938988E1,1.547859E1,0E0,1.4200684E1,1.0323687E1,2.4112335E1,0E0,0E0,0E0,0E0,9.261686E0,0E0,0E0,0E0,0E0,0E0,0E0],"parents":[2147483647,0,0,1,1,2,2,3,3,4,4,6,6,7,7,9,9,10,10,11,11,16,16],"right_children":[2,4,6,8,10,-1,12,14,-1,16,18,20,-1,-1,-1,-1,22,-1,-1,-1,-1,-1,-1],"split_conditions":[1.56E1,5.980529E0,-2.8085932E-1,-1.4971428E-1,1.1662523E0,-5.200345E-4,2.4173057E-1,1.27E1,-0E0,-2.8E0,8.5E0,-1.9067125E-1,-1.0494645E-4,-1.815876E-2,-0E0,4.163152E-2,-6.439819E-2,-0E0,-2.4926802E-2,-1.2895404E-2,-4.145744E-2,1.5952598E-3,6.8647224E-3],"split_indices":[8,2,4,4,3,0,4,8,0,9,8,4,0,0,0,0,4,0,0,0,0,0,0],"split_type":[0,0,0,0,0,0,0,0,0,0,0,0,0,0,0,0,0,0,0,0,0,0,0],"sum_hessian":[1.655872E5,1.3871395E5,2.6873258E4,1.7825068E4,1.2088888E5,9.182032E3,1.7691225E4,1.0218323E4,7.606745E3,1.1694985E5,3.9390356E3,1.0893861E4,6.797364E3,8.0148364E3,2.203487E3,6.355819E2,1.16314266E5,2.0737327E3,1.8653029E3,6.4269707E3,4.466891E3,8.461599E4,3.1698275E4],"tree_param":{"num_deleted":"0","num_feature":"13","num_nodes":"23","size_leaf_vector":"1"}},{"base_weights":[2.2545378E-3,-1.8160703E-2,1.6663702E-2,2.0386318E-2,-5.040533E-3,2.2699052E-2,-1.0915803E-2,1.5349105E-2,4.573813E-2,2.179983E-3,1.1092557E-2,1.3998862E-2,-0E0],"categories":[],"categories_nodes":[],"categories_segments":[],"categories_sizes":[],"default_left":[0,0,1,0,0,0,0,0,1,0,0,0,0],"id":6,"left_children":[1,3,5,-1,-1,7,-1,9,11,-1,-1,-1,-1],"loss_changes":[4.8619923E1,1.306148E1,3.5269783E1,0E0,0E0,1.1862701E1,0E0,1.0539202E1,1.0377632E1,0E0,0E0,0E0,0E0],"parents":[2147483647,0,0,1,1,2,2,5,5,7,7,8,8],"right_children":[2,4,6,-1,-1,8,-1,10,12,-1,-1,-1,-1],"split_conditions":[2.224E3,9.5E1,1.63E1,2.0386318E-2,-5.040533E-3,1E0,-1.0915803E-2,2.536E3,1.24E1,2.179983E-3,1.1092557E-2,1.3998862E-2,-0E0],"split_indices":[6,7,8,0,0,11,0,6,8,0,0,0,0],"split_type":[0,0,0,0,0,0,0,0,0,0,0,0,0],"sum_hessian":[1.6555873E5,6.685965E4,9.8699086E4,1.0212934E3,6.583835E4,9.0705586E4,7.9935034E3,7.065719E4,2.0048395E4,5.9758113E4,1.0899076E4,1.5963448E4,4.084946E3],"tree_param":{"num_deleted":"0","num_feature":"13","num_nodes":"13","size_leaf_vector":"1"}},{"base_weights":[1.486459E-3,-1.1652425E-2,1.20259E-2,-5.027413E-2,-1.2922193E-3,2.0806793E-2,-3.6382398E-3,-0E0,-8.181332E-2,2.3881255E-3,4.3106455E-2,-0E0,-2.5948681E-2,-0E0,1.42585365E-2],"categories":[],"categories_nodes":[],"categories_segments":[],"categories_sizes":[],"default_left":[0,1,0,0,0,1,0,0,0,0,0,0,0,0,0],"id":7,"left_children":[1,3,5,7,-1,9,-1,-1,11,-1,13,-1,-1,-1,-1],"loss_changes":[2.2959925E1,1.4361483E1,2.2625767E1,1.6707876E1,0E0,1.487958E1,0E0,0E0,9.08709E0,0E0,1.1593628E1,0E0,0E0,0E0,0E0],"parents":[2147483647,0,0,1,1,2,2,3,3,5,5,8,8,10,10],"right_children":[2,4,6,8,-1,10,-1,-1,12,-1,14,-1,-1,-1,-1],"split_conditions":[2.237E3,9.570154E-1,1.0891197E0,-2.8937116E-1,-1.2922193E-3,2.44E3,-3.6382398E-3,-0E0,9.0649754E-1,2.3881255E-3,9.8902726E-1,-0E0,-2.5948681E-2,-0E0,1.42585365E-2],"split_indices":[6,3,3,4,0,6,0,0,3,0,3,0,0,0,0],"split_type":[0,0,0,0,0,0,0,0,0,0,0,0,0,0,0],"sum_hessian":[1.6563706E5,7.131091E4,9.432616E4,8.81667E3,6.2494234E4,7.2719E4,2.1607158E4,2.9951155E3,5.8215547E3,5.0358605E4,2.2360395E4,1.5562053E3,4.2653496E3,6.731207E3,1.5629188E4],"tree_param":{"num_deleted":"0","num_feature":"13","num_nodes":"15","size_leaf_vector":"1"}},{"base_weights":[-6.222689E-4,2.3549914E-3,-1.1932847E-1,-7.989657E-3,1.634063E-2,-1.3684765E-1,-0E0,2.3186436E-2,-9.916049E-3,-1.3422433E-3,2.9036181E-2,-0E0,-4.135798E-2,-2.2576071E-2,-0E0,9.110268E-3,-4.382577E-2,-2.3651633E-2,3.830058E-2,-2.8202228E-2,2.7755247E-2,3.184826E-3,-1.6416583E-2,-8.0255605E-2,9.4108E-3,1.4635823E-2,5.6295853E-2,-4.73168E-4,-9.489537E-3,2.5352852E-2,-1.3438913E-3,-1.2165204E-2,1.2896034E-2,-3.6558665E-2,-2.0666091E-1,2.9575476E-2,-1.5254152E-2,-0E0,1.600312E-2,-9.618645E-3,8.031867E-3,4.023943E-2,-1.4889987E-2,-7.988084E-2,-0E0,-6.1037034E-2,-0E0,-2.7393125E-2,1.2122059E-2,-2.5472268E-3,1.46019915E-2,-5.020441E-3,-4.3857835E-2,7.8074257E-3,-2.3120722E-2],"categories":[],"categories_nodes":[],"categories_segments":[],"categories_sizes":[],"default_left":[0,0,1,0,0,0,0,0,0,0,0,0,0,0,0,0,0,0,0,0,0,0,0,0,0,0,1,0,0,0,0,0,0,1,0,1,0,0,0,0,0,0,0,0,0,0,0,0,0,0,0,0,0,0,0],"id":8,"left_children":[1,3,5,7,9,11,-1,-1,13,15,17,-1,-1,19,21,-1,23,-1,25,27,29,-1,31,33,-1,35,37,39,-1,-1,-1,-1,41,43,45,47,-1,-1,-1,-1,-1,49,-1,51,-1,-1,-1,53,-1,-1,-1,-1,-1,-1,-1],"loss_changes":[6.5148155E1,2.3755655E1,1.3504585E1,1.3001278E1,1.7469284E1,1.6057556E1,0E0,0E0,1.216081E1,4.57971E1,4.6861195E1,0E0,0E0,1.1650608E1,1.0116281E1,0E0,4.4062325E1,0E0,1.3203945E1,8.906412E0,1.346151E1,0E0,2.1413649E1,4.190396E1,0E0,1.9874403E1,1.093103E1,1.5904088E1,0E0,0E0,0E0,0E0,1.821018E1,1.3729411E1,1.0845047E1,2.0014982E1,0E0,0E0,0E0,0E0,0E0,1.0295989E1,0E0,1.0965187E1,0E0,0E0,0E0,1.7680159E1,0E0,0E0,0E0,0E0,0E0,0E0,0E0],"parents":[2147483647,0,0,1,1,2,2,3,3,4,4,5,5,8,8,9,9,10,10,13,13,14,14,16,16,18,18,19,19,20,20,22,22,23,23,25,25,26,26,27,27,32,32,33,33,34,34,35,35,41,41,43,43,47,47],"right_children":[2,4,6,8,10,12,-1,-1,14,16,18,-1,-1,20,22,-1,24,-1,26,28,30,-1,32,34,-1,36,38,40,-1,-1,-1,-1,42,44,46,48,-1,-1,-1,-1,-1,50,-1,52,-1,-1,-1,54,-1,-1,-1,-1,-1,-1,-1],"split_conditions":[1.0283281E0,2.298E3,6.811238E0,9.5E1,8.9435285E-1,2.086E3,-0E0,2.3186436E-2,1.41E2,-2.7242005E-1,-3.817746E-1,-0E0,-4.135798E-2,4.1871342E-1,9.464094E-1,9.110268E-3,2.800297E-1,-2.3651633E-2,-1.9396181E-1,-3.068992E-1,8.239022E-1,3.184826E-3,-1.4971428E-1,-1.6126883E-1,9.4108E-3,9.84037E-1,1.41E2,-3.5890514E-1,-9.489537E-3,2.5352852E-2,-1.3438913E-3,-1.2165204E-2,2.7147934E-1,1.43E2,2.3248619E-1,6.1236315E0,-1.5254152E-2,-0E0,1.600312E-2,-9.618645E-3,8.031867E-3,2.06E3,-1.4889987E-2,6.773191E0,-0E0,-6.1037034E-2,-0E0,9.259306E-1,1.2122059E-2,-2.5472268E-3,1.46019915E-2,-5.020441E-3,-4.3857835E-2,7.8074257E-3,-2.3120722E-2],"split_indices":[5,6,2,7,5,6,0,0,7,4,4,0,0,4,5,0,4,0,4,4,5,0,4,4,0,5,7,4,0,0,0,0,4,7,4,2,0,0,0,0,0,6,0,2,0,0,0,5,0,0,0,0,0,0,0],"split_type":[0,0,0,0,0,0,0,0,0,0,0,0,0,0,0,0,0,0,0,0,0,0,0,0,0,0,0,0,0,0,0,0,0,0,0,0,0,0,0,0,0,0,0,0,0,0,0,0,0,0,0,0,0,0,0],"sum_hessian":[1.6539628E5,1.6088539E5,4.5108813E3,9.013168E4,7.075371E4,4.149483E3,3.6139853E2,1.1062803E3,8.90254E4,2.7688574E4,4.3065137E4,8.7334406E2,3.2761387E3,4.1029656E4,4.7995746E4,1.3803066E4,1.3885507E4,2.5273691E3,4.053777E4,3.792891E4,3.1007444E3,2.8244988E4,1.9750758E4,1.01071045E4,3.778402E3,1.8888191E4,2.1649578E4,1.198503E4,2.594388E4,1.4643204E3,1.636424E3,1.0153086E4,9.597671E3,7.852884E3,2.254221E3,1.6444588E4,2.4436035E3,3.076858E3,1.8572719E4,6.3242354E3,5.660795E3,7.570211E3,2.0274604E3,3.791573E3,4.0613108E3,1.7175524E3,5.366685E2,3.528454E3,1.2916134E4,1.2871797E3,6.2830312E3,2.7394116E3,1.0521615E3,1.4230082E3,2.105446E3],"tree_param":{"num_deleted":"0","num_feature":"13","num_nodes":"55","size_leaf_vector":"1"}},{"base_weights":[2.1077055E-3,5.5230823E-3,-7.267969E-2,1.19186705E-2,-2.2978386E-2,-1.4801292E-1,-3.2064673E-2,6.641938E-2,6.600523E-3,-4.9244113E-2,3.9886595E-3,-1.8328379E-1,-0E0,-1.6888713E-2,6.768691E-3,9.4067186E-2,-5.096944E-3,1.4636838E-3,3.8921703E-2,-2.5897787E-3,-7.781886E-2,-7.85578E-3,6.2012617E-3,-0E0,-5.0651573E-2,1.19667575E-1,-0E0,-3.7905201E-3,8.119686E-3,-1.2676561E-2,1.23323975E-2,-2.5116712E-2,-0E0,3.2994334E-2,-0E0,7.342879E-3,-1.6562187E-4],"categories":[],"categories_nodes":[],"categories_segments":[],"categories_sizes":[],"default_left":[0,1,1,0,0,0,0,0,1,0,0,0,0,0,0,1,0,1,0,0,0,0,0,0,0,0,0,0,0,0,0,0,0,0,0,0,0],"id":9,"left_children":[1,3,5,7,9,11,13,15,17,19,21,23,-1,-1,-1,25,-1,27,29,-1,31,-1,-1,-1,-1,33,-1,-1,35,-1,-1,-1,-1,-1,-1,-1,-1],"loss_changes":[3.844806E1,2.8362963E1,9.557205E0,3.3950203E1,2.2077852E1,1.2606369E1,1.2819892E1,3.0108124E1,1.7749247E1,1.1520889E1,9.270014E0,9.774841E0,0E0,0E0,0E0,1.8242668E1,0E0,1.1522879E1,1.564612E1,0E0,1.2876099E1,0E0,0E0,0E0,0E0,8.819572E0,0E0,0E0,1.6787397E1,0E0,0E0,0E0,0E0,0E0,0E0,0E0,0E0],"parents":[2147483647,0,0,1,1,2,2,3,3,4,4,5,5,6,6,7,7,8,8,9,9,10,10,11,11,15,15,17,17,18,18,20,20,25,25,28,28],"right_children":[2,4,6,8,10,12,14,16,18,20,22,24,-1,-1,-1,26,-1,28,30,-1,32,-1,-1,-1,-1,34,-1,-1,36,-1,-1,-1,-1,-1,-1,-1,-1],"split_conditions":[1.0192126E0,1.55E1,1.51E2,8.186771E-1,8.808798E-1,1.63E1,7.1E0,7.0817475E0,1.64E2,1.032299E0,6.0777116E0,5.103907E0,-0E0,-1.6888713E-2,6.768691E-3,1.38E1,-5.096944E-3,6.2062454E0,8.7763065E-1,-2.5897787E-3,1E0,-7.85578E-3,6.2012617E-3,-0E0,-5.0651573E-2,1E0,-0E0,-3.7905201E-3,1.0382016E0,-1.2676561E-2,1.23323975E-2,-2.5116712E-2,-0E0,3.2994334E-2,-0E0,7.342879E-3,-1.6562187E-4],"split_indices":[5,8,7,5,5,8,8,2,7,3,2,2,0,0,0,8,0,2,5,0,11,0,0,0,0,11,0,0,3,0,0,0,0,0,0,0,0],"split_type":[0,0,0,0,0,0,0,0,0,0,0,0,0,0,0,0,0,0,0,0,0,0,0,0,0,0,0,0,0,0,0,0,0,0,0,0,0],"sum_hessian":[1.6554561E5,1.590525E5,6.493112E3,1.3154477E5,2.7507742E4,1.7754508E3,4.717661E3,1.0732464E4,1.208123E5,1.5006864E4,1.2500878E4,1.5309844E3,2.444665E2,3.5040542E3,1.2136067E3,8.647533E3,2.084931E3,1.0577702E5,1.5035278E4,7.2328105E3,7.7740537E3,3.6512197E3,8.849658E3,1.0566828E2,1.425316E3,6.614908E3,2.0326245E3,2.738382E4,7.83932E4,1.1302461E3,1.3905032E4,5.6808022E3,2.0932517E3,5.686923E3,9.279853E2,2.4318775E4,5.4074426E4],"tree_param":{"num_deleted":"0","num_feature":"13","num_nodes":"37","size_leaf_vector":"1"}},{"base_weights":[-5.250661E-4,-1.4173728E-2,3.2587614E-2,1.3945552E-2,-1.7042385E-2,4.007229E-2,-4.9713735E-2,-3.4488697E-2,-5.228316E-4,5.2267823E-2,-0E0,-1.03690855E-1,8.768073E-4,4.7482047E-3,-4.076469E-2,4.537884E-3,1.5232174E-2,-1.7834721E-2,5.0018553E-2,-1.3606693E-1,-0E0,1.1675516E-2,-2.8828375E-2,-6.5223716E-2,-2.7124729E-2,7.4943076E-3,-1.3217362E-2,7.401859E-4,-1.0754977E-1,-0E0,3.3477142E-2,-0E0,-4.0672947E-2,-2.4107123E-2,8.9914E-3,-0E0,-7.068118E-2,-4.8470616E-2,1.1094706E-3,-3.6655564E-2,-0E0,-8.3048485E-2,-0E0,-0E0,-1.3782891E-2,5.175626E-3,-1.46617945E-2,-8.951453E-3,-3.032655E-2],"categories":[],"categories_nodes":[],"categories_segments":[],"categories_sizes":[],"default_left":[0,1,0,0,0,1,0,0,0,0,0,0,0,0,0,0,0,0,0,0,0,0,0,0,0,0,0,0,0,0,0,0,0,0,0,0,0,0,0,0,0,0,0,0,0,0,0,0,0],"id":10,"left_children":[1,3,5,-1,7,9,11,13,-1,15,17,19,-1,21,23,25,-1,27,29,31,-1,-1,33,35,37,-1,-1,-1,39,-1,-1,-1,-1,-1,-1,-1,41,43,45,-1,-1,47,-1,-1,-1,-1,-1,-1,-1],"loss_changes":[7.3700264E1,2.189191E1,2.844675E1,0E0,2.7688892E1,1.9027412E1,1.5187923E1,1.4620552E1,0E0,1.181221E1,1.1350145E1,9.494577E0,0E0,9.43744E0,9.796097E0,8.8734865E0,0E0,2.0034351E1,1.1365462E1,9.068722E0,0E0,0E0,1.5012339E1,8.835957E0,2.111919E1,0E0,0E0,0E0,1.096298E1,0E0,0E0,0E0,0E0,0E0,0E0,0E0,1.0128754E1,9.342472E0,1.248993E1,0E0,0E0,1.3251282E1,0E0,0E0,0E0,0E0,0E0,0E0,0E0],"parents":[2147483647,0,0,1,1,2,2,4,4,5,5,6,6,7,7,9,9,10,10,11,11,13,13,14,14,15,15,17,17,18,18,19,19,22,22,23,23,24,24,28,28,36,36,37,37,38,38,41,41],"right_children":[2,4,6,-1,8,10,12,14,-1,16,18,20,-1,22,24,26,-1,28,30,32,-1,-1,34,36,38,-1,-1,-1,40,-1,-1,-1,-1,-1,-1,-1,42,44,46,-1,-1,48,-1,-1,-1,-1,-1,-1,-1],"split_conditions":[9.55E1,7.738863E0,9.967776E-1,1.3945552E-2,9.28E1,1.36E1,1.9485893E1,8.01813E-1,-5.228316E-4,-3.1935993E-1,9.1268545E-1,1.32E1,8.768073E-4,1.52E1,9.06E1,9.2908716E-1,1.5232174E-2,-2.0497675E-1,6.6539764E-2,4E-1,-0E0,1.1675516E-2,4.2705992E-1,8.29E1,-3.5105668E-2,7.4943076E-3,-1.3217362E-2,7.401859E-4,3.4954447E-1,-0E0,3.3477142E-2,-0E0,-4.0672947E-2,-2.4107123E-2,8.9914E-3,-0E0,1.5E1,8E-1,1.51E1,-3.6655564E-2,-0E0,1.5561812E1,-0E0,-0E0,-1.3782891E-2,5.175626E-3,-1.46617945E-2,-8.951453E-3,-3.032655E-2],"split_indices":[0,10,5,0,0,8,10,5,0,4,5,8,0,8,0,5,0,4,4,8,0,0,4,0,4,0,0,0,4,0,0,0,0,0,0,0,8,8,8,0,0,10,0,0,0,0,0,0,0],"split_type":[0,0,0,0,0,0,0,0,0,0,0,0,0,0,0,0,0,0,0,0,0,0,0,0,0,0,0,0,0,0,0,0,0,0,0,0,0,0,0,0,0,0,0,0,0,0,0,0,0],"sum_hessian":[1.6539169E5,1.18342875E5,4.7048816E4,3.8066943E3,1.1453619E5,4.3766664E4,3.28215E3,5.099672E4,6.3539465E4,3.268773E4,1.1078936E4,2.160927E3,1.1212228E3,5.775771E3,4.522095E4,6.663413E3,2.6024316E4,7.503149E3,3.5757869E3,1.7651495E3,3.957775E2,3.2784148E3,2.4973562E3,1.4680184E4,3.0540764E4,5.2866665E3,1.3767465E3,5.5752305E3,1.9279182E3,2.4973127E3,1.0784741E3,2.5797214E2,1.5071774E3,1.6313983E3,8.6595795E2,4.1171796E2,1.4268466E4,1.8542951E4,1.19978125E4,1.4774725E3,4.5044565E2,1.1802117E4,2.4663489E3,1.88923E3,1.6653723E4,9.739734E3,2.258078E3,6.190875E3,5.611242E3],"tree_param":{"num_deleted":"0","num_feature":"13","num_nodes":"49","size_leaf_vector":"1"}},{"base_weights":[2.6615415E-5,-1.4715583E-2,2.0632358E-2,-1.7947776E-2,-1.0303889E-2,2.3967063E-2,-4.3507174E-2,-3.2911003E-3,-3.8194604E-2,1.81725E-2,8.1993885E-2,-1.0092126E-2,5.3366353E-3,-0E0,-1.3891725E-2,3.1409962E-3,6.432533E-2,-1.1785417E-3,3.290216E-2,-3.9737005E-2,-5.395575E-5,-0E0,2.1937873E-2,5.607974E-3,-1.5262909E-2],"categories":[],"categories_nodes":[],"categories_segments":[],"categories_sizes":[],"default_left":[1,1,0,0,0,0,0,0,0,0,0,1,0,0,0,0,0,0,0,0,0,0,0,0,0],"id":11,"left_children":[1,3,5,-1,7,9,-1,11,13,15,17,19,-1,-1,-1,-1,21,-1,-1,23,-1,-1,-1,-1,-1],"loss_changes":[5.05836E1,1.9749453E1,3.796564E1,0E0,1.5051166E1,1.7705856E1,0E0,1.17702675E1,1.1693861E1,1.1393E1,3.2206917E1,1.501211E1,0E0,0E0,0E0,0E0,9.779087E0,0E0,0E0,2.1193844E1,0E0,0E0,0E0,0E0,0E0],"parents":[2147483647,0,0,1,1,2,2,4,4,5,5,7,7,8,8,9,9,10,10,11,11,16,16,19,19],"right_children":[2,4,6,-1,8,10,-1,12,14,16,18,20,-1,-1,-1,-1,22,-1,-1,24,-1,-1,-1,-1,-1],"split_conditions":[9.45E1,9.2659473E-1,1.0366514E0,-1.7947776E-2,1.0968348E0,9.87E1,-4.3507174E-2,1.59E2,1E0,1.9E1,8.929414E-1,9.11E1,5.3366353E-3,-0E0,-1.3891725E-2,3.1409962E-3,9.114907E-1,-1.1785417E-3,3.290216E-2,8.168299E-1,-5.395575E-5,-0E0,2.1937873E-2,5.607974E-3,-1.5262909E-2],"split_indices":[0,3,5,0,3,0,0,7,12,9,5,0,0,0,0,0,5,0,0,5,0,0,0,0,0],"split_type":[0,0,0,0,0,0,0,0,0,0,0,0,0,0,0,0,0,0,0,0,0,0,0,0,0],"sum_hessian":[1.653909E5,9.4796086E4,7.059481E4,5.715643E3,8.9080445E4,6.971735E4,8.7745935E2,7.282658E4,1.6253866E4,6.4291004E4,5.426351E3,5.9102227E4,1.3724348E4,5.285497E3,1.0968369E4,5.8754953E4,5.536052E3,1.6378737E3,3.7884773E3,1.3312196E4,4.579003E4,1.4775309E3,4.058521E3,2.866918E3,1.0445278E4],"tree_param":{"num_deleted":"0","num_feature":"13","num_nodes":"25","size_leaf_vector":"1"}},{"base_weights":[-1.822202E-3],"categories":[],"categories_nodes":[],"categories_segments":[],"categories_sizes":[],"default_left":[0],"id":12,"left_children":[-1],"loss_changes":[0E0],"parents":[2147483647],"right_children":[-1],"split_conditions":[-4.4561087E-4],"split_indices":[0],"split_type":[0],"sum_hessian":[1.6556656E5],"tree_param":{"num_deleted":"0","num_feature":"13","num_nodes":"1","size_leaf_vector":"1"}},{"base_weights":[4.459682E-4,1.5823273E-2,-1.1708976E-3,-0E0,2.838111E-2,-4.902742E-3,7.3654293E-3,1.0811884E-2,-7.6191765E-3],"categories":[],"categories_nodes":[],"categories_segments":[],"categories_sizes":[],"default_left":[0,0,0,1,0,0,0,0,0],"id":13,"left_children":[1,3,-1,5,7,-1,-1,-1,-1],"loss_changes":[1.3943959E1,9.410071E0,0E0,1.14053755E1,2.4885502E1,0E0,0E0,0E0,0E0],"parents":[2147483647,0,0,1,1,3,3,4,4],"right_children":[2,4,-1,6,8,-1,-1,-1,-1],"split_conditions":[1E0,2.195E3,-1.1708976E-3,1.0620558E0,1.0933417E0,-4.902742E-3,7.3654293E-3,1.0811884E-2,-7.6191765E-3],"split_indices":[12,6,0,3,3,0,0,0,0],"split_type":[0,0,0,0,0,0,0,0,0],"sum_hessian":[1.6539503E5,4.4771926E4,1.206231E5,1.9176926E4,2.5595E4,1.1874347E4,7.30258E3,2.09789E4,4.6161E3],"tree_param":{"num_deleted":"0","num_feature":"13","num_nodes":"9","size_leaf_vector":"1"}},{"base_weights":[-3.8295714E-3],"categories":[],"categories_nodes":[],"categories_segments":[],"categories_sizes":[],"default_left":[0],"id":14,"left_children":[-1],"loss_changes":[0E0],"parents":[2147483647],"right_children":[-1],"split_conditions":[-9.365036E-4],"split_indices":[0],"split_type":[0],"sum_hessian":[1.6539089E5],"tree_param":{"num_deleted":"0","num_feature":"13","num_nodes":"1","size_leaf_vector":"1"}},{"base_weights":[7.97621E-4,1.0956128E-2,-6.81131E-5],"categories":[],"categories_nodes":[],"categories_segments":[],"categories_sizes":[],"default_left":[1,0,0],"id":15,"left_children":[1,-1,-1],"loss_changes":[1.0379445E1,0E0,0E0],"parents":[2147483647,0,0],"right_children":[2,-1,-1],"split_conditions":[8.464632E0,1.0956128E-2,-6.81131E-5],"split_indices":[10,0,0],"split_type":[0,0,0],"sum_hessian":[1.6540183E5,5.211089E3,1.6019073E5],"tree_param":{"num_deleted":"0","num_feature":"13","num_nodes":"3","size_leaf_vector":"1"}},{"base_weights":[-4.2351696E-4,-5.9286016E-3,3.9497577E-2,1.9762337E-2,-9.861511E-3,-1.2747044E-3,1.3930452E-2,5.4312862E-2,-6.615994E-3,-8.2009494E-2,-7.3300786E-3,-0E0,7.618138E-2,-1.0486846E-2,5.7995938E-2,-0E0,-1.6462517E-1,-1.0467189E-2,4.0938645E-3,2.2627877E-2,-0E0,-0E0,2.5653627E-2,-3.1836815E-2,3.9991033E-3,-0E0,-6.114517E-2,-4.7204113E-3,-4.5745432E-2,-1.2213168E-2,1.2921683E-2,-3.2945096E-2,-4.224618E-2,-4.073039E-3,-4.13808E-2,1.704372E-2,2.8279002E-3,-1.5136383E-2,-0E0,2.036803E-3,-8.470341E-3,-3.055245E-2,-0E0,-5.9432603E-2,1.6088573E-2,1.3502688E-2,-3.684795E-3,2.8160658E-2,-9.841109E-3,-4.159212E-2,-8.804196E-4,2.8427945E-2,-7.330123E-3,-4.738613E-5,7.915786E-3,-9.0607355E-5,1.7085096E-2,1.1997669E-2,-0E0],"categories":[],"categories_nodes":[],"categories_segments":[],"categories_sizes":[],"default_left":[0,0,0,0,0,0,0,0,0,0,0,0,0,0,0,1,0,0,0,0,0,0,0,0,0,0,0,0,0,0,0,0,0,0,0,0,0,0,0,0,0,0,0,1,0,0,0,0,0,0,0,0,0,0,0,0,0,0,0],"id":16,"left_children":[1,3,5,7,9,-1,-1,11,13,15,17,-1,19,-1,21,23,25,27,-1,-1,-1,-1,-1,-1,-1,-1,-1,29,31,33,35,37,-1,39,41,-1,43,-1,-1,45,-1,-1,47,49,51,53,-1,55,-1,-1,-1,57,-1,-1,-1,-1,-1,-1,-1],"loss_changes":[3.445494E1,1.425899E1,1.7643059E1,1.872445E1,1.8478243E1,0E0,0E0,8.9853E0,2.0283985E1,1.5471136E1,9.124058E0,0E0,1.0789234E1,0E0,1.1766342E1,1.081733E1,1.612859E1,2.0060753E1,0E0,0E0,0E0,0E0,0E0,0E0,0E0,0E0,0E0,1.3012432E1,1.1710798E1,1.4395079E1,1.1416319E1,1.6309961E1,0E0,1.2603308E1,4.3795616E1,0E0,1.7278435E1,0E0,0E0,9.005918E0,0E0,0E0,1.1519209E1,1.1343167E1,1.1560173E1,9.532019E0,0E0,1.0114472E1,0E0,0E0,0E0,1.0926437E1,0E0,0E0,0E0,0E0,0E0,0E0,0E0],"parents":[2147483647,0,0,1,1,2,2,3,3,4,4,7,7,8,8,9,9,10,10,12,12,14,14,15,15,16,16,17,17,27,27,28,28,29,29,30,30,31,31,33,33,34,34,36,36,39,39,42,42,43,43,44,44,45,45,47,47,51,51],"right_children":[2,4,6,8,10,-1,-1,12,14,16,18,-1,20,-1,22,24,26,28,-1,-1,-1,-1,-1,-1,-1,-1,-1,30,32,34,36,38,-1,40,42,-1,44,-1,-1,46,-1,-1,48,50,52,54,-1,56,-1,-1,-1,58,-1,-1,-1,-1,-1,-1,-1],"split_conditions":[9.71E1,8.239022E-1,8.725615E-1,-2.865321E-1,-4.3150973E-1,-1.2747044E-3,1.3930452E-2,1.19E2,4.1098884E-1,8.970958E-1,1.88E1,-0E0,1.57E1,-1.0486846E-2,8.94E1,1.34E2,1.18E1,9.8515505E-1,4.0938645E-3,2.2627877E-2,-0E0,-0E0,2.5653627E-2,-3.1836815E-2,3.9991033E-3,-0E0,-6.114517E-2,1.2680036E-1,3.0929503E-1,-1.7874558E-1,1.8677828E-1,-1.10638574E-1,-4.224618E-2,1.67E1,9.101516E-1,1.704372E-2,2.3248619E-1,-1.5136383E-2,-0E0,9.165521E-1,-8.470341E-3,-3.055245E-2,9.471167E-1,1.35E2,4.1098884E-1,9.42E1,-3.684795E-3,1.51E2,-9.841109E-3,-4.159212E-2,-8.804196E-4,9.252903E-1,-7.330123E-3,-4.738613E-5,7.915786E-3,-9.0607355E-5,1.7085096E-2,1.1997669E-2,-0E0],"split_indices":[0,5,5,4,4,0,0,7,4,5,9,0,9,0,0,7,9,5,0,0,0,0,0,0,0,0,0,4,4,4,4,4,0,9,5,0,4,0,0,5,0,0,5,7,4,0,0,7,0,0,0,5,0,0,0,0,0,0,0],"split_type":[0,0,0,0,0,0,0,0,0,0,0,0,0,0,0,0,0,0,0,0,0,0,0,0,0,0,0,0,0,0,0,0,0,0,0,0,0,0,0,0,0,0,0,0,0,0,0,0,0,0,0,0,0,0,0,0,0,0,0],"sum_hessian":[1.6550112E5,1.4670811E5,1.8793014E4,1.7543277E4,1.29164836E5,4.360818E3,1.4432196E4,8.530962E3,9.012315E3,3.6059138E3,1.2555892E5,2.6496152E3,5.8813467E3,6.340568E3,2.6717473E3,2.1448574E3,1.4610565E3,1.13186945E5,1.2371978E4,5.244779E3,6.36568E2,7.902344E2,1.881513E3,6.076887E2,1.5371686E3,5.7321735E2,8.878391E2,9.873186E4,1.4455086E4,7.157642E4,2.7155434E4,1.3547797E4,9.072888E2,5.749777E4,1.4078655E4,3.2383298E3,2.3917104E4,8.090966E3,5.4568315E3,4.6364023E4,1.1133746E4,4.34478E3,9.733875E3,3.4384873E3,2.0478617E4,2.9759916E4,1.6604107E4,5.153856E3,4.580019E3,8.053801E2,2.6331072E3,1.713301E4,3.3456074E3,1.5489741E4,1.4270175E4,2.249589E3,2.904267E3,1.0287743E4,6.845266E3],"tree_param":{"num_deleted":"0","num_feature":"13","num_nodes":"59","size_leaf_vector":"1"}},{"base_weights":[1.5746344E-4,-3.0873578E-2,3.0159361E-3,6.379542E-3,-5.6872193E-2,1.0826034E-3,-1.8902725E-2,-3.6091074E-2,-4.6941233E-3],"categories":[],"categories_nodes":[],"categories_segments":[],"categories_sizes":[],"default_left":[0,0,0,0,1,0,0,0,0],"id":17,"left_children":[1,3,5,-1,7,-1,-1,-1,-1],"loss_changes":[1.3065535E1,1.9913214E1,1.3174547E1,0E0,2.155706E1,0E0,0E0,0E0,0E0],"parents":[2147483647,0,0,1,1,2,2,4,4],"right_children":[2,4,6,-1,8,-1,-1,-1,-1],"split_conditions":[-3.9317003E-1,8.149058E-1,1.1898642E0,6.379542E-3,6.1602488E0,1.0826034E-3,-1.8902725E-2,-3.6091074E-2,-4.6941233E-3],"split_indices":[4,5,3,0,2,0,0,0,0],"split_type":[0,0,0,0,0,0,0,0,0],"sum_hessian":[1.6524717E5,1.2245342E4,1.5300183E5,3.1481484E3,9.097193E3,1.5106564E5,1.9361885E3,2.2188865E3,6.878307E3],"tree_param":{"num_deleted":"0","num_feature":"13","num_nodes":"9","size_leaf_vector":"1"}},{"base_weights":[-4.921808E-4,-1.601811E-2,8.033155E-3,-5.2652726E-5,-8.752281E-3,-2.645074E-3,1.3810999E-2,-1.4952531E-2,1.5834529E-2,2.8544363E-2,1.2374144E-3,4.273245E-3,1.7016714E-2],"categories":[],"categories_nodes":[],"categories_segments":[],"categories_sizes":[],"default_left":[0,1,0,0,0,0,0,0,0,1,0,0,0],"id":18,"left_children":[1,3,5,-1,-1,-1,7,-1,9,11,-1,-1,-1],"loss_changes":[2.2350323E1,1.7002842E1,1.1541996E1,0E0,0E0,0E0,9.886696E0,0E0,9.144224E0,1.075169E1,0E0,0E0,0E0],"parents":[2147483647,0,0,1,1,2,2,6,6,8,8,9,9],"right_children":[2,4,6,-1,-1,-1,8,-1,10,12,-1,-1,-1],"split_conditions":[9.31E1,1.7938786E1,1.6296318E1,-5.2652726E-5,-8.752281E-3,-2.645074E-3,-4.5247906E-1,-1.4952531E-2,6.4407187E0,2.0523645E1,1.2374144E-3,4.273245E-3,1.7016714E-2],"split_indices":[0,10,10,0,0,0,4,0,2,10,0,0,0],"split_type":[0,0,0,0,0,0,0,0,0,0,0,0,0],"sum_hessian":[1.6539292E5,6.100204E4,1.04390875E5,3.5515203E4,2.5486838E4,2.2167703E4,8.222317E4,1.4136698E3,8.08095E4,3.4634918E4,4.6174582E4,2.838176E4,6.2531597E3],"tree_param":{"num_deleted":"0","num_feature":"13","num_nodes":"13","size_leaf_vector":"1"}},{"base_weights":[1.739267E-3,4.269853E-3,-3.0791989E-2,3.1217284E-4,4.2081933E-2,-7.1952946E-4,-8.092785E-2,-2.4560257E-4,1.371322E-2,-1.05780385E-1,-0E0,-3.481186E-2,-0E0],"categories":[],"categories_nodes":[],"categories_segments":[],"categories_sizes":[],"default_left":[0,0,0,0,0,0,0,0,0,1,0,0,0],"id":19,"left_children":[1,3,5,-1,7,-1,9,-1,-1,11,-1,-1,-1],"loss_changes":[1.2077945E1,1.5046099E1,9.566298E0,0E0,9.153946E0,0E0,9.950157E0,0E0,0E0,1.1579157E1,0E0,0E0,0E0],"parents":[2147483647,0,0,1,1,2,2,4,4,6,6,9,9],"right_children":[2,4,6,-1,8,-1,10,-1,-1,12,-1,-1,-1],"split_conditions":[1.0064127E0,1.69E2,6.4323254E0,3.1217284E-4,-3.3444694E-1,-7.1952946E-4,1.33E1,-2.4560257E-4,1.371322E-2,6.8526444E0,-0E0,-3.481186E-2,-0E0],"split_indices":[5,7,2,0,4,0,8,0,0,2,0,0,0],"split_type":[0,0,0,0,0,0,0,0,0,0,0,0,0],"sum_hessian":[1.6512352E5,1.5484192E5,1.02816E4,1.4489089E5,9.951019E3,7.34749E3,2.9341099E3,1.439143E3,8.511876E3,2.6040364E3,3.300736E2,2.0065035E3,5.9753284E2],"tree_param":{"num_deleted":"0","num_feature":"13","num_nodes":"13","size_leaf_vector":"1"}},{"base_weights":[-3.0938145E-3,-1.080555E-2,9.99607E-3,1.1227578E-2,-1.27222575E-2,1.2208998E-2,-2.3223037E-2,-7.121317E-3,-5.7210918E-3,-9.597159E-3,1.909906E-2,-2.1543861E-3,-6.479635E-2,1.4395727E-1,-4.0993817E-2,-1.3937289E-2,6.3309325E-3,-9.1958465E-3,2.6881788E-4,-0E0,-2.9151458E-2,2.1288289E-1,-0E0,-3.963444E-3,-2.7628649E-2,-1.1283991E-2,1.1268273E-2,-0E0,5.9238408E-2],"categories":[],"categories_nodes":[],"categories_segments":[],"categories_sizes":[],"default_left":[1,1,0,0,1,0,0,0,0,0,1,0,1,0,0,0,0,0,0,0,0,0,0,0,0,0,0,0,0],"id":20,"left_children":[1,3,5,-1,7,9,-1,-1,11,13,15,17,19,21,23,25,-1,-1,-1,-1,-1,27,-1,-1,-1,-1,-1,-1,-1],"loss_changes":[1.6711699E1,9.6979885E0,8.851709E0,0E0,9.961332E0,9.226959E0,0E0,0E0,1.2062778E1,5.1452175E1,1.0982967E1,1.0398454E1,9.319789E0,2.1150234E1,1.0768425E1,1.2376096E1,0E0,0E0,0E0,0E0,0E0,1.2046127E1,0E0,0E0,0E0,0E0,0E0,0E0,0E0],"parents":[2147483647,0,0,1,1,2,2,4,4,5,5,8,8,9,9,10,10,11,11,12,12,13,13,14,14,15,15,21,21],"right_children":[2,4,6,-1,8,10,-1,-1,12,14,16,18,20,22,24,26,-1,-1,-1,-1,-1,28,-1,-1,-1,-1,-1,-1,-1],"split_conditions":[9.5E1,6.868042E0,1.0366514E0,1.1227578E-2,9.15E1,8.605645E-1,-2.3223037E-2,-7.121317E-3,1.1473117E0,9.674534E-1,9.709413E-1,9.509896E-1,2.253E3,-2.7662915E-1,1.9597193E1,9.74E1,6.3309325E-3,-9.1958465E-3,2.6881788E-4,-0E0,-2.9151458E-2,-4.3150973E-1,-0E0,-3.963444E-3,-2.7628649E-2,-1.1283991E-2,1.1268273E-2,-0E0,5.9238408E-2],"split_indices":[0,10,5,0,0,5,0,0,3,3,3,3,6,4,10,0,0,0,0,0,0,4,0,0,0,0,0,0,0],"split_type":[0,0,0,0,0,0,0,0,0,0,0,0,0,0,0,0,0,0,0,0,0,0,0,0,0,0,0,0,0],"sum_hessian":[1.6507989E5,1.0663031E5,5.844958E4,2.505604E3,1.0412471E5,5.7781707E4,6.678727E2,2.8704178E4,7.542053E4,1.1879976E4,4.590173E4,7.20453E4,3.3752341E3,1.7037052E3,1.01762705E4,6.3881724E3,3.951356E4,7.5288325E3,6.4516465E4,1.7265006E3,1.6487336E3,1.2424113E3,4.6129385E2,8.1664517E3,2.0098184E3,4.778394E3,1.6097783E3,7.900487E1,1.1634065E3],"tree_param":{"num_deleted":"0","num_feature":"13","num_nodes":"29","size_leaf_vector":"1"}},{"base_weights":[-0E0,7.351785E-4,-1.7748436E-2,-0E0,-1.0397051E-2],"categories":[],"categories_nodes":[],"categories_segments":[],"categories_sizes":[],"default_left":[0,0,1,0,0],"id":21,"left_children":[1,-1,3,-1,-1],"loss_changes":[9.425896E0,0E0,1.0094263E1,0E0,0E0],"parents":[2147483647,0,0,2,2],"right_children":[2,-1,4,-1,-1],"split_conditions":[1.105622E0,7.351785E-4,1.8725918E1,-0E0,-1.0397051E-2],"split_indices":[3,0,10,0,0],"split_type":[0,0,0,0,0],"sum_hessian":[1.6525756E5,1.393389E5,2.5918658E4,1.5822619E4,1.009604E4],"tree_param":{"num_deleted":"0","num_feature":"13","num_nodes":"5","size_leaf_vector":"1"}},{"base_weights":[-3.9969427E-3,-1.3824541E-2,3.0144444E-3,8.2199735E-4,-2.5286384E-2,-4.075784E-2,1.65385E-3,-1.0233834E-2,-0E0,-0E0,-9.528857E-2,1.2515337E-2,-1.6196458E-2,-4.3671798E-2,-0E0,-9.750696E-3,2.9655872E-3],"categories":[],"categories_nodes":[],"categories_segments":[],"categories_sizes":[],"default_left":[0,0,0,0,0,0,0,0,0,0,0,0,0,0,0,0,0],"id":22,"left_children":[1,3,5,-1,7,9,-1,-1,11,-1,13,-1,15,-1,-1,-1,-1],"loss_changes":[1.2022254E1,1.5497791E1,1.3349425E1,0E0,1.9967371E1,1.7958477E1,0E0,0E0,1.5245201E1,0E0,1.524555E1,0E0,1.0233534E1,0E0,0E0,0E0,0E0],"parents":[2147483647,0,0,1,1,2,2,4,4,5,5,8,8,10,10,12,12],"right_children":[2,4,6,-1,8,10,-1,-1,12,-1,14,-1,16,-1,-1,-1,-1],"split_conditions":[1.43E2,-2.8795528E-1,-3.7915346E-1,8.2199735E-4,2.4173057E-1,9.0432936E-1,1.65385E-3,-1.0233834E-2,3.010746E-1,-0E0,-4.114675E-1,1.2515337E-2,4.1871342E-1,-4.3671798E-2,-0E0,-9.750696E-3,2.9655872E-3],"split_indices":[7,4,4,0,4,5,0,0,4,0,4,0,4,0,0,0,0],"split_type":[0,0,0,0,0,0,0,0,0,0,0,0,0,0,0,0,0],"sum_hessian":[1.6549305E5,7.2301625E4,9.319142E4,2.6932957E4,4.5368668E4,6.1427407E3,8.704868E4,2.7961816E4,1.740685E4,3.046139E3,3.0966018E3,4.5234297E3,1.2883421E4,1.3552292E3,1.7413726E3,8.115876E3,4.7675454E3],"tree_param":{"num_deleted":"0","num_feature":"13","num_nodes":"17","size_leaf_vector":"1"}},{"base_weights":[8.9687534E-4],"categories":[],"categories_nodes":[],"categories_segments":[],"categories_sizes":[],"default_left":[0],"id":23,"left_children":[-1],"loss_changes":[0E0],"parents":[2147483647],"right_children":[-1],"split_conditions":[2.1932661E-4],"split_indices":[0],"split_type":[0],"sum_hessian":[1.6523278E5],"tree_param":{"num_deleted":"0","num_feature":"13","num_nodes":"1","size_leaf_vector":"1"}},{"base_weights":[-1.9991603E-3,-0E0,-3.084809E-2,-1.592686E-2,2.2594295E-3],"categories":[],"categories_nodes":[],"categories_segments":[],"categories_sizes":[],"default_left":[1,0,0,0,0],"id":24,"left_children":[1,-1,3,-1,-1],"loss_changes":[9.867755E0,0E0,1.8404099E1,0E0,0E0],"parents":[2147483647,0,0,2,2],"right_children":[2,-1,4,-1,-1],"split_conditions":[1.75E1,-0E0,8.808798E-1,-1.592686E-2,2.2594295E-3],"split_indices":[8,0,5,0,0],"split_type":[0,0,0,0,0],"sum_hessian":[1.6527383E5,1.5421628E5,1.10575625E4,6.727459E3,4.330103E3],"tree_param":{"num_deleted":"0","num_feature":"13","num_nodes":"5","size_leaf_vector":"1"}},{"base_weights":[6.794585E-4],"categories":[],"categories_nodes":[],"categories_segments":[],"categories_sizes":[],"default_left":[0],"id":25,"left_children":[-1],"loss_changes":[0E0],"parents":[2147483647],"right_children":[-1],"split_conditions":[1.6615835E-4],"split_indices":[0],"split_type":[0],"sum_hessian":[1.6548722E5],"tree_param":{"num_deleted":"0","num_feature":"13","num_nodes":"1","size_leaf_vector":"1"}},{"base_weights":[-1.1370679E-3],"categories":[],"categories_nodes":[],"categories_segments":[],"categories_sizes":[],"default_left":[0],"id":26,"left_children":[-1],"loss_changes":[0E0],"parents":[2147483647],"right_children":[-1],"split_conditions":[-2.7806457E-4],"split_indices":[0],"split_type":[0],"sum_hessian":[1.6523955E5],"tree_param":{"num_deleted":"0","num_feature":"13","num_nodes":"1","size_leaf_vector":"1"}},{"base_weights":[1.4827449E-3,-1.8910945E-3,4.3818927E-3,-0E0,-9.13334E-3],"categories":[],"categories_nodes":[],"categories_segments":[],"categories_sizes":[],"default_left":[0,1,0,0,0],"id":27,"left_children":[1,3,-1,-1,-1],"loss_changes":[1.0089915E1,8.83782E0,0E0,0E0,0E0],"parents":[2147483647,0,0,1,1],"right_children":[2,4,-1,-1,-1],"split_conditions":[9.63E1,1.8E1,4.3818927E-3,-0E0,-9.13334E-3],"split_indices":[0,8,0,0,0],"split_type":[0,0,0,0,0],"sum_hessian":[1.6541805E5,1.3436264E5,3.1055416E4,1.27688484E5,6.674147E3],"tree_param":{"num_deleted":"0","num_feature":"13","num_nodes":"5","size_leaf_vector":"1"}},{"base_weights":[2.423012E-3,-1.29924575E-2,1.5601007E-3,-0E0,-9.49196E-3],"categories":[],"categories_nodes":[],"categories_segments":[],"categories_sizes":[],"default_left":[1,0,0,0,0],"id":28,"left_children":[1,3,-1,-1,-1],"loss_changes":[9.707071E0,1.0894708E1,0E0,0E0,0E0],"parents":[2147483647,0,0,1,1],"right_children":[2,4,-1,-1,-1],"split_conditions":[9.15E1,1.32E1,1.5601007E-3,-0E0,-9.49196E-3],"split_indices":[0,9,0,0,0],"split_type":[0,0,0,0,0],"sum_hessian":[1.6533773E5,3.08137E4,1.3452403E5,2.0135303E4,1.0678396E4],"tree_param":{"num_deleted":"0","num_feature":"13","num_nodes":"5","size_leaf_vector":"1"}},{"base_weights":[8.4744E-4],"categories":[],"categories_nodes":[],"categories_segments":[],"categories_sizes":[],"default_left":[0],"id":29,"left_children":[-1],"loss_changes":[0E0],"parents":[2147483647],"right_children":[-1],"split_conditions":[2.0723743E-4],"split_indices":[0],"split_type":[0],"sum_hessian":[1.6523734E5],"tree_param":{"num_deleted":"0","num_feature":"13","num_nodes":"1","size_leaf_vector":"1"}},{"base_weights":[1.3241543E-3],"categories":[],"categories_nodes":[],"categories_segments":[],"categories_sizes":[],"default_left":[0],"id":30,"left_children":[-1],"loss_changes":[0E0],"parents":[2147483647],"right_children":[-1],"split_conditions":[3.2381568E-4],"split_indices":[0],"split_type":[0],"sum_hessian":[1.6526239E5],"tree_param":{"num_deleted":"0","num_feature":"13","num_nodes":"1","size_leaf_vector":"1"}},{"base_weights":[-9.0681067E-7],"categories":[],"categories_nodes":[],"categories_segments":[],"categories_sizes":[],"default_left":[0],"id":31,"left_children":[-1],"loss_changes":[0E0],"parents":[2147483647],"right_children":[-1],"split_conditions":[-2.2175625E-7],"split_indices":[0],"split_type":[0],"sum_hessian":[1.65258E5],"tree_param":{"num_deleted":"0","num_feature":"13","num_nodes":"1","size_leaf_vector":"1"}},{"base_weights":[-2.049739E-3],"categories":[],"categories_nodes":[],"categories_segments":[],"categories_sizes":[],"default_left":[0],"id":32,"left_children":[-1],"loss_changes":[0E0],"parents":[2147483647],"right_children":[-1],"split_conditions":[-5.01254E-4],"split_indices":[0],"split_type":[0],"sum_hessian":[1.65306E5],"tree_param":{"num_deleted":"0","num_feature":"13","num_nodes":"1","size_leaf_vector":"1"}},{"base_weights":[6.4529E-4,5.4495025E-4,-1.2444868E-2],"categories":[],"categories_nodes":[],"categories_segments":[],"categories_sizes":[],"default_left":[0,0,0],"id":33,"left_children":[1,-1,-1],"loss_changes":[1.0683154E1,0E0,0E0],"parents":[2147483647,0,0],"right_children":[2,-1,-1],"split_conditions":[1.0320948E0,5.4495025E-4,-1.2444868E-2],"split_indices":[5,0,0],"split_type":[0,0,0],"sum_hessian":[1.6503877E5,1.612024E5,3.8363567E3],"tree_param":{"num_deleted":"0","num_feature":"13","num_nodes":"3","size_leaf_vector":"1"}},{"base_weights":[-3.524702E-3],"categories":[],"categories_nodes":[],"categories_segments":[],"categories_sizes":[],"default_left":[0],"id":34,"left_children":[-1],"loss_changes":[0E0],"parents":[2147483647],"right_children":[-1],"split_conditions":[-8.619492E-4],"split_indices":[0],"split_type":[0],"sum_hessian":[1.6551489E5],"tree_param":{"num_deleted":"0","num_feature":"13","num_nodes":"1","size_leaf_vector":"1"}},{"base_weights":[-0E0],"categories":[],"categories_nodes":[],"categories_segments":[],"categories_sizes":[],"default_left":[0],"id":35,"left_children":[-1],"loss_changes":[0E0],"parents":[2147483647],"right_children":[-1],"split_conditions":[-0E0],"split_indices":[0],"split_type":[0],"sum_hessian":[1.6546442E5],"tree_param":{"num_deleted":"0","num_feature":"13","num_nodes":"1","size_leaf_vector":"1"}},{"base_weights":[1.992455E-3,1.7626005E-3,-1.4577663E-2,-2.65205E-2,1.0894854E-3,-2.728419E-3,-1.875882E-2],"categories":[],"categories_nodes":[],"categories_segments":[],"categories_sizes":[],"default_left":[0,0,0,1,0,0,0],"id":36,"left_children":[1,-1,3,5,-1,-1,-1],"loss_changes":[1.3875466E1,0E0,9.668556E0,1.3914225E1,0E0,0E0,0E0],"parents":[2147483647,0,0,2,2,3,3],"right_children":[2,-1,4,6,-1,-1,-1],"split_conditions":[1.0899367E0,1.7626005E-3,9.202221E-1,1.9795202E1,1.0894854E-3,-2.728419E-3,-1.875882E-2],"split_indices":[3,0,5,10,0,0,0],"split_type":[0,0,0,0,0,0,0],"sum_hessian":[1.6542862E5,1.2845444E5,3.6974188E4,2.4563447E4,1.2410739E4,1.9684783E4,4.878663E3],"tree_param":{"num_deleted":"0","num_feature":"13","num_nodes":"7","size_leaf_vector":"1"}},{"base_weights":[-2.070274E-3],"categories":[],"categories_nodes":[],"categories_segments":[],"categories_sizes":[],"default_left":[0],"id":37,"left_children":[-1],"loss_changes":[0E0],"parents":[2147483647],"right_children":[-1],"split_conditions":[-5.062757E-4],"split_indices":[0],"split_type":[0],"sum_hessian":[1.6542033E5],"tree_param":{"num_deleted":"0","num_feature":"13","num_nodes":"1","size_leaf_vector":"1"}},{"base_weights":[-0E0],"categories":[],"categories_nodes":[],"categories_segments":[],"categories_sizes":[],"default_left":[0],"id":38,"left_children":[-1],"loss_changes":[0E0],"parents":[2147483647],"right_children":[-1],"split_conditions":[-0E0],"split_indices":[0],"split_type":[0],"sum_hessian":[1.6529855E5],"tree_param":{"num_deleted":"0","num_feature":"13","num_nodes":"1","size_leaf_vector":"1"}},{"base_weights":[-0E0],"categories":[],"categories_nodes":[],"categories_segments":[],"categories_sizes":[],"default_left":[0],"id":39,"left_children":[-1],"loss_changes":[0E0],"parents":[2147483647],"right_children":[-1],"split_conditions":[-0E0],"split_indices":[0],"split_type":[0],"sum_hessian":[1.6518761E5],"tree_param":{"num_deleted":"0","num_feature":"13","num_nodes":"1","size_leaf_vector":"1"}},{"base_weights":[2.2882381E-3],"categories":[],"categories_nodes":[],"categories_segments":[],"categories_sizes":[],"default_left":[0],"id":40,"left_children":[-1],"loss_changes":[0E0],"parents":[2147483647],"right_children":[-1],"split_conditions":[5.5957783E-4],"split_indices":[0],"split_type":[0],"sum_hessian":[1.6546748E5],"tree_param":{"num_deleted":"0","num_feature":"13","num_nodes":"1","size_leaf_vector":"1"}},{"base_weights":[-2.9520018E-3],"categories":[],"categories_nodes":[],"categories_segments":[],"categories_sizes":[],"default_left":[0],"id":41,"left_children":[-1],"loss_changes":[0E0],"parents":[2147483647],"right_children":[-1],"split_conditions":[-7.2189805E-4],"split_indices":[0],"split_type":[0],"sum_hessian":[1.652399E5],"tree_param":{"num_deleted":"0","num_feature":"13","num_nodes":"1","size_leaf_vector":"1"}},{"base_weights":[2.594589E-3],"categories":[],"categories_nodes":[],"categories_segments":[],"categories_sizes":[],"default_left":[0],"id":42,"left_children":[-1],"loss_changes":[0E0],"parents":[2147483647],"right_children":[-1],"split_conditions":[6.3449447E-4],"split_indices":[0],"split_type":[0],"sum_hessian":[1.6555847E5],"tree_param":{"num_deleted":"0","num_feature":"13","num_nodes":"1","size_leaf_vector":"1"}},{"base_weights":[-1.1541378E-3],"categories":[],"categories_nodes":[],"categories_segments":[],"categories_sizes":[],"default_left":[0],"id":43,"left_children":[-1],"loss_changes":[0E0],"parents":[2147483647],"right_children":[-1],"split_conditions":[-2.8223894E-4],"split_indices":[0],"split_type":[0],"sum_hessian":[1.6543497E5],"tree_param":{"num_deleted":"0","num_feature":"13","num_nodes":"1","size_leaf_vector":"1"}},{"base_weights":[-1.9703286E-3],"categories":[],"categories_nodes":[],"categories_segments":[],"categories_sizes":[],"default_left":[0],"id":44,"left_children":[-1],"loss_changes":[0E0],"parents":[2147483647],"right_children":[-1],"split_conditions":[-4.8183455E-4],"split_indices":[0],"split_type":[0],"sum_hessian":[1.6550639E5],"tree_param":{"num_deleted":"0","num_feature":"13","num_nodes":"1","size_leaf_vector":"1"}},{"base_weights":[1.0458598E-3,-2.0096764E-5,3.725832E-2,3.1539217E-2,1.7796693E-3],"categories":[],"categories_nodes":[],"categories_segments":[],"categories_sizes":[],"default_left":[1,0,0,0,0],"id":45,"left_children":[1,-1,3,-1,-1],"loss_changes":[8.875284E0,0E0,1.0137243E1,0E0,0E0],"parents":[2147483647,0,0,2,2],"right_children":[2,-1,4,-1,-1],"split_conditions":[9.85E1,-2.0096764E-5,9.9349284E-1,3.1539217E-2,1.7796693E-3],"split_indices":[0,0,3,0,0],"split_type":[0,0,0,0,0],"sum_hessian":[1.6521345E5,1.5869678E5,6.516678E3,1.1304656E3,5.3862124E3],"tree_param":{"num_deleted":"0","num_feature":"13","num_nodes":"5","size_leaf_vector":"1"}},{"base_weights":[-9.267411E-5],"categories":[],"categories_nodes":[],"categories_segments":[],"categories_sizes":[],"default_left":[0],"id":46,"left_children":[-1],"loss_changes":[0E0],"parents":[2147483647],"right_children":[-1],"split_conditions":[-2.2663015E-5],"split_indices":[0],"split_type":[0],"sum_hessian":[1.6526819E5],"tree_param":{"num_deleted":"0","num_feature":"13","num_nodes":"1","size_leaf_vector":"1"}},{"base_weights":[1.1144581E-3],"categories":[],"categories_nodes":[],"categories_segments":[],"categories_sizes":[],"default_left":[0],"id":47,"left_children":[-1],"loss_changes":[0E0],"parents":[2147483647],"right_children":[-1],"split_conditions":[2.7253546E-4],"split_indices":[0],"split_type":[0],"sum_hessian":[1.651251E5],"tree_param":{"num_deleted":"0","num_feature":"13","num_nodes":"1","size_leaf_vector":"1"}},{"base_weights":[2.2122134E-3],"categories":[],"categories_nodes":[],"categories_segments":[],"categories_sizes":[],"default_left":[0],"id":48,"left_children":[-1],"loss_changes":[0E0],"parents":[2147483647],"right_children":[-1],"split_conditions":[5.409863E-4],"split_indices":[0],"split_type":[0],"sum_hessian":[1.6534606E5],"tree_param":{"num_deleted":"0","num_feature":"13","num_nodes":"1","size_leaf_vector":"1"}},{"base_weights":[-0E0,2.0388037E-2,-1.5395928E-4],"categories":[],"categories_nodes":[],"categories_segments":[],"categories_sizes":[],"default_left":[1,0,0],"id":49,"left_children":[1,-1,-1],"loss_changes":[9.172424E0,0E0,0E0],"parents":[2147483647,0,0],"right_children":[2,-1,-1],"split_conditions":[5.6435804E0,2.0388037E-2,-1.5395928E-4],"split_indices":[10,0,0],"split_type":[0,0,0],"sum_hessian":[1.6521405E5,1.3040892E3,1.6390995E5],"tree_param":{"num_deleted":"0","num_feature":"13","num_nodes":"3","size_leaf_vector":"1"}},{"base_weights":[4.452831E-4],"categories":[],"categories_nodes":[],"categories_segments":[],"categories_sizes":[],"default_left":[0],"id":50,"left_children":[-1],"loss_changes":[0E0],"parents":[2147483647],"right_children":[-1],"split_conditions":[1.0889187E-4],"split_indices":[0],"split_type":[0],"sum_hessian":[1.6516422E5],"tree_param":{"num_deleted":"0","num_feature":"13","num_nodes":"1","size_leaf_vector":"1"}},{"base_weights":[6.4764224E-4],"categories":[],"categories_nodes":[],"categories_segments":[],"categories_sizes":[],"default_left":[0],"id":51,"left_children":[-1],"loss_changes":[0E0],"parents":[2147483647],"right_children":[-1],"split_conditions":[1.5837785E-4],"split_indices":[0],"split_type":[0],"sum_hessian":[1.6522689E5],"tree_param":{"num_deleted":"0","num_feature":"13","num_nodes":"1","size_leaf_vector":"1"}},{"base_weights":[-1.7270852E-4],"categories":[],"categories_nodes":[],"categories_segments":[],"categories_sizes":[],"default_left":[0],"id":52,"left_children":[-1],"loss_changes":[0E0],"parents":[2147483647],"right_children":[-1],"split_conditions":[-4.223505E-5],"split_indices":[0],"split_type":[0],"sum_hessian":[1.6536125E5],"tree_param":{"num_deleted":"0","num_feature":"13","num_nodes":"1","size_leaf_vector":"1"}},{"base_weights":[-8.0491714E-5],"categories":[],"categories_nodes":[],"categories_segments":[],"categories_sizes":[],"default_left":[0],"id":53,"left_children":[-1],"loss_changes":[0E0],"parents":[2147483647],"right_children":[-1],"split_conditions":[-1.9683868E-5],"split_indices":[0],"split_type":[0],"sum_hessian":[1.6537389E5],"tree_param":{"num_deleted":"0","num_feature":"13","num_nodes":"1","size_leaf_vector":"1"}},{"base_weights":[-2.3501923E-3],"categories":[],"categories_nodes":[],"categories_segments":[],"categories_sizes":[],"default_left":[0],"id":54,"left_children":[-1],"loss_changes":[0E0],"parents":[2147483647],"right_children":[-1],"split_conditions":[-5.747284E-4],"split_indices":[0],"split_type":[0],"sum_hessian":[1.652517E5],"tree_param":{"num_deleted":"0","num_feature":"13","num_nodes":"1","size_leaf_vector":"1"}},{"base_weights":[2.0909612E-3],"categories":[],"categories_nodes":[],"categories_segments":[],"categories_sizes":[],"default_left":[0],"id":55,"left_children":[-1],"loss_changes":[0E0],"parents":[2147483647],"right_children":[-1],"split_conditions":[5.113347E-4],"split_indices":[0],"split_type":[0],"sum_hessian":[1.6530981E5],"tree_param":{"num_deleted":"0","num_feature":"13","num_nodes":"1","size_leaf_vector":"1"}},{"base_weights":[-3.2594248E-3],"categories":[],"categories_nodes":[],"categories_segments":[],"categories_sizes":[],"default_left":[0],"id":56,"left_children":[-1],"loss_changes":[0E0],"parents":[2147483647],"right_children":[-1],"split_conditions":[-7.970769E-4],"split_indices":[0],"split_type":[0],"sum_hessian":[1.6520412E5],"tree_param":{"num_deleted":"0","num_feature":"13","num_nodes":"1","size_leaf_vector":"1"}},{"base_weights":[-1.1960091E-3],"categories":[],"categories_nodes":[],"categories_segments":[],"categories_sizes":[],"default_left":[0],"id":57,"left_children":[-1],"loss_changes":[0E0],"parents":[2147483647],"right_children":[-1],"split_conditions":[-2.9247836E-4],"split_indices":[0],"split_type":[0],"sum_hessian":[1.6519039E5],"tree_param":{"num_deleted":"0","num_feature":"13","num_nodes":"1","size_leaf_vector":"1"}},{"base_weights":[-1.812021E-3],"categories":[],"categories_nodes":[],"categories_segments":[],"categories_sizes":[],"default_left":[0],"id":58,"left_children":[-1],"loss_changes":[0E0],"parents":[2147483647],"right_children":[-1],"split_conditions":[-4.4312116E-4],"split_indices":[0],"split_type":[0],"sum_hessian":[1.6505853E5],"tree_param":{"num_deleted":"0","num_feature":"13","num_nodes":"1","size_leaf_vector":"1"}},{"base_weights":[3.038232E-4],"categories":[],"categories_nodes":[],"categories_segments":[],"categories_sizes":[],"default_left":[0],"id":59,"left_children":[-1],"loss_changes":[0E0],"parents":[2147483647],"right_children":[-1],"split_conditions":[7.429853E-5],"split_indices":[0],"split_type":[0],"sum_hessian":[1.6522898E5],"tree_param":{"num_deleted":"0","num_feature":"13","num_nodes":"1","size_leaf_vector":"1"}},{"base_weights":[3.1221006E-3],"categories":[],"categories_nodes":[],"categories_segments":[],"categories_sizes":[],"default_left":[0],"id":60,"left_children":[-1],"loss_changes":[0E0],"parents":[2147483647],"right_children":[-1],"split_conditions":[7.634949E-4],"split_indices":[0],"split_type":[0],"sum_hessian":[1.6528686E5],"tree_param":{"num_deleted":"0","num_feature":"13","num_nodes":"1","size_leaf_vector":"1"}},{"base_weights":[2.7120744E-3],"categories":[],"categories_nodes":[],"categories_segments":[],"categories_sizes":[],"default_left":[0],"id":61,"left_children":[-1],"loss_changes":[0E0],"parents":[2147483647],"right_children":[-1],"split_conditions":[6.6322496E-4],"split_indices":[0],"split_type":[0],"sum_hessian":[1.6506631E5],"tree_param":{"num_deleted":"0","num_feature":"13","num_nodes":"1","size_leaf_vector":"1"}},{"base_weights":[-1.5360895E-3],"categories":[],"categories_nodes":[],"categories_segments":[],"categories_sizes":[],"default_left":[0],"id":62,"left_children":[-1],"loss_changes":[0E0],"parents":[2147483647],"right_children":[-1],"split_conditions":[-3.756434E-4],"split_indices":[0],"split_type":[0],"sum_hessian":[1.6538742E5],"tree_param":{"num_deleted":"0","num_feature":"13","num_nodes":"1","size_leaf_vector":"1"}},{"base_weights":[-1.02045764E-4],"categories":[],"categories_nodes":[],"categories_segments":[],"categories_sizes":[],"default_left":[0],"id":63,"left_children":[-1],"loss_changes":[0E0],"parents":[2147483647],"right_children":[-1],"split_conditions":[-2.4954808E-5],"split_indices":[0],"split_type":[0],"sum_hessian":[1.6540442E5],"tree_param":{"num_deleted":"0","num_feature":"13","num_nodes":"1","size_leaf_vector":"1"}},{"base_weights":[-1.6773057E-3],"categories":[],"categories_nodes":[],"categories_segments":[],"categories_sizes":[],"default_left":[0],"id":64,"left_children":[-1],"loss_changes":[0E0],"parents":[2147483647],"right_children":[-1],"split_conditions":[-4.1017716E-4],"split_indices":[0],"split_type":[0],"sum_hessian":[1.6537462E5],"tree_param":{"num_deleted":"0","num_feature":"13","num_nodes":"1","size_leaf_vector":"1"}},{"base_weights":[-0E0],"categories":[],"categories_nodes":[],"categories_segments":[],"categories_sizes":[],"default_left":[0],"id":65,"left_children":[-1],"loss_changes":[0E0],"parents":[2147483647],"right_children":[-1],"split_conditions":[-0E0],"split_indices":[0],"split_type":[0],"sum_hessian":[1.6522805E5],"tree_param":{"num_deleted":"0","num_feature":"13","num_nodes":"1","size_leaf_vector":"1"}},{"base_weights":[1.0664819E-3],"categories":[],"categories_nodes":[],"categories_segments":[],"categories_sizes":[],"default_left":[0],"id":66,"left_children":[-1],"loss_changes":[0E0],"parents":[2147483647],"right_children":[-1],"split_conditions":[2.6080312E-4],"split_indices":[0],"split_type":[0],"sum_hessian":[1.6536153E5],"tree_param":{"num_deleted":"0","num_feature":"13","num_nodes":"1","size_leaf_vector":"1"}},{"base_weights":[-2.1992775E-3],"categories":[],"categories_nodes":[],"categories_segments":[],"categories_sizes":[],"default_left":[0],"id":67,"left_children":[-1],"loss_changes":[0E0],"parents":[2147483647],"right_children":[-1],"split_conditions":[-5.378229E-4],"split_indices":[0],"split_type":[0],"sum_hessian":[1.6544603E5],"tree_param":{"num_deleted":"0","num_feature":"13","num_nodes":"1","size_leaf_vector":"1"}},{"base_weights":[1.690995E-4],"categories":[],"categories_nodes":[],"categories_segments":[],"categories_sizes":[],"default_left":[0],"id":68,"left_children":[-1],"loss_changes":[0E0],"parents":[2147483647],"right_children":[-1],"split_conditions":[4.1352483E-5],"split_indices":[0],"split_type":[0],"sum_hessian":[1.652478E5],"tree_param":{"num_deleted":"0","num_feature":"13","num_nodes":"1","size_leaf_vector":"1"}},{"base_weights":[2.3177078E-3,-6.665156E-4,1.9899996E-2,-7.680492E-3,2.8235942E-2,1.927668E-2,4.469819E-3],"categories":[],"categories_nodes":[],"categories_segments":[],"categories_sizes":[],"default_left":[0,0,1,0,0,0,0],"id":69,"left_children":[1,-1,3,-1,5,-1,-1],"loss_changes":[1.5633991E1,0E0,1.6657665E1,0E0,1.1978903E1,0E0,0E0],"parents":[2147483647,0,0,2,2,4,4],"right_children":[2,-1,4,-1,6,-1,-1],"split_conditions":[1.4569697E-1,-6.665156E-4,9.570154E-1,-7.680492E-3,1.9902697E-1,1.927668E-2,4.469819E-3],"split_indices":[4,0,3,0,4,0,0],"split_type":[0,0,0,0,0,0,0],"sum_hessian":[1.652259E5,1.2587327E5,3.9352633E4,4.538761E3,3.481387E4,4.7739E3,3.0039973E4],"tree_param":{"num_deleted":"0","num_feature":"13","num_nodes":"7","size_leaf_vector":"1"}},{"base_weights":[1.6518041E-3],"categories":[],"categories_nodes":[],"categories_segments":[],"categories_sizes":[],"default_left":[0],"id":70,"left_children":[-1],"loss_changes":[0E0],"parents":[2147483647],"right_children":[-1],"split_conditions":[4.0394088E-4],"split_indices":[0],"split_type":[0],"sum_hessian":[1.6525217E5],"tree_param":{"num_deleted":"0","num_feature":"13","num_nodes":"1","size_leaf_vector":"1"}},{"base_weights":[2.7405382E-3,3.2461295E-3,-4.8463035E-4],"categories":[],"categories_nodes":[],"categories_segments":[],"categories_sizes":[],"default_left":[0,0,0],"id":71,"left_children":[1,-1,-1],"loss_changes":[8.865121E0,0E0,0E0],"parents":[2147483647,0,0],"right_children":[2,-1,-1],"split_conditions":[-2.7521393E-1,3.2461295E-3,-4.8463035E-4],"split_indices":[4,0,0],"split_type":[0,0,0],"sum_hessian":[1.6522602E5,5.4889305E4,1.103367E5],"tree_param":{"num_deleted":"0","num_feature":"13","num_nodes":"3","size_leaf_vector":"1"}},{"base_weights":[-4.008286E-3],"categories":[],"categories_nodes":[],"categories_segments":[],"categories_sizes":[],"default_left":[0],"id":72,"left_children":[-1],"loss_changes":[0E0],"parents":[2147483647],"right_children":[-1],"split_conditions":[-9.802075E-4],"split_indices":[0],"split_type":[0],"sum_hessian":[1.6539238E5],"tree_param":{"num_deleted":"0","num_feature":"13","num_nodes":"1","size_leaf_vector":"1"}},{"base_weights":[-6.7050406E-4],"categories":[],"categories_nodes":[],"categories_segments":[],"categories_sizes":[],"default_left":[0],"id":73,"left_children":[-1],"loss_changes":[0E0],"parents":[2147483647],"right_children":[-1],"split_conditions":[-1.639686E-4],"split_indices":[0],"split_type":[0],"sum_hessian":[1.6526672E5],"tree_param":{"num_deleted":"0","num_feature":"13","num_nodes":"1","size_leaf_vector":"1"}},{"base_weights":[-2.55685E-3],"categories":[],"categories_nodes":[],"categories_segments":[],"categories_sizes":[],"default_left":[0],"id":74,"left_children":[-1],"loss_changes":[0E0],"parents":[2147483647],"right_children":[-1],"split_conditions":[-6.2526553E-4],"split_indices":[0],"split_type":[0],"sum_hessian":[1.6528905E5],"tree_param":{"num_deleted":"0","num_feature":"13","num_nodes":"1","size_leaf_vector":"1"}},{"base_weights":[-6.256217E-4],"categories":[],"categories_nodes":[],"categories_segments":[],"categories_sizes":[],"default_left":[0],"id":75,"left_children":[-1],"loss_changes":[0E0],"parents":[2147483647],"right_children":[-1],"split_conditions":[-1.5299283E-4],"split_indices":[0],"split_type":[0],"sum_hessian":[1.6534522E5],"tree_param":{"num_deleted":"0","num_feature":"13","num_nodes":"1","size_leaf_vector":"1"}},{"base_weights":[1.8443922E-3],"categories":[],"categories_nodes":[],"categories_segments":[],"categories_sizes":[],"default_left":[0],"id":76,"left_children":[-1],"loss_changes":[0E0],"parents":[2147483647],"right_children":[-1],"split_conditions":[4.5103737E-4],"split_indices":[0],"split_type":[0],"sum_hessian":[1.6529403E5],"tree_param":{"num_deleted":"0","num_feature":"13","num_nodes":"1","size_leaf_vector":"1"}},{"base_weights":[-2.2487385E-4],"categories":[],"categories_nodes":[],"categories_segments":[],"categories_sizes":[],"default_left":[0],"id":77,"left_children":[-1],"loss_changes":[0E0],"parents":[2147483647],"right_children":[-1],"split_conditions":[-5.4991833E-5],"split_indices":[0],"split_type":[0],"sum_hessian":[1.6522986E5],"tree_param":{"num_deleted":"0","num_feature":"13","num_nodes":"1","size_leaf_vector":"1"}},{"base_weights":[-3.657665E-4],"categories":[],"categories_nodes":[],"categories_segments":[],"categories_sizes":[],"default_left":[0],"id":78,"left_children":[-1],"loss_changes":[0E0],"parents":[2147483647],"right_children":[-1],"split_conditions":[-8.944646E-5],"split_indices":[0],"split_type":[0],"sum_hessian":[1.6516972E5],"tree_param":{"num_deleted":"0","num_feature":"13","num_nodes":"1","size_leaf_vector":"1"}},{"base_weights":[-1.5801794E-3],"categories":[],"categories_nodes":[],"categories_segments":[],"categories_sizes":[],"default_left":[0],"id":79,"left_children":[-1],"loss_changes":[0E0],"parents":[2147483647],"right_children":[-1],"split_conditions":[-3.864254E-4],"split_indices":[0],"split_type":[0],"sum_hessian":[1.6540478E5],"tree_param":{"num_deleted":"0","num_feature":"13","num_nodes":"1","size_leaf_vector":"1"}},{"base_weights":[-8.235169E-4],"categories":[],"categories_nodes":[],"categories_segments":[],"categories_sizes":[],"default_left":[0],"id":80,"left_children":[-1],"loss_changes":[0E0],"parents":[2147483647],"right_children":[-1],"split_conditions":[-2.0138717E-4],"split_indices":[0],"split_type":[0],"sum_hessian":[1.6534958E5],"tree_param":{"num_deleted":"0","num_feature":"13","num_nodes":"1","size_leaf_vector":"1"}},{"base_weights":[-8.244739E-5],"categories":[],"categories_nodes":[],"categories_segments":[],"categories_sizes":[],"default_left":[0],"id":81,"left_children":[-1],"loss_changes":[0E0],"parents":[2147483647],"right_children":[-1],"split_conditions":[-2.0162119E-5],"split_indices":[0],"split_type":[0],"sum_hessian":[1.6550734E5],"tree_param":{"num_deleted":"0","num_feature":"13","num_nodes":"1","size_leaf_vector":"1"}},{"base_weights":[-5.455691E-4],"categories":[],"categories_nodes":[],"categories_segments":[],"categories_sizes":[],"default_left":[0],"id":82,"left_children":[-1],"loss_changes":[0E0],"parents":[2147483647],"right_children":[-1],"split_conditions":[-1.3341634E-4],"split_indices":[0],"split_type":[0],"sum_hessian":[1.652703E5],"tree_param":{"num_deleted":"0","num_feature":"13","num_nodes":"1","size_leaf_vector":"1"}},{"base_weights":[-1.0346859E-3],"categories":[],"categories_nodes":[],"categories_segments":[],"categories_sizes":[],"default_left":[0],"id":83,"left_children":[-1],"loss_changes":[0E0],"parents":[2147483647],"right_children":[-1],"split_conditions":[-2.5302754E-4],"split_indices":[0],"split_type":[0],"sum_hessian":[1.6543445E5],"tree_param":{"num_deleted":"0","num_feature":"13","num_nodes":"1","size_leaf_vector":"1"}},{"base_weights":[-0E0],"categories":[],"categories_nodes":[],"categories_segments":[],"categories_sizes":[],"default_left":[0],"id":84,"left_children":[-1],"loss_changes":[0E0],"parents":[2147483647],"right_children":[-1],"split_conditions":[-0E0],"split_indices":[0],"split_type":[0],"sum_hessian":[1.6526725E5],"tree_param":{"num_deleted":"0","num_feature":"13","num_nodes":"1","size_leaf_vector":"1"}},{"base_weights":[-7.0356306E-5],"categories":[],"categories_nodes":[],"categories_segments":[],"categories_sizes":[],"default_left":[0],"id":85,"left_children":[-1],"loss_changes":[0E0],"parents":[2147483647],"right_children":[-1],"split_conditions":[-1.7205302E-5],"split_indices":[0],"split_type":[0],"sum_hessian":[1.652884E5],"tree_param":{"num_deleted":"0","num_feature":"13","num_nodes":"1","size_leaf_vector":"1"}},{"base_weights":[-0E0,-4.0060704E-4,3.673115E-2,1.590475E-2,-0E0],"categories":[],"categories_nodes":[],"categories_segments":[],"categories_sizes":[],"default_left":[0,0,0,0,0],"id":86,"left_children":[1,-1,3,-1,-1],"loss_changes":[9.198542E0,0E0,9.448764E0,0E0,0E0],"parents":[2147483647,0,0,2,2],"right_children":[2,-1,4,-1,-1],"split_conditions":[9.85E1,-4.0060704E-4,1.0775771E0,1.590475E-2,-0E0],"split_indices":[0,0,3,0,0],"split_type":[0,0,0,0,0],"sum_hessian":[1.6527114E5,1.5877527E5,6.49587E3,4.3014717E3,2.1943984E3],"tree_param":{"num_deleted":"0","num_feature":"13","num_nodes":"5","size_leaf_vector":"1"}},{"base_weights":[7.255561E-4,-1.4929291E-2,4.402323E-3,-2.8448975E-2,2.0716288E-3,5.9635034E-3,5.188835E-4,-1.0247739E-3,-1.9957233E-2,-1.3787486E-3,3.4028098E-2,-1.0297999E-2,3.15924E-4,1.605258E-2,-0E0,2.216039E-2,-9.333615E-3],"categories":[],"categories_nodes":[],"categories_segments":[],"categories_sizes":[],"default_left":[0,0,0,0,0,0,1,0,0,0,0,0,0,0,0,0,0],"id":87,"left_children":[1,3,5,7,-1,-1,9,-1,-1,11,13,-1,-1,-1,15,-1,-1],"loss_changes":[8.915146E0,1.0157277E1,9.196357E0,2.037659E1,0E0,0E0,9.306807E0,0E0,0E0,1.4204025E1,1.0240705E1,0E0,0E0,0E0,1.0363368E1,0E0,0E0],"parents":[2147483647,0,0,1,1,2,2,3,3,6,6,9,9,10,10,14,14],"right_children":[2,4,6,8,-1,-1,10,-1,-1,12,14,-1,-1,-1,16,-1,-1],"split_conditions":[1.31E2,2.588931E-1,8.5E0,-2.4726756E-1,2.0716288E-3,5.9635034E-3,7.1535554E0,-1.0247739E-3,-1.9957233E-2,9.04E1,1.64E1,-1.0297999E-2,3.15924E-4,1.605258E-2,9.24E1,2.216039E-2,-9.333615E-3],"split_indices":[7,4,9,4,0,0,2,0,0,0,9,0,0,0,0,0,0],"split_type":[0,0,0,0,0,0,0,0,0,0,0,0,0,0,0,0,0],"sum_hessian":[1.6533311E5,2.8483354E4,1.3684975E5,1.9601395E4,8.881959E3,1.9865262E4,1.16984484E5,1.4202828E4,5.398567E3,1.0910502E5,7.879463E3,8.025482E3,1.0107955E5,4.489476E3,3.3899868E3,7.942497E2,2.5957373E3],"tree_param":{"num_deleted":"0","num_feature":"13","num_nodes":"17","size_leaf_vector":"1"}},{"base_weights":[1.8815788E-3],"categories":[],"categories_nodes":[],"categories_segments":[],"categories_sizes":[],"default_left":[0],"id":88,"left_children":[-1],"loss_changes":[0E0],"parents":[2147483647],"right_children":[-1],"split_conditions":[4.6013118E-4],"split_indices":[0],"split_type":[0],"sum_hessian":[1.6537403E5],"tree_param":{"num_deleted":"0","num_feature":"13","num_nodes":"1","size_leaf_vector":"1"}},{"base_weights":[-1.7007716E-3,-1.886762E-3,2.6170935E-3],"categories":[],"categories_nodes":[],"categories_segments":[],"categories_sizes":[],"default_left":[0,0,0],"id":89,"left_children":[1,-1,-1],"loss_changes":[1.2155875E1,0E0,0E0],"parents":[2147483647,0,0],"right_children":[2,-1,-1],"split_conditions":[1.9163769E1,-1.886762E-3,2.6170935E-3],"split_indices":[10,0,0],"split_type":[0,0,0],"sum_hessian":[1.6523014E5,1.1437706E5,5.0853082E4],"tree_param":{"num_deleted":"0","num_feature":"13","num_nodes":"3","size_leaf_vector":"1"}},{"base_weights":[2.1150806E-3],"categories":[],"categories_nodes":[],"categories_segments":[],"categories_sizes":[],"default_left":[0],"id":90,"left_children":[-1],"loss_changes":[0E0],"parents":[2147483647],"right_children":[-1],"split_conditions":[5.172329E-4],"split_indices":[0],"split_type":[0],"sum_hessian":[1.6519923E5],"tree_param":{"num_deleted":"0","num_feature":"13","num_nodes":"1","size_leaf_vector":"1"}},{"base_weights":[1.4135531E-3],"categories":[],"categories_nodes":[],"categories_segments":[],"categories_sizes":[],"default_left":[0],"id":91,"left_children":[-1],"loss_changes":[0E0],"parents":[2147483647],"right_children":[-1],"split_conditions":[3.4567772E-4],"split_indices":[0],"split_type":[0],"sum_hessian":[1.6507775E5],"tree_param":{"num_deleted":"0","num_feature":"13","num_nodes":"1","size_leaf_vector":"1"}},{"base_weights":[1.5979394E-4],"categories":[],"categories_nodes":[],"categories_segments":[],"categories_sizes":[],"default_left":[0],"id":92,"left_children":[-1],"loss_changes":[0E0],"parents":[2147483647],"right_children":[-1],"split_conditions":[3.907685E-5],"split_indices":[0],"split_type":[0],"sum_hessian":[1.6540531E5],"tree_param":{"num_deleted":"0","num_feature":"13","num_nodes":"1","size_leaf_vector":"1"}},{"base_weights":[-0E0],"categories":[],"categories_nodes":[],"categories_segments":[],"categories_sizes":[],"default_left":[0],"id":93,"left_children":[-1],"loss_changes":[0E0],"parents":[2147483647],"right_children":[-1],"split_conditions":[-0E0],"split_indices":[0],"split_type":[0],"sum_hessian":[1.6507017E5],"tree_param":{"num_deleted":"0","num_feature":"13","num_nodes":"1","size_leaf_vector":"1"}},{"base_weights":[-1.1853343E-4],"categories":[],"categories_nodes":[],"categories_segments":[],"categories_sizes":[],"default_left":[0],"id":94,"left_children":[-1],"loss_changes":[0E0],"parents":[2147483647],"right_children":[-1],"split_conditions":[-2.898679E-5],"split_indices":[0],"split_type":[0],"sum_hessian":[1.6534381E5],"tree_param":{"num_deleted":"0","num_feature":"13","num_nodes":"1","size_leaf_vector":"1"}},{"base_weights":[2.791692E-4],"categories":[],"categories_nodes":[],"categories_segments":[],"categories_sizes":[],"default_left":[0],"id":95,"left_children":[-1],"loss_changes":[0E0],"parents":[2147483647],"right_children":[-1],"split_conditions":[6.826951E-5],"split_indices":[0],"split_type":[0],"sum_hessian":[1.652723E5],"tree_param":{"num_deleted":"0","num_feature":"13","num_nodes":"1","size_leaf_vector":"1"}},{"base_weights":[3.0491737E-4],"categories":[],"categories_nodes":[],"categories_segments":[],"categories_sizes":[],"default_left":[0],"id":96,"left_children":[-1],"loss_changes":[0E0],"parents":[2147483647],"right_children":[-1],"split_conditions":[7.45661E-5],"split_indices":[0],"split_type":[0],"sum_hessian":[1.6524484E5],"tree_param":{"num_deleted":"0","num_feature":"13","num_nodes":"1","size_leaf_vector":"1"}},{"base_weights":[7.730386E-5],"categories":[],"categories_nodes":[],"categories_segments":[],"categories_sizes":[],"default_left":[0],"id":97,"left_children":[-1],"loss_changes":[0E0],"parents":[2147483647],"right_children":[-1],"split_conditions":[1.8904293E-5],"split_indices":[0],"split_type":[0],"sum_hessian":[1.6537602E5],"tree_param":{"num_deleted":"0","num_feature":"13","num_nodes":"1","size_leaf_vector":"1"}},{"base_weights":[-2.0447965E-3],"categories":[],"categories_nodes":[],"categories_segments":[],"categories_sizes":[],"default_left":[0],"id":98,"left_children":[-1],"loss_changes":[0E0],"parents":[2147483647],"right_children":[-1],"split_conditions":[-5.000453E-4],"split_indices":[0],"split_type":[0],"sum_hessian":[1.6496197E5],"tree_param":{"num_deleted":"0","num_feature":"13","num_nodes":"1","size_leaf_vector":"1"}},{"base_weights":[-0E0,-1.2068594E-3,3.0806668E-3],"categories":[],"categories_nodes":[],"categories_segments":[],"categories_sizes":[],"default_left":[1,0,0],"id":99,"left_children":[1,-1,-1],"loss_changes":[1.0348597E1,0E0,0E0],"parents":[2147483647,0,0],"right_children":[2,-1,-1],"split_conditions":[9.55E1,-1.2068594E-3,3.0806668E-3],"split_indices":[0,0,0],"split_type":[0,0,0],"sum_hessian":[1.6538564E5,1.183459E5,4.7039742E4],"tree_param":{"num_deleted":"0","num_feature":"13","num_nodes":"3","size_leaf_vector":"1"}}]},"name":"gbtree"},"learner_model_param":{"base_score":"4.7809362E-1","boost_from_average":"1","num_class":"0","num_feature":"13","num_target":"1"},"objective":{"name":"binary:logistic","reg_loss_param":{"scale_pos_weight":"1"}}},"version":[2,1,4]}