{"learner":{"attributes":{"scikit_learn":"{\"_estimator_type\": \"classifier\"}"},"feature_names":["velo","plate_time","plate_time_diff","extension","extension_ratio","x0_ratio","z0_ratio","HAVAA","spin_rate","adj_spin_dir","HB_acc","IVB_acc","Break_acc","pitcherHand_L","pitcherHand_R","hitterHand_L","hitterHand_R"],"feature_types":["float","float","float","float","float","float","float","float","float","float","float","float","float","i","i","i","i"],"gradient_booster":{"model":{"gbtree_model_param":{"num_parallel_tree":"1","num_trees":"100"},"iteration_indptr":[0,1,2,3,4,5,6,7,8,9,10,11,12,13,14,15,16,17,18,19,20,21,22,23,24,25,26,27,28,29,30,31,32,33,34,35,36,37,38,39,40,41,42,43,44,45,46,47,48,49,50,51,52,53,54,55,56,57,58,59,60,61,62,63,64,65,66,67,68,69,70,71,72,73,74,75,76,77,78,79,80,81,82,83,84,85,86,87,88,89,90,91,92,93,94,95,96,97,98,99,100],"tree_info":[0,0,0,0,0,0,0,0,0,0,0,0,0,0,0,0,0,0,0,0,0,0,0,0,0,0,0,0,0,0,0,0,0,0,0,0,0,0,0,0,0,0,0,0,0,0,0,0,0,0,0,0,0,0,0,0,0,0,0,0,0,0,0,0,0,0,0,0,0,0,0,0,0,0,0,0,0,0,0,0,0,0,0,0,0,0,0,0,0,0,0,0,0,0,0,0,0,0,0,0],"trees":[{"base_weights":[4.3254605E-4,-4.8226748E-2,1.219228E-1,-3.677438E-1,9.0400316E-2,1.6251212E-1,-3.9967787E-1,-1.9902952E-1,-8.924079E-2,-4.8658356E-2,1.244923E-1,-1.580504E-2,1.7865333E-1,-2.1304278E-2,-8.94833E-2,-6.8352E-2,-1.3888489E-1,4.1266356E-2,-4.4072013E-2,1.9871837E-1,8.6070366E-2,4.0947285E-2,9.747848E-2,1.2856874E-2,-3.1241825E-2,4.563683E-2,-1.3344508E-2,1.2726344E-2,4.1257482E-2,-2.2677436E-2,1.08552575E-1,-4.0902983E-2,2.7023524E-2,-1.1128705E-2,2.8058276E-2,8.682701E-3,1.4431092E-1,-2.8279489E-2,1.573609E-2,2.8540986E-2,-1.98042E-2],"categories":[],"categories_nodes":[],"categories_segments":[],"categories_sizes":[],"default_left":[0,0,0,0,0,1,0,1,0,0,0,0,0,0,0,0,0,1,0,1,0,0,0,0,0,0,0,0,0,0,0,0,0,0,0,0,0,0,0,0,0],"id":0,"left_children":[1,3,5,7,9,11,13,15,-1,17,19,-1,21,-1,-1,-1,23,25,-1,27,29,-1,31,-1,-1,-1,33,-1,-1,-1,35,37,-1,-1,-1,-1,39,-1,-1,-1,-1],"loss_changes":[1.4162079E2,7.579678E2,1.4697382E2,1.0042706E2,5.6959366E1,2.649176E1,9.237358E0,2.0374924E1,0E0,4.1768585E1,2.606601E1,0E0,2.0707306E1,0E0,0E0,0E0,1.2361233E1,1.930445E1,0E0,1.0032509E1,3.0783371E1,0E0,1.6221087E1,0E0,0E0,0E0,1.060817E1,0E0,0E0,0E0,1.1986153E1,9.608164E0,0E0,0E0,0E0,0E0,1.1744751E1,0E0,0E0,0E0,0E0],"parents":[2147483647,0,0,1,1,2,2,3,3,4,4,5,5,6,6,7,7,9,9,10,10,12,12,16,16,17,17,19,19,20,20,22,22,26,26,30,30,31,31,36,36],"right_children":[2,4,6,8,10,12,14,16,-1,18,20,-1,22,-1,-1,-1,24,26,-1,28,30,-1,32,-1,-1,-1,34,-1,-1,-1,36,38,-1,-1,-1,-1,40,-1,-1,-1,-1],"split_conditions":[1E0,1E0,1E0,6.657593E1,6.1412525E1,3.626625E1,6.1807728E1,1.114E3,-8.924079E-2,-3.2432213E-1,-4.1398323E-1,-1.580504E-2,8.55E1,-2.1304278E-2,-8.94833E-2,-6.8352E-2,2.9248981E1,9.7243524E-1,-4.4072013E-2,-1.6490022E-3,-9.992168E-1,4.0947285E-2,7.9322945E1,1.2856874E-2,-3.1241825E-2,4.563683E-2,4.6650097E-2,1.2726344E-2,4.1257482E-2,-2.2677436E-2,7.6182556E1,1.9596752E1,2.7023524E-2,-1.1128705E-2,2.8058276E-2,8.682701E-3,4.518582E-1,-2.8279489E-2,1.573609E-2,2.8540986E-2,-1.98042E-2],"split_indices":[13,15,15,10,12,10,10,8,0,7,7,0,0,0,0,0,10,4,0,2,11,0,12,0,0,0,2,0,0,0,10,11,0,0,0,0,1,0,0,0,0],"split_type":[0,0,0,0,0,0,0,0,0,0,0,0,0,0,0,0,0,0,0,0,0,0,0,0,0,0,0,0,0,0,0,0,0,0,0,0,0,0,0,0,0],"sum_hessian":[2.3852475E4,1.7032629E4,6.819847E3,5.1407417E3,1.1891887E4,6.3553027E3,4.6454428E2,2.1959824E3,2.9447593E3,2.3242095E3,9.567678E3,3.678159E2,5.987487E3,1.3938808E2,3.251562E2,5.0149948E2,1.6944829E3,1.5957703E3,7.2843915E2,3.1893083E3,6.3783687E3,3.7731511E3,2.214336E3,2.100742E2,1.4844087E3,3.1300314E2,1.2827672E3,5.942595E2,2.5950488E3,5.895471E2,5.788822E3,5.811144E2,1.6332216E3,1.0278011E3,2.549661E2,2.1962305E3,3.5925913E3,3.1225906E2,2.6885532E2,3.4524592E3,1.4013214E2],"tree_param":{"num_deleted":"0","num_feature":"17","num_nodes":"41","size_leaf_vector":"1"}},{"base_weights":[-1.0458197E-4,-3.98581E-2,1.0323567E-1,-2.8763595E-1,7.1894646E-2,1.3740917E-1,-6.157707E-2,-1.443581E-1,-3.6566666E-1,-3.938769E-2,1.0194349E-1,6.3659134E-3,1.5165052E-1,-3.1981718E-2,1.3362424E-2,-4.1378516E-1,-2.5096564E-2,2.0181974E-2,-4.341577E-2,1.6734947E-1,6.869063E-2,-3.946206E-2,1.53579945E-2,3.1778503E-2,4.1131847E-2,2.7343808E-3,-4.2143705E-1,1.0181334E-1,-8.837061E-2,1.8772358E-1,-0E0,-1.2066822E-1,8.864927E-2,3.652242E-2,-1.0941836E-2,-8.016613E-2,-2.753274E-2,-1.4156541E-2,1.680013E-1,-1.3323593E-1,2.191653E-2,2.2307837E-1,1.4849725E-2,1.0802823E-2,-1.9492956E-1,1.1092734E-1,-2.1167446E-3,-0E0,4.5085374E-2,1.3143494E-2,-3.4381445E-2,4.8480116E-2,1.5186001E-2,-9.96604E-3,-6.660158E-2,2.390761E-2,1.5818324E-3],"categories":[],"categories_nodes":[],"categories_segments":[],"categories_sizes":[],"default_left":[0,0,0,0,0,0,0,0,0,0,0,0,0,0,0,0,0,0,0,0,0,0,0,0,0,0,0,0,0,0,0,0,0,0,0,0,0,0,0,1,0,1,0,0,0,0,0,0,0,0,0,0,0,0,0,0,0],"id":1,"left_children":[1,3,5,7,9,11,-1,13,15,17,19,21,23,-1,-1,25,-1,27,-1,29,31,-1,-1,-1,33,-1,35,37,39,41,-1,43,45,-1,-1,-1,-1,-1,47,49,-1,51,-1,-1,53,55,-1,-1,-1,-1,-1,-1,-1,-1,-1,-1,-1],"loss_changes":[9.808485E1,4.79961E2,1.00958626E2,5.704419E1,4.021436E1,1.1112808E1,0E0,1.3925358E1,3.447989E1,3.080792E1,1.950135E1,1.177988E1,1.2957626E1,0E0,0E0,1.0492065E1,0E0,1.7938137E1,0E0,1.0379471E1,2.4261662E1,0E0,0E0,0E0,1.687853E1,0E0,9.372528E0,1.4492801E1,8.643595E0,9.043823E0,0E0,8.876245E0,1.3164101E1,0E0,0E0,0E0,0E0,0E0,1.1475412E1,9.066392E0,0E0,1.0491051E1,0E0,0E0,8.933197E0,9.313763E0,0E0,0E0,0E0,0E0,0E0,0E0,0E0,0E0,0E0,0E0,0E0],"parents":[2147483647,0,0,1,1,2,2,3,3,4,4,5,5,7,7,8,8,9,9,10,10,11,11,12,12,15,15,17,17,19,19,20,20,24,24,26,26,27,27,28,28,29,29,31,31,32,32,38,38,39,39,41,41,44,44,45,45],"right_children":[2,4,6,8,10,12,-1,14,16,18,20,22,24,-1,-1,26,-1,28,-1,30,32,-1,-1,-1,34,-1,36,38,40,42,-1,44,46,-1,-1,-1,-1,-1,48,50,-1,52,-1,-1,54,56,-1,-1,-1,-1,-1,-1,-1,-1,-1,-1,-1],"split_conditions":[8.768601E-2,1E0,1E0,6.980144E1,6.2781178E1,-2.4672463E0,-6.157707E-2,3.9200176E1,-1.6594367E-1,-1.4858852E-1,-4.1398323E-1,2.7501798E-1,2.200695E-1,-3.1981718E-2,1.3362424E-2,3.9058787E-1,-2.5096564E-2,-2.3173286E-1,-4.341577E-2,-1.4577319E-1,-9.992168E-1,-3.946206E-2,1.53579945E-2,3.1778503E-2,8.32218E-1,2.7343808E-3,6.225698E-1,4.1825974E1,5.124527E-2,3.38293E1,-0E0,-3.663744E-1,-1.982908E-1,3.652242E-2,-1.0941836E-2,-8.016613E-2,-2.753274E-2,-1.4156541E-2,5.521451E-1,6.055592E0,2.191653E-2,1.068731E0,1.4849725E-2,1.0802823E-2,2.7996166E-2,5.0498043E1,-2.1167446E-3,-0E0,4.5085374E-2,1.3143494E-2,-3.4381445E-2,4.8480116E-2,1.5186001E-2,-9.96604E-3,-6.660158E-2,2.390761E-2,1.5818324E-3],"split_indices":[5,15,15,12,12,11,0,11,5,7,7,5,7,0,0,1,0,5,0,5,11,0,0,0,6,0,7,12,2,11,0,5,5,0,0,0,0,0,11,3,0,4,0,0,2,11,0,0,0,0,0,0,0,0,0,0,0],"split_type":[0,0,0,0,0,0,0,0,0,0,0,0,0,0,0,0,0,0,0,0,0,0,0,0,0,0,0,0,0,0,0,0,0,0,0,0,0,0,0,0,0,0,0,0,0,0,0,0,0,0,0,0,0,0,0,0,0],"sum_hessian":[2.3839824E4,1.7250172E4,6.5896523E3,5.3506685E3,1.1899504E4,6.143837E3,4.4581546E2,1.934582E3,3.4160867E3,2.5102676E3,9.389236E3,6.2428064E2,5.519556E3,1.7108247E3,2.2375726E2,2.7877158E3,6.2837085E2,1.9464943E3,5.637733E2,3.089872E3,6.2993643E3,1.3656532E2,4.8771533E2,4.5538965E3,9.6566E2,4.266176E1,2.745054E3,1.1251669E3,8.2132733E2,2.742551E3,3.47321E2,5.7127997E2,5.728084E3,3.708129E2,5.9484705E2,2.5475146E3,1.9753935E2,2.916607E2,8.3350616E2,6.9639435E2,1.24932976E2,2.0110146E3,7.3153644E2,1.5953099E2,4.11749E2,4.7032715E3,1.0248126E3,2.7915384E2,5.5435236E2,1.355277E2,5.6086664E2,1.5043645E3,5.0665018E2,2.599212E2,1.5182779E2,3.905176E3,7.9809546E2],"tree_param":{"num_deleted":"0","num_feature":"17","num_nodes":"57","size_leaf_vector":"1"}},{"base_weights":[1.7845602E-4,-3.1408872E-2,7.9390034E-2,-2.4376294E-1,6.1363183E-2,1.0863237E-1,-5.2804694E-2,-1.2571152E-1,-3.2770973E-1,-3.144106E-2,8.657218E-2,-9.501626E-2,1.22069396E-1,-4.8680462E-2,-1.3318339E-2,-4.8883256E-2,-7.43133E-2,3.103667E-2,-2.944442E-2,3.1142337E-2,6.1754618E-2,1.1059281E-2,-2.167006E-1,5.5385415E-2,2.9319076E-2,3.2155897E-2,-1.1549402E-3,-4.8638243E-2,8.8991836E-2,-6.5892056E-2,1.8902114E-2,-4.8641764E-2,1.7890224E-2,6.237328E-3,-1.2317058E-1,1.9193752E-2,-8.146688E-3,-3.614861E-2,7.5640683E-3,-1.7000249E-1,2.8150873E-2,1.3610877E-2,-2.7683116E-2,-1.455872E-2,-6.722228E-2],"categories":[],"categories_nodes":[],"categories_segments":[],"categories_sizes":[],"default_left":[0,0,0,0,1,1,0,1,0,0,0,0,0,0,0,0,0,1,0,0,0,0,0,0,0,0,0,0,0,0,0,0,0,0,0,0,0,0,0,0,0,0,0,0,0],"id":2,"left_children":[1,3,5,7,9,11,-1,13,15,17,19,21,23,-1,-1,-1,-1,25,-1,-1,27,-1,29,31,-1,-1,-1,33,35,-1,-1,37,-1,-1,39,-1,41,-1,-1,43,-1,-1,-1,-1,-1],"loss_changes":[5.9854332E1,3.3682285E2,7.431189E1,4.8892456E1,2.8039913E1,1.7894806E1,0E0,1.5051052E1,8.626587E0,2.1143728E1,1.8587845E1,8.494921E0,1.4530716E1,0E0,0E0,0E0,0E0,9.866346E0,0E0,0E0,2.226147E1,0E0,1.322106E1,1.0366471E1,0E0,0E0,0E0,9.346653E0,9.509998E0,0E0,0E0,9.670844E0,0E0,0E0,1.1248517E1,0E0,1.0717099E1,0E0,0E0,1.034503E1,0E0,0E0,0E0,0E0,0E0],"parents":[2147483647,0,0,1,1,2,2,3,3,4,4,5,5,7,7,8,8,9,9,10,10,11,11,12,12,17,17,20,20,22,22,23,23,27,27,28,28,31,31,34,34,36,36,39,39],"right_children":[2,4,6,8,10,12,-1,14,16,18,20,22,24,-1,-1,-1,-1,26,-1,-1,28,-1,30,32,-1,-1,-1,34,36,-1,-1,38,-1,-1,40,-1,42,-1,-1,44,-1,-1,-1,-1,-1],"split_conditions":[1E0,1E0,1E0,6.657593E1,6.2781178E1,3.626625E1,-5.2804694E-2,1.146E3,8.633236E1,-3.2432213E-1,-6.173417E-1,-6.173417E-1,4.408096E-1,-4.8680462E-2,-1.3318339E-2,-4.8883256E-2,-7.43133E-2,9.7243524E-1,-2.944442E-2,3.1142337E-2,9.401146E0,1.1059281E-2,1.43E2,7.9322945E1,2.9319076E-2,3.2155897E-2,-1.1549402E-3,8.410902E-1,5.5848457E1,-6.5892056E-2,1.8902114E-2,1.134806E1,1.7890224E-2,6.237328E-3,9.709327E1,1.9193752E-2,4.4009542E-1,-3.614861E-2,7.5640683E-3,-8.008263E-2,2.8150873E-2,1.3610877E-2,-2.7683116E-2,-1.455872E-2,-6.722228E-2],"split_indices":[13,15,15,10,12,10,0,8,10,7,7,7,1,0,0,0,0,4,0,0,11,0,9,12,0,0,0,6,11,0,0,11,0,0,10,0,1,0,0,7,0,0,0,0,0],"split_type":[0,0,0,0,0,0,0,0,0,0,0,0,0,0,0,0,0,0,0,0,0,0,0,0,0,0,0,0,0,0,0,0,0,0,0,0,0,0,0,0,0,0,0,0,0],"sum_hessian":[2.3801512E4,1.7009822E4,6.7916904E3,5.1615596E3,1.1848263E4,6.322633E3,4.690578E2,2.1953228E3,2.9662368E3,2.5082754E3,9.339987E3,3.6627533E2,5.9563574E3,5.4499725E2,1.6503256E3,1.7975382E3,1.1686985E3,1.699487E3,8.087884E2,2.0587878E3,7.281199E3,1.6004047E2,2.0623486E2,2.2361665E3,3.720191E3,3.3348346E2,1.3660035E3,1.4174856E3,5.8637134E3,1.4425569E2,6.1979168E1,6.3139923E2,1.6047673E3,6.654155E2,7.5207007E2,5.047959E3,8.157546E2,2.3118036E2,4.0021887E2,6.631382E2,8.8931885E1,5.1789044E2,2.978642E2,4.99491E2,1.6364722E2],"tree_param":{"num_deleted":"0","num_feature":"17","num_nodes":"45","size_leaf_vector":"1"}},{"base_weights":[-3.5928255E-3,-2.9889345E-2,7.013319E-2,4.5802098E-2,-1.8749061E-1,-4.0124834E-2,9.276344E-2,-9.655931E-2,6.0862307E-2,-2.1059746E-1,4.0794406E-3,-8.229388E-3,1.05839394E-1,1.3378281E-2,-2.0088641E-1,-3.7441075E-2,8.058796E-2,-1.09832086E-1,-2.8264818E-1,4.642437E-3,2.405014E-2,-4.6560887E-2,1.506837E-3,4.379996E-3,-2.9506255E-2,1.1725643E-1,3.0904379E-2,-7.7375835E-3,-1.9171724E-1,-5.747072E-2,-2.898246E-2,3.6513086E-2,7.88542E-2,2.4699837E-1,1.563093E-2,-5.8621843E-3,-4.658298E-2,9.7830825E-2,-1.6830752E-2,-2.562197E-2,6.1349925E-2,3.6620516E-2,-2.7554443E-2,2.0859547E-2,-1.7752783E-2,-1.7727468E-2,1.171841E-2],"categories":[],"categories_nodes":[],"categories_segments":[],"categories_sizes":[],"default_left":[0,0,0,0,0,0,1,1,0,0,0,0,0,0,1,0,0,0,0,0,0,0,0,0,0,1,0,0,1,0,0,0,0,0,0,0,0,0,0,0,0,0,0,0,0,0,0],"id":3,"left_children":[1,3,5,7,9,-1,11,13,15,17,-1,-1,19,-1,21,23,25,27,29,-1,-1,-1,-1,-1,-1,31,33,-1,35,-1,-1,-1,37,39,41,-1,-1,43,-1,-1,-1,45,-1,-1,-1,-1,-1],"loss_changes":[4.6165634E1,2.107347E2,4.1438366E1,2.567596E1,2.8421524E1,0E0,1.08329315E1,2.1027042E1,2.1185402E1,3.5483536E1,0E0,0E0,1.0629559E1,0E0,8.873945E0,1.4295349E1,1.59718895E1,1.1461365E1,8.8611145E0,0E0,0E0,0E0,0E0,0E0,0E0,1.5125305E1,1.214263E1,0E0,8.930111E0,0E0,0E0,0E0,1.2043045E1,1.0673558E1,1.2884497E1,0E0,0E0,1.0931042E1,0E0,0E0,0E0,1.2437678E1,0E0,0E0,0E0,0E0,0E0],"parents":[2147483647,0,0,1,1,2,2,3,3,4,4,6,6,7,7,8,8,9,9,12,12,14,14,15,15,16,16,17,17,18,18,25,25,26,26,28,28,32,32,33,33,34,34,37,37,41,41],"right_children":[2,4,6,8,10,-1,12,14,16,18,-1,-1,20,-1,22,24,26,28,30,-1,-1,-1,-1,-1,-1,32,34,-1,36,-1,-1,-1,38,40,42,-1,-1,44,-1,-1,-1,46,-1,-1,-1,-1,-1],"split_conditions":[1.4094631E-1,1E0,1E0,4.061364E1,-1.3800301E-2,-4.0124834E-2,4.1227356E1,6.373098E0,5.521451E-1,6.657593E1,4.0794406E-3,-8.229388E-3,1.0170846E1,1.3378281E-2,4.6650097E-2,-1.7392643E-1,-2.546927E-1,4.4531938E-1,-1.9538897E-1,4.642437E-3,2.405014E-2,-4.6560887E-2,1.506837E-3,4.379996E-3,-2.9506255E-2,6.281351E0,8.338825E-1,-7.7375835E-3,6.137586E0,-5.747072E-2,-2.898246E-2,3.6513086E-2,6.809627E-1,1.0746037E1,4.1142747E-1,-5.8621843E-3,-4.658298E-2,5.529566E1,-1.6830752E-2,-2.562197E-2,6.1349925E-2,-2.0505674E-3,-2.7554443E-2,2.0859547E-2,-1.7752783E-2,-1.7727468E-2,1.171841E-2],"split_indices":[5,16,16,10,5,0,10,3,11,10,0,0,11,0,2,7,5,1,5,0,0,0,0,0,0,3,6,0,3,0,0,0,7,11,7,0,0,11,0,0,0,2,0,0,0,0,0],"split_type":[0,0,0,0,0,0,0,0,0,0,0,0,0,0,0,0,0,0,0,0,0,0,0,0,0,0,0,0,0,0,0,0,0,0,0,0,0,0,0,0,0,0,0,0,0,0,0],"sum_hessian":[2.3786398E4,1.7573363E4,6.2130337E3,1.1878864E4,5.6944995E3,4.188965E2,5.794137E3,1.1018618E3,1.0777003E4,5.139992E3,5.5450726E2,4.7806177E2,5.316075E3,4.1455865E2,6.873032E2,1.7748855E3,9.002117E3,2.1958228E3,2.9441694E3,1.3347793E3,3.9812961E3,5.489142E2,1.3838902E2,1.1940669E3,5.8081866E2,5.1223833E3,3.8797341E3,1.2509498E3,9.4487305E2,2.2779023E3,6.6626715E2,1.5549716E3,3.5674116E3,2.0871739E2,3.6710166E3,2.9531552E2,6.495575E2,3.2381501E3,3.292614E2,2.9899738E1,1.7881766E2,3.298631E3,3.7238562E2,3.012513E3,2.2563713E2,5.326479E2,2.7659832E3],"tree_param":{"num_deleted":"0","num_feature":"17","num_nodes":"47","size_leaf_vector":"1"}},{"base_weights":[1.0916545E-3,-2.032952E-2,6.204407E-2,-1.4691621E-1,4.0263224E-2,1.4731685E-2,-3.228419E-2,-6.51989E-2,-1.9606781E-1,-4.713954E-2,5.3670045E-2,-1.6624223E-2,1.6836071E-2,-4.3207303E-2,-1.2307972E-2,4.178981E-2,-1.5787672E-2,8.059829E-2,1.5303447E-2,2.2560913E-2,3.8602263E-2,-1.4837735E-2,3.9319236E-2,-2.6732927E-2,1.1710307E-2,5.0230213E-2,2.2826714E-2,7.962086E-3,-2.157807E-2],"categories":[],"categories_nodes":[],"categories_segments":[],"categories_sizes":[],"default_left":[0,0,0,0,0,0,0,0,0,1,0,0,0,0,0,0,0,0,0,0,0,0,0,0,0,0,0,0,0],"id":4,"left_children":[1,3,5,7,9,-1,-1,11,13,15,17,-1,-1,-1,-1,-1,-1,19,21,-1,23,-1,25,-1,-1,-1,27,-1,-1],"loss_changes":[3.1220005E1,1.3552786E2,2.8006588E1,2.186837E1,1.40804825E1,0E0,0E0,9.34625E0,1.7117905E1,1.753875E1,1.0443184E1,0E0,0E0,0E0,0E0,0E0,0E0,1.0347305E1,1.0133426E1,0E0,1.4988099E1,0E0,1.2803004E1,0E0,0E0,0E0,9.844154E0,0E0,0E0],"parents":[2147483647,0,0,1,1,2,2,3,3,4,4,7,7,8,8,9,9,10,10,17,17,18,18,20,20,22,22,26,26],"right_children":[2,4,6,8,10,-1,-1,12,14,16,18,-1,-1,-1,-1,-1,-1,20,22,-1,24,-1,26,-1,-1,-1,28,-1,-1],"split_conditions":[1.4094631E-1,1E0,1E0,7.2145584E1,5.3884243E1,1.4731685E-2,-3.228419E-2,3.890212E1,-1.6594367E-1,9.579708E-1,-2.546927E-1,-1.6624223E-2,1.6836071E-2,-4.3207303E-2,-1.2307972E-2,4.178981E-2,-1.5787672E-2,-1.3616495E-1,9.148685E0,2.2560913E-2,-4.4273376E-1,-1.4837735E-2,8.338825E-1,-2.6732927E-2,1.1710307E-2,5.0230213E-2,4.1142747E-1,7.962086E-3,-2.157807E-2],"split_indices":[5,15,15,12,12,0,0,11,5,4,5,0,0,0,0,0,0,7,11,0,11,0,6,0,0,0,7,0,0],"split_type":[0,0,0,0,0,0,0,0,0,0,0,0,0,0,0,0,0,0,0,0,0,0,0,0,0,0,0,0,0],"sum_hessian":[2.3760668E4,1.75702E4,6.1904697E3,5.6838267E3,1.1886372E4,5.7745366E3,4.1593295E2,2.1855361E3,3.4982908E3,1.5442378E3,1.0342134E4,1.9039514E3,2.8158472E2,2.621913E3,8.763776E2,1.6271458E2,1.3815232E3,6.0157197E3,4.3264146E3,2.9097356E3,3.1059841E3,8.239675E2,3.502447E3,3.439106E2,2.7620735E3,1.8159483E2,3.3208523E3,2.9315857E3,3.8926666E2],"tree_param":{"num_deleted":"0","num_feature":"17","num_nodes":"29","size_leaf_vector":"1"}},{"base_weights":[9.019299E-6,-2.8822852E-2,2.706565E-2,-1.3504122E-1,5.813739E-2,3.559193E-2,-3.0902497E-2,-9.9206895E-2,-4.5538984E-2,-2.464169E-2,7.9531856E-2,-1.991051E-2,5.627683E-2,-1.7381202E-1,-6.3846715E-2,7.995425E-3,-2.6598766E-2,2.1484187E-2,5.157345E-3,-0E0,-4.4197902E-2,2.1883821E-2,3.9294668E-2,1.8296399E-3,-3.808009E-2,1.3004385E-2,-9.1937765E-2,1.914573E-2,-6.215566E-3,-2.863734E-2,1.0655619E-2,-1.482489E-1,-0E0,2.2888392E-2,-8.111149E-2,-1.0305727E-2,-2.5683188E-1,-5.192973E-3,-4.2987246E-2,2.0229495E-3,-5.8879416E-2],"categories":[],"categories_nodes":[],"categories_segments":[],"categories_sizes":[],"default_left":[0,0,0,0,1,0,0,0,0,0,0,0,0,1,0,0,0,0,0,1,0,0,0,0,0,0,0,0,0,0,0,0,0,0,0,0,0,0,0,0,0],"id":5,"left_children":[1,3,5,7,9,11,-1,13,-1,15,17,19,21,23,25,-1,-1,-1,-1,27,-1,-1,29,-1,-1,-1,31,-1,-1,33,-1,35,-1,-1,37,-1,39,-1,-1,-1,-1],"loss_changes":[1.8530863E1,1.06320984E2,2.0483994E1,1.9473274E1,1.1387955E1,1.3713322E1,0E0,9.623886E0,0E0,1.1260653E1,9.3947315E0,1.4063478E1,8.78793E0,8.544163E0,1.0951936E1,0E0,0E0,0E0,0E0,1.0740051E1,0E0,0E0,9.094714E0,0E0,0E0,0E0,1.2090574E1,0E0,0E0,1.2490177E1,0E0,1.3222187E1,0E0,0E0,8.557608E0,0E0,1.2228706E1,0E0,0E0,0E0,0E0],"parents":[2147483647,0,0,1,1,2,2,3,3,4,4,5,5,7,7,9,9,10,10,11,11,12,12,13,13,14,14,19,19,22,22,26,26,29,29,31,31,34,34,36,36],"right_children":[2,4,6,8,10,12,-1,14,-1,16,18,20,22,24,26,-1,-1,-1,-1,28,-1,-1,30,-1,-1,-1,32,-1,-1,34,-1,36,-1,-1,38,-1,40,-1,-1,-1,-1],"split_conditions":[1E0,1E0,1E0,8.633236E1,5.44912E1,5.994355E1,-3.0902497E-2,8.39E1,-4.5538984E-2,-3.371425E-1,8.53E1,8.95E1,-6.467949E-1,9.6169055E-1,-8.60599E-1,7.995425E-3,-2.6598766E-2,2.1484187E-2,5.157345E-3,9.8928756E-1,-4.4197902E-2,2.1883821E-2,9.401146E0,1.8296399E-3,-3.808009E-2,1.3004385E-2,2.7535728E1,1.914573E-2,-6.215566E-3,8.023738E-1,1.0655619E-2,1.2E2,-0E0,2.2888392E-2,6.2812515E-2,-1.0305727E-2,4.522356E1,-5.192973E-3,-4.2987246E-2,2.0229495E-3,-5.8879416E-2],"split_indices":[15,13,13,10,10,10,0,0,0,7,0,0,7,4,7,0,0,0,0,4,0,0,11,0,0,0,11,0,0,6,0,9,0,0,7,0,10,0,0,0,0],"split_type":[0,0,0,0,0,0,0,0,0,0,0,0,0,0,0,0,0,0,0,0,0,0,0,0,0,0,0,0,0,0,0,0,0,0,0,0,0,0,0,0,0],"sum_hessian":[2.3686621E4,1.142223E4,1.2264391E4,5.145266E3,6.276964E3,1.1794662E4,4.697283E2,3.9862068E3,1.1590596E3,1.2645151E3,5.0124487E3,3.170554E3,8.624108E3,1.2132644E3,2.7729424E3,8.098861E2,4.54629E2,2.8204583E3,2.1919905E3,2.945596E3,2.2495793E2,1.7408242E3,6.883284E3,1.8579347E2,1.027471E3,4.5272244E2,2.3202197E3,6.9951685E2,2.246079E3,1.4760741E3,5.4072104E3,1.4198418E3,9.00378E2,3.5034045E2,1.1257336E3,8.118282E2,6.080137E2,8.835422E2,2.4219148E2,1.1831639E2,4.8969727E2],"tree_param":{"num_deleted":"0","num_feature":"17","num_nodes":"41","size_leaf_vector":"1"}},{"base_weights":[-6.688347E-4,-1.5718684E-2,1.2856824E-2,2.7490089E-2,-2.9158099E-2,-5.4612304E-3,3.837061E-2,-2.5784673E-2,-8.918082E-3,8.322974E-3,-1.2159171E-2,-6.502309E-2,5.4362784E-3,-1.1301052E-1,1.3585353E-1,-1.3088317E-1,3.8581498E-2,-2.1828102E-2,4.2378616E-2,6.6500745E-4,-3.3157192E-2],"categories":[],"categories_nodes":[],"categories_segments":[],"categories_sizes":[],"default_left":[1,0,0,0,0,0,0,0,0,0,0,0,0,0,1,0,0,0,0,0,0],"id":6,"left_children":[1,-1,3,5,7,-1,9,-1,11,-1,-1,13,-1,15,17,19,-1,-1,-1,-1,-1],"loss_changes":[2.760065E1,0E0,1.2609279E1,9.582331E0,1.152052E1,0E0,9.797289E0,0E0,9.95721E0,0E0,0E0,1.8630589E1,0E0,9.789228E0,1.0374161E1,1.0665808E1,0E0,0E0,0E0,0E0,0E0],"parents":[2147483647,0,0,2,2,3,3,4,4,6,6,8,8,11,11,13,13,14,14,15,15],"right_children":[2,-1,4,6,8,-1,10,-1,12,-1,-1,14,-1,16,18,20,-1,-1,-1,-1,-1],"split_conditions":[1.294E3,-1.5718684E-2,1.4228837E-1,-9.992168E-1,1.539E3,-5.4612304E-3,6.055617E1,-2.5784673E-2,1E0,8.322974E-3,-1.2159171E-2,3.8003838E-1,5.4362784E-3,2.29E3,-9.582962E-4,1.13E2,3.8581498E-2,-2.1828102E-2,4.2378616E-2,6.6500745E-4,-3.3157192E-2],"split_indices":[8,0,7,11,8,0,11,0,15,0,0,5,0,8,2,9,0,0,0,0,0],"split_type":[0,0,0,0,0,0,0,0,0,0,0,0,0,0,0,0,0,0,0,0,0],"sum_hessian":[2.3663588E4,3.2326433E3,2.0430943E4,1.5205828E4,5.225116E3,2.3770544E3,1.2828773E4,7.473066E2,4.4778096E3,1.2045376E4,7.8339777E2,1.8431575E3,2.634652E3,1.5105546E3,3.3260287E2,1.459587E3,5.0967564E1,8.16394E1,2.5096349E2,3.956923E2,1.0638948E3],"tree_param":{"num_deleted":"0","num_feature":"17","num_nodes":"21","size_leaf_vector":"1"}},{"base_weights":[1.7022802E-3,1.5095907E-2,-6.3230507E-3,-1.5300077E-2,3.9413422E-3,-8.434923E-3,5.137081E-2,-7.207728E-2,2.8169805E-2,6.5149456E-2,-2.2423802E-2,-1.2808734E-1,2.4106726E-3,6.012218E-2,-1.9370565E-2,1.2979786E-2,1.155653E-1,-2.770501E-3,-2.998926E-2,2.225711E-2,2.4559481E-2,-1.8301664E-2,3.30246E-3,-1.521417E-2,1.2191327E-2,-1.2732281E-2,2.5680602E-2,3.3887085E-2,-5.0294593E-2,-2.7649896E-2,8.688228E-3],"categories":[],"categories_nodes":[],"categories_segments":[],"categories_sizes":[],"default_left":[0,0,0,0,0,0,0,0,0,0,0,0,0,1,0,0,1,0,0,0,1,0,0,0,0,0,0,0,0,0,0],"id":7,"left_children":[1,-1,3,-1,5,7,9,11,13,15,-1,17,-1,19,21,23,25,-1,-1,-1,27,-1,-1,-1,-1,-1,-1,29,-1,-1,-1],"loss_changes":[1.562572E1,0E0,1.7380016E1,0E0,1.1319027E1,3.54054E1,9.73824E0,2.6879606E1,1.4726595E1,9.462567E0,0E0,1.3242271E1,0E0,1.2232355E1,1.1946849E1,1.0017773E1,9.234497E0,0E0,0E0,0E0,1.0219378E1,0E0,0E0,0E0,0E0,0E0,0E0,9.320103E0,0E0,0E0,0E0],"parents":[2147483647,0,0,2,2,4,4,5,5,6,6,7,7,8,8,9,9,11,11,13,13,14,14,15,15,16,16,20,20,27,27],"right_children":[2,-1,4,-1,6,8,10,12,14,16,-1,18,-1,20,22,24,26,-1,-1,-1,28,-1,-1,-1,-1,-1,-1,30,-1,-1,-1],"split_conditions":[8.181455E-1,1.5095907E-2,-2.1237638E0,-1.5300077E-2,2.1457803E-1,1E0,1E0,-1.6777436E-1,-2.3802578E-1,4.4531938E-1,-2.2423802E-2,5.6130783E1,2.4106726E-3,6.322644E0,6.048135E1,7.837258E1,3.626625E1,-2.770501E-3,-2.998926E-2,2.225711E-2,2.275E3,-1.8301664E-2,3.30246E-3,-1.521417E-2,1.2191327E-2,-1.2732281E-2,2.5680602E-2,3.7834835E1,-5.0294593E-2,-2.7649896E-2,8.688228E-3],"split_indices":[6,0,11,0,5,15,15,5,5,1,0,10,0,3,10,12,10,0,0,0,8,0,0,0,0,0,0,10,0,0,0],"split_type":[0,0,0,0,0,0,0,0,0,0,0,0,0,0,0,0,0,0,0,0,0,0,0,0,0,0,0,0,0,0,0],"sum_hessian":[2.36927E4,2.1331182E3,2.1559582E4,2.5194136E3,1.9040168E4,1.5083092E4,3.957076E3,5.5188804E3,9.564212E3,3.701326E3,2.5575017E2,3.337236E3,2.181644E3,5.7447666E3,3.819445E3,1.8655748E3,1.835751E3,8.383835E2,2.4988528E3,2.0412513E3,3.7035151E3,1.2103068E3,2.6091384E3,6.4504254E2,1.2205323E3,1.9939482E2,1.6363561E3,3.6313792E3,7.213589E1,2.1215332E2,3.4192258E3],"tree_param":{"num_deleted":"0","num_feature":"17","num_nodes":"31","size_leaf_vector":"1"}},{"base_weights":[-1.4497676E-3,-2.1549856E-2,3.4265001E-3,9.251461E-2,-4.1365116E-3,2.7403122E-2,-3.3348925E-2,2.7658721E-2,-3.675605E-2,-2.41835E-2,2.4397882E-2,3.4853373E-2,-2.2477144E-2,-1.5754645E-1,-1.3267432E-2,-1.2982781E-2,4.4537716E-2,-1.1074851E-1,-3.249935E-1,-2.9963925E-2,-1.0254157E-3,7.04881E-2,2.4015396E-3,1.2260716E-2,-2.7661992E-2,-7.227706E-2,4.892505E-4,-0E0,1.686472E-2,1.3039741E-2,-7.3092263E-3],"categories":[],"categories_nodes":[],"categories_segments":[],"categories_sizes":[],"default_left":[0,0,0,0,0,0,0,1,0,0,0,0,0,0,1,0,0,0,1,0,0,0,1,0,0,0,0,0,0,0,0],"id":8,"left_children":[1,-1,3,5,7,-1,9,11,13,-1,-1,15,-1,17,19,-1,21,23,25,-1,-1,27,29,-1,-1,-1,-1,-1,-1,-1,-1],"loss_changes":[1.3759074E1,0E0,1.5559401E1,1.356176E1,2.1820032E1,0E0,1.0308283E1,1.14477625E1,2.9040958E1,0E0,0E0,1.0485688E1,0E0,1.073246E1,9.675674E0,0E0,1.005134E1,1.0552757E1,8.783085E0,0E0,0E0,9.074066E0,1.0845694E1,0E0,0E0,0E0,0E0,0E0,0E0,0E0,0E0],"parents":[2147483647,0,0,2,2,3,3,4,4,6,6,7,7,8,8,11,11,13,13,14,14,16,16,17,17,18,18,21,21,22,22],"right_children":[2,-1,4,6,8,-1,10,12,14,-1,-1,16,-1,18,20,-1,22,24,26,-1,-1,28,30,-1,-1,-1,-1,-1,-1,-1,-1],"split_conditions":[-1.8242983E1,-2.1549856E-2,8.181455E-1,6.412816E-1,-3.4359708E-1,2.7403122E-2,2.5832596E1,7.206766E0,1.2642491E1,-2.41835E-2,2.4397882E-2,-4.701287E-3,-2.2477144E-2,1.5673393E-1,3.3472897E1,-1.2982781E-2,9.6298724E-1,8.410902E-1,4.7477424E-2,-2.9963925E-2,-1.0254157E-3,1.09E2,6.137586E0,1.2260716E-2,-2.7661992E-2,-7.227706E-2,4.892505E-4,-0E0,1.686472E-2,1.3039741E-2,-7.3092263E-3],"split_indices":[11,0,6,7,7,0,11,3,11,0,0,2,0,7,10,0,6,6,2,0,0,9,3,0,0,0,0,0,0,0,0],"split_type":[0,0,0,0,0,0,0,0,0,0,0,0,0,0,0,0,0,0,0,0,0,0,0,0,0,0,0,0,0,0,0],"sum_hessian":[2.3650123E4,9.3545703E2,2.2714666E4,1.7703951E3,2.0944271E4,1.2232982E3,5.470969E2,1.0571039E4,1.0373232E4,3.5728888E2,1.8980804E2,1.0131988E4,4.3905063E2,1.6376497E3,8.735583E3,8.0785297E2,9.324136E3,1.339099E3,2.9855066E2,3.7003394E2,8.365549E3,5.7191426E3,3.6049927E3,2.3392467E2,1.1051744E3,2.4532512E2,5.3225533E1,1.3396527E3,4.3794897E3,1.3849424E3,2.2200503E3],"tree_param":{"num_deleted":"0","num_feature":"17","num_nodes":"31","size_leaf_vector":"1"}},{"base_weights":[-1.620373E-3,-1.2710882E-2,3.854874E-2,-7.025521E-2,1.9537477E-2,9.317648E-3,-2.1256106E-2,-9.929485E-2,-0E0,1.1356139E-2,1.1171341E-3,-3.413006E-2,-1.3440755E-1,-5.8491446E-2,1.8967623E-2,-2.0967847E-2,5.3995615E-3,-2.8529745E-2,1.7683505E-3,3.8501482E-2,-1.5119911E-2,6.71455E-2,-2.1398491E-3,3.3481922E-2,3.932919E-3],"categories":[],"categories_nodes":[],"categories_segments":[],"categories_sizes":[],"default_left":[0,0,0,0,0,0,0,0,0,0,0,1,1,0,0,0,0,0,0,0,0,0,0,0,0],"id":9,"left_children":[1,3,5,7,9,-1,-1,11,-1,-1,13,15,17,19,21,-1,-1,-1,-1,-1,-1,23,-1,-1,-1],"loss_changes":[1.0499936E1,3.4735924E1,9.88802E0,1.3718746E1,9.221973E0,0E0,0E0,1.0305271E1,0E0,0E0,8.897456E0,9.275912E0,1.0025841E1,1.2880255E1,9.825241E0,0E0,0E0,0E0,0E0,0E0,0E0,1.3024251E1,0E0,0E0,0E0],"parents":[2147483647,0,0,1,1,2,2,3,3,4,4,7,7,10,10,11,11,12,12,13,13,14,14,21,21],"right_children":[2,4,6,8,10,-1,-1,12,-1,-1,14,16,18,20,22,-1,-1,-1,-1,-1,-1,24,-1,-1,-1],"split_conditions":[2.1457803E-1,1E0,1E0,-1.3161302E-1,-5.880536E-1,9.317648E-3,-2.1256106E-2,6.980144E1,-0E0,1.1356139E-2,9.401146E0,1.382E3,2.163E3,-4.351842E-1,4.271919E-1,-2.0967847E-2,5.3995615E-3,-2.8529745E-2,1.7683505E-3,3.8501482E-2,-1.5119911E-2,8.89E1,-2.1398491E-3,3.3481922E-2,3.932919E-3],"split_indices":[5,15,15,5,7,0,0,12,0,0,11,8,8,5,1,0,0,0,0,0,0,0,0,0,0],"split_type":[0,0,0,0,0,0,0,0,0,0,0,0,0,0,0,0,0,0,0,0,0,0,0,0,0],"sum_hessian":[2.3633602E4,1.8587623E4,5.045978E3,6.687252E3,1.1900372E4,4.7073076E3,3.3867047E2,4.720799E3,1.9664529E3,3.522785E3,8.377587E3,1.7027804E3,3.0180183E3,1.8797726E3,6.4978145E3,7.5505786E2,9.477226E2,2.6328687E3,3.8514972E2,1.23949745E2,1.7558229E3,2.5423206E3,3.955494E3,6.7007733E2,1.8722434E3],"tree_param":{"num_deleted":"0","num_feature":"17","num_nodes":"25","size_leaf_vector":"1"}},{"base_weights":[-1.1693824E-3,-1.38453785E-2,5.875926E-3,1.9562667E-2,-3.4901965E-2,7.5585647E-3,-1.0611025E-2,-1.4910704E-1,-1.697219E-2,-3.983256E-2,6.515734E-3,-4.362128E-3,-5.3887427E-2,9.334002E-2,-5.3500496E-2,-4.4229254E-3,-4.19392E-2,3.7494843E-5,3.4797743E-2,-3.6690097E-2,-3.833301E-2,-2.889251E-2,-2.4793518E-3],"categories":[],"categories_nodes":[],"categories_segments":[],"categories_sizes":[],"default_left":[1,0,0,0,0,0,0,0,0,0,0,0,0,0,0,0,0,0,0,0,0,0,0],"id":10,"left_children":[1,-1,3,5,7,-1,9,11,13,15,-1,-1,-1,17,19,-1,-1,-1,-1,21,-1,-1,-1],"loss_changes":[1.2642013E1,0E0,1.2066202E1,1.0810458E1,1.0572414E1,0E0,9.279284E0,1.1950216E1,1.9158573E1,1.1700485E1,0E0,0E0,0E0,1.0165278E1,8.569661E0,0E0,0E0,0E0,0E0,8.786381E0,0E0,0E0,0E0],"parents":[2147483647,0,0,2,2,3,3,4,4,6,6,7,7,8,8,9,9,13,13,14,14,19,19],"right_children":[2,-1,4,6,8,-1,10,12,14,16,-1,-1,-1,18,20,-1,-1,-1,-1,22,-1,-1,-1],"split_conditions":[1.146E3,-1.38453785E-2,1.4228837E-1,1.79E3,5.5884233E0,7.5585647E-3,1.25E2,7.90961E-1,8.3062726E-1,5.0498043E1,6.515734E-3,-4.362128E-3,-5.3887427E-2,-2.4858445E-1,4.4751453E-1,-4.4229254E-3,-4.19392E-2,3.7494843E-5,3.4797743E-2,2.1921457E1,-3.833301E-2,-2.889251E-2,-2.4793518E-3],"split_indices":[8,0,7,8,11,0,9,6,6,11,0,0,0,5,1,0,0,0,0,11,0,0,0],"split_type":[0,0,0,0,0,0,0,0,0,0,0,0,0,0,0,0,0,0,0,0,0,0,0],"sum_hessian":[2.3642625E4,2.0377249E3,2.16049E4,1.6234873E4,5.3700273E3,9.458494E3,6.7763794E3,6.736673E2,4.69636E3,4.189723E3,2.5866562E3,3.9470462E2,2.789627E2,1.1374023E3,3.5589575E3,3.9216165E3,2.681068E2,6.126027E2,5.2479956E2,3.268724E3,2.902334E2,4.7100797E2,2.7977163E3],"tree_param":{"num_deleted":"0","num_feature":"17","num_nodes":"23","size_leaf_vector":"1"}},{"base_weights":[-1.2945076E-3,-9.690582E-3,1.2517856E-3],"categories":[],"categories_nodes":[],"categories_segments":[],"categories_sizes":[],"default_left":[1,0,0],"id":11,"left_children":[1,-1,-1],"loss_changes":[1.0112169E1,0E0,0E0],"parents":[2147483647,0,0],"right_children":[2,-1,-1],"split_conditions":[1.294E3,-9.690582E-3,1.2517856E-3],"split_indices":[8,0,0],"split_type":[0,0,0],"sum_hessian":[2.362768E4,3.2265679E3,2.0401111E4],"tree_param":{"num_deleted":"0","num_feature":"17","num_nodes":"3","size_leaf_vector":"1"}},{"base_weights":[5.406997E-4,-1.6583627E-2,4.5707994E-3,1.0768564E-2,-3.4171192E-3,4.4578534E-2,-1.711805E-2,-0E0,1.70786E-2,-6.263895E-2,1.4655864E-3,2.1713205E-2,-1.0809064E-2,-2.6216572E-2,-2.893886E-2,-0E0,-3.262592E-2,4.260088E-2,-1.7563812E-2,2.9831061E-2,-1.7727569E-2,-1.1806789E-2,1.3432185E-2],"categories":[],"categories_nodes":[],"categories_segments":[],"categories_sizes":[],"default_left":[0,0,0,0,0,0,0,1,0,0,0,0,0,0,0,1,0,0,0,0,0,0,0],"id":12,"left_children":[1,-1,3,-1,5,7,9,11,-1,13,-1,-1,-1,15,-1,17,-1,-1,19,21,-1,-1,-1],"loss_changes":[8.524574E0,0E0,1.0026801E1,0E0,1.2998959E1,9.653077E0,1.7882076E1,1.6474209E1,0E0,1.8772547E1,0E0,0E0,0E0,1.5934077E1,0E0,1.4160065E1,0E0,0E0,1.2821165E1,8.854916E0,0E0,0E0,0E0],"parents":[2147483647,0,0,2,2,4,4,5,5,6,6,7,7,9,9,13,13,15,15,18,18,19,19],"right_children":[2,-1,4,-1,6,8,10,12,-1,14,-1,-1,-1,16,-1,18,-1,-1,20,22,-1,-1,-1],"split_conditions":[-1.8242983E1,-1.6583627E-2,8.410902E-1,1.0768564E-2,-8.7041765E-1,8.34E1,2.1921457E1,6.1200094E0,1.70786E-2,-1.4248222E-1,1.4655864E-3,2.1713205E-2,-1.0809064E-2,9.4847804E-1,-2.893886E-2,5.7966423E0,-3.262592E-2,4.260088E-2,-2.0400392E-1,1E0,-1.7727569E-2,-1.1806789E-2,1.3432185E-2],"split_indices":[11,0,6,0,7,0,11,3,0,7,0,0,0,6,0,3,0,0,5,15,0,0,0],"split_type":[0,0,0,0,0,0,0,0,0,0,0,0,0,0,0,0,0,0,0,0,0,0,0],"sum_hessian":[2.364644E4,9.399291E2,2.2706512E4,2.9161956E3,1.9790316E4,4.336808E3,1.5453508E4,2.276644E3,2.0601638E3,5.513796E3,9.939712E3,7.3780316E2,1.538841E3,4.0478962E3,1.4658997E3,3.497639E3,5.5025726E2,2.0449283E2,3.2931462E3,2.058524E3,1.2346222E3,6.280281E2,1.4304958E3],"tree_param":{"num_deleted":"0","num_feature":"17","num_nodes":"23","size_leaf_vector":"1"}},{"base_weights":[-3.696558E-4],"categories":[],"categories_nodes":[],"categories_segments":[],"categories_sizes":[],"default_left":[0],"id":13,"left_children":[-1],"loss_changes":[0E0],"parents":[2147483647],"right_children":[-1],"split_conditions":[-6.749795E-5],"split_indices":[0],"split_type":[0],"sum_hessian":[2.3608686E4],"tree_param":{"num_deleted":"0","num_feature":"17","num_nodes":"1","size_leaf_vector":"1"}},{"base_weights":[-1.2126685E-3],"categories":[],"categories_nodes":[],"categories_segments":[],"categories_sizes":[],"default_left":[0],"id":14,"left_children":[-1],"loss_changes":[0E0],"parents":[2147483647],"right_children":[-1],"split_conditions":[-2.2142933E-4],"split_indices":[0],"split_type":[0],"sum_hessian":[2.360307E4],"tree_param":{"num_deleted":"0","num_feature":"17","num_nodes":"1","size_leaf_vector":"1"}},{"base_weights":[-4.8264087E-4],"categories":[],"categories_nodes":[],"categories_segments":[],"categories_sizes":[],"default_left":[0],"id":15,"left_children":[-1],"loss_changes":[0E0],"parents":[2147483647],"right_children":[-1],"split_conditions":[-8.812866E-5],"split_indices":[0],"split_type":[0],"sum_hessian":[2.3628322E4],"tree_param":{"num_deleted":"0","num_feature":"17","num_nodes":"1","size_leaf_vector":"1"}},{"base_weights":[1.2117286E-4],"categories":[],"categories_nodes":[],"categories_segments":[],"categories_sizes":[],"default_left":[0],"id":16,"left_children":[-1],"loss_changes":[0E0],"parents":[2147483647],"right_children":[-1],"split_conditions":[2.212577E-5],"split_indices":[0],"split_type":[0],"sum_hessian":[2.3597328E4],"tree_param":{"num_deleted":"0","num_feature":"17","num_nodes":"1","size_leaf_vector":"1"}},{"base_weights":[-2.0422095E-3],"categories":[],"categories_nodes":[],"categories_segments":[],"categories_sizes":[],"default_left":[0],"id":17,"left_children":[-1],"loss_changes":[0E0],"parents":[2147483647],"right_children":[-1],"split_conditions":[-3.7290083E-4],"split_indices":[0],"split_type":[0],"sum_hessian":[2.3624291E4],"tree_param":{"num_deleted":"0","num_feature":"17","num_nodes":"1","size_leaf_vector":"1"}},{"base_weights":[6.852024E-4],"categories":[],"categories_nodes":[],"categories_segments":[],"categories_sizes":[],"default_left":[0],"id":18,"left_children":[-1],"loss_changes":[0E0],"parents":[2147483647],"right_children":[-1],"split_conditions":[1.2511574E-4],"split_indices":[0],"split_type":[0],"sum_hessian":[2.3604404E4],"tree_param":{"num_deleted":"0","num_feature":"17","num_nodes":"1","size_leaf_vector":"1"}},{"base_weights":[-6.7852956E-4,-1.0774592E-2,9.795675E-4],"categories":[],"categories_nodes":[],"categories_segments":[],"categories_sizes":[],"default_left":[0,0,0],"id":19,"left_children":[1,-1,-1],"loss_changes":[8.475078E0,0E0,0E0],"parents":[2147483647,0,0],"right_children":[2,-1,-1],"split_conditions":[-4.0787556E-3,-1.0774592E-2,9.795675E-4],"split_indices":[2,0,0],"split_type":[0,0,0],"sum_hessian":[2.3601547E4,2.2233848E3,2.1378162E4],"tree_param":{"num_deleted":"0","num_feature":"17","num_nodes":"3","size_leaf_vector":"1"}},{"base_weights":[-6.914647E-4],"categories":[],"categories_nodes":[],"categories_segments":[],"categories_sizes":[],"default_left":[0],"id":20,"left_children":[-1],"loss_changes":[0E0],"parents":[2147483647],"right_children":[-1],"split_conditions":[-1.2625921E-4],"split_indices":[0],"split_type":[0],"sum_hessian":[2.3612432E4],"tree_param":{"num_deleted":"0","num_feature":"17","num_nodes":"1","size_leaf_vector":"1"}},{"base_weights":[5.0484284E-4],"categories":[],"categories_nodes":[],"categories_segments":[],"categories_sizes":[],"default_left":[0],"id":21,"left_children":[-1],"loss_changes":[0E0],"parents":[2147483647],"right_children":[-1],"split_conditions":[9.2182665E-5],"split_indices":[0],"split_type":[0],"sum_hessian":[2.3603855E4],"tree_param":{"num_deleted":"0","num_feature":"17","num_nodes":"1","size_leaf_vector":"1"}},{"base_weights":[-0E0],"categories":[],"categories_nodes":[],"categories_segments":[],"categories_sizes":[],"default_left":[0],"id":22,"left_children":[-1],"loss_changes":[0E0],"parents":[2147483647],"right_children":[-1],"split_conditions":[-0E0],"split_indices":[0],"split_type":[0],"sum_hessian":[2.3618365E4],"tree_param":{"num_deleted":"0","num_feature":"17","num_nodes":"1","size_leaf_vector":"1"}},{"base_weights":[1.3197093E-4],"categories":[],"categories_nodes":[],"categories_segments":[],"categories_sizes":[],"default_left":[0],"id":23,"left_children":[-1],"loss_changes":[0E0],"parents":[2147483647],"right_children":[-1],"split_conditions":[2.4097464E-5],"split_indices":[0],"split_type":[0],"sum_hessian":[2.36109E4],"tree_param":{"num_deleted":"0","num_feature":"17","num_nodes":"1","size_leaf_vector":"1"}},{"base_weights":[-4.28625E-4],"categories":[],"categories_nodes":[],"categories_segments":[],"categories_sizes":[],"default_left":[0],"id":24,"left_children":[-1],"loss_changes":[0E0],"parents":[2147483647],"right_children":[-1],"split_conditions":[-7.826553E-5],"split_indices":[0],"split_type":[0],"sum_hessian":[2.3614184E4],"tree_param":{"num_deleted":"0","num_feature":"17","num_nodes":"1","size_leaf_vector":"1"}},{"base_weights":[1.9141575E-3],"categories":[],"categories_nodes":[],"categories_segments":[],"categories_sizes":[],"default_left":[0],"id":25,"left_children":[-1],"loss_changes":[0E0],"parents":[2147483647],"right_children":[-1],"split_conditions":[3.4951896E-4],"split_indices":[0],"split_type":[0],"sum_hessian":[2.3618732E4],"tree_param":{"num_deleted":"0","num_feature":"17","num_nodes":"1","size_leaf_vector":"1"}},{"base_weights":[-4.9203023E-4],"categories":[],"categories_nodes":[],"categories_segments":[],"categories_sizes":[],"default_left":[0],"id":26,"left_children":[-1],"loss_changes":[0E0],"parents":[2147483647],"right_children":[-1],"split_conditions":[-8.9843124E-5],"split_indices":[0],"split_type":[0],"sum_hessian":[2.3603898E4],"tree_param":{"num_deleted":"0","num_feature":"17","num_nodes":"1","size_leaf_vector":"1"}},{"base_weights":[-5.2754657E-4],"categories":[],"categories_nodes":[],"categories_segments":[],"categories_sizes":[],"default_left":[0],"id":27,"left_children":[-1],"loss_changes":[0E0],"parents":[2147483647],"right_children":[-1],"split_conditions":[-9.6328295E-5],"split_indices":[0],"split_type":[0],"sum_hessian":[2.361502E4],"tree_param":{"num_deleted":"0","num_feature":"17","num_nodes":"1","size_leaf_vector":"1"}},{"base_weights":[9.607798E-4],"categories":[],"categories_nodes":[],"categories_segments":[],"categories_sizes":[],"default_left":[0],"id":28,"left_children":[-1],"loss_changes":[0E0],"parents":[2147483647],"right_children":[-1],"split_conditions":[1.7543527E-4],"split_indices":[0],"split_type":[0],"sum_hessian":[2.358656E4],"tree_param":{"num_deleted":"0","num_feature":"17","num_nodes":"1","size_leaf_vector":"1"}},{"base_weights":[-2.1785165E-3],"categories":[],"categories_nodes":[],"categories_segments":[],"categories_sizes":[],"default_left":[0],"id":29,"left_children":[-1],"loss_changes":[0E0],"parents":[2147483647],"right_children":[-1],"split_conditions":[-3.9779005E-4],"split_indices":[0],"split_type":[0],"sum_hessian":[2.3617432E4],"tree_param":{"num_deleted":"0","num_feature":"17","num_nodes":"1","size_leaf_vector":"1"}},{"base_weights":[2.2838273E-4],"categories":[],"categories_nodes":[],"categories_segments":[],"categories_sizes":[],"default_left":[0],"id":30,"left_children":[-1],"loss_changes":[0E0],"parents":[2147483647],"right_children":[-1],"split_conditions":[4.1701947E-5],"split_indices":[0],"split_type":[0],"sum_hessian":[2.3619963E4],"tree_param":{"num_deleted":"0","num_feature":"17","num_nodes":"1","size_leaf_vector":"1"}},{"base_weights":[5.270074E-4],"categories":[],"categories_nodes":[],"categories_segments":[],"categories_sizes":[],"default_left":[0],"id":31,"left_children":[-1],"loss_changes":[0E0],"parents":[2147483647],"right_children":[-1],"split_conditions":[9.622984E-5],"split_indices":[0],"split_type":[0],"sum_hessian":[2.3606588E4],"tree_param":{"num_deleted":"0","num_feature":"17","num_nodes":"1","size_leaf_vector":"1"}},{"base_weights":[1.9923007E-4],"categories":[],"categories_nodes":[],"categories_segments":[],"categories_sizes":[],"default_left":[0],"id":32,"left_children":[-1],"loss_changes":[0E0],"parents":[2147483647],"right_children":[-1],"split_conditions":[3.6378766E-5],"split_indices":[0],"split_type":[0],"sum_hessian":[2.3615709E4],"tree_param":{"num_deleted":"0","num_feature":"17","num_nodes":"1","size_leaf_vector":"1"}},{"base_weights":[1.8183636E-3],"categories":[],"categories_nodes":[],"categories_segments":[],"categories_sizes":[],"default_left":[0],"id":33,"left_children":[-1],"loss_changes":[0E0],"parents":[2147483647],"right_children":[-1],"split_conditions":[3.320273E-4],"split_indices":[0],"split_type":[0],"sum_hessian":[2.3630182E4],"tree_param":{"num_deleted":"0","num_feature":"17","num_nodes":"1","size_leaf_vector":"1"}},{"base_weights":[-2.1681137E-4],"categories":[],"categories_nodes":[],"categories_segments":[],"categories_sizes":[],"default_left":[0],"id":34,"left_children":[-1],"loss_changes":[0E0],"parents":[2147483647],"right_children":[-1],"split_conditions":[-3.9589053E-5],"split_indices":[0],"split_type":[0],"sum_hessian":[2.360613E4],"tree_param":{"num_deleted":"0","num_feature":"17","num_nodes":"1","size_leaf_vector":"1"}},{"base_weights":[1.6965075E-4],"categories":[],"categories_nodes":[],"categories_segments":[],"categories_sizes":[],"default_left":[0],"id":35,"left_children":[-1],"loss_changes":[0E0],"parents":[2147483647],"right_children":[-1],"split_conditions":[3.0977677E-5],"split_indices":[0],"split_type":[0],"sum_hessian":[2.3587984E4],"tree_param":{"num_deleted":"0","num_feature":"17","num_nodes":"1","size_leaf_vector":"1"}},{"base_weights":[-2.2796167E-3],"categories":[],"categories_nodes":[],"categories_segments":[],"categories_sizes":[],"default_left":[0],"id":36,"left_children":[-1],"loss_changes":[0E0],"parents":[2147483647],"right_children":[-1],"split_conditions":[-4.162506E-4],"split_indices":[0],"split_type":[0],"sum_hessian":[2.3611402E4],"tree_param":{"num_deleted":"0","num_feature":"17","num_nodes":"1","size_leaf_vector":"1"}},{"base_weights":[7.275879E-5],"categories":[],"categories_nodes":[],"categories_segments":[],"categories_sizes":[],"default_left":[0],"id":37,"left_children":[-1],"loss_changes":[0E0],"parents":[2147483647],"right_children":[-1],"split_conditions":[1.3285519E-5],"split_indices":[0],"split_type":[0],"sum_hessian":[2.3592076E4],"tree_param":{"num_deleted":"0","num_feature":"17","num_nodes":"1","size_leaf_vector":"1"}},{"base_weights":[-2.2107422E-4],"categories":[],"categories_nodes":[],"categories_segments":[],"categories_sizes":[],"default_left":[0],"id":38,"left_children":[-1],"loss_changes":[0E0],"parents":[2147483647],"right_children":[-1],"split_conditions":[-4.0367435E-5],"split_indices":[0],"split_type":[0],"sum_hessian":[2.3615543E4],"tree_param":{"num_deleted":"0","num_feature":"17","num_nodes":"1","size_leaf_vector":"1"}},{"base_weights":[3.2561104E-4],"categories":[],"categories_nodes":[],"categories_segments":[],"categories_sizes":[],"default_left":[0],"id":39,"left_children":[-1],"loss_changes":[0E0],"parents":[2147483647],"right_children":[-1],"split_conditions":[5.945552E-5],"split_indices":[0],"split_type":[0],"sum_hessian":[2.3625455E4],"tree_param":{"num_deleted":"0","num_feature":"17","num_nodes":"1","size_leaf_vector":"1"}},{"base_weights":[1.3863338E-3],"categories":[],"categories_nodes":[],"categories_segments":[],"categories_sizes":[],"default_left":[0],"id":40,"left_children":[-1],"loss_changes":[0E0],"parents":[2147483647],"right_children":[-1],"split_conditions":[2.5314005E-4],"split_indices":[0],"split_type":[0],"sum_hessian":[2.365088E4],"tree_param":{"num_deleted":"0","num_feature":"17","num_nodes":"1","size_leaf_vector":"1"}},{"base_weights":[-1.45199E-3],"categories":[],"categories_nodes":[],"categories_segments":[],"categories_sizes":[],"default_left":[0],"id":41,"left_children":[-1],"loss_changes":[0E0],"parents":[2147483647],"right_children":[-1],"split_conditions":[-2.6512868E-4],"split_indices":[0],"split_type":[0],"sum_hessian":[2.359793E4],"tree_param":{"num_deleted":"0","num_feature":"17","num_nodes":"1","size_leaf_vector":"1"}},{"base_weights":[7.135813E-4],"categories":[],"categories_nodes":[],"categories_segments":[],"categories_sizes":[],"default_left":[0],"id":42,"left_children":[-1],"loss_changes":[0E0],"parents":[2147483647],"right_children":[-1],"split_conditions":[1.3029763E-4],"split_indices":[0],"split_type":[0],"sum_hessian":[2.3635969E4],"tree_param":{"num_deleted":"0","num_feature":"17","num_nodes":"1","size_leaf_vector":"1"}},{"base_weights":[-2.9760427E-4],"categories":[],"categories_nodes":[],"categories_segments":[],"categories_sizes":[],"default_left":[0],"id":43,"left_children":[-1],"loss_changes":[0E0],"parents":[2147483647],"right_children":[-1],"split_conditions":[-5.4341577E-5],"split_indices":[0],"split_type":[0],"sum_hessian":[2.3639578E4],"tree_param":{"num_deleted":"0","num_feature":"17","num_nodes":"1","size_leaf_vector":"1"}},{"base_weights":[-7.8097824E-4],"categories":[],"categories_nodes":[],"categories_segments":[],"categories_sizes":[],"default_left":[0],"id":44,"left_children":[-1],"loss_changes":[0E0],"parents":[2147483647],"right_children":[-1],"split_conditions":[-1.426041E-4],"split_indices":[0],"split_type":[0],"sum_hessian":[2.361737E4],"tree_param":{"num_deleted":"0","num_feature":"17","num_nodes":"1","size_leaf_vector":"1"}},{"base_weights":[-4.5196989E-4],"categories":[],"categories_nodes":[],"categories_segments":[],"categories_sizes":[],"default_left":[0],"id":45,"left_children":[-1],"loss_changes":[0E0],"parents":[2147483647],"right_children":[-1],"split_conditions":[-8.252823E-5],"split_indices":[0],"split_type":[0],"sum_hessian":[2.359694E4],"tree_param":{"num_deleted":"0","num_feature":"17","num_nodes":"1","size_leaf_vector":"1"}},{"base_weights":[3.361958E-3],"categories":[],"categories_nodes":[],"categories_segments":[],"categories_sizes":[],"default_left":[0],"id":46,"left_children":[-1],"loss_changes":[0E0],"parents":[2147483647],"right_children":[-1],"split_conditions":[6.138827E-4],"split_indices":[0],"split_type":[0],"sum_hessian":[2.3620621E4],"tree_param":{"num_deleted":"0","num_feature":"17","num_nodes":"1","size_leaf_vector":"1"}},{"base_weights":[-4.5981386E-4],"categories":[],"categories_nodes":[],"categories_segments":[],"categories_sizes":[],"default_left":[0],"id":47,"left_children":[-1],"loss_changes":[0E0],"parents":[2147483647],"right_children":[-1],"split_conditions":[-8.396052E-5],"split_indices":[0],"split_type":[0],"sum_hessian":[2.3614139E4],"tree_param":{"num_deleted":"0","num_feature":"17","num_nodes":"1","size_leaf_vector":"1"}},{"base_weights":[1.8088621E-4],"categories":[],"categories_nodes":[],"categories_segments":[],"categories_sizes":[],"default_left":[0],"id":48,"left_children":[-1],"loss_changes":[0E0],"parents":[2147483647],"right_children":[-1],"split_conditions":[3.3029235E-5],"split_indices":[0],"split_type":[0],"sum_hessian":[2.359213E4],"tree_param":{"num_deleted":"0","num_feature":"17","num_nodes":"1","size_leaf_vector":"1"}},{"base_weights":[-0E0],"categories":[],"categories_nodes":[],"categories_segments":[],"categories_sizes":[],"default_left":[0],"id":49,"left_children":[-1],"loss_changes":[0E0],"parents":[2147483647],"right_children":[-1],"split_conditions":[-0E0],"split_indices":[0],"split_type":[0],"sum_hessian":[2.3615635E4],"tree_param":{"num_deleted":"0","num_feature":"17","num_nodes":"1","size_leaf_vector":"1"}},{"base_weights":[-1.0322304E-4],"categories":[],"categories_nodes":[],"categories_segments":[],"categories_sizes":[],"default_left":[0],"id":50,"left_children":[-1],"loss_changes":[0E0],"parents":[2147483647],"right_children":[-1],"split_conditions":[-1.8848194E-5],"split_indices":[0],"split_type":[0],"sum_hessian":[2.3610746E4],"tree_param":{"num_deleted":"0","num_feature":"17","num_nodes":"1","size_leaf_vector":"1"}},{"base_weights":[-8.7773247E-4],"categories":[],"categories_nodes":[],"categories_segments":[],"categories_sizes":[],"default_left":[0],"id":51,"left_children":[-1],"loss_changes":[0E0],"parents":[2147483647],"right_children":[-1],"split_conditions":[-1.602711E-4],"split_indices":[0],"split_type":[0],"sum_hessian":[2.3634941E4],"tree_param":{"num_deleted":"0","num_feature":"17","num_nodes":"1","size_leaf_vector":"1"}},{"base_weights":[1.1857558E-3],"categories":[],"categories_nodes":[],"categories_segments":[],"categories_sizes":[],"default_left":[0],"id":52,"left_children":[-1],"loss_changes":[0E0],"parents":[2147483647],"right_children":[-1],"split_conditions":[2.1651517E-4],"split_indices":[0],"split_type":[0],"sum_hessian":[2.3620969E4],"tree_param":{"num_deleted":"0","num_feature":"17","num_nodes":"1","size_leaf_vector":"1"}},{"base_weights":[-5.0600356E-4],"categories":[],"categories_nodes":[],"categories_segments":[],"categories_sizes":[],"default_left":[0],"id":53,"left_children":[-1],"loss_changes":[0E0],"parents":[2147483647],"right_children":[-1],"split_conditions":[-9.2394606E-5],"split_indices":[0],"split_type":[0],"sum_hessian":[2.3641629E4],"tree_param":{"num_deleted":"0","num_feature":"17","num_nodes":"1","size_leaf_vector":"1"}},{"base_weights":[-7.8298827E-4],"categories":[],"categories_nodes":[],"categories_segments":[],"categories_sizes":[],"default_left":[0],"id":54,"left_children":[-1],"loss_changes":[0E0],"parents":[2147483647],"right_children":[-1],"split_conditions":[-1.4297111E-4],"split_indices":[0],"split_type":[0],"sum_hessian":[2.3629615E4],"tree_param":{"num_deleted":"0","num_feature":"17","num_nodes":"1","size_leaf_vector":"1"}},{"base_weights":[1.4909536E-3],"categories":[],"categories_nodes":[],"categories_segments":[],"categories_sizes":[],"default_left":[0],"id":55,"left_children":[-1],"loss_changes":[0E0],"parents":[2147483647],"right_children":[-1],"split_conditions":[2.7224328E-4],"split_indices":[0],"split_type":[0],"sum_hessian":[2.3611162E4],"tree_param":{"num_deleted":"0","num_feature":"17","num_nodes":"1","size_leaf_vector":"1"}},{"base_weights":[-0E0],"categories":[],"categories_nodes":[],"categories_segments":[],"categories_sizes":[],"default_left":[0],"id":56,"left_children":[-1],"loss_changes":[0E0],"parents":[2147483647],"right_children":[-1],"split_conditions":[-0E0],"split_indices":[0],"split_type":[0],"sum_hessian":[2.359209E4],"tree_param":{"num_deleted":"0","num_feature":"17","num_nodes":"1","size_leaf_vector":"1"}},{"base_weights":[-7.3317165E-4],"categories":[],"categories_nodes":[],"categories_segments":[],"categories_sizes":[],"default_left":[0],"id":57,"left_children":[-1],"loss_changes":[0E0],"parents":[2147483647],"right_children":[-1],"split_conditions":[-1.3387477E-4],"split_indices":[0],"split_type":[0],"sum_hessian":[2.364143E4],"tree_param":{"num_deleted":"0","num_feature":"17","num_nodes":"1","size_leaf_vector":"1"}},{"base_weights":[-0E0],"categories":[],"categories_nodes":[],"categories_segments":[],"categories_sizes":[],"default_left":[0],"id":58,"left_children":[-1],"loss_changes":[0E0],"parents":[2147483647],"right_children":[-1],"split_conditions":[-0E0],"split_indices":[0],"split_type":[0],"sum_hessian":[2.3582229E4],"tree_param":{"num_deleted":"0","num_feature":"17","num_nodes":"1","size_leaf_vector":"1"}},{"base_weights":[-1.1906415E-3],"categories":[],"categories_nodes":[],"categories_segments":[],"categories_sizes":[],"default_left":[0],"id":59,"left_children":[-1],"loss_changes":[0E0],"parents":[2147483647],"right_children":[-1],"split_conditions":[-2.1740729E-4],"split_indices":[0],"split_type":[0],"sum_hessian":[2.3605252E4],"tree_param":{"num_deleted":"0","num_feature":"17","num_nodes":"1","size_leaf_vector":"1"}},{"base_weights":[-1.9109467E-3],"categories":[],"categories_nodes":[],"categories_segments":[],"categories_sizes":[],"default_left":[0],"id":60,"left_children":[-1],"loss_changes":[0E0],"parents":[2147483647],"right_children":[-1],"split_conditions":[-3.4893266E-4],"split_indices":[0],"split_type":[0],"sum_hessian":[2.364247E4],"tree_param":{"num_deleted":"0","num_feature":"17","num_nodes":"1","size_leaf_vector":"1"}},{"base_weights":[7.7956254E-5],"categories":[],"categories_nodes":[],"categories_segments":[],"categories_sizes":[],"default_left":[0],"id":61,"left_children":[-1],"loss_changes":[0E0],"parents":[2147483647],"right_children":[-1],"split_conditions":[1.4234559E-5],"split_indices":[0],"split_type":[0],"sum_hessian":[2.3617457E4],"tree_param":{"num_deleted":"0","num_feature":"17","num_nodes":"1","size_leaf_vector":"1"}},{"base_weights":[2.176747E-3],"categories":[],"categories_nodes":[],"categories_segments":[],"categories_sizes":[],"default_left":[0],"id":62,"left_children":[-1],"loss_changes":[0E0],"parents":[2147483647],"right_children":[-1],"split_conditions":[3.9746694E-4],"split_indices":[0],"split_type":[0],"sum_hessian":[2.3634066E4],"tree_param":{"num_deleted":"0","num_feature":"17","num_nodes":"1","size_leaf_vector":"1"}},{"base_weights":[-9.867196E-4],"categories":[],"categories_nodes":[],"categories_segments":[],"categories_sizes":[],"default_left":[0],"id":63,"left_children":[-1],"loss_changes":[0E0],"parents":[2147483647],"right_children":[-1],"split_conditions":[-1.801718E-4],"split_indices":[0],"split_type":[0],"sum_hessian":[2.3597854E4],"tree_param":{"num_deleted":"0","num_feature":"17","num_nodes":"1","size_leaf_vector":"1"}},{"base_weights":[2.0804526E-3],"categories":[],"categories_nodes":[],"categories_segments":[],"categories_sizes":[],"default_left":[0],"id":64,"left_children":[-1],"loss_changes":[0E0],"parents":[2147483647],"right_children":[-1],"split_conditions":[3.7988392E-4],"split_indices":[0],"split_type":[0],"sum_hessian":[2.3597443E4],"tree_param":{"num_deleted":"0","num_feature":"17","num_nodes":"1","size_leaf_vector":"1"}},{"base_weights":[6.303309E-4],"categories":[],"categories_nodes":[],"categories_segments":[],"categories_sizes":[],"default_left":[0],"id":65,"left_children":[-1],"loss_changes":[0E0],"parents":[2147483647],"right_children":[-1],"split_conditions":[1.1509637E-4],"split_indices":[0],"split_type":[0],"sum_hessian":[2.3621455E4],"tree_param":{"num_deleted":"0","num_feature":"17","num_nodes":"1","size_leaf_vector":"1"}},{"base_weights":[-2.9813362E-5],"categories":[],"categories_nodes":[],"categories_segments":[],"categories_sizes":[],"default_left":[0],"id":66,"left_children":[-1],"loss_changes":[0E0],"parents":[2147483647],"right_children":[-1],"split_conditions":[-5.4438233E-6],"split_indices":[0],"split_type":[0],"sum_hessian":[2.3619732E4],"tree_param":{"num_deleted":"0","num_feature":"17","num_nodes":"1","size_leaf_vector":"1"}},{"base_weights":[-0E0],"categories":[],"categories_nodes":[],"categories_segments":[],"categories_sizes":[],"default_left":[0],"id":67,"left_children":[-1],"loss_changes":[0E0],"parents":[2147483647],"right_children":[-1],"split_conditions":[-0E0],"split_indices":[0],"split_type":[0],"sum_hessian":[2.3634896E4],"tree_param":{"num_deleted":"0","num_feature":"17","num_nodes":"1","size_leaf_vector":"1"}},{"base_weights":[-1.5218876E-3],"categories":[],"categories_nodes":[],"categories_segments":[],"categories_sizes":[],"default_left":[0],"id":68,"left_children":[-1],"loss_changes":[0E0],"parents":[2147483647],"right_children":[-1],"split_conditions":[-2.7789176E-4],"split_indices":[0],"split_type":[0],"sum_hessian":[2.3582006E4],"tree_param":{"num_deleted":"0","num_feature":"17","num_nodes":"1","size_leaf_vector":"1"}},{"base_weights":[1.4859514E-3],"categories":[],"categories_nodes":[],"categories_segments":[],"categories_sizes":[],"default_left":[0],"id":69,"left_children":[-1],"loss_changes":[0E0],"parents":[2147483647],"right_children":[-1],"split_conditions":[2.713299E-4],"split_indices":[0],"split_type":[0],"sum_hessian":[2.360935E4],"tree_param":{"num_deleted":"0","num_feature":"17","num_nodes":"1","size_leaf_vector":"1"}},{"base_weights":[-6.134342E-4],"categories":[],"categories_nodes":[],"categories_segments":[],"categories_sizes":[],"default_left":[0],"id":70,"left_children":[-1],"loss_changes":[0E0],"parents":[2147483647],"right_children":[-1],"split_conditions":[-1.1201109E-4],"split_indices":[0],"split_type":[0],"sum_hessian":[2.360027E4],"tree_param":{"num_deleted":"0","num_feature":"17","num_nodes":"1","size_leaf_vector":"1"}},{"base_weights":[-4.4910313E-4],"categories":[],"categories_nodes":[],"categories_segments":[],"categories_sizes":[],"default_left":[0],"id":71,"left_children":[-1],"loss_changes":[0E0],"parents":[2147483647],"right_children":[-1],"split_conditions":[-8.200477E-5],"split_indices":[0],"split_type":[0],"sum_hessian":[2.3630795E4],"tree_param":{"num_deleted":"0","num_feature":"17","num_nodes":"1","size_leaf_vector":"1"}},{"base_weights":[2.7610941E-3],"categories":[],"categories_nodes":[],"categories_segments":[],"categories_sizes":[],"default_left":[0],"id":72,"left_children":[-1],"loss_changes":[0E0],"parents":[2147483647],"right_children":[-1],"split_conditions":[5.041668E-4],"split_indices":[0],"split_type":[0],"sum_hessian":[2.3604467E4],"tree_param":{"num_deleted":"0","num_feature":"17","num_nodes":"1","size_leaf_vector":"1"}},{"base_weights":[2.3366894E-4],"categories":[],"categories_nodes":[],"categories_segments":[],"categories_sizes":[],"default_left":[0],"id":73,"left_children":[-1],"loss_changes":[0E0],"parents":[2147483647],"right_children":[-1],"split_conditions":[4.266719E-5],"split_indices":[0],"split_type":[0],"sum_hessian":[2.3602385E4],"tree_param":{"num_deleted":"0","num_feature":"17","num_nodes":"1","size_leaf_vector":"1"}},{"base_weights":[1.2964351E-4],"categories":[],"categories_nodes":[],"categories_segments":[],"categories_sizes":[],"default_left":[0],"id":74,"left_children":[-1],"loss_changes":[0E0],"parents":[2147483647],"right_children":[-1],"split_conditions":[2.3672485E-5],"split_indices":[0],"split_type":[0],"sum_hessian":[2.363566E4],"tree_param":{"num_deleted":"0","num_feature":"17","num_nodes":"1","size_leaf_vector":"1"}},{"base_weights":[2.2432688E-4],"categories":[],"categories_nodes":[],"categories_segments":[],"categories_sizes":[],"default_left":[0],"id":75,"left_children":[-1],"loss_changes":[0E0],"parents":[2147483647],"right_children":[-1],"split_conditions":[4.096136E-5],"split_indices":[0],"split_type":[0],"sum_hessian":[2.3612148E4],"tree_param":{"num_deleted":"0","num_feature":"17","num_nodes":"1","size_leaf_vector":"1"}},{"base_weights":[-2.434884E-3],"categories":[],"categories_nodes":[],"categories_segments":[],"categories_sizes":[],"default_left":[0],"id":76,"left_children":[-1],"loss_changes":[0E0],"parents":[2147483647],"right_children":[-1],"split_conditions":[-4.4460193E-4],"split_indices":[0],"split_type":[0],"sum_hessian":[2.3603879E4],"tree_param":{"num_deleted":"0","num_feature":"17","num_nodes":"1","size_leaf_vector":"1"}},{"base_weights":[-7.883233E-4],"categories":[],"categories_nodes":[],"categories_segments":[],"categories_sizes":[],"default_left":[0],"id":77,"left_children":[-1],"loss_changes":[0E0],"parents":[2147483647],"right_children":[-1],"split_conditions":[-1.4394528E-4],"split_indices":[0],"split_type":[0],"sum_hessian":[2.362174E4],"tree_param":{"num_deleted":"0","num_feature":"17","num_nodes":"1","size_leaf_vector":"1"}},{"base_weights":[2.7265056E-4],"categories":[],"categories_nodes":[],"categories_segments":[],"categories_sizes":[],"default_left":[0],"id":78,"left_children":[-1],"loss_changes":[0E0],"parents":[2147483647],"right_children":[-1],"split_conditions":[4.978511E-5],"split_indices":[0],"split_type":[0],"sum_hessian":[2.3600148E4],"tree_param":{"num_deleted":"0","num_feature":"17","num_nodes":"1","size_leaf_vector":"1"}},{"base_weights":[-7.372267E-4],"categories":[],"categories_nodes":[],"categories_segments":[],"categories_sizes":[],"default_left":[0],"id":79,"left_children":[-1],"loss_changes":[0E0],"parents":[2147483647],"right_children":[-1],"split_conditions":[-1.346152E-4],"split_indices":[0],"split_type":[0],"sum_hessian":[2.3605113E4],"tree_param":{"num_deleted":"0","num_feature":"17","num_nodes":"1","size_leaf_vector":"1"}},{"base_weights":[-1.6825786E-4],"categories":[],"categories_nodes":[],"categories_segments":[],"categories_sizes":[],"default_left":[0],"id":80,"left_children":[-1],"loss_changes":[0E0],"parents":[2147483647],"right_children":[-1],"split_conditions":[-3.072334E-5],"split_indices":[0],"split_type":[0],"sum_hessian":[2.3611846E4],"tree_param":{"num_deleted":"0","num_feature":"17","num_nodes":"1","size_leaf_vector":"1"}},{"base_weights":[5.1383994E-4],"categories":[],"categories_nodes":[],"categories_segments":[],"categories_sizes":[],"default_left":[0],"id":81,"left_children":[-1],"loss_changes":[0E0],"parents":[2147483647],"right_children":[-1],"split_conditions":[9.382551E-5],"split_indices":[0],"split_type":[0],"sum_hessian":[2.363338E4],"tree_param":{"num_deleted":"0","num_feature":"17","num_nodes":"1","size_leaf_vector":"1"}},{"base_weights":[-0E0],"categories":[],"categories_nodes":[],"categories_segments":[],"categories_sizes":[],"default_left":[0],"id":82,"left_children":[-1],"loss_changes":[0E0],"parents":[2147483647],"right_children":[-1],"split_conditions":[-0E0],"split_indices":[0],"split_type":[0],"sum_hessian":[2.3623262E4],"tree_param":{"num_deleted":"0","num_feature":"17","num_nodes":"1","size_leaf_vector":"1"}},{"base_weights":[-1.6854227E-3],"categories":[],"categories_nodes":[],"categories_segments":[],"categories_sizes":[],"default_left":[0],"id":83,"left_children":[-1],"loss_changes":[0E0],"parents":[2147483647],"right_children":[-1],"split_conditions":[-3.0775272E-4],"split_indices":[0],"split_type":[0],"sum_hessian":[2.362574E4],"tree_param":{"num_deleted":"0","num_feature":"17","num_nodes":"1","size_leaf_vector":"1"}},{"base_weights":[-3.4622726E-4],"categories":[],"categories_nodes":[],"categories_segments":[],"categories_sizes":[],"default_left":[0],"id":84,"left_children":[-1],"loss_changes":[0E0],"parents":[2147483647],"right_children":[-1],"split_conditions":[-6.321997E-5],"split_indices":[0],"split_type":[0],"sum_hessian":[2.3612336E4],"tree_param":{"num_deleted":"0","num_feature":"17","num_nodes":"1","size_leaf_vector":"1"}},{"base_weights":[5.1969505E-4],"categories":[],"categories_nodes":[],"categories_segments":[],"categories_sizes":[],"default_left":[0],"id":85,"left_children":[-1],"loss_changes":[0E0],"parents":[2147483647],"right_children":[-1],"split_conditions":[9.489463E-5],"split_indices":[0],"split_type":[0],"sum_hessian":[2.3610178E4],"tree_param":{"num_deleted":"0","num_feature":"17","num_nodes":"1","size_leaf_vector":"1"}},{"base_weights":[1.5018755E-4],"categories":[],"categories_nodes":[],"categories_segments":[],"categories_sizes":[],"default_left":[0],"id":86,"left_children":[-1],"loss_changes":[0E0],"parents":[2147483647],"right_children":[-1],"split_conditions":[2.7423761E-5],"split_indices":[0],"split_type":[0],"sum_hessian":[2.3628732E4],"tree_param":{"num_deleted":"0","num_feature":"17","num_nodes":"1","size_leaf_vector":"1"}},{"base_weights":[-2.2258055E-3],"categories":[],"categories_nodes":[],"categories_segments":[],"categories_sizes":[],"default_left":[0],"id":87,"left_children":[-1],"loss_changes":[0E0],"parents":[2147483647],"right_children":[-1],"split_conditions":[-4.0642486E-4],"split_indices":[0],"split_type":[0],"sum_hessian":[2.3597969E4],"tree_param":{"num_deleted":"0","num_feature":"17","num_nodes":"1","size_leaf_vector":"1"}},{"base_weights":[1.231643E-3],"categories":[],"categories_nodes":[],"categories_segments":[],"categories_sizes":[],"default_left":[0],"id":88,"left_children":[-1],"loss_changes":[0E0],"parents":[2147483647],"right_children":[-1],"split_conditions":[2.2489403E-4],"split_indices":[0],"split_type":[0],"sum_hessian":[2.3611912E4],"tree_param":{"num_deleted":"0","num_feature":"17","num_nodes":"1","size_leaf_vector":"1"}},{"base_weights":[2.288063E-4],"categories":[],"categories_nodes":[],"categories_segments":[],"categories_sizes":[],"default_left":[0],"id":89,"left_children":[-1],"loss_changes":[0E0],"parents":[2147483647],"right_children":[-1],"split_conditions":[4.1779287E-5],"split_indices":[0],"split_type":[0],"sum_hessian":[2.359932E4],"tree_param":{"num_deleted":"0","num_feature":"17","num_nodes":"1","size_leaf_vector":"1"}},{"base_weights":[-4.1079492E-4],"categories":[],"categories_nodes":[],"categories_segments":[],"categories_sizes":[],"default_left":[0],"id":90,"left_children":[-1],"loss_changes":[0E0],"parents":[2147483647],"right_children":[-1],"split_conditions":[-7.500982E-5],"split_indices":[0],"split_type":[0],"sum_hessian":[2.3616564E4],"tree_param":{"num_deleted":"0","num_feature":"17","num_nodes":"1","size_leaf_vector":"1"}},{"base_weights":[4.964473E-4],"categories":[],"categories_nodes":[],"categories_segments":[],"categories_sizes":[],"default_left":[0],"id":91,"left_children":[-1],"loss_changes":[0E0],"parents":[2147483647],"right_children":[-1],"split_conditions":[9.064967E-5],"split_indices":[0],"split_type":[0],"sum_hessian":[2.3619635E4],"tree_param":{"num_deleted":"0","num_feature":"17","num_nodes":"1","size_leaf_vector":"1"}},{"base_weights":[1.4548518E-3],"categories":[],"categories_nodes":[],"categories_segments":[],"categories_sizes":[],"default_left":[0],"id":92,"left_children":[-1],"loss_changes":[0E0],"parents":[2147483647],"right_children":[-1],"split_conditions":[2.6565124E-4],"split_indices":[0],"split_type":[0],"sum_hessian":[2.3630445E4],"tree_param":{"num_deleted":"0","num_feature":"17","num_nodes":"1","size_leaf_vector":"1"}},{"base_weights":[-1.4672381E-3],"categories":[],"categories_nodes":[],"categories_segments":[],"categories_sizes":[],"default_left":[0],"id":93,"left_children":[-1],"loss_changes":[0E0],"parents":[2147483647],"right_children":[-1],"split_conditions":[-2.6791292E-4],"split_indices":[0],"split_type":[0],"sum_hessian":[2.3623236E4],"tree_param":{"num_deleted":"0","num_feature":"17","num_nodes":"1","size_leaf_vector":"1"}},{"base_weights":[1.468996E-3],"categories":[],"categories_nodes":[],"categories_segments":[],"categories_sizes":[],"default_left":[0],"id":94,"left_children":[-1],"loss_changes":[0E0],"parents":[2147483647],"right_children":[-1],"split_conditions":[2.682339E-4],"split_indices":[0],"split_type":[0],"sum_hessian":[2.364501E4],"tree_param":{"num_deleted":"0","num_feature":"17","num_nodes":"1","size_leaf_vector":"1"}},{"base_weights":[-7.0666894E-4],"categories":[],"categories_nodes":[],"categories_segments":[],"categories_sizes":[],"default_left":[0],"id":95,"left_children":[-1],"loss_changes":[0E0],"parents":[2147483647],"right_children":[-1],"split_conditions":[-1.2903546E-4],"split_indices":[0],"split_type":[0],"sum_hessian":[2.3606484E4],"tree_param":{"num_deleted":"0","num_feature":"17","num_nodes":"1","size_leaf_vector":"1"}},{"base_weights":[7.472314E-4],"categories":[],"categories_nodes":[],"categories_segments":[],"categories_sizes":[],"default_left":[0],"id":96,"left_children":[-1],"loss_changes":[0E0],"parents":[2147483647],"right_children":[-1],"split_conditions":[1.3644203E-4],"split_indices":[0],"split_type":[0],"sum_hessian":[2.3634475E4],"tree_param":{"num_deleted":"0","num_feature":"17","num_nodes":"1","size_leaf_vector":"1"}},{"base_weights":[-0E0],"categories":[],"categories_nodes":[],"categories_segments":[],"categories_sizes":[],"default_left":[0],"id":97,"left_children":[-1],"loss_changes":[0E0],"parents":[2147483647],"right_children":[-1],"split_conditions":[-0E0],"split_indices":[0],"split_type":[0],"sum_hessian":[2.361641E4],"tree_param":{"num_deleted":"0","num_feature":"17","num_nodes":"1","size_leaf_vector":"1"}},{"base_weights":[-1.0620551E-3],"categories":[],"categories_nodes":[],"categories_segments":[],"categories_sizes":[],"default_left":[0],"id":98,"left_children":[-1],"loss_changes":[0E0],"parents":[2147483647],"right_children":[-1],"split_conditions":[-1.9392782E-4],"split_indices":[0],"split_type":[0],"sum_hessian":[2.3632635E4],"tree_param":{"num_deleted":"0","num_feature":"17","num_nodes":"1","size_leaf_vector":"1"}},{"base_weights":[-0E0],"categories":[],"categories_nodes":[],"categories_segments":[],"categories_sizes":[],"default_left":[0],"id":99,"left_children":[-1],"loss_changes":[0E0],"parents":[2147483647],"right_children":[-1],"split_conditions":[-0E0],"split_indices":[0],"split_type":[0],"sum_hessian":[2.3591273E4],"tree_param":{"num_deleted":"0","num_feature":"17","num_nodes":"1","size_leaf_vector":"1"}}]},"name":"gbtree"},"learner_model_param":{"base_score":"5.444804E-1","boost_from_average":"1","num_class":"0","num_feature":"17","num_target":"1"},"objective":{"name":"binary:logistic","reg_loss_param":{"scale_pos_weight":"1"}}},"version":[2,1,4]}