{"learner":{"attributes":{"scikit_learn":"{\"_estimator_type\": \"classifier\"}"},"feature_names":["velo","velo_diff","extension","extension_ratio","x0_ratio","z0_ratio","spin_rate","adj_spin_dir","HB_acc","IVB_acc","Break_acc","pitcherHand_L","pitcherHand_R"],"feature_types":["float","float","float","float","float","float","float","float","float","float","float","i","i"],"gradient_booster":{"model":{"gbtree_model_param":{"num_parallel_tree":"1","num_trees":"100"},"iteration_indptr":[0,1,2,3,4,5,6,7,8,9,10,11,12,13,14,15,16,17,18,19,20,21,22,23,24,25,26,27,28,29,30,31,32,33,34,35,36,37,38,39,40,41,42,43,44,45,46,47,48,49,50,51,52,53,54,55,56,57,58,59,60,61,62,63,64,65,66,67,68,69,70,71,72,73,74,75,76,77,78,79,80,81,82,83,84,85,86,87,88,89,90,91,92,93,94,95,96,97,98,99,100],"tree_info":[0,0,0,0,0,0,0,0,0,0,0,0,0,0,0,0,0,0,0,0,0,0,0,0,0,0,0,0,0,0,0,0,0,0,0,0,0,0,0,0,0,0,0,0,0,0,0,0,0,0,0,0,0,0,0,0,0,0,0,0,0,0,0,0,0,0,0,0,0,0,0,0,0,0,0,0,0,0,0,0,0,0,0,0,0,0,0,0,0,0,0,0,0,0,0,0,0,0,0,0],"trees":[{"base_weights":[-0E0,2.6276315E-2,-6.1383307E-2,6.238537E-2,-1.2614913E-3,-4.2192633E-3,-1.3506697E-1,-0E0,7.544333E-2,1.1530554E-2,-3.388813E-2,4.9989275E-3,-5.5817623E-2,-0E0,-1.4933112E-1,-2.4380714E-2,3.00265E-3,1.07223615E-1,4.1695025E-2,-2.2970485E-2,3.24497E-2,9.155956E-3,-1.036324E-1,3.953348E-2,-1.4163489E-2,-0E0,-1.631802E-1,-0E0,1.1464673E-1,2.078198E-2,-0E0,2.8125817E-2,-3.833544E-2,2.0162372E-2,-6.7151035E-3,-0E0,-4.6125997E-2,-0E0,2.3506569E-2,-0E0,-5.0567396E-2,-6.655601E-2,-0E0,-0E0,1.19619645E-1,-6.928508E-2,-1.242743E-3,-0E0,-2.926961E-2,-0E0,4.991236E-2,-7.898322E-2,-0E0,-3.6372576E-2,-0E0],"categories":[],"categories_nodes":[],"categories_segments":[],"categories_sizes":[],"default_left":[0,1,0,0,0,0,0,0,1,0,0,0,0,0,0,0,0,1,1,0,0,0,0,0,0,0,0,0,0,0,0,0,0,0,0,0,0,0,0,0,0,0,0,0,0,0,0,0,0,0,0,0,0,0,0],"id":0,"left_children":[1,3,5,7,9,11,13,15,17,19,21,23,-1,-1,25,-1,-1,27,29,31,-1,33,35,37,39,-1,41,-1,43,-1,-1,-1,45,-1,-1,-1,-1,-1,-1,-1,47,-1,-1,-1,49,51,-1,-1,-1,-1,-1,53,-1,-1,-1],"loss_changes":[9.402164E1,4.6106087E1,6.315661E1,1.9701622E1,1.1110315E1,2.18456E1,1.3518097E1,4.073787E0,7.6787415E0,4.026947E1,3.0257751E1,7.821639E0,0E0,0E0,1.1097733E1,0E0,0E0,7.3554153E0,6.5362854E0,1.16532345E1,0E0,6.9999366E0,4.2123756E0,6.647329E0,5.5232797E0,0E0,4.084656E0,0E0,7.452881E0,0E0,0E0,0E0,4.761425E0,0E0,0E0,0E0,0E0,0E0,0E0,0E0,4.794234E0,0E0,0E0,0E0,6.855919E0,4.2232075E0,0E0,0E0,0E0,0E0,0E0,4.24428E0,0E0,0E0,0E0],"parents":[2147483647,0,0,1,1,2,2,3,3,4,4,5,5,6,6,7,7,8,8,9,9,10,10,11,11,14,14,17,17,18,18,19,19,21,21,22,22,23,23,24,24,26,26,28,28,32,32,40,40,44,44,45,45,51,51],"right_children":[2,4,6,8,10,12,14,16,18,20,22,24,-1,-1,26,-1,-1,28,30,32,-1,34,36,38,40,-1,42,-1,44,-1,-1,-1,46,-1,-1,-1,-1,-1,-1,-1,48,-1,-1,-1,50,52,-1,-1,-1,-1,-1,54,-1,-1,-1],"split_conditions":[3.813356E1,7.141652E1,8.64E1,8.11E1,6.641953E0,1.45E2,1.17E2,7.900139E0,5.4948635E1,8.82E1,8.68E1,6.544719E1,-5.5817623E-2,-0E0,5.24098E1,-2.4380714E-2,3.00265E-3,8.2E1,1.37E2,8.13E1,3.24497E-2,1.15E2,-4.26238E0,7.93E1,6.3922873E0,-0E0,9.42E1,-0E0,-1.8247368E1,2.078198E-2,-0E0,2.8125817E-2,8.55E1,2.0162372E-2,-6.7151035E-3,-0E0,-4.6125997E-2,-0E0,2.3506569E-2,-0E0,1.15E2,-6.655601E-2,-0E0,-0E0,5.6652575E0,6.6062274E0,-1.242743E-3,-0E0,-2.926961E-2,-0E0,4.991236E-2,3.3632954E1,-0E0,-3.6372576E-2,-0E0],"split_indices":[9,8,0,0,2,7,7,9,8,0,0,8,0,0,8,0,0,7,7,0,0,7,9,0,2,0,0,0,1,0,0,0,0,0,0,0,0,0,0,0,7,0,0,0,2,2,0,0,0,0,0,9,0,0,0],"split_type":[0,0,0,0,0,0,0,0,0,0,0,0,0,0,0,0,0,0,0,0,0,0,0,0,0,0,0,0,0,0,0,0,0,0,0,0,0,0,0,0,0,0,0,0,0,0,0,0,0,0,0,0,0,0,0],"sum_hessian":[5.934643E4,4.2198844E4,1.7147584E4,1.9272662E4,2.2926184E4,1.0202968E4,6.9446167E3,2.6522217E3,1.662044E4,1.5028507E4,7.897677E3,9.147178E3,1.0557897E3,6.683669E2,6.27625E3,1.00704944E3,1.6451724E3,7.4722617E3,9.148178E3,9.43787E3,5.590636E3,4.3251387E3,3.5725383E3,4.483607E3,4.6635713E3,6.133778E2,5.662872E3,3.8442343E2,7.0878384E3,8.276852E3,8.713265E2,6.888628E2,8.749008E3,2.6392244E3,1.6859142E3,3.8792273E2,3.1846157E3,5.703864E2,3.9132205E3,2.194563E3,2.4690083E3,5.581888E3,8.098387E1,6.1237804E1,7.0266006E3,3.6170295E3,5.131978E3,4.3041428E2,2.038594E3,1.4597093E2,6.8806294E3,3.4460637E3,1.7096594E2,3.092634E3,3.534296E2],"tree_param":{"num_deleted":"0","num_feature":"13","num_nodes":"55","size_leaf_vector":"1"}},{"base_weights":[1.0816909E-3,-8.915144E-2,6.170645E-2,-7.810517E-3,-2.0608734E-1,7.509176E-2,-1.3757508E-3,-9.439107E-2,1.1986715E-2,-2.7091438E-1,-6.777368E-2,8.297064E-2,-2.7877374E-2,-4.4316463E-2,2.2498485E-2,-0E0,-1.6513193E-1,-3.1398847E-3,2.1824466E-2,-2.7811748E-1,-0E0,-0E0,-9.83706E-2,3.180892E-2,1.0922361E-1,-3.679618E-2,-0E0,-7.392952E-2,-0E0,-9.054315E-3,6.1424874E-2,-8.78392E-2,-0E0,4.760458E-2,-3.4267817E-2,-0E0,-1.1349971E-1,-0E0,-1.1245474E-1,-0E0,8.435831E-2,-5.0283363E-3,1.1929102E-1,-3.729843E-2,-0E0,3.364334E-2,-0E0,-0E0,9.2186406E-2,-6.601088E-2,-0E0,-5.7061676E-2,-0E0,1.1526733E-1,-0E0,-0E0,1.2352076E-1,4.8137877E-2,-0E0,-0E0,-4.3229956E-2,-0E0,5.243521E-2,9.340457E-2,1.837187E-1,4.6463072E-2,7.1427044E-3,-0E0,7.756104E-2],"categories":[],"categories_nodes":[],"categories_segments":[],"categories_sizes":[],"default_left":[0,0,1,0,0,0,0,0,0,1,0,0,0,0,0,0,0,0,0,0,0,0,0,0,0,0,0,1,0,0,0,0,0,0,0,0,0,0,1,0,1,0,0,0,0,0,0,0,0,0,0,0,0,0,0,0,0,0,0,0,0,0,0,0,0,0,0,0,0],"id":1,"left_children":[1,3,5,7,9,11,13,15,17,19,21,23,25,27,29,-1,31,33,-1,35,-1,-1,37,39,41,-1,-1,43,-1,-1,45,-1,-1,47,49,-1,-1,-1,51,-1,53,-1,55,-1,-1,-1,-1,-1,57,59,-1,-1,-1,61,-1,-1,63,-1,-1,-1,-1,-1,-1,65,67,-1,-1,-1,-1],"loss_changes":[3.2390332E2,2.0903024E2,3.537178E1,2.9998417E1,5.962195E1,2.8660446E1,7.1556053E0,1.2146746E1,1.0554845E1,8.640472E0,8.955554E0,2.940744E1,5.36462E0,7.994577E0,7.2020507E0,0E0,7.1450195E0,1.0333706E1,0E0,7.045227E0,0E0,0E0,4.7193394E0,1.5419558E1,2.9676636E1,0E0,0E0,6.30978E0,0E0,0E0,4.5728054E0,0E0,0E0,7.1467333E0,4.4925976E0,0E0,0E0,0E0,6.4775963E0,0E0,1.3718578E1,0E0,1.0611725E1,0E0,0E0,0E0,0E0,0E0,4.6645546E0,6.340317E0,0E0,0E0,0E0,6.282547E0,0E0,0E0,1.1184784E1,0E0,0E0,0E0,0E0,0E0,0E0,1.192012E1,8.430649E0,0E0,0E0,0E0,0E0],"parents":[2147483647,0,0,1,1,2,2,3,3,4,4,5,5,6,6,7,7,8,8,9,9,10,10,11,11,12,12,13,13,14,14,16,16,17,17,19,19,22,22,23,23,24,24,27,27,30,30,33,33,34,34,38,38,40,40,42,42,48,48,49,49,53,53,56,56,63,63,64,64],"right_children":[2,4,6,8,10,12,14,16,18,20,22,24,26,28,30,-1,32,34,-1,36,-1,-1,38,40,42,-1,-1,44,-1,-1,46,-1,-1,48,50,-1,-1,-1,52,-1,54,-1,56,-1,-1,-1,-1,-1,58,60,-1,-1,-1,62,-1,-1,64,-1,-1,-1,-1,-1,-1,66,68,-1,-1,-1,-1],"split_conditions":[8.929755E-1,1.19E2,1.39E2,8.0095035E-1,8.7616545E-1,1.012454E0,9.6489984E-1,1.02E2,1.889E3,1.49E2,1.23E2,9.2439705E-1,1.69E3,9E1,7.99E1,-0E0,1.906E3,1.02E2,2.1824466E-2,8.14E1,-0E0,-0E0,1.115E3,8.75E1,1E2,-3.679618E-2,-0E0,9.8333335E-1,-0E0,-9.054315E-3,2.012E3,-8.78392E-2,-0E0,1.335E3,8.549242E-1,-0E0,-1.1349971E-1,-0E0,1.92E3,-0E0,1.31E2,-5.0283363E-3,7.9E1,-3.729843E-2,-0E0,3.364334E-2,-0E0,-0E0,1.811E3,1.1E2,-0E0,-5.7061676E-2,-0E0,1E0,-0E0,-0E0,9.723118E-1,4.8137877E-2,-0E0,-0E0,-4.3229956E-2,-0E0,5.243521E-2,1.3E2,-1.34884615E1,4.6463072E-2,7.1427044E-3,-0E0,7.756104E-2],"split_indices":[5,7,7,5,5,5,5,7,6,7,7,5,6,0,0,0,6,7,0,0,0,0,6,0,7,0,0,1,0,0,6,0,0,6,5,0,0,0,6,0,7,0,0,0,0,0,0,0,6,7,0,0,0,12,0,0,5,0,0,0,0,0,0,7,1,0,0,0,0],"split_type":[0,0,0,0,0,0,0,0,0,0,0,0,0,0,0,0,0,0,0,0,0,0,0,0,0,0,0,0,0,0,0,0,0,0,0,0,0,0,0,0,0,0,0,0,0,0,0,0,0,0,0,0,0,0,0,0,0,0,0,0,0,0,0,0,0,0,0,0,0],"sum_hessian":[5.942162E4,2.3425557E4,3.5996062E4,1.4190852E4,9.234704E3,3.0558088E4,5.4379756E3,3.2249949E3,1.0965856E4,5.918915E3,3.3157893E3,2.8999209E4,1.5588788E3,2.9229565E3,2.515019E3,1.7673617E3,1.457633E3,6.9800977E3,3.985759E3,5.7248423E3,1.9407259E2,8.488316E2,2.4669578E3,1.0742523E4,1.8256686E4,7.1971704E2,8.3916174E2,2.4734902E3,4.494663E2,3.826528E2,2.1323662E3,9.4384827E2,5.1378485E2,1.826357E3,5.1537407E3,1.496914E2,5.575151E3,2.2054317E2,2.2464146E3,7.101285E3,3.6412388E3,8.8654645E2,1.7370139E4,2.2535981E3,2.1989197E2,1.7517577E3,3.8060864E2,5.436281E2,1.282729E3,2.3748208E3,2.77892E3,1.6878826E3,5.585321E2,2.9541194E3,6.871193E2,4.778876E2,1.6892252E4,1.0473414E3,2.3538751E2,9.8723645E2,1.3875844E3,3.2308472E2,2.6310347E3,1.2103178E4,4.789074E3,8.587972E3,3.5152063E3,2.7984833E2,4.5092256E3],"tree_param":{"num_deleted":"0","num_feature":"13","num_nodes":"69","size_leaf_vector":"1"}},{"base_weights":[-3.3100545E-3,2.7467923E-2,-3.532489E-2,1.1453525E-2,5.2467987E-2,-1.787994E-2,-1.25097E-1,-3.2958183E-2,8.6797625E-3,7.987122E-2,-0E0,5.6453835E-5,-1.820373E-2,-2.367612E-3,-1.9717985E-1,-3.961688E-2,-0E0,-0E0,3.533688E-2,-0E0,-8.203825E-2],"categories":[],"categories_nodes":[],"categories_segments":[],"categories_sizes":[],"default_left":[1,1,1,0,0,0,0,0,0,0,0,0,0,0,0,0,0,0,0,0,0],"id":2,"left_children":[1,3,5,7,9,11,13,15,-1,17,-1,-1,-1,-1,19,-1,-1,-1,-1,-1,-1],"loss_changes":[5.9125156E1,7.413023E0,3.763227E1,8.20315E0,1.7275888E1,1.5989356E1,2.3164543E1,7.0839605E0,0E0,5.9088287E0,0E0,0E0,0E0,0E0,4.5297394E0,0E0,0E0,0E0,0E0,0E0,0E0],"parents":[2147483647,0,0,1,1,2,2,3,3,4,4,5,5,6,6,7,7,9,9,14,14],"right_children":[2,4,6,8,10,12,14,16,-1,18,-1,-1,-1,-1,20,-1,-1,-1,-1,-1,-1],"split_conditions":[8.009269E1,1.0701894E0,1.1084362E0,-8.008589E0,7.233459E1,3.556031E1,9.129693E1,5.4615974E1,8.6797625E-3,1.640491E1,-0E0,5.6453835E-5,-1.820373E-2,-2.367612E-3,-2.2720825E1,-3.961688E-2,-0E0,-0E0,3.533688E-2,-0E0,-8.203825E-2],"split_indices":[10,3,3,9,10,9,10,8,0,8,0,0,0,0,9,0,0,0,0,0,0],"split_type":[0,0,0,0,0,0,0,0,0,0,0,0,0,0,0,0,0,0,0,0,0],"sum_hessian":[5.9349535E4,2.9201033E4,3.0148502E4,1.948113E4,9.719901E3,2.5927482E4,4.2210186E3,2.4112107E3,1.706992E4,6.867392E3,2.8525095E3,1.4277745E4,1.1649738E4,1.9649485E3,2.25607E3,9.325729E2,1.478638E3,5.191205E2,6.3482715E3,7.16674E1,2.1844026E3],"tree_param":{"num_deleted":"0","num_feature":"13","num_nodes":"21","size_leaf_vector":"1"}},{"base_weights":[6.697798E-4,-1.149738E-2,2.6790367E-2,6.1323666E-3,-5.3076692E-2,4.4722877E-2,-3.111942E-2,-4.5538105E-2,1.1233536E-2,-2.4455573E-2,-0E0,5.3964093E-2,-1.3171099E-2,3.94215E-4,-2.5215106E-2,4.361767E-2,-2.0100665E-3,6.162699E-2,-0E0,-0E0,7.158601E-2,5.7232017E-3,-1.1498038E-2,6.794444E-2,-0E0,-0E0,3.1599153E-2,-7.735752E-4,1.47441635E-2,-0E0,7.315945E-2,-0E0,3.074472E-2],"categories":[],"categories_nodes":[],"categories_segments":[],"categories_sizes":[],"default_left":[1,0,0,0,0,0,0,0,0,0,0,0,0,0,0,0,0,1,0,0,0,0,0,0,0,0,0,0,0,0,0,0,0],"id":3,"left_children":[1,3,5,7,9,11,13,-1,15,-1,-1,17,-1,-1,-1,19,21,23,-1,-1,25,27,-1,29,-1,-1,-1,-1,-1,-1,31,-1,-1],"loss_changes":[1.9888344E1,3.1565928E1,2.2394787E1,9.241508E0,8.96331E0,1.3457222E1,8.284351E0,0E0,1.3792128E1,0E0,0E0,1.0236675E1,0E0,0E0,0E0,1.5243872E1,5.02823E0,7.2612686E0,0E0,0E0,4.932953E0,5.0020447E0,0E0,5.7546883E0,0E0,0E0,0E0,0E0,0E0,0E0,5.138237E0,0E0,0E0],"parents":[2147483647,0,0,1,1,2,2,3,3,4,4,5,5,6,6,8,8,11,11,15,15,16,16,17,17,20,20,21,21,23,23,30,30],"right_children":[2,4,6,8,10,12,14,-1,16,-1,-1,18,-1,-1,-1,20,22,24,-1,-1,26,28,-1,30,-1,-1,-1,-1,-1,-1,32,-1,-1],"split_conditions":[1.843E3,7.579971E1,1.0876607E0,7.74E1,9.24E1,2.368E3,1.06E2,-4.5538105E-2,5.1205997E1,-2.4455573E-2,-0E0,1.42E2,-1.3171099E-2,3.94215E-4,-2.5215106E-2,1.045E3,1.29E2,1.0325206E2,-0E0,-0E0,9.403416E-1,1.21E2,-1.1498038E-2,9.4E1,-0E0,-0E0,3.1599153E-2,-7.735752E-4,1.47441635E-2,-0E0,7.9E1,-0E0,3.074472E-2],"split_indices":[6,8,3,0,0,6,7,0,8,0,0,7,0,0,0,6,7,8,0,0,3,7,0,7,0,0,0,0,0,0,0,0,0],"split_type":[0,0,0,0,0,0,0,0,0,0,0,0,0,0,0,0,0,0,0,0,0,0,0,0,0,0,0,0,0,0,0,0,0],"sum_hessian":[5.924612E4,3.869945E4,2.0546672E4,2.6086426E4,1.2613023E4,1.6579113E4,3.967557E3,4.7631555E2,2.561011E4,1.1867877E4,7.45147E2,1.5601016E4,9.780987E2,9.6811414E2,2.9994426E3,8.854854E3,1.6755256E4,1.4643436E4,9.575801E2,2.6315989E3,6.2232544E3,1.1101799E4,5.6534575E3,1.360892E4,1.0345151E3,3.4387872E2,5.879376E3,7.239793E3,3.8620056E3,8.043163E2,1.2804604E4,3.6159946E2,1.2443005E4],"tree_param":{"num_deleted":"0","num_feature":"13","num_nodes":"33","size_leaf_vector":"1"}},{"base_weights":[-1.3055652E-3,1.19155105E-2,-4.3691386E-2,-0E0,4.7999524E-2,-2.8159828E-3,-7.904702E-2,-2.1792708E-2,1.5293347E-2,5.6437004E-2,-0E0,-0E0,-3.735771E-2,-3.987362E-2,-6.142131E-3,3.1696774E-2,-1.3988368E-2,6.634843E-2,-0E0,-3.278245E-2,4.3441246E-6,3.8856216E-2,-0E0,6.41318E-4,-2.8685823E-2,-0E0,2.8654035E-2,-2.3580322E-2,-0E0,-0E0,1.8089576E-2],"categories":[],"categories_nodes":[],"categories_segments":[],"categories_sizes":[],"default_left":[0,1,0,0,0,0,0,0,0,1,0,0,0,0,0,1,0,0,0,1,0,0,0,0,0,0,0,0,0,0,0],"id":4,"left_children":[1,3,5,7,9,-1,11,13,15,17,-1,-1,-1,-1,19,21,23,25,-1,27,-1,29,-1,-1,-1,-1,-1,-1,-1,-1,-1],"loss_changes":[3.5429832E1,2.0363453E1,1.4085093E1,1.1080487E1,7.064926E0,0E0,1.2073296E1,1.0298222E1,1.0055705E1,7.1870346E0,0E0,0E0,0E0,0E0,4.2613516E0,4.2904596E0,9.371202E0,4.1658707E0,0E0,6.2305837E0,0E0,4.1765347E0,0E0,0E0,0E0,0E0,0E0,0E0,0E0,0E0,0E0],"parents":[2147483647,0,0,1,1,2,2,3,3,4,4,6,6,7,7,8,8,9,9,14,14,15,15,16,16,17,17,19,19,21,21],"right_children":[2,4,6,8,10,-1,12,14,16,18,-1,-1,-1,-1,20,22,24,26,-1,28,-1,30,-1,-1,-1,-1,-1,-1,-1,-1,-1],"split_conditions":[4.0613064E1,1.906E3,1.0467075E0,8.55E1,2.401E3,-2.8159828E-3,1.285E3,9.6723104E-1,8.844873E1,1.0309701E2,-0E0,-0E0,-3.735771E-2,-3.987362E-2,7.900139E0,1.781E3,1.0565848E0,5.6834026E1,-0E0,1.574E3,4.3441246E-6,1.045E3,-0E0,6.41318E-4,-2.8685823E-2,-0E0,2.8654035E-2,-2.3580322E-2,-0E0,-0E0,1.8089576E-2],"split_indices":[9,6,3,0,6,0,6,3,10,10,0,0,0,0,9,6,3,10,0,6,0,6,0,0,0,0,0,0,0,0,0],"split_type":[0,0,0,0,0,0,0,0,0,0,0,0,0,0,0,0,0,0,0,0,0,0,0,0,0,0,0,0,0,0,0],"sum_hessian":[5.9321043E4,4.4050652E4,1.5270388E4,3.255549E4,1.1495163E4,8.461577E3,6.8088105E3,1.4198982E4,1.8356508E4,1.0516E4,9.791627E2,5.7552246E2,6.233288E3,1.6052896E3,1.2593693E4,1.3222944E4,5.133564E3,9.224392E3,1.2916083E3,4.3477417E3,8.245951E3,1.1620166E4,1.6027783E3,3.1805872E3,1.9529768E3,5.234346E2,8.700957E3,3.089304E3,1.258438E3,1.0344661E3,1.05857E4],"tree_param":{"num_deleted":"0","num_feature":"13","num_nodes":"31","size_leaf_vector":"1"}},{"base_weights":[-4.09478E-3,1.9451624E-2,-1.2628086E-2,-1.4829622E-3,2.7601127E-2,-3.143927E-3,-1.4776224E-2,3.908603E-2,-0E0,-0E0,-5.0078E-2,-0E0,5.152668E-2,-1.3185034E-2,1.9420676E-2,-0E0,-5.273202E-2,2.414598E-2,-0E0,-0E0,-2.8349655E-2,1.2544462E-2,-2.878474E-3,-1.7712591E-2,-0E0],"categories":[],"categories_nodes":[],"categories_segments":[],"categories_sizes":[],"default_left":[0,0,0,0,0,0,0,0,0,0,0,0,1,0,0,0,0,0,0,0,0,0,0,0,0],"id":5,"left_children":[1,3,5,-1,7,9,-1,11,-1,13,15,-1,17,19,21,-1,-1,-1,-1,-1,23,-1,-1,-1,-1],"loss_changes":[1.1473281E1,4.1895995E0,7.8529687E0,0E0,5.9993095E0,4.174987E0,0E0,5.257182E0,0E0,8.381225E0,9.353903E0,0E0,4.8026943E0,4.0494537E0,5.716236E0,0E0,0E0,0E0,0E0,0E0,4.600816E0,0E0,0E0,0E0,0E0],"parents":[2147483647,0,0,1,1,2,2,4,4,5,5,7,7,9,9,10,10,12,12,13,13,14,14,20,20],"right_children":[2,4,6,-1,8,10,-1,12,-1,14,16,-1,18,20,22,-1,-1,-1,-1,-1,24,-1,-1,-1,-1],"split_conditions":[5.6267544E1,9.5776427E-1,4.1546932E1,-1.4829622E-3,5.055026E1,1.1450499E0,-1.4776224E-2,-2.3973598E0,-0E0,6.552913E0,1.6251263E1,-0E0,1.1296363E0,1.0050066E0,9.200623E1,-0E0,-5.273202E-2,2.414598E-2,-0E0,-0E0,1.0460407E0,1.2544462E-2,-2.878474E-3,-1.7712591E-2,-0E0],"split_indices":[8,3,9,0,9,3,0,9,0,2,9,0,3,3,8,0,0,0,0,0,3,0,0,0,0],"split_type":[0,0,0,0,0,0,0,0,0,0,0,0,0,0,0,0,0,0,0,0,0,0,0,0,0],"sum_hessian":[5.923031E4,1.3654287E4,4.557602E4,1.431363E3,1.2222924E4,3.4821145E4,1.0754878E4,9.991206E3,2.231718E3,3.3080566E4,1.7405784E3,2.2882402E3,7.702966E3,2.0310738E4,1.2769826E4,1.00537177E3,7.352066E2,6.9016304E3,8.013352E2,1.0927284E4,9.383455E3,1.0531262E4,2.2385647E3,6.145204E3,3.2382507E3],"tree_param":{"num_deleted":"0","num_feature":"13","num_nodes":"25","size_leaf_vector":"1"}},{"base_weights":[-4.7223126E-3,-0E0,-3.0077497E-2,-9.338402E-3,1.0506918E-2,-4.035928E-2,-0E0,6.487121E-3,-3.0877205E-2,1.8974952E-2,-1.5698172E-3,-0E0,-5.8146123E-2,-1.421324E-2,9.889836E-3,-1.5992882E-2,-0E0,-0E0,1.0572026E-2,-0E0,-2.8420607E-2],"categories":[],"categories_nodes":[],"categories_segments":[],"categories_sizes":[],"default_left":[0,0,1,1,0,0,0,0,0,0,0,0,0,0,0,0,0,0,0,0,0],"id":6,"left_children":[1,3,5,7,9,11,-1,13,15,17,-1,-1,19,-1,-1,-1,-1,-1,-1,-1,-1],"loss_changes":[7.19505E0,4.911286E0,5.2199697E0,1.0613067E1,3.9048355E0,6.0747337E0,0E0,9.651747E0,5.374426E0,4.177946E0,0E0,0E0,7.820591E0,0E0,0E0,0E0,0E0,0E0,0E0,0E0,0E0],"parents":[2147483647,0,0,1,1,2,2,3,3,4,4,5,5,7,7,8,8,9,9,12,12],"right_children":[2,4,6,8,10,12,-1,14,16,18,-1,-1,20,-1,-1,-1,-1,-1,-1,-1,-1],"split_conditions":[1.36E2,1.731E3,8.3076924E-1,6.724987E1,4.1546932E1,2.99579E1,-0E0,1.063E3,5.846154E-1,9.9E1,-1.5698172E-3,-0E0,1.146E3,-1.421324E-2,9.889836E-3,-1.5992882E-2,-0E0,-0E0,1.0572026E-2,-0E0,-2.8420607E-2],"split_indices":[7,6,1,8,9,9,0,6,1,7,0,0,6,0,0,0,0,0,0,0,0],"split_type":[0,0,0,0,0,0,0,0,0,0,0,0,0,0,0,0,0,0,0,0,0],"sum_hessian":[5.924819E4,4.989452E4,9.353671E3,2.626305E4,2.3631469E4,8.372136E3,9.815349E2,1.3378332E4,1.2884719E4,1.7795475E4,5.835995E3,2.5738755E3,5.7982607E3,2.9261309E3,1.0452201E4,1.1002448E4,1.8822703E3,2.6985393E3,1.5096935E4,3.9574304E2,5.4025176E3],"tree_param":{"num_deleted":"0","num_feature":"13","num_nodes":"21","size_leaf_vector":"1"}},{"base_weights":[-0E0,-1.0935464E-1,6.3061677E-3,-1.4750564E-1,-0E0,-1.1637296E-2,1.5966486E-2,-7.639947E-2,-0E0,-4.269477E-2,2.3219804E-3,3.1567577E-2,-0E0,3.2524455E-3,-2.2683458E-2,-0E0,4.0824283E-2,1.6769125E-3,-2.4283865E-2,1.9004783E-2,-0E0],"categories":[],"categories_nodes":[],"categories_segments":[],"categories_sizes":[],"default_left":[0,0,0,0,0,0,0,0,0,0,0,0,1,0,0,0,0,0,0,0,0],"id":7,"left_children":[1,3,5,7,-1,9,11,-1,-1,13,-1,15,17,-1,-1,-1,19,-1,-1,-1,-1],"loss_changes":[4.4576546E1,1.2736324E1,9.97485E0,1.08946E1,0E0,1.17699995E1,1.0765045E1,0E0,0E0,8.671773E0,0E0,8.152697E0,6.6298676E0,0E0,0E0,0E0,7.878353E0,0E0,0E0,0E0,0E0],"parents":[2147483647,0,0,1,1,2,2,3,3,5,5,6,6,9,9,11,11,12,12,16,16],"right_children":[2,4,6,8,-1,10,12,-1,-1,14,-1,16,18,-1,-1,-1,20,-1,-1,-1,-1],"split_conditions":[-4.031472E-1,1.924E3,-2.757332E-1,1.0964392E0,-0E0,1.0382174E0,1.25E2,-7.639947E-2,-0E0,8.9448255E-1,2.3219804E-3,1.342E3,1.1236424E0,3.2524455E-3,-2.2683458E-2,-0E0,4.5967406E-1,1.6769125E-3,-2.4283865E-2,1.9004783E-2,-0E0],"split_indices":[4,6,4,3,0,3,7,0,0,3,0,6,3,0,0,0,4,0,0,0,0],"split_type":[0,0,0,0,0,0,0,0,0,0,0,0,0,0,0,0,0,0,0,0,0],"sum_hessian":[5.923099E4,3.4803135E3,5.5750676E4,2.4704001E3,1.0099133E3,1.7088826E4,3.866185E4,1.7440186E3,7.263817E2,7.4905366E3,9.598289E3,2.064732E4,1.8014531E4,6.005632E2,6.8899736E3,3.43487E3,1.721245E4,1.6358827E4,1.6557046E3,1.615367E4,1.0587795E3],"tree_param":{"num_deleted":"0","num_feature":"13","num_nodes":"21","size_leaf_vector":"1"}},{"base_weights":[-2.8432163E-3,-5.974582E-2,3.2427903E-2,-2.6446892E-2,-1.3407424E-1,3.83916E-2,-5.427269E-3,-6.358332E-2,-0E0,-1.501201E-1,-0E0,-0E0,4.739878E-2,-0E0,-1.1213571E-1,2.6899293E-2,-3.160547E-2,-0E0,-6.529613E-2,-5.856253E-2,3.461262E-2,7.019118E-4,5.840233E-2,-1.6172167E-2,3.2351684E-2,-1.4352337E-1,-0E0,-0E0,5.1759902E-2,-0E0,-4.4852294E-2,-0E0,-4.185783E-2,-1.960215E-2,6.7261495E-2,1.5095768E-2,-2.2461416E-2,6.0702026E-2,-0E0,1.2025186E-1,-0E0,-0E0,-1.5182467E-1,-0E0,2.6762573E-2,-0E0,1.07566744E-1,9.436536E-2,-0E0,-4.7957152E-2,-0E0,-0E0,2.6048336E-2,-0E0,1.7964071E-1,-6.3367985E-2,-0E0,1.6040818E-1,-0E0,1.24852814E-1,-0E0,-0E0,8.305931E-2,-0E0,8.213801E-2,-0E0,6.0159534E-2],"categories":[],"categories_nodes":[],"categories_segments":[],"categories_sizes":[],"default_left":[0,1,0,0,0,0,0,1,0,0,0,1,0,1,0,1,0,0,0,0,0,0,0,0,0,0,0,0,0,0,0,0,0,0,0,0,0,0,0,0,0,0,0,0,0,0,0,0,0,0,0,0,0,0,0,0,0,0,0,0,0,0,0,0,0,0,0],"id":8,"left_children":[1,3,5,7,9,11,-1,13,15,17,-1,19,21,23,25,27,29,-1,-1,31,33,35,37,-1,39,41,-1,-1,43,-1,-1,45,-1,-1,47,-1,49,51,-1,53,-1,-1,55,-1,-1,-1,57,59,-1,-1,-1,-1,-1,-1,61,-1,-1,63,-1,65,-1,-1,-1,-1,-1,-1,-1],"loss_changes":[1.2076454E2,4.698664E1,1.1528294E1,1.8142443E1,9.3951645E0,1.2721146E1,0E0,2.4118216E1,8.024465E0,1.132132E1,0E0,1.2467306E1,1.0103741E1,4.1357594E0,2.2184563E1,5.510436E0,1.1077951E1,0E0,0E0,1.3185963E1,1.0625376E1,6.5983596E0,4.568489E0,0E0,9.357893E0,5.2545853E0,0E0,0E0,4.289175E0,0E0,0E0,4.9848347E0,0E0,0E0,5.629262E0,0E0,1.0357812E1,4.312187E0,0E0,9.813688E0,0E0,0E0,4.9732437E0,0E0,0E0,0E0,4.2203054E0,6.5974255E0,0E0,0E0,0E0,0E0,0E0,0E0,4.8031044E0,0E0,0E0,4.5388823E0,0E0,6.3423157E0,0E0,0E0,0E0,0E0,0E0,0E0,0E0],"parents":[2147483647,0,0,1,1,2,2,3,3,4,4,5,5,7,7,8,8,9,9,11,11,12,12,13,13,14,14,15,15,16,16,19,19,20,20,21,21,22,22,24,24,25,25,28,28,31,31,34,34,36,36,37,37,39,39,42,42,46,46,47,47,54,54,57,57,59,59],"right_children":[2,4,6,8,10,12,-1,14,16,18,-1,20,22,24,26,28,30,-1,-1,32,34,36,38,-1,40,42,-1,-1,44,-1,-1,46,-1,-1,48,-1,50,52,-1,54,-1,-1,56,-1,-1,-1,58,60,-1,-1,-1,-1,-1,-1,62,-1,-1,64,-1,66,-1,-1,-1,-1,-1,-1,-1],"split_conditions":[8.929755E-1,1.23E2,1.45E2,8.391429E-1,2.061E3,-3.2117233E-1,-5.427269E-3,1.02E2,-2.3614922E-1,1.098E3,-0E0,6.324491E0,9.1632533E-1,6.449105E0,3.83682E-1,1.637E3,1.17E2,-0E0,-6.529613E-2,5.6424704E0,1.07E2,-1.5614878E-1,2.401E3,-1.6172167E-2,1.556E3,5.756738E0,-0E0,-0E0,-4.0975618E-1,-0E0,-4.4852294E-2,9.3926394E-1,-4.185783E-2,-1.960215E-2,1.31E2,1.5095768E-2,1.6946091E-1,1.045E3,-0E0,1.342E3,-0E0,-0E0,2.0433333E0,-0E0,2.6762573E-2,-0E0,-3.515417E-1,9.359894E-1,-0E0,-4.7957152E-2,-0E0,-0E0,2.6048336E-2,-0E0,-3.4815508E-1,-6.3367985E-2,-0E0,-4.031472E-1,-0E0,-4.0628862E-1,-0E0,-0E0,8.305931E-2,-0E0,8.213801E-2,-0E0,6.0159534E-2],"split_indices":[5,7,7,5,6,4,0,7,4,6,0,2,5,2,4,6,7,0,0,2,7,4,6,0,6,2,0,0,4,0,0,5,0,0,7,0,4,6,0,6,0,0,1,0,0,0,4,5,0,0,0,0,0,0,4,0,0,4,0,4,0,0,0,0,0,0,0],"split_type":[0,0,0,0,0,0,0,0,0,0,0,0,0,0,0,0,0,0,0,0,0,0,0,0,0,0,0,0,0,0,0,0,0,0,0,0,0,0,0,0,0,0,0,0,0,0,0,0,0,0,0,0,0,0,0,0,0,0,0,0,0,0,0,0,0,0,0],"sum_hessian":[5.914155E4,2.3338643E4,3.580291E4,1.6795676E4,6.5429673E3,3.2987586E4,2.8153235E3,7.3422847E3,9.453391E3,5.623416E3,9.1955164E2,5.7049624E3,2.7282623E4,3.1054727E3,4.236812E3,5.5382534E3,3.9151372E3,4.613443E2,5.162072E3,2.3961167E3,3.3088457E3,6.371861E3,2.0910762E4,1.2183887E3,1.887084E3,3.6392546E3,5.9755725E2,2.0306807E3,3.507573E3,2.781899E3,1.1332382E3,4.8733258E2,1.9087842E3,3.4637903E2,2.9624668E3,3.5432605E3,2.8286003E3,2.059162E4,3.1914395E2,7.2647943E2,1.1606046E3,1.6569263E2,3.473562E3,4.803257E2,3.027247E3,1.1821929E2,3.6911328E2,2.106889E3,8.555778E2,7.588949E2,2.0697053E3,1.7237618E3,1.8867857E4,1.3089557E2,5.9558386E2,3.3775293E3,9.6032646E1,2.9604248E2,7.307079E1,1.600342E3,5.0654684E2,5.5001934E1,5.405819E2,3.2366436E1,2.6367606E2,2.3874384E2,1.3615983E3],"tree_param":{"num_deleted":"0","num_feature":"13","num_nodes":"67","size_leaf_vector":"1"}},{"base_weights":[-8.198518E-4,-3.7252225E-2,2.7773092E-2,-8.809687E-3,-8.5864335E-2,-0E0,4.3349925E-2,-6.9771774E-2,-0E0,-1.4181234E-1,-1.695141E-2,4.8294194E-2,-0E0,-0E0,-1.0695559E-1,-3.792502E-3,3.4717888E-2,-0E0,-6.1536215E-2,-0E0,2.3999153E-2,-0E0,-4.7856033E-2,6.741985E-2,-0E0,3.747808E-2,-0E0],"categories":[],"categories_nodes":[],"categories_segments":[],"categories_sizes":[],"default_left":[0,0,0,0,0,0,0,0,1,1,0,0,0,0,0,0,0,0,0,0,0,0,0,0,0,0,0],"id":9,"left_children":[1,3,5,7,9,-1,11,13,15,17,-1,19,-1,-1,21,-1,23,-1,-1,-1,-1,-1,-1,25,-1,-1,-1],"loss_changes":[6.237392E1,3.1088272E1,1.1139992E1,1.1570256E1,9.51828E0,0E0,7.183319E0,9.586074E0,5.7845297E0,5.641426E0,0E0,6.9389534E0,0E0,0E0,4.2588615E0,0E0,6.5257087E0,0E0,0E0,0E0,0E0,0E0,0E0,4.37827E0,0E0,0E0,0E0],"parents":[2147483647,0,0,1,1,2,2,3,3,4,4,6,6,7,7,8,8,9,9,11,11,14,14,16,16,23,23],"right_children":[2,4,6,8,10,-1,12,14,16,18,-1,20,-1,-1,22,-1,24,-1,-1,-1,-1,-1,-1,26,-1,-1,-1],"split_conditions":[9.0301555E-1,1.22E2,6.3011726E1,7.890641E-1,8.6509556E-1,-0E0,1.018155E0,6.2923403E0,6.855428E0,3.875552E1,-1.695141E-2,9.206698E-1,-0E0,-0E0,4.7729702E1,-3.792502E-3,1.13E2,-0E0,-6.1536215E-2,-0E0,2.3999153E-2,-0E0,-4.7856033E-2,8.77269E1,-0E0,3.747808E-2,-0E0],"split_indices":[5,7,8,5,5,0,5,2,2,8,0,5,0,0,8,0,7,0,0,0,0,0,0,8,0,0,0],"split_type":[0,0,0,0,0,0,0,0,0,0,0,0,0,0,0,0,0,0,0,0,0,0,0,0,0,0,0],"sum_hessian":[5.914633E4,2.702585E4,3.212048E4,1.796203E4,9.063819E3,1.3044658E4,1.9075822E4,2.6023906E3,1.535964E4,3.2296116E3,5.834208E3,1.843777E4,6.380531E2,6.9240466E2,1.909986E3,1.1484869E4,3.8747708E3,2.6143695E2,2.9681748E3,4.6098496E3,1.382792E4,1.0162887E2,1.808357E3,2.4178076E3,1.456963E3,1.717771E3,7.0003674E2],"tree_param":{"num_deleted":"0","num_feature":"13","num_nodes":"27","size_leaf_vector":"1"}},{"base_weights":[-3.7360408E-3,-3.4349173E-2,9.048257E-3,9.611223E-3,-5.0923746E-2,-2.1906175E-2,1.2528951E-2,-1.8978065E-2,-8.1401035E-2,-2.187544E-4,9.451929E-3,-7.502148E-2,-0E0,-4.3151524E-2,-0E0,-9.255725E-3,4.5716413E-3,-0E0,-5.0930683E-2],"categories":[],"categories_nodes":[],"categories_segments":[],"categories_sizes":[],"default_left":[0,1,0,0,0,0,1,0,0,0,0,0,0,0,0,0,0,0,0],"id":10,"left_children":[1,3,5,-1,7,-1,9,11,13,15,-1,17,-1,-1,-1,-1,-1,-1,-1],"loss_changes":[2.4852188E1,2.0232172E1,6.1626163E0,0E0,8.479851E0,0E0,7.1199284E0,1.0867052E1,1.5924301E1,4.950452E0,0E0,7.630348E0,0E0,0E0,0E0,0E0,0E0,0E0,0E0],"parents":[2147483647,0,0,1,1,2,2,4,4,6,6,7,7,8,8,9,9,11,11],"right_children":[2,4,6,-1,8,-1,10,12,14,16,-1,18,-1,-1,-1,-1,-1,-1,-1],"split_conditions":[8.8047034E-1,6.4712074E1,-4.133806E-1,9.611223E-3,-2.4877273E-1,-2.1906175E-2,6.37836E1,8.187386E-1,3.83682E-1,-1.9431351E-1,9.451929E-3,8.4989525E1,-0E0,-4.3151524E-2,-0E0,-9.255725E-3,4.5716413E-3,-0E0,-5.0930683E-2],"split_indices":[5,10,4,0,4,0,8,5,4,4,0,10,0,0,0,0,0,0,0],"split_type":[0,0,0,0,0,0,0,0,0,0,0,0,0,0,0,0,0,0,0],"sum_hessian":[5.9076215E4,1.8910068E4,4.0166145E4,3.2843188E3,1.5625749E4,1.0380991E3,3.9128047E4,8.746992E3,6.8787563E3,1.5463466E4,2.3664582E4,2.4328037E3,6.3141885E3,5.249033E3,1.6297231E3,7.118565E3,8.344901E3,1.1601664E3,1.2726372E3],"tree_param":{"num_deleted":"0","num_feature":"13","num_nodes":"19","size_leaf_vector":"1"}},{"base_weights":[-0E0,-2.4935735E-2,7.451047E-3,1.9089883E-3,-1.2774273E-2,-2.1566069E-3,2.1646446E-2,2.7696228E-2,-5.7156505E-3,-0E0,1.2541699E-2],"categories":[],"categories_nodes":[],"categories_segments":[],"categories_sizes":[],"default_left":[0,0,1,0,0,0,0,1,0,0,0],"id":11,"left_children":[1,3,5,-1,-1,-1,7,9,-1,-1,-1],"loss_changes":[1.1189791E1,4.738203E0,9.338953E0,0E0,0E0,0E0,6.1299267E0,4.191927E0,0E0,0E0,0E0],"parents":[2147483647,0,0,1,1,2,2,6,6,7,7],"right_children":[2,4,6,-1,-1,-1,8,10,-1,-1,-1],"split_conditions":[8.34E1,9.1433495E-1,-3.3666666E0,1.9089883E-3,-1.2774273E-2,-2.1566069E-3,5.779514E1,9.1433495E-1,-5.7156505E-3,-0E0,1.2541699E-2],"split_indices":[0,3,1,0,0,0,9,3,0,0,0],"split_type":[0,0,0,0,0,0,0,0,0,0,0],"sum_hessian":[5.905759E4,1.3896537E4,4.516105E4,8.4560376E2,1.3050934E4,2.1258691E4,2.3902361E4,2.2060266E4,1.8420953E3,6.339411E2,2.1426324E4],"tree_param":{"num_deleted":"0","num_feature":"13","num_nodes":"11","size_leaf_vector":"1"}},{"base_weights":[-1.1186389E-3,-2.5725339E-2,8.238192E-3,-8.348289E-3,-1.2712108E-1,-5.1040404E-2,4.935831E-3,1.5707675E-2,-1.0097239E-2,-0E0,-5.500525E-2,-4.120421E-2,-0E0,-6.6154078E-3,1.314116E-2],"categories":[],"categories_nodes":[],"categories_segments":[],"categories_sizes":[],"default_left":[0,0,0,0,0,0,0,0,0,0,0,0,0,0,0],"id":12,"left_children":[1,3,5,7,9,11,-1,13,-1,-1,-1,-1,-1,-1,-1],"loss_changes":[1.4819858E1,2.313944E1,7.4518223E0,7.275568E0,4.7073097E0,5.827963E0,0E0,3.9593308E0,0E0,0E0,0E0,0E0,0E0,0E0,0E0],"parents":[2147483647,0,0,1,1,2,2,3,3,4,4,5,5,7,7],"right_children":[2,4,6,8,10,12,-1,14,-1,-1,-1,-1,-1,-1,-1],"split_conditions":[8.7832254E-1,4.0913353E1,-1.2332891E1,4.997731E-1,1.04E2,6.2527943E1,4.935831E-3,7.417752E-1,-1.0097239E-2,-0E0,-5.500525E-2,-4.120421E-2,-0E0,-6.6154078E-3,1.314116E-2],"split_indices":[5,9,9,9,7,8,0,5,0,0,0,0,0,0,0],"split_type":[0,0,0,0,0,0,0,0,0,0,0,0,0,0,0],"sum_hessian":[5.9179957E4,1.8238912E4,4.0941047E4,1.6189322E4,2.0495908E3,1.5574215E3,3.9383625E4,5.0573545E3,1.1131968E4,6.1668827E1,1.987922E3,8.833927E2,6.740288E2,4.0782892E2,4.6495254E3],"tree_param":{"num_deleted":"0","num_feature":"13","num_nodes":"15","size_leaf_vector":"1"}},{"base_weights":[-0E0,-2.2108229E-2,5.8479533E-3,-0E0,-1.6996711E-2,1.3012473E-2,-1.3057998E-2,-2.6942925E-3,2.0482358E-2,6.956806E-3,-1.3960807E-2,3.3162557E-2,-0E0,-1.3286716E-2,4.3094512E-2,1.5166809E-2,-0E0,2.5877565E-2,-0E0],"categories":[],"categories_nodes":[],"categories_segments":[],"categories_sizes":[],"default_left":[0,0,1,0,0,1,1,0,0,0,0,0,0,0,1,0,0,0,0],"id":13,"left_children":[1,3,5,-1,-1,7,9,-1,11,13,-1,15,-1,-1,17,-1,-1,-1,-1],"loss_changes":[8.444991E0,5.301689E0,6.108385E0,0E0,0E0,6.127538E0,6.193863E0,0E0,7.5705767E0,5.9780874E0,0E0,3.969761E0,0E0,0E0,4.334248E0,0E0,0E0,0E0,0E0],"parents":[2147483647,0,0,1,1,2,2,5,5,6,6,8,8,9,9,11,11,14,14],"right_children":[2,4,6,-1,-1,8,10,-1,12,14,-1,16,-1,-1,18,-1,-1,-1,-1],"split_conditions":[6.1475906E0,5.9464006E0,9.400272E1,-0E0,-1.6996711E-2,1.319E3,1.039552E0,-2.6942925E-3,1.26E2,1.727E3,-1.3960807E-2,2.194E3,-0E0,-1.3286716E-2,2.179E3,1.5166809E-2,-0E0,2.5877565E-2,-0E0],"split_indices":[2,2,10,0,0,6,3,0,7,6,0,6,0,0,6,0,0,0,0],"split_type":[0,0,0,0,0,0,0,0,0,0,0,0,0,0,0,0,0,0,0],"sum_hessian":[5.9044367E4,1.4064755E4,4.4979613E4,7.3777163E3,6.6870386E3,3.5192195E4,9.787417E3,7.2067324E3,2.7985463E4,3.5398723E3,6.2475444E3,1.7521406E4,1.0464058E4,8.03906E2,2.7359663E3,1.6121451E4,1.3999541E3,2.2113467E3,5.2461957E2],"tree_param":{"num_deleted":"0","num_feature":"13","num_nodes":"19","size_leaf_vector":"1"}},{"base_weights":[-0E0],"categories":[],"categories_nodes":[],"categories_segments":[],"categories_sizes":[],"default_left":[0],"id":14,"left_children":[-1],"loss_changes":[0E0],"parents":[2147483647],"right_children":[-1],"split_conditions":[-0E0],"split_indices":[0],"split_type":[0],"sum_hessian":[5.9044348E4],"tree_param":{"num_deleted":"0","num_feature":"13","num_nodes":"1","size_leaf_vector":"1"}},{"base_weights":[-2.334154E-3,3.457597E-3,-5.4118778E-3,-8.2085945E-4,7.5558983E-3],"categories":[],"categories_nodes":[],"categories_segments":[],"categories_sizes":[],"default_left":[0,0,0,0,0],"id":15,"left_children":[1,3,-1,-1,-1],"loss_changes":[4.5191135E0,4.1206756E0,0E0,0E0,0E0],"parents":[2147483647,0,0,1,1],"right_children":[2,4,-1,-1,-1],"split_conditions":[2.99579E1,1.22E2,-5.4118778E-3,-8.2085945E-4,7.5558983E-3],"split_indices":[9,7,0,0,0],"split_type":[0,0,0,0,0],"sum_hessian":[5.914856E4,3.5098543E4,2.4050014E4,2.2724951E4,1.2373592E4],"tree_param":{"num_deleted":"0","num_feature":"13","num_nodes":"5","size_leaf_vector":"1"}},{"base_weights":[-5.349674E-4,-9.822059E-3,1.3627514E-2,-8.6144824E-4,-4.255494E-2,-7.750934E-3,3.0339992E-2,-3.480575E-2,2.8013932E-3,-7.292598E-3,3.9237596E-2,-7.1942925E-2,-0E0,-1.0401005E-2,9.346868E-3,-0E0,1.7533373E-2,-0E0,-3.5098255E-2,9.9389125E-3,-0E0,2.8803472E-3,-4.619232E-2,-0E0,-9.758175E-2,-6.1793573E-2,-0E0],"categories":[],"categories_nodes":[],"categories_segments":[],"categories_sizes":[],"default_left":[0,0,0,0,0,0,0,0,0,0,1,0,0,0,1,0,0,0,0,0,0,0,0,0,0,0,0],"id":16,"left_children":[1,3,5,7,-1,-1,9,11,13,-1,15,17,-1,-1,19,-1,-1,-1,-1,-1,21,-1,23,-1,25,-1,-1],"loss_changes":[7.532882E0,2.6262688E1,1.2136537E1,6.6199946E0,0E0,0E0,7.9489613E0,7.269253E0,4.712205E0,0E0,4.393339E0,4.6831923E0,0E0,0E0,4.9748554E0,0E0,0E0,0E0,0E0,0E0,6.7416406E0,0E0,9.673609E0,0E0,4.50961E0,0E0,0E0],"parents":[2147483647,0,0,1,1,2,2,3,3,6,6,7,7,8,8,10,10,11,11,14,14,20,20,22,22,24,24],"right_children":[2,4,6,8,-1,-1,10,12,14,-1,16,18,-1,-1,20,-1,-1,-1,-1,-1,22,-1,24,-1,26,-1,-1],"split_conditions":[9.3399054E-1,5.4777702E1,1.7299963E1,8.3E1,-4.255494E-2,-7.750934E-3,7.95E1,1E0,8.106209E-1,-7.292598E-3,1.09E2,8.2E1,-0E0,-1.0401005E-2,1.18E2,-0E0,1.7533373E-2,-0E0,-3.5098255E-2,9.9389125E-3,1E0,2.8803472E-3,8.53E1,-0E0,9.0301555E-1,-6.1793573E-2,-0E0],"split_indices":[5,9,9,0,0,0,0,11,5,0,7,7,0,0,7,0,0,0,0,0,11,0,0,0,5,0,0],"split_type":[0,0,0,0,0,0,0,0,0,0,0,0,0,0,0,0,0,0,0,0,0,0,0,0,0,0,0],"sum_hessian":[5.9078168E4,3.853769E4,2.0540479E4,3.5956953E4,2.5807385E3,5.557266E3,1.4983213E4,5.2254434E3,3.0731508E4,1.1482446E3,1.3834968E4,2.5802742E3,2.645169E3,3.766243E3,2.6965266E4,4.9797025E2,1.3336998E4,2.617975E2,2.3184768E3,1.1800117E4,1.5165148E4,1.2369927E4,2.7952212E3,1.2008468E3,1.5943744E3,7.865568E2,8.0781757E2],"tree_param":{"num_deleted":"0","num_feature":"13","num_nodes":"27","size_leaf_vector":"1"}},{"base_weights":[-3.026494E-3,-1.0271725E-2,1.641036E-3,-0E0,3.9966907E-2,4.1968038E-4,-3.5042215E-2,9.680208E-2,-0E0,-0E0,4.6201494E-2],"categories":[],"categories_nodes":[],"categories_segments":[],"categories_sizes":[],"default_left":[0,0,0,0,0,0,0,1,0,0,0],"id":17,"left_children":[1,-1,3,5,7,-1,-1,9,-1,-1,-1],"loss_changes":[7.853415E0,0E0,4.3366475E0,7.0941005E0,1.0614107E1,0E0,0E0,4.6575766E0,0E0,0E0,0E0],"parents":[2147483647,0,0,2,2,3,3,4,4,7,7],"right_children":[2,-1,4,6,8,-1,-1,10,-1,-1,-1],"split_conditions":[6.105344E0,-1.0271725E-2,3.83682E-1,3.5338488E-1,4.5967406E-1,4.1968038E-4,-3.5042215E-2,6.187095E0,-0E0,-0E0,4.6201494E-2],"split_indices":[2,0,4,4,4,0,0,2,0,0,0],"split_type":[0,0,0,0,0,0,0,0,0,0,0],"sum_hessian":[5.8946504E4,1.245557E4,4.6490934E4,4.3759258E4,2.731673E3,4.2904383E4,8.548767E2,1.547162E3,1.1845111E3,1.3226366E2,1.4148983E3],"tree_param":{"num_deleted":"0","num_feature":"13","num_nodes":"11","size_leaf_vector":"1"}},{"base_weights":[-2.1186866E-5,-2.5979636E-2,9.683393E-4,-1.7780148E-3,2.2569077E-2,-8.767112E-3,1.9442612E-2,3.7760187E-2,-0E0,-0E0,-9.630799E-3,1.545186E-2,-0E0,1.8916244E-2,-0E0],"categories":[],"categories_nodes":[],"categories_segments":[],"categories_sizes":[],"default_left":[0,0,0,0,0,0,1,1,0,0,0,0,0,0,0],"id":18,"left_children":[1,-1,3,5,7,9,11,13,-1,-1,-1,-1,-1,-1,-1],"loss_changes":[8.079104E0,0E0,4.7883797E0,6.438219E0,5.133854E0,5.1809173E0,5.042494E0,4.4423943E0,0E0,0E0,0E0,0E0,0E0,0E0,0E0],"parents":[2147483647,0,0,2,2,3,3,4,4,5,5,6,6,7,7],"right_children":[2,-1,4,6,8,10,12,14,-1,-1,-1,-1,-1,-1,-1],"split_conditions":[7.9E1,-2.5979636E-2,6.895458E0,8.88E1,1E0,8.446456E1,9.630373E1,2.24E3,-0E0,-0E0,-9.630799E-3,1.545186E-2,-0E0,1.8916244E-2,-0E0],"split_indices":[0,0,2,0,11,10,10,6,0,0,0,0,0,0,0],"split_type":[0,0,0,0,0,0,0,0,0,0,0,0,0,0,0],"sum_hessian":[5.9063477E4,1.837486E3,5.7225992E4,4.808031E4,9.145681E3,3.8560953E4,9.519357E3,6.828138E3,2.3175422E3,2.4588834E4,1.3972119E4,5.734431E3,3.784926E3,6.3063174E3,5.2182086E2],"tree_param":{"num_deleted":"0","num_feature":"13","num_nodes":"15","size_leaf_vector":"1"}},{"base_weights":[-0E0,-2.197861E-2,4.928829E-3,-2.4234853E-3,-7.618504E-2,8.595855E-3,-2.7009122E-2,-0E0,-3.8581096E-2,-0E0,3.1664982E-2,-0E0,-3.9399967E-2,1.28615685E-2,-9.2154285E-3,-0E0,5.8004282E-2,-8.756743E-3,6.482426E-2,-0E0,1.5272499E-2,2.7687578E-3,-4.7205035E-2,6.750925E-2,-0E0,-0E0,1.204908E-1,1.42717E-2,-1.6963858E-2,1.8727262E-2,-3.3192683E-4,-1.3158701E-1,-0E0,-0E0,2.9571068E-2,6.791045E-2,-0E0,-1.5021942E-2,1.2525775E-2,-2.8624859E-2,6.6324575E-3,-1.632486E-1,-0E0,-0E0,2.8425056E-2,-0E0,-7.219577E-2],"categories":[],"categories_nodes":[],"categories_segments":[],"categories_sizes":[],"default_left":[0,0,0,0,0,0,0,0,0,0,0,0,0,0,0,0,0,0,0,0,0,0,0,0,0,0,0,0,0,0,0,0,0,0,0,0,0,0,0,0,0,0,0,0,0,0,0],"id":19,"left_children":[1,3,5,-1,7,9,11,-1,-1,13,15,17,-1,19,21,-1,23,-1,25,27,-1,29,31,33,-1,-1,35,37,-1,-1,39,41,-1,-1,-1,-1,-1,-1,-1,-1,43,45,-1,-1,-1,-1,-1],"loss_changes":[7.364678E0,5.6264415E0,4.208295E0,0E0,4.754424E0,6.951167E0,8.352066E0,0E0,0E0,4.155555E0,1.1329897E1,3.9642015E0,0E0,6.386076E0,1.0758579E1,0E0,5.2629604E0,0E0,5.39087E0,6.983614E0,0E0,4.708287E0,1.619883E1,4.6937256E0,0E0,0E0,6.535407E0,6.0089397E0,0E0,0E0,9.132379E0,8.061388E0,0E0,0E0,0E0,0E0,0E0,0E0,0E0,0E0,5.2869864E0,3.982727E0,0E0,0E0,0E0,0E0,0E0],"parents":[2147483647,0,0,1,1,2,2,4,4,5,5,6,6,9,9,10,10,11,11,13,13,14,14,16,16,18,18,19,19,21,21,22,22,23,23,26,26,27,27,30,30,31,31,40,40,41,41],"right_children":[2,4,6,-1,8,10,12,-1,-1,14,16,18,-1,20,22,-1,24,-1,26,28,-1,30,32,34,-1,-1,36,38,-1,-1,40,42,-1,-1,-1,-1,-1,-1,-1,-1,44,46,-1,-1,-1,-1,-1],"split_conditions":[8.597508E-1,3.416053E1,3.5338488E-1,-2.4234853E-3,-4.0013796E-1,9.657854E-1,9.3728584E-1,-0E0,-3.8581096E-2,2.4644428E1,2.689721E1,9.060763E-1,-3.9399967E-2,-1.9893113E-1,-1.2169897E-1,-0E0,1.0425309E0,-8.756743E-3,3.83682E-1,9.2129374E-1,1.5272499E-2,-3.5661092E-1,1.5650198E-1,-3.829021E-1,-0E0,-0E0,4.7235277E-1,-3.9715847E-1,-1.6963858E-2,1.8727262E-2,-3.1359833E-1,7.186243E0,-0E0,-0E0,2.9571068E-2,6.791045E-2,-0E0,-1.5021942E-2,1.2525775E-2,-2.8624859E-2,6.9399667E0,2.9179543E1,-0E0,-0E0,2.8425056E-2,-0E0,-7.219577E-2],"split_indices":[5,9,4,0,4,5,5,0,0,9,9,5,0,4,4,0,5,0,4,5,0,4,4,4,0,0,4,4,0,0,4,2,0,0,0,0,0,0,0,0,2,9,0,0,0,0,0],"split_type":[0,0,0,0,0,0,0,0,0,0,0,0,0,0,0,0,0,0,0,0,0,0,0,0,0,0,0,0,0,0,0,0,0,0,0,0,0,0,0,0,0,0,0,0,0,0,0],"sum_hessian":[5.909547E4,1.2855671E4,4.6239797E4,1.0942646E4,1.9130249E3,4.339213E4,2.8476667E3,2.3467062E2,1.6783542E3,3.3318992E4,1.0073139E4,1.8316512E3,1.01601544E3,1.628061E4,1.703838E4,3.7470208E3,6.3261177E3,1.0804808E3,7.511704E2,1.0118116E4,6.162494E3,1.1660584E4,5.377796E3,5.8087886E3,5.1732916E2,2.0626994E2,5.4490045E2,7.115017E3,3.0030986E3,2.1230208E3,9.537563E3,1.5738429E3,3.8039531E3,1.2624254E2,5.682546E3,4.696437E2,7.525673E1,7.755133E2,6.339504E3,1.6505243E3,7.887039E3,1.3034352E3,2.7040775E2,6.834487E3,1.0525525E3,1.282344E2,1.1752008E3],"tree_param":{"num_deleted":"0","num_feature":"13","num_nodes":"47","size_leaf_vector":"1"}},{"base_weights":[-4.428889E-3,-3.0756759E-2,-0E0,-1.7718872E-2,-0E0,-2.1054272E-3,2.2697955E-2,3.788526E-2,-0E0,-0E0,6.256355E-2,3.1893544E-2,-0E0],"categories":[],"categories_nodes":[],"categories_segments":[],"categories_sizes":[],"default_left":[0,0,0,0,0,0,1,0,0,0,1,0,0],"id":20,"left_children":[1,3,5,-1,-1,-1,7,9,-1,-1,11,-1,-1],"loss_changes":[7.187452E0,6.423558E0,6.1918283E0,0E0,0E0,0E0,5.225157E0,8.055832E0,0E0,0E0,5.9707756E0,0E0,0E0],"parents":[2147483647,0,0,1,1,2,2,6,6,7,7,10,10],"right_children":[2,4,6,-1,-1,-1,8,10,-1,-1,12,-1,-1],"split_conditions":[8.40468E-1,3.83682E-1,8.87E1,-1.7718872E-2,-0E0,-2.1054272E-3,1.0130935E2,8.9040506E-1,-0E0,-0E0,1.966E3,3.1893544E-2,-0E0],"split_indices":[5,4,0,0,0,0,10,5,0,0,6,0,0],"split_type":[0,0,0,0,0,0,0,0,0,0,0,0,0],"sum_hessian":[5.898626E4,8.76057E3,5.022569E4,7.4519883E3,1.3085817E3,4.0451438E4,9.774255E3,7.1093843E3,2.6648706E3,2.4834258E3,4.6259585E3,3.7569602E3,8.689985E2],"tree_param":{"num_deleted":"0","num_feature":"13","num_nodes":"13","size_leaf_vector":"1"}},{"base_weights":[-2.8822036E-3],"categories":[],"categories_nodes":[],"categories_segments":[],"categories_sizes":[],"default_left":[0],"id":21,"left_children":[-1],"loss_changes":[0E0],"parents":[2147483647],"right_children":[-1],"split_conditions":[-1.1518832E-3],"split_indices":[0],"split_type":[0],"sum_hessian":[5.8951164E4],"tree_param":{"num_deleted":"0","num_feature":"13","num_nodes":"1","size_leaf_vector":"1"}},{"base_weights":[-0E0],"categories":[],"categories_nodes":[],"categories_segments":[],"categories_sizes":[],"default_left":[0],"id":22,"left_children":[-1],"loss_changes":[0E0],"parents":[2147483647],"right_children":[-1],"split_conditions":[-0E0],"split_indices":[0],"split_type":[0],"sum_hessian":[5.905623E4],"tree_param":{"num_deleted":"0","num_feature":"13","num_nodes":"1","size_leaf_vector":"1"}},{"base_weights":[3.498017E-5],"categories":[],"categories_nodes":[],"categories_segments":[],"categories_sizes":[],"default_left":[0],"id":23,"left_children":[-1],"loss_changes":[0E0],"parents":[2147483647],"right_children":[-1],"split_conditions":[1.3979952E-5],"split_indices":[0],"split_type":[0],"sum_hessian":[5.9057004E4],"tree_param":{"num_deleted":"0","num_feature":"13","num_nodes":"1","size_leaf_vector":"1"}},{"base_weights":[-0E0],"categories":[],"categories_nodes":[],"categories_segments":[],"categories_sizes":[],"default_left":[0],"id":24,"left_children":[-1],"loss_changes":[0E0],"parents":[2147483647],"right_children":[-1],"split_conditions":[-0E0],"split_indices":[0],"split_type":[0],"sum_hessian":[5.9085355E4],"tree_param":{"num_deleted":"0","num_feature":"13","num_nodes":"1","size_leaf_vector":"1"}},{"base_weights":[-5.890497E-4],"categories":[],"categories_nodes":[],"categories_segments":[],"categories_sizes":[],"default_left":[0],"id":25,"left_children":[-1],"loss_changes":[0E0],"parents":[2147483647],"right_children":[-1],"split_conditions":[-2.3541586E-4],"split_indices":[0],"split_type":[0],"sum_hessian":[5.8937516E4],"tree_param":{"num_deleted":"0","num_feature":"13","num_nodes":"1","size_leaf_vector":"1"}},{"base_weights":[-1.7021571E-3,-4.144346E-2,-0E0,-3.227655E-2,-0E0],"categories":[],"categories_nodes":[],"categories_segments":[],"categories_sizes":[],"default_left":[0,0,0,0,0],"id":26,"left_children":[1,3,-1,-1,-1],"loss_changes":[4.6617208E0,8.354794E0,0E0,0E0,0E0],"parents":[2147483647,0,0,1,1],"right_children":[2,4,-1,-1,-1],"split_conditions":[-4.133806E-1,9.211248E1,-0E0,-3.227655E-2,-0E0],"split_indices":[4,10,0,0,0],"split_type":[0,0,0,0,0],"sum_hessian":[5.8953562E4,2.751999E3,5.6201562E4,1.9601769E3,7.918222E2],"tree_param":{"num_deleted":"0","num_feature":"13","num_nodes":"5","size_leaf_vector":"1"}},{"base_weights":[-1.5054012E-3,-1.8684968E-2,-0E0],"categories":[],"categories_nodes":[],"categories_segments":[],"categories_sizes":[],"default_left":[0,0,0],"id":27,"left_children":[1,-1,-1],"loss_changes":[4.016723E0,0E0,0E0],"parents":[2147483647,0,0],"right_children":[2,-1,-1],"split_conditions":[7.9E1,-1.8684968E-2,-0E0],"split_indices":[0,0,0],"split_type":[0,0,0],"sum_hessian":[5.903065E4,1.8371761E3,5.7193473E4],"tree_param":{"num_deleted":"0","num_feature":"13","num_nodes":"3","size_leaf_vector":"1"}},{"base_weights":[-0E0],"categories":[],"categories_nodes":[],"categories_segments":[],"categories_sizes":[],"default_left":[0],"id":28,"left_children":[-1],"loss_changes":[0E0],"parents":[2147483647],"right_children":[-1],"split_conditions":[-0E0],"split_indices":[0],"split_type":[0],"sum_hessian":[5.8935566E4],"tree_param":{"num_deleted":"0","num_feature":"13","num_nodes":"1","size_leaf_vector":"1"}},{"base_weights":[1.4919747E-3],"categories":[],"categories_nodes":[],"categories_segments":[],"categories_sizes":[],"default_left":[0],"id":29,"left_children":[-1],"loss_changes":[0E0],"parents":[2147483647],"right_children":[-1],"split_conditions":[5.962731E-4],"split_indices":[0],"split_type":[0],"sum_hessian":[5.9015605E4],"tree_param":{"num_deleted":"0","num_feature":"13","num_nodes":"1","size_leaf_vector":"1"}},{"base_weights":[-3.8792877E-4],"categories":[],"categories_nodes":[],"categories_segments":[],"categories_sizes":[],"default_left":[0],"id":30,"left_children":[-1],"loss_changes":[0E0],"parents":[2147483647],"right_children":[-1],"split_conditions":[-1.5503715E-4],"split_indices":[0],"split_type":[0],"sum_hessian":[5.9071305E4],"tree_param":{"num_deleted":"0","num_feature":"13","num_nodes":"1","size_leaf_vector":"1"}},{"base_weights":[6.3363224E-4,8.806288E-3,-4.1690846E-3,-8.507734E-3,6.072429E-3],"categories":[],"categories_nodes":[],"categories_segments":[],"categories_sizes":[],"default_left":[0,0,0,0,0],"id":31,"left_children":[1,3,-1,-1,-1],"loss_changes":[5.2400336E0,6.819234E0,0E0,0E0,0E0],"parents":[2147483647,0,0,1,1],"right_children":[2,4,-1,-1,-1],"split_conditions":[1.27E2,1.276E3,-4.1690846E-3,-8.507734E-3,6.072429E-3],"split_indices":[7,6,0,0,0],"split_type":[0,0,0,0,0],"sum_hessian":[5.9018535E4,3.742237E4,2.1596164E4,4.698246E3,3.2724123E4],"tree_param":{"num_deleted":"0","num_feature":"13","num_nodes":"5","size_leaf_vector":"1"}},{"base_weights":[-5.1533E-4],"categories":[],"categories_nodes":[],"categories_segments":[],"categories_sizes":[],"default_left":[0],"id":32,"left_children":[-1],"loss_changes":[0E0],"parents":[2147483647],"right_children":[-1],"split_conditions":[-2.0595352E-4],"split_indices":[0],"split_type":[0],"sum_hessian":[5.9065168E4],"tree_param":{"num_deleted":"0","num_feature":"13","num_nodes":"1","size_leaf_vector":"1"}},{"base_weights":[-6.017788E-4,-8.452904E-3,9.624659E-3,8.80369E-3,-6.871827E-3,6.8888813E-3,-3.5727948E-2,-3.3705816E-2,-0E0],"categories":[],"categories_nodes":[],"categories_segments":[],"categories_sizes":[],"default_left":[0,0,0,0,0,0,0,0,0],"id":33,"left_children":[1,3,5,-1,-1,-1,7,-1,-1],"loss_changes":[4.6698327E0,9.597487E0,6.3972435E0,0E0,0E0,0E0,5.461013E0,0E0,0E0],"parents":[2147483647,0,0,1,1,2,2,6,6],"right_children":[2,4,6,-1,-1,-1,8,-1,-1],"split_conditions":[9.3008333E-1,1.04E2,1.018155E0,8.80369E-3,-6.871827E-3,6.8888813E-3,1.37E2,-3.3705816E-2,-0E0],"split_indices":[5,7,5,0,0,0,7,0,0],"split_type":[0,0,0,0,0,0,0,0,0],"sum_hessian":[5.9012414E4,3.708062E4,2.1931793E4,6.5418965E3,3.0538727E4,2.0072281E4,1.8595114E3,1.0508508E3,8.0866064E2],"tree_param":{"num_deleted":"0","num_feature":"13","num_nodes":"9","size_leaf_vector":"1"}},{"base_weights":[-0E0],"categories":[],"categories_nodes":[],"categories_segments":[],"categories_sizes":[],"default_left":[0],"id":34,"left_children":[-1],"loss_changes":[0E0],"parents":[2147483647],"right_children":[-1],"split_conditions":[-0E0],"split_indices":[0],"split_type":[0],"sum_hessian":[5.9034207E4],"tree_param":{"num_deleted":"0","num_feature":"13","num_nodes":"1","size_leaf_vector":"1"}},{"base_weights":[-0E0],"categories":[],"categories_nodes":[],"categories_segments":[],"categories_sizes":[],"default_left":[0],"id":35,"left_children":[-1],"loss_changes":[0E0],"parents":[2147483647],"right_children":[-1],"split_conditions":[-0E0],"split_indices":[0],"split_type":[0],"sum_hessian":[5.8992215E4],"tree_param":{"num_deleted":"0","num_feature":"13","num_nodes":"1","size_leaf_vector":"1"}},{"base_weights":[-0E0],"categories":[],"categories_nodes":[],"categories_segments":[],"categories_sizes":[],"default_left":[0],"id":36,"left_children":[-1],"loss_changes":[0E0],"parents":[2147483647],"right_children":[-1],"split_conditions":[-0E0],"split_indices":[0],"split_type":[0],"sum_hessian":[5.9050156E4],"tree_param":{"num_deleted":"0","num_feature":"13","num_nodes":"1","size_leaf_vector":"1"}},{"base_weights":[2.002006E-3],"categories":[],"categories_nodes":[],"categories_segments":[],"categories_sizes":[],"default_left":[0],"id":37,"left_children":[-1],"loss_changes":[0E0],"parents":[2147483647],"right_children":[-1],"split_conditions":[8.0010894E-4],"split_indices":[0],"split_type":[0],"sum_hessian":[5.8890547E4],"tree_param":{"num_deleted":"0","num_feature":"13","num_nodes":"1","size_leaf_vector":"1"}},{"base_weights":[-0E0,1.4498849E-2,-4.996803E-3,-0E0,3.8421806E-2,8.4004056E-4,-1.8339423E-2,-0E0,5.8751207E-2,-4.872739E-2,-0E0,-0E0,2.7315712E-2,-6.339441E-2,-0E0,6.502522E-3,-2.0733079E-2,-0E0,-7.879803E-2,-4.077673E-2,-0E0,-0E0,-9.548231E-2,-0E0,-2.326355E-2,-0E0,-1.2278878E-1,-5.157762E-2,-0E0],"categories":[],"categories_nodes":[],"categories_segments":[],"categories_sizes":[],"default_left":[0,0,0,0,1,0,0,0,0,0,0,0,0,1,0,0,0,0,0,0,0,0,1,0,0,0,0,0,0],"id":38,"left_children":[1,3,5,-1,7,-1,9,-1,11,13,15,-1,-1,17,-1,-1,19,-1,21,23,-1,-1,25,-1,-1,-1,27,-1,-1],"loss_changes":[4.265921E0,7.764725E0,5.2625847E0,0E0,6.649317E0,0E0,9.617235E0,0E0,4.603058E0,6.710189E0,4.1241875E0,0E0,0E0,9.039227E0,0E0,0E0,4.0914164E0,0E0,7.0650406E0,4.549892E0,0E0,0E0,8.406303E0,0E0,0E0,0E0,4.158333E0,0E0,0E0],"parents":[2147483647,0,0,1,1,2,2,4,4,6,6,8,8,9,9,10,10,13,13,16,16,18,18,19,19,22,22,26,26],"right_children":[2,4,6,-1,8,-1,10,-1,12,14,16,-1,-1,18,-1,-1,20,-1,22,24,-1,-1,26,-1,-1,-1,28,-1,-1],"split_conditions":[6.676779E1,-2.1338725E-1,-1.8115142E-1,-0E0,1.0065893E0,8.4004056E-4,1.4916703E-1,-0E0,7.82E1,8.99E1,3.029141E-1,-0E0,2.7315712E-2,1.07E2,-0E0,6.502522E-3,1.0695026E0,-0E0,5.95709E1,8.12E1,-0E0,-0E0,9.8057455E-1,-0E0,-2.326355E-2,-0E0,1.51E2,-5.157762E-2,-0E0],"split_indices":[10,4,4,0,3,0,4,0,0,0,4,0,0,7,0,0,3,0,8,0,0,0,3,0,0,0,7,0,0],"split_type":[0,0,0,0,0,0,0,0,0,0,0,0,0,0,0,0,0,0,0,0,0,0,0,0,0,0,0,0,0],"sum_hessian":[5.9028914E4,1.4993758E4,4.4035156E4,7.6517417E3,7.3420166E3,2.5512357E4,1.8522797E4,2.3108892E3,5.0311274E3,6.6212974E3,1.1901499E4,3.4447537E2,4.686652E3,5.5563257E3,1.0649716E3,6.2655283E3,5.635971E3,5.259719E2,5.030354E3,3.8719312E3,1.7640399E3,8.491243E2,4.1812295E3,6.6047614E2,3.211455E3,1.1197448E3,3.0614849E3,3.0151907E3,4.629401E1],"tree_param":{"num_deleted":"0","num_feature":"13","num_nodes":"29","size_leaf_vector":"1"}},{"base_weights":[-1.0280758E-3],"categories":[],"categories_nodes":[],"categories_segments":[],"categories_sizes":[],"default_left":[0],"id":39,"left_children":[-1],"loss_changes":[0E0],"parents":[2147483647],"right_children":[-1],"split_conditions":[-4.1087426E-4],"split_indices":[0],"split_type":[0],"sum_hessian":[5.9004016E4],"tree_param":{"num_deleted":"0","num_feature":"13","num_nodes":"1","size_leaf_vector":"1"}},{"base_weights":[1.6699485E-5],"categories":[],"categories_nodes":[],"categories_segments":[],"categories_sizes":[],"default_left":[0],"id":40,"left_children":[-1],"loss_changes":[0E0],"parents":[2147483647],"right_children":[-1],"split_conditions":[6.67401E-6],"split_indices":[0],"split_type":[0],"sum_hessian":[5.9077875E4],"tree_param":{"num_deleted":"0","num_feature":"13","num_nodes":"1","size_leaf_vector":"1"}},{"base_weights":[-0E0],"categories":[],"categories_nodes":[],"categories_segments":[],"categories_sizes":[],"default_left":[0],"id":41,"left_children":[-1],"loss_changes":[0E0],"parents":[2147483647],"right_children":[-1],"split_conditions":[-0E0],"split_indices":[0],"split_type":[0],"sum_hessian":[5.907251E4],"tree_param":{"num_deleted":"0","num_feature":"13","num_nodes":"1","size_leaf_vector":"1"}},{"base_weights":[-0E0],"categories":[],"categories_nodes":[],"categories_segments":[],"categories_sizes":[],"default_left":[0],"id":42,"left_children":[-1],"loss_changes":[0E0],"parents":[2147483647],"right_children":[-1],"split_conditions":[-0E0],"split_indices":[0],"split_type":[0],"sum_hessian":[5.9067332E4],"tree_param":{"num_deleted":"0","num_feature":"13","num_nodes":"1","size_leaf_vector":"1"}},{"base_weights":[-0E0,-1.3016521E-2,7.477781E-3,-1.4064372E-2,-0E0,-2.9309249E-2,1.0786445E-2,2.5597747E-2,-1.2144286E-2,-5.52912E-4,7.6385685E-3,-0E0,2.290498E-2,-2.6637467E-2,2.0350493E-2,-0E0,-2.528913E-2,7.303049E-4,-4.2096045E-2,9.549945E-2,-3.7769151E-3,1.1746843E-2,-2.1309389E-2,-0E0,-2.2032162E-2,-0E0,1.3133408E-1,-2.298301E-3,1.1707608E-2,6.179932E-2,-0E0],"categories":[],"categories_nodes":[],"categories_segments":[],"categories_sizes":[],"default_left":[0,0,0,0,0,0,0,0,0,0,0,0,0,0,0,0,0,0,1,0,0,0,0,0,0,0,0,0,0,0,0],"id":43,"left_children":[1,3,5,-1,7,-1,9,11,13,15,-1,-1,-1,17,19,21,-1,-1,23,25,-1,27,-1,-1,-1,-1,29,-1,-1,-1,-1],"loss_changes":[5.903083E0,5.7043486E0,5.6142173E0,0E0,4.392536E0,0E0,4.6229997E0,6.136406E0,5.6257257E0,4.4873085E0,0E0,0E0,0E0,6.670913E0,1.0282738E1,4.112874E0,0E0,0E0,6.3637896E0,7.2564E0,0E0,4.61361E0,0E0,0E0,0E0,0E0,5.427328E0,0E0,0E0,0E0,0E0],"parents":[2147483647,0,0,1,1,2,2,4,4,6,6,7,7,8,8,9,9,13,13,14,14,15,15,18,18,19,19,21,21,26,26],"right_children":[2,4,6,-1,8,-1,10,12,14,16,-1,-1,-1,18,20,22,-1,-1,24,26,-1,28,-1,-1,-1,-1,30,-1,-1,-1,-1],"split_conditions":[8.49E1,-2.2836855E-1,7.5721747E-1,-1.4064372E-2,-1.3479906E-1,-2.9309249E-2,1.581E3,6.503558E1,3.9085162E-1,9.293844E1,7.6385685E-3,-0E0,2.290498E-2,8.03E1,4.5967406E-1,2.8480148E-1,-2.528913E-2,7.303049E-4,1.175E3,7.9233366E-1,-3.7769151E-3,-3.1062183E-1,-2.1309389E-2,-0E0,-2.2032162E-2,-0E0,9.6668434E-1,-2.298301E-3,1.1707608E-2,6.179932E-2,-0E0],"split_indices":[0,4,5,0,4,0,6,10,4,10,0,0,0,0,4,4,0,0,6,5,0,4,0,0,0,0,5,0,0,0,0],"split_type":[0,0,0,0,0,0,0,0,0,0,0,0,0,0,0,0,0,0,0,0,0,0,0,0,0,0,0,0,0,0,0],"sum_hessian":[5.912068E4,2.2757951E4,3.636273E4,7.6663394E3,1.5091611E4,5.85569E2,3.577716E4,4.169751E3,1.092186E4,1.1779187E4,2.3997975E4,1.5191494E3,2.6506016E3,8.9809375E3,1.9409224E3,1.0719298E4,1.0598889E3,1.6606774E3,7.3202603E3,1.1483427E3,7.925797E2,9.813643E3,9.0565497E2,9.836498E2,6.336611E3,1.495466E2,9.987961E2,3.030441E3,6.7832017E3,9.302824E2,6.851367E1],"tree_param":{"num_deleted":"0","num_feature":"13","num_nodes":"31","size_leaf_vector":"1"}},{"base_weights":[-0E0],"categories":[],"categories_nodes":[],"categories_segments":[],"categories_sizes":[],"default_left":[0],"id":44,"left_children":[-1],"loss_changes":[0E0],"parents":[2147483647],"right_children":[-1],"split_conditions":[-0E0],"split_indices":[0],"split_type":[0],"sum_hessian":[5.8927746E4],"tree_param":{"num_deleted":"0","num_feature":"13","num_nodes":"1","size_leaf_vector":"1"}},{"base_weights":[-1.5535875E-3,-2.5022248E-2,5.322489E-4,-3.9995447E-2,-0E0,-1.1385116E-3,-3.2927103E-2,1.9391367E-2,-1.5681636E-2],"categories":[],"categories_nodes":[],"categories_segments":[],"categories_sizes":[],"default_left":[1,0,0,0,0,0,0,0,0],"id":45,"left_children":[1,3,-1,5,7,-1,-1,-1,-1],"loss_changes":[5.5796404E0,5.29098E0,0E0,5.0520325E0,4.8081036E0,0E0,0E0,0E0,0E0],"parents":[2147483647,0,0,1,1,3,3,4,4],"right_children":[2,4,-1,6,8,-1,-1,-1,-1],"split_conditions":[1.319E3,9.657854E-1,5.322489E-4,8.62E1,1.0019909E0,-1.1385116E-3,-3.2927103E-2,1.9391367E-2,-1.5681636E-2],"split_indices":[6,5,0,0,5,0,0,0,0],"split_type":[0,0,0,0,0,0,0,0,0],"sum_hessian":[5.8960043E4,8.935494E3,5.002455E4,6.767501E3,2.167993E3,4.4810195E3,2.2864817E3,1.509849E3,6.581439E2],"tree_param":{"num_deleted":"0","num_feature":"13","num_nodes":"9","size_leaf_vector":"1"}},{"base_weights":[-6.5431406E-4],"categories":[],"categories_nodes":[],"categories_segments":[],"categories_sizes":[],"default_left":[0],"id":46,"left_children":[-1],"loss_changes":[0E0],"parents":[2147483647],"right_children":[-1],"split_conditions":[-2.61499E-4],"split_indices":[0],"split_type":[0],"sum_hessian":[5.909464E4],"tree_param":{"num_deleted":"0","num_feature":"13","num_nodes":"1","size_leaf_vector":"1"}},{"base_weights":[4.057325E-3],"categories":[],"categories_nodes":[],"categories_segments":[],"categories_sizes":[],"default_left":[0],"id":47,"left_children":[-1],"loss_changes":[0E0],"parents":[2147483647],"right_children":[-1],"split_conditions":[1.6215247E-3],"split_indices":[0],"split_type":[0],"sum_hessian":[5.887886E4],"tree_param":{"num_deleted":"0","num_feature":"13","num_nodes":"1","size_leaf_vector":"1"}},{"base_weights":[-0E0],"categories":[],"categories_nodes":[],"categories_segments":[],"categories_sizes":[],"default_left":[0],"id":48,"left_children":[-1],"loss_changes":[0E0],"parents":[2147483647],"right_children":[-1],"split_conditions":[-0E0],"split_indices":[0],"split_type":[0],"sum_hessian":[5.8972414E4],"tree_param":{"num_deleted":"0","num_feature":"13","num_nodes":"1","size_leaf_vector":"1"}},{"base_weights":[-0E0],"categories":[],"categories_nodes":[],"categories_segments":[],"categories_sizes":[],"default_left":[0],"id":49,"left_children":[-1],"loss_changes":[0E0],"parents":[2147483647],"right_children":[-1],"split_conditions":[-0E0],"split_indices":[0],"split_type":[0],"sum_hessian":[5.89748E4],"tree_param":{"num_deleted":"0","num_feature":"13","num_nodes":"1","size_leaf_vector":"1"}},{"base_weights":[-3.604407E-3,-3.0432513E-3,1.5205505E-2,-2.2453012E-2,3.57543E-2,-0E0,6.759176E-2,8.3566494E-2,-0E0,3.652142E-2,-0E0],"categories":[],"categories_nodes":[],"categories_segments":[],"categories_sizes":[],"default_left":[0,0,0,0,0,0,0,0,0,0,0],"id":50,"left_children":[1,-1,3,-1,5,-1,7,9,-1,-1,-1],"loss_changes":[3.954172E0,0E0,9.721155E0,0E0,9.295508E0,0E0,7.5781956E0,4.4939766E0,0E0,0E0,0E0],"parents":[2147483647,0,0,2,2,4,4,6,6,7,7],"right_children":[2,-1,4,-1,6,-1,8,10,-1,-1,-1],"split_conditions":[9.793922E-1,-3.0432513E-3,9.4906294E-1,-2.2453012E-2,7.0686455E1,-0E0,1.0425309E0,4.0728912E-1,-0E0,3.652142E-2,-0E0],"split_indices":[5,0,3,0,10,0,5,4,0,0,0],"split_type":[0,0,0,0,0,0,0,0,0,0,0],"sum_hessian":[5.8977816E4,5.1567824E4,7.4099937E3,9.06469E2,6.503525E3,2.6935576E3,3.8099673E3,3.556395E3,2.5357217E2,3.5020845E3,5.431049E1],"tree_param":{"num_deleted":"0","num_feature":"13","num_nodes":"11","size_leaf_vector":"1"}},{"base_weights":[-0E0],"categories":[],"categories_nodes":[],"categories_segments":[],"categories_sizes":[],"default_left":[0],"id":51,"left_children":[-1],"loss_changes":[0E0],"parents":[2147483647],"right_children":[-1],"split_conditions":[-0E0],"split_indices":[0],"split_type":[0],"sum_hessian":[5.9015457E4],"tree_param":{"num_deleted":"0","num_feature":"13","num_nodes":"1","size_leaf_vector":"1"}},{"base_weights":[-1.180401E-3],"categories":[],"categories_nodes":[],"categories_segments":[],"categories_sizes":[],"default_left":[0],"id":52,"left_children":[-1],"loss_changes":[0E0],"parents":[2147483647],"right_children":[-1],"split_conditions":[-4.7175155E-4],"split_indices":[0],"split_type":[0],"sum_hessian":[5.8965176E4],"tree_param":{"num_deleted":"0","num_feature":"13","num_nodes":"1","size_leaf_vector":"1"}},{"base_weights":[-0E0],"categories":[],"categories_nodes":[],"categories_segments":[],"categories_sizes":[],"default_left":[0],"id":53,"left_children":[-1],"loss_changes":[0E0],"parents":[2147483647],"right_children":[-1],"split_conditions":[-0E0],"split_indices":[0],"split_type":[0],"sum_hessian":[5.894006E4],"tree_param":{"num_deleted":"0","num_feature":"13","num_nodes":"1","size_leaf_vector":"1"}},{"base_weights":[-1.7847779E-4],"categories":[],"categories_nodes":[],"categories_segments":[],"categories_sizes":[],"default_left":[0],"id":54,"left_children":[-1],"loss_changes":[0E0],"parents":[2147483647],"right_children":[-1],"split_conditions":[-7.13293E-5],"split_indices":[0],"split_type":[0],"sum_hessian":[5.9097363E4],"tree_param":{"num_deleted":"0","num_feature":"13","num_nodes":"1","size_leaf_vector":"1"}},{"base_weights":[-0E0],"categories":[],"categories_nodes":[],"categories_segments":[],"categories_sizes":[],"default_left":[0],"id":55,"left_children":[-1],"loss_changes":[0E0],"parents":[2147483647],"right_children":[-1],"split_conditions":[-0E0],"split_indices":[0],"split_type":[0],"sum_hessian":[5.8991797E4],"tree_param":{"num_deleted":"0","num_feature":"13","num_nodes":"1","size_leaf_vector":"1"}},{"base_weights":[-0E0],"categories":[],"categories_nodes":[],"categories_segments":[],"categories_sizes":[],"default_left":[0],"id":56,"left_children":[-1],"loss_changes":[0E0],"parents":[2147483647],"right_children":[-1],"split_conditions":[-0E0],"split_indices":[0],"split_type":[0],"sum_hessian":[5.9018184E4],"tree_param":{"num_deleted":"0","num_feature":"13","num_nodes":"1","size_leaf_vector":"1"}},{"base_weights":[-0E0],"categories":[],"categories_nodes":[],"categories_segments":[],"categories_sizes":[],"default_left":[0],"id":57,"left_children":[-1],"loss_changes":[0E0],"parents":[2147483647],"right_children":[-1],"split_conditions":[-0E0],"split_indices":[0],"split_type":[0],"sum_hessian":[5.8901098E4],"tree_param":{"num_deleted":"0","num_feature":"13","num_nodes":"1","size_leaf_vector":"1"}},{"base_weights":[-0E0],"categories":[],"categories_nodes":[],"categories_segments":[],"categories_sizes":[],"default_left":[0],"id":58,"left_children":[-1],"loss_changes":[0E0],"parents":[2147483647],"right_children":[-1],"split_conditions":[-0E0],"split_indices":[0],"split_type":[0],"sum_hessian":[5.895614E4],"tree_param":{"num_deleted":"0","num_feature":"13","num_nodes":"1","size_leaf_vector":"1"}},{"base_weights":[-0E0],"categories":[],"categories_nodes":[],"categories_segments":[],"categories_sizes":[],"default_left":[0],"id":59,"left_children":[-1],"loss_changes":[0E0],"parents":[2147483647],"right_children":[-1],"split_conditions":[-0E0],"split_indices":[0],"split_type":[0],"sum_hessian":[5.889498E4],"tree_param":{"num_deleted":"0","num_feature":"13","num_nodes":"1","size_leaf_vector":"1"}},{"base_weights":[1.2563214E-3,-1.2683588E-3,1.4160564E-2,-4.0460024E-2,2.1886365E-2,-0E0,-3.5536446E-2,-0E0,3.0433709E-2,3.854939E-2,-0E0,4.8153665E-2,-0E0,2.2847114E-2,-0E0],"categories":[],"categories_nodes":[],"categories_segments":[],"categories_sizes":[],"default_left":[0,0,0,1,0,0,0,0,1,0,0,1,0,0,0],"id":60,"left_children":[1,-1,3,5,7,-1,-1,-1,9,11,-1,13,-1,-1,-1],"loss_changes":[4.1048064E0,0E0,6.799944E0,5.0758867E0,4.6525803E0,0E0,0E0,0E0,5.709839E0,5.262821E0,0E0,6.6175385E0,0E0,0E0,0E0],"parents":[2147483647,0,0,2,2,3,3,4,4,8,8,9,9,11,11],"right_children":[2,-1,4,6,8,-1,-1,-1,10,12,-1,14,-1,-1,-1],"split_conditions":[6.66939E0,-1.2683588E-3,7.9233366E-1,9.5E1,1.383E3,-0E0,-3.5536446E-2,-0E0,2.159E3,9.4270253E-1,-0E0,1.0309701E2,-0E0,2.2847114E-2,-0E0],"split_indices":[2,0,5,7,6,0,0,0,6,5,0,10,0,0,0],"split_type":[0,0,0,0,0,0,0,0,0,0,0,0,0,0,0],"sum_hessian":[5.887021E4,4.0010184E4,1.886003E4,1.23436E3,1.762567E4,3.8572253E2,8.4863745E2,3.5166643E3,1.4109005E4,1.2612722E4,1.4962833E3,1.0330729E4,2.2819927E3,9.336807E3,9.9392194E2],"tree_param":{"num_deleted":"0","num_feature":"13","num_nodes":"15","size_leaf_vector":"1"}},{"base_weights":[-2.9228204E-3],"categories":[],"categories_nodes":[],"categories_segments":[],"categories_sizes":[],"default_left":[0],"id":61,"left_children":[-1],"loss_changes":[0E0],"parents":[2147483647],"right_children":[-1],"split_conditions":[-1.1681158E-3],"split_indices":[0],"split_type":[0],"sum_hessian":[5.900179E4],"tree_param":{"num_deleted":"0","num_feature":"13","num_nodes":"1","size_leaf_vector":"1"}},{"base_weights":[-0E0],"categories":[],"categories_nodes":[],"categories_segments":[],"categories_sizes":[],"default_left":[0],"id":62,"left_children":[-1],"loss_changes":[0E0],"parents":[2147483647],"right_children":[-1],"split_conditions":[-0E0],"split_indices":[0],"split_type":[0],"sum_hessian":[5.8920082E4],"tree_param":{"num_deleted":"0","num_feature":"13","num_nodes":"1","size_leaf_vector":"1"}},{"base_weights":[5.5685564E-4],"categories":[],"categories_nodes":[],"categories_segments":[],"categories_sizes":[],"default_left":[0],"id":63,"left_children":[-1],"loss_changes":[0E0],"parents":[2147483647],"right_children":[-1],"split_conditions":[2.2254938E-4],"split_indices":[0],"split_type":[0],"sum_hessian":[5.8954914E4],"tree_param":{"num_deleted":"0","num_feature":"13","num_nodes":"1","size_leaf_vector":"1"}},{"base_weights":[-2.0005002E-3],"categories":[],"categories_nodes":[],"categories_segments":[],"categories_sizes":[],"default_left":[0],"id":64,"left_children":[-1],"loss_changes":[0E0],"parents":[2147483647],"right_children":[-1],"split_conditions":[-7.995072E-4],"split_indices":[0],"split_type":[0],"sum_hessian":[5.8923824E4],"tree_param":{"num_deleted":"0","num_feature":"13","num_nodes":"1","size_leaf_vector":"1"}},{"base_weights":[-2.1010702E-3],"categories":[],"categories_nodes":[],"categories_segments":[],"categories_sizes":[],"default_left":[0],"id":65,"left_children":[-1],"loss_changes":[0E0],"parents":[2147483647],"right_children":[-1],"split_conditions":[-8.397004E-4],"split_indices":[0],"split_type":[0],"sum_hessian":[5.8953383E4],"tree_param":{"num_deleted":"0","num_feature":"13","num_nodes":"1","size_leaf_vector":"1"}},{"base_weights":[-0E0],"categories":[],"categories_nodes":[],"categories_segments":[],"categories_sizes":[],"default_left":[0],"id":66,"left_children":[-1],"loss_changes":[0E0],"parents":[2147483647],"right_children":[-1],"split_conditions":[-0E0],"split_indices":[0],"split_type":[0],"sum_hessian":[5.9012832E4],"tree_param":{"num_deleted":"0","num_feature":"13","num_nodes":"1","size_leaf_vector":"1"}},{"base_weights":[-0E0],"categories":[],"categories_nodes":[],"categories_segments":[],"categories_sizes":[],"default_left":[0],"id":67,"left_children":[-1],"loss_changes":[0E0],"parents":[2147483647],"right_children":[-1],"split_conditions":[-0E0],"split_indices":[0],"split_type":[0],"sum_hessian":[5.898005E4],"tree_param":{"num_deleted":"0","num_feature":"13","num_nodes":"1","size_leaf_vector":"1"}},{"base_weights":[-9.816581E-4,-3.7298203E-3,3.5054318E-3],"categories":[],"categories_nodes":[],"categories_segments":[],"categories_sizes":[],"default_left":[0,0,0],"id":68,"left_children":[1,-1,-1],"loss_changes":[4.8536963E0,0E0,0E0],"parents":[2147483647,0,0],"right_children":[2,-1,-1],"split_conditions":[9.2566305E-1,-3.7298203E-3,3.5054318E-3],"split_indices":[5,0,0],"split_type":[0,0,0],"sum_hessian":[5.9010555E4,3.547746E4,2.3533094E4],"tree_param":{"num_deleted":"0","num_feature":"13","num_nodes":"3","size_leaf_vector":"1"}},{"base_weights":[-0E0],"categories":[],"categories_nodes":[],"categories_segments":[],"categories_sizes":[],"default_left":[0],"id":69,"left_children":[-1],"loss_changes":[0E0],"parents":[2147483647],"right_children":[-1],"split_conditions":[-0E0],"split_indices":[0],"split_type":[0],"sum_hessian":[5.8944477E4],"tree_param":{"num_deleted":"0","num_feature":"13","num_nodes":"1","size_leaf_vector":"1"}},{"base_weights":[8.388178E-4],"categories":[],"categories_nodes":[],"categories_segments":[],"categories_sizes":[],"default_left":[0],"id":70,"left_children":[-1],"loss_changes":[0E0],"parents":[2147483647],"right_children":[-1],"split_conditions":[3.3523657E-4],"split_indices":[0],"split_type":[0],"sum_hessian":[5.895302E4],"tree_param":{"num_deleted":"0","num_feature":"13","num_nodes":"1","size_leaf_vector":"1"}},{"base_weights":[-1.7183211E-4],"categories":[],"categories_nodes":[],"categories_segments":[],"categories_sizes":[],"default_left":[0],"id":71,"left_children":[-1],"loss_changes":[0E0],"parents":[2147483647],"right_children":[-1],"split_conditions":[-6.867333E-5],"split_indices":[0],"split_type":[0],"sum_hessian":[5.8921516E4],"tree_param":{"num_deleted":"0","num_feature":"13","num_nodes":"1","size_leaf_vector":"1"}},{"base_weights":[-1.6664888E-3,-0E0,-4.866101E-2,-9.1276936E-2,-0E0,-4.6468597E-2,-0E0],"categories":[],"categories_nodes":[],"categories_segments":[],"categories_sizes":[],"default_left":[0,0,0,1,0,0,0],"id":72,"left_children":[1,-1,3,5,-1,-1,-1],"loss_changes":[4.2915764E0,0E0,6.6966915E0,5.262147E0,0E0,0E0,0E0],"parents":[2147483647,0,0,2,2,3,3],"right_children":[2,-1,4,6,-1,-1,-1],"split_conditions":[6.742462E1,-0E0,9.7522116E-1,9.18E-1,-0E0,-4.6468597E-2,-0E0],"split_indices":[9,0,5,1,0,0,0],"split_type":[0,0,0,0,0,0,0],"sum_hessian":[5.8944332E4,5.712443E4,1.8199022E3,1.2768488E3,5.430535E2,1.1524388E3,1.24409904E2],"tree_param":{"num_deleted":"0","num_feature":"13","num_nodes":"7","size_leaf_vector":"1"}},{"base_weights":[2.8359E-3],"categories":[],"categories_nodes":[],"categories_segments":[],"categories_sizes":[],"default_left":[0],"id":73,"left_children":[-1],"loss_changes":[0E0],"parents":[2147483647],"right_children":[-1],"split_conditions":[1.1333778E-3],"split_indices":[0],"split_type":[0],"sum_hessian":[5.891876E4],"tree_param":{"num_deleted":"0","num_feature":"13","num_nodes":"1","size_leaf_vector":"1"}},{"base_weights":[-0E0,3.2844113E-3,-1.1805885E-2,-3.4566633E-2,-1.7469197E-3],"categories":[],"categories_nodes":[],"categories_segments":[],"categories_sizes":[],"default_left":[0,0,0,0,0],"id":74,"left_children":[1,-1,3,-1,-1],"loss_changes":[5.5531144E0,0E0,5.9587326E0,0E0,0E0],"parents":[2147483647,0,0,2,2],"right_children":[2,-1,4,-1,-1],"split_conditions":[1.27E2,3.2844113E-3,8.486571E-1,-3.4566633E-2,-1.7469197E-3],"split_indices":[7,0,5,0,0],"split_type":[0,0,0,0,0],"sum_hessian":[5.902384E4,3.7392742E4,2.16311E4,1.0863757E3,2.0544725E4],"tree_param":{"num_deleted":"0","num_feature":"13","num_nodes":"5","size_leaf_vector":"1"}},{"base_weights":[-0E0],"categories":[],"categories_nodes":[],"categories_segments":[],"categories_sizes":[],"default_left":[0],"id":75,"left_children":[-1],"loss_changes":[0E0],"parents":[2147483647],"right_children":[-1],"split_conditions":[-0E0],"split_indices":[0],"split_type":[0],"sum_hessian":[5.8955477E4],"tree_param":{"num_deleted":"0","num_feature":"13","num_nodes":"1","size_leaf_vector":"1"}},{"base_weights":[-0E0],"categories":[],"categories_nodes":[],"categories_segments":[],"categories_sizes":[],"default_left":[0],"id":76,"left_children":[-1],"loss_changes":[0E0],"parents":[2147483647],"right_children":[-1],"split_conditions":[-0E0],"split_indices":[0],"split_type":[0],"sum_hessian":[5.8900645E4],"tree_param":{"num_deleted":"0","num_feature":"13","num_nodes":"1","size_leaf_vector":"1"}},{"base_weights":[-0E0],"categories":[],"categories_nodes":[],"categories_segments":[],"categories_sizes":[],"default_left":[0],"id":77,"left_children":[-1],"loss_changes":[0E0],"parents":[2147483647],"right_children":[-1],"split_conditions":[-0E0],"split_indices":[0],"split_type":[0],"sum_hessian":[5.8999562E4],"tree_param":{"num_deleted":"0","num_feature":"13","num_nodes":"1","size_leaf_vector":"1"}},{"base_weights":[-0E0],"categories":[],"categories_nodes":[],"categories_segments":[],"categories_sizes":[],"default_left":[0],"id":78,"left_children":[-1],"loss_changes":[0E0],"parents":[2147483647],"right_children":[-1],"split_conditions":[-0E0],"split_indices":[0],"split_type":[0],"sum_hessian":[5.8931035E4],"tree_param":{"num_deleted":"0","num_feature":"13","num_nodes":"1","size_leaf_vector":"1"}},{"base_weights":[-2.9086277E-3],"categories":[],"categories_nodes":[],"categories_segments":[],"categories_sizes":[],"default_left":[0],"id":79,"left_children":[-1],"loss_changes":[0E0],"parents":[2147483647],"right_children":[-1],"split_conditions":[-1.1624437E-3],"split_indices":[0],"split_type":[0],"sum_hessian":[5.892956E4],"tree_param":{"num_deleted":"0","num_feature":"13","num_nodes":"1","size_leaf_vector":"1"}},{"base_weights":[-0E0],"categories":[],"categories_nodes":[],"categories_segments":[],"categories_sizes":[],"default_left":[0],"id":80,"left_children":[-1],"loss_changes":[0E0],"parents":[2147483647],"right_children":[-1],"split_conditions":[-0E0],"split_indices":[0],"split_type":[0],"sum_hessian":[5.906226E4],"tree_param":{"num_deleted":"0","num_feature":"13","num_nodes":"1","size_leaf_vector":"1"}},{"base_weights":[-0E0],"categories":[],"categories_nodes":[],"categories_segments":[],"categories_sizes":[],"default_left":[0],"id":81,"left_children":[-1],"loss_changes":[0E0],"parents":[2147483647],"right_children":[-1],"split_conditions":[-0E0],"split_indices":[0],"split_type":[0],"sum_hessian":[5.903593E4],"tree_param":{"num_deleted":"0","num_feature":"13","num_nodes":"1","size_leaf_vector":"1"}},{"base_weights":[-0E0],"categories":[],"categories_nodes":[],"categories_segments":[],"categories_sizes":[],"default_left":[0],"id":82,"left_children":[-1],"loss_changes":[0E0],"parents":[2147483647],"right_children":[-1],"split_conditions":[-0E0],"split_indices":[0],"split_type":[0],"sum_hessian":[5.8998637E4],"tree_param":{"num_deleted":"0","num_feature":"13","num_nodes":"1","size_leaf_vector":"1"}},{"base_weights":[-3.860813E-4],"categories":[],"categories_nodes":[],"categories_segments":[],"categories_sizes":[],"default_left":[0],"id":83,"left_children":[-1],"loss_changes":[0E0],"parents":[2147483647],"right_children":[-1],"split_conditions":[-1.5429879E-4],"split_indices":[0],"split_type":[0],"sum_hessian":[5.897068E4],"tree_param":{"num_deleted":"0","num_feature":"13","num_nodes":"1","size_leaf_vector":"1"}},{"base_weights":[2.1815072E-3],"categories":[],"categories_nodes":[],"categories_segments":[],"categories_sizes":[],"default_left":[0],"id":84,"left_children":[-1],"loss_changes":[0E0],"parents":[2147483647],"right_children":[-1],"split_conditions":[8.7184727E-4],"split_indices":[0],"split_type":[0],"sum_hessian":[5.8956523E4],"tree_param":{"num_deleted":"0","num_feature":"13","num_nodes":"1","size_leaf_vector":"1"}},{"base_weights":[-1.6318815E-3],"categories":[],"categories_nodes":[],"categories_segments":[],"categories_sizes":[],"default_left":[0],"id":85,"left_children":[-1],"loss_changes":[0E0],"parents":[2147483647],"right_children":[-1],"split_conditions":[-6.521874E-4],"split_indices":[0],"split_type":[0],"sum_hessian":[5.9013074E4],"tree_param":{"num_deleted":"0","num_feature":"13","num_nodes":"1","size_leaf_vector":"1"}},{"base_weights":[6.134163E-5],"categories":[],"categories_nodes":[],"categories_segments":[],"categories_sizes":[],"default_left":[0],"id":86,"left_children":[-1],"loss_changes":[0E0],"parents":[2147483647],"right_children":[-1],"split_conditions":[2.4515404E-5],"split_indices":[0],"split_type":[0],"sum_hessian":[5.8960285E4],"tree_param":{"num_deleted":"0","num_feature":"13","num_nodes":"1","size_leaf_vector":"1"}},{"base_weights":[-0E0],"categories":[],"categories_nodes":[],"categories_segments":[],"categories_sizes":[],"default_left":[0],"id":87,"left_children":[-1],"loss_changes":[0E0],"parents":[2147483647],"right_children":[-1],"split_conditions":[-0E0],"split_indices":[0],"split_type":[0],"sum_hessian":[5.8917105E4],"tree_param":{"num_deleted":"0","num_feature":"13","num_nodes":"1","size_leaf_vector":"1"}},{"base_weights":[-0E0],"categories":[],"categories_nodes":[],"categories_segments":[],"categories_sizes":[],"default_left":[0],"id":88,"left_children":[-1],"loss_changes":[0E0],"parents":[2147483647],"right_children":[-1],"split_conditions":[-0E0],"split_indices":[0],"split_type":[0],"sum_hessian":[5.8952188E4],"tree_param":{"num_deleted":"0","num_feature":"13","num_nodes":"1","size_leaf_vector":"1"}},{"base_weights":[2.8126184E-3],"categories":[],"categories_nodes":[],"categories_segments":[],"categories_sizes":[],"default_left":[0],"id":89,"left_children":[-1],"loss_changes":[0E0],"parents":[2147483647],"right_children":[-1],"split_conditions":[1.1240732E-3],"split_indices":[0],"split_type":[0],"sum_hessian":[5.8973688E4],"tree_param":{"num_deleted":"0","num_feature":"13","num_nodes":"1","size_leaf_vector":"1"}},{"base_weights":[-0E0],"categories":[],"categories_nodes":[],"categories_segments":[],"categories_sizes":[],"default_left":[0],"id":90,"left_children":[-1],"loss_changes":[0E0],"parents":[2147483647],"right_children":[-1],"split_conditions":[-0E0],"split_indices":[0],"split_type":[0],"sum_hessian":[5.8966145E4],"tree_param":{"num_deleted":"0","num_feature":"13","num_nodes":"1","size_leaf_vector":"1"}},{"base_weights":[-1.3521452E-3],"categories":[],"categories_nodes":[],"categories_segments":[],"categories_sizes":[],"default_left":[0],"id":91,"left_children":[-1],"loss_changes":[0E0],"parents":[2147483647],"right_children":[-1],"split_conditions":[-5.4038974E-4],"split_indices":[0],"split_type":[0],"sum_hessian":[5.9008406E4],"tree_param":{"num_deleted":"0","num_feature":"13","num_nodes":"1","size_leaf_vector":"1"}},{"base_weights":[1.9172867E-3,-9.272933E-3,3.8659247E-3,-0E0,-1.4484349E-2],"categories":[],"categories_nodes":[],"categories_segments":[],"categories_sizes":[],"default_left":[0,1,0,0,0],"id":92,"left_children":[1,3,-1,-1,-1],"loss_changes":[5.1539073E0,5.5078645E0,0E0,0E0,0E0],"parents":[2147483647,0,0,1,1],"right_children":[2,4,-1,-1,-1],"split_conditions":[1.574E3,7.122327E1,3.8659247E-3,-0E0,-1.4484349E-2],"split_indices":[6,8,0,0,0],"split_type":[0,0,0,0,0],"sum_hessian":[5.895027E4,2.0605154E4,3.8345113E4,1.5120651E4,5.4845034E3],"tree_param":{"num_deleted":"0","num_feature":"13","num_nodes":"5","size_leaf_vector":"1"}},{"base_weights":[2.91058E-4],"categories":[],"categories_nodes":[],"categories_segments":[],"categories_sizes":[],"default_left":[0],"id":93,"left_children":[-1],"loss_changes":[0E0],"parents":[2147483647],"right_children":[-1],"split_conditions":[1.1632239E-4],"split_indices":[0],"split_type":[0],"sum_hessian":[5.8948453E4],"tree_param":{"num_deleted":"0","num_feature":"13","num_nodes":"1","size_leaf_vector":"1"}},{"base_weights":[-0E0],"categories":[],"categories_nodes":[],"categories_segments":[],"categories_sizes":[],"default_left":[0],"id":94,"left_children":[-1],"loss_changes":[0E0],"parents":[2147483647],"right_children":[-1],"split_conditions":[-0E0],"split_indices":[0],"split_type":[0],"sum_hessian":[5.902685E4],"tree_param":{"num_deleted":"0","num_feature":"13","num_nodes":"1","size_leaf_vector":"1"}},{"base_weights":[-1.0814724E-3],"categories":[],"categories_nodes":[],"categories_segments":[],"categories_sizes":[],"default_left":[0],"id":95,"left_children":[-1],"loss_changes":[0E0],"parents":[2147483647],"right_children":[-1],"split_conditions":[-4.3221438E-4],"split_indices":[0],"split_type":[0],"sum_hessian":[5.8990758E4],"tree_param":{"num_deleted":"0","num_feature":"13","num_nodes":"1","size_leaf_vector":"1"}},{"base_weights":[-0E0],"categories":[],"categories_nodes":[],"categories_segments":[],"categories_sizes":[],"default_left":[0],"id":96,"left_children":[-1],"loss_changes":[0E0],"parents":[2147483647],"right_children":[-1],"split_conditions":[-0E0],"split_indices":[0],"split_type":[0],"sum_hessian":[5.8992137E4],"tree_param":{"num_deleted":"0","num_feature":"13","num_nodes":"1","size_leaf_vector":"1"}},{"base_weights":[-0E0],"categories":[],"categories_nodes":[],"categories_segments":[],"categories_sizes":[],"default_left":[0],"id":97,"left_children":[-1],"loss_changes":[0E0],"parents":[2147483647],"right_children":[-1],"split_conditions":[-0E0],"split_indices":[0],"split_type":[0],"sum_hessian":[5.8985285E4],"tree_param":{"num_deleted":"0","num_feature":"13","num_nodes":"1","size_leaf_vector":"1"}},{"base_weights":[-0E0],"categories":[],"categories_nodes":[],"categories_segments":[],"categories_sizes":[],"default_left":[0],"id":98,"left_children":[-1],"loss_changes":[0E0],"parents":[2147483647],"right_children":[-1],"split_conditions":[-0E0],"split_indices":[0],"split_type":[0],"sum_hessian":[5.889322E4],"tree_param":{"num_deleted":"0","num_feature":"13","num_nodes":"1","size_leaf_vector":"1"}},{"base_weights":[-2.509302E-5],"categories":[],"categories_nodes":[],"categories_segments":[],"categories_sizes":[],"default_left":[0],"id":99,"left_children":[-1],"loss_changes":[0E0],"parents":[2147483647],"right_children":[-1],"split_conditions":[-1.0028517E-5],"split_indices":[0],"split_type":[0],"sum_hessian":[5.8938547E4],"tree_param":{"num_deleted":"0","num_feature":"13","num_nodes":"1","size_leaf_vector":"1"}}]},"name":"gbtree"},"learner_model_param":{"base_score":"5.0705636E-1","boost_from_average":"1","num_class":"0","num_feature":"13","num_target":"1"},"objective":{"name":"binary:logistic","reg_loss_param":{"scale_pos_weight":"1"}}},"version":[2,1,4]}