{"learner":{"attributes":{"scikit_learn":"{\"_estimator_type\": \"classifier\"}"},"feature_names":["pX","pZ","sz_z","pitcherHand_L","pitcherHand_R","hitterHand_L","hitterHand_R","balls_before_pitch_0","balls_before_pitch_1","balls_before_pitch_2","balls_before_pitch_3","strikes_before_pitch_0","strikes_before_pitch_1","strikes_before_pitch_2"],"feature_types":["float","float","float","i","i","i","i","i","i","i","i","i","i","i"],"gradient_booster":{"model":{"gbtree_model_param":{"num_parallel_tree":"1","num_trees":"100"},"iteration_indptr":[0,1,2,3,4,5,6,7,8,9,10,11,12,13,14,15,16,17,18,19,20,21,22,23,24,25,26,27,28,29,30,31,32,33,34,35,36,37,38,39,40,41,42,43,44,45,46,47,48,49,50,51,52,53,54,55,56,57,58,59,60,61,62,63,64,65,66,67,68,69,70,71,72,73,74,75,76,77,78,79,80,81,82,83,84,85,86,87,88,89,90,91,92,93,94,95,96,97,98,99,100],"tree_info":[0,0,0,0,0,0,0,0,0,0,0,0,0,0,0,0,0,0,0,0,0,0,0,0,0,0,0,0,0,0,0,0,0,0,0,0,0,0,0,0,0,0,0,0,0,0,0,0,0,0,0,0,0,0,0,0,0,0,0,0,0,0,0,0,0,0,0,0,0,0,0,0,0,0,0,0,0,0,0,0,0,0,0,0,0,0,0,0,0,0,0,0,0,0,0,0,0,0,0,0],"trees":[{"base_weights":[3.6651507E-2,-1.1919674E0,3.974283E-1,-1.933358E0,-8.2750106E-1,-0E0,6.292115E-1,-2.3140726E0,-1.5921503E0,-1.1737342E0,-4.2840168E-1,1.21383496E-1,-4.438637E-1,6.5760565E-1,2.9100387E-3,-1.7572595E0,-1.3789512E0,-1.3571491E0,-8.07266E-1,-9.718923E-1,-1.5533985E0,-3.623669E-1,-1.0153786E0,-5.0334457E-2,2.842222E-1,-7.697317E-1,-2.582201E-1,-1.0623253E-1,6.806191E-1,1.2494598E-1,-4.9974597E-1,-8.823643E-1,-7.7288646E-1,-1.1900655E0,-8.658291E-1,-4.020344E-1,-2.2415432E-1,-7.451677E-1,-2.112211E-1,-7.7674514E-1,-2.5974994E-3,3.2521394E-1,-3.5368142E-1,-6.3037145E-1,-5.91449E-1,-1.8136589E-1,-6.0427713E-1,-4.9042496E-1,1.2531412E-1,7.5132376E-1,4.704778E-1,-1.1490914E-1,3.713915E-1,-6.93845E-1,-8.335683E-1,-4.503532E-1,-1.6699521E-1,-3.1382775E-1,-8.0848956E-1,5.803127E-2,-5.256752E-1,-2.791746E-1,3.6436173E-1,-0E0,-7.90151E-1,-8.181951E-1,-4.8011693E-1,-5.623288E-1,-1.1179943E-1,-6.3070214E-1,-9.228196E-2,-2.1394247E-1,2.579458E-1,5.5108744E-1,8.0476665E-1,3.1867364E-1,6.317144E-1,-2.4903598E-1,7.8180134E-2,2.4019582E-2,3.2258448E-1,-7.639175E-1,-5.7047516E-1,-3.0315253E-1,-2.1694124E-2,2.2346659E-1,-1.0390935E-1,-2.2055963E-1,-5.983841E-1,-4.783503E-1,-3.0280221E-2,3.2292366E-1,2.4961306E-1,7.613594E-2,-1.9557141E-1,-0E0,-5.8167E-1,-3.440281E-1,-0E0,-2.4147741E-1,-5.963994E-4,-3.3085102E-1,-0E0,-0E0,2.3852246E-1,2.317151E-1,5.774795E-1,8.1328046E-1,1.0521667E-3,-2.2829457E-1,3.4764335E-1,6.878065E-1,2.5919944E-1,-5.10088E-1,-3.8035104E-1,-1.2346173E-2,-3.2207513E-1,-1.2460064E-1,6.9212735E-2,9.78045E-2,3.1456295E-1,-3.042788E-1,-1.302041E-2,-0E0,-5.528759E-1,6.4011075E-2,-1.9910565E-1,8.220216E-2,3.1997102E-1,-2.3193686E-1,-0E0,-7.728627E-2,7.9322174E-2,2.4584357E-1,-0E0,5.961944E-1,9.830408E-2,8.311269E-1,3.6646536E-1,4.0537754E-1,3.4269284E-2,6.9783056E-1,-0E0,-3.032495E-1,-4.3563154E-2,5.5890564E-2,-1.6725047E-1,-0E0,-1.8408608E-1,3.6914468E-1,3.987543E-2,-3.3387882E-1,-1.15576565E-1,-1.9016972E-1,3.161326E-2,-1.196081E-1,9.210447E-2,1.672405E-1,4.428838E-1,4.6146095E-1,5.051657E-1,4.212131E-1,8.478512E-1,1.8572125E-1,5.151493E-1,-2.809087E-1,7.726828E-2,3.3449113E-2,4.756758E-1,2.7728295E-1,1.6353808E-2,2.6621215E-2,-1.8819422E-1,-4.7353208E-2,1.7545928E-1,1.6147759E-2,-2.7381983E-1,2.711717E-1,1.319416E-3,9.298446E-3,4.865809E-1,3.6800572E-1,4.0701994E-1,5.097442E-1,8.834594E-1,2.3221275E-1,4.0312007E-1,-1.1697361E-1,1.5697166E-1,8.933516E-2,-1.3982673E-1,1.591182E-1,-0E0,1.626821E-2,2.7807814E-1,-6.564812E-2,1.391141E-1,3.4015054E-1,-4.5938022E-2,2.5851718E-1,-0E0,5.974276E-1,3.9649078E-1,-1.692344E-1,-0E0],"categories":[],"categories_nodes":[],"categories_segments":[],"categories_sizes":[],"default_left":[0,0,0,0,0,0,0,0,0,0,0,0,0,0,0,0,0,0,0,0,0,0,0,0,0,0,0,0,0,0,0,0,0,0,0,0,0,0,0,0,0,0,0,0,0,0,0,0,0,0,0,0,0,0,0,0,0,0,0,0,0,0,0,0,0,0,0,0,0,0,0,0,0,0,0,0,0,0,0,0,0,0,0,0,0,0,0,0,0,0,0,0,0,0,0,0,0,0,0,0,0,0,0,0,0,0,0,0,0,0,0,0,0,0,0,0,0,0,0,0,0,0,0,0,0,0,0,0,0,0,0,0,0,0,0,0,0,0,0,0,0,0,0,0,0,0,0,0,0,0,0,0,0,0,0,0,0,0,0,0,0,0,0,0,0,0,0,0,0,0,0,0,0,0,0,0,0,0,0,0,0,0,0,0,0,0,0,0,0,0,0,0,0,0,0,0,0,0,0,0,0,0,0,0,0],"id":0,"left_children":[1,3,5,7,9,11,13,15,17,19,21,23,25,27,29,-1,-1,-1,-1,31,33,35,37,39,41,43,45,47,49,51,-1,-1,53,-1,-1,-1,55,-1,-1,57,59,61,63,-1,65,67,-1,69,71,73,75,77,79,81,-1,-1,83,-1,-1,85,87,89,91,93,95,-1,97,-1,99,-1,-1,101,103,105,107,109,111,-1,-1,-1,-1,-1,113,115,117,119,121,123,-1,-1,125,-1,127,-1,-1,-1,-1,-1,-1,129,131,-1,-1,-1,-1,133,135,137,-1,-1,139,141,-1,-1,143,145,-1,147,-1,-1,149,151,153,-1,-1,-1,-1,155,157,-1,-1,-1,-1,-1,-1,159,-1,161,-1,163,165,167,-1,-1,-1,-1,-1,-1,-1,169,-1,-1,171,-1,173,175,-1,177,179,-1,181,-1,183,-1,185,-1,-1,-1,-1,-1,-1,187,-1,189,191,-1,-1,193,195,-1,197,199,-1,-1,201,-1,-1,-1,-1,-1,203,-1,-1,-1,-1,-1,-1,-1,-1,-1,-1,-1,-1,-1,-1],"loss_changes":[1.3198822E4,1.8007334E3,2.1240662E3,2.4118164E2,6.1706934E2,4.5893518E2,2.5563965E2,1.6800781E1,1.6858643E2,1.6224878E2,7.32673E1,1.874178E2,1.0440256E2,2.4784912E2,5.707492E1,0E0,0E0,0E0,0E0,9.482556E1,1.5948853E1,5.9350006E1,5.0172424E0,1.0842869E2,9.052466E1,8.8046875E0,5.27181E1,3.8457794E1,1.9228369E2,3.511004E1,0E0,0E0,2.3931519E1,0E0,0E0,0E0,2.7467709E1,0E0,0E0,1.342025E1,9.9108864E1,7.77717E1,2.9604336E1,0E0,1.2649239E1,4.437613E1,0E0,1.9912537E1,1.2006844E1,9.805908E1,7.814349E1,1.8585497E1,8.38995E0,3.8745453E1,0E0,0E0,2.0809368E1,0E0,0E0,7.388928E1,3.008216E1,1.744049E1,3.753961E1,4.817823E0,4.8481865E0,0E0,5.283394E0,0E0,1.3139579E1,0E0,0E0,5.555883E0,5.098756E0,1.3408752E1,5.031201E1,3.5450943E1,1.5281921E1,0E0,0E0,0E0,0E0,0E0,2.024582E1,2.725098E1,7.5926933E0,7.034134E0,2.3428202E1,2.3075226E1,0E0,0E0,5.871691E0,0E0,1.6674484E1,0E0,0E0,0E0,0E0,0E0,0E0,9.932884E0,7.816962E0,0E0,0E0,0E0,0E0,5.8078203E0,1.1766724E1,2.683789E1,0E0,0E0,2.9245148E1,1.1469482E1,0E0,0E0,6.8970604E0,6.327647E0,0E0,6.333465E0,0E0,0E0,6.016796E0,1.1870495E1,1.3013783E1,0E0,0E0,0E0,0E0,5.8772354E0,1.7194077E1,0E0,0E0,0E0,0E0,0E0,0E0,8.085022E0,0E0,1.3265625E1,0E0,1.5393631E1,9.760275E0,9.023254E0,0E0,0E0,0E0,0E0,0E0,0E0,0E0,5.3828278E0,0E0,0E0,6.759674E0,0E0,1.0016326E1,5.864049E0,0E0,7.676323E0,8.596039E0,0E0,8.361023E0,0E0,6.936035E0,0E0,5.0600433E0,0E0,0E0,0E0,0E0,0E0,0E0,5.528048E0,0E0,8.823981E0,4.5053225E0,0E0,0E0,8.704763E0,5.341676E0,0E0,9.160492E0,4.726433E0,0E0,0E0,5.2055664E0,0E0,0E0,0E0,0E0,0E0,4.685222E0,0E0,0E0,0E0,0E0,0E0,0E0,0E0,0E0,0E0,0E0,0E0,0E0,0E0,0E0],"parents":[2147483647,0,0,1,1,2,2,3,3,4,4,5,5,6,6,7,7,8,8,9,9,10,10,11,11,12,12,13,13,14,14,19,19,20,20,21,21,22,22,23,23,24,24,25,25,26,26,27,27,28,28,29,29,32,32,36,36,39,39,40,40,41,41,42,42,44,44,45,45,47,47,48,48,49,49,50,50,51,51,52,52,53,53,56,56,59,59,60,60,61,61,62,62,63,63,64,64,66,66,68,68,71,71,72,72,73,73,74,74,75,75,76,76,82,82,83,83,84,84,85,85,86,86,87,87,90,90,92,92,99,99,100,100,105,105,106,106,107,107,110,110,111,111,114,114,115,115,117,117,120,120,121,121,122,122,127,127,128,128,135,135,137,137,139,139,140,140,141,141,149,149,152,152,154,154,155,155,157,157,158,158,160,160,162,162,164,164,171,171,173,173,174,174,177,177,178,178,180,180,181,181,184,184,190,190],"right_children":[2,4,6,8,10,12,14,16,18,20,22,24,26,28,30,-1,-1,-1,-1,32,34,36,38,40,42,44,46,48,50,52,-1,-1,54,-1,-1,-1,56,-1,-1,58,60,62,64,-1,66,68,-1,70,72,74,76,78,80,82,-1,-1,84,-1,-1,86,88,90,92,94,96,-1,98,-1,100,-1,-1,102,104,106,108,110,112,-1,-1,-1,-1,-1,114,116,118,120,122,124,-1,-1,126,-1,128,-1,-1,-1,-1,-1,-1,130,132,-1,-1,-1,-1,134,136,138,-1,-1,140,142,-1,-1,144,146,-1,148,-1,-1,150,152,154,-1,-1,-1,-1,156,158,-1,-1,-1,-1,-1,-1,160,-1,162,-1,164,166,168,-1,-1,-1,-1,-1,-1,-1,170,-1,-1,172,-1,174,176,-1,178,180,-1,182,-1,184,-1,186,-1,-1,-1,-1,-1,-1,188,-1,190,192,-1,-1,194,196,-1,198,200,-1,-1,202,-1,-1,-1,-1,-1,204,-1,-1,-1,-1,-1,-1,-1,-1,-1,-1,-1,-1,-1,-1],"split_conditions":[-5.8294505E-1,-8.043819E-1,-3.1713036E-1,1E0,1E0,1E0,1.0617017E0,-9.313375E-1,-9.313375E-1,1E0,7.393906E-1,-4.4825047E-1,-4.773572E-1,-1.2957385E0,1.526681E0,-1.7572595E0,-1.3789512E0,-1.3571491E0,-8.07266E-1,-7.055189E-1,-6.7226106E-1,-7.115455E-1,-6.140642E-1,-1.0116961E0,9.320303E-1,1E0,6.446609E-1,1E0,1E0,1E0,-4.9974597E-1,-8.823643E-1,5.7131493E-1,-1.1900655E0,-8.658291E-1,-4.020344E-1,-8.766242E-1,-7.451677E-1,-2.112211E-1,1E0,7.253821E-1,-1.0827101E0,1E0,-6.3037145E-1,-7.989933E-1,-8.313229E-1,-6.0427713E-1,-1.0695354E-1,-1.583289E0,-2.2725213E-1,-7.194292E-2,2.3943157E0,2.195439E0,-5.5534595E-1,-8.335683E-1,-4.503532E-1,1E0,-3.1382775E-1,-8.0848956E-1,1E0,1E0,-1.341195E0,1E0,1.2616518E0,-4.3443093E-1,-8.181951E-1,1.7256445E0,-5.623288E-1,1E0,-6.3070214E-1,-9.228196E-2,-6.275335E-2,-1.5293568E-1,-9.3900526E-1,3.553217E0,-1.0116961E0,3.6691433E-1,-2.4903598E-1,7.8180134E-2,2.4019582E-2,3.2258448E-1,-7.639175E-1,1E0,1E0,1.3722873E0,1.5975244E0,-5.419766E-1,1.2135296E0,-5.983841E-1,-4.783503E-1,1E0,3.2292366E-1,-4.0706477E-1,7.613594E-2,-1.9557141E-1,-0E0,-5.8167E-1,-3.440281E-1,-0E0,-3.7259778E-1,-1.5062341E-1,-3.3085102E-1,-0E0,-0E0,2.3852246E-1,1E0,8.36022E-1,7.7031034E-1,1.0521667E-3,-2.2829457E-1,4.4698787E-1,3.553217E0,2.5919944E-1,-5.10088E-1,-6.0960406E-1,3.8439906E-1,-3.2207513E-1,-1.684935E-1,6.9212735E-2,9.78045E-2,2.7455133E-1,1E0,-6.084533E-1,-0E0,-5.528759E-1,6.4011075E-2,-1.9910565E-1,-5.934276E-1,1E0,-2.3193686E-1,-0E0,-7.728627E-2,7.9322174E-2,2.4584357E-1,-0E0,1E0,9.830408E-2,-1.0116961E0,3.6646536E-1,2.1355565E0,-2.9409206E-1,-1.1025112E0,-0E0,-3.032495E-1,-4.3563154E-2,5.5890564E-2,-1.6725047E-1,-0E0,-1.8408608E-1,1.7634385E0,3.987543E-2,-3.3387882E-1,-2.6504344E-1,-1.9016972E-1,1E0,1.7700758E0,9.210447E-2,2.441306E-1,-8.313229E-1,4.6146095E-1,1E0,4.212131E-1,-1.1136028E-1,1.8572125E-1,1E0,-2.809087E-1,7.726828E-2,3.3449113E-2,4.756758E-1,2.7728295E-1,1.6353808E-2,-6.1614853E-1,-1.8819422E-1,-2.38862E-1,3.1557137E-1,1.6147759E-2,-2.7381983E-1,-2.2593406E-1,-3.5156912E-1,9.298446E-3,2.0833857E0,1E0,4.0701994E-1,5.097442E-1,3.2599332E0,2.3221275E-1,4.0312007E-1,-1.1697361E-1,1.5697166E-1,8.933516E-2,-4.960172E-1,1.591182E-1,-0E0,1.626821E-2,2.7807814E-1,-6.564812E-2,1.391141E-1,3.4015054E-1,-4.5938022E-2,2.5851718E-1,-0E0,5.974276E-1,3.9649078E-1,-1.692344E-1,-0E0],"split_indices":[2,2,2,13,13,11,0,2,2,11,0,2,2,0,0,0,0,0,0,2,2,2,2,0,0,5,0,13,11,13,0,0,0,0,0,0,0,0,0,12,0,0,12,0,0,0,0,2,0,2,2,1,1,0,0,0,5,0,0,12,12,0,12,0,2,0,1,0,5,0,0,2,2,0,1,0,0,0,0,0,0,0,5,4,1,1,2,0,0,0,12,0,2,0,0,0,0,0,0,2,0,0,0,0,0,12,0,0,0,0,0,1,0,0,2,0,0,0,0,0,0,5,0,0,0,0,0,0,5,0,0,0,0,0,0,12,0,0,0,1,2,0,0,0,0,0,0,0,0,1,0,0,0,0,8,1,0,0,0,0,5,0,2,0,5,0,0,0,0,0,0,0,0,0,0,0,0,0,2,0,1,10,0,0,1,0,0,0,0,0,2,0,0,0,0,0,0,0,0,0,0,0,0,0,0],"split_type":[0,0,0,0,0,0,0,0,0,0,0,0,0,0,0,0,0,0,0,0,0,0,0,0,0,0,0,0,0,0,0,0,0,0,0,0,0,0,0,0,0,0,0,0,0,0,0,0,0,0,0,0,0,0,0,0,0,0,0,0,0,0,0,0,0,0,0,0,0,0,0,0,0,0,0,0,0,0,0,0,0,0,0,0,0,0,0,0,0,0,0,0,0,0,0,0,0,0,0,0,0,0,0,0,0,0,0,0,0,0,0,0,0,0,0,0,0,0,0,0,0,0,0,0,0,0,0,0,0,0,0,0,0,0,0,0,0,0,0,0,0,0,0,0,0,0,0,0,0,0,0,0,0,0,0,0,0,0,0,0,0,0,0,0,0,0,0,0,0,0,0,0,0,0,0,0,0,0,0,0,0,0,0,0,0,0,0,0,0,0,0,0,0,0,0,0,0,0,0,0,0,0,0,0,0],"sum_hessian":[2.9769438E4,6.7503594E3,2.3019076E4,2.2095679E3,4.5407915E3,8.475061E3,1.4544017E4,1.01672626E3,1.1928417E3,2.4170854E3,2.123706E3,6.651322E3,1.8237389E3,1.3905652E4,6.383635E2,4.0120062E2,6.1552563E2,5.3120105E2,6.616406E2,1.6041437E3,8.129418E2,1.927388E3,1.9631819E2,3.225855E3,3.425467E3,6.438534E2,1.1798855E3,3.9988303E2,1.350577E4,5.601876E2,7.817593E1,5.560153E2,1.0481284E3,3.92856E2,4.2008582E2,6.816238E2,1.2457642E3,1.6140254E2,3.4915653E1,1.8555803E2,3.0402969E3,3.229149E3,1.9631819E2,2.944773E2,3.4937613E2,1.0700879E3,1.09797646E2,1.5481468E2,2.4506836E2,1.0073935E4,3.4318352E3,2.762509E2,2.839367E2,9.238374E2,1.2429094E2,1.214362E2,1.1243279E3,1.2473013E2,6.0827896E1,2.7225425E3,3.177544E2,1.8621681E2,3.0429321E3,1.1572672E2,8.059148E1,3.4256866E1,3.1511926E2,8.717934E1,9.8290857E2,5.59968E1,9.881789E1,5.753397E1,1.8753438E2,2.1592805E3,7.914654E3,1.7945328E3,1.6373025E3,1.3812544E2,1.3812544E2,8.432459E1,1.9961212E2,1.7633502E2,7.475024E2,5.593092E2,5.650187E2,1.3597341E3,1.3628085E3,1.8819318E2,1.2956123E2,5.5338017E1,1.308788E2,1.456356E3,1.586576E3,8.081107E1,3.4915653E1,9.442597E0,7.114888E1,2.9184216E2,2.3277102E1,4.299676E2,5.52941E2,2.7010221E1,3.0523746E1,5.380085E1,1.3373354E2,1.8424045E2,1.9750402E3,7.825718E3,8.89361E1,6.5000206E1,1.7295326E3,1.3030785E3,3.3422403E2,3.458626E2,4.016398E2,2.2684195E2,3.324673E2,3.3114972E2,2.3386899E2,7.7670856E2,5.830255E2,4.0339658E2,9.5941187E2,1.4844643E2,3.974675E1,8.037188E1,5.050692E1,4.9430902E2,1.092267E3,2.8547388E2,1.4449371E2,3.0172394E2,2.5121703E2,1.1089562E2,7.334483E1,1.8792965E3,9.574355E1,7.297591E3,5.281267E2,1.4458154E3,2.8371713E2,1.289244E3,1.3834504E1,3.1006857E2,9.1571236E1,1.5108156E2,7.5760376E1,1.86656E2,1.4449371E2,4.620285E2,1.2099701E2,1.7918976E2,2.242068E2,1.4427411E2,8.1513776E2,8.695974E1,4.0734927E2,5.1231586E2,5.799512E2,8.6608386E2,1.0132127E3,6.0915735E2,6.6884336E3,7.0314417E2,7.426713E2,2.942577E1,2.5429135E2,3.777039E1,1.2514736E3,3.9351477E2,6.851373E1,1.0913886E2,1.1506794E2,5.0836313E2,3.0677463E2,5.2044086E1,3.4915653E1,2.944773E2,2.1783853E2,6.456102E1,5.1539014E2,4.7410626E2,5.3910645E2,2.089669E3,4.5987646E3,2.90305E2,4.523663E2,4.4577847E1,6.456102E1,1.5327751E2,3.550856E2,2.4155482E2,6.52198E1,1.2473013E2,1.6974716E2,1.3439232E2,8.344621E1,5.033124E2,1.2077742E1,4.580758E2,1.6030457E1,4.380048E3,2.1871692E2,1.7523705E2,1.7984856E2],"tree_param":{"num_deleted":"0","num_feature":"14","num_nodes":"205","size_leaf_vector":"1"}},{"base_weights":[4.5244E-2,-2.5027725E-1,2.3528136E-1,-6.2059253E-1,-1.7598659E-1,8.1041545E-2,3.29434E-1,-6.2335324E-1,-5.070806E-1,-2.762787E-1,-9.177869E-2,1.1028448E-2,2.0295298E-1,2.6984978E-1,4.3297943E-1,-6.819662E-1,-2.4040096E-1,-3.6601064E-1,-1.7285499E-1,-1.6684446E-1,1.5128439E-2,3.700518E-2,-2.3488325E-1,1.2552339E-1,2.7931535E-1,2.8078747E-1,-3.2775223E-1,-0E0,4.5219225E-1,-6.042353E-1,-3.7315363E-1,-3.2935935E-1,-5.1662374E-1,-2.3564522E-1,-1.4332362E-1,-1.4051087E-1,-4.6825475E-1,4.4213045E-2,-1.5263477E-1,-3.6380276E-1,6.3653775E-2,-9.800493E-2,1.6378264E-1,3.110222E-1,-1.7334405E-1,4.548087E-2,3.1306762E-1,4.6410716E-1,-0E0,-5.551617E-1,-2.9430327E-1,-6.279685E-2,-2.4777944E-1,-3.5171255E-1,-1.1163021E-1,-1.4391042E-1,8.467608E-2,-4.9008057E-1,-1.4262018E-1,-2.4452172E-2,1.22934654E-1,1.8196014E-1,-1.7070463E-1,-0E0,3.433982E-1,5.788747E-2,-2.3890597E-1,-3.7745455E-1,1.06981315E-1,3.773257E-1,1.971264E-1,4.7217065E-1,-0E0,-4.118539E-1,-2.2958156E-1,-2.63932E-1,-4.8866473E-2,-1.8881005E-1,-3.681586E-2,-2.972451E-1,-2.6328677E-2,7.6043844E-2,-5.1184837E-2,2.3990052E-3,-1.1749938E-1,-4.0701032E-4,1.5234122E-1,-0E0,1.4599402E-1,2.4015191E-1,-0E0,-3.473647E-1,-0E0,3.4796354E-1,1.41517855E-2,3.8732952E-1,1.4704746E-2,1.2529288E-1,3.3429176E-1,5.018862E-1,2.2252983E-1,-3.6013696E-1,-1.711463E-1,-1.7229274E-1,-5.2181417E-3,-3.6705992E-1,-5.8406398E-2,-9.406925E-2,2.1155132E-2,1.6390695E-1,-5.5710148E-2,-0E0,3.4460765E-1,-1.4017405E-1,7.052917E-2,3.9712712E-1,2.2304391E-2,2.337793E-2,1.9368772E-1,2.6735622E-1,-0E0,2.555855E-1,3.578576E-1,-1.3077058E-1,-3.51755E-1,-1.5859264E-1,3.5062127E-2,3.3265237E-2,-3.411598E-1,4.9253948E-2,2.0579202E-1,9.294748E-2,-1.3650517E-1,1.5097383E-1,4.2136315E-1,-1.9233364E-1,2.862454E-1,5.6265105E-2,-3.531583E-1,2.1269898E-1,-9.627622E-2,-3.5450098E-1,-9.327853E-3,1.4828163E-1,-1.7237194E-3,4.2891574E-1,-0E0,-0E0,-5.2382386E-1,-0E0,1.5990226E-1,-2.8965983E-1,-0E0,2.2772656E-1,3.1852257E-1,-4.489576E-1,-0E0],"categories":[],"categories_nodes":[],"categories_segments":[],"categories_sizes":[],"default_left":[0,0,0,0,0,0,0,0,0,0,0,0,0,0,0,0,0,0,0,0,0,0,0,0,0,0,0,0,0,0,0,0,0,0,0,0,0,0,0,0,0,0,0,0,0,0,0,0,0,0,0,0,0,0,0,0,0,0,0,0,0,0,0,0,0,0,0,0,0,0,0,0,0,0,0,0,0,0,0,0,0,0,0,0,0,0,0,0,0,0,0,0,0,0,0,0,0,0,0,0,0,0,0,0,0,0,0,0,0,0,0,0,0,0,0,0,0,0,0,0,0,0,0,0,0,0,0,0,0,0,0,0,0,0,0,0,0,0,0,0,0,0,0,0,0,0,0,0,0,0,0,0,0,0,0,0,0],"id":1,"left_children":[1,3,5,7,9,11,13,-1,15,17,19,21,23,25,27,29,-1,31,33,35,37,39,-1,41,43,45,-1,-1,47,-1,-1,49,-1,-1,51,53,-1,55,-1,57,59,-1,61,63,65,67,69,71,-1,-1,73,-1,75,-1,77,79,81,-1,-1,83,85,87,-1,-1,89,-1,-1,91,93,95,97,99,-1,101,103,-1,-1,105,107,-1,-1,-1,-1,-1,-1,-1,109,-1,-1,-1,-1,-1,-1,111,113,115,-1,117,119,121,-1,-1,-1,-1,-1,123,125,-1,127,129,-1,-1,-1,-1,131,133,135,137,139,-1,-1,-1,-1,-1,-1,141,-1,-1,-1,-1,143,-1,-1,-1,145,-1,-1,-1,147,149,-1,151,-1,-1,-1,153,-1,-1,155,-1,-1,-1,-1,-1,-1,-1,-1],"loss_changes":[1.5534319E3,2.9298346E2,2.4247101E2,5.347351E1,7.433554E1,5.371815E1,6.0176636E1,0E0,2.7681915E1,3.4944427E1,4.0431553E1,3.735909E1,1.15024185E1,5.5645325E1,2.9382568E1,5.3614197E0,0E0,2.5159912E1,7.601673E0,3.6589104E1,1.3549648E1,3.990283E1,0E0,1.271249E1,1.726123E1,4.8261658E1,0E0,0E0,1.967694E1,0E0,0E0,2.8161377E1,0E0,0E0,6.9497185E0,2.7952587E1,0E0,1.3743545E1,0E0,7.113987E0,1.9445713E1,0E0,8.141397E0,1.1613144E1,4.8430986E0,2.0408655E1,3.9752686E1,1.4385071E1,0E0,0E0,1.066478E1,0E0,1.071419E1,0E0,1.4116524E1,7.2172184E0,7.4969263E0,0E0,0E0,6.9240627E0,8.721767E0,6.0396004E0,0E0,0E0,7.074547E0,0E0,0E0,6.074114E0,1.4653193E1,1.1086731E1,1.8220695E1,8.983459E0,0E0,7.848633E0,6.796646E0,0E0,0E0,2.7248196E1,8.931468E0,0E0,0E0,0E0,0E0,0E0,0E0,0E0,5.424301E0,0E0,0E0,0E0,0E0,0E0,0E0,9.02787E0,6.4290423E0,1.0709961E1,0E0,8.800753E0,1.5592987E1,5.5929565E0,0E0,0E0,0E0,0E0,0E0,9.986176E0,8.965798E0,0E0,1.1242672E1,5.1526184E0,0E0,0E0,0E0,0E0,8.688068E0,1.053064E1,1.6035013E1,1.2843688E1,5.81538E0,0E0,0E0,0E0,0E0,0E0,0E0,1.015724E1,0E0,0E0,0E0,0E0,5.0138893E0,0E0,0E0,0E0,7.611084E0,0E0,0E0,0E0,4.917078E0,4.598114E0,0E0,5.697687E0,0E0,0E0,0E0,7.364563E0,0E0,0E0,5.2451105E0,0E0,0E0,0E0,0E0,0E0,0E0,0E0,0E0],"parents":[2147483647,0,0,1,1,2,2,3,3,4,4,5,5,6,6,8,8,9,9,10,10,11,11,12,12,13,13,14,14,15,15,17,17,18,18,19,19,20,20,21,21,23,23,24,24,25,25,28,28,31,31,34,34,35,35,37,37,39,39,40,40,42,42,43,43,44,44,45,45,46,46,47,47,50,50,52,52,54,54,55,55,56,56,59,59,60,60,61,61,64,64,67,67,68,68,69,69,70,70,71,71,73,73,74,74,77,77,78,78,86,86,93,93,94,94,95,95,97,97,98,98,99,99,105,105,106,106,108,108,109,109,114,114,115,115,116,116,117,117,118,118,125,125,130,130,134,134,138,138,139,139,141,141,145,145,148,148],"right_children":[2,4,6,8,10,12,14,-1,16,18,20,22,24,26,28,30,-1,32,34,36,38,40,-1,42,44,46,-1,-1,48,-1,-1,50,-1,-1,52,54,-1,56,-1,58,60,-1,62,64,66,68,70,72,-1,-1,74,-1,76,-1,78,80,82,-1,-1,84,86,88,-1,-1,90,-1,-1,92,94,96,98,100,-1,102,104,-1,-1,106,108,-1,-1,-1,-1,-1,-1,-1,110,-1,-1,-1,-1,-1,-1,112,114,116,-1,118,120,122,-1,-1,-1,-1,-1,124,126,-1,128,130,-1,-1,-1,-1,132,134,136,138,140,-1,-1,-1,-1,-1,-1,142,-1,-1,-1,-1,144,-1,-1,-1,146,-1,-1,-1,148,150,-1,152,-1,-1,-1,154,-1,-1,156,-1,-1,-1,-1,-1,-1,-1,-1],"split_conditions":[-4.6608567E-1,9.911663E-1,-2.6249015E-1,6.635786E-1,-6.324678E-1,1E0,1E0,-6.2335324E-1,1E0,1E0,1E0,8.535017E-1,1E0,1.3231474E0,-1.341195E0,1E0,-2.4040096E-1,7.1124214E-1,-7.497643E-1,9.121241E-1,8.1937665E-1,-9.960429E-1,-2.3488325E-1,-6.7221725E-1,1E0,-8.654842E-1,-3.2775223E-1,-0E0,1.4065149E0,-6.042353E-1,-3.7315363E-1,-8.422584E-1,-5.1662374E-1,-2.3564522E-1,3.0758616E-1,-9.0138704E-1,-4.6825475E-1,-7.7920955E-1,-1.5263477E-1,-1.2957385E0,1E0,-9.800493E-2,1.4065149E0,-1.2244868E0,-4.1055864E-1,-1.3948292E0,1E0,6.038856E-1,-0E0,-5.551617E-1,1E0,-6.279685E-2,1E0,-3.5171255E-1,1E0,1E0,1E0,-4.9008057E-1,-1.4262018E-1,3.8439906E-1,1.7010413E0,1.7010413E0,-1.7070463E-1,-0E0,5.4931295E-1,5.788747E-2,-2.3890597E-1,1.2339935E-1,1E0,3.2599332E0,4.732051E-2,5.4931295E-1,-0E0,-7.115455E-1,-6.517512E-1,-2.63932E-1,-4.8866473E-2,1E0,1E0,-2.972451E-1,-2.6328677E-2,7.6043844E-2,-5.1184837E-2,2.3990052E-3,-1.1749938E-1,-4.0701032E-4,1E0,-0E0,1.4599402E-1,2.4015191E-1,-0E0,-3.473647E-1,-0E0,-7.194292E-2,2.1355565E0,5.7131493E-1,1.4704746E-2,1E0,3.120374E0,-1.7198172E-1,2.2252983E-1,-3.6013696E-1,-1.711463E-1,-1.7229274E-1,-5.2181417E-3,-2.8121232E-3,1.5419446E0,-9.406925E-2,1E0,-3.5564446E-1,-5.5710148E-2,-0E0,3.4460765E-1,-1.4017405E-1,2.8610651E0,-6.978227E-1,1E0,9.320303E-1,1E0,2.6735622E-1,-0E0,2.555855E-1,3.578576E-1,-1.3077058E-1,-3.51755E-1,1E0,3.5062127E-2,3.3265237E-2,-3.411598E-1,4.9253948E-2,2.10319E0,9.294748E-2,-1.3650517E-1,1.5097383E-1,1E0,-1.9233364E-1,2.862454E-1,5.6265105E-2,2.223622E0,2.028233E0,-9.627622E-2,-5.22152E-1,-9.327853E-3,1.4828163E-1,-1.7237194E-3,2.2746274E0,-0E0,-0E0,-3.4564652E-3,-0E0,1.5990226E-1,-2.8965983E-1,-0E0,2.2772656E-1,3.1852257E-1,-4.489576E-1,-0E0],"split_indices":[2,1,2,1,2,13,13,0,13,13,13,0,5,0,0,12,0,0,0,0,0,0,0,0,3,0,0,0,0,0,0,0,0,0,0,0,0,0,0,0,12,0,0,0,2,0,3,2,0,0,12,0,3,0,5,5,10,0,0,0,1,1,0,0,0,0,0,2,5,1,2,0,0,2,2,0,0,3,12,0,0,0,0,0,0,0,10,0,0,0,0,0,0,2,1,0,0,12,1,2,0,0,0,0,0,0,1,0,3,0,0,0,0,0,1,0,5,0,10,0,0,0,0,0,0,12,0,0,0,0,1,0,0,0,10,0,0,0,1,1,0,2,0,0,0,1,0,0,2,0,0,0,0,0,0,0,0],"split_type":[0,0,0,0,0,0,0,0,0,0,0,0,0,0,0,0,0,0,0,0,0,0,0,0,0,0,0,0,0,0,0,0,0,0,0,0,0,0,0,0,0,0,0,0,0,0,0,0,0,0,0,0,0,0,0,0,0,0,0,0,0,0,0,0,0,0,0,0,0,0,0,0,0,0,0,0,0,0,0,0,0,0,0,0,0,0,0,0,0,0,0,0,0,0,0,0,0,0,0,0,0,0,0,0,0,0,0,0,0,0,0,0,0,0,0,0,0,0,0,0,0,0,0,0,0,0,0,0,0,0,0,0,0,0,0,0,0,0,0,0,0,0,0,0,0,0,0,0,0,0,0,0,0,0,0,0,0],"sum_hessian":[2.764627E4,1.0809473E4,1.6836797E4,1.7860912E3,9.023381E3,6.4064204E3,1.0430377E4,4.4836206E2,1.3377291E3,4.0847292E3,4.938652E3,4.0993604E3,2.3070603E3,6.6672227E3,3.7631545E3,5.8257495E2,7.5515424E2,2.1521887E3,1.9325405E3,2.9248499E3,2.0138022E3,3.844339E3,2.550212E2,1.1863792E3,1.1206812E3,6.5837007E3,8.352166E1,1.6993047E2,3.593224E3,1.7488916E2,4.0768576E2,1.9984072E3,1.5378154E2,2.3738916E2,1.6951514E3,2.8053809E3,1.19468956E2,1.8222571E3,1.9154518E2,2.225287E2,3.6218103E3,1.2816779E2,1.0582114E3,1.0593342E3,6.134693E1,8.141276E2,5.769573E3,3.5020588E3,9.116535E1,1.0999873E2,1.8884084E3,1.1933279E3,5.018235E2,1.7429193E2,2.6310889E3,2.9839606E2,1.5238611E3,4.6336544E1,1.7619215E2,1.4264807E3,2.1953296E3,1.0292637E3,2.8947702E1,9.323709E1,9.660971E2,1.6557047E1,4.4789883E1,8.8572334E1,7.255553E2,3.6747651E3,2.094808E3,3.447729E3,5.432977E1,6.299324E2,1.2584761E3,2.5163985E2,2.5018362E2,1.2581876E3,1.3729012E3,5.8609047E1,2.3978702E2,1.3161869E3,2.0767418E2,1.1839541E3,2.4252667E2,3.9261462E2,1.8027151E3,1.9436063E2,8.349031E2,9.3258514E2,3.3511955E1,6.525837E1,2.3313965E1,1.8171869E2,5.438366E2,3.560507E3,1.1425806E2,1.4071111E3,6.87697E2,2.7940317E3,6.5369727E2,3.179868E2,3.1194562E2,1.0940786E3,1.6439749E2,5.103505E2,7.4783716E2,5.158963E2,8.570049E2,1.7397996E3,6.2915516E1,6.969285E1,1.1202585E2,8.816478E1,4.5567184E2,3.4541646E3,1.0634257E2,5.969941E2,8.1011694E2,5.7296234E2,1.14734665E2,6.834032E2,2.1106287E3,2.6952606E2,2.4082443E2,4.1367813E2,3.3415906E2,8.2820667E2,2.879823E1,5.9488165E2,1.1449178E3,3.812887E2,7.438314E1,4.6344638E2,2.990718E3,5.4982624E1,5.1359943E1,5.297338E2,6.7260254E1,7.829275E2,2.718949E1,1.5704468E2,2.5663345E2,1.0813057E3,6.3612213E1,2.9274233E3,6.3294777E1,2.2969614E1,4.4290638E1,8.8335464E1,6.94592E2,1.3227464E2,2.477003E1,1.1031028E3,1.8243206E3,3.5358547E1,8.932091E0],"tree_param":{"num_deleted":"0","num_feature":"14","num_nodes":"157","size_leaf_vector":"1"}},{"base_weights":[2.0275304E-2,-8.377778E-2,1.3832791E-1,-2.439801E-1,-4.2759746E-2,1.6994964E-1,4.969871E-2,-4.702193E-1,-2.1035759E-1,-8.2513124E-2,-3.1250091E-3,1.16869114E-1,2.0449536E-1,2.8145976E-2,1.7138284E-1,-1.6935495E-1,-4.695796E-1,-1.7824064E-1,-7.214946E-4,1.0471783E-2,-3.5058323E-1,4.5300554E-2,1.651929E-1,2.1565299E-1,1.0037879E-2,2.8842647E-2,-6.893379E-2,1.7816393E-1,-5.736932E-2,-2.7553606E-1,-6.0882412E-2,-4.8564187E-1,-1.9276679E-1,-1.5302719E-1,-8.399343E-2,3.182177E-2,-7.228546E-2,3.38748E-2,-6.522762E-2,-3.885893E-1,-1.857878E-2,1.2272371E-1,-9.363897E-2,1.275685E-1,2.8447643E-1,-3.0751535E-1,-3.3910632E-2,-3.8948637E-2,-2.817765E-1,-9.103609E-2,1.5709158E-2,-3.6513102E-3,7.277839E-2,4.872805E-2,-8.584423E-2,-8.2560815E-2,1.08239E-2,8.491232E-3,2.0257457E-1,-5.228718E-2,4.566363E-2,1.8379457E-2,9.3845986E-2,1.9633533E-2,-2.1701309E-1,1.3153283E-1,-2.2496844E-2,-0E0,-2.6699084E-1,1.19276576E-1,2.0595646E-2],"categories":[],"categories_nodes":[],"categories_segments":[],"categories_sizes":[],"default_left":[0,0,0,0,0,0,0,0,0,0,0,0,0,0,0,0,0,0,0,0,0,0,0,0,0,0,0,0,0,0,0,0,0,0,0,0,0,0,0,0,0,0,0,0,0,0,0,0,0,0,0,0,0,0,0,0,0,0,0,0,0,0,0,0,0,0,0,0,0,0,0],"id":2,"left_children":[1,3,5,7,9,11,13,-1,15,17,19,21,23,25,27,29,31,33,35,37,39,-1,41,43,-1,-1,-1,-1,-1,45,47,-1,-1,-1,49,51,-1,53,55,-1,-1,-1,-1,-1,57,-1,-1,59,-1,-1,-1,-1,-1,61,-1,-1,-1,-1,-1,-1,-1,63,65,-1,67,69,-1,-1,-1,-1,-1],"loss_changes":[3.179049E2,8.8748116E1,3.290724E1,3.7506744E1,1.6860912E1,1.4619659E1,7.520425E0,0E0,2.4050125E1,4.1524548E1,2.7881996E1,7.282646E0,1.0146561E1,5.3014536E0,1.2202317E1,2.4502167E1,9.238472E0,1.0272438E1,1.0733175E1,9.330203E0,1.3652985E1,0E0,1.0454445E1,5.7356873E0,0E0,0E0,0E0,0E0,0E0,4.4350807E1,6.8766465E0,0E0,0E0,0E0,5.713587E0,6.950863E0,0E0,9.64905E0,6.324813E0,0E0,0E0,0E0,0E0,0E0,4.9793396E0,0E0,0E0,4.8028893E0,0E0,0E0,0E0,0E0,0E0,4.6847153E0,0E0,0E0,0E0,0E0,0E0,0E0,0E0,5.2926335E0,7.5694847E0,0E0,4.960082E0,4.516491E0,0E0,0E0,0E0,0E0,0E0],"parents":[2147483647,0,0,1,1,2,2,3,3,4,4,5,5,6,6,8,8,9,9,10,10,11,11,12,12,13,13,14,14,15,15,16,16,17,17,18,18,19,19,20,20,22,22,23,23,29,29,30,30,34,34,35,35,37,37,38,38,44,44,47,47,53,53,61,61,62,62,64,64,65,65],"right_children":[2,4,6,8,10,12,14,-1,16,18,20,22,24,26,28,30,32,34,36,38,40,-1,42,44,-1,-1,-1,-1,-1,46,48,-1,-1,-1,50,52,-1,54,56,-1,-1,-1,-1,-1,58,-1,-1,60,-1,-1,-1,-1,-1,62,-1,-1,-1,-1,-1,-1,-1,64,66,-1,68,70,-1,-1,-1,-1,-1],"split_conditions":[-3.6213472E-1,-7.5775033E-1,1E0,-1.1033181E0,1E0,-1.8710688E-1,1.473166E-1,-4.702193E-1,1E0,1E0,1E0,1E0,3.2599332E0,1E0,3.1587384E0,1E0,-8.75838E-1,1E0,1E0,1E0,-5.29891E-1,4.5300554E-2,1E0,1E0,1.0037879E-2,2.8842647E-2,-6.893379E-2,1.7816393E-1,-5.736932E-2,1E0,1E0,-4.8564187E-1,-1.9276679E-1,-1.5302719E-1,1.6635029E0,1.6307693E0,-7.228546E-2,1E0,1E0,-3.885893E-1,-1.857878E-2,1.2272371E-1,-9.363897E-2,1.275685E-1,2.1549923E0,-3.0751535E-1,-3.3910632E-2,1E0,-2.817765E-1,-9.103609E-2,1.5709158E-2,-3.6513102E-3,7.277839E-2,1.5975244E0,-8.584423E-2,-8.2560815E-2,1.08239E-2,8.491232E-3,2.0257457E-1,-5.228718E-2,4.566363E-2,1.5840429E0,1.8314748E0,1.9633533E-2,-5.22152E-1,1E0,-2.2496844E-2,-0E0,-2.6699084E-1,1.19276576E-1,2.0595646E-2],"split_indices":[2,2,11,2,5,2,2,0,11,3,3,5,1,9,1,5,2,8,11,11,2,0,3,9,0,0,0,0,0,3,3,0,0,0,1,1,0,10,8,0,0,0,0,0,1,0,0,9,0,0,0,0,0,1,0,0,0,0,0,0,0,1,1,0,2,7,0,0,0,0,0],"split_type":[0,0,0,0,0,0,0,0,0,0,0,0,0,0,0,0,0,0,0,0,0,0,0,0,0,0,0,0,0,0,0,0,0,0,0,0,0,0,0,0,0,0,0,0,0,0,0,0,0,0,0,0,0,0,0,0,0,0,0,0,0,0,0,0,0,0,0,0,0,0,0],"sum_hessian":[2.5844182E4,1.3716484E4,1.2127698E4,2.7647896E3,1.0951695E4,8.894018E3,3.233681E3,1.6791342E2,2.596876E3,5.403949E3,5.5477456E3,3.5736367E3,5.3203804E3,2.7881763E3,4.455045E2,2.268956E3,3.279201E2,2.4590417E3,2.9449075E3,5.3329204E3,2.148254E2,1.833154E3,1.7404828E3,4.9998833E3,3.2049698E2,2.5379004E3,2.5027603E2,3.378949E2,1.07609604E2,1.1185677E3,1.1503882E3,1.14463196E2,2.134569E2,1.5537687E3,9.0527295E2,2.2317878E3,7.131197E2,4.1245107E3,1.2084098E3,1.128401E2,1.0198529E2,1.657019E3,8.346378E1,3.7640342E3,1.2358491E3,5.967102E2,5.2185754E2,1.1049698E3,4.541828E1,6.364644E2,2.688086E2,1.468987E3,7.6280084E2,3.8108362E3,3.1367422E2,7.344534E2,4.739564E2,9.8850235E1,1.1369989E3,8.4188666E2,2.6308322E2,2.3474524E3,1.4633839E3,2.2677476E3,7.970477E1,1.1580957E3,3.0528827E2,3.0766638E1,4.8938137E1,7.5181824E2,4.0627737E2],"tree_param":{"num_deleted":"0","num_feature":"14","num_nodes":"71","size_leaf_vector":"1"}},{"base_weights":[7.2082006E-3,1.5563932E-2,-3.383168E-1,-2.2680847E-1,2.5861997E-2,-4.1035292E-1,-1.0747202E-1,-2.9142123E-1,-0E0,-8.166465E-3,8.347822E-2,-4.111371E-1,-2.3431423E-1,-1.8763715E-1,2.3944208E-3,-0E0,9.7140536E-2,-3.8074702E-1,-1.4270698E-1,-3.79805E-1,-6.6038944E-2,-3.1389162E-2,3.4752432E-2,1.0451897E-1,-5.479697E-2,1.19820066E-1,8.100526E-3,-4.4076362E-1,-1.1727688E-1,-2.4733385E-1,-0E0,-3.7980247E-1,-1.3463189E-1,-3.0631948E-1,-1.6359553E-2,-1.3051802E-2,-1.3881047E-1,-6.589182E-3,-1.7676792E-1,8.469663E-2,1.4699025E-1,-1.8713985E-2,1.0171813E-1,-0E0,-2.063307E-1,4.9252138E-2,-1.4841822E-1,-1.2656493E-1,1.005443E-2,-3.593153E-1,-7.936804E-2,7.5749256E-2,9.754927E-3,1.9825827E-1,9.8454565E-2,3.6299147E-2,-7.016684E-2,-9.609464E-2,1.1524005E-1,-2.6434606E-1,-9.140618E-2,1.1162537E-2,-1.6701327E-1,-1.6226447E-1,1.494816E-3,2.269675E-1,1.2499877E-1,2.6605412E-2,1.3173313E-1,-1.3874975E-1,5.833556E-2,1.553129E-1,-8.30015E-2,-7.413475E-2,-3.7231967E-1,-1.400817E-1,-0E0,7.121252E-2,1.5937151E-1,-3.6650393E-2,5.7222836E-2,-3.0745074E-1,-0E0,-8.519902E-2,-0E0,1.05440035E-1,-9.209171E-2,-0E0,1.109438E-1],"categories":[],"categories_nodes":[],"categories_segments":[],"categories_sizes":[],"default_left":[0,0,0,0,0,0,0,0,0,0,0,0,0,0,0,0,0,0,0,0,0,0,0,0,0,0,0,0,0,0,0,0,0,0,0,0,0,0,0,0,0,0,0,0,0,0,0,0,0,0,0,0,0,0,0,0,0,0,0,0,0,0,0,0,0,0,0,0,0,0,0,0,0,0,0,0,0,0,0,0,0,0,0,0,0,0,0,0,0],"id":3,"left_children":[1,3,5,7,9,-1,-1,11,-1,13,15,-1,17,19,21,23,25,27,29,31,33,35,-1,-1,37,39,41,-1,-1,43,-1,-1,-1,-1,45,47,49,-1,-1,51,53,55,-1,-1,-1,57,-1,59,61,-1,63,-1,-1,65,67,69,-1,-1,71,-1,73,-1,-1,75,-1,-1,77,79,-1,81,-1,-1,-1,83,-1,-1,-1,85,-1,-1,-1,-1,-1,-1,-1,87,-1,-1,-1],"loss_changes":[7.08099E1,6.017179E1,2.393843E1,1.547868E1,4.643216E1,0E0,0E0,9.258957E0,0E0,2.8795588E1,1.0246197E1,0E0,6.2875137E0,1.7409517E1,2.3442507E1,1.0271883E1,1.4670235E1,8.861591E0,7.479039E0,5.9365196E0,8.262346E0,1.5459469E1,0E0,0E0,7.3590136E0,4.5237885E0,6.799422E0,0E0,0E0,4.9717064E0,0E0,0E0,0E0,0E0,7.6535068E0,1.9097134E1,2.4328022E1,0E0,0E0,4.85672E0,6.634117E0,6.6245403E0,0E0,0E0,0E0,4.679087E0,0E0,9.085819E0,9.099307E0,0E0,7.723095E0,0E0,0E0,1.3550972E1,1.1375309E1,6.816223E0,0E0,0E0,9.093659E0,0E0,5.674142E0,0E0,0E0,4.5444183E0,0E0,0E0,4.8595505E0,5.2630715E0,0E0,6.692957E0,0E0,0E0,0E0,4.8503585E0,0E0,0E0,0E0,5.3652067E0,0E0,0E0,0E0,0E0,0E0,0E0,0E0,4.5291E0,0E0,0E0,0E0],"parents":[2147483647,0,0,1,1,2,2,3,3,4,4,7,7,9,9,10,10,12,12,13,13,14,14,15,15,16,16,17,17,18,18,19,19,20,20,21,21,24,24,25,25,26,26,29,29,34,34,35,35,36,36,39,39,40,40,41,41,45,45,47,47,48,48,50,50,53,53,54,54,55,55,58,58,60,60,63,63,66,66,67,67,69,69,73,73,77,77,85,85],"right_children":[2,4,6,8,10,-1,-1,12,-1,14,16,-1,18,20,22,24,26,28,30,32,34,36,-1,-1,38,40,42,-1,-1,44,-1,-1,-1,-1,46,48,50,-1,-1,52,54,56,-1,-1,-1,58,-1,60,62,-1,64,-1,-1,66,68,70,-1,-1,72,-1,74,-1,-1,76,-1,-1,78,80,-1,82,-1,-1,-1,84,-1,-1,-1,86,-1,-1,-1,-1,-1,-1,-1,88,-1,-1,-1],"split_conditions":[1.2135296E0,-1.1682203E0,1.8804165E0,3.5931125E-2,1.966395E0,-4.1035292E-1,-1.0747202E-1,-1.583289E0,-0E0,-9.009868E-1,-7.8905725E-1,-4.111371E-1,-4.2039496E-1,1E0,1E0,1E0,5.275817E-1,1E0,1E0,-9.9413204E-1,3.8181412E-1,5.275817E-1,3.4752432E-2,1.0451897E-1,2.8610651E0,2.2746274E0,1.6476852E-1,-4.4076362E-1,-1.1727688E-1,-3.4471568E-1,-0E0,-3.7980247E-1,-1.3463189E-1,-3.0631948E-1,-9.313375E-1,-6.084533E-1,-7.240495E-1,-6.589182E-3,-1.7676792E-1,1E0,-2.5169802E-1,2.3362803E0,1.0171813E-1,-0E0,-2.063307E-1,-4.4830984E-1,-1.4841822E-1,-7.240495E-1,1E0,-3.593153E-1,1.6572107E0,7.5749256E-2,9.754927E-3,1E0,1E0,1E0,-7.016684E-2,-9.609464E-2,3.5786638E-1,-2.6434606E-1,-2.419675E-1,1.1162537E-2,-1.6701327E-1,1E0,1.494816E-3,2.269675E-1,1E0,1E0,1.3173313E-1,-2.763185E-1,5.833556E-2,1.553129E-1,-8.30015E-2,1.7316198E0,-3.7231967E-1,-1.400817E-1,-0E0,3.085158E0,1.5937151E-1,-3.6650393E-2,5.7222836E-2,-3.0745074E-1,-0E0,-8.519902E-2,-0E0,-5.934276E-1,-9.209171E-2,-0E0,1.109438E-1],"split_indices":[0,0,1,2,1,0,0,0,0,2,0,0,2,13,13,5,0,13,8,2,1,0,0,0,1,1,2,0,0,2,0,0,0,0,2,0,2,0,0,11,0,1,0,0,0,0,0,2,10,0,1,0,0,5,5,3,0,0,0,0,2,0,0,5,0,0,13,3,0,2,0,0,0,1,0,0,0,1,0,0,0,0,0,0,0,0,0,0,0],"split_type":[0,0,0,0,0,0,0,0,0,0,0,0,0,0,0,0,0,0,0,0,0,0,0,0,0,0,0,0,0,0,0,0,0,0,0,0,0,0,0,0,0,0,0,0,0,0,0,0,0,0,0,0,0,0,0,0,0,0,0,0,0,0,0,0,0,0,0,0,0,0,0,0,0,0,0,0,0,0,0,0,0,0,0,0,0,0,0,0,0],"sum_hessian":[2.503297E4,2.4462441E4,5.7052924E2,9.7170123E2,2.349074E4,2.047573E2,3.6577194E2,7.678077E2,2.0389355E2,1.4720991E4,8.769748E3,9.1100266E1,6.767074E2,8.358121E2,1.388518E4,1.209551E3,7.5601973E3,2.3120587E2,4.4550153E2,3.0250708E2,5.33305E2,8.212027E3,5.673152E3,2.9819904E2,9.11352E2,5.981004E3,1.5791931E3,8.069133E1,1.5051456E2,2.654307E2,1.8007085E2,1.25374275E2,1.7713281E2,4.2020157E1,4.9128482E2,7.0595737E3,1.1524536E3,7.760916E2,1.352604E2,2.6984238E3,3.2825803E3,1.3099248E3,2.6926822E2,4.6594677E1,2.1883601E2,3.5973285E2,1.3155197E2,1.2227489E3,5.8368247E3,1.3079979E2,1.0216538E3,1.8597483E3,8.386755E2,1.5374294E3,1.7451509E3,7.6997473E2,5.3995013E2,7.0988525E1,2.8874432E2,1.1635303E2,1.1063959E3,5.715557E3,1.2126769E2,5.3179364E2,4.8986017E2,4.916201E2,1.0458093E3,1.0448164E3,7.0033453E2,1.5027115E2,6.1970355E2,2.0706985E2,8.167448E1,1.0852961E3,2.1099707E1,4.1733136E2,1.14462296E2,7.4715424E2,2.986551E2,4.0603387E2,6.387825E2,3.8106487E1,1.12164665E2,6.576646E2,4.2763153E2,6.6483777E2,8.23165E1,2.3862961E2,4.2620813E2],"tree_param":{"num_deleted":"0","num_feature":"14","num_nodes":"89","size_leaf_vector":"1"}},{"base_weights":[3.0553613E-3,-1.3807742E-1,8.738517E-3,-3.0782613E-1,-1.1172973E-1,-1.4988068E-3,5.768703E-2,-5.5183575E-2,-1.6707337E-1,7.348874E-4,-1.9123237E-1,4.4267114E-2,-5.795016E-2,-1.2114605E-2,-2.2813718E-1,-1.3006301E-1,5.163717E-3,-1.8112507E-1,-1.4542056E-2,1.8762859E-2,-3.727949E-2,2.5676493E-2,-2.5062194E-1,-1.32372435E-2,4.539199E-2,-1.2560838E-1,9.624116E-3,1.0984266E-2,-6.7279615E-2,3.856665E-2,-0E0,-2.2137609E-1,-1.7403627E-2,-2.001411E-1,2.3893563E-2,-1.3545977E-2,3.432196E-2,-1.1403407E-1,-2.1236315E-1,-6.92E-2,9.797662E-2,-0E0,-2.5707915E-1,5.019582E-2,-3.6234193E-2,-7.573915E-2,1.2381479E-2,-0E0,-1.3589384E-1,-1.3839065E-1,2.13892E-2,6.902444E-2,-5.989282E-2,-9.560081E-2,4.37728E-2,1.5074982E-2,-2.2433226E-1,-1.517061E-1,-0E0,3.3539785E-3,7.4081935E-2,-6.781643E-2,5.015148E-2],"categories":[],"categories_nodes":[],"categories_segments":[],"categories_sizes":[],"default_left":[0,0,0,0,0,0,0,0,0,0,0,0,0,0,0,0,0,0,0,0,0,0,0,0,0,0,0,0,0,0,0,0,0,0,0,0,0,0,0,0,0,0,0,0,0,0,0,0,0,0,0,0,0,0,0,0,0,0,0,0,0,0,0],"id":4,"left_children":[1,3,5,-1,7,9,11,13,-1,15,-1,-1,-1,-1,-1,17,19,-1,21,23,25,-1,-1,27,29,31,33,35,-1,-1,-1,37,39,41,43,45,-1,47,-1,49,-1,-1,-1,51,-1,53,55,-1,-1,57,-1,59,-1,-1,-1,-1,-1,-1,-1,61,-1,-1,-1],"loss_changes":[1.914094E1,4.7422504E0,1.214322E1,0E0,5.317316E0,1.3796016E1,5.19506E0,5.2160864E0,0E0,1.0634785E1,0E0,0E0,0E0,0E0,0E0,8.419806E0,1.075579E1,0E0,8.539894E0,1.2350815E1,1.9095783E1,0E0,0E0,1.4071764E1,4.631035E0,1.5291616E1,7.8685174E0,5.147413E0,0E0,0E0,0E0,6.198452E0,6.322421E0,6.0671005E0,5.635518E0,5.217814E0,0E0,4.607718E0,0E0,4.865621E0,0E0,0E0,0E0,5.481211E0,0E0,9.526285E0,6.0691104E0,0E0,0E0,4.566022E0,0E0,4.658353E0,0E0,0E0,0E0,0E0,0E0,0E0,0E0,5.8738194E0,0E0,0E0,0E0],"parents":[2147483647,0,0,1,1,2,2,4,4,5,5,6,6,7,7,9,9,15,15,16,16,18,18,19,19,20,20,23,23,24,24,25,25,26,26,27,27,31,31,32,32,33,33,34,34,35,35,37,37,39,39,43,43,45,45,46,46,49,49,51,51,59,59],"right_children":[2,4,6,-1,8,10,12,14,-1,16,-1,-1,-1,-1,-1,18,20,-1,22,24,26,-1,-1,28,30,32,34,36,-1,-1,-1,38,40,42,44,46,-1,48,-1,50,-1,-1,-1,52,-1,54,56,-1,-1,58,-1,60,-1,-1,-1,-1,-1,-1,-1,62,-1,-1,-1],"split_conditions":[9.073166E-1,-8.654842E-1,-5.8098868E-2,-3.0782613E-1,3.4926635E-1,1.4065149E0,3.4157503E0,1E0,-1.6707337E-1,-1.1956611E0,-1.9123237E-1,4.4267114E-2,-5.795016E-2,-1.2114605E-2,-2.2813718E-1,1.8255295E0,3.6691433E-1,-1.8112507E-1,2.3362803E0,-3.2233918E-1,1E0,2.5676493E-2,-2.5062194E-1,1E0,1E0,1E0,1.1265482E0,-3.8256097E-1,-6.7279615E-2,3.856665E-2,-0E0,6.1921465E-1,-3.237744E-1,-8.043819E-1,1E0,1E0,3.432196E-2,1.5136857E0,-2.1236315E-1,1E0,9.797662E-2,-0E0,-2.5707915E-1,-1.4880547E-1,-3.6234193E-2,1E0,1E0,-0E0,-1.3589384E-1,-5.341184E-1,2.13892E-2,6.7005783E-1,-5.989282E-2,-9.560081E-2,4.37728E-2,1.5074982E-2,-2.2433226E-1,-1.517061E-1,-0E0,-5.182458E-1,7.4081935E-2,-6.781643E-2,5.015148E-2],"split_indices":[1,0,2,0,0,0,1,11,0,0,0,0,0,0,0,1,0,0,1,0,3,0,0,11,9,5,1,2,0,0,0,0,2,2,11,5,0,1,0,8,0,0,0,2,0,7,3,0,0,2,0,0,0,0,0,0,0,0,0,2,0,0,0],"split_type":[0,0,0,0,0,0,0,0,0,0,0,0,0,0,0,0,0,0,0,0,0,0,0,0,0,0,0,0,0,0,0,0,0,0,0,0,0,0,0,0,0,0,0,0,0,0,0,0,0,0,0,0,0,0,0,0,0,0,0,0,0,0,0],"sum_hessian":[2.460725E4,9.133826E2,2.3693867E4,4.5698444E1,8.676842E2,1.9521852E4,4.172015E3,6.483344E2,2.1934981E2,1.9361332E4,1.6052005E2,3.9703933E3,2.0162201E2,5.9608307E2,5.2251335E1,5.9198663E2,1.8769346E4,2.4299968E2,3.4898694E2,1.4302426E4,4.4669194E3,2.9889267E2,5.009428E1,6.417216E3,7.8852104E3,1.5797705E3,2.887149E3,4.990667E3,1.4265487E3,6.2411167E3,1.6440939E3,8.10595E2,7.691755E2,1.5639722E2,2.7307517E3,3.0378833E3,1.9527836E3,4.159306E2,3.9466437E2,6.1008203E2,1.5909343E2,7.901956E1,7.7377655E1,2.0908813E3,6.3987036E2,9.431256E2,2.0947578E3,1.7994415E2,2.3598645E2,3.8850552E2,2.2157652E2,1.8762168E3,2.1466452E2,6.6058887E2,2.8253674E2,2.0552803E3,3.947738E1,2.2721907E2,1.6128645E2,7.795325E2,1.0966844E3,2.8858917E2,4.9094327E2],"tree_param":{"num_deleted":"0","num_feature":"14","num_nodes":"63","size_leaf_vector":"1"}},{"base_weights":[-4.9393023E-3,-1.3408378E-1,-3.3208898E-3,-4.3820195E-2,3.7092203E-3,-2.1756256E-1,-2.0865485E-2,1.1142927E-2,-5.0630245E-2,2.5514541E-3,3.2630797E-2,-2.1681663E-1,-2.6783418E-2,-0E0,-1.02506295E-1,4.6807002E-2,-5.5078126E-2,5.0313454E-2,-1.1114229E-1,-5.7375766E-2,1.227932E-1],"categories":[],"categories_nodes":[],"categories_segments":[],"categories_sizes":[],"default_left":[0,0,0,0,0,0,0,0,0,0,0,0,0,0,0,0,0,0,0,0,0],"id":5,"left_children":[1,-1,3,5,7,-1,-1,9,11,-1,-1,-1,13,15,-1,17,19,-1,-1,-1,-1],"loss_changes":[6.74418E0,0E0,7.064989E0,1.1226795E1,8.090546E0,0E0,0E0,4.752775E0,1.3907604E1,0E0,0E0,0E0,7.923372E0,4.7111845E0,0E0,5.8717556E0,5.7246237E0,0E0,0E0,0E0,0E0],"parents":[2147483647,0,0,2,2,3,3,4,4,7,7,8,8,12,12,13,13,15,15,16,16],"right_children":[2,-1,4,6,8,-1,-1,10,12,-1,-1,-1,14,16,-1,18,20,-1,-1,-1,-1],"split_conditions":[-1.0563521E0,-1.3408378E-1,-7.593094E-1,1.0703452E0,7.7031034E-1,-2.1756256E-1,-2.0865485E-2,-8.107635E-2,-7.240495E-1,2.5514541E-3,3.2630797E-2,-2.1681663E-1,1E0,1E0,-1.02506295E-1,1E0,1E0,5.0313454E-2,-1.1114229E-1,-5.7375766E-2,1.227932E-1],"split_indices":[2,0,0,1,0,0,0,2,2,0,0,0,11,12,0,5,5,0,0,0,0],"split_type":[0,0,0,0,0,0,0,0,0,0,0,0,0,0,0,0,0,0,0,0,0],"sum_hessian":[2.4303367E4,1.6725508E2,2.4136113E4,3.6635012E3,2.0472611E4,1.3149974E2,3.5320015E3,1.8090885E4,2.3817253E3,1.5267526E4,2.8233599E3,1.667746E2,2.214951E3,1.8197152E3,3.9523566E2,1.0078803E3,8.118349E2,9.1260315E2,9.527717E1,7.40698E2,7.113689E1],"tree_param":{"num_deleted":"0","num_feature":"14","num_nodes":"21","size_leaf_vector":"1"}},{"base_weights":[-1.731182E-3],"categories":[],"categories_nodes":[],"categories_segments":[],"categories_sizes":[],"default_left":[0],"id":6,"left_children":[-1],"loss_changes":[0E0],"parents":[2147483647],"right_children":[-1],"split_conditions":[-1.1546339E-3],"split_indices":[0],"split_type":[0],"sum_hessian":[2.4200441E4],"tree_param":{"num_deleted":"0","num_feature":"14","num_nodes":"1","size_leaf_vector":"1"}},{"base_weights":[-4.7521878E-4,3.8675182E-3,-4.3758143E-2,-9.629568E-3,1.8589735E-2,3.9335113E-4,-4.950541E-2,2.8978959E-3,-2.1801142E-1,-5.7873745E-2,1.3761738E-2,-9.338967E-2,1.2360745E-2,-1.7033473E-1,1.0708444E-2,-1.738435E-1,-2.523578E-2,-1.4291409E-1,3.3768773E-2,7.138588E-2,-2.2037485E-1,-0E0,-4.25462E-1,-3.8240838E-1,-0E0],"categories":[],"categories_nodes":[],"categories_segments":[],"categories_sizes":[],"default_left":[0,0,0,0,0,0,0,0,0,0,0,0,0,0,0,0,0,0,0,0,0,0,0,0,0],"id":7,"left_children":[1,3,-1,5,-1,7,-1,9,-1,11,13,15,-1,-1,-1,-1,17,-1,19,-1,21,-1,23,-1,-1],"loss_changes":[7.163068E0,7.445076E0,0E0,9.681417E0,0E0,8.657396E0,0E0,7.951068E0,0E0,5.274561E0,5.4128E0,1.3166726E1,0E0,0E0,0E0,0E0,1.1356869E1,0E0,1.2706072E1,0E0,4.82638E0,0E0,5.9971676E0,0E0,0E0],"parents":[2147483647,0,0,1,1,3,3,5,5,7,7,9,9,10,10,11,11,16,16,18,18,20,20,22,22],"right_children":[2,4,-1,6,-1,8,-1,10,-1,12,14,16,-1,-1,-1,-1,18,-1,20,-1,22,-1,24,-1,-1],"split_conditions":[1E0,1E0,-4.3758143E-2,1E0,1.8589735E-2,1.4065149E0,-4.950541E-2,1.3291355E0,-2.1801142E-1,1E0,-1.4646798E0,1E0,1.2360745E-2,-1.7033473E-1,1.0708444E-2,-1.738435E-1,-4.5534196E-1,-1.4291409E-1,-6.7765903E-1,7.138588E-2,5.014336E-2,-0E0,5.172222E-1,-3.8240838E-1,-0E0],"split_indices":[10,13,0,9,0,0,0,1,0,3,0,5,0,0,0,0,0,0,2,0,0,0,0,0,0],"split_type":[0,0,0,0,0,0,0,0,0,0,0,0,0,0,0,0,0,0,0,0,0,0,0,0,0],"sum_hessian":[2.427758E4,2.2698793E4,1.5787871E3,1.4406263E4,8.292531E3,1.2414448E4,1.9918145E3,1.2342076E4,7.2372116E1,1.8006768E3,1.0541399E4,1.2703494E3,5.3032733E2,6.447884E1,1.047692E4,3.413931E2,9.289563E2,2.3521796E2,6.9373834E2,5.5640454E2,1.3733383E2,7.946236E1,5.7871475E1,4.6648205E1,1.1223269E1],"tree_param":{"num_deleted":"0","num_feature":"14","num_nodes":"25","size_leaf_vector":"1"}},{"base_weights":[-2.3784851E-4],"categories":[],"categories_nodes":[],"categories_segments":[],"categories_sizes":[],"default_left":[0],"id":8,"left_children":[-1],"loss_changes":[0E0],"parents":[2147483647],"right_children":[-1],"split_conditions":[-1.586361E-4],"split_indices":[0],"split_type":[0],"sum_hessian":[2.416426E4],"tree_param":{"num_deleted":"0","num_feature":"14","num_nodes":"1","size_leaf_vector":"1"}},{"base_weights":[1.3133511E-3],"categories":[],"categories_nodes":[],"categories_segments":[],"categories_sizes":[],"default_left":[0],"id":9,"left_children":[-1],"loss_changes":[0E0],"parents":[2147483647],"right_children":[-1],"split_conditions":[8.759563E-4],"split_indices":[0],"split_type":[0],"sum_hessian":[2.4187613E4],"tree_param":{"num_deleted":"0","num_feature":"14","num_nodes":"1","size_leaf_vector":"1"}},{"base_weights":[-0E0],"categories":[],"categories_nodes":[],"categories_segments":[],"categories_sizes":[],"default_left":[0],"id":10,"left_children":[-1],"loss_changes":[0E0],"parents":[2147483647],"right_children":[-1],"split_conditions":[-0E0],"split_indices":[0],"split_type":[0],"sum_hessian":[2.4163154E4],"tree_param":{"num_deleted":"0","num_feature":"14","num_nodes":"1","size_leaf_vector":"1"}},{"base_weights":[-1.7530204E-3],"categories":[],"categories_nodes":[],"categories_segments":[],"categories_sizes":[],"default_left":[0],"id":11,"left_children":[-1],"loss_changes":[0E0],"parents":[2147483647],"right_children":[-1],"split_conditions":[-1.1691995E-3],"split_indices":[0],"split_type":[0],"sum_hessian":[2.417094E4],"tree_param":{"num_deleted":"0","num_feature":"14","num_nodes":"1","size_leaf_vector":"1"}},{"base_weights":[1.3109047E-3,-6.3719866E-3,1.2353476E-2],"categories":[],"categories_nodes":[],"categories_segments":[],"categories_sizes":[],"default_left":[0,0,0],"id":12,"left_children":[1,-1,-1],"loss_changes":[4.5716467E0,0E0,0E0],"parents":[2147483647,0,0],"right_children":[2,-1,-1],"split_conditions":[1E0,-6.3719866E-3,1.2353476E-2],"split_indices":[13,0,0],"split_type":[0,0,0],"sum_hessian":[2.4206582E4,1.4672909E4,9.533674E3],"tree_param":{"num_deleted":"0","num_feature":"14","num_nodes":"3","size_leaf_vector":"1"}},{"base_weights":[-1.143388E-3],"categories":[],"categories_nodes":[],"categories_segments":[],"categories_sizes":[],"default_left":[0],"id":13,"left_children":[-1],"loss_changes":[0E0],"parents":[2147483647],"right_children":[-1],"split_conditions":[-7.6259725E-4],"split_indices":[0],"split_type":[0],"sum_hessian":[2.4171307E4],"tree_param":{"num_deleted":"0","num_feature":"14","num_nodes":"1","size_leaf_vector":"1"}},{"base_weights":[2.2835375E-3],"categories":[],"categories_nodes":[],"categories_segments":[],"categories_sizes":[],"default_left":[0],"id":14,"left_children":[-1],"loss_changes":[0E0],"parents":[2147483647],"right_children":[-1],"split_conditions":[1.5230345E-3],"split_indices":[0],"split_type":[0],"sum_hessian":[2.4170477E4],"tree_param":{"num_deleted":"0","num_feature":"14","num_nodes":"1","size_leaf_vector":"1"}},{"base_weights":[-1.8579367E-3],"categories":[],"categories_nodes":[],"categories_segments":[],"categories_sizes":[],"default_left":[0],"id":15,"left_children":[-1],"loss_changes":[0E0],"parents":[2147483647],"right_children":[-1],"split_conditions":[-1.2391747E-3],"split_indices":[0],"split_type":[0],"sum_hessian":[2.4152791E4],"tree_param":{"num_deleted":"0","num_feature":"14","num_nodes":"1","size_leaf_vector":"1"}},{"base_weights":[-1.2105496E-3],"categories":[],"categories_nodes":[],"categories_segments":[],"categories_sizes":[],"default_left":[0],"id":16,"left_children":[-1],"loss_changes":[0E0],"parents":[2147483647],"right_children":[-1],"split_conditions":[-8.0739154E-4],"split_indices":[0],"split_type":[0],"sum_hessian":[2.414851E4],"tree_param":{"num_deleted":"0","num_feature":"14","num_nodes":"1","size_leaf_vector":"1"}},{"base_weights":[2.6237085E-3],"categories":[],"categories_nodes":[],"categories_segments":[],"categories_sizes":[],"default_left":[0],"id":17,"left_children":[-1],"loss_changes":[0E0],"parents":[2147483647],"right_children":[-1],"split_conditions":[1.7499159E-3],"split_indices":[0],"split_type":[0],"sum_hessian":[2.4189162E4],"tree_param":{"num_deleted":"0","num_feature":"14","num_nodes":"1","size_leaf_vector":"1"}},{"base_weights":[3.9528182E-4],"categories":[],"categories_nodes":[],"categories_segments":[],"categories_sizes":[],"default_left":[0],"id":18,"left_children":[-1],"loss_changes":[0E0],"parents":[2147483647],"right_children":[-1],"split_conditions":[2.6363827E-4],"split_indices":[0],"split_type":[0],"sum_hessian":[2.418426E4],"tree_param":{"num_deleted":"0","num_feature":"14","num_nodes":"1","size_leaf_vector":"1"}},{"base_weights":[-1.1815298E-3],"categories":[],"categories_nodes":[],"categories_segments":[],"categories_sizes":[],"default_left":[0],"id":19,"left_children":[-1],"loss_changes":[0E0],"parents":[2147483647],"right_children":[-1],"split_conditions":[-7.8803644E-4],"split_indices":[0],"split_type":[0],"sum_hessian":[2.4173725E4],"tree_param":{"num_deleted":"0","num_feature":"14","num_nodes":"1","size_leaf_vector":"1"}},{"base_weights":[-1.0518954E-3],"categories":[],"categories_nodes":[],"categories_segments":[],"categories_sizes":[],"default_left":[0],"id":20,"left_children":[-1],"loss_changes":[0E0],"parents":[2147483647],"right_children":[-1],"split_conditions":[-7.0157513E-4],"split_indices":[0],"split_type":[0],"sum_hessian":[2.417379E4],"tree_param":{"num_deleted":"0","num_feature":"14","num_nodes":"1","size_leaf_vector":"1"}},{"base_weights":[-2.9048072E-3],"categories":[],"categories_nodes":[],"categories_segments":[],"categories_sizes":[],"default_left":[0],"id":21,"left_children":[-1],"loss_changes":[0E0],"parents":[2147483647],"right_children":[-1],"split_conditions":[-1.9373983E-3],"split_indices":[0],"split_type":[0],"sum_hessian":[2.416228E4],"tree_param":{"num_deleted":"0","num_feature":"14","num_nodes":"1","size_leaf_vector":"1"}},{"base_weights":[-0E0],"categories":[],"categories_nodes":[],"categories_segments":[],"categories_sizes":[],"default_left":[0],"id":22,"left_children":[-1],"loss_changes":[0E0],"parents":[2147483647],"right_children":[-1],"split_conditions":[-0E0],"split_indices":[0],"split_type":[0],"sum_hessian":[2.4210877E4],"tree_param":{"num_deleted":"0","num_feature":"14","num_nodes":"1","size_leaf_vector":"1"}},{"base_weights":[2.8368507E-3],"categories":[],"categories_nodes":[],"categories_segments":[],"categories_sizes":[],"default_left":[0],"id":23,"left_children":[-1],"loss_changes":[0E0],"parents":[2147483647],"right_children":[-1],"split_conditions":[1.8920739E-3],"split_indices":[0],"split_type":[0],"sum_hessian":[2.4202207E4],"tree_param":{"num_deleted":"0","num_feature":"14","num_nodes":"1","size_leaf_vector":"1"}},{"base_weights":[-4.868172E-4],"categories":[],"categories_nodes":[],"categories_segments":[],"categories_sizes":[],"default_left":[0],"id":24,"left_children":[-1],"loss_changes":[0E0],"parents":[2147483647],"right_children":[-1],"split_conditions":[-3.2468897E-4],"split_indices":[0],"split_type":[0],"sum_hessian":[2.4146588E4],"tree_param":{"num_deleted":"0","num_feature":"14","num_nodes":"1","size_leaf_vector":"1"}},{"base_weights":[8.187743E-5],"categories":[],"categories_nodes":[],"categories_segments":[],"categories_sizes":[],"default_left":[0],"id":25,"left_children":[-1],"loss_changes":[0E0],"parents":[2147483647],"right_children":[-1],"split_conditions":[5.4609198E-5],"split_indices":[0],"split_type":[0],"sum_hessian":[2.4183025E4],"tree_param":{"num_deleted":"0","num_feature":"14","num_nodes":"1","size_leaf_vector":"1"}},{"base_weights":[4.8040735E-4],"categories":[],"categories_nodes":[],"categories_segments":[],"categories_sizes":[],"default_left":[0],"id":26,"left_children":[-1],"loss_changes":[0E0],"parents":[2147483647],"right_children":[-1],"split_conditions":[3.2041385E-4],"split_indices":[0],"split_type":[0],"sum_hessian":[2.4160023E4],"tree_param":{"num_deleted":"0","num_feature":"14","num_nodes":"1","size_leaf_vector":"1"}},{"base_weights":[-0E0],"categories":[],"categories_nodes":[],"categories_segments":[],"categories_sizes":[],"default_left":[0],"id":27,"left_children":[-1],"loss_changes":[0E0],"parents":[2147483647],"right_children":[-1],"split_conditions":[-0E0],"split_indices":[0],"split_type":[0],"sum_hessian":[2.418888E4],"tree_param":{"num_deleted":"0","num_feature":"14","num_nodes":"1","size_leaf_vector":"1"}},{"base_weights":[-4.1033057E-4],"categories":[],"categories_nodes":[],"categories_segments":[],"categories_sizes":[],"default_left":[0],"id":28,"left_children":[-1],"loss_changes":[0E0],"parents":[2147483647],"right_children":[-1],"split_conditions":[-2.7367522E-4],"split_indices":[0],"split_type":[0],"sum_hessian":[2.4183693E4],"tree_param":{"num_deleted":"0","num_feature":"14","num_nodes":"1","size_leaf_vector":"1"}},{"base_weights":[1.0047755E-3,-2.1559258E-1,1.229396E-3],"categories":[],"categories_nodes":[],"categories_segments":[],"categories_sizes":[],"default_left":[0,0,0],"id":29,"left_children":[1,-1,-1],"loss_changes":[5.069759E0,0E0,0E0],"parents":[2147483647,0,0],"right_children":[2,-1,-1],"split_conditions":[3.8181412E-1,-2.1559258E-1,1.229396E-3],"split_indices":[1,0,0],"split_type":[0,0,0],"sum_hessian":[2.421124E4,4.026539E1,2.4170975E4],"tree_param":{"num_deleted":"0","num_feature":"14","num_nodes":"3","size_leaf_vector":"1"}},{"base_weights":[-1.711128E-3],"categories":[],"categories_nodes":[],"categories_segments":[],"categories_sizes":[],"default_left":[0],"id":30,"left_children":[-1],"loss_changes":[0E0],"parents":[2147483647],"right_children":[-1],"split_conditions":[-1.1412587E-3],"split_indices":[0],"split_type":[0],"sum_hessian":[2.4185453E4],"tree_param":{"num_deleted":"0","num_feature":"14","num_nodes":"1","size_leaf_vector":"1"}},{"base_weights":[2.3554694E-3],"categories":[],"categories_nodes":[],"categories_segments":[],"categories_sizes":[],"default_left":[0],"id":31,"left_children":[-1],"loss_changes":[0E0],"parents":[2147483647],"right_children":[-1],"split_conditions":[1.5710104E-3],"split_indices":[0],"split_type":[0],"sum_hessian":[2.414417E4],"tree_param":{"num_deleted":"0","num_feature":"14","num_nodes":"1","size_leaf_vector":"1"}},{"base_weights":[-3.2531137E-3],"categories":[],"categories_nodes":[],"categories_segments":[],"categories_sizes":[],"default_left":[0],"id":32,"left_children":[-1],"loss_changes":[0E0],"parents":[2147483647],"right_children":[-1],"split_conditions":[-2.169706E-3],"split_indices":[0],"split_type":[0],"sum_hessian":[2.4172246E4],"tree_param":{"num_deleted":"0","num_feature":"14","num_nodes":"1","size_leaf_vector":"1"}},{"base_weights":[-1.1927522E-3],"categories":[],"categories_nodes":[],"categories_segments":[],"categories_sizes":[],"default_left":[0],"id":33,"left_children":[-1],"loss_changes":[0E0],"parents":[2147483647],"right_children":[-1],"split_conditions":[-7.955213E-4],"split_indices":[0],"split_type":[0],"sum_hessian":[2.4173107E4],"tree_param":{"num_deleted":"0","num_feature":"14","num_nodes":"1","size_leaf_vector":"1"}},{"base_weights":[2.818851E-3],"categories":[],"categories_nodes":[],"categories_segments":[],"categories_sizes":[],"default_left":[0],"id":34,"left_children":[-1],"loss_changes":[0E0],"parents":[2147483647],"right_children":[-1],"split_conditions":[1.8800688E-3],"split_indices":[0],"split_type":[0],"sum_hessian":[2.4214416E4],"tree_param":{"num_deleted":"0","num_feature":"14","num_nodes":"1","size_leaf_vector":"1"}},{"base_weights":[-1.6149268E-3],"categories":[],"categories_nodes":[],"categories_segments":[],"categories_sizes":[],"default_left":[0],"id":35,"left_children":[-1],"loss_changes":[0E0],"parents":[2147483647],"right_children":[-1],"split_conditions":[-1.0770961E-3],"split_indices":[0],"split_type":[0],"sum_hessian":[2.4163537E4],"tree_param":{"num_deleted":"0","num_feature":"14","num_nodes":"1","size_leaf_vector":"1"}},{"base_weights":[-3.6976827E-4],"categories":[],"categories_nodes":[],"categories_segments":[],"categories_sizes":[],"default_left":[0],"id":36,"left_children":[-1],"loss_changes":[0E0],"parents":[2147483647],"right_children":[-1],"split_conditions":[-2.4662167E-4],"split_indices":[0],"split_type":[0],"sum_hessian":[2.4171969E4],"tree_param":{"num_deleted":"0","num_feature":"14","num_nodes":"1","size_leaf_vector":"1"}},{"base_weights":[3.2212187E-3],"categories":[],"categories_nodes":[],"categories_segments":[],"categories_sizes":[],"default_left":[0],"id":37,"left_children":[-1],"loss_changes":[0E0],"parents":[2147483647],"right_children":[-1],"split_conditions":[2.1484331E-3],"split_indices":[0],"split_type":[0],"sum_hessian":[2.4143086E4],"tree_param":{"num_deleted":"0","num_feature":"14","num_nodes":"1","size_leaf_vector":"1"}},{"base_weights":[-0E0],"categories":[],"categories_nodes":[],"categories_segments":[],"categories_sizes":[],"default_left":[0],"id":38,"left_children":[-1],"loss_changes":[0E0],"parents":[2147483647],"right_children":[-1],"split_conditions":[-0E0],"split_indices":[0],"split_type":[0],"sum_hessian":[2.4191035E4],"tree_param":{"num_deleted":"0","num_feature":"14","num_nodes":"1","size_leaf_vector":"1"}},{"base_weights":[-1.2872042E-3],"categories":[],"categories_nodes":[],"categories_segments":[],"categories_sizes":[],"default_left":[0],"id":39,"left_children":[-1],"loss_changes":[0E0],"parents":[2147483647],"right_children":[-1],"split_conditions":[-8.585173E-4],"split_indices":[0],"split_type":[0],"sum_hessian":[2.4169762E4],"tree_param":{"num_deleted":"0","num_feature":"14","num_nodes":"1","size_leaf_vector":"1"}},{"base_weights":[1.5136456E-3],"categories":[],"categories_nodes":[],"categories_segments":[],"categories_sizes":[],"default_left":[0],"id":40,"left_children":[-1],"loss_changes":[0E0],"parents":[2147483647],"right_children":[-1],"split_conditions":[1.0095453E-3],"split_indices":[0],"split_type":[0],"sum_hessian":[2.4201387E4],"tree_param":{"num_deleted":"0","num_feature":"14","num_nodes":"1","size_leaf_vector":"1"}},{"base_weights":[-0E0],"categories":[],"categories_nodes":[],"categories_segments":[],"categories_sizes":[],"default_left":[0],"id":41,"left_children":[-1],"loss_changes":[0E0],"parents":[2147483647],"right_children":[-1],"split_conditions":[-0E0],"split_indices":[0],"split_type":[0],"sum_hessian":[2.4179275E4],"tree_param":{"num_deleted":"0","num_feature":"14","num_nodes":"1","size_leaf_vector":"1"}},{"base_weights":[-1.2230631E-3],"categories":[],"categories_nodes":[],"categories_segments":[],"categories_sizes":[],"default_left":[0],"id":42,"left_children":[-1],"loss_changes":[0E0],"parents":[2147483647],"right_children":[-1],"split_conditions":[-8.157376E-4],"split_indices":[0],"split_type":[0],"sum_hessian":[2.4201168E4],"tree_param":{"num_deleted":"0","num_feature":"14","num_nodes":"1","size_leaf_vector":"1"}},{"base_weights":[9.6133724E-4],"categories":[],"categories_nodes":[],"categories_segments":[],"categories_sizes":[],"default_left":[0],"id":43,"left_children":[-1],"loss_changes":[0E0],"parents":[2147483647],"right_children":[-1],"split_conditions":[6.411762E-4],"split_indices":[0],"split_type":[0],"sum_hessian":[2.4200523E4],"tree_param":{"num_deleted":"0","num_feature":"14","num_nodes":"1","size_leaf_vector":"1"}},{"base_weights":[2.4389365E-5],"categories":[],"categories_nodes":[],"categories_segments":[],"categories_sizes":[],"default_left":[0],"id":44,"left_children":[-1],"loss_changes":[0E0],"parents":[2147483647],"right_children":[-1],"split_conditions":[1.6266798E-5],"split_indices":[0],"split_type":[0],"sum_hessian":[2.4167018E4],"tree_param":{"num_deleted":"0","num_feature":"14","num_nodes":"1","size_leaf_vector":"1"}},{"base_weights":[5.218329E-4],"categories":[],"categories_nodes":[],"categories_segments":[],"categories_sizes":[],"default_left":[0],"id":45,"left_children":[-1],"loss_changes":[0E0],"parents":[2147483647],"right_children":[-1],"split_conditions":[3.4804313E-4],"split_indices":[0],"split_type":[0],"sum_hessian":[2.4140354E4],"tree_param":{"num_deleted":"0","num_feature":"14","num_nodes":"1","size_leaf_vector":"1"}},{"base_weights":[-2.9745724E-4],"categories":[],"categories_nodes":[],"categories_segments":[],"categories_sizes":[],"default_left":[0],"id":46,"left_children":[-1],"loss_changes":[0E0],"parents":[2147483647],"right_children":[-1],"split_conditions":[-1.9839291E-4],"split_indices":[0],"split_type":[0],"sum_hessian":[2.417225E4],"tree_param":{"num_deleted":"0","num_feature":"14","num_nodes":"1","size_leaf_vector":"1"}},{"base_weights":[-1.8969534E-3],"categories":[],"categories_nodes":[],"categories_segments":[],"categories_sizes":[],"default_left":[0],"id":47,"left_children":[-1],"loss_changes":[0E0],"parents":[2147483647],"right_children":[-1],"split_conditions":[-1.2651974E-3],"split_indices":[0],"split_type":[0],"sum_hessian":[2.4157625E4],"tree_param":{"num_deleted":"0","num_feature":"14","num_nodes":"1","size_leaf_vector":"1"}},{"base_weights":[-7.630175E-4],"categories":[],"categories_nodes":[],"categories_segments":[],"categories_sizes":[],"default_left":[0],"id":48,"left_children":[-1],"loss_changes":[0E0],"parents":[2147483647],"right_children":[-1],"split_conditions":[-5.089043E-4],"split_indices":[0],"split_type":[0],"sum_hessian":[2.414299E4],"tree_param":{"num_deleted":"0","num_feature":"14","num_nodes":"1","size_leaf_vector":"1"}},{"base_weights":[1.3162048E-3],"categories":[],"categories_nodes":[],"categories_segments":[],"categories_sizes":[],"default_left":[0],"id":49,"left_children":[-1],"loss_changes":[0E0],"parents":[2147483647],"right_children":[-1],"split_conditions":[8.7785965E-4],"split_indices":[0],"split_type":[0],"sum_hessian":[2.4169941E4],"tree_param":{"num_deleted":"0","num_feature":"14","num_nodes":"1","size_leaf_vector":"1"}},{"base_weights":[3.005812E-4],"categories":[],"categories_nodes":[],"categories_segments":[],"categories_sizes":[],"default_left":[0],"id":50,"left_children":[-1],"loss_changes":[0E0],"parents":[2147483647],"right_children":[-1],"split_conditions":[2.0047647E-4],"split_indices":[0],"split_type":[0],"sum_hessian":[2.4158469E4],"tree_param":{"num_deleted":"0","num_feature":"14","num_nodes":"1","size_leaf_vector":"1"}},{"base_weights":[-2.101974E-3],"categories":[],"categories_nodes":[],"categories_segments":[],"categories_sizes":[],"default_left":[0],"id":51,"left_children":[-1],"loss_changes":[0E0],"parents":[2147483647],"right_children":[-1],"split_conditions":[-1.4019385E-3],"split_indices":[0],"split_type":[0],"sum_hessian":[2.4175357E4],"tree_param":{"num_deleted":"0","num_feature":"14","num_nodes":"1","size_leaf_vector":"1"}},{"base_weights":[1.1417975E-3],"categories":[],"categories_nodes":[],"categories_segments":[],"categories_sizes":[],"default_left":[0],"id":52,"left_children":[-1],"loss_changes":[0E0],"parents":[2147483647],"right_children":[-1],"split_conditions":[7.615365E-4],"split_indices":[0],"split_type":[0],"sum_hessian":[2.417468E4],"tree_param":{"num_deleted":"0","num_feature":"14","num_nodes":"1","size_leaf_vector":"1"}},{"base_weights":[4.9279595E-4],"categories":[],"categories_nodes":[],"categories_segments":[],"categories_sizes":[],"default_left":[0],"id":53,"left_children":[-1],"loss_changes":[0E0],"parents":[2147483647],"right_children":[-1],"split_conditions":[3.2867657E-4],"split_indices":[0],"split_type":[0],"sum_hessian":[2.4180855E4],"tree_param":{"num_deleted":"0","num_feature":"14","num_nodes":"1","size_leaf_vector":"1"}},{"base_weights":[1.7761184E-3],"categories":[],"categories_nodes":[],"categories_segments":[],"categories_sizes":[],"default_left":[0],"id":54,"left_children":[-1],"loss_changes":[0E0],"parents":[2147483647],"right_children":[-1],"split_conditions":[1.184605E-3],"split_indices":[0],"split_type":[0],"sum_hessian":[2.4187238E4],"tree_param":{"num_deleted":"0","num_feature":"14","num_nodes":"1","size_leaf_vector":"1"}},{"base_weights":[-2.5301431E-3],"categories":[],"categories_nodes":[],"categories_segments":[],"categories_sizes":[],"default_left":[0],"id":55,"left_children":[-1],"loss_changes":[0E0],"parents":[2147483647],"right_children":[-1],"split_conditions":[-1.6875113E-3],"split_indices":[0],"split_type":[0],"sum_hessian":[2.4165078E4],"tree_param":{"num_deleted":"0","num_feature":"14","num_nodes":"1","size_leaf_vector":"1"}},{"base_weights":[-1.6376078E-4],"categories":[],"categories_nodes":[],"categories_segments":[],"categories_sizes":[],"default_left":[0],"id":56,"left_children":[-1],"loss_changes":[0E0],"parents":[2147483647],"right_children":[-1],"split_conditions":[-1.0922235E-4],"split_indices":[0],"split_type":[0],"sum_hessian":[2.417038E4],"tree_param":{"num_deleted":"0","num_feature":"14","num_nodes":"1","size_leaf_vector":"1"}},{"base_weights":[2.5551766E-4],"categories":[],"categories_nodes":[],"categories_segments":[],"categories_sizes":[],"default_left":[0],"id":57,"left_children":[-1],"loss_changes":[0E0],"parents":[2147483647],"right_children":[-1],"split_conditions":[1.7042078E-4],"split_indices":[0],"split_type":[0],"sum_hessian":[2.4175404E4],"tree_param":{"num_deleted":"0","num_feature":"14","num_nodes":"1","size_leaf_vector":"1"}},{"base_weights":[3.6381807E-3],"categories":[],"categories_nodes":[],"categories_segments":[],"categories_sizes":[],"default_left":[0],"id":58,"left_children":[-1],"loss_changes":[0E0],"parents":[2147483647],"right_children":[-1],"split_conditions":[2.4265312E-3],"split_indices":[0],"split_type":[0],"sum_hessian":[2.416436E4],"tree_param":{"num_deleted":"0","num_feature":"14","num_nodes":"1","size_leaf_vector":"1"}},{"base_weights":[-1.2941421E-3],"categories":[],"categories_nodes":[],"categories_segments":[],"categories_sizes":[],"default_left":[0],"id":59,"left_children":[-1],"loss_changes":[0E0],"parents":[2147483647],"right_children":[-1],"split_conditions":[-8.6314464E-4],"split_indices":[0],"split_type":[0],"sum_hessian":[2.4145557E4],"tree_param":{"num_deleted":"0","num_feature":"14","num_nodes":"1","size_leaf_vector":"1"}},{"base_weights":[1.6900902E-3],"categories":[],"categories_nodes":[],"categories_segments":[],"categories_sizes":[],"default_left":[0],"id":60,"left_children":[-1],"loss_changes":[0E0],"parents":[2147483647],"right_children":[-1],"split_conditions":[1.1272273E-3],"split_indices":[0],"split_type":[0],"sum_hessian":[2.417891E4],"tree_param":{"num_deleted":"0","num_feature":"14","num_nodes":"1","size_leaf_vector":"1"}},{"base_weights":[-2.967175E-3],"categories":[],"categories_nodes":[],"categories_segments":[],"categories_sizes":[],"default_left":[0],"id":61,"left_children":[-1],"loss_changes":[0E0],"parents":[2147483647],"right_children":[-1],"split_conditions":[-1.9789955E-3],"split_indices":[0],"split_type":[0],"sum_hessian":[2.4136941E4],"tree_param":{"num_deleted":"0","num_feature":"14","num_nodes":"1","size_leaf_vector":"1"}},{"base_weights":[9.908803E-4],"categories":[],"categories_nodes":[],"categories_segments":[],"categories_sizes":[],"default_left":[0],"id":62,"left_children":[-1],"loss_changes":[0E0],"parents":[2147483647],"right_children":[-1],"split_conditions":[6.608803E-4],"split_indices":[0],"split_type":[0],"sum_hessian":[2.4177033E4],"tree_param":{"num_deleted":"0","num_feature":"14","num_nodes":"1","size_leaf_vector":"1"}},{"base_weights":[2.8043026E-3],"categories":[],"categories_nodes":[],"categories_segments":[],"categories_sizes":[],"default_left":[0],"id":63,"left_children":[-1],"loss_changes":[0E0],"parents":[2147483647],"right_children":[-1],"split_conditions":[1.8703656E-3],"split_indices":[0],"split_type":[0],"sum_hessian":[2.4151443E4],"tree_param":{"num_deleted":"0","num_feature":"14","num_nodes":"1","size_leaf_vector":"1"}},{"base_weights":[-3.4313945E-3],"categories":[],"categories_nodes":[],"categories_segments":[],"categories_sizes":[],"default_left":[0],"id":64,"left_children":[-1],"loss_changes":[0E0],"parents":[2147483647],"right_children":[-1],"split_conditions":[-2.2886125E-3],"split_indices":[0],"split_type":[0],"sum_hessian":[2.413432E4],"tree_param":{"num_deleted":"0","num_feature":"14","num_nodes":"1","size_leaf_vector":"1"}},{"base_weights":[-1.7028435E-3],"categories":[],"categories_nodes":[],"categories_segments":[],"categories_sizes":[],"default_left":[0],"id":65,"left_children":[-1],"loss_changes":[0E0],"parents":[2147483647],"right_children":[-1],"split_conditions":[-1.1357332E-3],"split_indices":[0],"split_type":[0],"sum_hessian":[2.4181863E4],"tree_param":{"num_deleted":"0","num_feature":"14","num_nodes":"1","size_leaf_vector":"1"}},{"base_weights":[-2.1712077E-4],"categories":[],"categories_nodes":[],"categories_segments":[],"categories_sizes":[],"default_left":[0],"id":66,"left_children":[-1],"loss_changes":[0E0],"parents":[2147483647],"right_children":[-1],"split_conditions":[-1.4481148E-4],"split_indices":[0],"split_type":[0],"sum_hessian":[2.4182232E4],"tree_param":{"num_deleted":"0","num_feature":"14","num_nodes":"1","size_leaf_vector":"1"}},{"base_weights":[4.750618E-4],"categories":[],"categories_nodes":[],"categories_segments":[],"categories_sizes":[],"default_left":[0],"id":67,"left_children":[-1],"loss_changes":[0E0],"parents":[2147483647],"right_children":[-1],"split_conditions":[3.1684854E-4],"split_indices":[0],"split_type":[0],"sum_hessian":[2.418104E4],"tree_param":{"num_deleted":"0","num_feature":"14","num_nodes":"1","size_leaf_vector":"1"}},{"base_weights":[-6.1538216E-5],"categories":[],"categories_nodes":[],"categories_segments":[],"categories_sizes":[],"default_left":[0],"id":68,"left_children":[-1],"loss_changes":[0E0],"parents":[2147483647],"right_children":[-1],"split_conditions":[-4.1043702E-5],"split_indices":[0],"split_type":[0],"sum_hessian":[2.4144113E4],"tree_param":{"num_deleted":"0","num_feature":"14","num_nodes":"1","size_leaf_vector":"1"}},{"base_weights":[1.4456016E-3],"categories":[],"categories_nodes":[],"categories_segments":[],"categories_sizes":[],"default_left":[0],"id":69,"left_children":[-1],"loss_changes":[0E0],"parents":[2147483647],"right_children":[-1],"split_conditions":[9.6416246E-4],"split_indices":[0],"split_type":[0],"sum_hessian":[2.4172732E4],"tree_param":{"num_deleted":"0","num_feature":"14","num_nodes":"1","size_leaf_vector":"1"}},{"base_weights":[-1.2753608E-4],"categories":[],"categories_nodes":[],"categories_segments":[],"categories_sizes":[],"default_left":[0],"id":70,"left_children":[-1],"loss_changes":[0E0],"parents":[2147483647],"right_children":[-1],"split_conditions":[-8.506182E-5],"split_indices":[0],"split_type":[0],"sum_hessian":[2.4166014E4],"tree_param":{"num_deleted":"0","num_feature":"14","num_nodes":"1","size_leaf_vector":"1"}},{"base_weights":[-9.625231E-4],"categories":[],"categories_nodes":[],"categories_segments":[],"categories_sizes":[],"default_left":[0],"id":71,"left_children":[-1],"loss_changes":[0E0],"parents":[2147483647],"right_children":[-1],"split_conditions":[-6.419671E-4],"split_indices":[0],"split_type":[0],"sum_hessian":[2.4174006E4],"tree_param":{"num_deleted":"0","num_feature":"14","num_nodes":"1","size_leaf_vector":"1"}},{"base_weights":[3.077502E-4],"categories":[],"categories_nodes":[],"categories_segments":[],"categories_sizes":[],"default_left":[0],"id":72,"left_children":[-1],"loss_changes":[0E0],"parents":[2147483647],"right_children":[-1],"split_conditions":[2.0525792E-4],"split_indices":[0],"split_type":[0],"sum_hessian":[2.4131898E4],"tree_param":{"num_deleted":"0","num_feature":"14","num_nodes":"1","size_leaf_vector":"1"}},{"base_weights":[-0E0],"categories":[],"categories_nodes":[],"categories_segments":[],"categories_sizes":[],"default_left":[0],"id":73,"left_children":[-1],"loss_changes":[0E0],"parents":[2147483647],"right_children":[-1],"split_conditions":[-0E0],"split_indices":[0],"split_type":[0],"sum_hessian":[2.4172201E4],"tree_param":{"num_deleted":"0","num_feature":"14","num_nodes":"1","size_leaf_vector":"1"}},{"base_weights":[-0E0],"categories":[],"categories_nodes":[],"categories_segments":[],"categories_sizes":[],"default_left":[0],"id":74,"left_children":[-1],"loss_changes":[0E0],"parents":[2147483647],"right_children":[-1],"split_conditions":[-0E0],"split_indices":[0],"split_type":[0],"sum_hessian":[2.4181533E4],"tree_param":{"num_deleted":"0","num_feature":"14","num_nodes":"1","size_leaf_vector":"1"}},{"base_weights":[1.8493386E-3],"categories":[],"categories_nodes":[],"categories_segments":[],"categories_sizes":[],"default_left":[0],"id":75,"left_children":[-1],"loss_changes":[0E0],"parents":[2147483647],"right_children":[-1],"split_conditions":[1.2334401E-3],"split_indices":[0],"split_type":[0],"sum_hessian":[2.416583E4],"tree_param":{"num_deleted":"0","num_feature":"14","num_nodes":"1","size_leaf_vector":"1"}},{"base_weights":[-0E0],"categories":[],"categories_nodes":[],"categories_segments":[],"categories_sizes":[],"default_left":[0],"id":76,"left_children":[-1],"loss_changes":[0E0],"parents":[2147483647],"right_children":[-1],"split_conditions":[-0E0],"split_indices":[0],"split_type":[0],"sum_hessian":[2.4144932E4],"tree_param":{"num_deleted":"0","num_feature":"14","num_nodes":"1","size_leaf_vector":"1"}},{"base_weights":[1.6906381E-3],"categories":[],"categories_nodes":[],"categories_segments":[],"categories_sizes":[],"default_left":[0],"id":77,"left_children":[-1],"loss_changes":[0E0],"parents":[2147483647],"right_children":[-1],"split_conditions":[1.1275928E-3],"split_indices":[0],"split_type":[0],"sum_hessian":[2.4195135E4],"tree_param":{"num_deleted":"0","num_feature":"14","num_nodes":"1","size_leaf_vector":"1"}},{"base_weights":[-0E0],"categories":[],"categories_nodes":[],"categories_segments":[],"categories_sizes":[],"default_left":[0],"id":78,"left_children":[-1],"loss_changes":[0E0],"parents":[2147483647],"right_children":[-1],"split_conditions":[-0E0],"split_indices":[0],"split_type":[0],"sum_hessian":[2.4146693E4],"tree_param":{"num_deleted":"0","num_feature":"14","num_nodes":"1","size_leaf_vector":"1"}},{"base_weights":[-2.7297104E-3],"categories":[],"categories_nodes":[],"categories_segments":[],"categories_sizes":[],"default_left":[0],"id":79,"left_children":[-1],"loss_changes":[0E0],"parents":[2147483647],"right_children":[-1],"split_conditions":[-1.8206153E-3],"split_indices":[0],"split_type":[0],"sum_hessian":[2.4145734E4],"tree_param":{"num_deleted":"0","num_feature":"14","num_nodes":"1","size_leaf_vector":"1"}},{"base_weights":[3.0560975E-3],"categories":[],"categories_nodes":[],"categories_segments":[],"categories_sizes":[],"default_left":[0],"id":80,"left_children":[-1],"loss_changes":[0E0],"parents":[2147483647],"right_children":[-1],"split_conditions":[2.0383033E-3],"split_indices":[0],"split_type":[0],"sum_hessian":[2.4198852E4],"tree_param":{"num_deleted":"0","num_feature":"14","num_nodes":"1","size_leaf_vector":"1"}},{"base_weights":[-2.6494209E-3],"categories":[],"categories_nodes":[],"categories_segments":[],"categories_sizes":[],"default_left":[0],"id":81,"left_children":[-1],"loss_changes":[0E0],"parents":[2147483647],"right_children":[-1],"split_conditions":[-1.7670651E-3],"split_indices":[0],"split_type":[0],"sum_hessian":[2.4171293E4],"tree_param":{"num_deleted":"0","num_feature":"14","num_nodes":"1","size_leaf_vector":"1"}},{"base_weights":[-1.05263E-3],"categories":[],"categories_nodes":[],"categories_segments":[],"categories_sizes":[],"default_left":[0],"id":82,"left_children":[-1],"loss_changes":[0E0],"parents":[2147483647],"right_children":[-1],"split_conditions":[-7.0206507E-4],"split_indices":[0],"split_type":[0],"sum_hessian":[2.4169246E4],"tree_param":{"num_deleted":"0","num_feature":"14","num_nodes":"1","size_leaf_vector":"1"}},{"base_weights":[-9.542451E-4],"categories":[],"categories_nodes":[],"categories_segments":[],"categories_sizes":[],"default_left":[0],"id":83,"left_children":[-1],"loss_changes":[0E0],"parents":[2147483647],"right_children":[-1],"split_conditions":[-6.36446E-4],"split_indices":[0],"split_type":[0],"sum_hessian":[2.4194613E4],"tree_param":{"num_deleted":"0","num_feature":"14","num_nodes":"1","size_leaf_vector":"1"}},{"base_weights":[-0E0],"categories":[],"categories_nodes":[],"categories_segments":[],"categories_sizes":[],"default_left":[0],"id":84,"left_children":[-1],"loss_changes":[0E0],"parents":[2147483647],"right_children":[-1],"split_conditions":[-0E0],"split_indices":[0],"split_type":[0],"sum_hessian":[2.4171195E4],"tree_param":{"num_deleted":"0","num_feature":"14","num_nodes":"1","size_leaf_vector":"1"}},{"base_weights":[4.979182E-4],"categories":[],"categories_nodes":[],"categories_segments":[],"categories_sizes":[],"default_left":[0],"id":85,"left_children":[-1],"loss_changes":[0E0],"parents":[2147483647],"right_children":[-1],"split_conditions":[3.3209292E-4],"split_indices":[0],"split_type":[0],"sum_hessian":[2.4185928E4],"tree_param":{"num_deleted":"0","num_feature":"14","num_nodes":"1","size_leaf_vector":"1"}},{"base_weights":[1.7317418E-3],"categories":[],"categories_nodes":[],"categories_segments":[],"categories_sizes":[],"default_left":[0],"id":86,"left_children":[-1],"loss_changes":[0E0],"parents":[2147483647],"right_children":[-1],"split_conditions":[1.1550074E-3],"split_indices":[0],"split_type":[0],"sum_hessian":[2.4192207E4],"tree_param":{"num_deleted":"0","num_feature":"14","num_nodes":"1","size_leaf_vector":"1"}},{"base_weights":[-0E0],"categories":[],"categories_nodes":[],"categories_segments":[],"categories_sizes":[],"default_left":[0],"id":87,"left_children":[-1],"loss_changes":[0E0],"parents":[2147483647],"right_children":[-1],"split_conditions":[-0E0],"split_indices":[0],"split_type":[0],"sum_hessian":[2.4129012E4],"tree_param":{"num_deleted":"0","num_feature":"14","num_nodes":"1","size_leaf_vector":"1"}},{"base_weights":[-8.2253455E-4],"categories":[],"categories_nodes":[],"categories_segments":[],"categories_sizes":[],"default_left":[0],"id":88,"left_children":[-1],"loss_changes":[0E0],"parents":[2147483647],"right_children":[-1],"split_conditions":[-5.485999E-4],"split_indices":[0],"split_type":[0],"sum_hessian":[2.4191441E4],"tree_param":{"num_deleted":"0","num_feature":"14","num_nodes":"1","size_leaf_vector":"1"}},{"base_weights":[-2.8579899E-3],"categories":[],"categories_nodes":[],"categories_segments":[],"categories_sizes":[],"default_left":[0],"id":89,"left_children":[-1],"loss_changes":[0E0],"parents":[2147483647],"right_children":[-1],"split_conditions":[-1.906173E-3],"split_indices":[0],"split_type":[0],"sum_hessian":[2.4178547E4],"tree_param":{"num_deleted":"0","num_feature":"14","num_nodes":"1","size_leaf_vector":"1"}},{"base_weights":[6.578467E-4],"categories":[],"categories_nodes":[],"categories_segments":[],"categories_sizes":[],"default_left":[0],"id":90,"left_children":[-1],"loss_changes":[0E0],"parents":[2147483647],"right_children":[-1],"split_conditions":[4.3875928E-4],"split_indices":[0],"split_type":[0],"sum_hessian":[2.4198514E4],"tree_param":{"num_deleted":"0","num_feature":"14","num_nodes":"1","size_leaf_vector":"1"}},{"base_weights":[4.482361E-3],"categories":[],"categories_nodes":[],"categories_segments":[],"categories_sizes":[],"default_left":[0],"id":91,"left_children":[-1],"loss_changes":[0E0],"parents":[2147483647],"right_children":[-1],"split_conditions":[2.989568E-3],"split_indices":[0],"split_type":[0],"sum_hessian":[2.4183793E4],"tree_param":{"num_deleted":"0","num_feature":"14","num_nodes":"1","size_leaf_vector":"1"}},{"base_weights":[-3.6591345E-3],"categories":[],"categories_nodes":[],"categories_segments":[],"categories_sizes":[],"default_left":[0],"id":92,"left_children":[-1],"loss_changes":[0E0],"parents":[2147483647],"right_children":[-1],"split_conditions":[-2.4405066E-3],"split_indices":[0],"split_type":[0],"sum_hessian":[2.4152617E4],"tree_param":{"num_deleted":"0","num_feature":"14","num_nodes":"1","size_leaf_vector":"1"}},{"base_weights":[9.6928084E-4],"categories":[],"categories_nodes":[],"categories_segments":[],"categories_sizes":[],"default_left":[0],"id":93,"left_children":[-1],"loss_changes":[0E0],"parents":[2147483647],"right_children":[-1],"split_conditions":[6.4647425E-4],"split_indices":[0],"split_type":[0],"sum_hessian":[2.4205773E4],"tree_param":{"num_deleted":"0","num_feature":"14","num_nodes":"1","size_leaf_vector":"1"}},{"base_weights":[1.9465421E-3],"categories":[],"categories_nodes":[],"categories_segments":[],"categories_sizes":[],"default_left":[0],"id":94,"left_children":[-1],"loss_changes":[0E0],"parents":[2147483647],"right_children":[-1],"split_conditions":[1.2982711E-3],"split_indices":[0],"split_type":[0],"sum_hessian":[2.4206852E4],"tree_param":{"num_deleted":"0","num_feature":"14","num_nodes":"1","size_leaf_vector":"1"}},{"base_weights":[7.298093E-4],"categories":[],"categories_nodes":[],"categories_segments":[],"categories_sizes":[],"default_left":[0],"id":95,"left_children":[-1],"loss_changes":[0E0],"parents":[2147483647],"right_children":[-1],"split_conditions":[4.8675566E-4],"split_indices":[0],"split_type":[0],"sum_hessian":[2.4164453E4],"tree_param":{"num_deleted":"0","num_feature":"14","num_nodes":"1","size_leaf_vector":"1"}},{"base_weights":[-0E0],"categories":[],"categories_nodes":[],"categories_segments":[],"categories_sizes":[],"default_left":[0],"id":96,"left_children":[-1],"loss_changes":[0E0],"parents":[2147483647],"right_children":[-1],"split_conditions":[-0E0],"split_indices":[0],"split_type":[0],"sum_hessian":[2.4179488E4],"tree_param":{"num_deleted":"0","num_feature":"14","num_nodes":"1","size_leaf_vector":"1"}},{"base_weights":[-3.605686E-3],"categories":[],"categories_nodes":[],"categories_segments":[],"categories_sizes":[],"default_left":[0],"id":97,"left_children":[-1],"loss_changes":[0E0],"parents":[2147483647],"right_children":[-1],"split_conditions":[-2.4048584E-3],"split_indices":[0],"split_type":[0],"sum_hessian":[2.415825E4],"tree_param":{"num_deleted":"0","num_feature":"14","num_nodes":"1","size_leaf_vector":"1"}},{"base_weights":[3.3461086E-3],"categories":[],"categories_nodes":[],"categories_segments":[],"categories_sizes":[],"default_left":[0],"id":98,"left_children":[-1],"loss_changes":[0E0],"parents":[2147483647],"right_children":[-1],"split_conditions":[2.23173E-3],"split_indices":[0],"split_type":[0],"sum_hessian":[2.4162902E4],"tree_param":{"num_deleted":"0","num_feature":"14","num_nodes":"1","size_leaf_vector":"1"}},{"base_weights":[-2.1272928E-3],"categories":[],"categories_nodes":[],"categories_segments":[],"categories_sizes":[],"default_left":[0],"id":99,"left_children":[-1],"loss_changes":[0E0],"parents":[2147483647],"right_children":[-1],"split_conditions":[-1.4188251E-3],"split_indices":[0],"split_type":[0],"sum_hessian":[2.4132822E4],"tree_param":{"num_deleted":"0","num_feature":"14","num_nodes":"1","size_leaf_vector":"1"}}]},"name":"gbtree"},"learner_model_param":{"base_score":"6.7436945E-1","boost_from_average":"1","num_class":"0","num_feature":"14","num_target":"1"},"objective":{"name":"binary:logistic","reg_loss_param":{"scale_pos_weight":"1"}}},"version":[2,1,4]}