{"learner":{"attributes":{"scikit_learn":"{\"_estimator_type\": \"classifier\"}"},"feature_names":["velo","velo_diff","extension","extension_ratio","x0_ratio","z0_ratio","spin_rate","adj_spin_dir","HB_acc","IVB_acc","Break_acc","pitcherHand_L","pitcherHand_R"],"feature_types":["float","float","float","float","float","float","float","float","float","float","float","i","i"],"gradient_booster":{"model":{"gbtree_model_param":{"num_parallel_tree":"1","num_trees":"100"},"iteration_indptr":[0,1,2,3,4,5,6,7,8,9,10,11,12,13,14,15,16,17,18,19,20,21,22,23,24,25,26,27,28,29,30,31,32,33,34,35,36,37,38,39,40,41,42,43,44,45,46,47,48,49,50,51,52,53,54,55,56,57,58,59,60,61,62,63,64,65,66,67,68,69,70,71,72,73,74,75,76,77,78,79,80,81,82,83,84,85,86,87,88,89,90,91,92,93,94,95,96,97,98,99,100],"tree_info":[0,0,0,0,0,0,0,0,0,0,0,0,0,0,0,0,0,0,0,0,0,0,0,0,0,0,0,0,0,0,0,0,0,0,0,0,0,0,0,0,0,0,0,0,0,0,0,0,0,0,0,0,0,0,0,0,0,0,0,0,0,0,0,0,0,0,0,0,0,0,0,0,0,0,0,0,0,0,0,0,0,0,0,0,0,0,0,0,0,0,0,0,0,0,0,0,0,0,0,0],"trees":[{"base_weights":[-4.190037E-4,3.979148E-2,-1.1463569E-1,5.8890205E-2,-4.891773E-2,-1.5650537E-2,-1.5400188E-1,7.317723E-2,-0E0,-1.0482264E-1,-1.28745735E-2,-0E0,-2.5467075E-2,-1.6902608E-1,-2.810216E-2,2.355205E-2,-5.063881E-3,7.850163E-3,-2.2048296E-2,-4.016489E-2,4.6355554E-4,8.357156E-3,-3.6028106E-2,1.4746615E-2,-8.669264E-3,-0E0,-5.1606763E-2,-2.5682047E-2,1.792706E-3],"categories":[],"categories_nodes":[],"categories_segments":[],"categories_sizes":[],"default_left":[0,0,1,0,0,1,0,0,0,0,0,0,0,0,0,0,0,0,0,0,0,0,0,0,0,0,0,0,0],"id":0,"left_children":[1,3,5,7,9,11,13,15,17,19,21,23,-1,25,27,-1,-1,-1,-1,-1,-1,-1,-1,-1,-1,-1,-1,-1,-1],"loss_changes":[2.5210722E2,6.851944E1,5.2622726E1,2.7347847E1,1.184655E1,4.507135E0,1.5293472E1,1.6394073E1,1.2801532E1,1.075252E1,2.1960814E1,5.1967187E0,0E0,9.241882E0,4.0348296E0,0E0,0E0,0E0,0E0,0E0,0E0,0E0,0E0,0E0,0E0,0E0,0E0,0E0,0E0],"parents":[2147483647,0,0,1,1,2,2,3,3,4,4,5,5,6,6,7,7,8,8,9,9,10,10,11,11,13,13,14,14],"right_children":[2,4,6,8,10,12,14,16,18,20,22,24,-1,26,28,-1,-1,-1,-1,-1,-1,-1,-1,-1,-1,-1,-1,-1,-1],"split_conditions":[2.4716745E1,7.583372E1,4.226215E1,8.71E1,-4.969224E1,6.843093E0,6.0418706E0,-2.3300223E0,3.755127E1,8.31E1,3.263543E0,8.69E1,-2.5467075E-2,7.67E1,-1.4333333E0,2.355205E-2,-5.063881E-3,7.850163E-3,-2.2048296E-2,-4.016489E-2,4.6355554E-4,8.357156E-3,-3.6028106E-2,1.4746615E-2,-8.669264E-3,-0E0,-5.1606763E-2,-2.5682047E-2,1.792706E-3],"split_indices":[9,10,10,0,9,2,8,8,10,0,9,0,0,0,1,0,0,0,0,0,0,0,0,0,0,0,0,0,0],"split_type":[0,0,0,0,0,0,0,0,0,0,0,0,0,0,0,0,0,0,0,0,0,0,0,0,0,0,0,0,0],"sum_hessian":[5.4503867E4,4.0214027E4,1.428984E4,3.3273152E4,6.9408726E3,4.216904E3,1.0072937E4,2.6640414E4,6.6327393E3,2.4870583E3,4.453814E3,3.5099211E3,7.0698236E2,8.854647E3,1.2182888E3,2.5097248E4,1.5431658E3,5.005105E3,1.6276338E3,2.0547222E3,4.3233633E2,3.1333137E3,1.3205001E3,1.2612725E3,2.2486487E3,2.1191977E2,8.642729E3,6.222644E2,5.9602435E2],"tree_param":{"num_deleted":"0","num_feature":"13","num_nodes":"29","size_leaf_vector":"1"}},{"base_weights":[-2.6247012E-3,1.9742815E-2,-4.3298442E-2,4.3229826E-2,-3.0747224E-2,3.6139015E-2,-5.778894E-2,1.24375615E-2,6.274224E-2,4.165232E-2,-5.0847173E-2,9.318904E-2,-1.1758889E-2,-3.4418818E-2,-4.1331273E-2,9.727097E-3,-7.245779E-3,2.0969689E-2,-8.767304E-3,-1.4239458E-2,2.3296049E-2,-4.452791E-2,-9.334518E-3,-0E0,4.3114357E-2,-4.173133E-3,-1.9855278E-2],"categories":[],"categories_nodes":[],"categories_segments":[],"categories_sizes":[],"default_left":[0,0,0,0,0,1,0,1,1,0,0,0,0,0,0,0,0,0,0,0,0,0,0,0,0,0,0],"id":1,"left_children":[1,3,5,7,9,11,13,15,17,19,21,23,-1,-1,25,-1,-1,-1,-1,-1,-1,-1,-1,-1,-1,-1,-1],"loss_changes":[5.0072304E1,4.1692093E1,2.311103E1,1.3057869E1,1.6070042E1,1.3533617E1,1.3051857E1,7.5372243E0,1.1499924E1,7.978448E0,1.321316E1,1.0336742E1,0E0,0E0,7.8695564E0,0E0,0E0,0E0,0E0,0E0,0E0,0E0,0E0,0E0,0E0,0E0,0E0],"parents":[2147483647,0,0,1,1,2,2,3,3,4,4,5,5,6,6,7,7,8,8,9,9,10,10,11,11,14,14],"right_children":[2,4,6,8,10,12,14,16,18,20,22,24,-1,-1,26,-1,-1,-1,-1,-1,-1,-1,-1,-1,-1,-1,-1],"split_conditions":[-1.7234398E-1,8.7E1,7.88E1,8.9357626E-1,2.243E3,2.516E3,8.8851523E-1,3E2,3.34E2,8.6725074E-1,1.58E2,8.968032E-1,-1.1758889E-2,-3.4418818E-2,2.426E3,9.727097E-3,-7.245779E-3,2.0969689E-2,-8.767304E-3,-1.4239458E-2,2.3296049E-2,-4.452791E-2,-9.334518E-3,-0E0,4.3114357E-2,-4.173133E-3,-1.9855278E-2],"split_indices":[4,0,0,5,6,6,5,7,7,5,7,5,0,0,6,0,0,0,0,0,0,0,0,0,0,0,0],"split_type":[0,0,0,0,0,0,0,0,0,0,0,0,0,0,0,0,0,0,0,0,0,0,0,0,0,0,0],"sum_hessian":[5.447488E4,3.4869258E4,1.9605623E4,2.4052068E4,1.0817189E4,2.8181548E3,1.6787469E4,9.724034E3,1.4328034E4,2.1409585E3,8.67623E3,1.7410118E3,1.0771431E3,3.386924E3,1.3400544E4,6.5876094E3,3.1364246E3,1.3375602E4,9.524329E2,4.753926E2,1.6655659E3,1.2090306E3,7.4672E3,5.6479474E2,1.1762172E3,6.8826367E3,6.5179077E3],"tree_param":{"num_deleted":"0","num_feature":"13","num_nodes":"27","size_leaf_vector":"1"}},{"base_weights":[-0E0,2.6522344E-2,-6.7749955E-2,4.7319733E-2,-1.704892E-2,-1.4816664E-1,-3.56003E-2,6.263219E-2,1.4552482E-2,-5.932002E-4,-1.0329312E-1,-0E0,-1.6094927E-1,-0E0,-1.9497572E-2,2.0889841E-2,-9.54221E-3,-1.285586E-2,1.0571991E-2,4.7887275E-3,-2.1056738E-2,-0E0,-4.6903163E-2,-3.0215407E-2,-6.5099776E-2,-7.1454816E-3,1.6018646E-2],"categories":[],"categories_nodes":[],"categories_segments":[],"categories_sizes":[],"default_left":[0,1,1,0,0,0,0,1,0,0,0,0,0,0,0,0,0,0,0,0,0,0,0,0,0,0,0],"id":2,"left_children":[1,3,5,7,9,11,13,15,17,19,21,-1,23,25,-1,-1,-1,-1,-1,-1,-1,-1,-1,-1,-1,-1,-1],"loss_changes":[9.732277E1,3.6299004E1,3.5584435E1,1.2069038E1,1.5790841E1,1.0053589E1,1.160026E1,1.4219452E1,1.0979488E1,1.3697679E1,8.561323E0,0E0,6.6145706E0,6.686348E0,0E0,0E0,0E0,0E0,0E0,0E0,0E0,0E0,0E0,0E0,0E0,0E0,0E0],"parents":[2147483647,0,0,1,1,2,2,3,3,4,4,5,5,6,6,7,7,8,8,9,9,10,10,12,12,13,13],"right_children":[2,4,6,8,10,12,14,16,18,20,22,-1,24,26,-1,-1,-1,-1,-1,-1,-1,-1,-1,-1,-1,-1,-1],"split_conditions":[2.3227531E1,6.455692E1,-3.0759123E1,6.829168E0,8.9713875E1,4.414766E1,4.005192E1,-1.0911809E0,-3.828931E1,1.9732293E0,-5.88E0,-0E0,8.49E1,-6.57129E0,-1.9497572E-2,2.0889841E-2,-9.54221E-3,-1.285586E-2,1.0571991E-2,4.7887275E-3,-2.1056738E-2,-0E0,-4.6903163E-2,-3.0215407E-2,-6.5099776E-2,-7.1454816E-3,1.6018646E-2],"split_indices":[9,10,8,9,10,10,9,8,8,9,1,0,0,8,0,0,0,0,0,0,0,0,0,0,0,0,0],"split_type":[0,0,0,0,0,0,0,0,0,0,0,0,0,0,0,0,0,0,0,0,0,0,0,0,0,0,0],"sum_hessian":[5.4477836E4,3.9357914E4,1.5119924E4,2.6925133E4,1.243278E4,4.1087397E3,1.1011185E4,1.7939066E4,8.986067E3,1.0657751E4,1.7750294E3,2.4541187E2,3.863328E3,5.1398867E3,5.871298E3,1.67553E4,1.183765E3,2.1553936E3,6.830674E3,8.42702E3,2.2307317E3,7.029594E2,1.07207E3,2.1450664E3,1.7182615E3,3.6268962E3,1.5129904E3],"tree_param":{"num_deleted":"0","num_feature":"13","num_nodes":"27","size_leaf_vector":"1"}},{"base_weights":[-2.852534E-3,2.0243544E-2,-2.4536116E-2,4.9341142E-2,-7.38222E-3,-0E0,-7.874532E-2,5.8657542E-2,-4.2368327E-3,7.751084E-3,-7.48557E-2,1.846054E-2,-5.4521702E-2,-4.711355E-2,-1.1913283E-1,1.9465901E-2,-6.098352E-3,-9.892226E-3,1.0381337E-2,-2.799245E-2,-0E0,9.190615E-3,-1.0450802E-2,6.444417E-4,-2.5565846E-2,-7.0408704E-3,-3.679414E-2,-4.471052E-2,-0E0],"categories":[],"categories_nodes":[],"categories_segments":[],"categories_sizes":[],"default_left":[1,0,0,1,0,0,0,1,0,0,1,1,0,0,0,0,0,0,0,0,0,0,0,0,0,0,0,0,0],"id":3,"left_children":[1,3,5,7,9,11,13,15,-1,17,19,21,23,25,27,-1,-1,-1,-1,-1,-1,-1,-1,-1,-1,-1,-1,-1,-1],"loss_changes":[2.7376768E1,2.1677755E1,3.6836147E1,8.554218E0,1.4581387E1,2.053519E1,7.8133736E0,7.350712E0,0E0,1.1834183E1,4.657089E0,9.870264E0,1.0966333E1,6.524659E0,1.1066143E1,0E0,0E0,0E0,0E0,0E0,0E0,0E0,0E0,0E0,0E0,0E0,0E0,0E0,0E0],"parents":[2147483647,0,0,1,1,2,2,3,3,4,4,5,5,6,6,7,7,9,9,10,10,11,11,12,12,13,13,14,14],"right_children":[2,4,6,8,10,12,14,16,-1,18,20,22,24,26,28,-1,-1,-1,-1,-1,-1,-1,-1,-1,-1,-1,-1,-1,-1],"split_conditions":[4.6635174E1,8.61E1,8.52E1,2.639E3,1E0,1E0,6.2694218E1,3.3E2,-4.2368327E-3,1.0121803E0,1.0959276E0,3.25E2,7.86E1,1E0,-3.041094E0,1.9465901E-2,-6.098352E-3,-9.892226E-3,1.0381337E-2,-2.799245E-2,-0E0,9.190615E-3,-1.0450802E-2,6.444417E-4,-2.5565846E-2,-7.0408704E-3,-3.679414E-2,-4.471052E-2,-0E0],"split_indices":[10,0,0,6,11,11,10,7,0,3,3,7,0,11,8,0,0,0,0,0,0,0,0,0,0,0,0,0,0],"split_type":[0,0,0,0,0,0,0,0,0,0,0,0,0,0,0,0,0,0,0,0,0,0,0,0,0,0,0,0,0],"sum_hessian":[5.441879E4,2.594104E4,2.847775E4,1.2941783E4,1.2999257E4,1.9812613E4,8.665137E3,1.1544748E4,1.3970353E3,1.0426957E4,2.5722998E3,1.463155E4,5.1810645E3,5.1692803E3,3.4958567E3,1.0824081E4,7.20667E2,3.884655E3,6.542302E3,2.1204854E3,4.5181436E2,1.2153428E4,2.4781218E3,1.6666188E3,3.5144456E3,4.1952583E3,9.7402167E2,2.648672E3,8.4718463E2],"tree_param":{"num_deleted":"0","num_feature":"13","num_nodes":"29","size_leaf_vector":"1"}},{"base_weights":[-2.050905E-3,2.3055578E-2,-3.02883E-2,-3.8018122E-2,3.6546893E-2,-6.249663E-3,-7.562469E-2,-1.2358371E-1,5.2602515E-3,-1.8890813E-2,4.2957265E-2,-5.8042955E-2,1.2115749E-2,-0E0,-8.686216E-2,-0E0,-4.55747E-2,1.0590059E-2,-2.4631048E-2,-0E0,-3.388534E-2,-0E0,1.4215548E-2,1.0083334E-3,-2.4392426E-2,-1.3373008E-2,7.330013E-3,9.415484E-3,-2.3022167E-2,-5.637308E-2,-2.189361E-2],"categories":[],"categories_nodes":[],"categories_segments":[],"categories_sizes":[],"default_left":[0,0,1,0,0,0,0,0,0,1,0,1,0,0,0,0,0,0,0,0,0,0,0,0,0,0,0,0,0,0,0],"id":4,"left_children":[1,3,5,7,9,11,13,15,17,19,21,23,25,27,29,-1,-1,-1,-1,-1,-1,-1,-1,-1,-1,-1,-1,-1,-1,-1,-1],"loss_changes":[3.8800972E1,2.3541386E1,2.6821814E1,2.0489878E1,8.879562E0,1.734756E1,6.0280647E0,8.834101E0,7.8198304E0,4.5278597E0,4.3779716E0,8.630226E0,8.745769E0,4.2136583E0,4.4717216E0,0E0,0E0,0E0,0E0,0E0,0E0,0E0,0E0,0E0,0E0,0E0,0E0,0E0,0E0,0E0,0E0],"parents":[2147483647,0,0,1,1,2,2,3,3,4,4,5,5,6,6,7,7,8,8,9,9,10,10,11,11,12,12,13,13,14,14],"right_children":[2,4,6,8,10,12,14,16,18,20,22,24,26,28,30,-1,-1,-1,-1,-1,-1,-1,-1,-1,-1,-1,-1,-1,-1,-1,-1],"split_conditions":[6.829168E0,-4.969224E1,5.4424988E1,9.568107E-1,1.4793306E1,1E0,8.04E1,2.357E3,8.4670006E1,2.574E3,9.3457925E-1,2.5340374E1,8.448744E-1,2.666702E1,9.3922067E-1,-0E0,-4.55747E-2,1.0590059E-2,-2.4631048E-2,-0E0,-3.388534E-2,-0E0,1.4215548E-2,1.0083334E-3,-2.4392426E-2,-1.3373008E-2,7.330013E-3,9.415484E-3,-2.3022167E-2,-5.637308E-2,-2.189361E-2],"split_indices":[9,9,10,5,10,12,0,6,10,6,3,10,5,9,3,0,0,0,0,0,0,0,0,0,0,0,0,0,0,0,0],"split_type":[0,0,0,0,0,0,0,0,0,0,0,0,0,0,0,0,0,0,0,0,0,0,0,0,0,0,0,0,0,0,0],"sum_hessian":[5.4454434E4,2.8484143E4,2.5970291E4,4.8919546E3,2.3592188E4,1.7270252E4,8.700039E3,1.7584592E3,3.1334954E3,2.1383257E3,2.1453861E4,4.758294E3,1.2511959E4,1.3172932E3,7.3827456E3,2.6540234E2,1.4930569E3,2.5047717E3,6.2872363E2,1.7770315E3,3.612942E2,2.3581997E3,1.9095662E4,1.1433126E3,3.6149812E3,1.975706E3,1.0536253E4,8.060244E2,5.1126877E2,5.972219E2,6.785524E3],"tree_param":{"num_deleted":"0","num_feature":"13","num_nodes":"31","size_leaf_vector":"1"}},{"base_weights":[1.186395E-3,1.5626116E-2,-2.046048E-2,2.9092161E-2,-4.6706903E-3,-6.151814E-2,1.7267306E-3,3.8974416E-2,-6.9039976E-3,-2.7454358E-2,1.6738952E-3,-8.08331E-2,-0E0,-7.960335E-2,1.1217746E-2,1.6408231E-2,3.5228583E-3,-1.7262712E-2,3.6797405E-3,-1.5885772E-2,-3.985617E-2,1.5346279E-3,-3.0595638E-2,8.36119E-3,-8.158366E-3],"categories":[],"categories_nodes":[],"categories_segments":[],"categories_sizes":[],"default_left":[0,0,0,0,0,0,0,0,0,0,1,0,0,0,0,0,0,0,0,0,0,0,0,0,0],"id":5,"left_children":[1,3,5,7,9,11,13,15,-1,-1,17,19,-1,21,23,-1,-1,-1,-1,-1,-1,-1,-1,-1,-1],"loss_changes":[1.6922012E1,9.517763E0,2.0479881E1,1.0934191E1,8.781312E0,9.786041E0,9.245257E0,6.5240707E0,0E0,0E0,6.7269073E0,4.961956E0,0E0,4.2759275E0,8.20401E0,0E0,0E0,0E0,0E0,0E0,0E0,0E0,0E0,0E0,0E0],"parents":[2147483647,0,0,1,1,2,2,3,3,4,4,5,5,6,6,7,7,10,10,11,11,13,13,14,14],"right_children":[2,4,6,8,10,12,14,16,-1,-1,18,20,-1,22,24,-1,-1,-1,-1,-1,-1,-1,-1,-1,-1],"split_conditions":[1.3630115E1,-1.8122675E-1,-2.8157888E1,6.8662305E0,-6.357933E1,6.7470665E0,9.40683E-1,-6.666667E-1,-6.9039976E-3,-2.7454358E-2,-6.767015E1,3.397108E1,-0E0,5.315259E0,8.731366E-2,1.6408231E-2,3.5228583E-3,-1.7262712E-2,3.6797405E-3,-1.5885772E-2,-3.985617E-2,1.5346279E-3,-3.0595638E-2,8.36119E-3,-8.158366E-3],"split_indices":[9,4,8,2,9,2,3,1,0,0,8,9,0,2,4,0,0,0,0,0,0,0,0,0,0],"split_type":[0,0,0,0,0,0,0,0,0,0,0,0,0,0,0,0,0,0,0,0,0,0,0,0,0],"sum_hessian":[5.43324E4,3.3109867E4,2.1222533E4,2.043845E4,1.2671416E4,7.708842E3,1.3513691E4,1.7500545E4,2.9379043E3,1.00694257E3,1.1664474E4,5.943927E3,1.7649148E3,1.1749316E3,1.2338761E4,1.0448179E4,7.0523667E3,1.4825842E3,1.018189E4,4.230428E3,1.7134988E3,9.387757E1,1.0810541E3,8.915415E3,3.4233452E3],"tree_param":{"num_deleted":"0","num_feature":"13","num_nodes":"25","size_leaf_vector":"1"}},{"base_weights":[-1.6738309E-3,6.348233E-3,-3.243601E-2,2.7681412E-2,-6.961148E-3,-1.4271639E-2,-2.8594762E-2,-3.6179177E-2,3.4926448E-2,5.993144E-3,-6.809077E-2,-3.5009246E-2,1.7841632E-2,-4.714356E-2,-0E0,-0E0,1.4271452E-2,5.0682817E-3,-1.2976676E-2,-9.604959E-3,-4.678111E-2,-1.6369643E-2,1.2282335E-3,-0E0,2.6501294E-2],"categories":[],"categories_nodes":[],"categories_segments":[],"categories_sizes":[],"default_left":[0,0,1,0,0,1,0,0,0,1,0,0,1,0,0,0,0,0,0,0,0,0,0,0,0],"id":6,"left_children":[1,3,5,7,9,11,-1,13,15,17,19,21,23,-1,-1,-1,-1,-1,-1,-1,-1,-1,-1,-1,-1],"loss_changes":[1.3914509E1,1.2517131E1,1.1552229E1,7.8753586E0,2.159712E1,6.6165E0,0E0,9.491219E0,6.6845818E0,1.12046795E1,1.1527092E1,5.7737126E0,4.2737265E0,0E0,0E0,0E0,0E0,0E0,0E0,0E0,0E0,0E0,0E0,0E0,0E0],"parents":[2147483647,0,0,1,1,2,2,3,3,4,4,5,5,7,7,8,8,9,9,10,10,11,11,12,12],"right_children":[2,4,6,8,10,12,-1,14,16,18,20,22,24,-1,-1,-1,-1,-1,-1,-1,-1,-1,-1,-1,-1],"split_conditions":[2.9482449E1,2.88E2,2.26E2,1.63E2,3.0198112E0,1.76E2,-2.8594762E-2,-7.4668674E0,-8.21282E0,3.3E2,1E0,2.4435606E0,-1.03979845E1,-4.714356E-2,-0E0,-0E0,1.4271452E-2,5.0682817E-3,-1.2976676E-2,-9.604959E-3,-4.678111E-2,-1.6369643E-2,1.2282335E-3,-0E0,2.6501294E-2],"split_indices":[9,7,7,7,9,7,0,8,1,7,11,8,8,0,0,0,0,0,0,0,0,0,0,0,0],"split_type":[0,0,0,0,0,0,0,0,0,0,0,0,0,0,0,0,0,0,0,0,0,0,0,0,0],"sum_hessian":[5.4355383E4,4.266552E4,1.1689865E4,1.6905191E4,2.5760328E4,9.374042E3,2.3158237E3,1.44521E3,1.5459981E4,2.1040291E4,4.720036E3,6.0420884E3,3.331953E3,4.0748492E2,1.0377251E3,4.46882E3,1.0991162E4,1.7527916E4,3.512375E3,3.5680398E3,1.1519965E3,4.2817837E3,1.760305E3,2.707786E3,6.241672E2],"tree_param":{"num_deleted":"0","num_feature":"13","num_nodes":"25","size_leaf_vector":"1"}},{"base_weights":[-2.94622E-4,-5.0830077E-2,2.2705612E-3,-2.0297023E-3,-1.297588E-1,1.51643185E-2,-1.1497429E-2,-0E0,-5.3805444E-2,-2.112685E-2,2.0938575E-2,3.3780432E-3,-1.0621455E-2,3.149038E-3,-1.4982011E-2,8.725592E-3,-9.242406E-4,-2.3793046E-4,1.8509908E-2],"categories":[],"categories_nodes":[],"categories_segments":[],"categories_sizes":[],"default_left":[0,1,0,0,0,0,0,0,0,0,1,0,0,0,0,0,0,0,0],"id":7,"left_children":[1,3,5,-1,7,9,11,-1,-1,13,15,17,-1,-1,-1,-1,-1,-1,-1],"loss_changes":[7.955411E0,7.781217E0,9.216388E0,0E0,5.883113E0,5.7372713E0,9.381296E0,0E0,0E0,3.8735774E0,5.4041977E0,4.749114E0,0E0,0E0,0E0,0E0,0E0,0E0,0E0],"parents":[2147483647,0,0,1,1,2,2,4,4,5,5,6,6,9,9,10,10,11,11],"right_children":[2,4,6,-1,8,10,12,-1,-1,14,16,18,-1,-1,-1,-1,-1,-1,-1],"split_conditions":[1.53E2,1.0413754E0,2.49E3,-2.0297023E-3,2.165E3,9.601725E-1,-2.1327165E-1,-0E0,-5.3805444E-2,-2.4863316E-1,1.086468E0,-2.3343633E-1,-1.0621455E-2,3.149038E-3,-1.4982011E-2,8.725592E-3,-9.242406E-4,-2.3793046E-4,1.8509908E-2],"split_indices":[7,3,6,0,6,3,4,0,0,4,3,4,0,0,0,0,0,0,0],"split_type":[0,0,0,0,0,0,0,0,0,0,0,0,0,0,0,0,0,0,0],"sum_hessian":[5.4381844E4,2.9336252E3,5.144822E4,2.0648992E3,8.6872595E2,2.7256426E4,2.4191795E4,2.684347E2,6.0029126E2,3.2871255E3,2.3969299E4,1.4570752E4,9.621042E3,1.2937344E3,1.9933911E3,1.8265865E4,5.703434E3,1.3357632E4,1.2131201E3],"tree_param":{"num_deleted":"0","num_feature":"13","num_nodes":"19","size_leaf_vector":"1"}},{"base_weights":[-3.0359768E-4,-1.733161E-2,1.0994722E-2,-6.1831143E-2,-8.2570845E-3,2.089067E-2,-8.7958835E-3,-0E0,-2.5794469E-2,5.4030768E-3,-4.8360404E-2,2.8934017E-2,-2.3273267E-2,-5.683097E-2,2.7446065E-3,-4.1479627E-3,5.5934563E-3,-1.1696868E-3,-2.5188373E-2,7.6189134E-3,5.670905E-2,-2.2061342E-2,-0E0,-2.1029927E-2,1.2077595E-3],"categories":[],"categories_nodes":[],"categories_segments":[],"categories_sizes":[],"default_left":[0,1,0,0,0,1,0,0,0,1,0,0,0,1,0,0,0,0,0,0,0,0,0,0,0],"id":8,"left_children":[1,3,5,7,9,11,13,-1,-1,15,17,19,21,23,-1,-1,-1,-1,-1,-1,-1,-1,-1,-1,-1],"loss_changes":[1.0578092E1,7.7064147E0,6.5055466E0,5.6740227E0,1.1184607E1,7.946414E0,9.652569E0,0E0,0E0,3.717474E0,6.746806E0,5.7142467E0,4.5406585E0,3.865079E0,0E0,0E0,0E0,0E0,0E0,0E0,0E0,0E0,0E0,0E0,0E0],"parents":[2147483647,0,0,1,1,2,2,3,3,4,4,5,5,6,6,9,9,10,10,11,11,12,12,13,13],"right_children":[2,4,6,8,10,12,14,-1,-1,16,18,20,22,24,-1,-1,-1,-1,-1,-1,-1,-1,-1,-1,-1],"split_conditions":[9.085185E-1,1.73E2,-9.268695E-2,2.218E3,3.03E2,3.26E2,1.8632422E-1,-0E0,-2.5794469E-2,6.385213E0,-1.8666667E0,1.0786315E0,9.639473E-1,8.061224E-1,2.7446065E-3,-4.1479627E-3,5.5934563E-3,-1.1696868E-3,-2.5188373E-2,7.6189134E-3,5.670905E-2,-2.2061342E-2,-0E0,-2.1029927E-2,1.2077595E-3],"split_indices":[5,7,4,6,7,7,4,0,0,2,1,5,5,1,0,0,0,0,0,0,0,0,0,0,0],"split_type":[0,0,0,0,0,0,0,0,0,0,0,0,0,0,0,0,0,0,0,0,0,0,0,0,0],"sum_hessian":[5.428752E4,2.229433E4,3.199319E4,3.3884558E3,1.8905873E4,2.1947416E4,1.0045773E4,9.5211035E2,2.4363455E3,1.3788285E4,5.117589E3,1.8932035E4,3.0153818E3,2.9974067E3,7.048367E3,5.089698E3,8.698587E3,2.563138E3,2.5544512E3,1.872558E4,2.0645518E2,1.0736733E3,1.9417084E3,2.6722766E3,3.2513004E2],"tree_param":{"num_deleted":"0","num_feature":"13","num_nodes":"25","size_leaf_vector":"1"}},{"base_weights":[2.25694E-5,-2.6090866E-2,6.1929566E-3,-8.1924476E-2,-1.1611388E-2,4.104094E-2,4.71027E-3,-3.1395026E-2,-0E0,1.2650337E-3,-6.047756E-2,-0E0,2.7592422E-2,-0E0,-2.5186429E-2,-1.9605027E-3,5.773206E-3,-5.7721958E-3,1.2019514E-2],"categories":[],"categories_nodes":[],"categories_segments":[],"categories_sizes":[],"default_left":[0,1,1,0,0,0,1,0,0,0,0,0,0,0,0,0,0,0,0],"id":9,"left_children":[1,3,5,7,9,-1,11,-1,-1,-1,13,15,17,-1,-1,-1,-1,-1,-1],"loss_changes":[8.407594E0,6.1867013E0,6.0845356E0,4.555255E0,7.3526707E0,0E0,4.431842E0,0E0,0E0,0E0,4.6326647E0,4.9660606E0,4.7657804E0,0E0,0E0,0E0,0E0,0E0,0E0],"parents":[2147483647,0,0,1,1,2,2,3,3,4,4,6,6,10,10,11,11,12,12],"right_children":[2,4,6,8,10,-1,12,-1,-1,-1,14,16,18,-1,-1,-1,-1,-1,-1],"split_conditions":[8.550549E-1,1.85E2,5.315259E0,8.462502E-1,3E2,4.104094E-2,5.05E-1,-3.1395026E-2,-0E0,1.2650337E-3,-9.4E0,-1.46444435E1,9.612979E-1,-0E0,-2.5186429E-2,-1.9605027E-3,5.773206E-3,-5.7721958E-3,1.2019514E-2],"split_indices":[5,7,2,5,7,0,1,0,0,0,1,8,3,0,0,0,0,0,0],"split_type":[0,0,0,0,0,0,0,0,0,0,0,0,0,0,0,0,0,0,0],"sum_hessian":[5.436536E4,9.792539E3,4.457282E4,1.7117664E3,8.080773E3,3.1061844E2,4.4262203E4,1.4113903E3,3.0037604E2,5.8448594E3,2.2359133E3,3.719448E4,7.0677227E3,4.8465823E2,1.7512552E3,2.731048E4,9.883999E3,1.214974E3,5.852749E3],"tree_param":{"num_deleted":"0","num_feature":"13","num_nodes":"19","size_leaf_vector":"1"}},{"base_weights":[1.3958705E-4,5.304715E-3,-2.9693102E-2,1.3021696E-2,-8.3915675E-3,-1.2885144E-2,-9.60365E-2,-1.3329405E-2,4.568609E-3,-2.9449522E-2,1.4321138E-2,-0E0,-6.0785715E-2,-3.7873834E-2,-0E0,-0E0,-1.5182387E-2,1.2442391E-4,2.1196414E-2,-0E0,-3.0434875E-2],"categories":[],"categories_nodes":[],"categories_segments":[],"categories_sizes":[],"default_left":[0,0,0,0,0,0,0,0,0,0,0,0,0,0,0,0,0,0,0,0,0],"id":10,"left_children":[1,3,5,7,9,11,13,-1,-1,15,17,-1,19,-1,-1,-1,-1,-1,-1,-1,-1],"loss_changes":[7.930826E0,5.0456038E0,6.300897E0,3.7757025E0,7.98019E0,4.359346E0,4.220563E0,0E0,0E0,6.444608E0,4.507682E0,0E0,5.4650555E0,0E0,0E0,0E0,0E0,0E0,0E0,0E0,0E0],"parents":[2147483647,0,0,1,1,2,2,3,3,4,4,5,5,6,6,9,9,10,10,12,12],"right_children":[2,4,6,8,10,12,14,-1,-1,16,18,-1,20,-1,-1,-1,-1,-1,-1,-1,-1],"split_conditions":[7.733465E1,8.68E1,8.52E1,9.944182E0,9.312147E-1,-1.1766902E-1,9.6169865E-1,-1.3329405E-2,4.568609E-3,3.49226E1,-2.0514796E0,-0E0,7.86E1,-3.7873834E-2,-0E0,-0E0,-1.5182387E-2,1.2442391E-4,2.1196414E-2,-0E0,-3.0434875E-2],"split_indices":[10,0,0,10,5,4,5,0,0,10,8,0,0,0,0,0,0,0,0,0,0],"split_type":[0,0,0,0,0,0,0,0,0,0,0,0,0,0,0,0,0,0,0,0,0],"sum_hessian":[5.429544E4,4.684003E4,7.455407E3,3.082164E4,1.6018393E4,6.212444E3,1.2429633E3,8.8613324E2,2.9935506E4,8.726131E3,7.292261E3,4.796002E3,1.4164419E3,9.407209E2,3.0224237E2,3.4180645E3,5.308067E3,6.16196E3,1.1303016E3,4.3118942E2,9.8525244E2],"tree_param":{"num_deleted":"0","num_feature":"13","num_nodes":"21","size_leaf_vector":"1"}},{"base_weights":[-0E0,9.440406E-2,-8.713778E-4,-0E0,5.2510537E-2,-1.780445E-2,4.4538686E-3,8.814063E-3,-4.239488E-2,9.53665E-3,-5.6884307E-3,-1.0589241E-2,9.254016E-3,-1.5112802E-2,3.0471208E-2,5.4371376E-3,-2.3512847E-3],"categories":[],"categories_nodes":[],"categories_segments":[],"categories_sizes":[],"default_left":[0,0,0,0,0,0,1,0,1,0,0,0,0,0,0,0,0],"id":11,"left_children":[1,3,5,-1,-1,7,9,11,13,15,-1,-1,-1,-1,-1,-1,-1],"loss_changes":[6.04175E0,7.291814E0,5.094408E0,0E0,0E0,9.5972E0,4.648413E0,6.209398E0,8.63254E0,5.3810606E0,0E0,0E0,0E0,0E0,0E0,0E0,0E0],"parents":[2147483647,0,0,1,1,2,2,5,5,6,6,7,7,8,8,9,9],"right_children":[2,4,6,-1,-1,8,10,12,14,16,-1,-1,-1,-1,-1,-1,-1],"split_conditions":[7.31E1,9.1592E-1,1E0,-0E0,5.2510537E-2,1.9732293E0,1.0926573E0,-3.5114544E1,1.61875E0,-1.8461539E-1,-5.6884307E-3,-1.0589241E-2,9.254016E-3,-1.5112802E-2,3.0471208E-2,5.4371376E-3,-2.3512847E-3],"split_indices":[0,5,12,0,0,9,3,9,1,1,0,0,0,0,0,0,0],"split_type":[0,0,0,0,0,0,0,0,0,0,0,0,0,0,0,0,0],"sum_hessian":[5.4312887E4,6.2881067E2,5.3684074E4,2.5004071E2,3.7876993E2,1.3646704E4,4.003737E4,6.20699E3,7.4397134E3,3.361817E4,6.4192017E3,1.7936462E3,4.4133438E3,7.1705674E3,2.691462E2,2.3046713E4,1.0571457E4],"tree_param":{"num_deleted":"0","num_feature":"13","num_nodes":"17","size_leaf_vector":"1"}},{"base_weights":[-2.3091433E-4,1.8311839E-3,-1.7249322E-2,1.0251524E-2,-6.5537146E-3,1.652149E-2,-2.7509278E-2,7.9288334E-4,-5.7192627E-2,-3.310992E-3,6.789488E-3,-2.3250995E-2,-0E0,-4.4224714E-3,3.5638479E-3,8.8626295E-3,-2.500355E-2],"categories":[],"categories_nodes":[],"categories_segments":[],"categories_sizes":[],"default_left":[0,0,0,1,1,0,0,0,0,0,0,0,0,0,0,0,0],"id":12,"left_children":[1,3,-1,5,7,9,11,13,15,-1,-1,-1,-1,-1,-1,-1,-1],"loss_changes":[7.550873E0,3.7631962E0,0E0,6.2588234E0,1.0391088E1,4.4362636E0,4.981311E0,3.7815695E0,9.410212E0,0E0,0E0,0E0,0E0,0E0,0E0,0E0,0E0],"parents":[2147483647,0,0,1,1,3,3,4,4,5,5,6,6,7,7,8,8],"right_children":[2,4,-1,6,8,10,12,14,16,-1,-1,-1,-1,-1,-1,-1,-1],"split_conditions":[8.9713875E1,7.1323185E0,-1.7249322E-2,3.3E2,2.88E2,-4.2082516E1,9.6243596E-1,-2.4154938E1,8.359615E-1,-3.310992E-3,6.789488E-3,-2.3250995E-2,-0E0,-4.4224714E-3,3.5638479E-3,8.8626295E-3,-2.500355E-2],"split_indices":[10,9,0,7,7,9,5,8,5,0,0,0,0,0,0,0,0],"split_type":[0,0,0,0,0,0,0,0,0,0,0,0,0,0,0,0,0],"sum_hessian":[5.438116E4,5.224823E4,2.1329324E3,2.7160607E4,2.5087623E4,2.3732945E4,3.4276624E3,2.1629582E4,3.4580403E3,3.9029224E3,1.9830021E4,1.191334E3,2.2363284E3,8.32592E3,1.3303662E4,6.602942E2,2.797746E3],"tree_param":{"num_deleted":"0","num_feature":"13","num_nodes":"17","size_leaf_vector":"1"}},{"base_weights":[-1.4307014E-4],"categories":[],"categories_nodes":[],"categories_segments":[],"categories_sizes":[],"default_left":[0],"id":13,"left_children":[-1],"loss_changes":[0E0],"parents":[2147483647],"right_children":[-1],"split_conditions":[-4.2395048E-5],"split_indices":[0],"split_type":[0],"sum_hessian":[5.4303496E4],"tree_param":{"num_deleted":"0","num_feature":"13","num_nodes":"1","size_leaf_vector":"1"}},{"base_weights":[-1.9304373E-3],"categories":[],"categories_nodes":[],"categories_segments":[],"categories_sizes":[],"default_left":[0],"id":14,"left_children":[-1],"loss_changes":[0E0],"parents":[2147483647],"right_children":[-1],"split_conditions":[-5.72034E-4],"split_indices":[0],"split_type":[0],"sum_hessian":[5.4272027E4],"tree_param":{"num_deleted":"0","num_feature":"13","num_nodes":"1","size_leaf_vector":"1"}},{"base_weights":[-0E0,9.363405E-3,-7.9896785E-3,9.2203607E-4,1.608445E-2,-3.612994E-2,1.8741867E-3,-1.2548687E-3,-6.6801116E-2,7.2799297E-3,-2.2636544E-2,-2.343217E-2,-0E0,-3.523968E-2,3.346571E-3],"categories":[],"categories_nodes":[],"categories_segments":[],"categories_sizes":[],"default_left":[0,0,1,0,0,0,0,0,0,0,0,0,0,0,0],"id":15,"left_children":[1,3,5,-1,-1,7,9,-1,11,13,-1,-1,-1,-1,-1],"loss_changes":[4.0957594E0,6.23155E0,8.537819E0,0E0,0E0,6.384547E0,7.484094E0,0E0,4.2252827E0,7.98868E0,0E0,0E0,0E0,0E0,0E0],"parents":[2147483647,0,0,1,1,2,2,5,5,6,6,8,8,9,9],"right_children":[2,4,6,-1,-1,8,10,-1,12,14,-1,-1,-1,-1,-1],"split_conditions":[-2.4405274E-1,-2.6386794E-1,-8.433333E0,9.2203607E-4,1.608445E-2,6.829168E0,8.6368385E1,-1.2548687E-3,2.4435606E0,-2.393495E-1,-2.2636544E-2,-2.343217E-2,-0E0,-3.523968E-2,3.346571E-3],"split_indices":[4,4,1,0,0,9,10,0,8,4,0,0,0,0,0],"split_type":[0,0,0,0,0,0,0,0,0,0,0,0,0,0,0],"sum_hessian":[5.436911E4,2.5939734E4,2.8429375E4,2.3172324E4,2.7674092E3,7.8328667E3,2.059651E4,4.159192E3,3.6736746E3,1.9523854E4,1.0726561E3,3.2846152E3,3.8905954E2,4.2097452E2,1.9102879E4],"tree_param":{"num_deleted":"0","num_feature":"13","num_nodes":"15","size_leaf_vector":"1"}},{"base_weights":[-0E0,8.67001E-3,-1.3447749E-2,2.9515183E-2,-1.306446E-3,-2.8663655E-3,-4.4952355E-2,4.1578572E-2,-2.9638333E-2,-2.8438235E-2,9.646979E-3,-2.568213E-2,2.9229786E-6,-1.108313E-2,-1.7780016E-1,2.187718E-2,4.7799456E-3,-1.8868139E-2,1.3490868E-2,-4.3614194E-2,-4.1286037E-3,5.1891427E-3,-1.1014658E-2,7.435925E-3,-2.115545E-2,-0E0,-6.290273E-2],"categories":[],"categories_nodes":[],"categories_segments":[],"categories_sizes":[],"default_left":[0,0,1,0,0,0,0,0,0,0,0,0,0,0,0,0,0,0,0,0,0,0,0,0,0,0,0],"id":16,"left_children":[1,3,5,7,9,11,13,15,17,19,21,-1,-1,23,25,-1,-1,-1,-1,-1,-1,-1,-1,-1,-1,-1,-1],"loss_changes":[6.279738E0,7.5265265E0,6.02161E0,8.483202E0,6.963731E0,5.45324E0,1.7891941E1,6.3579693E0,4.852825E0,8.802978E0,5.330971E0,0E0,0E0,9.570042E0,5.459091E0,0E0,0E0,0E0,0E0,0E0,0E0,0E0,0E0,0E0,0E0,0E0,0E0],"parents":[2147483647,0,0,1,1,2,2,3,3,4,4,5,5,6,6,7,7,8,8,9,9,10,10,13,13,14,14],"right_children":[2,4,6,8,10,12,14,16,18,20,22,-1,-1,24,26,-1,-1,-1,-1,-1,-1,-1,-1,-1,-1,-1,-1],"split_conditions":[8.6E1,2.89E2,2.71E2,3.5910618E1,8.968032E-1,8.1158596E-1,1.0877601E1,8.868351E-1,9.548016E-1,-4.5776386E1,3.7957175E0,-2.568213E-2,2.9229786E-6,9.4112754E-1,8.434705E-1,2.187718E-2,4.7799456E-3,-1.8868139E-2,1.3490868E-2,-4.3614194E-2,-4.1286037E-3,5.1891427E-3,-1.1014658E-2,7.435925E-3,-2.115545E-2,-0E0,-6.290273E-2],"split_indices":[0,7,7,9,5,5,9,5,5,9,9,0,0,5,5,0,0,0,0,0,0,0,0,0,0,0,0],"split_type":[0,0,0,0,0,0,0,0,0,0,0,0,0,0,0,0,0,0,0,0,0,0,0,0,0,0,0],"sum_hessian":[5.4318887E4,3.363964E4,2.0679248E4,1.1458243E4,2.2181395E4,1.5954237E4,4.725011E3,9.787081E3,1.6711622E3,6.8428413E3,1.5338554E4,6.9894293E2,1.5255295E4,3.9140876E3,8.109236E2,3.9598838E3,5.8271978E3,1.3237316E3,3.4743066E2,5.6226044E2,6.280581E3,1.3493341E4,1.8452131E3,2.271801E3,1.6422866E3,1.3416618E2,6.767574E2],"tree_param":{"num_deleted":"0","num_feature":"13","num_nodes":"27","size_leaf_vector":"1"}},{"base_weights":[-0E0,-5.3419004E-4,2.7358925E-2,8.234216E-3,-2.6564559E-3,1.6997792E-2,-2.9218843E-2,1.0836854E-2,-0E0,-1.288383E-2,1.1514254E-2],"categories":[],"categories_nodes":[],"categories_segments":[],"categories_sizes":[],"default_left":[0,0,0,1,0,0,0,0,0,0,0],"id":17,"left_children":[1,3,-1,5,-1,7,9,-1,-1,-1,-1],"loss_changes":[3.9808426E0,4.0009403E0,0E0,8.124216E0,0E0,7.62024E0,4.459432E0,0E0,0E0,0E0,0E0],"parents":[2147483647,0,0,1,1,3,3,5,5,6,6],"right_children":[2,4,-1,6,-1,8,10,-1,-1,-1,-1],"split_conditions":[1.0786315E0,-2.4718276E-1,2.7358925E-2,6.8222423E0,-2.6564559E-3,2.495E3,2.683E3,1.0836854E-2,-0E0,-1.288383E-2,1.1514254E-2],"split_indices":[5,4,0,2,0,6,6,0,0,0,0],"split_type":[0,0,0,0,0,0,0,0,0,0,0],"sum_hessian":[5.427316E4,5.3852508E4,4.2065112E2,2.5326348E4,2.8526162E4,2.094241E4,4.3839375E3,1.0186875E4,1.0755535E4,3.8617798E3,5.221574E2],"tree_param":{"num_deleted":"0","num_feature":"13","num_nodes":"11","size_leaf_vector":"1"}},{"base_weights":[-8.077112E-4,5.649829E-3,-1.2175192E-2,9.085053E-3,-0E0,-0E0,-3.0706856E-2,9.990665E-4,-7.038484E-2,-1.438353E-3,2.0564444E-2,-1.5420868E-2,-0E0,-0E0,-3.877384E-2],"categories":[],"categories_nodes":[],"categories_segments":[],"categories_sizes":[],"default_left":[0,1,1,0,1,0,1,0,0,0,0,0,0,0,0],"id":18,"left_children":[1,3,5,-1,7,9,11,-1,13,-1,-1,-1,-1,-1,-1],"loss_changes":[4.1166997E0,4.9083414E0,4.4462404E0,0E0,6.828789E0,3.8363352E0,5.88823E0,0E0,4.4910316E0,0E0,0E0,0E0,0E0,0E0,0E0],"parents":[2147483647,0,0,1,1,2,2,4,4,5,5,6,6,8,8],"right_children":[2,4,6,-1,8,10,12,-1,14,-1,-1,-1,-1,-1,-1],"split_conditions":[8.6E1,5.9770393E0,2.24E2,9.085053E-3,2.919E3,2.17E2,6.5341215E0,9.990665E-4,-3.0514035E-1,-1.438353E-3,2.0564444E-2,-1.5420868E-2,-0E0,-0E0,-3.877384E-2],"split_indices":[0,2,7,0,6,7,2,0,4,0,0,0,0,0,0],"split_type":[0,0,0,0,0,0,0,0,0,0,0,0,0,0,0],"sum_hessian":[5.43569E4,3.3645297E4,2.0711602E4,6.3212217E3,2.7324074E4,1.277762E4,7.933982E3,2.6050055E4,1.2740205E3,1.2084942E4,6.92678E2,4.9075054E3,3.0264763E3,6.747404E2,5.9928015E2],"tree_param":{"num_deleted":"0","num_feature":"13","num_nodes":"15","size_leaf_vector":"1"}},{"base_weights":[-7.4473536E-4],"categories":[],"categories_nodes":[],"categories_segments":[],"categories_sizes":[],"default_left":[0],"id":19,"left_children":[-1],"loss_changes":[0E0],"parents":[2147483647],"right_children":[-1],"split_conditions":[-2.2068262E-4],"split_indices":[0],"split_type":[0],"sum_hessian":[5.4284145E4],"tree_param":{"num_deleted":"0","num_feature":"13","num_nodes":"1","size_leaf_vector":"1"}},{"base_weights":[-0E0],"categories":[],"categories_nodes":[],"categories_segments":[],"categories_sizes":[],"default_left":[0],"id":20,"left_children":[-1],"loss_changes":[0E0],"parents":[2147483647],"right_children":[-1],"split_conditions":[-0E0],"split_indices":[0],"split_type":[0],"sum_hessian":[5.4281496E4],"tree_param":{"num_deleted":"0","num_feature":"13","num_nodes":"1","size_leaf_vector":"1"}},{"base_weights":[-5.451672E-4,-1.4905624E-2,1.6262429E-4],"categories":[],"categories_nodes":[],"categories_segments":[],"categories_sizes":[],"default_left":[0,0,0],"id":21,"left_children":[1,-1,-1],"loss_changes":[3.8725367E0,0E0,0E0],"parents":[2147483647,0,0],"right_children":[2,-1,-1],"split_conditions":[1.0688033E1,-1.4905624E-2,1.6262429E-4],"split_indices":[10,0,0],"split_type":[0,0,0],"sum_hessian":[5.4233348E4,1.4860344E3,5.2747312E4],"tree_param":{"num_deleted":"0","num_feature":"13","num_nodes":"3","size_leaf_vector":"1"}},{"base_weights":[1.8320406E-3,-1.5952112E-2,7.142823E-3,-0E0,-3.8703408E-2,1.57775E-3,7.769244E-2,-1.646072E-2,-1.0613051E-1,3.507889E-2,-0E0,-1.7251035E-2,3.768147E-3,-0E0,-4.751459E-2],"categories":[],"categories_nodes":[],"categories_segments":[],"categories_sizes":[],"default_left":[0,0,0,0,0,0,0,0,0,0,0,0,0,0,0],"id":22,"left_children":[1,3,5,-1,7,-1,9,11,13,-1,-1,-1,-1,-1,-1],"loss_changes":[4.9787607E0,4.846888E0,3.9301026E0,0E0,5.5020285E0,0E0,4.305652E0,5.974342E0,5.645026E0,0E0,0E0,0E0,0E0,0E0,0E0],"parents":[2147483647,0,0,1,1,2,2,4,4,6,6,7,7,8,8],"right_children":[2,4,6,-1,8,-1,10,12,14,-1,-1,-1,-1,-1,-1],"split_conditions":[8.651232E-1,-2.84136E-1,4.3866012E-1,-0E0,3.03E2,1.57775E-3,7.143646E1,2.63E2,4.414766E1,3.507889E-2,-0E0,-1.7251035E-2,3.768147E-3,-0E0,-4.751459E-2],"split_indices":[5,4,4,0,7,0,10,7,10,0,0,0,0,0,0],"split_type":[0,0,0,0,0,0,0,0,0,0,0,0,0,0,0],"sum_hessian":[5.4334938E4,1.1676136E4,4.26588E4,6.493911E3,5.182224E3,4.1888234E4,7.7056616E2,4.143937E3,1.0382874E3,6.137884E2,1.5677779E2,1.9460844E3,2.1978525E3,3.8889905E2,6.493883E2],"tree_param":{"num_deleted":"0","num_feature":"13","num_nodes":"15","size_leaf_vector":"1"}},{"base_weights":[-2.3005612E-3],"categories":[],"categories_nodes":[],"categories_segments":[],"categories_sizes":[],"default_left":[0],"id":23,"left_children":[-1],"loss_changes":[0E0],"parents":[2147483647],"right_children":[-1],"split_conditions":[-6.8171043E-4],"split_indices":[0],"split_type":[0],"sum_hessian":[5.432802E4],"tree_param":{"num_deleted":"0","num_feature":"13","num_nodes":"1","size_leaf_vector":"1"}},{"base_weights":[-2.2711277E-4,-8.947369E-2,6.547483E-5,-0E0,-4.331431E-2],"categories":[],"categories_nodes":[],"categories_segments":[],"categories_sizes":[],"default_left":[0,1,0,0,0],"id":24,"left_children":[1,3,-1,-1,-1],"loss_changes":[3.8200188E0,4.1326847E0,0E0,0E0,0E0],"parents":[2147483647,0,0,1,1],"right_children":[2,4,-1,-1,-1],"split_conditions":[8.4E1,9.101042E-1,6.547483E-5,-0E0,-4.331431E-2],"split_indices":[7,3,0,0,0],"split_type":[0,0,0,0,0],"sum_hessian":[5.4331594E4,4.326568E2,5.3898938E4,1.0497849E2,3.276783E2],"tree_param":{"num_deleted":"0","num_feature":"13","num_nodes":"5","size_leaf_vector":"1"}},{"base_weights":[2.0581674E-5],"categories":[],"categories_nodes":[],"categories_segments":[],"categories_sizes":[],"default_left":[0],"id":25,"left_children":[-1],"loss_changes":[0E0],"parents":[2147483647],"right_children":[-1],"split_conditions":[6.0988345E-6],"split_indices":[0],"split_type":[0],"sum_hessian":[5.423508E4],"tree_param":{"num_deleted":"0","num_feature":"13","num_nodes":"1","size_leaf_vector":"1"}},{"base_weights":[-4.7522326E-4],"categories":[],"categories_nodes":[],"categories_segments":[],"categories_sizes":[],"default_left":[0],"id":26,"left_children":[-1],"loss_changes":[0E0],"parents":[2147483647],"right_children":[-1],"split_conditions":[-1.4081984E-4],"split_indices":[0],"split_type":[0],"sum_hessian":[5.423672E4],"tree_param":{"num_deleted":"0","num_feature":"13","num_nodes":"1","size_leaf_vector":"1"}},{"base_weights":[3.8070156E-4,-2.3364011E-2,3.5854052E-3,-7.8046083E-4,-9.487005E-2,1.8262267E-2,9.3903334E-4,-1.3412602E-1,4.4233585E-3,2.1653364E-3,-1.2327068E-2,-0E0,-4.8630487E-2,-3.1753854E-4,-1.21332845E-2],"categories":[],"categories_nodes":[],"categories_segments":[],"categories_sizes":[],"default_left":[0,0,1,0,1,0,1,0,0,0,0,0,0,0,0],"id":27,"left_children":[1,3,5,-1,7,-1,9,11,-1,-1,13,-1,-1,-1,-1],"loss_changes":[3.773652E0,6.7645717E0,6.3087196E0,0E0,7.021311E0,0E0,3.867286E0,5.4908104E0,0E0,0E0,3.81881E0,0E0,0E0,0E0,0E0],"parents":[2147483647,0,0,1,1,2,2,4,4,6,6,7,7,10,10],"right_children":[2,4,6,-1,8,-1,10,12,-1,-1,14,-1,-1,-1,-1],"split_conditions":[9.3922067E-1,5.888776E0,5.853873E0,-7.8046083E-4,2.769E3,1.8262267E-2,6.2694218E1,2.189E3,4.4233585E-3,2.1653364E-3,8.47E1,-0E0,-4.8630487E-2,-3.1753854E-4,-1.21332845E-2],"split_indices":[3,2,2,0,6,0,10,6,0,0,0,0,0,0,0],"split_type":[0,0,0,0,0,0,0,0,0,0,0,0,0,0,0],"sum_hessian":[5.428761E4,5.7385415E3,4.8549066E4,4.684383E3,1.0541588E3,1.770039E3,4.6779027E4,8.928879E2,1.61271E2,3.2558572E4,1.4220457E4,1.0740669E2,7.854812E2,1.0701711E4,3.5187454E3],"tree_param":{"num_deleted":"0","num_feature":"13","num_nodes":"15","size_leaf_vector":"1"}},{"base_weights":[1.073874E-3],"categories":[],"categories_nodes":[],"categories_segments":[],"categories_sizes":[],"default_left":[0],"id":28,"left_children":[-1],"loss_changes":[0E0],"parents":[2147483647],"right_children":[-1],"split_conditions":[3.1821412E-4],"split_indices":[0],"split_type":[0],"sum_hessian":[5.4251395E4],"tree_param":{"num_deleted":"0","num_feature":"13","num_nodes":"1","size_leaf_vector":"1"}},{"base_weights":[-1.4759883E-3],"categories":[],"categories_nodes":[],"categories_segments":[],"categories_sizes":[],"default_left":[0],"id":29,"left_children":[-1],"loss_changes":[0E0],"parents":[2147483647],"right_children":[-1],"split_conditions":[-4.3737006E-4],"split_indices":[0],"split_type":[0],"sum_hessian":[5.4334766E4],"tree_param":{"num_deleted":"0","num_feature":"13","num_nodes":"1","size_leaf_vector":"1"}},{"base_weights":[-0E0],"categories":[],"categories_nodes":[],"categories_segments":[],"categories_sizes":[],"default_left":[0],"id":30,"left_children":[-1],"loss_changes":[0E0],"parents":[2147483647],"right_children":[-1],"split_conditions":[-0E0],"split_indices":[0],"split_type":[0],"sum_hessian":[5.4312086E4],"tree_param":{"num_deleted":"0","num_feature":"13","num_nodes":"1","size_leaf_vector":"1"}},{"base_weights":[5.215963E-4],"categories":[],"categories_nodes":[],"categories_segments":[],"categories_sizes":[],"default_left":[0],"id":31,"left_children":[-1],"loss_changes":[0E0],"parents":[2147483647],"right_children":[-1],"split_conditions":[1.5456126E-4],"split_indices":[0],"split_type":[0],"sum_hessian":[5.425209E4],"tree_param":{"num_deleted":"0","num_feature":"13","num_nodes":"1","size_leaf_vector":"1"}},{"base_weights":[-4.570029E-4],"categories":[],"categories_nodes":[],"categories_segments":[],"categories_sizes":[],"default_left":[0],"id":32,"left_children":[-1],"loss_changes":[0E0],"parents":[2147483647],"right_children":[-1],"split_conditions":[-1.3542072E-4],"split_indices":[0],"split_type":[0],"sum_hessian":[5.4339324E4],"tree_param":{"num_deleted":"0","num_feature":"13","num_nodes":"1","size_leaf_vector":"1"}},{"base_weights":[7.035605E-4],"categories":[],"categories_nodes":[],"categories_segments":[],"categories_sizes":[],"default_left":[0],"id":33,"left_children":[-1],"loss_changes":[0E0],"parents":[2147483647],"right_children":[-1],"split_conditions":[2.0848154E-4],"split_indices":[0],"split_type":[0],"sum_hessian":[5.4312594E4],"tree_param":{"num_deleted":"0","num_feature":"13","num_nodes":"1","size_leaf_vector":"1"}},{"base_weights":[7.633819E-4,6.8774265E-3,-1.2546455E-2,1.0065875E-3,3.027277E-2,-0E0,-5.062848E-2,2.0902485E-3,-3.772394E-2,5.668929E-2,-3.9660344E-3,2.117599E-2,-6.326451E-2,6.401083E-3,-1.7156474E-2,2.5858002E-2,3.4208612E-3,1.6974369E-2,-1.7458608E-2,-4.164464E-3,-2.888217E-2],"categories":[],"categories_nodes":[],"categories_segments":[],"categories_sizes":[],"default_left":[0,1,1,0,0,0,0,0,0,0,0,0,0,0,0,0,0,0,0,0,0],"id":34,"left_children":[1,3,5,7,9,-1,11,-1,13,15,17,-1,19,-1,-1,-1,-1,-1,-1,-1,-1],"loss_changes":[4.3250117E0,4.6749735E0,8.22466E0,6.7653503E0,7.3494754E0,0E0,6.533947E0,0E0,5.291049E0,4.0430746E0,9.618189E0,0E0,4.564377E0,0E0,0E0,0E0,0E0,0E0,0E0,0E0,0E0],"parents":[2147483647,0,0,1,1,2,2,3,3,4,4,6,6,8,8,9,9,10,10,12,12],"right_children":[2,4,6,8,10,-1,12,-1,14,16,18,-1,20,-1,-1,-1,-1,-1,-1,-1,-1],"split_conditions":[2.1445122E1,3.875E-1,2.27E2,-4.4444446E-2,3.08E2,-0E0,7.67E1,2.0902485E-3,5.9838157E0,8.46E1,8.09E1,2.117599E-2,2.9916397E1,6.401083E-3,-1.7156474E-2,2.5858002E-2,3.4208612E-3,1.6974369E-2,-1.7458608E-2,-4.164464E-3,-2.888217E-2],"split_indices":[9,1,7,1,7,0,0,0,2,0,0,0,9,0,0,0,0,0,0,0,0],"split_type":[0,0,0,0,0,0,0,0,0,0,0,0,0,0,0,0,0,0,0,0,0],"sum_hessian":[5.4339855E4,3.819878E4,1.6141074E4,3.1202838E4,6.9959443E3,1.198293E4,4.158145E3,2.7431863E4,3.770975E3,4.236404E3,2.7595405E3,2.337693E2,3.9243757E3,7.243311E2,3.046644E3,2.2576934E3,1.9787106E3,1.1455112E3,1.6140294E3,1.8558567E3,2.0685193E3],"tree_param":{"num_deleted":"0","num_feature":"13","num_nodes":"21","size_leaf_vector":"1"}},{"base_weights":[-0E0],"categories":[],"categories_nodes":[],"categories_segments":[],"categories_sizes":[],"default_left":[0],"id":35,"left_children":[-1],"loss_changes":[0E0],"parents":[2147483647],"right_children":[-1],"split_conditions":[-0E0],"split_indices":[0],"split_type":[0],"sum_hessian":[5.426597E4],"tree_param":{"num_deleted":"0","num_feature":"13","num_nodes":"1","size_leaf_vector":"1"}},{"base_weights":[2.920361E-3],"categories":[],"categories_nodes":[],"categories_segments":[],"categories_sizes":[],"default_left":[0],"id":36,"left_children":[-1],"loss_changes":[0E0],"parents":[2147483647],"right_children":[-1],"split_conditions":[8.653717E-4],"split_indices":[0],"split_type":[0],"sum_hessian":[5.428052E4],"tree_param":{"num_deleted":"0","num_feature":"13","num_nodes":"1","size_leaf_vector":"1"}},{"base_weights":[-0E0],"categories":[],"categories_nodes":[],"categories_segments":[],"categories_sizes":[],"default_left":[0],"id":37,"left_children":[-1],"loss_changes":[0E0],"parents":[2147483647],"right_children":[-1],"split_conditions":[-0E0],"split_indices":[0],"split_type":[0],"sum_hessian":[5.4181543E4],"tree_param":{"num_deleted":"0","num_feature":"13","num_nodes":"1","size_leaf_vector":"1"}},{"base_weights":[1.2693965E-3],"categories":[],"categories_nodes":[],"categories_segments":[],"categories_sizes":[],"default_left":[0],"id":38,"left_children":[-1],"loss_changes":[0E0],"parents":[2147483647],"right_children":[-1],"split_conditions":[3.7615208E-4],"split_indices":[0],"split_type":[0],"sum_hessian":[5.431686E4],"tree_param":{"num_deleted":"0","num_feature":"13","num_nodes":"1","size_leaf_vector":"1"}},{"base_weights":[1.5246713E-3],"categories":[],"categories_nodes":[],"categories_segments":[],"categories_sizes":[],"default_left":[0],"id":39,"left_children":[-1],"loss_changes":[0E0],"parents":[2147483647],"right_children":[-1],"split_conditions":[4.51796E-4],"split_indices":[0],"split_type":[0],"sum_hessian":[5.4317742E4],"tree_param":{"num_deleted":"0","num_feature":"13","num_nodes":"1","size_leaf_vector":"1"}},{"base_weights":[-3.177964E-4],"categories":[],"categories_nodes":[],"categories_segments":[],"categories_sizes":[],"default_left":[0],"id":40,"left_children":[-1],"loss_changes":[0E0],"parents":[2147483647],"right_children":[-1],"split_conditions":[-9.417055E-5],"split_indices":[0],"split_type":[0],"sum_hessian":[5.430684E4],"tree_param":{"num_deleted":"0","num_feature":"13","num_nodes":"1","size_leaf_vector":"1"}},{"base_weights":[-1.8025462E-3],"categories":[],"categories_nodes":[],"categories_segments":[],"categories_sizes":[],"default_left":[0],"id":41,"left_children":[-1],"loss_changes":[0E0],"parents":[2147483647],"right_children":[-1],"split_conditions":[-5.341369E-4],"split_indices":[0],"split_type":[0],"sum_hessian":[5.433649E4],"tree_param":{"num_deleted":"0","num_feature":"13","num_nodes":"1","size_leaf_vector":"1"}},{"base_weights":[-8.1848685E-4],"categories":[],"categories_nodes":[],"categories_segments":[],"categories_sizes":[],"default_left":[0],"id":42,"left_children":[-1],"loss_changes":[0E0],"parents":[2147483647],"right_children":[-1],"split_conditions":[-2.4253692E-4],"split_indices":[0],"split_type":[0],"sum_hessian":[5.4392375E4],"tree_param":{"num_deleted":"0","num_feature":"13","num_nodes":"1","size_leaf_vector":"1"}},{"base_weights":[1.6685813E-3],"categories":[],"categories_nodes":[],"categories_segments":[],"categories_sizes":[],"default_left":[0],"id":43,"left_children":[-1],"loss_changes":[0E0],"parents":[2147483647],"right_children":[-1],"split_conditions":[4.944399E-4],"split_indices":[0],"split_type":[0],"sum_hessian":[5.4345215E4],"tree_param":{"num_deleted":"0","num_feature":"13","num_nodes":"1","size_leaf_vector":"1"}},{"base_weights":[-0E0,-2.142101E-2,4.006639E-3,8.6092325E-3,-5.229108E-2,7.820405E-3,-3.3260472E-2,-6.4322655E-3,5.6789007E-2,3.1699754E-2,-6.136372E-2,2.075566E-2,5.803824E-3,-5.094885E-2,5.0435322E-3,-0E0,2.3810951E-2,-2.1331541E-2,-0E0,-9.74544E-3,2.569881E-3,-2.1779813E-2,-0E0],"categories":[],"categories_nodes":[],"categories_segments":[],"categories_sizes":[],"default_left":[0,0,1,0,0,1,0,0,0,0,1,0,0,0,0,0,0,0,0,0,0,0,0],"id":44,"left_children":[1,3,5,7,9,11,13,-1,15,-1,17,-1,19,21,-1,-1,-1,-1,-1,-1,-1,-1,-1],"loss_changes":[4.928312E0,9.315723E0,5.967063E0,7.096446E0,6.4241858E0,3.7902005E0,4.0044947E0,0E0,3.8462553E0,0E0,3.9751606E0,0E0,4.064252E0,4.3509398E0,0E0,0E0,0E0,0E0,0E0,0E0,0E0,0E0,0E0],"parents":[2147483647,0,0,1,1,2,2,3,3,4,4,5,5,6,6,8,8,10,10,12,12,13,13],"right_children":[2,4,6,8,10,12,14,-1,16,-1,18,-1,20,22,-1,-1,-1,-1,-1,-1,-1,-1,-1],"split_conditions":[9.601725E-1,-2.0521972E0,2.805E3,6.544766E1,7.53E1,9.655933E-1,4.05E-1,-6.4322655E-3,7.81E1,3.1699754E-2,2.792E3,2.075566E-2,1.5305287E1,1.0570569E0,5.0435322E-3,-0E0,2.3810951E-2,-2.1331541E-2,-0E0,-9.74544E-3,2.569881E-3,-2.1779813E-2,-0E0],"split_indices":[3,9,6,10,0,3,1,0,0,0,6,0,10,3,0,0,0,0,0,0,0,0,0],"split_type":[0,0,0,0,0,0,0,0,0,0,0,0,0,0,0,0,0,0,0,0,0,0,0],"sum_hessian":[5.4270555E4,9.114471E3,4.5156086E4,4.333775E3,4.780696E3,4.1444484E4,3.7115994E3,2.440277E3,1.8934977E3,1.2228594E2,4.6584097E3,9.6698114E2,4.0477504E4,3.016367E3,6.952324E2,3.743634E2,1.5191343E3,4.1398315E3,5.1857806E2,2.3184204E3,3.8159082E4,2.2316172E3,7.847499E2],"tree_param":{"num_deleted":"0","num_feature":"13","num_nodes":"23","size_leaf_vector":"1"}},{"base_weights":[1.068268E-3],"categories":[],"categories_nodes":[],"categories_segments":[],"categories_sizes":[],"default_left":[0],"id":45,"left_children":[-1],"loss_changes":[0E0],"parents":[2147483647],"right_children":[-1],"split_conditions":[3.1655293E-4],"split_indices":[0],"split_type":[0],"sum_hessian":[5.4288406E4],"tree_param":{"num_deleted":"0","num_feature":"13","num_nodes":"1","size_leaf_vector":"1"}},{"base_weights":[-2.9673246E-3],"categories":[],"categories_nodes":[],"categories_segments":[],"categories_sizes":[],"default_left":[0],"id":46,"left_children":[-1],"loss_changes":[0E0],"parents":[2147483647],"right_children":[-1],"split_conditions":[-8.792881E-4],"split_indices":[0],"split_type":[0],"sum_hessian":[5.4331586E4],"tree_param":{"num_deleted":"0","num_feature":"13","num_nodes":"1","size_leaf_vector":"1"}},{"base_weights":[1.4654931E-3],"categories":[],"categories_nodes":[],"categories_segments":[],"categories_sizes":[],"default_left":[0],"id":47,"left_children":[-1],"loss_changes":[0E0],"parents":[2147483647],"right_children":[-1],"split_conditions":[4.3426012E-4],"split_indices":[0],"split_type":[0],"sum_hessian":[5.4226695E4],"tree_param":{"num_deleted":"0","num_feature":"13","num_nodes":"1","size_leaf_vector":"1"}},{"base_weights":[-5.847407E-4],"categories":[],"categories_nodes":[],"categories_segments":[],"categories_sizes":[],"default_left":[0],"id":48,"left_children":[-1],"loss_changes":[0E0],"parents":[2147483647],"right_children":[-1],"split_conditions":[-1.7327243E-4],"split_indices":[0],"split_type":[0],"sum_hessian":[5.4224953E4],"tree_param":{"num_deleted":"0","num_feature":"13","num_nodes":"1","size_leaf_vector":"1"}},{"base_weights":[-0E0],"categories":[],"categories_nodes":[],"categories_segments":[],"categories_sizes":[],"default_left":[0],"id":49,"left_children":[-1],"loss_changes":[0E0],"parents":[2147483647],"right_children":[-1],"split_conditions":[-0E0],"split_indices":[0],"split_type":[0],"sum_hessian":[5.428378E4],"tree_param":{"num_deleted":"0","num_feature":"13","num_nodes":"1","size_leaf_vector":"1"}},{"base_weights":[-0E0],"categories":[],"categories_nodes":[],"categories_segments":[],"categories_sizes":[],"default_left":[0],"id":50,"left_children":[-1],"loss_changes":[0E0],"parents":[2147483647],"right_children":[-1],"split_conditions":[-0E0],"split_indices":[0],"split_type":[0],"sum_hessian":[5.4324117E4],"tree_param":{"num_deleted":"0","num_feature":"13","num_nodes":"1","size_leaf_vector":"1"}},{"base_weights":[-4.9328903E-4],"categories":[],"categories_nodes":[],"categories_segments":[],"categories_sizes":[],"default_left":[0],"id":51,"left_children":[-1],"loss_changes":[0E0],"parents":[2147483647],"right_children":[-1],"split_conditions":[-1.4617314E-4],"split_indices":[0],"split_type":[0],"sum_hessian":[5.423813E4],"tree_param":{"num_deleted":"0","num_feature":"13","num_nodes":"1","size_leaf_vector":"1"}},{"base_weights":[-0E0],"categories":[],"categories_nodes":[],"categories_segments":[],"categories_sizes":[],"default_left":[0],"id":52,"left_children":[-1],"loss_changes":[0E0],"parents":[2147483647],"right_children":[-1],"split_conditions":[-0E0],"split_indices":[0],"split_type":[0],"sum_hessian":[5.4246695E4],"tree_param":{"num_deleted":"0","num_feature":"13","num_nodes":"1","size_leaf_vector":"1"}},{"base_weights":[-2.5968368E-3],"categories":[],"categories_nodes":[],"categories_segments":[],"categories_sizes":[],"default_left":[0],"id":53,"left_children":[-1],"loss_changes":[0E0],"parents":[2147483647],"right_children":[-1],"split_conditions":[-7.695039E-4],"split_indices":[0],"split_type":[0],"sum_hessian":[5.4290797E4],"tree_param":{"num_deleted":"0","num_feature":"13","num_nodes":"1","size_leaf_vector":"1"}},{"base_weights":[1.3132327E-3],"categories":[],"categories_nodes":[],"categories_segments":[],"categories_sizes":[],"default_left":[0],"id":54,"left_children":[-1],"loss_changes":[0E0],"parents":[2147483647],"right_children":[-1],"split_conditions":[3.8914176E-4],"split_indices":[0],"split_type":[0],"sum_hessian":[5.4319703E4],"tree_param":{"num_deleted":"0","num_feature":"13","num_nodes":"1","size_leaf_vector":"1"}},{"base_weights":[-0E0],"categories":[],"categories_nodes":[],"categories_segments":[],"categories_sizes":[],"default_left":[0],"id":55,"left_children":[-1],"loss_changes":[0E0],"parents":[2147483647],"right_children":[-1],"split_conditions":[-0E0],"split_indices":[0],"split_type":[0],"sum_hessian":[5.4270145E4],"tree_param":{"num_deleted":"0","num_feature":"13","num_nodes":"1","size_leaf_vector":"1"}},{"base_weights":[9.38946E-4],"categories":[],"categories_nodes":[],"categories_segments":[],"categories_sizes":[],"default_left":[0],"id":56,"left_children":[-1],"loss_changes":[0E0],"parents":[2147483647],"right_children":[-1],"split_conditions":[2.782318E-4],"split_indices":[0],"split_type":[0],"sum_hessian":[5.4323188E4],"tree_param":{"num_deleted":"0","num_feature":"13","num_nodes":"1","size_leaf_vector":"1"}},{"base_weights":[3.9025E-4],"categories":[],"categories_nodes":[],"categories_segments":[],"categories_sizes":[],"default_left":[0],"id":57,"left_children":[-1],"loss_changes":[0E0],"parents":[2147483647],"right_children":[-1],"split_conditions":[1.15640265E-4],"split_indices":[0],"split_type":[0],"sum_hessian":[5.426981E4],"tree_param":{"num_deleted":"0","num_feature":"13","num_nodes":"1","size_leaf_vector":"1"}},{"base_weights":[1.3732887E-3],"categories":[],"categories_nodes":[],"categories_segments":[],"categories_sizes":[],"default_left":[0],"id":58,"left_children":[-1],"loss_changes":[0E0],"parents":[2147483647],"right_children":[-1],"split_conditions":[4.0693776E-4],"split_indices":[0],"split_type":[0],"sum_hessian":[5.426834E4],"tree_param":{"num_deleted":"0","num_feature":"13","num_nodes":"1","size_leaf_vector":"1"}},{"base_weights":[4.4591495E-4],"categories":[],"categories_nodes":[],"categories_segments":[],"categories_sizes":[],"default_left":[0],"id":59,"left_children":[-1],"loss_changes":[0E0],"parents":[2147483647],"right_children":[-1],"split_conditions":[1.321351E-4],"split_indices":[0],"split_type":[0],"sum_hessian":[5.428813E4],"tree_param":{"num_deleted":"0","num_feature":"13","num_nodes":"1","size_leaf_vector":"1"}},{"base_weights":[1.2195179E-3],"categories":[],"categories_nodes":[],"categories_segments":[],"categories_sizes":[],"default_left":[0],"id":60,"left_children":[-1],"loss_changes":[0E0],"parents":[2147483647],"right_children":[-1],"split_conditions":[3.6137187E-4],"split_indices":[0],"split_type":[0],"sum_hessian":[5.4295785E4],"tree_param":{"num_deleted":"0","num_feature":"13","num_nodes":"1","size_leaf_vector":"1"}},{"base_weights":[-5.639758E-4,1.755108E-3,-3.284247E-2,-0E0,1.9096375E-2,-0E0,-9.230129E-2,-6.0864734E-3,1.650097E-2,-5.4863326E-2,3.927768E-2,-0E0,-3.74201E-2,3.5749096E-3,-3.8671042E-3,3.3769445E-3,3.9228164E-2,1.6851641E-2,-3.1806774E-2,-0E0,3.1116525E-2],"categories":[],"categories_nodes":[],"categories_segments":[],"categories_sizes":[],"default_left":[0,0,0,0,0,0,1,0,0,0,0,0,0,0,0,0,0,0,0,0,0],"id":61,"left_children":[1,3,5,7,-1,9,11,13,15,17,19,-1,-1,-1,-1,-1,-1,-1,-1,-1,-1],"loss_changes":[4.640318E0,6.2461705E0,7.1190405E0,4.775771E0,0E0,6.4230433E0,4.017585E0,4.5869393E0,4.7544107E0,8.992427E0,5.602274E0,0E0,0E0,0E0,0E0,0E0,0E0,0E0,0E0,0E0,0E0],"parents":[2147483647,0,0,1,1,2,2,3,3,5,5,6,6,7,7,8,8,9,9,10,10],"right_children":[2,4,6,8,-1,10,12,14,16,18,20,-1,-1,-1,-1,-1,-1,-1,-1,-1,-1],"split_conditions":[1.094E0,8.6E-1,-1.8710144E1,-1.46444435E1,1.9096375E-2,1.61875E0,2.218E3,-3.3233333E-1,4.3866012E-1,-3.427698E-1,-2.1957345E-1,-0E0,-3.74201E-2,3.5749096E-3,-3.8671042E-3,3.3769445E-3,3.9228164E-2,1.6851641E-2,-3.1806774E-2,-0E0,3.1116525E-2],"split_indices":[1,1,8,8,0,1,6,4,4,4,4,0,0,0,0,0,0,0,0,0,0],"split_type":[0,0,0,0,0,0,0,0,0,0,0,0,0,0,0,0,0,0,0,0,0],"sum_hessian":[5.4257844E4,5.0127594E4,4.130249E3,4.863093E4,1.4966647E3,2.810616E3,1.3196332E3,3.6045938E4,1.2584995E4,1.2842013E3,1.5264147E3,3.834387E2,9.361945E2,9.252115E3,2.679382E4,1.2253155E4,3.3183978E2,2.969714E2,9.872299E2,8.431036E2,6.8331104E2],"tree_param":{"num_deleted":"0","num_feature":"13","num_nodes":"21","size_leaf_vector":"1"}},{"base_weights":[-3.4741648E-3],"categories":[],"categories_nodes":[],"categories_segments":[],"categories_sizes":[],"default_left":[0],"id":62,"left_children":[-1],"loss_changes":[0E0],"parents":[2147483647],"right_children":[-1],"split_conditions":[-1.0294768E-3],"split_indices":[0],"split_type":[0],"sum_hessian":[5.4275152E4],"tree_param":{"num_deleted":"0","num_feature":"13","num_nodes":"1","size_leaf_vector":"1"}},{"base_weights":[3.093075E-3],"categories":[],"categories_nodes":[],"categories_segments":[],"categories_sizes":[],"default_left":[0],"id":63,"left_children":[-1],"loss_changes":[0E0],"parents":[2147483647],"right_children":[-1],"split_conditions":[9.165509E-4],"split_indices":[0],"split_type":[0],"sum_hessian":[5.420918E4],"tree_param":{"num_deleted":"0","num_feature":"13","num_nodes":"1","size_leaf_vector":"1"}},{"base_weights":[2.9775233E-4],"categories":[],"categories_nodes":[],"categories_segments":[],"categories_sizes":[],"default_left":[0],"id":64,"left_children":[-1],"loss_changes":[0E0],"parents":[2147483647],"right_children":[-1],"split_conditions":[8.823102E-5],"split_indices":[0],"split_type":[0],"sum_hessian":[5.425667E4],"tree_param":{"num_deleted":"0","num_feature":"13","num_nodes":"1","size_leaf_vector":"1"}},{"base_weights":[2.3810735E-3],"categories":[],"categories_nodes":[],"categories_segments":[],"categories_sizes":[],"default_left":[0],"id":65,"left_children":[-1],"loss_changes":[0E0],"parents":[2147483647],"right_children":[-1],"split_conditions":[7.055681E-4],"split_indices":[0],"split_type":[0],"sum_hessian":[5.425364E4],"tree_param":{"num_deleted":"0","num_feature":"13","num_nodes":"1","size_leaf_vector":"1"}},{"base_weights":[-6.1034807E-4],"categories":[],"categories_nodes":[],"categories_segments":[],"categories_sizes":[],"default_left":[0],"id":66,"left_children":[-1],"loss_changes":[0E0],"parents":[2147483647],"right_children":[-1],"split_conditions":[-1.808605E-4],"split_indices":[0],"split_type":[0],"sum_hessian":[5.429405E4],"tree_param":{"num_deleted":"0","num_feature":"13","num_nodes":"1","size_leaf_vector":"1"}},{"base_weights":[-0E0,-2.578607E-4,6.659029E-2,-0E0,3.547559E-2],"categories":[],"categories_nodes":[],"categories_segments":[],"categories_sizes":[],"default_left":[0,0,1,0,0],"id":67,"left_children":[1,-1,3,-1,-1],"loss_changes":[3.963399E0,0E0,4.206299E0,0E0,0E0],"parents":[2147483647,0,0,2,2],"right_children":[2,-1,4,-1,-1],"split_conditions":[4.9074492E-1,-2.578607E-4,1.0051676E0,-0E0,3.547559E-2],"split_indices":[4,0,3,0,0],"split_type":[0,0,0,0,0],"sum_hessian":[5.4280918E4,5.3440777E4,8.401415E2,3.1749835E2,5.226431E2],"tree_param":{"num_deleted":"0","num_feature":"13","num_nodes":"5","size_leaf_vector":"1"}},{"base_weights":[-0E0,4.6825474E-3,-1.42371105E-2,4.080976E-2,3.9002334E-4,-9.711589E-3,6.1582043E-3,3.1414065E-3,9.806011E-2,-2.293718E-2,5.3958227E-3,-7.714217E-4,1.8964725E-2,3.7103362E-2,-0E0,-1.773767E-2,1.6572953E-3,5.3366483E-3,-1.5592306E-3],"categories":[],"categories_nodes":[],"categories_segments":[],"categories_sizes":[],"default_left":[0,0,0,0,0,0,0,0,0,0,1,0,0,0,0,0,0,0,0],"id":68,"left_children":[1,3,5,7,9,-1,11,-1,13,15,17,-1,-1,-1,-1,-1,-1,-1,-1],"loss_changes":[3.7199135E0,5.504419E0,5.7856607E0,4.581289E0,3.9567983E0,0E0,4.29183E0,0E0,3.9262562E0,7.1514397E0,4.3830447E0,0E0,0E0,0E0,0E0,0E0,0E0,0E0,0E0],"parents":[2147483647,0,0,1,1,2,2,3,3,4,4,6,6,8,8,9,9,10,10],"right_children":[2,4,6,8,10,-1,12,-1,14,16,18,-1,-1,-1,-1,-1,-1,-1,-1],"split_conditions":[1E0,2.16E3,-2.295954E1,2.112E3,8.05E1,-9.711589E-3,9.9421155E-1,3.1414065E-3,9.7532487E-1,2.554E3,-2.9987528E1,-7.714217E-4,1.8964725E-2,3.7103362E-2,-0E0,-1.773767E-2,1.6572953E-3,5.3366483E-3,-1.5592306E-3],"split_indices":[11,6,8,6,0,0,5,0,5,6,8,0,0,0,0,0,0,0,0],"split_type":[0,0,0,0,0,0,0,0,0,0,0,0,0,0,0,0,0,0,0],"sum_hessian":[5.428853E4,4.0350496E4,1.3938035E4,3.7890298E3,3.6561465E4,7.760927E3,6.1771084E3,2.7255413E3,1.0634885E3,5.781005E3,3.078046E4,5.124786E3,1.0523223E3,8.8547144E2,1.7801709E2,2.7801223E3,3.0008828E3,1.4874461E4,1.5906E4],"tree_param":{"num_deleted":"0","num_feature":"13","num_nodes":"19","size_leaf_vector":"1"}},{"base_weights":[-4.0413768E-4,1.6737869E-3,-9.569572E-3,-0E0,5.661026E-2,5.2150403E-4,-1.3146578E-2,2.9818272E-2,-0E0],"categories":[],"categories_nodes":[],"categories_segments":[],"categories_sizes":[],"default_left":[0,0,0,0,0,0,0,0,0],"id":69,"left_children":[1,3,-1,5,7,-1,-1,-1,-1],"loss_changes":[4.1656256E0,5.4306574E0,0E0,4.4064913E0,6.0413065E0,0E0,0E0,0E0,0E0],"parents":[2147483647,0,0,1,1,3,3,4,4],"right_children":[2,4,-1,6,8,-1,-1,-1,-1],"split_conditions":[8.4670006E1,8.092756E1,-9.569572E-3,7.696518E1,-1.768295E0,5.2150403E-4,-1.3146578E-2,2.9818272E-2,-0E0],"split_indices":[10,10,0,10,9,0,0,0,0],"split_type":[0,0,0,0,0,0,0,0,0],"sum_hessian":[5.42667E4,5.0444176E4,3.822522E3,4.8749996E4,1.6941808E3,4.6629258E4,2.1207383E3,1.1023678E3,5.918129E2],"tree_param":{"num_deleted":"0","num_feature":"13","num_nodes":"9","size_leaf_vector":"1"}},{"base_weights":[1.4696418E-3],"categories":[],"categories_nodes":[],"categories_segments":[],"categories_sizes":[],"default_left":[0],"id":70,"left_children":[-1],"loss_changes":[0E0],"parents":[2147483647],"right_children":[-1],"split_conditions":[4.3548946E-4],"split_indices":[0],"split_type":[0],"sum_hessian":[5.4280344E4],"tree_param":{"num_deleted":"0","num_feature":"13","num_nodes":"1","size_leaf_vector":"1"}},{"base_weights":[-1.5317876E-3],"categories":[],"categories_nodes":[],"categories_segments":[],"categories_sizes":[],"default_left":[0],"id":71,"left_children":[-1],"loss_changes":[0E0],"parents":[2147483647],"right_children":[-1],"split_conditions":[-4.539047E-4],"split_indices":[0],"split_type":[0],"sum_hessian":[5.4246957E4],"tree_param":{"num_deleted":"0","num_feature":"13","num_nodes":"1","size_leaf_vector":"1"}},{"base_weights":[-6.18279E-4],"categories":[],"categories_nodes":[],"categories_segments":[],"categories_sizes":[],"default_left":[0],"id":72,"left_children":[-1],"loss_changes":[0E0],"parents":[2147483647],"right_children":[-1],"split_conditions":[-1.8321062E-4],"split_indices":[0],"split_type":[0],"sum_hessian":[5.420627E4],"tree_param":{"num_deleted":"0","num_feature":"13","num_nodes":"1","size_leaf_vector":"1"}},{"base_weights":[-0E0],"categories":[],"categories_nodes":[],"categories_segments":[],"categories_sizes":[],"default_left":[0],"id":73,"left_children":[-1],"loss_changes":[0E0],"parents":[2147483647],"right_children":[-1],"split_conditions":[-0E0],"split_indices":[0],"split_type":[0],"sum_hessian":[5.4253348E4],"tree_param":{"num_deleted":"0","num_feature":"13","num_nodes":"1","size_leaf_vector":"1"}},{"base_weights":[-1.923324E-4],"categories":[],"categories_nodes":[],"categories_segments":[],"categories_sizes":[],"default_left":[0],"id":74,"left_children":[-1],"loss_changes":[0E0],"parents":[2147483647],"right_children":[-1],"split_conditions":[-5.6992616E-5],"split_indices":[0],"split_type":[0],"sum_hessian":[5.4294473E4],"tree_param":{"num_deleted":"0","num_feature":"13","num_nodes":"1","size_leaf_vector":"1"}},{"base_weights":[-5.107086E-5],"categories":[],"categories_nodes":[],"categories_segments":[],"categories_sizes":[],"default_left":[0],"id":75,"left_children":[-1],"loss_changes":[0E0],"parents":[2147483647],"right_children":[-1],"split_conditions":[-1.5133498E-5],"split_indices":[0],"split_type":[0],"sum_hessian":[5.4279355E4],"tree_param":{"num_deleted":"0","num_feature":"13","num_nodes":"1","size_leaf_vector":"1"}},{"base_weights":[-0E0],"categories":[],"categories_nodes":[],"categories_segments":[],"categories_sizes":[],"default_left":[0],"id":76,"left_children":[-1],"loss_changes":[0E0],"parents":[2147483647],"right_children":[-1],"split_conditions":[-0E0],"split_indices":[0],"split_type":[0],"sum_hessian":[5.4202E4],"tree_param":{"num_deleted":"0","num_feature":"13","num_nodes":"1","size_leaf_vector":"1"}},{"base_weights":[-0E0],"categories":[],"categories_nodes":[],"categories_segments":[],"categories_sizes":[],"default_left":[0],"id":77,"left_children":[-1],"loss_changes":[0E0],"parents":[2147483647],"right_children":[-1],"split_conditions":[-0E0],"split_indices":[0],"split_type":[0],"sum_hessian":[5.4319902E4],"tree_param":{"num_deleted":"0","num_feature":"13","num_nodes":"1","size_leaf_vector":"1"}},{"base_weights":[-0E0],"categories":[],"categories_nodes":[],"categories_segments":[],"categories_sizes":[],"default_left":[0],"id":78,"left_children":[-1],"loss_changes":[0E0],"parents":[2147483647],"right_children":[-1],"split_conditions":[-0E0],"split_indices":[0],"split_type":[0],"sum_hessian":[5.42325E4],"tree_param":{"num_deleted":"0","num_feature":"13","num_nodes":"1","size_leaf_vector":"1"}},{"base_weights":[-3.848694E-4],"categories":[],"categories_nodes":[],"categories_segments":[],"categories_sizes":[],"default_left":[0],"id":79,"left_children":[-1],"loss_changes":[0E0],"parents":[2147483647],"right_children":[-1],"split_conditions":[-1.1404586E-4],"split_indices":[0],"split_type":[0],"sum_hessian":[5.429286E4],"tree_param":{"num_deleted":"0","num_feature":"13","num_nodes":"1","size_leaf_vector":"1"}},{"base_weights":[-3.651295E-4],"categories":[],"categories_nodes":[],"categories_segments":[],"categories_sizes":[],"default_left":[0],"id":80,"left_children":[-1],"loss_changes":[0E0],"parents":[2147483647],"right_children":[-1],"split_conditions":[-1.08196466E-4],"split_indices":[0],"split_type":[0],"sum_hessian":[5.4333805E4],"tree_param":{"num_deleted":"0","num_feature":"13","num_nodes":"1","size_leaf_vector":"1"}},{"base_weights":[-5.4338E-4],"categories":[],"categories_nodes":[],"categories_segments":[],"categories_sizes":[],"default_left":[0],"id":81,"left_children":[-1],"loss_changes":[0E0],"parents":[2147483647],"right_children":[-1],"split_conditions":[-1.6101627E-4],"split_indices":[0],"split_type":[0],"sum_hessian":[5.4311676E4],"tree_param":{"num_deleted":"0","num_feature":"13","num_nodes":"1","size_leaf_vector":"1"}},{"base_weights":[-0E0],"categories":[],"categories_nodes":[],"categories_segments":[],"categories_sizes":[],"default_left":[0],"id":82,"left_children":[-1],"loss_changes":[0E0],"parents":[2147483647],"right_children":[-1],"split_conditions":[-0E0],"split_indices":[0],"split_type":[0],"sum_hessian":[5.4271043E4],"tree_param":{"num_deleted":"0","num_feature":"13","num_nodes":"1","size_leaf_vector":"1"}},{"base_weights":[-0E0],"categories":[],"categories_nodes":[],"categories_segments":[],"categories_sizes":[],"default_left":[0],"id":83,"left_children":[-1],"loss_changes":[0E0],"parents":[2147483647],"right_children":[-1],"split_conditions":[-0E0],"split_indices":[0],"split_type":[0],"sum_hessian":[5.42645E4],"tree_param":{"num_deleted":"0","num_feature":"13","num_nodes":"1","size_leaf_vector":"1"}},{"base_weights":[2.043256E-3,-2.5840702E-3,8.932219E-3,2.5891999E-2,4.383787E-5,1.6560784E-2,2.7553076E-2,-2.8423795E-2,6.659207E-3,1.0573785E-2,-9.861134E-4,-1.3849369E-2,1.2118754E-2,8.7045375E-3,-7.8395323E-4],"categories":[],"categories_nodes":[],"categories_segments":[],"categories_sizes":[],"default_left":[0,0,0,0,0,0,0,0,0,0,0,0,0,0,0],"id":84,"left_children":[1,-1,3,5,7,9,-1,11,13,-1,-1,-1,-1,-1,-1],"loss_changes":[4.0352926E0,0E0,4.6756744E0,4.8262835E0,3.9744594E0,4.4009514E0,0E0,5.087785E0,4.5918865E0,0E0,0E0,0E0,0E0,0E0,0E0],"parents":[2147483647,0,0,2,2,3,3,4,4,5,5,7,7,8,8],"right_children":[2,-1,4,6,8,10,-1,12,14,-1,-1,-1,-1,-1,-1],"split_conditions":[9.0079594E-1,-2.5840702E-3,9.3785673E-1,9.3462616E-1,9.495239E-1,-9.680851E-1,2.7553076E-2,-6.57129E0,9.6980727E-1,1.0573785E-2,-9.861134E-4,-1.3849369E-2,1.2118754E-2,8.7045375E-3,-7.8395323E-4],"split_indices":[5,0,5,5,5,1,0,8,5,0,0,0,0,0,0],"split_type":[0,0,0,0,0,0,0,0,0,0,0,0,0,0,0],"sum_hessian":[5.427622E4,2.0132822E4,3.4143395E4,1.0998644E4,2.314475E4,9.945579E3,1.0530646E3,3.8113123E3,1.933344E4,5.5247866E3,4.420793E3,3.2365918E3,5.7472046E2,6.1656206E3,1.3167818E4],"tree_param":{"num_deleted":"0","num_feature":"13","num_nodes":"15","size_leaf_vector":"1"}},{"base_weights":[-1.6680295E-3],"categories":[],"categories_nodes":[],"categories_segments":[],"categories_sizes":[],"default_left":[0],"id":85,"left_children":[-1],"loss_changes":[0E0],"parents":[2147483647],"right_children":[-1],"split_conditions":[-4.942764E-4],"split_indices":[0],"split_type":[0],"sum_hessian":[5.4291297E4],"tree_param":{"num_deleted":"0","num_feature":"13","num_nodes":"1","size_leaf_vector":"1"}},{"base_weights":[-2.4244397E-4],"categories":[],"categories_nodes":[],"categories_segments":[],"categories_sizes":[],"default_left":[0],"id":86,"left_children":[-1],"loss_changes":[0E0],"parents":[2147483647],"right_children":[-1],"split_conditions":[-7.184185E-5],"split_indices":[0],"split_type":[0],"sum_hessian":[5.42622E4],"tree_param":{"num_deleted":"0","num_feature":"13","num_nodes":"1","size_leaf_vector":"1"}},{"base_weights":[1.8362598E-4],"categories":[],"categories_nodes":[],"categories_segments":[],"categories_sizes":[],"default_left":[0],"id":87,"left_children":[-1],"loss_changes":[0E0],"parents":[2147483647],"right_children":[-1],"split_conditions":[5.44127E-5],"split_indices":[0],"split_type":[0],"sum_hessian":[5.4206195E4],"tree_param":{"num_deleted":"0","num_feature":"13","num_nodes":"1","size_leaf_vector":"1"}},{"base_weights":[-1.4181838E-3],"categories":[],"categories_nodes":[],"categories_segments":[],"categories_sizes":[],"default_left":[0],"id":88,"left_children":[-1],"loss_changes":[0E0],"parents":[2147483647],"right_children":[-1],"split_conditions":[-4.2024124E-4],"split_indices":[0],"split_type":[0],"sum_hessian":[5.428727E4],"tree_param":{"num_deleted":"0","num_feature":"13","num_nodes":"1","size_leaf_vector":"1"}},{"base_weights":[2.70669E-4],"categories":[],"categories_nodes":[],"categories_segments":[],"categories_sizes":[],"default_left":[0],"id":89,"left_children":[-1],"loss_changes":[0E0],"parents":[2147483647],"right_children":[-1],"split_conditions":[8.0205595E-5],"split_indices":[0],"split_type":[0],"sum_hessian":[5.4277902E4],"tree_param":{"num_deleted":"0","num_feature":"13","num_nodes":"1","size_leaf_vector":"1"}},{"base_weights":[1.9676199E-3,3.8927272E-2,-0E0,-0E0,2.5527172E-2],"categories":[],"categories_nodes":[],"categories_segments":[],"categories_sizes":[],"default_left":[0,0,0,0,0],"id":90,"left_children":[1,3,-1,-1,-1],"loss_changes":[3.7056823E0,5.780542E0,0E0,0E0,0E0],"parents":[2147483647,0,0,1,1],"right_children":[2,4,-1,-1,-1],"split_conditions":[7.67E1,-1.7714286E0,-0E0,-0E0,2.5527172E-2],"split_indices":[0,1,0,0,0],"split_type":[0,0,0,0,0],"sum_hessian":[5.4280156E4,2.539716E3,5.174044E4,1.2776492E3,1.262067E3],"tree_param":{"num_deleted":"0","num_feature":"13","num_nodes":"5","size_leaf_vector":"1"}},{"base_weights":[-4.3733722E-5],"categories":[],"categories_nodes":[],"categories_segments":[],"categories_sizes":[],"default_left":[0],"id":91,"left_children":[-1],"loss_changes":[0E0],"parents":[2147483647],"right_children":[-1],"split_conditions":[-1.2959331E-5],"split_indices":[0],"split_type":[0],"sum_hessian":[5.428322E4],"tree_param":{"num_deleted":"0","num_feature":"13","num_nodes":"1","size_leaf_vector":"1"}},{"base_weights":[-0E0],"categories":[],"categories_nodes":[],"categories_segments":[],"categories_sizes":[],"default_left":[0],"id":92,"left_children":[-1],"loss_changes":[0E0],"parents":[2147483647],"right_children":[-1],"split_conditions":[-0E0],"split_indices":[0],"split_type":[0],"sum_hessian":[5.427916E4],"tree_param":{"num_deleted":"0","num_feature":"13","num_nodes":"1","size_leaf_vector":"1"}},{"base_weights":[1.5030326E-3],"categories":[],"categories_nodes":[],"categories_segments":[],"categories_sizes":[],"default_left":[0],"id":93,"left_children":[-1],"loss_changes":[0E0],"parents":[2147483647],"right_children":[-1],"split_conditions":[4.4538395E-4],"split_indices":[0],"split_type":[0],"sum_hessian":[5.430272E4],"tree_param":{"num_deleted":"0","num_feature":"13","num_nodes":"1","size_leaf_vector":"1"}},{"base_weights":[1.0610825E-3],"categories":[],"categories_nodes":[],"categories_segments":[],"categories_sizes":[],"default_left":[0],"id":94,"left_children":[-1],"loss_changes":[0E0],"parents":[2147483647],"right_children":[-1],"split_conditions":[3.144237E-4],"split_indices":[0],"split_type":[0],"sum_hessian":[5.436931E4],"tree_param":{"num_deleted":"0","num_feature":"13","num_nodes":"1","size_leaf_vector":"1"}},{"base_weights":[3.2710828E-4],"categories":[],"categories_nodes":[],"categories_segments":[],"categories_sizes":[],"default_left":[0],"id":95,"left_children":[-1],"loss_changes":[0E0],"parents":[2147483647],"right_children":[-1],"split_conditions":[9.6929885E-5],"split_indices":[0],"split_type":[0],"sum_hessian":[5.428564E4],"tree_param":{"num_deleted":"0","num_feature":"13","num_nodes":"1","size_leaf_vector":"1"}},{"base_weights":[-2.9599792E-3],"categories":[],"categories_nodes":[],"categories_segments":[],"categories_sizes":[],"default_left":[0],"id":96,"left_children":[-1],"loss_changes":[0E0],"parents":[2147483647],"right_children":[-1],"split_conditions":[-8.771115E-4],"split_indices":[0],"split_type":[0],"sum_hessian":[5.425069E4],"tree_param":{"num_deleted":"0","num_feature":"13","num_nodes":"1","size_leaf_vector":"1"}},{"base_weights":[-0E0],"categories":[],"categories_nodes":[],"categories_segments":[],"categories_sizes":[],"default_left":[0],"id":97,"left_children":[-1],"loss_changes":[0E0],"parents":[2147483647],"right_children":[-1],"split_conditions":[-0E0],"split_indices":[0],"split_type":[0],"sum_hessian":[5.4304344E4],"tree_param":{"num_deleted":"0","num_feature":"13","num_nodes":"1","size_leaf_vector":"1"}},{"base_weights":[-5.255534E-4],"categories":[],"categories_nodes":[],"categories_segments":[],"categories_sizes":[],"default_left":[0],"id":98,"left_children":[-1],"loss_changes":[0E0],"parents":[2147483647],"right_children":[-1],"split_conditions":[-1.5573385E-4],"split_indices":[0],"split_type":[0],"sum_hessian":[5.4188617E4],"tree_param":{"num_deleted":"0","num_feature":"13","num_nodes":"1","size_leaf_vector":"1"}},{"base_weights":[8.679436E-4],"categories":[],"categories_nodes":[],"categories_segments":[],"categories_sizes":[],"default_left":[0],"id":99,"left_children":[-1],"loss_changes":[0E0],"parents":[2147483647],"right_children":[-1],"split_conditions":[2.5719212E-4],"split_indices":[0],"split_type":[0],"sum_hessian":[5.4271277E4],"tree_param":{"num_deleted":"0","num_feature":"13","num_nodes":"1","size_leaf_vector":"1"}}]},"name":"gbtree"},"learner_model_param":{"base_score":"5.097263E-1","boost_from_average":"1","num_class":"0","num_feature":"13","num_target":"1"},"objective":{"name":"binary:logistic","reg_loss_param":{"scale_pos_weight":"1"}}},"version":[2,1,4]}