{"learner":{"attributes":{"scikit_learn":"{\"_estimator_type\": \"classifier\"}"},"feature_names":["plate_time","plate_time_diff","HAVAA","x0","z0","HB_acc","IVB_acc","Break_acc","HB_acc_diff","IVB_acc_diff","Break_diff","pX","pZ","sz_z","pitcherHand_L","pitcherHand_R","hitterHand_L","hitterHand_R","balls_before_pitch_0","balls_before_pitch_1","balls_before_pitch_2","balls_before_pitch_3","strikes_before_pitch_0","strikes_before_pitch_1","strikes_before_pitch_2"],"feature_types":["float","float","float","float","float","float","float","float","float","float","float","float","float","float","i","i","i","i","i","i","i","i","i","i","i"],"gradient_booster":{"model":{"gbtree_model_param":{"num_parallel_tree":"1","num_trees":"100"},"iteration_indptr":[0,1,2,3,4,5,6,7,8,9,10,11,12,13,14,15,16,17,18,19,20,21,22,23,24,25,26,27,28,29,30,31,32,33,34,35,36,37,38,39,40,41,42,43,44,45,46,47,48,49,50,51,52,53,54,55,56,57,58,59,60,61,62,63,64,65,66,67,68,69,70,71,72,73,74,75,76,77,78,79,80,81,82,83,84,85,86,87,88,89,90,91,92,93,94,95,96,97,98,99,100],"tree_info":[0,0,0,0,0,0,0,0,0,0,0,0,0,0,0,0,0,0,0,0,0,0,0,0,0,0,0,0,0,0,0,0,0,0,0,0,0,0,0,0,0,0,0,0,0,0,0,0,0,0,0,0,0,0,0,0,0,0,0,0,0,0,0,0,0,0,0,0,0,0,0,0,0,0,0,0,0,0,0,0,0,0,0,0,0,0,0,0,0,0,0,0,0,0,0,0,0,0,0,0],"trees":[{"base_weights":[3.6400596E-3,-2.393874E-1,7.1327165E-2,-3.932964E-1,-1.2565982E-1,-2.058871E-1,9.978835E-2,-1.4827807E-1,-9.440427E-2,-8.4715664E-2,-5.617816E-2,-3.196064E-1,8.675055E-2,5.9348438E-2,1.9361381E-1,1.858005E-2,-6.1265245E-2,-1.1234068E-1,6.2994614E-2,-2.1507852E-2,1.6651514E-1,-1.7249501E-1,1.8120241E-1,-3.0327493E-1,2.4852999E-1,-4.099719E-1,8.7481765E-3,-9.58511E-3,1.7525572E-1,2.3995525E-1,-0E0,-5.6092983E-1,5.4927275E-2,3.0552092E-1,-2.5708824E-1,-1.2585407E-1,-0E0,2.9191375E-1,-2.7928805E-1,-1.891252E-1,-0E0,1.22583985E-1,-1.109136E-1,7.37747E-2,-2.1284178E-2,-0E0,9.3241006E-2,-6.7728436E-1,-2.1924539E-1,-5.933599E-2,3.8111318E-2,3.373906E-1,1.0302949E-2,-6.687863E-2,-4.6122375E-1,3.2641715E-1,-1.1674971E-2,1.198372E-2,-1.3851164E-1,-2.4112635E-3,5.9690285E-2,-2.1821581E-1,-0E0,2.8575227E-2,-3.245434E-1,5.121089E-2,-5.5435516E-2,3.9978933E-1,1.4952977E-1,-4.5724846E-2,5.9333663E-3,-4.9263415E-1,-0E0,-0E0,3.585315E-1,-1.2186314E-1,-0E0,-1.3894774E-2,7.808928E-2,1.3464445E-1,5.4635834E-2,1.9510661E-1,-1.5532154E-2,-0E0,-1.6274345E-1,4.0037355E-1,3.101213E-2,2.7635768E-2,9.6211344E-2,1.3139626E-1,-0E0],"categories":[],"categories_nodes":[],"categories_segments":[],"categories_sizes":[],"default_left":[0,0,0,0,0,0,0,0,0,0,0,0,0,0,0,0,0,0,0,0,0,0,0,0,0,0,0,0,0,0,0,0,0,0,0,0,0,0,0,0,0,1,0,0,0,0,0,0,0,0,0,0,0,0,0,0,0,0,0,0,0,0,0,0,0,0,0,1,0,0,0,0,0,0,0,0,0,0,0,0,0,0,0,0,0,0,0,0,0,0,0],"id":0,"left_children":[1,3,5,7,9,11,13,-1,15,-1,17,-1,19,21,23,-1,-1,25,27,-1,29,31,33,35,37,39,41,-1,43,45,-1,47,49,51,53,-1,-1,55,57,-1,-1,59,-1,-1,-1,-1,-1,61,63,65,-1,67,-1,69,71,73,-1,-1,-1,-1,-1,-1,-1,-1,75,77,-1,79,81,-1,-1,83,-1,-1,85,-1,-1,-1,-1,-1,-1,87,-1,-1,-1,89,-1,-1,-1,-1,-1],"loss_changes":[2.9821463E2,6.14859E1,1.1278207E2,2.8001587E1,1.9517117E1,3.2178665E2,4.6419495E1,0E0,8.057495E0,0E0,1.2255249E1,0E0,1.3902256E1,2.6288953E2,1.0794386E2,0E0,0E0,4.8344704E1,7.152325E0,0E0,1.020191E1,2.8776385E2,3.3762732E2,7.8229027E0,8.443468E1,3.0010517E1,3.705623E1,0E0,6.422536E0,6.9524136E0,0E0,3.1284454E1,1.6142641E1,3.7746643E1,4.6329163E1,0E0,0E0,4.0435303E1,1.8346601E1,0E0,0E0,8.12002E0,0E0,0E0,0E0,0E0,0E0,7.4318237E0,1.6862291E1,1.0865844E1,0E0,4.1666565E1,0E0,6.5394516E0,1.0103882E1,2.943924E1,0E0,0E0,0E0,0E0,0E0,0E0,0E0,0E0,6.9700584E0,9.300461E0,0E0,7.8960266E0,1.2596018E1,0E0,0E0,6.4986725E0,0E0,0E0,2.281723E1,0E0,0E0,0E0,0E0,0E0,0E0,6.764099E0,0E0,0E0,0E0,1.0457825E1,0E0,0E0,0E0,0E0,0E0],"parents":[2147483647,0,0,1,1,2,2,3,3,4,4,5,5,6,6,8,8,10,10,12,12,13,13,14,14,17,17,18,18,20,20,21,21,22,22,23,23,24,24,25,25,26,26,28,28,29,29,31,31,32,32,33,33,34,34,37,37,38,38,41,41,47,47,48,48,49,49,51,51,53,53,54,54,55,55,64,64,65,65,67,67,68,68,71,71,74,74,81,81,85,85],"right_children":[2,4,6,8,10,12,14,-1,16,-1,18,-1,20,22,24,-1,-1,26,28,-1,30,32,34,36,38,40,42,-1,44,46,-1,48,50,52,54,-1,-1,56,58,-1,-1,60,-1,-1,-1,-1,-1,62,64,66,-1,68,-1,70,72,74,-1,-1,-1,-1,-1,-1,-1,-1,76,78,-1,80,82,-1,-1,84,-1,-1,86,-1,-1,-1,-1,-1,-1,88,-1,-1,-1,90,-1,-1,-1,-1,-1],"split_conditions":[-4.9574786E-1,-6.599631E-1,-9.5516837E-1,1.50711565E1,2.2163742E0,1E0,8.742037E-1,-1.4827807E-1,1.1374623E-1,-8.4715664E-2,1E0,-3.196064E-1,-1.2281218E0,1E0,-2.1173967E-1,1.858005E-2,-6.1265245E-2,1E0,2.9273206E-1,-2.1507852E-2,2.5161712E0,-3.3576697E-1,2.3085862E-2,-1.2820713E-1,1E0,1.0610941E-1,1.19940124E-1,-9.58511E-3,1E0,4.221154E-1,-0E0,2.594596E-2,-4.739132E-2,2.8092356E0,2.6836374E-1,-1.2585407E-1,-0E0,1.1607456E0,2.2925268E-1,-1.891252E-1,-0E0,2.9696678E1,-1.109136E-1,7.37747E-2,-2.1284178E-2,-0E0,9.3241006E-2,8.5179573E-1,3.1515846E0,4.3507627E-1,3.8111318E-2,-2.6228574E-1,1.0302949E-2,1E0,4.1359303E1,-1.6145902E-2,-1.1674971E-2,1.198372E-2,-1.3851164E-1,-2.4112635E-3,5.9690285E-2,-2.1821581E-1,-0E0,2.8575227E-2,-4.307028E-1,2.349759E0,-5.5435516E-2,4.3524467E1,4.515951E-1,-4.5724846E-2,5.9333663E-3,-6.260597E1,-0E0,-0E0,2.7241504E0,-1.2186314E-1,-0E0,-1.3894774E-2,7.808928E-2,1.3464445E-1,5.4635834E-2,-1.8085746E-1,-1.5532154E-2,-0E0,-1.6274345E-1,3.0283812E1,3.101213E-2,2.7635768E-2,9.6211344E-2,1.3139626E-1,-0E0],"split_indices":[13,13,11,6,6,16,3,0,2,0,14,0,11,16,11,0,0,16,11,0,12,11,11,13,16,11,11,0,16,0,0,13,11,12,11,0,0,11,11,0,0,5,0,0,0,0,0,2,6,0,0,11,0,23,5,11,0,0,0,0,0,0,0,0,11,12,0,7,0,0,0,8,0,0,12,0,0,0,0,0,0,13,0,0,0,6,0,0,0,0,0],"split_type":[0,0,0,0,0,0,0,0,0,0,0,0,0,0,0,0,0,0,0,0,0,0,0,0,0,0,0,0,0,0,0,0,0,0,0,0,0,0,0,0,0,0,0,0,0,0,0,0,0,0,0,0,0,0,0,0,0,0,0,0,0,0,0,0,0,0,0,0,0,0,0,0,0,0,0,0,0,0,0,0,0,0,0,0,0,0,0,0,0,0,0],"sum_hessian":[1.8116203E4,3.8870393E3,1.4229163E4,1.561314E3,2.3257253E3,1.2634366E3,1.2965727E4,1.2031666E3,3.5814734E2,6.728904E2,1.6528351E3,3.1201477E2,9.514218E2,9.190795E3,3.7749324E3,1.1161101E2,2.4653632E2,1.1788602E3,4.7397476E2,2.8671628E2,6.6470557E2,3.132301E3,6.0584937E3,3.3483304E2,3.4400994E3,3.2664822E2,8.5221204E2,2.3463115E2,2.3934361E2,4.6975833E2,1.9494724E2,1.1431448E3,1.9891562E3,4.7489243E3,1.3095692E3,2.2371806E2,1.1111496E2,3.2171252E3,2.22974E2,2.1131685E2,1.15331375E2,6.9298035E2,1.592317E2,2.2669437E2,1.2649248E1,9.32572E1,3.7650113E2,7.9343024E2,3.497145E2,6.7165027E2,1.317506E3,4.2107114E3,5.382131E2,7.381208E2,5.7144836E2,2.9376018E3,2.7952356E2,6.7462654E1,1.5551134E2,1.996597E2,4.9332065E2,7.845014E2,8.928881E0,6.8206726E1,2.8150775E2,3.1647922E2,3.5517102E2,3.0784797E3,1.1322317E3,4.2660208E2,3.1151874E2,5.359809E2,3.54675E1,2.827479E2,2.6548538E3,2.3339102E2,4.8116745E1,2.0809253E2,1.0838669E2,2.7027227E3,3.7575705E2,9.598547E2,1.72377E2,2.0338005E1,5.156429E2,2.2324683E3,4.2238565E2,5.7095233E2,3.8890234E2,2.1466516E3,8.581647E1],"tree_param":{"num_deleted":"0","num_feature":"25","num_nodes":"91","size_leaf_vector":"1"}},{"base_weights":[-3.456119E-3,-1.9383131E-1,4.3519575E-2,-2.7077147E-1,-6.314265E-2,-1.5748417E-1,6.944789E-2,-4.0542305E-1,-1.5433212E-1,-1.3332213E-1,8.774755E-3,-2.554351E-1,8.24288E-2,-2.8611245E-2,8.3150886E-2,-1.4315046E-1,-1.0102069E-2,-1.8456393E-1,1.756471E-2,-0E0,-8.220278E-2,5.395594E-2,-8.750459E-3,1.2137343E-2,1.0811576E-1,-2.8921047E-1,-8.957669E-2,-1.1679552E-1,4.0977135E-2,-1.7958257E-2,7.87374E-2,1.2635925E-1,-7.039156E-3,-1.7187257E-1,-3.5619342E-3,2.3593001E-2,-4.5086834E-1,-1.0676086E-1,4.373993E-2,4.159101E-2,-1.3568685E-2,1.3582003E-1,-5.711957E-3,-7.637552E-2,9.796039E-2,-1.6084567E-1,-0E0,-1.5169469E-1,1.681899E-2,5.8928844E-2,-8.0993526E-2,1.00558974E-1,2.1327281E-1,1.1227756E-2,-5.3964965E-2,5.3416774E-2,-4.5832235E-2,-9.486037E-2,1.9484785E-1,2.5099593E-1,-1.3331656E-1,-9.9672E-2,1.2799613E-2,8.031789E-2,-2.2113144E-2,-4.717078E-2,9.083631E-2,2.2584803E-2,-8.335779E-2],"categories":[],"categories_nodes":[],"categories_segments":[],"categories_sizes":[],"default_left":[0,0,0,0,0,0,0,0,0,0,0,0,0,0,0,0,0,0,0,0,0,0,0,0,0,0,0,0,0,0,1,0,0,0,0,0,1,0,0,0,0,0,0,0,0,0,0,0,0,0,0,0,0,0,0,0,0,0,0,0,0,0,0,0,0,0,0,0,0],"id":1,"left_children":[1,3,5,7,9,11,13,15,17,19,-1,-1,21,-1,23,-1,-1,25,-1,27,-1,-1,-1,29,31,33,35,-1,-1,37,39,41,43,-1,-1,-1,45,47,49,-1,-1,51,-1,53,55,-1,-1,-1,-1,-1,-1,57,59,-1,-1,-1,-1,61,63,65,67,-1,-1,-1,-1,-1,-1,-1,-1],"loss_changes":[1.633286E2,3.2394318E1,7.525419E1,2.6231384E1,1.04659395E1,2.6336398E2,2.8559875E1,1.1022263E1,1.0073868E1,1.2620941E1,0E0,0E0,1.3392963E1,0E0,2.002555E1,0E0,0E0,6.995323E0,0E0,2.9211174E1,0E0,0E0,0E0,7.1998463E0,1.9550919E1,2.9534595E1,4.9841423E1,0E0,0E0,1.288714E1,8.264978E0,1.1650299E1,8.764351E0,0E0,0E0,0E0,9.81749E0,6.3361763E1,5.5847446E1,0E0,0E0,1.5659058E1,0E0,9.868344E0,8.969435E0,0E0,0E0,0E0,0E0,0E0,0E0,9.679116E1,3.0728561E1,0E0,0E0,0E0,0E0,5.2966965E1,5.683603E1,3.1114677E1,8.581574E0,0E0,0E0,0E0,0E0,0E0,0E0,0E0,0E0],"parents":[2147483647,0,0,1,1,2,2,3,3,4,4,5,5,6,6,7,7,8,8,9,9,12,12,14,14,17,17,19,19,23,23,24,24,25,25,26,26,29,29,30,30,31,31,32,32,36,36,37,37,38,38,41,41,43,43,44,44,51,51,52,52,57,57,58,58,59,59,60,60],"right_children":[2,4,6,8,10,12,14,16,18,20,-1,-1,22,-1,24,-1,-1,26,-1,28,-1,-1,-1,30,32,34,36,-1,-1,38,40,42,44,-1,-1,-1,46,48,50,-1,-1,52,-1,54,56,-1,-1,-1,-1,-1,-1,58,60,-1,-1,-1,-1,62,64,66,68,-1,-1,-1,-1,-1,-1,-1,-1],"split_conditions":[-5.156558E-1,4.4172072E-1,-8.935008E-1,-6.6629124E-1,2.5868163E-1,1E0,1.5346188E1,1.750215E1,2.0944935E1,-1.1217991E-1,8.774755E-3,-2.554351E-1,-7.772034E-2,-2.8611245E-2,-3.3079302E-1,-1.4315046E-1,-1.0102069E-2,1E0,1.756471E-2,1E0,-8.220278E-2,5.395594E-2,-8.750459E-3,4.4470754E-1,2.412026E1,-3.5898212E-2,3.322808E-3,-1.1679552E-1,4.0977135E-2,1E0,4.5313503E1,9.896771E-1,3.013649E-1,-1.7187257E-1,-3.5619342E-3,2.3593001E-2,4.3524467E1,-2.1173967E-1,1.656299E-2,4.159101E-2,-1.3568685E-2,-7.973279E-2,-5.711957E-3,4.3952706E-1,1E0,-1.6084567E-1,-0E0,-1.5169469E-1,1.681899E-2,5.8928844E-2,-8.0993526E-2,1E0,1E0,1.1227756E-2,-5.3964965E-2,5.3416774E-2,-4.5832235E-2,-3.927161E-1,5.030013E-2,-3.0409357E-1,-2.9381723E-3,-9.9672E-2,1.2799613E-2,8.031789E-2,-2.2113144E-2,-4.717078E-2,9.083631E-2,2.2584803E-2,-8.335779E-2],"split_indices":[13,0,11,13,3,16,5,6,6,11,0,0,13,0,13,0,0,16,0,16,0,0,0,0,6,11,11,0,0,16,10,11,11,0,0,0,7,11,11,0,0,3,0,0,16,0,0,0,0,0,0,16,16,0,0,0,0,11,11,11,11,0,0,0,0,0,0,0,0],"split_type":[0,0,0,0,0,0,0,0,0,0,0,0,0,0,0,0,0,0,0,0,0,0,0,0,0,0,0,0,0,0,0,0,0,0,0,0,0,0,0,0,0,0,0,0,0,0,0,0,0,0,0,0,0,0,0,0,0,0,0,0,0,0,0,0,0,0,0,0,0],"sum_hessian":[1.800281E4,3.5696523E3,1.4433157E4,2.1659692E3,1.4036831E3,1.5770563E3,1.2856102E4,9.060684E2,1.2599009E3,8.3580237E2,5.6788074E2,4.033023E2,1.1737539E3,9.3926245E2,1.1916839E4,7.755856E2,1.304829E2,1.145696E3,1.1420481E2,4.6499063E2,3.708117E2,6.8489185E2,4.888621E2,3.2177227E3,8.699116E3,4.466055E2,6.990906E2,1.1286425E2,3.521264E2,2.1461357E3,1.071587E3,7.5751396E3,1.1239764E3,1.9014899E2,2.564565E2,4.9210638E2,2.0698419E2,9.2611584E2,1.2200199E3,8.0016315E2,2.7142386E2,7.173003E3,4.0213687E2,7.3935736E2,3.8461905E2,1.9111134E2,1.5872859E1,2.6452893E2,6.615869E2,8.6215283E2,3.5786703E2,5.095891E3,2.0771116E3,3.065127E2,4.328447E2,3.406466E2,4.397244E1,1.6261027E3,3.4697886E3,1.9107858E3,1.663258E2,6.2008856E2,1.0060141E3,2.8753525E3,5.9443616E2,1.19048164E2,1.7917375E3,4.5616966E1,1.2070884E2],"tree_param":{"num_deleted":"0","num_feature":"25","num_nodes":"69","size_leaf_vector":"1"}},{"base_weights":[-1.3448263E-2,-1.6450837E-1,1.2998053E-2,-2.7315912E-1,-8.507241E-2,-1.0537059E-1,3.463616E-2,-1.0423536E-1,-1.5140558E-2,-6.442056E-2,-2.5394842E-2,-1.9406538E-1,6.862379E-2,5.3574506E-2,-2.613939E-2,-1.21506035E-1,4.618535E-2,4.9165115E-2,-5.1615974E-3,5.9413455E-2,-5.125363E-2,-1.8202431E-1,-0E0,-2.9988134E-1,3.0444283E-2,6.993282E-2,-1.7862311E-1,3.1644125E-2,1.1219222E-1,4.6200235E-3,-2.4539556E-1,-3.1935506E-2,8.15991E-3,-1.1186233E-1,-0E0,-1.0076364E-1,-0E0,-6.858723E-2,8.6908504E-2,1.4316085E-1,-1.6552466E-1,-3.104561E-1,-0E0,-2.2778487E-1,5.793209E-2,1.6130306E-1,-2.4810596E-1,-0E0,6.581204E-2,-0E0,-8.862202E-2,-1.1844478E-1,-0E0,-3.2604918E-1,-7.244587E-2,4.4699665E-2,-3.5412018E-3,2.1898745E-1,6.338782E-2,-1.3238078E-1,-3.396462E-2,-5.1316496E-2,1.4830491E-2,-0E0,-1.1590956E-1,2.4312066E-2,-6.8917066E-2,8.250194E-2,1.600638E-2,4.352686E-2,-3.5511615E-4],"categories":[],"categories_nodes":[],"categories_segments":[],"categories_sizes":[],"default_left":[0,0,0,0,0,0,0,0,0,0,0,0,0,0,0,0,0,0,0,0,0,0,0,0,0,0,0,0,0,0,0,0,0,0,0,0,0,0,0,0,0,1,0,0,0,0,0,0,0,0,0,0,0,0,0,0,0,0,0,0,0,0,0,0,0,0,0,0,0,0,0],"id":2,"left_children":[1,3,5,7,9,11,13,-1,-1,-1,15,-1,17,19,21,23,25,-1,-1,27,-1,29,31,33,-1,-1,35,37,39,-1,41,-1,-1,-1,-1,-1,-1,43,45,47,49,51,-1,53,55,57,59,61,-1,-1,-1,-1,-1,63,65,-1,-1,67,69,-1,-1,-1,-1,-1,-1,-1,-1,-1,-1,-1,-1],"loss_changes":[7.33938E1,1.903267E1,3.8730724E1,9.110062E0,9.599559E0,2.1079231E2,1.5346946E1,0E0,0E0,0E0,9.582029E0,0E0,1.42714615E1,1.2211224E1,1.287448E1,2.6809711E1,2.9772793E1,0E0,0E0,1.296917E1,0E0,7.9661016E0,6.6737065E0,6.495224E0,0E0,0E0,7.1471157E0,3.745925E1,2.9212055E1,0E0,7.053753E0,0E0,0E0,0E0,0E0,0E0,0E0,4.9454338E1,1.1062302E2,2.5835114E1,8.464789E0,7.735653E0,0E0,1.1508198E1,8.821399E0,1.720195E1,1.1675472E1,7.156604E0,0E0,0E0,0E0,0E0,0E0,8.230576E0,1.3487867E1,0E0,0E0,1.1641914E1,8.346418E0,0E0,0E0,0E0,0E0,0E0,0E0,0E0,0E0,0E0,0E0,0E0,0E0],"parents":[2147483647,0,0,1,1,2,2,3,3,4,4,5,5,6,6,10,10,12,12,13,13,14,14,15,15,16,16,19,19,21,21,22,22,23,23,26,26,27,27,28,28,30,30,37,37,38,38,39,39,40,40,41,41,43,43,44,44,45,45,46,46,47,47,53,53,54,54,57,57,58,58],"right_children":[2,4,6,8,10,12,14,-1,-1,-1,16,-1,18,20,22,24,26,-1,-1,28,-1,30,32,34,-1,-1,36,38,40,-1,42,-1,-1,-1,-1,-1,-1,44,46,48,50,52,-1,54,56,58,60,62,-1,-1,-1,-1,-1,64,66,-1,-1,68,70,-1,-1,-1,-1,-1,-1,-1,-1,-1,-1,-1,-1],"split_conditions":[-5.681713E-1,4.0106034E0,-7.864578E-1,4.490158E-1,-7.5114286E-1,1E0,1E0,-1.0423536E-1,-1.5140558E-2,-6.442056E-2,1E0,-1.9406538E-1,2.2477562E0,1.266477E0,-4.2906022E-1,2.2200601E-1,-1.363146E-1,4.9165115E-2,-5.1615974E-3,-7.973279E-2,-5.125363E-2,-5.3681284E-1,2.328888E1,2.832792E0,3.0444283E-2,6.993282E-2,3.51552E1,1E0,1E0,4.6200235E-3,4.0520214E1,-3.1935506E-2,8.15991E-3,-1.1186233E-1,-0E0,-1.0076364E-1,-0E0,-2.004332E-1,1.4116354E-1,2.4577534E-1,1.1250153E-1,6.8807964E0,-0E0,2.2542806E0,3.2224636E1,1.3380545E1,2.8405334E1,-3.613196E-1,6.581204E-2,-0E0,-8.862202E-2,-1.1844478E-1,-0E0,5.1150894E0,4.3507627E-1,4.4699665E-2,-3.5412018E-3,-1.298221E-1,-3.8658777E-1,-1.3238078E-1,-3.396462E-2,-5.1316496E-2,1.4830491E-2,-0E0,-1.1590956E-1,2.4312066E-2,-6.8917066E-2,8.250194E-2,1.600638E-2,4.352686E-2,-3.5511615E-4],"split_indices":[13,6,11,0,13,16,22,0,0,0,16,0,12,11,13,11,11,0,0,3,0,13,5,9,0,0,7,16,16,0,7,0,0,0,0,0,0,11,11,11,11,8,0,12,7,6,7,11,0,0,0,0,0,4,0,0,0,11,11,0,0,0,0,0,0,0,0,0,0,0,0],"split_type":[0,0,0,0,0,0,0,0,0,0,0,0,0,0,0,0,0,0,0,0,0,0,0,0,0,0,0,0,0,0,0,0,0,0,0,0,0,0,0,0,0,0,0,0,0,0,0,0,0,0,0,0,0,0,0,0,0,0,0,0,0,0,0,0,0,0,0,0,0,0,0],"sum_hessian":[1.7935016E4,2.6835505E3,1.5251466E4,1.0289296E3,1.654621E3,2.258522E3,1.2992943E4,7.738241E2,2.5510553E2,4.606657E2,1.1939553E3,5.5759406E2,1.7009279E3,1.0028311E4,2.9646328E3,5.49664E2,6.442913E2,8.766888E2,8.24239E2,9.842965E3,1.8534561E2,3.9772617E2,2.5669065E3,3.1452332E2,2.3514066E2,3.871629E2,2.5712842E2,6.621394E3,3.221571E3,7.091891E1,3.2680728E2,4.6577725E2,2.1011294E3,2.6549258E2,4.9030716E1,1.16111664E2,1.4101675E2,2.2885508E3,4.3328438E3,2.9518286E3,2.6974246E2,2.5745514E2,6.9352135E1,1.0273499E3,1.2612008E3,3.590897E3,7.4194666E2,9.706973E2,1.9811313E3,1.0069619E2,1.6904626E2,2.1750912E2,3.9946007E1,5.5664307E2,4.7070682E2,6.099513E2,6.512495E2,2.1582131E3,1.4326838E3,2.603172E2,4.8162946E2,1.4764304E2,8.230543E2,6.1738663E1,4.9490442E2,2.1226363E2,2.584432E2,1.669066E3,4.8914703E2,7.084339E2,7.242499E2],"tree_param":{"num_deleted":"0","num_feature":"25","num_nodes":"71","size_leaf_vector":"1"}},{"base_weights":[-1.3603352E-2,-1.0520215E-1,1.5043143E-2,-2.2538966E-1,-7.305967E-2,-1.9125986E-1,2.5340896E-2,-8.579509E-2,-0E0,-7.777627E-2,-1.6168488E-2,-1.4259627E-1,-1.6202845E-2,-5.136166E-3,5.717877E-2,-2.2384766E-1,7.383721E-2,1.0195488E-1,-2.8719163E-1,-2.9232046E-1,-1.3329524E-2,-0E0,1.1867777E-1,1.4145903E-1,1.0784891E-2,-3.857139E-2,-1.4401358E-1,-1.1958024E-1,-4.4141058E-2,1.716467E-2,-4.9111098E-2,1.6034785E-1,-0E0,1.6649666E-1,-9.781686E-3,-4.1075714E-2,9.30978E-2,5.640279E-2,-1.5053346E-2,-2.730962E-2,3.5456706E-2,5.8624275E-2,-0E0,1.5418273E-2,-3.5896774E-2,4.4093907E-2,-3.086107E-2],"categories":[],"categories_nodes":[],"categories_segments":[],"categories_sizes":[],"default_left":[0,0,0,0,0,0,0,0,0,0,0,0,0,0,0,0,0,0,0,0,0,0,0,0,0,0,0,0,0,0,0,0,0,1,0,0,0,0,0,0,0,0,0,0,0,0,0],"id":3,"left_children":[1,3,5,7,9,11,13,-1,-1,-1,-1,-1,-1,15,17,19,21,23,25,27,29,-1,31,33,35,-1,-1,-1,-1,-1,-1,37,39,41,-1,43,45,-1,-1,-1,-1,-1,-1,-1,-1,-1,-1],"loss_changes":[4.791184E1,1.3137772E1,2.7614767E1,7.1566887E0,1.0159567E1,1.6160784E1,1.3166962E1,0E0,0E0,0E0,0E0,0E0,0E0,1.1570528E2,1.0063106E2,2.2687386E1,1.5353695E1,1.9559036E1,1.2157787E1,9.35775E0,6.4135056E0,0E0,1.5714066E1,1.8815384E1,8.788864E0,0E0,0E0,0E0,0E0,0E0,0E0,9.701542E0,7.8411846E0,1.0669731E1,0E0,8.194723E0,8.247593E0,0E0,0E0,0E0,0E0,0E0,0E0,0E0,0E0,0E0,0E0],"parents":[2147483647,0,0,1,1,2,2,3,3,4,4,5,5,6,6,13,13,14,14,15,15,16,16,17,17,18,18,19,19,20,20,22,22,23,23,24,24,31,31,32,32,33,33,35,35,36,36],"right_children":[2,4,6,8,10,12,14,-1,-1,-1,-1,-1,-1,16,18,20,22,24,26,28,30,-1,32,34,36,-1,-1,-1,-1,-1,-1,38,40,42,-1,44,46,-1,-1,-1,-1,-1,-1,-1,-1,-1,-1],"split_conditions":[-4.7256008E-1,-7.5114286E-1,-1.1460319E0,4.5290118E-1,4.1692886E-1,1E0,1E0,-8.579509E-2,-0E0,-7.777627E-2,-1.6168488E-2,-1.4259627E-1,-1.6202845E-2,-2.4944614E-1,2.6836374E-1,2.5744228E0,2.6108563E-1,-2.3733534E-1,5.266588E-1,-4.832789E-1,4.4551408E-1,-0E0,9.138205E-1,1.9276586E-1,1E0,-3.857139E-2,-1.4401358E-1,-1.1958024E-1,-4.4141058E-2,1.716467E-2,-4.9111098E-2,3.230186E-1,4.518567E-1,4.4389572E1,-9.781686E-3,-4.7224593E-1,4.5560315E-1,5.640279E-2,-1.5053346E-2,-2.730962E-2,3.5456706E-2,5.8624275E-2,-0E0,1.5418273E-2,-3.5896774E-2,4.4093907E-2,-3.086107E-2],"split_indices":[13,13,11,0,0,16,16,0,0,0,0,0,0,11,11,12,11,11,11,11,0,0,11,13,23,0,0,0,0,0,0,13,0,7,0,2,0,0,0,0,0,0,0,0,0,0,0],"split_type":[0,0,0,0,0,0,0,0,0,0,0,0,0,0,0,0,0,0,0,0,0,0,0,0,0,0,0,0,0,0,0,0,0,0,0,0,0,0,0,0,0,0,0,0,0,0,0],"sum_hessian":[1.7852488E4,4.2971177E3,1.3555371E4,7.7793506E2,3.5191826E3,5.568989E2,1.2998472E4,6.229314E2,1.5500368E2,2.9212027E2,3.2270623E3,1.3144081E2,4.254581E2,6.513698E3,6.4847734E3,1.733644E3,4.780054E3,5.7957373E3,6.8903625E2,1.2590425E3,4.746016E2,1.872155E3,2.9078992E3,3.9515686E3,1.8441688E3,4.1949307E2,2.6954315E2,7.2283167E2,5.362108E2,2.9874127E2,1.7586032E2,2.1800803E3,7.278188E2,3.499124E3,4.5244467E2,1.077913E3,7.6625586E2,2.0610242E3,1.1905619E2,4.5182062E2,2.7599817E2,3.1474663E3,3.5165768E2,4.299081E2,6.480048E2,6.68832E2,9.7423904E1],"tree_param":{"num_deleted":"0","num_feature":"25","num_nodes":"47","size_leaf_vector":"1"}},{"base_weights":[1.8973573E-3,-1.8271466E-1,9.567189E-3,-1.2142047E-1,-2.462618E-2,-3.1105496E-2,4.0238865E-2,-1.477978E-1,-0E0,6.704561E-2,-2.6306144E-3,-0E0,-6.881969E-2,-6.187429E-2,3.088515E-2,-4.468568E-3,8.524974E-2,1.000017E-1,-4.1176397E-2,-1.4563744E-1,1.585318E-2,-1.124649E-2,5.6376368E-2,-1.8113673E-1,6.0774818E-2,9.606763E-2,-3.1315047E-2,-4.336463E-2,1.3854751E-1,1.7706642E-2,-6.626035E-2,-6.0185217E-3,-6.892843E-2,2.7828405E-2,-9.03547E-2,-1.4104308E-2,7.766593E-2,4.8124585E-3,-8.931734E-2,6.077408E-2,-0E0,4.908546E-3,1.276881E-1,5.3486425E-2,-2.1021178E-2,-3.441269E-2,5.4051407E-4,-9.194887E-2,-0E0,3.27448E-2,-5.4403865E-3,-0E0,1.4492357E-1,1.6722997E-1,-0E0,9.635337E-3,6.278249E-2],"categories":[],"categories_nodes":[],"categories_segments":[],"categories_sizes":[],"default_left":[0,0,0,0,0,0,0,0,0,0,0,0,0,1,0,0,0,0,0,0,0,0,1,0,0,0,0,0,0,0,0,0,0,0,0,0,0,0,0,0,0,0,0,0,0,0,0,0,0,0,0,0,0,0,0,0,0],"id":4,"left_children":[1,3,5,-1,-1,7,9,11,13,15,17,-1,-1,19,21,23,25,27,29,31,33,-1,35,37,39,41,-1,-1,43,-1,45,-1,-1,-1,47,-1,49,-1,-1,-1,-1,-1,51,-1,-1,-1,-1,-1,-1,-1,-1,-1,53,55,-1,-1,-1],"loss_changes":[2.375235E1,8.1098175E0,2.1660015E1,0E0,0E0,2.593041E1,1.2084948E1,1.4083469E1,1.1413586E1,8.9502945E0,1.4533213E1,0E0,0E0,1.442841E1,6.886657E0,1.5773984E1,1.0647644E1,9.915698E0,7.1902013E0,6.9075375E0,8.271763E0,0E0,6.795519E0,1.0213995E1,8.674533E0,1.1051182E1,0E0,0E0,7.058609E0,0E0,7.7490473E0,0E0,0E0,0E0,8.341555E0,0E0,6.9862156E0,0E0,0E0,0E0,0E0,0E0,8.308472E0,0E0,0E0,0E0,0E0,0E0,0E0,0E0,0E0,0E0,1.0923134E1,8.778778E0,0E0,0E0,0E0],"parents":[2147483647,0,0,1,1,2,2,5,5,6,6,7,7,8,8,9,9,10,10,13,13,14,14,15,15,16,16,17,17,18,18,19,19,20,20,22,22,23,23,24,24,25,25,28,28,30,30,34,34,36,36,42,42,52,52,53,53],"right_children":[2,4,6,-1,-1,8,10,12,14,16,18,-1,-1,20,22,24,26,28,30,32,34,-1,36,38,40,42,-1,-1,44,-1,46,-1,-1,-1,48,-1,50,-1,-1,-1,-1,-1,52,-1,-1,-1,-1,-1,-1,-1,-1,-1,54,56,-1,-1,-1],"split_conditions":[-1.1460319E0,1E0,-3.2074058E-1,-1.2142047E-1,-2.462618E-2,-4.473515E-1,1.5539832E1,5.1508603E0,4.3024126E-1,-6.8595165E-1,4.2988443E-1,-0E0,-6.881969E-2,3.7537388E1,-6.272955E-1,1E0,3.067659E0,2.0587286E1,2.098949E0,-1.7314365E0,5.70723E0,-1.124649E-2,-3.9138954E1,1.5483431E0,2.1771767E0,-2.033545E-1,-3.1315047E-2,-4.336463E-2,6.762914E-1,1.7706642E-2,2.6836374E-1,-6.0185217E-3,-6.892843E-2,2.7828405E-2,-5.0424063E-1,-1.4104308E-2,1E0,4.8124585E-3,-8.931734E-2,6.077408E-2,-0E0,4.908546E-3,-1.4173623E0,5.3486425E-2,-2.1021178E-2,-3.441269E-2,5.4051407E-4,-9.194887E-2,-0E0,3.27448E-2,-5.4403865E-3,-0E0,7.341773E-1,-2.080669E0,-0E0,9.635337E-3,6.278249E-2],"split_indices":[11,16,13,0,0,6,6,4,0,11,0,0,0,7,13,16,12,5,12,3,4,0,9,6,12,13,0,0,11,0,11,0,0,0,11,0,22,0,0,0,0,0,2,0,0,0,0,0,0,0,0,0,11,3,0,0,0],"split_type":[0,0,0,0,0,0,0,0,0,0,0,0,0,0,0,0,0,0,0,0,0,0,0,0,0,0,0,0,0,0,0,0,0,0,0,0,0,0,0,0,0,0,0,0,0,0,0,0,0,0,0,0,0,0,0,0,0],"sum_hessian":[1.7800941E4,6.130541E2,1.7187887E4,1.3243388E2,4.8062018E2,7.257729E3,9.930158E3,1.4578055E3,5.7999233E3,6.2256216E3,3.7045364E3,5.088735E2,9.48932E2,1.9576218E3,3.8423015E3,1.1669949E3,5.058627E3,9.2204193E2,2.7824946E3,9.778699E2,9.7975195E2,9.592067E2,2.883095E3,3.2800305E2,8.389918E2,4.849586E3,2.0904097E2,7.6237785E1,8.4580414E2,4.818822E2,2.3006123E3,4.2420877E2,5.5366113E2,6.426624E2,3.3708957E2,4.1600357E2,2.4670913E3,9.451014E1,2.334929E2,2.7353314E2,5.654587E2,1.4720724E3,3.3775134E3,7.8602124E2,5.9782906E1,1.4856405E3,8.1497186E2,8.433064E1,2.5275891E2,2.0186378E3,4.4845352E2,3.7187634E2,3.0056372E3,2.6346575E3,3.709798E2,5.5571606E2,2.0789412E3],"tree_param":{"num_deleted":"0","num_feature":"25","num_nodes":"57","size_leaf_vector":"1"}},{"base_weights":[-5.8562914E-4,-4.087626E-2,5.187453E-3,1.934397E-2,-1.4565888E-2,2.9313173E-2,-6.8836816E-2,3.753183E-2,-8.336681E-2,2.7316913E-2,-4.4100378E-2,1.761734E-2,9.786036E-2,-6.840206E-2,-0E0,-2.2142537E-2,4.2104077E-2,-7.562279E-2,6.327416E-2,1.24334E-1,-4.046439E-2,-2.4435146E-1,1.993408E-2,8.480011E-2,-2.6754454E-1,-4.3053254E-2,1.6750184E-1,-1.6619375E-1,-1.0618882E-1,3.1024242E-2,-3.6367863E-2,9.9149816E-2,-1.3555411E-2,-9.897079E-2,-0E0,-4.5917764E-2,1.918681E-2,6.3833944E-2,-0E0,-0E0,-6.494244E-2,-5.00828E-2,2.1341931E-2,3.9227363E-2,-0E0],"categories":[],"categories_nodes":[],"categories_segments":[],"categories_sizes":[],"default_left":[0,0,0,0,0,0,0,0,0,0,0,0,0,0,0,0,0,0,0,0,0,0,0,0,0,0,0,0,0,0,0,0,0,0,0,0,0,0,0,0,0,0,0,0,0],"id":5,"left_children":[1,-1,3,5,-1,7,9,11,13,15,-1,17,19,-1,-1,-1,-1,21,23,25,-1,27,29,31,33,35,37,-1,39,-1,41,43,-1,-1,-1,-1,-1,-1,-1,-1,-1,-1,-1,-1,-1],"loss_changes":[1.4364261E1,0E0,1.2100133E1,1.16076565E1,0E0,1.1094663E1,9.951838E0,1.2697306E1,9.135427E0,6.524842E0,0E0,3.785925E1,1.7136992E1,0E0,0E0,0E0,0E0,4.8623383E1,4.2537365E1,1.970652E1,0E0,3.2689903E1,8.846234E0,1.1258606E1,6.681402E0,6.645365E0,1.3281185E1,0E0,9.290211E0,0E0,1.4483066E1,1.2591728E1,0E0,0E0,0E0,0E0,0E0,0E0,0E0,0E0,0E0,0E0,0E0,0E0,0E0],"parents":[2147483647,0,0,2,2,3,3,5,5,6,6,7,7,8,8,9,9,11,11,12,12,17,17,18,18,19,19,21,21,22,22,23,23,24,24,25,25,26,26,28,28,30,30,31,31],"right_children":[2,-1,4,6,-1,8,10,12,14,16,-1,18,20,-1,-1,-1,-1,22,24,26,-1,28,30,32,34,36,38,-1,40,-1,42,44,-1,-1,-1,-1,-1,-1,-1,-1,-1,-1,-1,-1,-1],"split_conditions":[-7.5114286E-1,-4.087626E-2,1E0,1E0,-1.4565888E-2,9.138205E-1,-5.324739E-1,5.3665644E-1,4.409842E-1,-1.13637075E-1,-4.4100378E-2,1E0,1E0,-6.840206E-2,-0E0,-2.2142537E-2,4.2104077E-2,-4.1758865E-1,3.9801183E-1,-6.028074E-2,-4.046439E-2,1.8509586E0,3.2026325E1,2.8092356E0,4.2371864E1,1.4961595E1,2.4301107E1,-1.6619375E-1,3.461443E1,3.1024242E-2,-2.990424E-1,-6.028074E-2,-1.3555411E-2,-9.897079E-2,-0E0,-4.5917764E-2,1.918681E-2,6.3833944E-2,-0E0,-0E0,-6.494244E-2,-5.00828E-2,2.1341931E-2,3.9227363E-2,-0E0],"split_indices":[13,0,22,21,0,11,2,3,0,13,0,16,16,0,0,0,0,11,11,11,0,12,7,12,7,6,6,0,7,0,13,11,0,0,0,0,0,0,0,0,0,0,0,0,0],"split_type":[0,0,0,0,0,0,0,0,0,0,0,0,0,0,0,0,0,0,0,0,0,0,0,0,0,0,0,0,0,0,0,0,0,0,0,0,0,0,0,0,0,0,0,0,0],"sum_hessian":[1.7748297E4,7.8610144E2,1.6962195E4,1.3450067E4,3.5121272E3,1.221113E4,1.2389375E3,1.1491435E4,7.196957E2,4.7963824E2,7.5929926E2,8.807729E3,2.6837065E3,2.5939258E2,4.6030313E2,2.126629E2,2.669753E2,2.8163474E3,5.9913804E3,2.4600042E3,2.2370244E2,1.0238324E3,1.7925151E3,5.6889717E3,3.0240863E2,4.5992178E2,2.0000823E3,2.675266E2,7.563057E2,8.06037E2,9.8647815E2,5.190059E3,4.989128E2,2.7748196E2,2.492667E1,2.670904E2,1.9283138E2,1.700202E3,2.9988022E2,3.6928394E2,3.8702182E2,4.830489E2,5.0342926E2,4.147519E3,1.0425402E3],"tree_param":{"num_deleted":"0","num_feature":"25","num_nodes":"45","size_leaf_vector":"1"}},{"base_weights":[-5.107281E-3,-5.547733E-2,8.809057E-3,-1.08834945E-1,-0E0,-4.099867E-2,2.5283514E-2,-0E0,-1.5012653E-1,-2.4642743E-1,2.7312035E-2,4.8740048E-2,-7.7912067E-3,-6.314353E-2,-1.3881917E-3,-1.2674907E-1,-4.3073356E-2,-1.1412983E-2,3.7300233E-2,-6.486386E-4,2.785897E-2,2.1576662E-2,-3.354349E-2,4.162116E-2,-3.953459E-2,2.9222176E-3,-4.9404413E-2,-9.097111E-2,5.273852E-3,-0E0,-4.514962E-2],"categories":[],"categories_nodes":[],"categories_segments":[],"categories_sizes":[],"default_left":[0,0,0,0,0,0,0,0,0,0,0,0,0,0,0,0,0,0,0,0,0,0,0,0,0,0,0,0,0,0,0],"id":6,"left_children":[1,3,5,7,-1,9,11,-1,13,15,17,19,21,-1,-1,-1,23,25,-1,-1,-1,-1,27,-1,-1,-1,-1,29,-1,-1,-1],"loss_changes":[1.283832E1,1.0923202E1,1.1176884E1,9.320627E0,0E0,4.8611145E1,8.544854E0,0E0,8.294861E0,2.1708378E1,9.740458E0,1.3318799E1,8.059824E0,0E0,0E0,0E0,7.2643046E0,6.5422373E0,0E0,0E0,0E0,0E0,1.02465925E1,0E0,0E0,0E0,0E0,8.583732E0,0E0,0E0,0E0],"parents":[2147483647,0,0,1,1,2,2,3,3,5,5,6,6,8,8,9,9,10,10,11,11,12,12,16,16,17,17,22,22,27,27],"right_children":[2,4,6,8,-1,10,12,-1,14,16,18,20,22,-1,-1,-1,24,26,-1,-1,-1,-1,28,-1,-1,-1,-1,30,-1,-1,-1],"split_conditions":[1.6158973E0,7.149448E0,-6.165737E-1,5.162867E0,-0E0,1E0,1.4378269E1,-0E0,4.458983E-1,-8.128108E-2,4.4283512E-1,-2.5298414E-1,4.2935115E-1,-6.314353E-2,-1.3881917E-3,-1.2674907E-1,2.4672656E0,1.4848262E-1,3.7300233E-2,-6.486386E-4,2.785897E-2,2.1576662E-2,-4.8817632E-1,4.162116E-2,-3.953459E-2,2.9222176E-3,-4.9404413E-2,2.0872004E0,5.273852E-3,-0E0,-4.514962E-2],"split_indices":[12,6,11,4,0,16,6,0,0,13,0,13,0,0,0,0,6,13,0,0,0,0,3,0,0,0,0,12,0,0,0],"split_type":[0,0,0,0,0,0,0,0,0,0,0,0,0,0,0,0,0,0,0,0,0,0,0,0,0,0,0,0,0,0,0],"sum_hessian":[1.7601908E4,3.921646E3,1.3680262E4,1.9018622E3,2.0197837E3,3.2393767E3,1.0440885E4,5.1395013E2,1.387912E3,8.08033E2,2.4313435E3,6.2595137E3,4.1813716E3,9.7730865E2,4.1060342E2,4.0585855E2,4.0217444E2,1.6607626E3,7.7058105E2,2.637189E3,3.6223245E3,9.46508E2,3.2348635E3,8.122983E1,3.209446E2,1.4397056E3,2.2105693E2,1.5749752E3,1.6598883E3,5.375381E2,1.0374371E3],"tree_param":{"num_deleted":"0","num_feature":"25","num_nodes":"31","size_leaf_vector":"1"}},{"base_weights":[-1.0833754E-2,-2.0182039E-1,-5.886045E-3,-0E0,-9.72664E-2,-8.654667E-2,4.525697E-4,-7.965033E-3,-2.241748E-1,-1.7541088E-2,2.7610004E-2,-1.3358028E-2,-1.2555173E-1,-4.292575E-2,1.09396875E-2,1.4514551E-2,-2.6070459E-2,-8.482062E-2,-4.6311193E-3,2.740349E-2,-4.2118635E-3,-1.2664045E-1,-0E0,6.50709E-2,-1.4329045E-1,-1.929296E-2,2.8637186E-2,-2.9692715E-1,-1.756831E-2,-1.17456675E-1,-0E0],"categories":[],"categories_nodes":[],"categories_segments":[],"categories_sizes":[],"default_left":[0,0,0,0,0,0,0,0,0,0,1,0,0,0,0,0,0,0,0,0,0,0,0,0,0,0,0,0,0,0,0],"id":7,"left_children":[1,3,5,-1,-1,7,9,-1,11,13,15,-1,-1,17,19,-1,-1,21,23,-1,-1,-1,-1,25,27,-1,-1,29,-1,-1,-1],"loss_changes":[1.47036705E1,8.97084E0,9.673672E0,0E0,0E0,8.966705E0,7.9493856E0,0E0,6.5505924E0,7.165228E0,1.3000415E1,0E0,0E0,7.464526E0,8.64134E0,0E0,0E0,6.2632225E1,2.909178E1,0E0,0E0,0E0,0E0,6.608574E0,9.693972E0,0E0,0E0,6.596466E0,0E0,0E0,0E0],"parents":[2147483647,0,0,1,1,2,2,5,5,6,6,8,8,9,9,10,10,13,13,14,14,17,17,18,18,23,23,24,24,27,27],"right_children":[2,4,6,-1,-1,8,10,-1,12,14,16,-1,-1,18,20,-1,-1,22,24,-1,-1,-1,-1,26,28,-1,-1,30,-1,-1,-1],"split_conditions":[-1.2619374E0,7.7988663E0,1.6136963E1,-0E0,-9.72664E-2,3.69945E-1,1E0,-7.965033E-3,1E0,2.1375E0,4.3271824E1,-1.3358028E-2,-1.2555173E-1,1E0,6.3140993E0,1.4514551E-2,-2.6070459E-2,-3.1041685E-1,-6.76658E-2,2.740349E-2,-4.2118635E-3,-1.2664045E-1,-0E0,-8.592696E-1,2.2163742E0,-1.929296E-2,2.8637186E-2,-3.4632504E-1,-1.756831E-2,-1.17456675E-1,-0E0],"split_indices":[11,10,5,0,0,11,24,0,16,12,7,0,0,16,6,0,0,11,11,0,0,0,0,11,6,0,0,13,0,0,0],"split_type":[0,0,0,0,0,0,0,0,0,0,0,0,0,0,0,0,0,0,0,0,0,0,0,0,0,0,0,0,0,0,0],"sum_hessian":[1.7631424E4,3.441233E2,1.72873E4,1.2928737E2,2.1483592E2,1.3181797E3,1.5969122E4,1.0016579E3,3.1652176E2,9.409086E3,6.5600356E3,2.1196222E2,1.0455954E2,5.134492E3,4.274594E3,5.7305234E3,8.295121E2,2.3044634E3,2.8300286E3,1.0999241E3,3.1746702E3,4.4710184E2,1.8573615E3,1.8571365E3,9.728922E2,2.3465198E2,1.6224845E3,2.69529E2,7.033632E2,2.0289432E2,6.663467E1],"tree_param":{"num_deleted":"0","num_feature":"25","num_nodes":"31","size_leaf_vector":"1"}},{"base_weights":[-1.6831698E-2,-8.936732E-2,-6.65683E-3,-1.2844323E-2,-2.0483597E-1,4.578672E-2,-1.8213697E-2,-0E0,-1.4081042E-1,-0E0,9.669145E-2,-6.0260743E-2,-1.6488954E-3,5.0185625E-3,1.7725691E-1,-2.7666384E-1,8.101737E-3,7.497594E-2,-0E0,-1.4482477E-1,-1.5241104E-1,-4.053457E-3,4.7006432E-2,-7.317204E-2,-0E0],"categories":[],"categories_nodes":[],"categories_segments":[],"categories_sizes":[],"default_left":[0,0,0,0,0,0,0,0,0,0,0,0,0,0,1,0,0,0,0,0,0,0,0,0,0],"id":8,"left_children":[1,3,5,-1,7,9,11,-1,-1,-1,13,15,-1,-1,17,19,21,-1,-1,-1,23,-1,-1,-1,-1],"loss_changes":[1.2098411E1,8.865063E0,9.272638E0,0E0,2.6251574E1,6.8265E0,6.492902E0,0E0,0E0,0E0,6.740451E0,4.5550133E1,0E0,0E0,7.296215E0,6.9151726E0,7.861204E0,0E0,0E0,0E0,8.112656E0,0E0,0E0,0E0,0E0],"parents":[2147483647,0,0,1,1,2,2,4,4,5,5,6,6,10,10,11,11,14,14,15,15,16,16,20,20],"right_children":[2,4,6,-1,8,10,12,-1,-1,-1,14,16,-1,-1,18,20,22,-1,-1,-1,24,-1,-1,-1,-1],"split_conditions":[2.3202005E1,2.8459632E-1,5.268265E0,-1.2844323E-2,1E0,2.3809423E1,-6.165737E-1,-0E0,-1.4081042E-1,-0E0,6.445465E0,1E0,-1.6488954E-3,5.0185625E-3,-1.8163023E1,1.9388684E0,4.5594096E-1,7.497594E-2,-0E0,-1.4482477E-1,1E0,-4.053457E-3,4.7006432E-2,-7.317204E-2,-0E0],"split_indices":[7,11,4,0,16,10,11,0,0,0,6,16,0,0,9,12,0,0,0,0,18,0,0,0,0],"split_type":[0,0,0,0,0,0,0,0,0,0,0,0,0,0,0,0,0,0,0,0,0,0,0,0,0],"sum_hessian":[1.7600154E4,2.0011451E3,1.559901E4,1.5130217E3,4.8812332E2,2.6421484E3,1.295686E4,2.923397E2,1.9578365E2,1.3606956E3,1.281453E3,2.8479495E3,1.0108911E4,7.291253E2,5.523277E2,6.7774066E2,2.1702087E3,4.1877023E2,1.3355748E2,1.8840167E2,4.8933902E2,1.8723834E3,2.978254E2,3.368058E2,1.5253322E2],"tree_param":{"num_deleted":"0","num_feature":"25","num_nodes":"25","size_leaf_vector":"1"}},{"base_weights":[-4.369789E-3,1.8759549E-3,-4.7007162E-2,-4.6149205E-2,-7.4369553E-3],"categories":[],"categories_nodes":[],"categories_segments":[],"categories_sizes":[],"default_left":[0,0,0,0,0],"id":9,"left_children":[1,-1,3,-1,-1],"loss_changes":[8.147713E0,0E0,6.6287866E0,0E0,0E0],"parents":[2147483647,0,0,2,2],"right_children":[2,-1,4,-1,-1],"split_conditions":[1E0,1.8759549E-3,-6.4726555E-1,-4.6149205E-2,-7.4369553E-3],"split_indices":[22,0,11,0,0],"split_type":[0,0,0,0,0],"sum_hessian":[1.7626248E4,1.4062314E4,3.563935E3,5.5942413E2,3.004511E3],"tree_param":{"num_deleted":"0","num_feature":"25","num_nodes":"5","size_leaf_vector":"1"}},{"base_weights":[6.652114E-3,1.9362723E-2,-3.5872333E-2,2.9622113E-2,-2.2356912E-2,-2.6352977E-2,1.7069958E-3,-1.2567591E-2,4.5351736E-2,-1.700487E-2,3.4263004E-2,-2.2548998E-2,5.3950712E-2,-4.048661E-2,6.754832E-2,1.9042889E-2,-2.2056462E-2,-4.849612E-2,2.978255E-2],"categories":[],"categories_nodes":[],"categories_segments":[],"categories_sizes":[],"default_left":[0,0,0,0,0,0,0,0,0,0,1,0,0,0,0,0,0,0,0],"id":10,"left_children":[1,3,5,7,-1,-1,-1,9,11,-1,13,-1,15,-1,17,-1,-1,-1,-1],"loss_changes":[9.394313E0,1.2396815E1,8.331266E0,8.614579E0,0E0,0E0,0E0,6.5511155E0,9.309238E0,0E0,7.7097335E0,0E0,6.631199E0,0E0,7.650727E0,0E0,0E0,0E0,0E0],"parents":[2147483647,0,0,1,1,2,2,3,3,7,7,8,8,10,10,12,12,14,14],"right_children":[2,4,6,8,-1,-1,-1,10,12,-1,14,-1,16,-1,18,-1,-1,-1,-1],"split_conditions":[1E0,1E0,1.0350855E1,1.6765555E0,-2.2356912E-2,-2.6352977E-2,1.7069958E-3,1E0,-1.0637726E0,-1.700487E-2,3.0178788E0,-2.2548998E-2,1.0842445E0,-4.048661E-2,4.125049E-1,1.9042889E-2,-2.2056462E-2,-4.849612E-2,2.978255E-2],"split_indices":[20,21,6,12,0,0,0,24,11,0,10,0,11,0,0,0,0,0,0],"split_type":[0,0,0,0,0,0,0,0,0,0,0,0,0,0,0,0,0,0,0],"sum_hessian":[1.7545031E4,1.3699313E4,3.845718E3,1.2419963E4,1.2793501E3,1.8755662E3,1.9701517E3,3.2142795E3,9.205684E3,1.8163942E3,1.3978853E3,5.319745E2,8.673709E3,1.6488963E2,1.2329956E3,8.367784E3,3.0592468E2,6.614987E1,1.1668458E3],"tree_param":{"num_deleted":"0","num_feature":"25","num_nodes":"19","size_leaf_vector":"1"}},{"base_weights":[-6.4988346E-3,-1.7205086E-2,2.9911313E-2,-7.852459E-2,1.572267E-2,-7.434984E-2,7.30941E-2,-1.5372562E-1,-4.78453E-4,5.4363605E-2,-1.6861095E-1,-7.187706E-2,-5.1175733E-3,9.6677616E-2,-6.075531E-2,-3.501447E-1,-8.460327E-2,9.921692E-2,2.0083271E-2,-2.7771072E-2,-1.2052555E-1,1.206264E-1,-2.6804589E-2,-1.4697804E-1,-2.4255605E-2,-0E0,-5.2172475E-2,3.4864582E-2,-3.7389643E-2,1.3301725E-2,-1.4631219E-2,4.4722367E-2,-6.1681314E-4,-7.983806E-2,4.2321898E-2,3.32108E-2,-5.1795315E-2],"categories":[],"categories_nodes":[],"categories_segments":[],"categories_sizes":[],"default_left":[0,0,0,0,0,0,0,0,0,0,0,0,0,0,0,0,0,0,1,0,0,0,0,0,0,0,0,0,0,0,0,0,0,0,0,0,0],"id":11,"left_children":[1,3,5,7,9,11,13,15,-1,17,19,-1,-1,21,-1,23,25,27,29,-1,-1,31,-1,-1,-1,33,-1,-1,-1,-1,-1,-1,-1,35,-1,-1,-1],"loss_changes":[6.756022E0,2.853147E1,1.7440825E1,2.7100061E1,6.3010628E1,7.093251E0,1.7472458E1,2.7396893E1,0E0,1.0252602E1,1.9859653E1,0E0,0E0,1.2267975E1,0E0,1.1027184E1,1.3690529E1,7.7484837E0,6.4367504E0,0E0,0E0,7.237526E0,0E0,0E0,0E0,1.09111185E1,0E0,0E0,0E0,0E0,0E0,0E0,0E0,1.0693348E1,0E0,0E0,0E0],"parents":[2147483647,0,0,1,1,2,2,3,3,4,4,5,5,6,6,7,7,9,9,10,10,13,13,15,15,16,16,17,17,18,18,21,21,25,25,33,33],"right_children":[2,4,6,8,10,12,14,16,-1,18,20,-1,-1,22,-1,24,26,28,30,-1,-1,32,-1,-1,-1,34,-1,-1,-1,-1,-1,-1,-1,36,-1,-1,-1],"split_conditions":[1.3264678E0,1E0,1.2706508E-1,-9.835649E-2,1.1250153E-1,4.349033E0,1E0,1.7019339E0,-4.78453E-4,1.9277707E0,5.1613444E-1,-7.187706E-2,-5.1175733E-3,2.8533309E0,-6.075531E-2,-3.1598803E-1,4.3525076E-1,1.6501087E1,3.7947376E0,-2.7771072E-2,-1.2052555E-1,1.1194692E0,-2.6804589E-2,-1.4697804E-1,-2.4255605E-2,-4.349245E-2,-5.2172475E-2,3.4864582E-2,-3.7389643E-2,1.3301725E-2,-1.4631219E-2,4.4722367E-2,-6.1681314E-4,2.9829355E1,4.2321898E-2,3.32108E-2,-5.1795315E-2],"split_indices":[3,16,11,11,11,10,16,12,0,12,11,0,0,12,0,11,0,9,8,0,0,11,0,0,0,13,0,0,0,0,0,0,0,7,0,0,0],"split_type":[0,0,0,0,0,0,0,0,0,0,0,0,0,0,0,0,0,0,0,0,0,0,0,0,0,0,0,0,0,0,0,0,0,0,0,0,0],"sum_hessian":[1.7513256E4,1.375402E4,3.759237E3,4.8789653E3,8.875054E3,1.0262872E3,2.73295E3,2.380354E3,2.4986116E3,7.4099463E3,1.4651078E3,1.9722227E2,8.2906494E2,2.5726106E3,1.6033942E2,5.2820264E2,1.8521514E3,3.048116E3,4.3618306E3,1.144528E3,3.205799E2,2.333459E3,2.3915158E2,3.2383887E2,2.0436377E2,8.933918E2,9.5875964E2,2.972208E3,7.590797E1,3.4013347E3,9.604957E2,2.0613835E3,2.7207544E2,5.481608E2,3.4523096E2,1.3138084E2,4.1677997E2],"tree_param":{"num_deleted":"0","num_feature":"25","num_nodes":"37","size_leaf_vector":"1"}},{"base_weights":[-4.4823615E-3],"categories":[],"categories_nodes":[],"categories_segments":[],"categories_sizes":[],"default_left":[0],"id":12,"left_children":[-1],"loss_changes":[0E0],"parents":[2147483647],"right_children":[-1],"split_conditions":[-1.4229927E-3],"split_indices":[0],"split_type":[0],"sum_hessian":[1.7483227E4],"tree_param":{"num_deleted":"0","num_feature":"25","num_nodes":"1","size_leaf_vector":"1"}},{"base_weights":[-8.465304E-3,-9.078928E-2,-8.9298375E-4,-2.030069E-1,5.0264075E-3,-8.228379E-2,-0E0],"categories":[],"categories_nodes":[],"categories_segments":[],"categories_sizes":[],"default_left":[0,0,0,1,0,0,0],"id":13,"left_children":[1,3,-1,5,-1,-1,-1],"loss_changes":[7.262403E0,1.4096742E1,0E0,7.1866875E0,0E0,0E0,0E0],"parents":[2147483647,0,0,1,1,3,3],"right_children":[2,4,-1,6,-1,-1,-1],"split_conditions":[4.1367567E-1,3.806002E1,-8.9298375E-4,5.0310635E1,5.0264075E-3,-8.228379E-2,-0E0],"split_indices":[0,7,0,10,0,0,0],"split_type":[0,0,0,0,0,0,0],"sum_hessian":[1.7465814E4,9.6441235E2,1.6501402E4,4.8927234E2,4.7514E2,3.866088E2,1.0266356E2],"tree_param":{"num_deleted":"0","num_feature":"25","num_nodes":"7","size_leaf_vector":"1"}},{"base_weights":[5.0918628E-3,-3.5891976E-2,3.1322113E-3],"categories":[],"categories_nodes":[],"categories_segments":[],"categories_sizes":[],"default_left":[0,0,0],"id":14,"left_children":[1,-1,-1],"loss_changes":[8.972318E0,0E0,0E0],"parents":[2147483647,0,0],"right_children":[2,-1,-1],"split_conditions":[-7.8895575E-1,-3.5891976E-2,3.1322113E-3],"split_indices":[13,0,0],"split_type":[0,0,0],"sum_hessian":[1.745974E4,5.552455E2,1.6904494E4],"tree_param":{"num_deleted":"0","num_feature":"25","num_nodes":"3","size_leaf_vector":"1"}},{"base_weights":[7.1493635E-4,2.7637135E-2,-7.042203E-3,2.097893E-2,-6.710438E-3,-6.5925755E-3,7.3102005E-2,3.4169234E-2,-1.4681396E-3],"categories":[],"categories_nodes":[],"categories_segments":[],"categories_sizes":[],"default_left":[0,0,0,0,0,0,0,0,0],"id":15,"left_children":[1,-1,3,5,-1,-1,7,-1,-1],"loss_changes":[1.2543425E1,0E0,6.369556E0,1.184248E1,0E0,0E0,7.472931E0,0E0,0E0],"parents":[2147483647,0,0,2,2,3,3,6,6],"right_children":[2,-1,4,6,-1,-1,8,-1,-1],"split_conditions":[5.049803E0,2.7637135E-2,-1.7627127E0,5.634804E0,-6.710438E-3,-6.5925755E-3,-1.0836826E-2,3.4169234E-2,-1.4681396E-3],"split_indices":[4,0,3,4,0,0,13,0,0],"split_type":[0,0,0,0,0,0,0,0,0],"sum_hessian":[1.7508414E4,1.4980841E3,1.6010331E4,5.127346E3,1.0882984E4,2.7651194E3,2.3622268E3,1.7048589E3,6.573678E2],"tree_param":{"num_deleted":"0","num_feature":"25","num_nodes":"9","size_leaf_vector":"1"}},{"base_weights":[-6.1695627E-3],"categories":[],"categories_nodes":[],"categories_segments":[],"categories_sizes":[],"default_left":[0],"id":16,"left_children":[-1],"loss_changes":[0E0],"parents":[2147483647],"right_children":[-1],"split_conditions":[-1.9586198E-3],"split_indices":[0],"split_type":[0],"sum_hessian":[1.7464742E4],"tree_param":{"num_deleted":"0","num_feature":"25","num_nodes":"1","size_leaf_vector":"1"}},{"base_weights":[-7.2636995E-3],"categories":[],"categories_nodes":[],"categories_segments":[],"categories_sizes":[],"default_left":[0],"id":17,"left_children":[-1],"loss_changes":[0E0],"parents":[2147483647],"right_children":[-1],"split_conditions":[-2.30597E-3],"split_indices":[0],"split_type":[0],"sum_hessian":[1.747266E4],"tree_param":{"num_deleted":"0","num_feature":"25","num_nodes":"1","size_leaf_vector":"1"}},{"base_weights":[1.931953E-3,-1.6846975E-2,2.8610998E-3],"categories":[],"categories_nodes":[],"categories_segments":[],"categories_sizes":[],"default_left":[1,0,0],"id":18,"left_children":[1,-1,-1],"loss_changes":[6.442827E0,0E0,0E0],"parents":[2147483647,0,0],"right_children":[2,-1,-1],"split_conditions":[1.83656E1,-1.6846975E-2,2.8610998E-3],"split_indices":[5,0,0],"split_type":[0,0,0],"sum_hessian":[1.7485564E4,1.8041914E3,1.5681372E4],"tree_param":{"num_deleted":"0","num_feature":"25","num_nodes":"3","size_leaf_vector":"1"}},{"base_weights":[-1.9386249E-3,2.620293E-3,-4.455915E-2,-2.769881E-2,4.610373E-3],"categories":[],"categories_nodes":[],"categories_segments":[],"categories_sizes":[],"default_left":[0,0,0,0,0],"id":19,"left_children":[1,-1,3,-1,-1],"loss_changes":[8.001793E0,0E0,9.779622E0,0E0,0E0],"parents":[2147483647,0,0,2,2],"right_children":[2,-1,4,-1,-1],"split_conditions":[1E0,2.620293E-3,1E0,-2.769881E-2,4.610373E-3],"split_indices":[22,0,19,0,0],"split_type":[0,0,0,0,0],"sum_hessian":[1.753976E4,1.4012047E4,3.5277124E3,2.1252131E3,1.4024994E3],"tree_param":{"num_deleted":"0","num_feature":"25","num_nodes":"5","size_leaf_vector":"1"}},{"base_weights":[2.2704087E-3,-5.3939205E-2,5.3494666E-3,-5.5988345E-2,4.1900016E-3,-2.205308E-1,-0E0,-1.061422E-1,-0E0],"categories":[],"categories_nodes":[],"categories_segments":[],"categories_sizes":[],"default_left":[0,0,0,0,0,0,0,0,0],"id":20,"left_children":[1,-1,3,5,-1,7,-1,-1,-1],"loss_changes":[7.831788E0,0E0,8.007572E0,1.521829E1,0E0,1.1320044E1,0E0,0E0,0E0],"parents":[2147483647,0,0,2,2,3,3,5,5],"right_children":[2,-1,4,6,-1,8,-1,-1,-1],"split_conditions":[-8.909053E-1,-5.3939205E-2,-8.7066823E-1,1E0,4.1900016E-3,1.22146495E-2,-0E0,-1.061422E-1,-0E0],"split_indices":[13,0,11,16,0,13,0,0,0],"split_type":[0,0,0,0,0,0,0,0,0],"sum_hessian":[1.7534387E4,2.0412779E2,1.7330258E4,1.7938025E3,1.5536456E4,3.788797E2,1.4149227E3,2.3611832E2,1.4276138E2],"tree_param":{"num_deleted":"0","num_feature":"25","num_nodes":"9","size_leaf_vector":"1"}},{"base_weights":[-2.7854005E-3],"categories":[],"categories_nodes":[],"categories_segments":[],"categories_sizes":[],"default_left":[0],"id":21,"left_children":[-1],"loss_changes":[0E0],"parents":[2147483647],"right_children":[-1],"split_conditions":[-8.8426704E-4],"split_indices":[0],"split_type":[0],"sum_hessian":[1.7474242E4],"tree_param":{"num_deleted":"0","num_feature":"25","num_nodes":"1","size_leaf_vector":"1"}},{"base_weights":[1.2206772E-3],"categories":[],"categories_nodes":[],"categories_segments":[],"categories_sizes":[],"default_left":[0],"id":22,"left_children":[-1],"loss_changes":[0E0],"parents":[2147483647],"right_children":[-1],"split_conditions":[3.8752222E-4],"split_indices":[0],"split_type":[0],"sum_hessian":[1.7488574E4],"tree_param":{"num_deleted":"0","num_feature":"25","num_nodes":"1","size_leaf_vector":"1"}},{"base_weights":[-1.3742619E-3,3.740152E-4,-4.3533724E-2],"categories":[],"categories_nodes":[],"categories_segments":[],"categories_sizes":[],"default_left":[0,0,0],"id":23,"left_children":[1,-1,-1],"loss_changes":[7.356355E0,0E0,0E0],"parents":[2147483647,0,0],"right_children":[2,-1,-1],"split_conditions":[4.2025864E-1,3.740152E-4,-4.3533724E-2],"split_indices":[13,0,0],"split_type":[0,0,0],"sum_hessian":[1.7480094E4,1.7141475E4,3.386185E2],"tree_param":{"num_deleted":"0","num_feature":"25","num_nodes":"3","size_leaf_vector":"1"}},{"base_weights":[-9.714959E-3],"categories":[],"categories_nodes":[],"categories_segments":[],"categories_sizes":[],"default_left":[0],"id":24,"left_children":[-1],"loss_changes":[0E0],"parents":[2147483647],"right_children":[-1],"split_conditions":[-3.084159E-3],"split_indices":[0],"split_type":[0],"sum_hessian":[1.7507674E4],"tree_param":{"num_deleted":"0","num_feature":"25","num_nodes":"1","size_leaf_vector":"1"}},{"base_weights":[-4.976494E-3],"categories":[],"categories_nodes":[],"categories_segments":[],"categories_sizes":[],"default_left":[0],"id":25,"left_children":[-1],"loss_changes":[0E0],"parents":[2147483647],"right_children":[-1],"split_conditions":[-1.5798623E-3],"split_indices":[0],"split_type":[0],"sum_hessian":[1.7455111E4],"tree_param":{"num_deleted":"0","num_feature":"25","num_nodes":"1","size_leaf_vector":"1"}},{"base_weights":[-3.5156784E-4],"categories":[],"categories_nodes":[],"categories_segments":[],"categories_sizes":[],"default_left":[0],"id":26,"left_children":[-1],"loss_changes":[0E0],"parents":[2147483647],"right_children":[-1],"split_conditions":[-1.1161047E-4],"split_indices":[0],"split_type":[0],"sum_hessian":[1.7440914E4],"tree_param":{"num_deleted":"0","num_feature":"25","num_nodes":"1","size_leaf_vector":"1"}},{"base_weights":[-2.4579172E-3,5.5313804E-3,-1.6518844E-2,-2.458167E-2,2.2155171E-2,-6.0978167E-2,2.7668064E-3,5.787735E-2,-6.686676E-4,3.352343E-2,-2.5387032E-2,9.481484E-2,2.8745916E-3,1.752129E-1,2.2494202E-2,-1.4121067E-2,6.2210295E-2,3.505592E-2,-8.647489E-3],"categories":[],"categories_nodes":[],"categories_segments":[],"categories_sizes":[],"default_left":[0,0,0,0,0,1,0,0,0,0,0,0,0,1,1,0,0,0,0],"id":27,"left_children":[1,3,-1,5,7,9,-1,11,-1,-1,-1,13,-1,15,17,-1,-1,-1,-1],"loss_changes":[7.385478E0,7.497299E0,0E0,6.7557225E0,9.082512E0,8.433574E0,0E0,6.466196E0,0E0,0E0,0E0,1.1009966E1,0E0,6.417248E0,6.647482E0,0E0,0E0,0E0,0E0],"parents":[2147483647,0,0,1,1,3,3,4,4,5,5,7,7,11,11,13,13,14,14],"right_children":[2,4,-1,6,8,10,-1,12,-1,-1,-1,14,-1,16,18,-1,-1,-1,-1],"split_conditions":[4.247818E1,1.8054975E0,-1.6518844E-2,1E0,-1.5188674E0,2.2350261E0,2.7668064E-3,-3.4367675E-1,-6.686676E-4,3.352343E-2,-2.5387032E-2,2.2974648E0,2.8745916E-3,-6.1278976E1,-8.438045E0,-1.4121067E-2,6.2210295E-2,3.505592E-2,-8.647489E-3],"split_indices":[7,12,0,24,3,10,0,2,0,0,0,12,0,8,8,0,0,0,0],"split_type":[0,0,0,0,0,0,0,0,0,0,0,0,0,0,0,0,0,0,0],"sum_hessian":[1.745606E4,1.4911384E4,2.5446755E3,5.0945054E3,9.816879E3,2.5471924E3,2.547313E3,4.096913E3,5.7199653E3,1.8545299E2,2.3617393E3,2.1947322E3,1.9021812E3,9.4227484E2,1.2524573E3,3.7136395E1,9.051384E2,4.970658E2,7.553915E2],"tree_param":{"num_deleted":"0","num_feature":"25","num_nodes":"19","size_leaf_vector":"1"}},{"base_weights":[6.3772015E-3],"categories":[],"categories_nodes":[],"categories_segments":[],"categories_sizes":[],"default_left":[0],"id":28,"left_children":[-1],"loss_changes":[0E0],"parents":[2147483647],"right_children":[-1],"split_conditions":[2.024538E-3],"split_indices":[0],"split_type":[0],"sum_hessian":[1.7456553E4],"tree_param":{"num_deleted":"0","num_feature":"25","num_nodes":"1","size_leaf_vector":"1"}},{"base_weights":[-1.7955005E-3,1.3971473E-3,-7.4985206E-2,-5.7739727E-3,-1.274529E-1],"categories":[],"categories_nodes":[],"categories_segments":[],"categories_sizes":[],"default_left":[0,0,0,0,0],"id":29,"left_children":[1,-1,3,-1,-1],"loss_changes":[8.640679E0,0E0,2.333776E1,0E0,0E0],"parents":[2147483647,0,0,2,2],"right_children":[2,-1,4,-1,-1],"split_conditions":[7.644525E-1,1.3971473E-3,1E0,-5.7739727E-3,-1.274529E-1],"split_indices":[11,0,16,0,0],"split_type":[0,0,0,0,0],"sum_hessian":[1.7504123E4,1.6065931E4,1.4381931E3,1.2972233E3,1.4096985E2],"tree_param":{"num_deleted":"0","num_feature":"25","num_nodes":"5","size_leaf_vector":"1"}},{"base_weights":[-2.9406643E-3,-5.7506498E-2,1.149052E-3,-3.3100967E-3,-4.659589E-2],"categories":[],"categories_nodes":[],"categories_segments":[],"categories_sizes":[],"default_left":[0,0,0,0,0],"id":30,"left_children":[1,3,-1,-1,-1],"loss_changes":[6.7941756E0,7.0155945E0,0E0,0E0,0E0],"parents":[2147483647,0,0,1,1],"right_children":[2,4,-1,-1,-1],"split_conditions":[2.3202005E1,-3.302852E-1,1.149052E-3,-3.3100967E-3,-4.659589E-2],"split_indices":[7,2,0,0,0],"split_type":[0,0,0,0,0],"sum_hessian":[1.7487303E4,1.9856556E3,1.5501647E4,1.4074846E3,5.78171E2],"tree_param":{"num_deleted":"0","num_feature":"25","num_nodes":"5","size_leaf_vector":"1"}},{"base_weights":[4.8614265E-3,6.9075306E-3,-6.2798955E-3],"categories":[],"categories_nodes":[],"categories_segments":[],"categories_sizes":[],"default_left":[1,0,0],"id":31,"left_children":[1,-1,-1],"loss_changes":[7.3462057E0,0E0,0E0],"parents":[2147483647,0,0],"right_children":[2,-1,-1],"split_conditions":[3.2342007E1,6.9075306E-3,-6.2798955E-3],"split_indices":[10,0,0],"split_type":[0,0,0],"sum_hessian":[1.749027E4,1.0604839E4,6.8854307E3],"tree_param":{"num_deleted":"0","num_feature":"25","num_nodes":"3","size_leaf_vector":"1"}},{"base_weights":[3.0740416E-3],"categories":[],"categories_nodes":[],"categories_segments":[],"categories_sizes":[],"default_left":[0],"id":32,"left_children":[-1],"loss_changes":[0E0],"parents":[2147483647],"right_children":[-1],"split_conditions":[9.7590045E-4],"split_indices":[0],"split_type":[0],"sum_hessian":[1.7486168E4],"tree_param":{"num_deleted":"0","num_feature":"25","num_nodes":"1","size_leaf_vector":"1"}},{"base_weights":[-7.582639E-4,-5.986387E-3,7.205552E-3],"categories":[],"categories_nodes":[],"categories_segments":[],"categories_sizes":[],"default_left":[0,0,0],"id":33,"left_children":[1,-1,-1],"loss_changes":[7.43035E0,0E0,0E0],"parents":[2147483647,0,0],"right_children":[2,-1,-1],"split_conditions":[1E0,-5.986387E-3,7.205552E-3],"split_indices":[24,0,0],"split_type":[0,0,0],"sum_hessian":[1.7481451E4,1.0098646E4,7.382805E3],"tree_param":{"num_deleted":"0","num_feature":"25","num_nodes":"3","size_leaf_vector":"1"}},{"base_weights":[4.216552E-3],"categories":[],"categories_nodes":[],"categories_segments":[],"categories_sizes":[],"default_left":[0],"id":34,"left_children":[-1],"loss_changes":[0E0],"parents":[2147483647],"right_children":[-1],"split_conditions":[1.3386074E-3],"split_indices":[0],"split_type":[0],"sum_hessian":[1.7465744E4],"tree_param":{"num_deleted":"0","num_feature":"25","num_nodes":"1","size_leaf_vector":"1"}},{"base_weights":[9.849981E-3,-2.8052766E-2,4.4784625E-3],"categories":[],"categories_nodes":[],"categories_segments":[],"categories_sizes":[],"default_left":[0,0,0],"id":35,"left_children":[1,-1,-1],"loss_changes":[6.668236E0,0E0,0E0],"parents":[2147483647,0,0],"right_children":[2,-1,-1],"split_conditions":[-1.1460319E0,-2.8052766E-2,4.4784625E-3],"split_indices":[11,0,0],"split_type":[0,0,0],"sum_hessian":[1.7400127E4,5.879407E2,1.6812186E4],"tree_param":{"num_deleted":"0","num_feature":"25","num_nodes":"3","size_leaf_vector":"1"}},{"base_weights":[-1.3421714E-2],"categories":[],"categories_nodes":[],"categories_segments":[],"categories_sizes":[],"default_left":[0],"id":36,"left_children":[-1],"loss_changes":[0E0],"parents":[2147483647],"right_children":[-1],"split_conditions":[-4.2609237E-3],"split_indices":[0],"split_type":[0],"sum_hessian":[1.7457682E4],"tree_param":{"num_deleted":"0","num_feature":"25","num_nodes":"1","size_leaf_vector":"1"}},{"base_weights":[3.3208542E-3],"categories":[],"categories_nodes":[],"categories_segments":[],"categories_sizes":[],"default_left":[0],"id":37,"left_children":[-1],"loss_changes":[0E0],"parents":[2147483647],"right_children":[-1],"split_conditions":[1.0542548E-3],"split_indices":[0],"split_type":[0],"sum_hessian":[1.7391498E4],"tree_param":{"num_deleted":"0","num_feature":"25","num_nodes":"1","size_leaf_vector":"1"}},{"base_weights":[-3.0865946E-3],"categories":[],"categories_nodes":[],"categories_segments":[],"categories_sizes":[],"default_left":[0],"id":38,"left_children":[-1],"loss_changes":[0E0],"parents":[2147483647],"right_children":[-1],"split_conditions":[-9.798856E-4],"split_indices":[0],"split_type":[0],"sum_hessian":[1.7493957E4],"tree_param":{"num_deleted":"0","num_feature":"25","num_nodes":"1","size_leaf_vector":"1"}},{"base_weights":[-5.147439E-3],"categories":[],"categories_nodes":[],"categories_segments":[],"categories_sizes":[],"default_left":[0],"id":39,"left_children":[-1],"loss_changes":[0E0],"parents":[2147483647],"right_children":[-1],"split_conditions":[-1.6341314E-3],"split_indices":[0],"split_type":[0],"sum_hessian":[1.7517139E4],"tree_param":{"num_deleted":"0","num_feature":"25","num_nodes":"1","size_leaf_vector":"1"}},{"base_weights":[-1.5776207E-3],"categories":[],"categories_nodes":[],"categories_segments":[],"categories_sizes":[],"default_left":[0],"id":40,"left_children":[-1],"loss_changes":[0E0],"parents":[2147483647],"right_children":[-1],"split_conditions":[-5.0083926E-4],"split_indices":[0],"split_type":[0],"sum_hessian":[1.7541158E4],"tree_param":{"num_deleted":"0","num_feature":"25","num_nodes":"1","size_leaf_vector":"1"}},{"base_weights":[7.191593E-3],"categories":[],"categories_nodes":[],"categories_segments":[],"categories_sizes":[],"default_left":[0],"id":41,"left_children":[-1],"loss_changes":[0E0],"parents":[2147483647],"right_children":[-1],"split_conditions":[2.2830786E-3],"split_indices":[0],"split_type":[0],"sum_hessian":[1.7470586E4],"tree_param":{"num_deleted":"0","num_feature":"25","num_nodes":"1","size_leaf_vector":"1"}},{"base_weights":[2.730362E-3],"categories":[],"categories_nodes":[],"categories_segments":[],"categories_sizes":[],"default_left":[0],"id":42,"left_children":[-1],"loss_changes":[0E0],"parents":[2147483647],"right_children":[-1],"split_conditions":[8.667942E-4],"split_indices":[0],"split_type":[0],"sum_hessian":[1.7450297E4],"tree_param":{"num_deleted":"0","num_feature":"25","num_nodes":"1","size_leaf_vector":"1"}},{"base_weights":[1.690071E-4],"categories":[],"categories_nodes":[],"categories_segments":[],"categories_sizes":[],"default_left":[0],"id":43,"left_children":[-1],"loss_changes":[0E0],"parents":[2147483647],"right_children":[-1],"split_conditions":[5.365383E-5],"split_indices":[0],"split_type":[0],"sum_hessian":[1.7487615E4],"tree_param":{"num_deleted":"0","num_feature":"25","num_nodes":"1","size_leaf_vector":"1"}},{"base_weights":[3.6858078E-3],"categories":[],"categories_nodes":[],"categories_segments":[],"categories_sizes":[],"default_left":[0],"id":44,"left_children":[-1],"loss_changes":[0E0],"parents":[2147483647],"right_children":[-1],"split_conditions":[1.1701147E-3],"split_indices":[0],"split_type":[0],"sum_hessian":[1.7425564E4],"tree_param":{"num_deleted":"0","num_feature":"25","num_nodes":"1","size_leaf_vector":"1"}},{"base_weights":[-1.1110248E-3],"categories":[],"categories_nodes":[],"categories_segments":[],"categories_sizes":[],"default_left":[0],"id":45,"left_children":[-1],"loss_changes":[0E0],"parents":[2147483647],"right_children":[-1],"split_conditions":[-3.5271142E-4],"split_indices":[0],"split_type":[0],"sum_hessian":[1.745402E4],"tree_param":{"num_deleted":"0","num_feature":"25","num_nodes":"1","size_leaf_vector":"1"}},{"base_weights":[-1.4839742E-4],"categories":[],"categories_nodes":[],"categories_segments":[],"categories_sizes":[],"default_left":[0],"id":46,"left_children":[-1],"loss_changes":[0E0],"parents":[2147483647],"right_children":[-1],"split_conditions":[-4.7110978E-5],"split_indices":[0],"split_type":[0],"sum_hessian":[1.7498951E4],"tree_param":{"num_deleted":"0","num_feature":"25","num_nodes":"1","size_leaf_vector":"1"}},{"base_weights":[-1.2713681E-3],"categories":[],"categories_nodes":[],"categories_segments":[],"categories_sizes":[],"default_left":[0],"id":47,"left_children":[-1],"loss_changes":[0E0],"parents":[2147483647],"right_children":[-1],"split_conditions":[-4.036148E-4],"split_indices":[0],"split_type":[0],"sum_hessian":[1.744061E4],"tree_param":{"num_deleted":"0","num_feature":"25","num_nodes":"1","size_leaf_vector":"1"}},{"base_weights":[9.82657E-4],"categories":[],"categories_nodes":[],"categories_segments":[],"categories_sizes":[],"default_left":[0],"id":48,"left_children":[-1],"loss_changes":[0E0],"parents":[2147483647],"right_children":[-1],"split_conditions":[3.1195913E-4],"split_indices":[0],"split_type":[0],"sum_hessian":[1.7477645E4],"tree_param":{"num_deleted":"0","num_feature":"25","num_nodes":"1","size_leaf_vector":"1"}},{"base_weights":[3.1810612E-3,1.4876699E-2,-7.1349847E-3,-3.791118E-2,-4.0058568E-4],"categories":[],"categories_nodes":[],"categories_segments":[],"categories_sizes":[],"default_left":[0,0,0,0,0],"id":49,"left_children":[1,-1,3,-1,-1],"loss_changes":[8.299204E0,0E0,8.14262E0,0E0,0E0],"parents":[2147483647,0,0,2,2],"right_children":[2,-1,4,-1,-1],"split_conditions":[5.3358765E0,1.4876699E-2,-5.2613835E0,-3.791118E-2,-4.0058568E-4],"split_indices":[4,0,6,0,0],"split_type":[0,0,0,0,0],"sum_hessian":[1.7500303E4,3.4809033E3,1.40194E4,5.6663165E2,1.3452769E4],"tree_param":{"num_deleted":"0","num_feature":"25","num_nodes":"5","size_leaf_vector":"1"}},{"base_weights":[2.2316952E-3],"categories":[],"categories_nodes":[],"categories_segments":[],"categories_sizes":[],"default_left":[0],"id":50,"left_children":[-1],"loss_changes":[0E0],"parents":[2147483647],"right_children":[-1],"split_conditions":[7.08485E-4],"split_indices":[0],"split_type":[0],"sum_hessian":[1.7478906E4],"tree_param":{"num_deleted":"0","num_feature":"25","num_nodes":"1","size_leaf_vector":"1"}},{"base_weights":[-4.127154E-3],"categories":[],"categories_nodes":[],"categories_segments":[],"categories_sizes":[],"default_left":[0],"id":51,"left_children":[-1],"loss_changes":[0E0],"parents":[2147483647],"right_children":[-1],"split_conditions":[-1.3102267E-3],"split_indices":[0],"split_type":[0],"sum_hessian":[1.7472398E4],"tree_param":{"num_deleted":"0","num_feature":"25","num_nodes":"1","size_leaf_vector":"1"}},{"base_weights":[-3.6603287E-3,-8.305922E-3,4.658117E-3],"categories":[],"categories_nodes":[],"categories_segments":[],"categories_sizes":[],"default_left":[0,0,0],"id":52,"left_children":[1,-1,-1],"loss_changes":[7.367886E0,0E0,0E0],"parents":[2147483647,0,0],"right_children":[2,-1,-1],"split_conditions":[9.535198E0,-8.305922E-3,4.658117E-3],"split_indices":[6,0,0],"split_type":[0,0,0],"sum_hessian":[1.7496184E4,8.0738657E3,9.422317E3],"tree_param":{"num_deleted":"0","num_feature":"25","num_nodes":"3","size_leaf_vector":"1"}},{"base_weights":[-6.955929E-4],"categories":[],"categories_nodes":[],"categories_segments":[],"categories_sizes":[],"default_left":[0],"id":53,"left_children":[-1],"loss_changes":[0E0],"parents":[2147483647],"right_children":[-1],"split_conditions":[-2.2082636E-4],"split_indices":[0],"split_type":[0],"sum_hessian":[1.7467906E4],"tree_param":{"num_deleted":"0","num_feature":"25","num_nodes":"1","size_leaf_vector":"1"}},{"base_weights":[-0E0,1.7871752E-2,-7.0838034E-3,4.8664934E-3,-1.3495923E-2,-8.349965E-3,1.6036032E-2,-2.972274E-2,-0E0,1.0428676E-2,-7.93078E-2,-1.3097873E-2,6.173784E-2,-7.900738E-3,-8.871314E-2,1.8707401E-3,-3.401062E-2,-1.9090693E-2,1.0537556E-1,1.3696641E-2,-7.0381664E-2,-0E0,4.596052E-2],"categories":[],"categories_nodes":[],"categories_segments":[],"categories_sizes":[],"default_left":[0,0,0,0,0,0,0,0,0,0,0,0,0,0,0,0,0,0,0,0,0,0,0],"id":54,"left_children":[1,-1,3,5,-1,7,-1,-1,9,11,13,15,17,-1,-1,-1,-1,19,21,-1,-1,-1,-1],"loss_changes":[6.834591E0,0E0,7.014838E0,7.4139314E0,0E0,6.456111E0,0E0,0E0,6.6673174E0,9.243474E0,6.963237E0,9.706101E0,9.4217E0,0E0,0E0,0E0,0E0,1.2459936E1,8.141127E0,0E0,0E0,0E0,0E0],"parents":[2147483647,0,0,2,2,3,3,5,5,8,8,9,9,10,10,11,11,12,12,17,17,18,18],"right_children":[2,-1,4,6,-1,8,-1,-1,10,12,14,16,18,-1,-1,-1,-1,20,22,-1,-1,-1,-1],"split_conditions":[5.1150894E0,1.7871752E-2,3.9789207E1,3.347437E1,-1.3495923E-2,-6.5216285E-1,1.6036032E-2,-2.972274E-2,6.762914E-1,-9.6122223E-1,1E0,-1.2668742E0,-1.1846854E-1,-7.900738E-3,-8.871314E-2,1.8707401E-3,-3.401062E-2,1.646647E0,2.014303E1,1.3696641E-2,-7.0381664E-2,-0E0,4.596052E-2],"split_indices":[4,0,7,5,0,13,0,0,11,3,16,3,11,0,0,0,0,3,5,0,0,0,0],"split_type":[0,0,0,0,0,0,0,0,0,0,0,0,0,0,0,0,0,0,0,0,0,0,0],"sum_hessian":[1.7512434E4,1.8547606E3,1.5657673E4,1.1544965E4,4.112708E3,8.827383E3,2.7175813E3,7.5407855E2,8.0733047E3,7.1916187E3,8.816862E2,4.83277E3,2.3588484E3,7.768821E2,1.0480415E2,3.9793337E3,8.5343616E2,7.622739E2,1.5965746E3,5.7976514E2,1.8250879E2,3.87263E2,1.2093115E3],"tree_param":{"num_deleted":"0","num_feature":"25","num_nodes":"23","size_leaf_vector":"1"}},{"base_weights":[2.7819478E-3],"categories":[],"categories_nodes":[],"categories_segments":[],"categories_sizes":[],"default_left":[0],"id":55,"left_children":[-1],"loss_changes":[0E0],"parents":[2147483647],"right_children":[-1],"split_conditions":[8.831709E-4],"split_indices":[0],"split_type":[0],"sum_hessian":[1.7486338E4],"tree_param":{"num_deleted":"0","num_feature":"25","num_nodes":"1","size_leaf_vector":"1"}},{"base_weights":[-1.975409E-3],"categories":[],"categories_nodes":[],"categories_segments":[],"categories_sizes":[],"default_left":[0],"id":56,"left_children":[-1],"loss_changes":[0E0],"parents":[2147483647],"right_children":[-1],"split_conditions":[-6.271231E-4],"split_indices":[0],"split_type":[0],"sum_hessian":[1.7407787E4],"tree_param":{"num_deleted":"0","num_feature":"25","num_nodes":"1","size_leaf_vector":"1"}},{"base_weights":[1.7915975E-3],"categories":[],"categories_nodes":[],"categories_segments":[],"categories_sizes":[],"default_left":[0],"id":57,"left_children":[-1],"loss_changes":[0E0],"parents":[2147483647],"right_children":[-1],"split_conditions":[5.687694E-4],"split_indices":[0],"split_type":[0],"sum_hessian":[1.7476094E4],"tree_param":{"num_deleted":"0","num_feature":"25","num_nodes":"1","size_leaf_vector":"1"}},{"base_weights":[2.4111192E-3],"categories":[],"categories_nodes":[],"categories_segments":[],"categories_sizes":[],"default_left":[0],"id":58,"left_children":[-1],"loss_changes":[0E0],"parents":[2147483647],"right_children":[-1],"split_conditions":[7.654458E-4],"split_indices":[0],"split_type":[0],"sum_hessian":[1.7427627E4],"tree_param":{"num_deleted":"0","num_feature":"25","num_nodes":"1","size_leaf_vector":"1"}},{"base_weights":[-1.3723896E-3],"categories":[],"categories_nodes":[],"categories_segments":[],"categories_sizes":[],"default_left":[0],"id":59,"left_children":[-1],"loss_changes":[0E0],"parents":[2147483647],"right_children":[-1],"split_conditions":[-4.356856E-4],"split_indices":[0],"split_type":[0],"sum_hessian":[1.7389508E4],"tree_param":{"num_deleted":"0","num_feature":"25","num_nodes":"1","size_leaf_vector":"1"}},{"base_weights":[7.2406125E-3],"categories":[],"categories_nodes":[],"categories_segments":[],"categories_sizes":[],"default_left":[0],"id":60,"left_children":[-1],"loss_changes":[0E0],"parents":[2147483647],"right_children":[-1],"split_conditions":[2.2986408E-3],"split_indices":[0],"split_type":[0],"sum_hessian":[1.7421238E4],"tree_param":{"num_deleted":"0","num_feature":"25","num_nodes":"1","size_leaf_vector":"1"}},{"base_weights":[-3.0786162E-3],"categories":[],"categories_nodes":[],"categories_segments":[],"categories_sizes":[],"default_left":[0],"id":61,"left_children":[-1],"loss_changes":[0E0],"parents":[2147483647],"right_children":[-1],"split_conditions":[-9.773527E-4],"split_indices":[0],"split_type":[0],"sum_hessian":[1.7453982E4],"tree_param":{"num_deleted":"0","num_feature":"25","num_nodes":"1","size_leaf_vector":"1"}},{"base_weights":[-0E0],"categories":[],"categories_nodes":[],"categories_segments":[],"categories_sizes":[],"default_left":[0],"id":62,"left_children":[-1],"loss_changes":[0E0],"parents":[2147483647],"right_children":[-1],"split_conditions":[-0E0],"split_indices":[0],"split_type":[0],"sum_hessian":[1.7447396E4],"tree_param":{"num_deleted":"0","num_feature":"25","num_nodes":"1","size_leaf_vector":"1"}},{"base_weights":[1.3129954E-3],"categories":[],"categories_nodes":[],"categories_segments":[],"categories_sizes":[],"default_left":[0],"id":63,"left_children":[-1],"loss_changes":[0E0],"parents":[2147483647],"right_children":[-1],"split_conditions":[4.1683004E-4],"split_indices":[0],"split_type":[0],"sum_hessian":[1.7395377E4],"tree_param":{"num_deleted":"0","num_feature":"25","num_nodes":"1","size_leaf_vector":"1"}},{"base_weights":[3.4483479E-4],"categories":[],"categories_nodes":[],"categories_segments":[],"categories_sizes":[],"default_left":[0],"id":64,"left_children":[-1],"loss_changes":[0E0],"parents":[2147483647],"right_children":[-1],"split_conditions":[1.0947296E-4],"split_indices":[0],"split_type":[0],"sum_hessian":[1.7392586E4],"tree_param":{"num_deleted":"0","num_feature":"25","num_nodes":"1","size_leaf_vector":"1"}},{"base_weights":[-6.7887097E-3],"categories":[],"categories_nodes":[],"categories_segments":[],"categories_sizes":[],"default_left":[0],"id":65,"left_children":[-1],"loss_changes":[0E0],"parents":[2147483647],"right_children":[-1],"split_conditions":[-2.1551773E-3],"split_indices":[0],"split_type":[0],"sum_hessian":[1.7440611E4],"tree_param":{"num_deleted":"0","num_feature":"25","num_nodes":"1","size_leaf_vector":"1"}},{"base_weights":[7.822157E-3],"categories":[],"categories_nodes":[],"categories_segments":[],"categories_sizes":[],"default_left":[0],"id":66,"left_children":[-1],"loss_changes":[0E0],"parents":[2147483647],"right_children":[-1],"split_conditions":[2.4832606E-3],"split_indices":[0],"split_type":[0],"sum_hessian":[1.749055E4],"tree_param":{"num_deleted":"0","num_feature":"25","num_nodes":"1","size_leaf_vector":"1"}},{"base_weights":[-2.8751637E-3],"categories":[],"categories_nodes":[],"categories_segments":[],"categories_sizes":[],"default_left":[0],"id":67,"left_children":[-1],"loss_changes":[0E0],"parents":[2147483647],"right_children":[-1],"split_conditions":[-9.127637E-4],"split_indices":[0],"split_type":[0],"sum_hessian":[1.7460283E4],"tree_param":{"num_deleted":"0","num_feature":"25","num_nodes":"1","size_leaf_vector":"1"}},{"base_weights":[-1.077251E-2],"categories":[],"categories_nodes":[],"categories_segments":[],"categories_sizes":[],"default_left":[0],"id":68,"left_children":[-1],"loss_changes":[0E0],"parents":[2147483647],"right_children":[-1],"split_conditions":[-3.4198945E-3],"split_indices":[0],"split_type":[0],"sum_hessian":[1.7431777E4],"tree_param":{"num_deleted":"0","num_feature":"25","num_nodes":"1","size_leaf_vector":"1"}},{"base_weights":[9.7215216E-4],"categories":[],"categories_nodes":[],"categories_segments":[],"categories_sizes":[],"default_left":[0],"id":69,"left_children":[-1],"loss_changes":[0E0],"parents":[2147483647],"right_children":[-1],"split_conditions":[3.0862424E-4],"split_indices":[0],"split_type":[0],"sum_hessian":[1.7414943E4],"tree_param":{"num_deleted":"0","num_feature":"25","num_nodes":"1","size_leaf_vector":"1"}},{"base_weights":[-0E0,1.7568918E-3,-2.1146778E-2],"categories":[],"categories_nodes":[],"categories_segments":[],"categories_sizes":[],"default_left":[0,0,0],"id":70,"left_children":[1,-1,-1],"loss_changes":[6.354463E0,0E0,0E0],"parents":[2147483647,0,0],"right_children":[2,-1,-1],"split_conditions":[1E0,1.7568918E-3,-2.1146778E-2],"split_indices":[21,0,0],"split_type":[0,0,0],"sum_hessian":[1.7391271E4,1.6123879E4,1.2673918E3],"tree_param":{"num_deleted":"0","num_feature":"25","num_nodes":"3","size_leaf_vector":"1"}},{"base_weights":[2.8288863E-3],"categories":[],"categories_nodes":[],"categories_segments":[],"categories_sizes":[],"default_left":[0],"id":71,"left_children":[-1],"loss_changes":[0E0],"parents":[2147483647],"right_children":[-1],"split_conditions":[8.980722E-4],"split_indices":[0],"split_type":[0],"sum_hessian":[1.7428627E4],"tree_param":{"num_deleted":"0","num_feature":"25","num_nodes":"1","size_leaf_vector":"1"}},{"base_weights":[-0E0],"categories":[],"categories_nodes":[],"categories_segments":[],"categories_sizes":[],"default_left":[0],"id":72,"left_children":[-1],"loss_changes":[0E0],"parents":[2147483647],"right_children":[-1],"split_conditions":[-0E0],"split_indices":[0],"split_type":[0],"sum_hessian":[1.7439139E4],"tree_param":{"num_deleted":"0","num_feature":"25","num_nodes":"1","size_leaf_vector":"1"}},{"base_weights":[-0E0],"categories":[],"categories_nodes":[],"categories_segments":[],"categories_sizes":[],"default_left":[0],"id":73,"left_children":[-1],"loss_changes":[0E0],"parents":[2147483647],"right_children":[-1],"split_conditions":[-0E0],"split_indices":[0],"split_type":[0],"sum_hessian":[1.7401541E4],"tree_param":{"num_deleted":"0","num_feature":"25","num_nodes":"1","size_leaf_vector":"1"}},{"base_weights":[3.715169E-3,2.0118987E-3,-5.7540435E-2],"categories":[],"categories_nodes":[],"categories_segments":[],"categories_sizes":[],"default_left":[0,0,0],"id":74,"left_children":[1,-1,-1],"loss_changes":[6.9222455E0,0E0,0E0],"parents":[2147483647,0,0],"right_children":[2,-1,-1],"split_conditions":[1.3404342E0,2.0118987E-3,-5.7540435E-2],"split_indices":[11,0,0],"split_type":[0,0,0],"sum_hessian":[1.7468943E4,1.7325191E4,1.4375288E2],"tree_param":{"num_deleted":"0","num_feature":"25","num_nodes":"3","size_leaf_vector":"1"}},{"base_weights":[-3.208192E-4],"categories":[],"categories_nodes":[],"categories_segments":[],"categories_sizes":[],"default_left":[0],"id":75,"left_children":[-1],"loss_changes":[0E0],"parents":[2147483647],"right_children":[-1],"split_conditions":[-1.01848855E-4],"split_indices":[0],"split_type":[0],"sum_hessian":[1.7467812E4],"tree_param":{"num_deleted":"0","num_feature":"25","num_nodes":"1","size_leaf_vector":"1"}},{"base_weights":[-6.48957E-3],"categories":[],"categories_nodes":[],"categories_segments":[],"categories_sizes":[],"default_left":[0],"id":76,"left_children":[-1],"loss_changes":[0E0],"parents":[2147483647],"right_children":[-1],"split_conditions":[-2.060211E-3],"split_indices":[0],"split_type":[0],"sum_hessian":[1.7351123E4],"tree_param":{"num_deleted":"0","num_feature":"25","num_nodes":"1","size_leaf_vector":"1"}},{"base_weights":[5.867869E-3],"categories":[],"categories_nodes":[],"categories_segments":[],"categories_sizes":[],"default_left":[0],"id":77,"left_children":[-1],"loss_changes":[0E0],"parents":[2147483647],"right_children":[-1],"split_conditions":[1.8628428E-3],"split_indices":[0],"split_type":[0],"sum_hessian":[1.747648E4],"tree_param":{"num_deleted":"0","num_feature":"25","num_nodes":"1","size_leaf_vector":"1"}},{"base_weights":[-5.904311E-3],"categories":[],"categories_nodes":[],"categories_segments":[],"categories_sizes":[],"default_left":[0],"id":78,"left_children":[-1],"loss_changes":[0E0],"parents":[2147483647],"right_children":[-1],"split_conditions":[-1.8744117E-3],"split_indices":[0],"split_type":[0],"sum_hessian":[1.7441078E4],"tree_param":{"num_deleted":"0","num_feature":"25","num_nodes":"1","size_leaf_vector":"1"}},{"base_weights":[1.1178944E-3],"categories":[],"categories_nodes":[],"categories_segments":[],"categories_sizes":[],"default_left":[0],"id":79,"left_children":[-1],"loss_changes":[0E0],"parents":[2147483647],"right_children":[-1],"split_conditions":[3.5489228E-4],"split_indices":[0],"split_type":[0],"sum_hessian":[1.7441533E4],"tree_param":{"num_deleted":"0","num_feature":"25","num_nodes":"1","size_leaf_vector":"1"}},{"base_weights":[-1.513562E-4],"categories":[],"categories_nodes":[],"categories_segments":[],"categories_sizes":[],"default_left":[0],"id":80,"left_children":[-1],"loss_changes":[0E0],"parents":[2147483647],"right_children":[-1],"split_conditions":[-4.805029E-5],"split_indices":[0],"split_type":[0],"sum_hessian":[1.7523574E4],"tree_param":{"num_deleted":"0","num_feature":"25","num_nodes":"1","size_leaf_vector":"1"}},{"base_weights":[-2.2655064E-3],"categories":[],"categories_nodes":[],"categories_segments":[],"categories_sizes":[],"default_left":[0],"id":81,"left_children":[-1],"loss_changes":[0E0],"parents":[2147483647],"right_children":[-1],"split_conditions":[-7.1921886E-4],"split_indices":[0],"split_type":[0],"sum_hessian":[1.7539229E4],"tree_param":{"num_deleted":"0","num_feature":"25","num_nodes":"1","size_leaf_vector":"1"}},{"base_weights":[-9.929705E-4],"categories":[],"categories_nodes":[],"categories_segments":[],"categories_sizes":[],"default_left":[0],"id":82,"left_children":[-1],"loss_changes":[0E0],"parents":[2147483647],"right_children":[-1],"split_conditions":[-3.1523334E-4],"split_indices":[0],"split_type":[0],"sum_hessian":[1.7490816E4],"tree_param":{"num_deleted":"0","num_feature":"25","num_nodes":"1","size_leaf_vector":"1"}},{"base_weights":[-4.990699E-4],"categories":[],"categories_nodes":[],"categories_segments":[],"categories_sizes":[],"default_left":[0],"id":83,"left_children":[-1],"loss_changes":[0E0],"parents":[2147483647],"right_children":[-1],"split_conditions":[-1.5843721E-4],"split_indices":[0],"split_type":[0],"sum_hessian":[1.7505209E4],"tree_param":{"num_deleted":"0","num_feature":"25","num_nodes":"1","size_leaf_vector":"1"}},{"base_weights":[-4.696542E-3],"categories":[],"categories_nodes":[],"categories_segments":[],"categories_sizes":[],"default_left":[0],"id":84,"left_children":[-1],"loss_changes":[0E0],"parents":[2147483647],"right_children":[-1],"split_conditions":[-1.4909875E-3],"split_indices":[0],"split_type":[0],"sum_hessian":[1.7438607E4],"tree_param":{"num_deleted":"0","num_feature":"25","num_nodes":"1","size_leaf_vector":"1"}},{"base_weights":[9.7473594E-4],"categories":[],"categories_nodes":[],"categories_segments":[],"categories_sizes":[],"default_left":[0],"id":85,"left_children":[-1],"loss_changes":[0E0],"parents":[2147483647],"right_children":[-1],"split_conditions":[3.094445E-4],"split_indices":[0],"split_type":[0],"sum_hessian":[1.744339E4],"tree_param":{"num_deleted":"0","num_feature":"25","num_nodes":"1","size_leaf_vector":"1"}},{"base_weights":[1.3902037E-5],"categories":[],"categories_nodes":[],"categories_segments":[],"categories_sizes":[],"default_left":[0],"id":86,"left_children":[-1],"loss_changes":[0E0],"parents":[2147483647],"right_children":[-1],"split_conditions":[4.4134094E-6],"split_indices":[0],"split_type":[0],"sum_hessian":[1.747885E4],"tree_param":{"num_deleted":"0","num_feature":"25","num_nodes":"1","size_leaf_vector":"1"}},{"base_weights":[5.933666E-3],"categories":[],"categories_nodes":[],"categories_segments":[],"categories_sizes":[],"default_left":[0],"id":87,"left_children":[-1],"loss_changes":[0E0],"parents":[2147483647],"right_children":[-1],"split_conditions":[1.883731E-3],"split_indices":[0],"split_type":[0],"sum_hessian":[1.749108E4],"tree_param":{"num_deleted":"0","num_feature":"25","num_nodes":"1","size_leaf_vector":"1"}},{"base_weights":[-3.7742164E-3],"categories":[],"categories_nodes":[],"categories_segments":[],"categories_sizes":[],"default_left":[0],"id":88,"left_children":[-1],"loss_changes":[0E0],"parents":[2147483647],"right_children":[-1],"split_conditions":[-1.1981814E-3],"split_indices":[0],"split_type":[0],"sum_hessian":[1.744785E4],"tree_param":{"num_deleted":"0","num_feature":"25","num_nodes":"1","size_leaf_vector":"1"}},{"base_weights":[-6.509595E-3],"categories":[],"categories_nodes":[],"categories_segments":[],"categories_sizes":[],"default_left":[0],"id":89,"left_children":[-1],"loss_changes":[0E0],"parents":[2147483647],"right_children":[-1],"split_conditions":[-2.0665682E-3],"split_indices":[0],"split_type":[0],"sum_hessian":[1.7425893E4],"tree_param":{"num_deleted":"0","num_feature":"25","num_nodes":"1","size_leaf_vector":"1"}},{"base_weights":[-0E0,-1.36747155E-2,8.489266E-3,-2.2519644E-2,-0E0],"categories":[],"categories_nodes":[],"categories_segments":[],"categories_sizes":[],"default_left":[0,0,0,0,0],"id":90,"left_children":[1,3,-1,-1,-1],"loss_changes":[6.4586716E0,8.798863E0,0E0,0E0,0E0],"parents":[2147483647,0,0,1,1],"right_children":[2,4,-1,-1,-1],"split_conditions":[3.2557383E-2,1.0492463E0,8.489266E-3,-2.2519644E-2,-0E0],"split_indices":[1,6,0,0,0],"split_type":[0,0,0,0,0],"sum_hessian":[1.7458324E4,1.1500574E4,5.9577495E3,2.1249048E3,9.375669E3],"tree_param":{"num_deleted":"0","num_feature":"25","num_nodes":"5","size_leaf_vector":"1"}},{"base_weights":[5.3642495E-3],"categories":[],"categories_nodes":[],"categories_segments":[],"categories_sizes":[],"default_left":[0],"id":91,"left_children":[-1],"loss_changes":[0E0],"parents":[2147483647],"right_children":[-1],"split_conditions":[1.7029612E-3],"split_indices":[0],"split_type":[0],"sum_hessian":[1.7456094E4],"tree_param":{"num_deleted":"0","num_feature":"25","num_nodes":"1","size_leaf_vector":"1"}},{"base_weights":[1.1515545E-3],"categories":[],"categories_nodes":[],"categories_segments":[],"categories_sizes":[],"default_left":[0],"id":92,"left_children":[-1],"loss_changes":[0E0],"parents":[2147483647],"right_children":[-1],"split_conditions":[3.655782E-4],"split_indices":[0],"split_type":[0],"sum_hessian":[1.7465715E4],"tree_param":{"num_deleted":"0","num_feature":"25","num_nodes":"1","size_leaf_vector":"1"}},{"base_weights":[-5.6116106E-3],"categories":[],"categories_nodes":[],"categories_segments":[],"categories_sizes":[],"default_left":[0],"id":93,"left_children":[-1],"loss_changes":[0E0],"parents":[2147483647],"right_children":[-1],"split_conditions":[-1.7814897E-3],"split_indices":[0],"split_type":[0],"sum_hessian":[1.741389E4],"tree_param":{"num_deleted":"0","num_feature":"25","num_nodes":"1","size_leaf_vector":"1"}},{"base_weights":[3.493783E-3],"categories":[],"categories_nodes":[],"categories_segments":[],"categories_sizes":[],"default_left":[0],"id":94,"left_children":[-1],"loss_changes":[0E0],"parents":[2147483647],"right_children":[-1],"split_conditions":[1.1091536E-3],"split_indices":[0],"split_type":[0],"sum_hessian":[1.7485473E4],"tree_param":{"num_deleted":"0","num_feature":"25","num_nodes":"1","size_leaf_vector":"1"}},{"base_weights":[3.6677888E-3],"categories":[],"categories_nodes":[],"categories_segments":[],"categories_sizes":[],"default_left":[0],"id":95,"left_children":[-1],"loss_changes":[0E0],"parents":[2147483647],"right_children":[-1],"split_conditions":[1.1643944E-3],"split_indices":[0],"split_type":[0],"sum_hessian":[1.7421682E4],"tree_param":{"num_deleted":"0","num_feature":"25","num_nodes":"1","size_leaf_vector":"1"}},{"base_weights":[-5.0497954E-3],"categories":[],"categories_nodes":[],"categories_segments":[],"categories_sizes":[],"default_left":[0],"id":96,"left_children":[-1],"loss_changes":[0E0],"parents":[2147483647],"right_children":[-1],"split_conditions":[-1.603133E-3],"split_indices":[0],"split_type":[0],"sum_hessian":[1.746894E4],"tree_param":{"num_deleted":"0","num_feature":"25","num_nodes":"1","size_leaf_vector":"1"}},{"base_weights":[-0E0],"categories":[],"categories_nodes":[],"categories_segments":[],"categories_sizes":[],"default_left":[0],"id":97,"left_children":[-1],"loss_changes":[0E0],"parents":[2147483647],"right_children":[-1],"split_conditions":[-0E0],"split_indices":[0],"split_type":[0],"sum_hessian":[1.7451893E4],"tree_param":{"num_deleted":"0","num_feature":"25","num_nodes":"1","size_leaf_vector":"1"}},{"base_weights":[4.0719328E-3],"categories":[],"categories_nodes":[],"categories_segments":[],"categories_sizes":[],"default_left":[0],"id":98,"left_children":[-1],"loss_changes":[0E0],"parents":[2147483647],"right_children":[-1],"split_conditions":[1.2926959E-3],"split_indices":[0],"split_type":[0],"sum_hessian":[1.7432432E4],"tree_param":{"num_deleted":"0","num_feature":"25","num_nodes":"1","size_leaf_vector":"1"}},{"base_weights":[-0E0],"categories":[],"categories_nodes":[],"categories_segments":[],"categories_sizes":[],"default_left":[0],"id":99,"left_children":[-1],"loss_changes":[0E0],"parents":[2147483647],"right_children":[-1],"split_conditions":[-0E0],"split_indices":[0],"split_type":[0],"sum_hessian":[1.739483E4],"tree_param":{"num_deleted":"0","num_feature":"25","num_nodes":"1","size_leaf_vector":"1"}}]},"name":"gbtree"},"learner_model_param":{"base_score":"5.4444706E-1","boost_from_average":"1","num_class":"0","num_feature":"25","num_target":"1"},"objective":{"name":"binary:logistic","reg_loss_param":{"scale_pos_weight":"1"}}},"version":[2,1,4]}