{"learner":{"attributes":{"scikit_learn":"{\"_estimator_type\": \"classifier\"}"},"feature_names":["velo","plate_time","plate_time_diff","extension","extension_ratio","x0_ratio","z0_ratio","HAVAA","spin_rate","ssw","HB_acc","IVB_acc","Break_acc","pitcherHand_L","pitcherHand_R","hitterHand_L","hitterHand_R"],"feature_types":["float","float","float","float","float","float","float","float","float","float","float","float","float","i","i","i","i"],"gradient_booster":{"model":{"gbtree_model_param":{"num_parallel_tree":"1","num_trees":"100"},"iteration_indptr":[0,1,2,3,4,5,6,7,8,9,10,11,12,13,14,15,16,17,18,19,20,21,22,23,24,25,26,27,28,29,30,31,32,33,34,35,36,37,38,39,40,41,42,43,44,45,46,47,48,49,50,51,52,53,54,55,56,57,58,59,60,61,62,63,64,65,66,67,68,69,70,71,72,73,74,75,76,77,78,79,80,81,82,83,84,85,86,87,88,89,90,91,92,93,94,95,96,97,98,99,100],"tree_info":[0,0,0,0,0,0,0,0,0,0,0,0,0,0,0,0,0,0,0,0,0,0,0,0,0,0,0,0,0,0,0,0,0,0,0,0,0,0,0,0,0,0,0,0,0,0,0,0,0,0,0,0,0,0,0,0,0,0,0,0,0,0,0,0,0,0,0,0,0,0,0,0,0,0,0,0,0,0,0,0,0,0,0,0,0,0,0,0,0,0,0,0,0,0,0,0,0,0,0,0],"trees":[{"base_weights":[3.919365E-3,7.803859E-2,-7.4314326E-2,9.741914E-2,-1.21375695E-1,-3.627899E-1,1.5982331E-1,-4.3305762E-2,1.368192E-1,-1.820933E-1,-4.8210466E-1,-2.3237595E-2,1.7679013E-1,3.5038978E-2,-8.190679E-2,-0E0,1.5576151E-1,-1.2066681E-1,-1.1468394E-1,-0E0,-4.8870915E-1,2.2252478E-1,8.686585E-2,5.489429E-2,-0E0,6.309995E-2,-3.892362E-2,6.2323716E-2,-0E0,1.1854492E-2,-5.5382635E-2,-0E0,-1.8782541E-1,2.4879247E-1,9.590745E-3,-3.5226165E-4,4.585973E-2,1.7073281E-2,1.02549694E-1],"categories":[],"categories_nodes":[],"categories_segments":[],"categories_sizes":[],"default_left":[0,0,0,0,0,0,1,0,0,1,0,0,0,1,0,0,0,0,0,0,0,0,0,0,0,0,0,0,0,0,0,0,0,0,0,0,0,0,0],"id":0,"left_children":[1,3,5,7,-1,9,11,13,15,17,19,-1,21,23,-1,25,27,-1,29,-1,31,33,35,-1,-1,-1,-1,-1,-1,-1,-1,-1,-1,37,-1,-1,-1,-1,-1],"loss_changes":[1.1509692E2,7.882422E1,6.534663E2,5.639759E1,0E0,7.853296E1,2.2194595E1,3.1926956E1,2.0458298E1,9.158272E0,7.1777344E0,0E0,1.5255646E1,7.5528893E0,0E0,1.8558208E1,1.0623245E1,0E0,8.39683E0,0E0,7.401245E0,1.2556519E1,7.21352E0,0E0,0E0,0E0,0E0,0E0,0E0,0E0,0E0,0E0,0E0,7.272354E0,0E0,0E0,0E0,0E0,0E0],"parents":[2147483647,0,0,1,1,2,2,3,3,5,5,6,6,7,7,8,8,9,9,10,10,12,12,13,13,15,15,16,16,18,18,20,20,21,21,22,22,33,33],"right_children":[2,4,6,8,-1,10,12,14,16,18,20,-1,22,24,-1,26,28,-1,30,-1,32,34,36,-1,-1,-1,-1,-1,-1,-1,-1,-1,-1,38,-1,-1,-1,-1,-1],"split_conditions":[1E0,1E0,1E0,6.2810177E1,-1.21375695E-1,6.6581215E1,3.6312897E1,-3.2383642E-1,-1.0006168E0,1.146E3,7.96E1,-2.3237595E-2,8.55E1,9.839828E-1,-8.190679E-2,-6.3951945E-1,8.134866E-1,-1.2066681E-1,2.9250862E1,-0E0,3.9058787E-1,5.387899E1,7.782109E1,5.489429E-2,-0E0,6.309995E-2,-3.892362E-2,6.2323716E-2,-0E0,1.1854492E-2,-5.5382635E-2,-0E0,-1.8782541E-1,-2.1272805E0,9.590745E-3,-3.5226165E-4,4.585973E-2,1.7073281E-2,1.02549694E-1],"split_indices":[16,13,13,12,0,10,10,7,11,8,0,0,0,4,0,7,7,0,10,0,1,11,12,0,0,0,0,0,0,0,0,0,0,11,0,0,0,0,0],"split_type":[0,0,0,0,0,0,0,0,0,0,0,0,0,0,0,0,0,0,0,0,0,0,0,0,0,0,0,0,0,0,0,0,0,0,0,0,0,0,0],"sum_hessian":[1.9689918E4,1.0193062E4,9.496856E3,9.804407E3,3.8865433E2,4.2600684E3,5.2367886E3,2.0734846E3,7.7309224E3,1.8118187E3,2.4482495E3,3.0655823E2,4.9302305E3,1.4182039E3,6.5528064E2,9.400127E2,6.7909097E3,4.4520392E2,1.3666147E3,3.769972E1,2.4105498E3,3.102042E3,1.8281884E3,3.7203668E2,1.0461672E3,3.3532907E2,6.0468365E2,6.479639E3,3.112707E2,1.7163293E2,1.1949818E3,3.769972E1,2.37285E3,2.6640308E3,4.380112E2,4.2957837E2,1.39861E3,3.3483304E2,2.3291978E3],"tree_param":{"num_deleted":"0","num_feature":"17","num_nodes":"39","size_leaf_vector":"1"}},{"base_weights":[-3.5282366E-3,-3.6453996E-2,7.9416946E-2,-2.2660911E-1,4.9793314E-2,4.1546848E-2,-9.7321935E-2,-1.11407906E-1,-2.8115863E-1,9.296524E-2,-5.373121E-3,-5.6095228E-2,-0E0,-1.22830026E-1,-1.9536119E-2,1.6242366E-1,4.2266097E-2,-1.258707E-1,1.8730938E-2,1.8050882E-1,-9.465334E-3,-2.6534278E-2,2.784216E-2,-0E0,-7.1633466E-2,-2.3717787E-2,4.7197577E-2,-0E0,7.388457E-2,5.5029217E-2,-0E0],"categories":[],"categories_nodes":[],"categories_segments":[],"categories_sizes":[],"default_left":[0,0,0,0,0,0,0,0,0,0,1,0,0,0,0,1,0,0,0,0,0,0,0,0,0,0,0,0,0,0,0],"id":1,"left_children":[1,3,5,7,9,-1,-1,11,13,15,17,-1,-1,-1,-1,19,21,23,25,27,-1,-1,-1,-1,-1,-1,29,-1,-1,-1,-1],"loss_changes":[5.341257E1,2.3666362E2,5.6170853E1,2.1021973E1,2.4511204E1,0E0,0E0,7.171051E0,2.2922638E1,1.6773777E1,1.387256E1,0E0,0E0,0E0,0E0,9.905682E0,1.2564218E1,8.263745E0,8.185702E0,7.0666428E0,0E0,0E0,0E0,0E0,0E0,0E0,1.3495505E1,0E0,0E0,0E0,0E0],"parents":[2147483647,0,0,1,1,2,2,3,3,4,4,7,7,8,8,9,9,10,10,15,15,16,16,17,17,18,18,19,19,26,26],"right_children":[2,4,6,8,10,-1,-1,12,14,16,18,-1,-1,-1,-1,20,22,24,26,28,-1,-1,-1,-1,-1,-1,30,-1,-1,-1,-1],"split_conditions":[8.797047E-2,1E0,1E0,6.931558E1,-2.5464624E-1,4.1546848E-2,-9.7321935E-2,6.3118153E1,-1.6573638E-1,-3.302852E-1,-2.314586E0,-5.6095228E-2,-0E0,-1.22830026E-1,-1.9536119E-2,7.1231294E0,6.931558E1,1.0067345E0,6.2810177E1,3.7624767E1,-9.465334E-3,-2.6534278E-2,2.784216E-2,-0E0,-7.1633466E-2,-2.3717787E-2,-5.392503E-1,-0E0,7.388457E-2,5.5029217E-2,-0E0],"split_indices":[5,15,15,12,5,0,0,12,5,7,9,0,0,0,0,3,12,4,12,12,0,0,0,0,0,0,7,0,0,0,0],"split_type":[0,0,0,0,0,0,0,0,0,0,0,0,0,0,0,0,0,0,0,0,0,0,0,0,0,0,0,0,0,0,0],"sum_hessian":[1.95989E4,1.4167992E4,5.4309087E3,4.4278306E3,9.740162E3,5.0642188E3,3.6668976E2,1.5704382E3,2.8573923E3,5.5623066E3,4.177855E3,1.1847145E3,3.857238E2,2.3355896E3,5.2180286E2,2.1725903E3,3.3897163E3,7.297989E2,3.4480562E3,2.0447983E3,1.277919E2,6.2924994E2,2.7604666E3,2.1668292E2,5.1311597E2,7.567307E2,2.6913254E3,1.1595718E2,1.9288412E3,8.5722485E2,1.8341006E3],"tree_param":{"num_deleted":"0","num_feature":"17","num_nodes":"31","size_leaf_vector":"1"}},{"base_weights":[-8.902509E-3,-8.656565E-2,7.820792E-3,-7.756393E-3,-1.4156811E-1,-2.8714461E-2,4.3861233E-2,-3.3119824E-2,-9.7243525E-2,-1.5955253E-1,6.713372E-2,-2.2858508E-2,6.520829E-2,1.5333464E-2,-5.1017683E-2,-3.4249716E-2,-2.588409E-1,-2.1139922E-2,3.3765674E-2,2.8466327E-2,-4.4366572E-2,-0E0,-1.0676967E-1],"categories":[],"categories_nodes":[],"categories_segments":[],"categories_sizes":[],"default_left":[0,0,0,0,0,0,1,0,0,1,1,0,0,0,0,0,0,0,0,0,0,0,0],"id":2,"left_children":[1,3,5,-1,7,9,11,13,-1,15,17,-1,19,-1,-1,-1,21,-1,-1,-1,-1,-1,-1],"loss_changes":[2.655866E1,1.0917391E1,2.1491936E1,0E0,1.8927773E1,1.006754E2,1.8837036E1,9.801172E0,0E0,1.726242E1,1.3040541E1,0E0,1.2816744E1,0E0,0E0,0E0,8.917389E0,0E0,0E0,0E0,0E0,0E0,0E0],"parents":[2147483647,0,0,1,1,2,2,4,4,5,5,6,6,7,7,9,9,10,10,12,12,16,16],"right_children":[2,4,6,-1,8,10,12,14,-1,16,18,-1,20,-1,-1,-1,22,-1,-1,-1,-1,-1,-1],"split_conditions":[2.0715456E0,-6.0255307E-1,1E0,-7.756393E-3,8.424353E-1,1E0,-3.8011627E0,7.060548E-2,-9.7243525E-2,1.57689905E1,4.680419E1,-2.2858508E-2,1E0,1.5333464E-2,-5.1017683E-2,-3.4249716E-2,-1.2419394E0,-2.1139922E-2,3.3765674E-2,2.8466327E-2,-4.4366572E-2,-0E0,-1.0676967E-1],"split_indices":[11,7,15,0,6,13,9,7,0,9,10,0,13,0,0,0,7,0,0,0,0,0,0],"split_type":[0,0,0,0,0,0,0,0,0,0,0,0,0,0,0,0,0,0,0,0,0,0,0],"sum_hessian":[1.9575314E4,3.54502E3,1.6030294E4,1.7604283E3,1.7845916E3,7.7957124E3,8.234581E3,1.0244395E3,7.601521E2,3.3301816E3,4.465531E3,1.2773875E3,6.957194E3,5.487109E2,4.7572864E2,2.1217703E3,1.2084115E3,5.725459E2,3.8929849E3,6.706305E3,2.5088885E2,8.735606E1,1.1210554E3],"tree_param":{"num_deleted":"0","num_feature":"17","num_nodes":"23","size_leaf_vector":"1"}},{"base_weights":[-7.1540293E-3,2.4162715E-2,-3.781216E-2,3.2026593E-2,1.0007133E-4,-6.7971055E-3,-1.2173781E-1,-6.288132E-2,3.0306192E-2,1.7961044E-2,-1.1552596E-2,-1.7611085E-1,-3.8365826E-2,-3.732328E-2,6.593706E-3,5.425903E-2,-1.0395312E-1,-0E0,-7.778725E-2,5.0717704E-3,-5.265449E-2,2.6732331E-2,-2.6536327E-2,-0E0,-6.9890395E-2],"categories":[],"categories_nodes":[],"categories_segments":[],"categories_sizes":[],"default_left":[0,1,0,0,1,0,0,0,0,0,0,0,0,0,0,0,0,0,0,0,0,0,0,0,0],"id":3,"left_children":[1,3,5,-1,7,9,11,13,15,-1,-1,17,19,-1,-1,21,23,-1,-1,-1,-1,-1,-1,-1,-1],"loss_changes":[1.9063072E1,1.2793722E1,2.4718369E1,0E0,1.31401E1,9.637704E0,8.693359E0,7.3542233E0,1.5713447E1,0E0,0E0,8.711941E0,8.07177E0,0E0,0E0,9.125062E0,7.9168296E0,0E0,0E0,0E0,0E0,0E0,0E0,0E0,0E0],"parents":[2147483647,0,0,1,1,2,2,4,4,5,5,6,6,7,7,8,8,11,11,12,12,15,15,16,16],"right_children":[2,4,6,-1,8,10,12,14,16,-1,-1,18,20,-1,-1,22,24,-1,-1,-1,-1,-1,-1,-1,-1],"split_conditions":[-3.302852E-1,6.1195803E0,1.9434948E1,3.2026593E-2,4.537678E0,4.2626423E-1,1.4857142E1,2.1466282E-1,3.5855377E1,1.7961044E-2,-1.1552596E-2,-3.8541982E-1,1E0,-3.732328E-2,6.593706E-3,7.081853E0,-2.6582304E-1,-0E0,-7.778725E-2,5.0717704E-3,-5.265449E-2,2.6732331E-2,-2.6536327E-2,-0E0,-6.9890395E-2],"split_indices":[7,3,9,0,9,1,11,5,9,0,0,5,16,0,0,3,5,0,0,0,0,0,0,0,0],"split_type":[0,0,0,0,0,0,0,0,0,0,0,0,0,0,0,0,0,0,0,0,0,0,0,0,0],"sum_hessian":[1.9529746E4,9.467113E3,1.0062633E4,2.497006E3,6.970107E3,7.5158574E3,2.5467761E3,2.0985554E3,4.871552E3,2.102144E3,5.4137134E3,1.3997794E3,1.1469966E3,1.5501719E3,5.483834E2,4.251293E3,6.2025867E2,1.8194144E2,1.217838E3,7.183328E2,4.286638E2,3.877157E3,3.7413608E2,2.4175798E2,3.7850067E2],"tree_param":{"num_deleted":"0","num_feature":"17","num_nodes":"25","size_leaf_vector":"1"}},{"base_weights":[9.878841E-3],"categories":[],"categories_nodes":[],"categories_segments":[],"categories_sizes":[],"default_left":[0],"id":4,"left_children":[-1],"loss_changes":[0E0],"parents":[2147483647],"right_children":[-1],"split_conditions":[3.7445684E-3],"split_indices":[0],"split_type":[0],"sum_hessian":[1.9557531E4],"tree_param":{"num_deleted":"0","num_feature":"17","num_nodes":"1","size_leaf_vector":"1"}},{"base_weights":[7.7782635E-4,8.619241E-2,-7.2982097E-3,4.9388144E-2,-5.9948093E-3,7.787737E-3,-7.3254816E-2,2.0463837E-2,-1.1213938E-3,-4.145634E-2,-1.9448139E-1,-2.9322594E-2,1.1566983E-2,-9.082321E-2,-0E0],"categories":[],"categories_nodes":[],"categories_segments":[],"categories_sizes":[],"default_left":[0,0,0,0,0,1,0,0,0,0,1,0,0,0,0],"id":5,"left_children":[1,3,5,-1,-1,7,9,-1,-1,11,13,-1,-1,-1,-1],"loss_changes":[1.4567906E1,9.840973E0,1.863305E1,0E0,0E0,7.8240824E0,9.877571E0,0E0,0E0,8.360029E0,7.0945015E0,0E0,0E0,0E0,0E0],"parents":[2147483647,0,0,1,1,2,2,5,5,6,6,9,9,10,10],"right_children":[2,4,6,-1,-1,8,10,-1,-1,12,14,-1,-1,-1,-1],"split_conditions":[8.180844E-1,1.1136894E0,1.4234284E-1,4.9388144E-2,-5.9948093E-3,9.734371E-1,2.0138083E1,2.0463837E-2,-1.1213938E-3,8.7948845E1,6.9499927E0,-2.9322594E-2,1.1566983E-2,-9.082321E-2,-0E0],"split_indices":[6,4,7,0,0,4,9,0,0,10,3,0,0,0,0],"split_type":[0,0,0,0,0,0,0,0,0,0,0,0,0,0,0],"sum_hessian":[1.9543176E4,1.7589409E3,1.7784234E4,1.2990349E3,4.5990598E2,1.4373537E4,3.4106978E3,2.874802E3,1.1498735E4,2.8640212E3,5.4667676E2,2.0230614E3,8.409597E2,4.579533E2,8.8723434E1],"tree_param":{"num_deleted":"0","num_feature":"17","num_nodes":"15","size_leaf_vector":"1"}},{"base_weights":[7.536938E-4,-2.4276286E-2,1.2023746E-2,-8.4280865E-3,3.2348912E-2,-7.4869305E-2,3.9183863E-2,1.565444E-2,-4.7137704E-2,4.264538E-2,-4.794435E-2,5.9553914E-2,-1.6045412E-2,-0E0,9.479014E-2,-2.846235E-2,4.3451075E-2],"categories":[],"categories_nodes":[],"categories_segments":[],"categories_sizes":[],"default_left":[1,0,0,0,0,0,0,0,0,0,0,0,0,0,0,0,0],"id":6,"left_children":[1,-1,3,5,7,9,11,-1,-1,-1,-1,13,-1,-1,15,-1,-1],"loss_changes":[1.36645E1,0E0,7.327773E0,2.6469152E1,1.166023E1,3.5491875E1,8.195415E0,0E0,0E0,0E0,0E0,8.367146E0,0E0,0E0,9.482525E0,0E0,0E0],"parents":[2147483647,0,0,2,2,3,3,4,4,5,5,6,6,11,11,14,14],"right_children":[2,-1,4,6,8,10,12,-1,-1,-1,-1,14,-1,-1,16,-1,-1],"split_conditions":[1.295E3,-2.4276286E-2,1E0,1E0,1E0,5.6137302E1,2.2005776E-1,1.565444E-2,-4.7137704E-2,4.264538E-2,-4.794435E-2,1.98547E1,-1.6045412E-2,-0E0,-1.2796078E0,-2.846235E-2,4.3451075E-2],"split_indices":[8,0,15,13,13,10,7,0,0,0,0,11,0,0,7,0,0],"split_type":[0,0,0,0,0,0,0,0,0,0,0,0,0,0,0,0,0],"sum_hessian":[1.9447326E4,2.6643408E3,1.6782984E4,8.0805996E3,8.702386E3,3.4649397E3,4.6156597E3,8.3603545E3,3.4203058E2,6.767436E2,2.788196E3,3.8319326E3,7.837272E2,1.4338711E3,2.3980615E3,1.6284892E2,2.2352126E3],"tree_param":{"num_deleted":"0","num_feature":"17","num_nodes":"17","size_leaf_vector":"1"}},{"base_weights":[-3.8910105E-3,2.0996865E-2,-1.3907936E-2,-6.434794E-2,-3.5094544E-3],"categories":[],"categories_nodes":[],"categories_segments":[],"categories_sizes":[],"default_left":[0,0,0,0,0],"id":7,"left_children":[1,-1,3,-1,-1],"loss_changes":[1.1149794E1,0E0,9.935534E0,0E0,0E0],"parents":[2147483647,0,0,2,2],"right_children":[2,-1,4,-1,-1],"split_conditions":[8.369398E-1,2.0996865E-2,-1.9411726E1,-6.434794E-2,-3.5094544E-3],"split_indices":[6,0,11,0,0],"split_type":[0,0,0,0,0],"sum_hessian":[1.9476117E4,2.5850955E3,1.6891021E4,3.3363525E2,1.6557387E4],"tree_param":{"num_deleted":"0","num_feature":"17","num_nodes":"5","size_leaf_vector":"1"}},{"base_weights":[-1.0766339E-2],"categories":[],"categories_nodes":[],"categories_segments":[],"categories_sizes":[],"default_left":[0],"id":8,"left_children":[-1],"loss_changes":[0E0],"parents":[2147483647],"right_children":[-1],"split_conditions":[-4.0809736E-3],"split_indices":[0],"split_type":[0],"sum_hessian":[1.9452316E4],"tree_param":{"num_deleted":"0","num_feature":"17","num_nodes":"1","size_leaf_vector":"1"}},{"base_weights":[-1.2365786E-3],"categories":[],"categories_nodes":[],"categories_segments":[],"categories_sizes":[],"default_left":[0],"id":9,"left_children":[-1],"loss_changes":[0E0],"parents":[2147483647],"right_children":[-1],"split_conditions":[-4.6872432E-4],"split_indices":[0],"split_type":[0],"sum_hessian":[1.9533463E4],"tree_param":{"num_deleted":"0","num_feature":"17","num_nodes":"1","size_leaf_vector":"1"}},{"base_weights":[6.615866E-3,-2.6095254E-2,2.0969179E-2,1.8187787E-3,-7.877132E-2,1.1503732E-2,-1.4441592E-2,-2.2722732E-3,-1.54598E-1,-0E0,-7.734432E-2],"categories":[],"categories_nodes":[],"categories_segments":[],"categories_sizes":[],"default_left":[0,0,0,0,0,0,0,0,1,0,0],"id":10,"left_children":[1,3,5,-1,7,-1,-1,-1,9,-1,-1],"loss_changes":[9.162287E0,1.0285309E1,7.6941714E0,0E0,1.0468077E1,0E0,0E0,0E0,8.973282E0,0E0,0E0],"parents":[2147483647,0,0,1,1,2,2,4,4,8,8],"right_children":[2,4,6,-1,8,-1,-1,-1,10,-1,-1],"split_conditions":[1.0457105E1,-3.6266118E-1,4.5790336E-1,1.8187787E-3,8.4118897E-1,1.1503732E-2,-1.4441592E-2,-2.2722732E-3,9.839828E-1,-0E0,-7.734432E-2],"split_indices":[11,7,7,0,6,0,0,0,4,0,0],"split_type":[0,0,0,0,0,0,0,0,0,0,0],"sum_hessian":[1.9487516E4,5.6584272E3,1.3829089E4,3.4601921E3,2.198235E3,1.2148537E4,1.6805513E3,1.2474647E3,9.5077026E2,2.2164177E2,7.291285E2],"tree_param":{"num_deleted":"0","num_feature":"17","num_nodes":"11","size_leaf_vector":"1"}},{"base_weights":[-2.5000892E-4,-2.3848338E-2,1.9791897E-3],"categories":[],"categories_nodes":[],"categories_segments":[],"categories_sizes":[],"default_left":[1,0,0],"id":11,"left_children":[1,-1,-1],"loss_changes":[7.43743E0,0E0,0E0],"parents":[2147483647,0,0],"right_children":[2,-1,-1],"split_conditions":[1.146E3,-2.3848338E-2,1.9791897E-3],"split_indices":[8,0,0],"split_type":[0,0,0],"sum_hessian":[1.9437924E4,1.6808368E3,1.7757088E4],"tree_param":{"num_deleted":"0","num_feature":"17","num_nodes":"3","size_leaf_vector":"1"}},{"base_weights":[2.9302293E-3,2.4453219E-2,-5.3541795E-3,6.284121E-2,-0E0,2.1413418E-3,1.0827232E-1,-1.9676793E-2,3.1230006E-2,5.6095924E-2,-0E0,2.571645E-2,-1.0950983E-2],"categories":[],"categories_nodes":[],"categories_segments":[],"categories_sizes":[],"default_left":[0,0,0,0,0,0,0,0,1,0,0,0,0],"id":12,"left_children":[1,3,-1,5,7,-1,9,-1,11,-1,-1,-1,-1],"loss_changes":[7.3304863E0,7.9209995E0,0E0,7.2783203E0,9.193789E0,0E0,9.088972E0,0E0,8.794925E0,0E0,0E0,0E0,0E0],"parents":[2147483647,0,0,1,1,3,3,4,4,6,6,8,8],"right_children":[2,4,-1,6,8,-1,10,-1,12,-1,-1,-1,-1],"split_conditions":[9.057255E-1,-1.8023959E-1,-5.3541795E-3,1E0,7.930726E1,2.1413418E-3,-2.1643619E-1,-1.9676793E-2,1.4874984E1,5.6095924E-2,-0E0,2.571645E-2,-1.0950983E-2],"split_indices":[6,7,0,15,12,0,5,0,9,0,0,0,0],"split_type":[0,0,0,0,0,0,0,0,0,0,0,0,0],"sum_hessian":[1.9470775E4,8.917874E3,1.0552901E4,3.2920693E3,5.6258047E3,1.6169188E3,1.6751505E3,1.9946637E3,3.631141E3,1.2765347E3,3.9861584E2,2.3800647E3,1.2510765E3],"tree_param":{"num_deleted":"0","num_feature":"17","num_nodes":"13","size_leaf_vector":"1"}},{"base_weights":[-9.018917E-3],"categories":[],"categories_nodes":[],"categories_segments":[],"categories_sizes":[],"default_left":[0],"id":13,"left_children":[-1],"loss_changes":[0E0],"parents":[2147483647],"right_children":[-1],"split_conditions":[-3.4186146E-3],"split_indices":[0],"split_type":[0],"sum_hessian":[1.9460564E4],"tree_param":{"num_deleted":"0","num_feature":"17","num_nodes":"1","size_leaf_vector":"1"}},{"base_weights":[7.4422304E-3,5.0593573E-3,-2.723953E-2],"categories":[],"categories_nodes":[],"categories_segments":[],"categories_sizes":[],"default_left":[1,0,0],"id":14,"left_children":[1,-1,-1],"loss_changes":[8.49112E0,0E0,0E0],"parents":[2147483647,0,0],"right_children":[2,-1,-1],"split_conditions":[3.5855377E1,5.0593573E-3,-2.723953E-2],"split_indices":[9,0,0],"split_type":[0,0,0],"sum_hessian":[1.9464406E4,1.832079E4,1.1436177E3],"tree_param":{"num_deleted":"0","num_feature":"17","num_nodes":"3","size_leaf_vector":"1"}},{"base_weights":[-2.1215972E-4,2.420319E-2,-2.824728E-3],"categories":[],"categories_nodes":[],"categories_segments":[],"categories_sizes":[],"default_left":[0,0,0],"id":15,"left_children":[1,-1,-1],"loss_changes":[8.413305E0,0E0,0E0],"parents":[2147483647,0,0],"right_children":[2,-1,-1],"split_conditions":[8.180844E-1,2.420319E-2,-2.824728E-3],"split_indices":[6,0,0],"split_type":[0,0,0],"sum_hessian":[1.9507475E4,1.7452626E3,1.7762213E4],"tree_param":{"num_deleted":"0","num_feature":"17","num_nodes":"3","size_leaf_vector":"1"}},{"base_weights":[-5.143005E-3,-4.1066233E-2,-0E0],"categories":[],"categories_nodes":[],"categories_segments":[],"categories_sizes":[],"default_left":[0,0,0],"id":16,"left_children":[1,-1,-1],"loss_changes":[9.333242E0,0E0,0E0],"parents":[2147483647,0,0],"right_children":[2,-1,-1],"split_conditions":[-1.8244335E1,-4.1066233E-2,-0E0],"split_indices":[11,0,0],"split_type":[0,0,0],"sum_hessian":[1.9445951E4,7.636247E2,1.8682326E4],"tree_param":{"num_deleted":"0","num_feature":"17","num_nodes":"3","size_leaf_vector":"1"}},{"base_weights":[-6.0736234E-3],"categories":[],"categories_nodes":[],"categories_segments":[],"categories_sizes":[],"default_left":[0],"id":17,"left_children":[-1],"loss_changes":[0E0],"parents":[2147483647],"right_children":[-1],"split_conditions":[-2.302203E-3],"split_indices":[0],"split_type":[0],"sum_hessian":[1.946793E4],"tree_param":{"num_deleted":"0","num_feature":"17","num_nodes":"1","size_leaf_vector":"1"}},{"base_weights":[1.1811561E-3],"categories":[],"categories_nodes":[],"categories_segments":[],"categories_sizes":[],"default_left":[0],"id":18,"left_children":[-1],"loss_changes":[0E0],"parents":[2147483647],"right_children":[-1],"split_conditions":[4.4771648E-4],"split_indices":[0],"split_type":[0],"sum_hessian":[1.9453492E4],"tree_param":{"num_deleted":"0","num_feature":"17","num_nodes":"1","size_leaf_vector":"1"}},{"base_weights":[1.336515E-3,1.7052213E-2,-3.3710503E-3],"categories":[],"categories_nodes":[],"categories_segments":[],"categories_sizes":[],"default_left":[0,0,0],"id":19,"left_children":[1,-1,-1],"loss_changes":[9.220472E0,0E0,0E0],"parents":[2147483647,0,0],"right_children":[2,-1,-1],"split_conditions":[-8.706291E-1,1.7052213E-2,-3.3710503E-3],"split_indices":[7,0,0],"split_type":[0,0,0],"sum_hessian":[1.9494104E4,3.884756E3,1.5609347E4],"tree_param":{"num_deleted":"0","num_feature":"17","num_nodes":"3","size_leaf_vector":"1"}},{"base_weights":[8.36606E-4,1.5629202E-2,-1.6706359E-2,8.328973E-3,-3.2957822E-2],"categories":[],"categories_nodes":[],"categories_segments":[],"categories_sizes":[],"default_left":[0,0,0,0,0],"id":20,"left_children":[1,3,-1,-1,-1],"loss_changes":[1.2676777E1,9.068783E0,0E0,0E0,0E0],"parents":[2147483647,0,0,1,1],"right_children":[2,4,-1,-1,-1],"split_conditions":[1.4234284E-1,6.055617E1,-1.6706359E-2,8.328973E-3,-3.2957822E-2],"split_indices":[7,11,0,0,0],"split_type":[0,0,0,0,0],"sum_hessian":[1.94634E4,1.488763E4,4.5757695E3,1.4191276E4,6.963542E2],"tree_param":{"num_deleted":"0","num_feature":"17","num_nodes":"5","size_leaf_vector":"1"}},{"base_weights":[-0E0],"categories":[],"categories_nodes":[],"categories_segments":[],"categories_sizes":[],"default_left":[0],"id":21,"left_children":[-1],"loss_changes":[0E0],"parents":[2147483647],"right_children":[-1],"split_conditions":[-0E0],"split_indices":[0],"split_type":[0],"sum_hessian":[1.9454334E4],"tree_param":{"num_deleted":"0","num_feature":"17","num_nodes":"1","size_leaf_vector":"1"}},{"base_weights":[1.7631127E-4],"categories":[],"categories_nodes":[],"categories_segments":[],"categories_sizes":[],"default_left":[0],"id":22,"left_children":[-1],"loss_changes":[0E0],"parents":[2147483647],"right_children":[-1],"split_conditions":[6.6830675E-5],"split_indices":[0],"split_type":[0],"sum_hessian":[1.9447445E4],"tree_param":{"num_deleted":"0","num_feature":"17","num_nodes":"1","size_leaf_vector":"1"}},{"base_weights":[1.6753412E-3],"categories":[],"categories_nodes":[],"categories_segments":[],"categories_sizes":[],"default_left":[0],"id":23,"left_children":[-1],"loss_changes":[0E0],"parents":[2147483647],"right_children":[-1],"split_conditions":[6.35037E-4],"split_indices":[0],"split_type":[0],"sum_hessian":[1.9490963E4],"tree_param":{"num_deleted":"0","num_feature":"17","num_nodes":"1","size_leaf_vector":"1"}},{"base_weights":[-7.4097835E-3,-1.0901945E-2,3.7093582E-3],"categories":[],"categories_nodes":[],"categories_segments":[],"categories_sizes":[],"default_left":[0,0,0],"id":24,"left_children":[1,-1,-1],"loss_changes":[7.44699E0,0E0,0E0],"parents":[2147483647,0,0],"right_children":[2,-1,-1],"split_conditions":[2.1521608E1,-1.0901945E-2,3.7093582E-3],"split_indices":[11,0,0],"split_type":[0,0,0],"sum_hessian":[1.950286E4,9.002083E3,1.0500776E4],"tree_param":{"num_deleted":"0","num_feature":"17","num_nodes":"3","size_leaf_vector":"1"}},{"base_weights":[-3.7719365E-3,1.7658494E-2,-4.898319E-3],"categories":[],"categories_nodes":[],"categories_segments":[],"categories_sizes":[],"default_left":[0,0,0],"id":25,"left_children":[1,-1,-1],"loss_changes":[8.62524E0,0E0,0E0],"parents":[2147483647,0,0],"right_children":[2,-1,-1],"split_conditions":[8.398981E-1,1.7658494E-2,-4.898319E-3],"split_indices":[6,0,0],"split_type":[0,0,0],"sum_hessian":[1.9457346E4,2.734182E3,1.6723164E4],"tree_param":{"num_deleted":"0","num_feature":"17","num_nodes":"3","size_leaf_vector":"1"}},{"base_weights":[-1.4567357E-3,-1.9733096E-2,5.7531E-3,5.842463E-3,-4.3833494E-2,-1.1594417E-1,1.9363798E-3,-6.985541E-2,-0E0],"categories":[],"categories_nodes":[],"categories_segments":[],"categories_sizes":[],"default_left":[1,0,0,0,0,0,0,0,0],"id":26,"left_children":[1,-1,3,-1,5,7,-1,-1,-1],"loss_changes":[7.717866E0,0E0,7.802084E0,0E0,1.049412E1,9.6360655E0,0E0,0E0,0E0],"parents":[2147483647,0,0,2,2,4,4,5,5],"right_children":[2,-1,4,-1,6,8,-1,-1,-1],"split_conditions":[-6.068877E0,-1.9733096E-2,9.177308E1,5.842463E-3,1E0,1.18609406E-1,1.9363798E-3,-6.985541E-2,-0E0],"split_indices":[9,0,10,0,15,5,0,0,0],"split_type":[0,0,0,0,0,0,0,0,0],"sum_hessian":[1.9428566E4,2.580796E3,1.6847771E4,1.4355463E4,2.4923088E3,1.0692128E3,1.423096E3,6.612963E2,4.0791644E2],"tree_param":{"num_deleted":"0","num_feature":"17","num_nodes":"9","size_leaf_vector":"1"}},{"base_weights":[-1.051683E-3,-2.6784606E-2,1.3460747E-3],"categories":[],"categories_nodes":[],"categories_segments":[],"categories_sizes":[],"default_left":[0,0,0],"id":27,"left_children":[1,-1,-1],"loss_changes":[7.1100974E0,0E0,0E0],"parents":[2147483647,0,0],"right_children":[2,-1,-1],"split_conditions":[-1.1927478E1,-2.6784606E-2,1.3460747E-3],"split_indices":[11,0,0],"split_type":[0,0,0],"sum_hessian":[1.9435068E4,1.3067756E3,1.8128293E4],"tree_param":{"num_deleted":"0","num_feature":"17","num_nodes":"3","size_leaf_vector":"1"}},{"base_weights":[3.764575E-3],"categories":[],"categories_nodes":[],"categories_segments":[],"categories_sizes":[],"default_left":[0],"id":28,"left_children":[-1],"loss_changes":[0E0],"parents":[2147483647],"right_children":[-1],"split_conditions":[1.4269598E-3],"split_indices":[0],"split_type":[0],"sum_hessian":[1.9422898E4],"tree_param":{"num_deleted":"0","num_feature":"17","num_nodes":"1","size_leaf_vector":"1"}},{"base_weights":[-0E0],"categories":[],"categories_nodes":[],"categories_segments":[],"categories_sizes":[],"default_left":[0],"id":29,"left_children":[-1],"loss_changes":[0E0],"parents":[2147483647],"right_children":[-1],"split_conditions":[-0E0],"split_indices":[0],"split_type":[0],"sum_hessian":[1.9465158E4],"tree_param":{"num_deleted":"0","num_feature":"17","num_nodes":"1","size_leaf_vector":"1"}},{"base_weights":[-1.7222505E-3],"categories":[],"categories_nodes":[],"categories_segments":[],"categories_sizes":[],"default_left":[0],"id":30,"left_children":[-1],"loss_changes":[0E0],"parents":[2147483647],"right_children":[-1],"split_conditions":[-6.5281795E-4],"split_indices":[0],"split_type":[0],"sum_hessian":[1.944871E4],"tree_param":{"num_deleted":"0","num_feature":"17","num_nodes":"1","size_leaf_vector":"1"}},{"base_weights":[7.367838E-3],"categories":[],"categories_nodes":[],"categories_segments":[],"categories_sizes":[],"default_left":[0],"id":31,"left_children":[-1],"loss_changes":[0E0],"parents":[2147483647],"right_children":[-1],"split_conditions":[2.7927742E-3],"split_indices":[0],"split_type":[0],"sum_hessian":[1.9462729E4],"tree_param":{"num_deleted":"0","num_feature":"17","num_nodes":"1","size_leaf_vector":"1"}},{"base_weights":[1.589248E-3],"categories":[],"categories_nodes":[],"categories_segments":[],"categories_sizes":[],"default_left":[0],"id":32,"left_children":[-1],"loss_changes":[0E0],"parents":[2147483647],"right_children":[-1],"split_conditions":[6.024034E-4],"split_indices":[0],"split_type":[0],"sum_hessian":[1.9471855E4],"tree_param":{"num_deleted":"0","num_feature":"17","num_nodes":"1","size_leaf_vector":"1"}},{"base_weights":[-2.4704722E-4],"categories":[],"categories_nodes":[],"categories_segments":[],"categories_sizes":[],"default_left":[0],"id":33,"left_children":[-1],"loss_changes":[0E0],"parents":[2147483647],"right_children":[-1],"split_conditions":[-9.3643095E-5],"split_indices":[0],"split_type":[0],"sum_hessian":[1.9454469E4],"tree_param":{"num_deleted":"0","num_feature":"17","num_nodes":"1","size_leaf_vector":"1"}},{"base_weights":[4.2784866E-4],"categories":[],"categories_nodes":[],"categories_segments":[],"categories_sizes":[],"default_left":[0],"id":34,"left_children":[-1],"loss_changes":[0E0],"parents":[2147483647],"right_children":[-1],"split_conditions":[1.6217575E-4],"split_indices":[0],"split_type":[0],"sum_hessian":[1.9477588E4],"tree_param":{"num_deleted":"0","num_feature":"17","num_nodes":"1","size_leaf_vector":"1"}},{"base_weights":[6.424602E-3],"categories":[],"categories_nodes":[],"categories_segments":[],"categories_sizes":[],"default_left":[0],"id":35,"left_children":[-1],"loss_changes":[0E0],"parents":[2147483647],"right_children":[-1],"split_conditions":[2.4352414E-3],"split_indices":[0],"split_type":[0],"sum_hessian":[1.9371223E4],"tree_param":{"num_deleted":"0","num_feature":"17","num_nodes":"1","size_leaf_vector":"1"}},{"base_weights":[-1.107766E-2],"categories":[],"categories_nodes":[],"categories_segments":[],"categories_sizes":[],"default_left":[0],"id":36,"left_children":[-1],"loss_changes":[0E0],"parents":[2147483647],"right_children":[-1],"split_conditions":[-4.19898E-3],"split_indices":[0],"split_type":[0],"sum_hessian":[1.9444295E4],"tree_param":{"num_deleted":"0","num_feature":"17","num_nodes":"1","size_leaf_vector":"1"}},{"base_weights":[1.9132299E-3],"categories":[],"categories_nodes":[],"categories_segments":[],"categories_sizes":[],"default_left":[0],"id":37,"left_children":[-1],"loss_changes":[0E0],"parents":[2147483647],"right_children":[-1],"split_conditions":[7.252086E-4],"split_indices":[0],"split_type":[0],"sum_hessian":[1.9399262E4],"tree_param":{"num_deleted":"0","num_feature":"17","num_nodes":"1","size_leaf_vector":"1"}},{"base_weights":[-1.1323327E-3],"categories":[],"categories_nodes":[],"categories_segments":[],"categories_sizes":[],"default_left":[0],"id":38,"left_children":[-1],"loss_changes":[0E0],"parents":[2147483647],"right_children":[-1],"split_conditions":[-4.2921E-4],"split_indices":[0],"split_type":[0],"sum_hessian":[1.9513086E4],"tree_param":{"num_deleted":"0","num_feature":"17","num_nodes":"1","size_leaf_vector":"1"}},{"base_weights":[-6.1322623E-3],"categories":[],"categories_nodes":[],"categories_segments":[],"categories_sizes":[],"default_left":[0],"id":39,"left_children":[-1],"loss_changes":[0E0],"parents":[2147483647],"right_children":[-1],"split_conditions":[-2.32443E-3],"split_indices":[0],"split_type":[0],"sum_hessian":[1.9465887E4],"tree_param":{"num_deleted":"0","num_feature":"17","num_nodes":"1","size_leaf_vector":"1"}},{"base_weights":[1.9678753E-3],"categories":[],"categories_nodes":[],"categories_segments":[],"categories_sizes":[],"default_left":[0],"id":40,"left_children":[-1],"loss_changes":[0E0],"parents":[2147483647],"right_children":[-1],"split_conditions":[7.4592186E-4],"split_indices":[0],"split_type":[0],"sum_hessian":[1.9552787E4],"tree_param":{"num_deleted":"0","num_feature":"17","num_nodes":"1","size_leaf_vector":"1"}},{"base_weights":[5.2244584E-3],"categories":[],"categories_nodes":[],"categories_segments":[],"categories_sizes":[],"default_left":[0],"id":41,"left_children":[-1],"loss_changes":[0E0],"parents":[2147483647],"right_children":[-1],"split_conditions":[1.9803275E-3],"split_indices":[0],"split_type":[0],"sum_hessian":[1.9468912E4],"tree_param":{"num_deleted":"0","num_feature":"17","num_nodes":"1","size_leaf_vector":"1"}},{"base_weights":[2.7295784E-3],"categories":[],"categories_nodes":[],"categories_segments":[],"categories_sizes":[],"default_left":[0],"id":42,"left_children":[-1],"loss_changes":[0E0],"parents":[2147483647],"right_children":[-1],"split_conditions":[1.0346449E-3],"split_indices":[0],"split_type":[0],"sum_hessian":[1.9445596E4],"tree_param":{"num_deleted":"0","num_feature":"17","num_nodes":"1","size_leaf_vector":"1"}},{"base_weights":[2.9552197E-5],"categories":[],"categories_nodes":[],"categories_segments":[],"categories_sizes":[],"default_left":[0],"id":43,"left_children":[-1],"loss_changes":[0E0],"parents":[2147483647],"right_children":[-1],"split_conditions":[1.12017415E-5],"split_indices":[0],"split_type":[0],"sum_hessian":[1.9492305E4],"tree_param":{"num_deleted":"0","num_feature":"17","num_nodes":"1","size_leaf_vector":"1"}},{"base_weights":[-0E0],"categories":[],"categories_nodes":[],"categories_segments":[],"categories_sizes":[],"default_left":[0],"id":44,"left_children":[-1],"loss_changes":[0E0],"parents":[2147483647],"right_children":[-1],"split_conditions":[-0E0],"split_indices":[0],"split_type":[0],"sum_hessian":[1.9417162E4],"tree_param":{"num_deleted":"0","num_feature":"17","num_nodes":"1","size_leaf_vector":"1"}},{"base_weights":[-0E0],"categories":[],"categories_nodes":[],"categories_segments":[],"categories_sizes":[],"default_left":[0],"id":45,"left_children":[-1],"loss_changes":[0E0],"parents":[2147483647],"right_children":[-1],"split_conditions":[-0E0],"split_indices":[0],"split_type":[0],"sum_hessian":[1.9430178E4],"tree_param":{"num_deleted":"0","num_feature":"17","num_nodes":"1","size_leaf_vector":"1"}},{"base_weights":[-0E0,2.1460453E-2,-1.819145E-2,-9.503504E-3,1.5598832E-2,-4.0527016E-2,3.0215384E-2,-1.6380994E-2,-3.7895743E-2,-1.3091209E-2,2.4204075E-2,2.7872655E-3,-2.440459E-2],"categories":[],"categories_nodes":[],"categories_segments":[],"categories_sizes":[],"default_left":[0,1,0,0,0,0,0,0,0,0,0,0,0],"id":46,"left_children":[1,3,5,-1,-1,7,9,11,-1,-1,-1,-1,-1],"loss_changes":[7.678318E0,8.535017E0,1.1750728E1,0E0,0E0,9.194522E0,7.5759478E0,7.104187E0,0E0,0E0,0E0,0E0,0E0],"parents":[2147483647,0,0,1,1,2,2,5,5,6,6,7,7],"right_children":[2,4,6,-1,-1,8,10,12,-1,-1,-1,-1,-1],"split_conditions":[4.3626636E-1,9.9283624E-1,2.1466282E-1,-9.503504E-3,1.5598832E-2,8.676937E1,4.449207E-1,1.6236006E1,-3.7895743E-2,-1.3091209E-2,2.4204075E-2,2.7872655E-3,-2.440459E-2],"split_indices":[1,4,5,0,0,12,1,9,0,0,0,0,0],"split_type":[0,0,0,0,0,0,0,0,0,0,0,0,0],"sum_hessian":[1.952219E4,8.934307E3,1.0587884E4,2.4615623E3,6.4727446E3,7.430253E3,3.1576301E3,5.502249E3,1.9280039E3,9.517045E2,2.2059258E3,3.5501897E3,1.9520594E3],"tree_param":{"num_deleted":"0","num_feature":"17","num_nodes":"13","size_leaf_vector":"1"}},{"base_weights":[-0E0],"categories":[],"categories_nodes":[],"categories_segments":[],"categories_sizes":[],"default_left":[0],"id":47,"left_children":[-1],"loss_changes":[0E0],"parents":[2147483647],"right_children":[-1],"split_conditions":[-0E0],"split_indices":[0],"split_type":[0],"sum_hessian":[1.942966E4],"tree_param":{"num_deleted":"0","num_feature":"17","num_nodes":"1","size_leaf_vector":"1"}},{"base_weights":[1.4235548E-4,1.2813862E-2,-1.355211E-2,2.7224945E-2,1.294916E-3],"categories":[],"categories_nodes":[],"categories_segments":[],"categories_sizes":[],"default_left":[0,0,0,0,0],"id":48,"left_children":[1,3,-1,-1,-1],"loss_changes":[8.623656E0,7.2120795E0,0E0,0E0,0E0],"parents":[2147483647,0,0,1,1],"right_children":[2,4,-1,-1,-1],"split_conditions":[4.508584E-1,-8.706291E-1,-1.355211E-2,2.7224945E-2,1.294916E-3],"split_indices":[1,7,0,0,0],"split_type":[0,0,0,0,0],"sum_hessian":[1.943893E4,1.4660674E4,4.778256E3,1.7621903E3,1.2898483E4],"tree_param":{"num_deleted":"0","num_feature":"17","num_nodes":"5","size_leaf_vector":"1"}},{"base_weights":[4.8229024E-3],"categories":[],"categories_nodes":[],"categories_segments":[],"categories_sizes":[],"default_left":[0],"id":49,"left_children":[-1],"loss_changes":[0E0],"parents":[2147483647],"right_children":[-1],"split_conditions":[1.8281181E-3],"split_indices":[0],"split_type":[0],"sum_hessian":[1.9475043E4],"tree_param":{"num_deleted":"0","num_feature":"17","num_nodes":"1","size_leaf_vector":"1"}},{"base_weights":[-0E0],"categories":[],"categories_nodes":[],"categories_segments":[],"categories_sizes":[],"default_left":[0],"id":50,"left_children":[-1],"loss_changes":[0E0],"parents":[2147483647],"right_children":[-1],"split_conditions":[-0E0],"split_indices":[0],"split_type":[0],"sum_hessian":[1.9460424E4],"tree_param":{"num_deleted":"0","num_feature":"17","num_nodes":"1","size_leaf_vector":"1"}},{"base_weights":[-5.049048E-3],"categories":[],"categories_nodes":[],"categories_segments":[],"categories_sizes":[],"default_left":[0],"id":51,"left_children":[-1],"loss_changes":[0E0],"parents":[2147483647],"right_children":[-1],"split_conditions":[-1.9138384E-3],"split_indices":[0],"split_type":[0],"sum_hessian":[1.9446584E4],"tree_param":{"num_deleted":"0","num_feature":"17","num_nodes":"1","size_leaf_vector":"1"}},{"base_weights":[-2.6503971E-3],"categories":[],"categories_nodes":[],"categories_segments":[],"categories_sizes":[],"default_left":[0],"id":52,"left_children":[-1],"loss_changes":[0E0],"parents":[2147483647],"right_children":[-1],"split_conditions":[-1.0046313E-3],"split_indices":[0],"split_type":[0],"sum_hessian":[1.9485273E4],"tree_param":{"num_deleted":"0","num_feature":"17","num_nodes":"1","size_leaf_vector":"1"}},{"base_weights":[-3.3154915E-4],"categories":[],"categories_nodes":[],"categories_segments":[],"categories_sizes":[],"default_left":[0],"id":53,"left_children":[-1],"loss_changes":[0E0],"parents":[2147483647],"right_children":[-1],"split_conditions":[-1.256735E-4],"split_indices":[0],"split_type":[0],"sum_hessian":[1.9430393E4],"tree_param":{"num_deleted":"0","num_feature":"17","num_nodes":"1","size_leaf_vector":"1"}},{"base_weights":[7.1814604E-4],"categories":[],"categories_nodes":[],"categories_segments":[],"categories_sizes":[],"default_left":[0],"id":54,"left_children":[-1],"loss_changes":[0E0],"parents":[2147483647],"right_children":[-1],"split_conditions":[2.7221278E-4],"split_indices":[0],"split_type":[0],"sum_hessian":[1.949643E4],"tree_param":{"num_deleted":"0","num_feature":"17","num_nodes":"1","size_leaf_vector":"1"}},{"base_weights":[4.8632426E-3],"categories":[],"categories_nodes":[],"categories_segments":[],"categories_sizes":[],"default_left":[0],"id":55,"left_children":[-1],"loss_changes":[0E0],"parents":[2147483647],"right_children":[-1],"split_conditions":[1.843409E-3],"split_indices":[0],"split_type":[0],"sum_hessian":[1.9477967E4],"tree_param":{"num_deleted":"0","num_feature":"17","num_nodes":"1","size_leaf_vector":"1"}},{"base_weights":[-3.6425816E-4],"categories":[],"categories_nodes":[],"categories_segments":[],"categories_sizes":[],"default_left":[0],"id":56,"left_children":[-1],"loss_changes":[0E0],"parents":[2147483647],"right_children":[-1],"split_conditions":[-1.3807182E-4],"split_indices":[0],"split_type":[0],"sum_hessian":[1.9417773E4],"tree_param":{"num_deleted":"0","num_feature":"17","num_nodes":"1","size_leaf_vector":"1"}},{"base_weights":[6.0766254E-4],"categories":[],"categories_nodes":[],"categories_segments":[],"categories_sizes":[],"default_left":[0],"id":57,"left_children":[-1],"loss_changes":[0E0],"parents":[2147483647],"right_children":[-1],"split_conditions":[2.303341E-4],"split_indices":[0],"split_type":[0],"sum_hessian":[1.9464277E4],"tree_param":{"num_deleted":"0","num_feature":"17","num_nodes":"1","size_leaf_vector":"1"}},{"base_weights":[-0E0],"categories":[],"categories_nodes":[],"categories_segments":[],"categories_sizes":[],"default_left":[0],"id":58,"left_children":[-1],"loss_changes":[0E0],"parents":[2147483647],"right_children":[-1],"split_conditions":[-0E0],"split_indices":[0],"split_type":[0],"sum_hessian":[1.942652E4],"tree_param":{"num_deleted":"0","num_feature":"17","num_nodes":"1","size_leaf_vector":"1"}},{"base_weights":[-2.430079E-3],"categories":[],"categories_nodes":[],"categories_segments":[],"categories_sizes":[],"default_left":[0],"id":59,"left_children":[-1],"loss_changes":[0E0],"parents":[2147483647],"right_children":[-1],"split_conditions":[-9.211199E-4],"split_indices":[0],"split_type":[0],"sum_hessian":[1.9408814E4],"tree_param":{"num_deleted":"0","num_feature":"17","num_nodes":"1","size_leaf_vector":"1"}},{"base_weights":[5.5652126E-3],"categories":[],"categories_nodes":[],"categories_segments":[],"categories_sizes":[],"default_left":[0],"id":60,"left_children":[-1],"loss_changes":[0E0],"parents":[2147483647],"right_children":[-1],"split_conditions":[2.1094903E-3],"split_indices":[0],"split_type":[0],"sum_hessian":[1.942682E4],"tree_param":{"num_deleted":"0","num_feature":"17","num_nodes":"1","size_leaf_vector":"1"}},{"base_weights":[-1.4214613E-3],"categories":[],"categories_nodes":[],"categories_segments":[],"categories_sizes":[],"default_left":[0],"id":61,"left_children":[-1],"loss_changes":[0E0],"parents":[2147483647],"right_children":[-1],"split_conditions":[-5.38804E-4],"split_indices":[0],"split_type":[0],"sum_hessian":[1.9480055E4],"tree_param":{"num_deleted":"0","num_feature":"17","num_nodes":"1","size_leaf_vector":"1"}},{"base_weights":[-0E0],"categories":[],"categories_nodes":[],"categories_segments":[],"categories_sizes":[],"default_left":[0],"id":62,"left_children":[-1],"loss_changes":[0E0],"parents":[2147483647],"right_children":[-1],"split_conditions":[-0E0],"split_indices":[0],"split_type":[0],"sum_hessian":[1.9449832E4],"tree_param":{"num_deleted":"0","num_feature":"17","num_nodes":"1","size_leaf_vector":"1"}},{"base_weights":[2.5672705E-3],"categories":[],"categories_nodes":[],"categories_segments":[],"categories_sizes":[],"default_left":[0],"id":63,"left_children":[-1],"loss_changes":[0E0],"parents":[2147483647],"right_children":[-1],"split_conditions":[9.7312225E-4],"split_indices":[0],"split_type":[0],"sum_hessian":[1.9432531E4],"tree_param":{"num_deleted":"0","num_feature":"17","num_nodes":"1","size_leaf_vector":"1"}},{"base_weights":[-0E0],"categories":[],"categories_nodes":[],"categories_segments":[],"categories_sizes":[],"default_left":[0],"id":64,"left_children":[-1],"loss_changes":[0E0],"parents":[2147483647],"right_children":[-1],"split_conditions":[-0E0],"split_indices":[0],"split_type":[0],"sum_hessian":[1.940051E4],"tree_param":{"num_deleted":"0","num_feature":"17","num_nodes":"1","size_leaf_vector":"1"}},{"base_weights":[-5.4627806E-3],"categories":[],"categories_nodes":[],"categories_segments":[],"categories_sizes":[],"default_left":[0],"id":65,"left_children":[-1],"loss_changes":[0E0],"parents":[2147483647],"right_children":[-1],"split_conditions":[-2.0706635E-3],"split_indices":[0],"split_type":[0],"sum_hessian":[1.945287E4],"tree_param":{"num_deleted":"0","num_feature":"17","num_nodes":"1","size_leaf_vector":"1"}},{"base_weights":[5.940561E-3],"categories":[],"categories_nodes":[],"categories_segments":[],"categories_sizes":[],"default_left":[0],"id":66,"left_children":[-1],"loss_changes":[0E0],"parents":[2147483647],"right_children":[-1],"split_conditions":[2.251766E-3],"split_indices":[0],"split_type":[0],"sum_hessian":[1.9502486E4],"tree_param":{"num_deleted":"0","num_feature":"17","num_nodes":"1","size_leaf_vector":"1"}},{"base_weights":[-1.3470802E-3],"categories":[],"categories_nodes":[],"categories_segments":[],"categories_sizes":[],"default_left":[0],"id":67,"left_children":[-1],"loss_changes":[0E0],"parents":[2147483647],"right_children":[-1],"split_conditions":[-5.106099E-4],"split_indices":[0],"split_type":[0],"sum_hessian":[1.9450645E4],"tree_param":{"num_deleted":"0","num_feature":"17","num_nodes":"1","size_leaf_vector":"1"}},{"base_weights":[-6.912781E-3],"categories":[],"categories_nodes":[],"categories_segments":[],"categories_sizes":[],"default_left":[0],"id":68,"left_children":[-1],"loss_changes":[0E0],"parents":[2147483647],"right_children":[-1],"split_conditions":[-2.6202851E-3],"split_indices":[0],"split_type":[0],"sum_hessian":[1.944291E4],"tree_param":{"num_deleted":"0","num_feature":"17","num_nodes":"1","size_leaf_vector":"1"}},{"base_weights":[-0E0],"categories":[],"categories_nodes":[],"categories_segments":[],"categories_sizes":[],"default_left":[0],"id":69,"left_children":[-1],"loss_changes":[0E0],"parents":[2147483647],"right_children":[-1],"split_conditions":[-0E0],"split_indices":[0],"split_type":[0],"sum_hessian":[1.946159E4],"tree_param":{"num_deleted":"0","num_feature":"17","num_nodes":"1","size_leaf_vector":"1"}},{"base_weights":[-7.479716E-4],"categories":[],"categories_nodes":[],"categories_segments":[],"categories_sizes":[],"default_left":[0],"id":70,"left_children":[-1],"loss_changes":[0E0],"parents":[2147483647],"right_children":[-1],"split_conditions":[-2.8351817E-4],"split_indices":[0],"split_type":[0],"sum_hessian":[1.9424852E4],"tree_param":{"num_deleted":"0","num_feature":"17","num_nodes":"1","size_leaf_vector":"1"}},{"base_weights":[2.9563466E-3],"categories":[],"categories_nodes":[],"categories_segments":[],"categories_sizes":[],"default_left":[0],"id":71,"left_children":[-1],"loss_changes":[0E0],"parents":[2147483647],"right_children":[-1],"split_conditions":[1.1206013E-3],"split_indices":[0],"split_type":[0],"sum_hessian":[1.9431994E4],"tree_param":{"num_deleted":"0","num_feature":"17","num_nodes":"1","size_leaf_vector":"1"}},{"base_weights":[-1.4590845E-3],"categories":[],"categories_nodes":[],"categories_segments":[],"categories_sizes":[],"default_left":[0],"id":72,"left_children":[-1],"loss_changes":[0E0],"parents":[2147483647],"right_children":[-1],"split_conditions":[-5.5306504E-4],"split_indices":[0],"split_type":[0],"sum_hessian":[1.9427602E4],"tree_param":{"num_deleted":"0","num_feature":"17","num_nodes":"1","size_leaf_vector":"1"}},{"base_weights":[-0E0],"categories":[],"categories_nodes":[],"categories_segments":[],"categories_sizes":[],"default_left":[0],"id":73,"left_children":[-1],"loss_changes":[0E0],"parents":[2147483647],"right_children":[-1],"split_conditions":[-0E0],"split_indices":[0],"split_type":[0],"sum_hessian":[1.9424717E4],"tree_param":{"num_deleted":"0","num_feature":"17","num_nodes":"1","size_leaf_vector":"1"}},{"base_weights":[5.1545925E-3,1.0637923E-2,-4.320313E-3],"categories":[],"categories_nodes":[],"categories_segments":[],"categories_sizes":[],"default_left":[1,0,0],"id":74,"left_children":[1,-1,-1],"loss_changes":[7.6448183E0,0E0,0E0],"parents":[2147483647,0,0],"right_children":[2,-1,-1],"split_conditions":[6.3821754E0,1.0637923E-2,-4.320313E-3],"split_indices":[3,0,0],"split_type":[0,0,0],"sum_hessian":[1.9470299E4,8.4617705E3,1.1008528E4],"tree_param":{"num_deleted":"0","num_feature":"17","num_nodes":"3","size_leaf_vector":"1"}},{"base_weights":[-2.2797089E-3],"categories":[],"categories_nodes":[],"categories_segments":[],"categories_sizes":[],"default_left":[0],"id":75,"left_children":[-1],"loss_changes":[0E0],"parents":[2147483647],"right_children":[-1],"split_conditions":[-8.641222E-4],"split_indices":[0],"split_type":[0],"sum_hessian":[1.947414E4],"tree_param":{"num_deleted":"0","num_feature":"17","num_nodes":"1","size_leaf_vector":"1"}},{"base_weights":[-6.1228257E-3],"categories":[],"categories_nodes":[],"categories_segments":[],"categories_sizes":[],"default_left":[0],"id":76,"left_children":[-1],"loss_changes":[0E0],"parents":[2147483647],"right_children":[-1],"split_conditions":[-2.320853E-3],"split_indices":[0],"split_type":[0],"sum_hessian":[1.9383014E4],"tree_param":{"num_deleted":"0","num_feature":"17","num_nodes":"1","size_leaf_vector":"1"}},{"base_weights":[6.958912E-3],"categories":[],"categories_nodes":[],"categories_segments":[],"categories_sizes":[],"default_left":[0],"id":77,"left_children":[-1],"loss_changes":[0E0],"parents":[2147483647],"right_children":[-1],"split_conditions":[2.6377712E-3],"split_indices":[0],"split_type":[0],"sum_hessian":[1.9486855E4],"tree_param":{"num_deleted":"0","num_feature":"17","num_nodes":"1","size_leaf_vector":"1"}},{"base_weights":[-6.3498137E-3],"categories":[],"categories_nodes":[],"categories_segments":[],"categories_sizes":[],"default_left":[0],"id":78,"left_children":[-1],"loss_changes":[0E0],"parents":[2147483647],"right_children":[-1],"split_conditions":[-2.4068928E-3],"split_indices":[0],"split_type":[0],"sum_hessian":[1.9458275E4],"tree_param":{"num_deleted":"0","num_feature":"17","num_nodes":"1","size_leaf_vector":"1"}},{"base_weights":[4.7710584E-3],"categories":[],"categories_nodes":[],"categories_segments":[],"categories_sizes":[],"default_left":[0],"id":79,"left_children":[-1],"loss_changes":[0E0],"parents":[2147483647],"right_children":[-1],"split_conditions":[1.8084666E-3],"split_indices":[0],"split_type":[0],"sum_hessian":[1.9425068E4],"tree_param":{"num_deleted":"0","num_feature":"17","num_nodes":"1","size_leaf_vector":"1"}},{"base_weights":[-0E0],"categories":[],"categories_nodes":[],"categories_segments":[],"categories_sizes":[],"default_left":[0],"id":80,"left_children":[-1],"loss_changes":[0E0],"parents":[2147483647],"right_children":[-1],"split_conditions":[-0E0],"split_indices":[0],"split_type":[0],"sum_hessian":[1.949324E4],"tree_param":{"num_deleted":"0","num_feature":"17","num_nodes":"1","size_leaf_vector":"1"}},{"base_weights":[-4.4304305E-3],"categories":[],"categories_nodes":[],"categories_segments":[],"categories_sizes":[],"default_left":[0],"id":81,"left_children":[-1],"loss_changes":[0E0],"parents":[2147483647],"right_children":[-1],"split_conditions":[-1.6793518E-3],"split_indices":[0],"split_type":[0],"sum_hessian":[1.9523062E4],"tree_param":{"num_deleted":"0","num_feature":"17","num_nodes":"1","size_leaf_vector":"1"}},{"base_weights":[-1.6040984E-4],"categories":[],"categories_nodes":[],"categories_segments":[],"categories_sizes":[],"default_left":[0],"id":82,"left_children":[-1],"loss_changes":[0E0],"parents":[2147483647],"right_children":[-1],"split_conditions":[-6.0803246E-5],"split_indices":[0],"split_type":[0],"sum_hessian":[1.9460541E4],"tree_param":{"num_deleted":"0","num_feature":"17","num_nodes":"1","size_leaf_vector":"1"}},{"base_weights":[-1.6305802E-3],"categories":[],"categories_nodes":[],"categories_segments":[],"categories_sizes":[],"default_left":[0],"id":83,"left_children":[-1],"loss_changes":[0E0],"parents":[2147483647],"right_children":[-1],"split_conditions":[-6.1807036E-4],"split_indices":[0],"split_type":[0],"sum_hessian":[1.949525E4],"tree_param":{"num_deleted":"0","num_feature":"17","num_nodes":"1","size_leaf_vector":"1"}},{"base_weights":[-3.584257E-3],"categories":[],"categories_nodes":[],"categories_segments":[],"categories_sizes":[],"default_left":[0],"id":84,"left_children":[-1],"loss_changes":[0E0],"parents":[2147483647],"right_children":[-1],"split_conditions":[-1.3586103E-3],"split_indices":[0],"split_type":[0],"sum_hessian":[1.9461674E4],"tree_param":{"num_deleted":"0","num_feature":"17","num_nodes":"1","size_leaf_vector":"1"}},{"base_weights":[3.3759687E-3],"categories":[],"categories_nodes":[],"categories_segments":[],"categories_sizes":[],"default_left":[0],"id":85,"left_children":[-1],"loss_changes":[0E0],"parents":[2147483647],"right_children":[-1],"split_conditions":[1.2796588E-3],"split_indices":[0],"split_type":[0],"sum_hessian":[1.946956E4],"tree_param":{"num_deleted":"0","num_feature":"17","num_nodes":"1","size_leaf_vector":"1"}},{"base_weights":[8.899143E-4],"categories":[],"categories_nodes":[],"categories_segments":[],"categories_sizes":[],"default_left":[0],"id":86,"left_children":[-1],"loss_changes":[0E0],"parents":[2147483647],"right_children":[-1],"split_conditions":[3.3732143E-4],"split_indices":[0],"split_type":[0],"sum_hessian":[1.9461742E4],"tree_param":{"num_deleted":"0","num_feature":"17","num_nodes":"1","size_leaf_vector":"1"}},{"base_weights":[5.66406E-3],"categories":[],"categories_nodes":[],"categories_segments":[],"categories_sizes":[],"default_left":[0],"id":87,"left_children":[-1],"loss_changes":[0E0],"parents":[2147483647],"right_children":[-1],"split_conditions":[2.1469584E-3],"split_indices":[0],"split_type":[0],"sum_hessian":[1.9484697E4],"tree_param":{"num_deleted":"0","num_feature":"17","num_nodes":"1","size_leaf_vector":"1"}},{"base_weights":[-3.1468011E-3],"categories":[],"categories_nodes":[],"categories_segments":[],"categories_sizes":[],"default_left":[0],"id":88,"left_children":[-1],"loss_changes":[0E0],"parents":[2147483647],"right_children":[-1],"split_conditions":[-1.192793E-3],"split_indices":[0],"split_type":[0],"sum_hessian":[1.9447938E4],"tree_param":{"num_deleted":"0","num_feature":"17","num_nodes":"1","size_leaf_vector":"1"}},{"base_weights":[-3.7792304E-3],"categories":[],"categories_nodes":[],"categories_segments":[],"categories_sizes":[],"default_left":[0],"id":89,"left_children":[-1],"loss_changes":[0E0],"parents":[2147483647],"right_children":[-1],"split_conditions":[-1.4325149E-3],"split_indices":[0],"split_type":[0],"sum_hessian":[1.942897E4],"tree_param":{"num_deleted":"0","num_feature":"17","num_nodes":"1","size_leaf_vector":"1"}},{"base_weights":[-2.6988694E-3],"categories":[],"categories_nodes":[],"categories_segments":[],"categories_sizes":[],"default_left":[0],"id":90,"left_children":[-1],"loss_changes":[0E0],"parents":[2147483647],"right_children":[-1],"split_conditions":[-1.0230048E-3],"split_indices":[0],"split_type":[0],"sum_hessian":[1.945755E4],"tree_param":{"num_deleted":"0","num_feature":"17","num_nodes":"1","size_leaf_vector":"1"}},{"base_weights":[3.4271143E-3],"categories":[],"categories_nodes":[],"categories_segments":[],"categories_sizes":[],"default_left":[0],"id":91,"left_children":[-1],"loss_changes":[0E0],"parents":[2147483647],"right_children":[-1],"split_conditions":[1.2990455E-3],"split_indices":[0],"split_type":[0],"sum_hessian":[1.9479531E4],"tree_param":{"num_deleted":"0","num_feature":"17","num_nodes":"1","size_leaf_vector":"1"}},{"base_weights":[1.2587415E-3],"categories":[],"categories_nodes":[],"categories_segments":[],"categories_sizes":[],"default_left":[0],"id":92,"left_children":[-1],"loss_changes":[0E0],"parents":[2147483647],"right_children":[-1],"split_conditions":[4.7712514E-4],"split_indices":[0],"split_type":[0],"sum_hessian":[1.9454389E4],"tree_param":{"num_deleted":"0","num_feature":"17","num_nodes":"1","size_leaf_vector":"1"}},{"base_weights":[-3.0010033E-3],"categories":[],"categories_nodes":[],"categories_segments":[],"categories_sizes":[],"default_left":[0],"id":93,"left_children":[-1],"loss_changes":[0E0],"parents":[2147483647],"right_children":[-1],"split_conditions":[-1.1375283E-3],"split_indices":[0],"split_type":[0],"sum_hessian":[1.9435701E4],"tree_param":{"num_deleted":"0","num_feature":"17","num_nodes":"1","size_leaf_vector":"1"}},{"base_weights":[-0E0],"categories":[],"categories_nodes":[],"categories_segments":[],"categories_sizes":[],"default_left":[0],"id":94,"left_children":[-1],"loss_changes":[0E0],"parents":[2147483647],"right_children":[-1],"split_conditions":[-0E0],"split_indices":[0],"split_type":[0],"sum_hessian":[1.9496818E4],"tree_param":{"num_deleted":"0","num_feature":"17","num_nodes":"1","size_leaf_vector":"1"}},{"base_weights":[7.2742876E-4],"categories":[],"categories_nodes":[],"categories_segments":[],"categories_sizes":[],"default_left":[0],"id":95,"left_children":[-1],"loss_changes":[0E0],"parents":[2147483647],"right_children":[-1],"split_conditions":[2.757314E-4],"split_indices":[0],"split_type":[0],"sum_hessian":[1.9430125E4],"tree_param":{"num_deleted":"0","num_feature":"17","num_nodes":"1","size_leaf_vector":"1"}},{"base_weights":[-2.5654698E-3],"categories":[],"categories_nodes":[],"categories_segments":[],"categories_sizes":[],"default_left":[0],"id":96,"left_children":[-1],"loss_changes":[0E0],"parents":[2147483647],"right_children":[-1],"split_conditions":[-9.724397E-4],"split_indices":[0],"split_type":[0],"sum_hessian":[1.9484598E4],"tree_param":{"num_deleted":"0","num_feature":"17","num_nodes":"1","size_leaf_vector":"1"}},{"base_weights":[-8.50573E-5],"categories":[],"categories_nodes":[],"categories_segments":[],"categories_sizes":[],"default_left":[0],"id":97,"left_children":[-1],"loss_changes":[0E0],"parents":[2147483647],"right_children":[-1],"split_conditions":[-3.2240914E-5],"split_indices":[0],"split_type":[0],"sum_hessian":[1.9483932E4],"tree_param":{"num_deleted":"0","num_feature":"17","num_nodes":"1","size_leaf_vector":"1"}},{"base_weights":[3.6415742E-3],"categories":[],"categories_nodes":[],"categories_segments":[],"categories_sizes":[],"default_left":[0],"id":98,"left_children":[-1],"loss_changes":[0E0],"parents":[2147483647],"right_children":[-1],"split_conditions":[1.3803364E-3],"split_indices":[0],"split_type":[0],"sum_hessian":[1.9403982E4],"tree_param":{"num_deleted":"0","num_feature":"17","num_nodes":"1","size_leaf_vector":"1"}},{"base_weights":[1.712021E-3],"categories":[],"categories_nodes":[],"categories_segments":[],"categories_sizes":[],"default_left":[0],"id":99,"left_children":[-1],"loss_changes":[0E0],"parents":[2147483647],"right_children":[-1],"split_conditions":[6.4894045E-4],"split_indices":[0],"split_type":[0],"sum_hessian":[1.9389598E4],"tree_param":{"num_deleted":"0","num_feature":"17","num_nodes":"1","size_leaf_vector":"1"}}]},"name":"gbtree"},"learner_model_param":{"base_score":"5.4444706E-1","boost_from_average":"1","num_class":"0","num_feature":"17","num_target":"1"},"objective":{"name":"binary:logistic","reg_loss_param":{"scale_pos_weight":"1"}}},"version":[2,1,4]}