{"learner":{"attributes":{"scikit_learn":"{\"_estimator_type\": \"classifier\"}"},"feature_names":["plate_time","plate_time_diff","HAVAA","x0","z0","HB_acc","IVB_acc","Break_acc","HB_acc_diff","IVB_acc_diff","Break_diff","pX","pZ","sz_z","pitcherHand_L","pitcherHand_R","hitterHand_L","hitterHand_R","balls_before_pitch_0","balls_before_pitch_1","balls_before_pitch_2","balls_before_pitch_3","strikes_before_pitch_0","strikes_before_pitch_1","strikes_before_pitch_2"],"feature_types":["float","float","float","float","float","float","float","float","float","float","float","float","float","float","i","i","i","i","i","i","i","i","i","i","i"],"gradient_booster":{"model":{"gbtree_model_param":{"num_parallel_tree":"1","num_trees":"600"},"iteration_indptr":[0,6,12,18,24,30,36,42,48,54,60,66,72,78,84,90,96,102,108,114,120,126,132,138,144,150,156,162,168,174,180,186,192,198,204,210,216,222,228,234,240,246,252,258,264,270,276,282,288,294,300,306,312,318,324,330,336,342,348,354,360,366,372,378,384,390,396,402,408,414,420,426,432,438,444,450,456,462,468,474,480,486,492,498,504,510,516,522,528,534,540,546,552,558,564,570,576,582,588,594,600],"tree_info":[0,1,2,3,4,5,0,1,2,3,4,5,0,1,2,3,4,5,0,1,2,3,4,5,0,1,2,3,4,5,0,1,2,3,4,5,0,1,2,3,4,5,0,1,2,3,4,5,0,1,2,3,4,5,0,1,2,3,4,5,0,1,2,3,4,5,0,1,2,3,4,5,0,1,2,3,4,5,0,1,2,3,4,5,0,1,2,3,4,5,0,1,2,3,4,5,0,1,2,3,4,5,0,1,2,3,4,5,0,1,2,3,4,5,0,1,2,3,4,5,0,1,2,3,4,5,0,1,2,3,4,5,0,1,2,3,4,5,0,1,2,3,4,5,0,1,2,3,4,5,0,1,2,3,4,5,0,1,2,3,4,5,0,1,2,3,4,5,0,1,2,3,4,5,0,1,2,3,4,5,0,1,2,3,4,5,0,1,2,3,4,5,0,1,2,3,4,5,0,1,2,3,4,5,0,1,2,3,4,5,0,1,2,3,4,5,0,1,2,3,4,5,0,1,2,3,4,5,0,1,2,3,4,5,0,1,2,3,4,5,0,1,2,3,4,5,0,1,2,3,4,5,0,1,2,3,4,5,0,1,2,3,4,5,0,1,2,3,4,5,0,1,2,3,4,5,0,1,2,3,4,5,0,1,2,3,4,5,0,1,2,3,4,5,0,1,2,3,4,5,0,1,2,3,4,5,0,1,2,3,4,5,0,1,2,3,4,5,0,1,2,3,4,5,0,1,2,3,4,5,0,1,2,3,4,5,0,1,2,3,4,5,0,1,2,3,4,5,0,1,2,3,4,5,0,1,2,3,4,5,0,1,2,3,4,5,0,1,2,3,4,5,0,1,2,3,4,5,0,1,2,3,4,5,0,1,2,3,4,5,0,1,2,3,4,5,0,1,2,3,4,5,0,1,2,3,4,5,0,1,2,3,4,5,0,1,2,3,4,5,0,1,2,3,4,5,0,1,2,3,4,5,0,1,2,3,4,5,0,1,2,3,4,5,0,1,2,3,4,5,0,1,2,3,4,5,0,1,2,3,4,5,0,1,2,3,4,5,0,1,2,3,4,5,0,1,2,3,4,5,0,1,2,3,4,5,0,1,2,3,4,5,0,1,2,3,4,5,0,1,2,3,4,5,0,1,2,3,4,5,0,1,2,3,4,5,0,1,2,3,4,5,0,1,2,3,4,5,0,1,2,3,4,5,0,1,2,3,4,5,0,1,2,3,4,5,0,1,2,3,4,5,0,1,2,3,4,5,0,1,2,3,4,5,0,1,2,3,4,5,0,1,2,3,4,5,0,1,2,3,4,5,0,1,2,3,4,5,0,1,2,3,4,5,0,1,2,3,4,5],"trees":[{"base_weights":[1.0059428E0,1.4347667E0,6.816316E-1,1.6798694E0,1.1055944E0,1.0075558E0,5.2216125E-1,1.8336385E0,1.50357E0,1.2507392E0,9.0571755E-1,1.3676261E0,9.107251E-1,6.851181E-1,3.9704883E-1,8.53163E-1,1.9159019E0,1.6386286E0,1.2704577E0,1.3947535E0,1.0262088E0,1.1591464E0,7.97035E-1,1.4641962E0,1.0811741E0,1.0192641E0,6.843716E-1,4.0752894E-1,7.301921E-1,3.1455243E-1,5.177984E-1,2.0175118E0,1.7408509E0,1.8158104E0,1.468714E0,1.3511522E0,9.2368424E-1,1.4979529E0,1.1627523E0,7.875531E-1,1.1872131E0,1.3573084E0,8.7416035E-1,4.3514195E-1,8.472707E-1,8.7000275E-1,-0E0,1.0954837E0,-0E0,1.1672639E0,8.9167947E-1,5.799525E-1,8.784992E-1,4.6775913E-1,1.7717141E-1,8.3774847E-1,6.109419E-1,3.7745446E-1,1.8080899E-1,6.349757E-1,3.8678333E-1,-0E0,1.1990415E0,-0E0,1.0350225E0,-0E0,1.0792482E0,-0E0,1.4760271E0,-0E0,1.3603894E0,9.3809855E-1,-0E0,-0E0,1.5000684E0,-0E0,1.168469E0,8.1683683E-1,7.585594E-2,1.4079318E0,9.9433404E-1,1.3636049E0,-0E0,8.889302E-1,-0E0,-0E0,4.708086E-1,9.051758E-1,5.1894957E-1,-0E0,1.1057646E0,1.8113387E-1,1.1888597E0,5.221804E-1,9.358492E-1,5.897119E-1,-0E0,-0E0,8.86251E-1,-0E0,4.8607635E-1,2.2604382E-1,-0E0,9.2267126E-1,7.0406234E-1,5.126391E-1,7.252674E-1,4.9096298E-1,2.7898318E-1,1.950423E-1,-0E0,7.4054635E-1,4.6044645E-1,5.040289E-1,2.964503E-1,-0E0,8.796539E-1,-0E0,8.097032E-1,5.6070507E-1,-0E0,8.910271E-1,-0E0,3.1832865E-1,7.194044E-1,4.9150756E-1,-0E0,8.4081435E-1,-0E0,-0E0,5.945928E-1,8.1179243E-1,-0E0,-0E0,5.354738E-1,3.053988E-1,-0E0,-0E0,5.399394E-1,-0E0,3.17307E-1,-0E0,6.585313E-1,-0E0,7.070089E-1,3.2094353E-1,-0E0,-0E0,5.581258E-1,4.254507E-1,2.89897E-1,-0E0,5.3384495E-1,2.9163796E-1,-0E0,-0E0,1.6123359E-1,5.5359566E-1,-0E0,-0E0,4.2487797E-1,3.0871165E-1,-0E0,-0E0,4.3573418E-1,-0E0,2.985757E-1,4.8530716E-2,1.8575782E-1,1.2440321E-1,-0E0,-0E0,4.4692457E-1,2.8950092E-1,-0E0,3.0688676E-1,-0E0,2.5528318E-1,1.2718564E-1],"categories":[],"categories_nodes":[],"categories_segments":[],"categories_sizes":[],"default_left":[0,0,0,0,0,0,0,1,0,0,0,0,0,0,0,0,0,0,0,0,0,0,0,0,0,0,0,0,0,0,0,0,0,0,0,0,0,0,0,0,0,0,0,0,0,0,0,0,0,0,0,0,0,0,0,0,0,0,0,0,0,0,0,0,0,0,0,0,0,0,0,1,0,0,0,0,0,0,0,0,0,0,0,0,0,0,0,0,1,0,0,0,0,1,1,0,0,0,0,0,0,0,0,0,0,0,0,0,0,0,0,0,0,0,0,0,0,0,0,0,0,0,0,0,0,0,0,0,0,0,0,0,0,0,0,0,0,0,0,0,0,0,0,0,0,0,0,0,0,0,0,0,0,0,0,0,0,0,0,0,0,0,0,0,0,0,0,0,0,0,0,0,0,0,0,0,0,0,0],"id":0,"left_children":[1,3,5,7,9,11,13,15,17,19,21,23,25,27,29,-1,31,33,35,37,39,41,43,45,47,49,51,53,55,57,59,61,63,65,67,69,71,73,75,77,79,81,83,85,87,-1,-1,89,-1,91,93,95,97,99,101,103,105,107,109,111,113,-1,-1,-1,-1,-1,-1,-1,115,-1,117,119,-1,-1,121,-1,123,125,-1,127,129,131,-1,133,-1,-1,135,137,139,-1,141,-1,143,145,147,149,-1,-1,151,-1,153,155,-1,157,159,161,163,165,167,169,-1,171,173,175,177,-1,-1,-1,-1,-1,-1,-1,-1,-1,-1,-1,-1,-1,-1,-1,-1,-1,-1,-1,-1,-1,-1,-1,-1,-1,-1,-1,-1,-1,-1,-1,-1,-1,-1,-1,-1,-1,-1,-1,-1,-1,-1,-1,-1,-1,-1,-1,-1,-1,-1,-1,-1,-1,-1,-1,-1,-1,-1,-1,-1,-1,-1,-1,-1],"loss_changes":[6.6646523E3,1.6252617E3,1.40571E3,2.614961E2,2.2511914E2,2.7840527E2,3.6278418E2,1.4430273E2,1.2725879E2,1.2666406E2,7.600903E1,1.0899902E1,1.5118701E2,8.521997E1,9.449402E1,0E0,2.072461E1,4.686328E1,2.4481934E1,2.974414E1,4.9912598E1,2.781665E1,3.2715088E1,2.4921875E0,6.208557E0,5.9317383E1,2.8265747E1,8.707916E0,6.772876E1,4.6685547E1,5.1599854E1,2.9433594E0,5.3598633E0,4.324707E0,7.8671875E0,7.545166E0,3.839508E0,2.991211E0,3.5957031E0,6.194031E0,1.2775635E1,6.7733154E0,4.754181E0,6.443466E0,2.5640625E1,0E0,0E0,3.6732178E0,0E0,2.1048584E1,2.347168E1,5.8220215E0,6.9119873E0,4.7306366E0,2.8292856E0,1.7121582E1,2.0973999E1,3.8059692E1,5.83374E0,2.4231201E1,1.1992371E1,0E0,0E0,0E0,0E0,0E0,0E0,0E0,6.670166E0,0E0,4.98291E0,3.1565247E0,0E0,0E0,2.6269531E0,0E0,3.491333E0,3.5100098E0,0E0,4.8477783E0,2.4797974E0,2.3232422E0,0E0,4.1426697E0,0E0,0E0,5.462448E0,5.975952E0,3.2362595E0,0E0,2.0443726E0,0E0,5.51001E0,3.33432E0,7.4228516E0,4.460022E0,0E0,0E0,6.079468E0,0E0,2.8590546E0,3.2325163E0,0E0,2.1889404E1,8.105408E0,5.590393E0,7.44281E0,8.555206E0,1.1293152E1,5.417938E0,0E0,6.6760254E0,6.017029E0,3.592163E0,5.938141E0,0E0,0E0,0E0,0E0,0E0,0E0,0E0,0E0,0E0,0E0,0E0,0E0,0E0,0E0,0E0,0E0,0E0,0E0,0E0,0E0,0E0,0E0,0E0,0E0,0E0,0E0,0E0,0E0,0E0,0E0,0E0,0E0,0E0,0E0,0E0,0E0,0E0,0E0,0E0,0E0,0E0,0E0,0E0,0E0,0E0,0E0,0E0,0E0,0E0,0E0,0E0,0E0,0E0,0E0,0E0,0E0,0E0,0E0,0E0,0E0,0E0,0E0,0E0,0E0],"parents":[2147483647,0,0,1,1,2,2,3,3,4,4,5,5,6,6,7,7,8,8,9,9,10,10,11,11,12,12,13,13,14,14,16,16,17,17,18,18,19,19,20,20,21,21,22,22,23,23,24,24,25,25,26,26,27,27,28,28,29,29,30,30,31,31,32,32,33,33,34,34,35,35,36,36,37,37,38,38,39,39,40,40,41,41,42,42,43,43,44,44,47,47,49,49,50,50,51,51,52,52,53,53,54,54,55,55,56,56,57,57,58,58,59,59,60,60,68,68,70,70,71,71,74,74,76,76,77,77,79,79,80,80,81,81,83,83,86,86,87,87,88,88,90,90,92,92,93,93,94,94,95,95,98,98,100,100,101,101,103,103,104,104,105,105,106,106,107,107,108,108,109,109,111,111,112,112,113,113,114,114],"right_children":[2,4,6,8,10,12,14,16,18,20,22,24,26,28,30,-1,32,34,36,38,40,42,44,46,48,50,52,54,56,58,60,62,64,66,68,70,72,74,76,78,80,82,84,86,88,-1,-1,90,-1,92,94,96,98,100,102,104,106,108,110,112,114,-1,-1,-1,-1,-1,-1,-1,116,-1,118,120,-1,-1,122,-1,124,126,-1,128,130,132,-1,134,-1,-1,136,138,140,-1,142,-1,144,146,148,150,-1,-1,152,-1,154,156,-1,158,160,162,164,166,168,170,-1,172,174,176,178,-1,-1,-1,-1,-1,-1,-1,-1,-1,-1,-1,-1,-1,-1,-1,-1,-1,-1,-1,-1,-1,-1,-1,-1,-1,-1,-1,-1,-1,-1,-1,-1,-1,-1,-1,-1,-1,-1,-1,-1,-1,-1,-1,-1,-1,-1,-1,-1,-1,-1,-1,-1,-1,-1,-1,-1,-1,-1,-1,-1,-1,-1,-1,-1],"split_conditions":[2.9734266E1,2.5035868E0,-3.807843E-2,1.8221432E1,2.871343E0,-3.472778E-1,3.891995E1,2.6008335E1,4.0691537E-1,4.0813684E-1,1.6600647E1,4.0426192E-1,4.2154743E1,5.231392E0,1E0,8.53163E-1,2.198185E0,-2.0731656E-1,4.2183343E-1,2.3948336E1,2.7399332E1,4.0871245E-1,5.158543E0,1.3390337E0,2.008968E0,3.984465E-1,1E0,3.1279578E0,2.903502E0,4.5283726E1,4.3669632E1,-1.1363688E1,-1.6280035E1,4.507156E0,4.604284E0,-3.1921697E0,6.654931E0,-3.5480242E0,2.474478E1,2.8438196E1,1.5384242E1,2.970408E1,1.636585E1,2.340829E1,4.1634694E-1,8.7000275E-1,-0E0,-1.1776875E-2,-0E0,4.944966E0,5.1862087E0,2.5842218E0,4.944966E0,-2.8742414E0,3.3303284E1,3.580663E1,1E0,2.8273895E0,5.2171917E1,3.3702704E-1,2.9232666E0,-0E0,1.1990415E0,-0E0,1.0350225E0,-0E0,1.0792482E0,-0E0,-3.1921697E0,-0E0,4.3673053E0,8.942736E1,-0E0,-0E0,4.546195E-1,-0E0,5.0838976E0,4.6406218E-1,7.585594E-2,4.479669E-1,-3.3546126E0,5.516124E1,-0E0,9.333695E-2,-0E0,-0E0,2.8816805E1,-3.1921697E0,-6.722599E1,-0E0,-8.129709E1,1.8113387E-1,-3.1921697E0,2.4024212E1,-8.129709E1,3.9624056E-1,-0E0,-0E0,4.226779E1,-0E0,3.3571827E0,1.4533719E1,-0E0,4.6406218E-1,-2.7010682E0,9.3875244E-2,-2.954008E0,5.128631E0,5.500081E0,4.1496903E-1,-0E0,5.006907E0,5.137947E1,4.1496903E-1,4.8547253E1,-0E0,8.796539E-1,-0E0,8.097032E-1,5.6070507E-1,-0E0,8.910271E-1,-0E0,3.1832865E-1,7.194044E-1,4.9150756E-1,-0E0,8.4081435E-1,-0E0,-0E0,5.945928E-1,8.1179243E-1,-0E0,-0E0,5.354738E-1,3.053988E-1,-0E0,-0E0,5.399394E-1,-0E0,3.17307E-1,-0E0,6.585313E-1,-0E0,7.070089E-1,3.2094353E-1,-0E0,-0E0,5.581258E-1,4.254507E-1,2.89897E-1,-0E0,5.3384495E-1,2.9163796E-1,-0E0,-0E0,1.6123359E-1,5.5359566E-1,-0E0,-0E0,4.2487797E-1,3.0871165E-1,-0E0,-0E0,4.3573418E-1,-0E0,2.985757E-1,4.8530716E-2,1.8575782E-1,1.2440321E-1,-0E0,-0E0,4.4692457E-1,2.8950092E-1,-0E0,3.0688676E-1,-0E0,2.5528318E-1,1.2718564E-1],"split_indices":[6,12,13,6,12,13,6,7,0,0,6,0,6,4,24,0,12,13,0,6,5,0,4,1,12,0,24,12,12,6,6,5,5,4,4,3,4,3,7,6,6,9,6,7,0,0,0,1,0,4,4,12,4,3,5,6,24,12,6,13,12,0,0,0,0,0,0,0,3,0,4,10,0,0,13,0,4,0,0,0,3,7,0,13,0,0,6,3,8,0,8,0,3,8,8,0,0,0,6,0,3,5,0,0,3,1,3,4,4,0,0,4,7,0,7,0,0,0,0,0,0,0,0,0,0,0,0,0,0,0,0,0,0,0,0,0,0,0,0,0,0,0,0,0,0,0,0,0,0,0,0,0,0,0,0,0,0,0,0,0,0,0,0,0,0,0,0,0,0,0,0,0,0,0,0,0,0,0,0],"split_type":[0,0,0,0,0,0,0,0,0,0,0,0,0,0,0,0,0,0,0,0,0,0,0,0,0,0,0,0,0,0,0,0,0,0,0,0,0,0,0,0,0,0,0,0,0,0,0,0,0,0,0,0,0,0,0,0,0,0,0,0,0,0,0,0,0,0,0,0,0,0,0,0,0,0,0,0,0,0,0,0,0,0,0,0,0,0,0,0,0,0,0,0,0,0,0,0,0,0,0,0,0,0,0,0,0,0,0,0,0,0,0,0,0,0,0,0,0,0,0,0,0,0,0,0,0,0,0,0,0,0,0,0,0,0,0,0,0,0,0,0,0,0,0,0,0,0,0,0,0,0,0,0,0,0,0,0,0,0,0,0,0,0,0,0,0,0,0,0,0,0,0,0,0,0,0,0,0,0,0],"sum_hessian":[4.8134723E4,2.0700557E4,2.7434168E4,1.182639E4,8.874167E3,8.976111E3,1.8458057E4,6.2405557E3,5.5858335E3,5.0836113E3,3.7905557E3,1.8547223E3,7.121389E3,7.963056E3,1.0495001E4,1.1225E3,5.1180557E3,3.4744446E3,2.111389E3,3.0405557E3,2.0430557E3,1.0830557E3,2.7075002E3,1.3325001E3,5.222222E2,4.7611113E3,2.3602778E3,1.1572223E3,6.8058335E3,6.3055557E3,4.189445E3,3.1413892E3,1.9766667E3,1.6286112E3,1.8458334E3,1.6675001E3,4.4388892E2,2.0397223E3,1.0008334E3,8.7027783E2,1.1727778E3,5.975E2,4.8555557E2,3.6583334E2,2.3416667E3,1.3311112E3,1.388889E0,5.1361115E2,8.611112E0,2.1327778E3,2.6283335E3,1.5927778E3,7.6750006E2,8.741667E2,2.8305557E2,3.5041667E3,3.3016667E3,4.224445E3,2.0811113E3,2.151389E3,2.0380557E3,6.666667E0,3.1347224E3,4.4444447E0,1.9722223E3,2.777778E0,1.6258334E3,1.4722223E1,1.8311112E3,1.8611113E1,1.6488889E3,4.3444446E2,9.444445E0,4.4444447E0,2.0352778E3,7.2222223E0,9.9361115E2,8.1611115E2,5.4166668E1,4.9555557E2,6.772222E2,5.955556E2,1.9444445E0,4.752778E2,1.0277779E1,2.5555557E1,3.402778E2,1.9502778E3,3.9138892E2,6.666667E0,5.0694446E2,6.722223E1,2.0655557E3,3.1805557E2,2.3102778E3,1.5569445E3,3.5833336E1,4.7222223E0,7.6277783E2,4.527778E1,8.288889E2,2.2583334E2,5.7222225E1,2.0630557E3,1.4411112E3,1.8505557E3,1.4511112E3,1.8966667E3,2.3277778E3,1.9405557E3,1.4055556E2,1.2852778E3,8.6611115E2,8.188889E2,1.2191667E3,1.1388889E1,1.8197223E3,6.1111116E0,1.6427778E3,4.3194446E2,2.5E0,2.033889E3,1.388889E0,8.694445E1,9.066667E2,7.991667E2,1.6944445E1,4.9194446E2,3.6111112E0,7.5000005E0,6.697222E2,5.933334E2,2.2222223E0,8.888889E0,4.6638892E2,3.041667E2,3.6111115E1,1.1666667E1,1.9386112E3,1.1666667E1,3.7972223E2,1.6666667E0,5.052778E2,3.6111112E0,2.0619446E3,3.075E2,1.0555556E1,1.3055556E1,2.2972224E3,6.213889E2,9.355556E2,1.4722223E1,7.480556E2,8.230556E2,5.8333335E0,2.8333334E1,1.9750002E2,2.0444446E3,1.8611113E1,3.1111113E1,1.4100001E3,1.8186112E3,3.1944447E1,2.0833334E1,1.4302778E3,5.6111115E1,1.8405557E3,3.9138892E2,1.936389E3,1.8030557E3,1.375E2,3.0277779E1,1.255E3,7.963889E2,6.972223E1,7.913889E2,2.7500002E1,4.016667E2,8.1750006E2],"tree_param":{"num_deleted":"0","num_feature":"25","num_nodes":"179","size_leaf_vector":"1"}},{"base_weights":[-5.173085E-2,-3.977635E-2,-1.18791334E-1,-1.0060047E-1,-2.114134E-2,-9.95516E-2,-9.4014674E-2,-1.3371415E-1,-7.88744E-2,-9.714424E-2,-1.6975699E-2,-6.0205646E-3,-1.1093249E-1,-1.3662429E-1,-0E0,2.0763718E-2,-8.36807E-2,-0E0,-1.260794E-1,-3.3370499E-3,-4.4672158E-2,-0E0,-1.175227E-1,-0E0,-8.307111E-2,-9.104786E-2,-6.955932E-2,-8.182396E-2,-0E0,-5.9980765E-2,8.165946E-5,-2.5449015E-2,-8.123297E-2,-1.2231183E-1,-0E0,-2.9426234E-2,-6.655645E-2,-6.899756E-2,-3.4514207E-3,5.5881417E-3,-2.8406806E-2,-3.8712718E-2,6.5375958E-3,-0E0,-5.3655926E-2,-7.86529E-2,-3.3432958E-4,1.4313928E-2,-4.4131894E-3,-0E0,-3.4816466E-2,-3.7343465E-2,-0E0,2.0568017E-2,-4.3443765E-2],"categories":[],"categories_nodes":[],"categories_segments":[],"categories_sizes":[],"default_left":[0,0,0,0,0,0,0,0,0,1,0,0,1,0,0,0,0,0,0,0,0,0,0,0,0,0,0,0,0,0,0,0,0,0,0,0,0,0,0,0,0,0,0,0,0,0,0,0,0,0,0,0,0,0,0],"id":1,"left_children":[1,3,5,7,9,11,-1,13,15,17,19,-1,21,23,-1,-1,25,-1,27,29,31,-1,33,-1,-1,-1,35,-1,-1,37,39,41,43,45,-1,-1,-1,-1,-1,47,49,51,53,-1,-1,-1,-1,-1,-1,-1,-1,-1,-1,-1,-1],"loss_changes":[3.6913925E1,4.5207123E1,2.61203E0,4.5115204E0,8.780659E0,3.8267784E0,0E0,2.4081268E0,3.7853203E0,4.3198977E0,1.0847138E1,0E0,4.036499E0,2.2075195E0,0E0,0E0,3.2763252E0,0E0,2.005024E0,4.5749354E0,5.6571846E0,0E0,2.6479378E0,0E0,0E0,0E0,2.478176E0,0E0,0E0,2.7863584E0,2.7544916E0,3.109365E0,3.1620178E0,3.593483E0,0E0,0E0,0E0,0E0,0E0,4.106692E0,2.5376737E0,4.7412634E0,3.4106386E0,0E0,0E0,0E0,0E0,0E0,0E0,0E0,0E0,0E0,0E0,0E0,0E0],"parents":[2147483647,0,0,1,1,2,2,3,3,4,4,5,5,7,7,8,8,9,9,10,10,12,12,13,13,16,16,18,18,19,19,20,20,22,22,26,26,29,29,30,30,31,31,32,32,33,33,39,39,40,40,41,41,42,42],"right_children":[2,4,6,8,10,12,-1,14,16,18,20,-1,22,24,-1,-1,26,-1,28,30,32,-1,34,-1,-1,-1,36,-1,-1,38,40,42,44,46,-1,-1,-1,-1,-1,48,50,52,54,-1,-1,-1,-1,-1,-1,-1,-1,-1,-1,-1,-1],"split_conditions":[3.5707206E-1,1.8437366E1,7.968587E-1,-1.9176205E-1,-4.395544E-1,5.586542E0,-9.4014674E-2,5.4825214E1,-3.3546126E0,-9.5724396E-4,1.2830622E-1,-6.0205646E-3,1.6119372E0,1.0000641E0,-0E0,2.0763718E-2,2.8961835E0,-0E0,2.0073211E0,-7.9905665E-1,1E0,-0E0,1.1896446E1,-0E0,-8.307111E-2,-9.104786E-2,1E0,-8.182396E-2,-0E0,3.046079E1,3.787769E1,1E0,2.1761425E1,6.1175257E-1,-0E0,-2.9426234E-2,-6.655645E-2,-6.899756E-2,-3.4514207E-3,-1.4255024E0,-7.35315E-2,5.835248E0,4.0930462E-1,-0E0,-5.3655926E-2,-7.86529E-2,-3.3432958E-4,1.4313928E-2,-4.4131894E-3,-0E0,-3.4816466E-2,-3.7343465E-2,-0E0,2.0568017E-2,-4.3443765E-2],"split_indices":[13,6,2,13,13,4,0,7,3,1,13,0,10,10,0,0,6,0,2,11,22,0,9,0,0,0,24,0,0,6,5,18,6,11,0,0,0,0,0,3,11,4,0,0,0,0,0,0,0,0,0,0,0,0,0],"split_type":[0,0,0,0,0,0,0,0,0,0,0,0,0,0,0,0,0,0,0,0,0,0,0,0,0,0,0,0,0,0,0,0,0,0,0,0,0,0,0,0,0,0,0,0,0,0,0,0,0,0,0,0,0,0,0],"sum_hessian":[4.8155004E4,4.1013613E4,7.141389E3,9.478056E3,3.1535557E4,5.004167E3,2.1372224E3,3.5463892E3,5.931667E3,1.4980557E3,3.0037502E4,6.705556E2,4.3336113E3,3.5255557E3,2.0833334E1,1.5E2,5.781667E3,3.4055557E2,1.1575E3,2.0385834E4,9.651667E3,1.8111111E2,4.1525E3,5.277778E1,3.4727778E3,8.347223E2,4.946945E3,1.0725E3,8.500001E1,1.3258334E3,1.906E4,6.5227783E3,3.1288892E3,4.0100002E3,1.425E2,3.5461113E3,1.4008334E3,5.508334E2,7.7500006E2,1.6285834E4,2.7741667E3,4.840278E3,1.6825001E3,2.163889E2,2.9125002E3,3.6205557E3,3.8944446E2,7.0505557E3,9.235278E3,1.3925001E3,1.3816667E3,3.0255557E3,1.8147223E3,1.3444445E3,3.3805557E2],"tree_param":{"num_deleted":"0","num_feature":"25","num_nodes":"55","size_leaf_vector":"1"}},{"base_weights":[-9.750057E-2,-2.0014247E-1,-4.0338784E-2,-2.6707172E-1,-1.4977032E-1,-2.0998624E-1,-3.2747857E-2,-1.8942401E-1,-2.104758E-1,-1.2756023E-1,-1.1652293E-1,-1.2931241E-1,-0E0,-8.3541065E-2,-1.8738743E-2,-1.7634481E-1,-1.6062987E-1,-8.9968294E-2,-7.0136786E-2,-3.4304082E-2,-1.22007646E-1,-8.558808E-2,-9.375671E-3,-3.944064E-2,-2.0140551E-1,-5.935397E-2,-5.6714374E-3,-2.0823848E-2,-9.9803135E-2,-0E0,-1.3376576E-1,-8.2861E-2,-4.981439E-2,-6.303088E-2,-1.4086145E-3,-0E0,-1.2313365E-1,-5.2845906E-2,3.355579E-3,-1.4553644E-1,-0E0,-4.452942E-2,-0E0,-1.6070986E-1,-3.7067693E-2,4.6484456E-3,-6.392067E-2,-0E0,-7.007755E-2,-0E0,-9.06805E-2,6.4079545E-2,-5.302062E-2,-1.1270712E-1,-0E0,-7.957813E-3,-6.2452137E-2,5.181822E-3,-4.9187604E-2,-4.8348945E-2,1.3038659E-3],"categories":[],"categories_nodes":[],"categories_segments":[],"categories_sizes":[],"default_left":[0,0,0,0,0,0,0,0,0,0,0,0,0,0,0,0,0,0,0,1,0,0,0,0,1,0,0,0,0,0,0,0,0,0,0,0,0,0,0,0,0,0,0,0,0,0,1,0,0,0,0,0,0,0,0,0,0,0,0,0,0],"id":2,"left_children":[1,3,5,7,9,11,13,-1,15,-1,17,-1,-1,19,21,-1,23,-1,25,27,29,31,33,-1,35,-1,-1,37,-1,-1,39,-1,41,43,45,-1,-1,47,-1,49,51,-1,-1,53,55,57,59,-1,-1,-1,-1,-1,-1,-1,-1,-1,-1,-1,-1,-1,-1],"loss_changes":[2.802077E2,5.3188354E1,3.736973E1,1.5292358E1,1.776619E1,2.8901443E0,2.0104778E1,0E0,1.036235E1,0E0,8.453903E0,0E0,0E0,1.0211571E1,1.3716839E1,0E0,6.2429047E0,0E0,4.3109694E0,3.1962023E0,6.191738E0,3.2731342E0,8.204594E0,0E0,2.7493896E0,0E0,0E0,2.784617E0,0E0,0E0,3.8330421E0,0E0,2.2899723E0,4.2613792E0,7.5364814E0,0E0,0E0,4.4944777E0,0E0,2.6010895E0,3.0273366E0,0E0,0E0,2.8262377E0,2.1078198E0,5.1263947E0,2.875792E0,0E0,0E0,0E0,0E0,0E0,0E0,0E0,0E0,0E0,0E0,0E0,0E0,0E0,0E0],"parents":[2147483647,0,0,1,1,2,2,3,3,4,4,5,5,6,6,8,8,10,10,13,13,14,14,16,16,18,18,19,19,20,20,21,21,22,22,24,24,27,27,30,30,32,32,33,33,34,34,37,37,39,39,40,40,43,43,44,44,45,45,46,46],"right_children":[2,4,6,8,10,12,14,-1,16,-1,18,-1,-1,20,22,-1,24,-1,26,28,30,32,34,-1,36,-1,-1,38,-1,-1,40,-1,42,44,46,-1,-1,48,-1,50,52,-1,-1,54,56,58,60,-1,-1,-1,-1,-1,-1,-1,-1,-1,-1,-1,-1,-1,-1],"split_conditions":[2.6101759E1,2.2898142E0,1.742094E0,4.056382E-1,3.9932242E-1,-3.411519E-1,3.2480198E1,-1.8942401E-1,9.935078E0,-1.2756023E-1,1.8221432E1,-1.2931241E-1,-0E0,5.595033E0,-6.243561E-1,-1.7634481E-1,2.3560492E1,-8.9968294E-2,1E0,6.782514E-2,-3.3036247E-1,3.9527E-1,3.8793808E-1,-3.944064E-2,-7.117601E1,-5.935397E-2,-5.6714374E-3,4.0228683E-1,-9.9803135E-2,-0E0,4.1523173E-1,-8.2861E-2,1.0516441E0,2.1857216E0,5.1309997E-1,-0E0,-1.2313365E-1,3.3148304E1,3.355579E-3,-5.8564325E-3,-2.025738E1,-4.452942E-2,-0E0,4.8520405E1,4.8294544E-1,8.749886E-1,7.5968885E0,-0E0,-7.007755E-2,-0E0,-9.06805E-2,6.4079545E-2,-5.302062E-2,-1.1270712E-1,-0E0,-7.957813E-3,-6.2452137E-2,5.181822E-3,-4.9187604E-2,-4.8348945E-2,1.3038659E-3],"split_indices":[6,12,12,0,0,13,6,0,6,0,6,0,0,4,11,0,5,0,22,1,2,0,0,0,8,0,0,0,0,0,0,0,2,12,13,0,0,5,0,1,8,0,0,6,11,11,8,0,0,0,0,0,0,0,0,0,0,0,0,0,0],"split_type":[0,0,0,0,0,0,0,0,0,0,0,0,0,0,0,0,0,0,0,0,0,0,0,0,0,0,0,0,0,0,0,0,0,0,0,0,0,0,0,0,0,0,0,0,0,0,0,0,0,0,0,0,0,0,0,0,0,0,0,0,0],"sum_hessian":[4.8189723E4,1.7164168E4,3.1025557E4,7.2652783E3,9.89889E3,1.2597223E3,2.9765834E4,3.6677778E3,3.5975002E3,3.2233335E3,6.6755557E3,1.2308334E3,2.888889E1,6.264167E3,2.3501668E4,1.2216667E3,2.3758335E3,3.6633335E3,3.0122224E3,2.873889E3,3.3902778E3,2.741389E3,2.076028E4,8.022223E2,1.5736112E3,1.8986112E3,1.1136112E3,2.6911113E3,1.8277779E2,2.2527779E2,3.1650002E3,9.658334E2,1.7755557E3,2.5066667E3,1.8253611E4,2.6666668E1,1.5469445E3,1.3925001E3,1.2986112E3,2.8533335E3,3.116667E2,1.185E3,5.905556E2,4.3222223E2,2.0744446E3,1.649639E4,1.7572223E3,7.980556E2,5.9444446E2,1.5277779E2,2.7005557E3,9.972223E1,2.1194446E2,3.8555557E2,4.6666668E1,1.6613889E3,4.1305557E2,1.5883057E4,6.133334E2,1.5122223E3,2.4500002E2],"tree_param":{"num_deleted":"0","num_feature":"25","num_nodes":"61","size_leaf_vector":"1"}},{"base_weights":[-2.4256729E-1,-3.3210108E-1,-1.7975251E-1,-2.881893E-1,-4.0162855E-1,-1.506639E-1,-2.815801E-1,-2.0919296E-1,-2.2901985E-1,-2.6067463E-1,-2.0273465E-1,-1.9959119E-1,-1.1115308E-1,-1.7557442E-1,-1.0254303E-1,-2.835076E-1,-2.0238814E-1,-1.455517E-1,-1.5924866E-1,-1.03005774E-1,-1.6749996E-1,-2.8809792E-1,-0E0,-2.0891653E-1,-0E0,-1.7006266E-1,-2.198363E-2,-1.4273034E-1,-8.853057E-2,-1.03348054E-1,-0E0,-0E0,-1.7408176E-1,-1.2664378E-1,-0E0,-1.17893025E-1,-1.283584E-1,-9.1875106E-2,-1.40109565E-2,-0E0,-9.3760766E-2,-8.173869E-2,-0E0,-7.2395325E-2,-4.079075E-2],"categories":[],"categories_nodes":[],"categories_segments":[],"categories_sizes":[],"default_left":[0,0,0,0,0,0,0,0,0,0,0,0,0,0,0,0,0,0,0,0,0,0,0,0,0,0,0,0,0,0,0,0,0,0,0,0,0,0,0,0,0,0,0,0,0],"id":3,"left_children":[1,3,5,7,9,11,13,-1,15,-1,-1,17,19,-1,-1,21,23,-1,25,27,29,31,-1,33,-1,35,-1,37,39,-1,-1,-1,-1,-1,-1,-1,41,-1,-1,-1,43,-1,-1,-1,-1],"loss_changes":[2.649441E2,5.2143066E1,7.9193726E1,3.973114E1,7.51001E0,3.9433197E1,4.255249E0,0E0,3.8223877E0,0E0,0E0,1.3420959E1,2.7182617E0,0E0,0E0,2.8132477E0,5.476593E0,0E0,4.833481E0,3.8128662E0,2.4372559E0,2.2107086E0,0E0,3.7122345E0,0E0,2.0969696E0,0E0,2.0315018E0,3.41996E0,0E0,0E0,0E0,0E0,0E0,0E0,0E0,2.4639664E0,0E0,0E0,0E0,3.432869E0,0E0,0E0,0E0,0E0],"parents":[2147483647,0,0,1,1,2,2,3,3,4,4,5,5,6,6,8,8,11,11,12,12,15,15,16,16,18,18,19,19,20,20,21,21,23,23,25,25,27,27,28,28,36,36,40,40],"right_children":[2,4,6,8,10,12,14,-1,16,-1,-1,18,20,-1,-1,22,24,-1,26,28,30,32,-1,34,-1,36,-1,38,40,-1,-1,-1,-1,-1,-1,-1,42,-1,-1,-1,44,-1,-1,-1,-1],"split_conditions":[2.4332101E0,3.399117E1,3.5003223E1,4.1274994E1,-1.878037E-1,4.2607166E1,1.024466E0,-2.0919296E-1,1.9839296E0,-2.6067463E-1,-2.0273465E-1,2.8095865E0,5.901104E-1,-1.7557442E-1,-1.0254303E-1,3.3637608E1,2.0073211E0,-1.455517E-1,4.242848E-1,-4.319189E-1,1.863105E0,-6.722599E1,-0E0,5.556748E1,-0E0,5.1685417E-1,-2.198363E-2,4.104758E-1,-5.431915E1,-1.03348054E-1,-0E0,-0E0,-1.7408176E-1,-1.2664378E-1,-0E0,-1.17893025E-1,6.679042E-2,-9.1875106E-2,-1.40109565E-2,-0E0,4.6805862E1,-8.173869E-2,-0E0,-7.2395325E-2,-4.079075E-2],"split_indices":[12,5,5,7,13,7,2,0,12,0,0,12,11,0,0,5,2,0,0,11,2,8,0,7,0,2,0,0,8,0,0,0,0,0,0,0,1,0,0,0,7,0,0,0,0],"split_type":[0,0,0,0,0,0,0,0,0,0,0,0,0,0,0,0,0,0,0,0,0,0,0,0,0,0,0,0,0,0,0,0,0,0,0,0,0,0,0,0,0,0,0,0,0],"sum_hessian":[4.8145004E4,1.976639E4,2.8378613E4,1.2235001E4,7.531389E3,2.2170002E4,6.2086113E3,5.761667E3,6.4733335E3,4.496389E3,3.0350002E3,9.770556E3,1.2399445E4,5.394167E3,8.1444446E2,1.9683334E3,4.505E3,4.4436113E3,5.326945E3,1.1016945E4,1.3825001E3,1.9397223E3,2.8611113E1,4.352778E3,1.5222223E2,4.8122227E3,5.147222E2,2.7286113E3,8.288334E3,1.3594445E3,2.3055557E1,4.2222225E1,1.8975001E3,4.255278E3,9.750001E1,2.6886113E3,2.1236113E3,2.3961113E3,3.3250003E2,5.1083334E2,7.7775005E3,1.9741667E3,1.4944446E2,3.4463892E3,4.3311113E3],"tree_param":{"num_deleted":"0","num_feature":"25","num_nodes":"45","size_leaf_vector":"1"}},{"base_weights":[-3.7770402E-1,-4.5079225E-1,-3.2197538E-1,-2.9256555E-1,-3.8776714E-1,-2.358753E-1,-2.881264E-1,-1.9852094E-1,-2.472112E-1,-3.0306074E-1,-2.3204497E-1,-1.9164982E-1,-2.7212006E-1,-0E0,-1.3844857E-1,-2.736976E-1,-0E0,-0E0,-1.6296534E-1],"categories":[],"categories_nodes":[],"categories_segments":[],"categories_sizes":[],"default_left":[0,0,0,0,0,0,0,0,0,0,0,0,0,0,0,0,0,0,0],"id":4,"left_children":[1,3,5,-1,7,-1,9,-1,-1,11,13,-1,15,-1,-1,17,-1,-1,-1],"loss_changes":[1.8689307E2,4.4084473E1,6.185962E1,0E0,3.8370361E0,0E0,9.759766E0,0E0,0E0,2.119629E0,2.0066528E0,0E0,3.0612488E0,0E0,0E0,2.0593567E0,0E0,0E0,0E0],"parents":[2147483647,0,0,1,1,2,2,4,4,6,6,9,9,10,10,12,12,15,15],"right_children":[2,4,6,-1,8,-1,10,-1,-1,12,14,-1,16,-1,-1,18,-1,-1,-1],"split_conditions":[2.9734266E1,2.5303555E0,2.3939142E0,-2.9256555E-1,3.0086754E1,-2.358753E-1,4.470108E1,-1.9852094E-1,-2.472112E-1,2.7207783E-1,4.4892395E1,-1.9164982E-1,1.9009304E0,-0E0,-1.3844857E-1,3.0320297E1,-0E0,-0E0,-1.6296534E-1],"split_indices":[6,12,12,0,5,0,6,0,0,13,7,0,2,0,0,7,0,0,0],"split_type":[0,0,0,0,0,0,0,0,0,0,0,0,0,0,0,0,0,0,0],"sum_hessian":[4.8173613E4,2.0732502E4,2.7441113E4,1.229889E4,8.433611E3,8.37889E3,1.9062223E4,3.1155557E3,5.3180557E3,1.4875557E4,4.186667E3,8.815834E3,6.0597227E3,5.555556E0,4.1811113E3,6.0308335E3,2.888889E1,9.166667E0,6.021667E3],"tree_param":{"num_deleted":"0","num_feature":"25","num_nodes":"19","size_leaf_vector":"1"}},{"base_weights":[-2.3683985E-1,-3.4824285E-1,-1.1770596E-2,-4.4857612E-1,-2.4048984E-1,-1.0588136E-1,1.9044976E-1,-4.893669E-1,-3.7000898E-1,-3.1956926E-1,-1.4664328E-1,-1.6701183E-1,2.2531513E-2,2.6069406E-1,9.360769E-2,-3.756947E-1,-3.0512005E-1,-4.1084376E-1,-2.6988703E-1,-2.4965306E-1,-2.8189135E-1,-2.2434053E-1,-5.4953292E-2,-2.605109E-1,-1.0336063E-1,-7.138652E-2,9.5193416E-2,1.4728622E-1,3.154513E-1,-6.0357306E-2,1.6106631E-1,-4.4932574E-1,-2.8747794E-1,-2.5459614E-1,-1.428858E-1,-1.611004E-1,-3.4885252E-1,-3.197766E-1,-1.6423231E-1,-4.273604E-3,-2.4771029E-1,-8.680886E-2,5.3346895E-2,-8.530321E-2,-1.7255592E-1,-4.7766678E-2,-1.875395E-1,-1.8855992E-1,-2.0536982E-2,3.2594854E-1,5.4227266E-2,-0E0,2.1702795E-1,-0E0,3.2487786E-1,-1.24048196E-1,-0E0,1.874677E-1,-4.8318356E-2,-2.68709E-1,-0E0,-3.0696803E-1,-0E0,-0E0,-1.05680875E-1,-2.1929929E-1,-1.1679486E-2,-3.520499E-1,-2.261577E-1,-2.1109298E-1,-2.6518434E-2,-2.8571516E-1,-1.6890368E-1,-1.2172701E-1,3.8047628E-3,-0E0,1.0821034E-1,-1.2294523E-1,-0E0,-1.16418235E-1,-0E0,-0E0,-2.2088091E-1,-1.2833284E-1,-0E0,7.6933235E-2,-5.395093E-2,3.7858805E-1,-0E0,1.3283055E-1,-1.1542011E-2,2.381705E-1,-0E0,1.9492103E-1,-0E0,-0E0,-1.725483E-1,1.00624144E-1,3.0426502E-1,-1.1528498E-1,1.5727883E-2,-1.9384617E-1,-0E0,-0E0,-2.112829E-1,-1.4738145E-1,-0E0,-1.458113E-1,-0E0,-1.7151755E-1,-0E0,-0E0,-1.11539036E-1,-7.214133E-4,-8.879712E-2,-3.4383843E-3,7.7392206E-2,-0E0,1.08835965E-1,-0E0,-8.8220775E-2,-2.3805505E-2,6.2304396E-2,-0E0,-1.3357097E-1,1.1954039E-1,-0E0,3.842992E-2,-4.965732E-2,-0E0,2.4003713E-1,-0E0,1.0731405E-1,-2.944921E-2,7.9741575E-2,-0E0,1.4813301E-1,-0E0,-1.1957904E-1,7.503731E-2,-0E0,-0E0,2.1425803E-1],"categories":[],"categories_nodes":[],"categories_segments":[],"categories_sizes":[],"default_left":[0,0,0,0,0,0,0,0,0,0,0,0,0,0,0,0,0,0,0,0,0,0,0,0,0,0,0,0,0,1,0,0,0,0,0,0,0,0,0,0,0,0,0,0,0,0,0,0,0,0,0,0,0,0,0,0,0,0,0,0,0,0,0,0,0,0,0,0,0,0,0,0,0,0,0,0,0,0,0,0,0,0,0,0,0,0,0,0,0,0,0,0,0,0,0,0,0,1,0,0,0,0,0,0,0,0,0,0,0,0,0,0,0,0,0,0,0,0,0,0,0,0,0,0,0,0,0,0,0,0,0,0,0,0,0,0,0,0,0,0,0,0,0],"id":5,"left_children":[1,3,5,7,9,11,13,15,17,19,21,23,25,27,29,31,-1,33,35,-1,37,39,41,43,45,47,49,51,53,55,57,59,61,-1,-1,63,65,67,69,-1,71,73,75,77,-1,79,81,83,85,87,89,-1,91,-1,93,95,-1,97,99,-1,-1,101,-1,-1,-1,-1,-1,103,105,107,-1,109,111,113,115,-1,117,-1,-1,119,121,-1,123,-1,-1,125,127,129,-1,131,133,135,-1,-1,-1,-1,137,139,141,-1,-1,-1,-1,-1,-1,-1,-1,-1,-1,-1,-1,-1,-1,-1,-1,-1,-1,-1,-1,-1,-1,-1,-1,-1,-1,-1,-1,-1,-1,-1,-1,-1,-1,-1,-1,-1,-1,-1,-1,-1,-1,-1,-1],"loss_changes":[1.2020112E3,3.392881E2,3.030856E2,4.2556152E1,1.1022809E2,8.73747E1,3.0351456E1,1.9231445E1,1.5580322E1,2.3494873E1,4.8229584E1,4.0381012E1,2.4051765E1,1.2466919E1,2.3927261E1,4.356262E0,0E0,4.437683E0,9.444748E0,0E0,2.213681E1,1.6757767E1,1.2029427E1,1.1453308E1,1.8625187E1,6.4811125E0,1.5044468E1,8.576647E0,5.9992523E0,2.6200585E0,1.0241783E1,2.2942657E0,7.162918E0,0E0,0E0,2.4431095E0,2.4192429E0,7.203949E0,6.19096E0,0E0,5.049286E0,9.730125E0,2.8899026E0,4.438671E0,0E0,1.0146056E1,1.0355137E1,2.5848522E0,3.3477979E0,4.8718452E0,1.0437683E1,0E0,2.9250088E0,0E0,3.0264893E0,2.3211632E0,0E0,1.0156628E1,3.3159711E0,0E0,0E0,3.3513718E0,0E0,0E0,0E0,0E0,0E0,2.3517456E0,4.8873825E0,7.76532E0,0E0,2.2176056E0,2.7299347E0,5.210125E0,2.1241658E0,0E0,2.0713415E0,0E0,0E0,3.7865486E0,7.27897E0,0E0,2.0003433E0,0E0,0E0,2.137405E0,3.4075222E0,2.3871841E0,0E0,5.062421E0,4.1738253E0,2.2581062E0,0E0,0E0,0E0,0E0,2.217526E0,2.6546745E0,7.199089E0,0E0,0E0,0E0,0E0,0E0,0E0,0E0,0E0,0E0,0E0,0E0,0E0,0E0,0E0,0E0,0E0,0E0,0E0,0E0,0E0,0E0,0E0,0E0,0E0,0E0,0E0,0E0,0E0,0E0,0E0,0E0,0E0,0E0,0E0,0E0,0E0,0E0,0E0,0E0,0E0,0E0,0E0,0E0,0E0],"parents":[2147483647,0,0,1,1,2,2,3,3,4,4,5,5,6,6,7,7,8,8,9,9,10,10,11,11,12,12,13,13,14,14,15,15,17,17,18,18,20,20,21,21,22,22,23,23,24,24,25,25,26,26,27,27,28,28,29,29,30,30,31,31,32,32,35,35,36,36,37,37,38,38,40,40,41,41,42,42,43,43,45,45,46,46,47,47,48,48,49,49,50,50,52,52,54,54,55,55,57,57,58,58,61,61,67,67,68,68,69,69,71,71,72,72,73,73,74,74,76,76,79,79,80,80,82,82,85,85,86,86,87,87,89,89,90,90,91,91,96,96,97,97,98,98],"right_children":[2,4,6,8,10,12,14,16,18,20,22,24,26,28,30,32,-1,34,36,-1,38,40,42,44,46,48,50,52,54,56,58,60,62,-1,-1,64,66,68,70,-1,72,74,76,78,-1,80,82,84,86,88,90,-1,92,-1,94,96,-1,98,100,-1,-1,102,-1,-1,-1,-1,-1,104,106,108,-1,110,112,114,116,-1,118,-1,-1,120,122,-1,124,-1,-1,126,128,130,-1,132,134,136,-1,-1,-1,-1,138,140,142,-1,-1,-1,-1,-1,-1,-1,-1,-1,-1,-1,-1,-1,-1,-1,-1,-1,-1,-1,-1,-1,-1,-1,-1,-1,-1,-1,-1,-1,-1,-1,-1,-1,-1,-1,-1,-1,-1,-1,-1,-1,-1,-1,-1],"split_conditions":[1.705115E-1,3.046079E1,4.1263096E1,-4.1334633E-2,-4.7814544E-2,4.0102324E-1,1E0,1.6812532E1,4.1135484E-1,-3.1811076E-1,4.0276875E1,2.7280447E1,3.2149456E1,4.723706E1,2.9247418E-1,4.1634694E-1,-3.0512005E-1,1.0649338E0,2.674682E1,-2.4965306E-1,4.3669632E1,5.1486855E0,4.070574E-1,1.2325413E0,1E0,1.9082384E1,5.2852263E0,2.9247418E-1,-6.546487E1,4.868508E1,6.919201E-1,6.528676E0,2.786246E1,-2.5459614E-1,-1.428858E-1,-1.3997031E1,2.7483435E1,4.056382E-1,5.187239E1,-4.273604E-3,1E0,5.1501183E1,4.667732E1,4.1286516E-1,-1.7255592E-1,2.5604236E-1,5.239636E0,4.3093395E-1,5.247807E0,1.6767026E0,1E0,-0E0,1.306679E1,-0E0,1.0772226E0,-3.6793834E-1,-0E0,4.6217083E1,1E0,-2.68709E-1,-0E0,-7.5937726E-2,-0E0,-0E0,-1.05680875E-1,-2.1929929E-1,-1.1679486E-2,4.7916E0,1.5539356E0,4.0946838E-1,-2.6518434E-2,4.2971787E-1,-2.1953692E0,5.551786E0,5.1400635E1,-0E0,6.8735786E-2,-1.2294523E-1,-0E0,5.4459066E0,4.0731966E-1,-0E0,-2.954008E0,-1.2833284E-1,-0E0,2.441266E-3,-7.248259E-1,3.775219E1,-0E0,3.9659443E-1,7.1799326E-1,-6.585288E1,-0E0,1.9492103E-1,-0E0,-0E0,-4.9570793E-1,2.2427127E0,3.6770365E-1,-1.1528498E-1,1.5727883E-2,-1.9384617E-1,-0E0,-0E0,-2.112829E-1,-1.4738145E-1,-0E0,-1.458113E-1,-0E0,-1.7151755E-1,-0E0,-0E0,-1.11539036E-1,-7.214133E-4,-8.879712E-2,-3.4383843E-3,7.7392206E-2,-0E0,1.08835965E-1,-0E0,-8.8220775E-2,-2.3805505E-2,6.2304396E-2,-0E0,-1.3357097E-1,1.1954039E-1,-0E0,3.842992E-2,-4.965732E-2,-0E0,2.4003713E-1,-0E0,1.0731405E-1,-2.944921E-2,7.9741575E-2,-0E0,1.4813301E-1,-0E0,-1.1957904E-1,7.503731E-2,-0E0,-0E0,2.1425803E-1],"split_indices":[13,6,6,13,13,13,24,5,0,13,6,6,6,7,13,0,0,2,5,0,6,4,0,5,24,6,4,13,8,7,11,4,6,0,0,5,6,0,7,0,22,7,7,0,0,13,4,0,4,3,24,0,8,0,11,11,0,6,16,0,0,13,0,0,0,0,0,4,2,0,0,0,3,4,6,0,13,0,0,4,0,0,3,0,0,1,11,7,0,0,13,9,0,0,0,0,5,9,2,0,0,0,0,0,0,0,0,0,0,0,0,0,0,0,0,0,0,0,0,0,0,0,0,0,0,0,0,0,0,0,0,0,0,0,0,0,0,0,0,0,0,0,0],"split_type":[0,0,0,0,0,0,0,0,0,0,0,0,0,0,0,0,0,0,0,0,0,0,0,0,0,0,0,0,0,0,0,0,0,0,0,0,0,0,0,0,0,0,0,0,0,0,0,0,0,0,0,0,0,0,0,0,0,0,0,0,0,0,0,0,0,0,0,0,0,0,0,0,0,0,0,0,0,0,0,0,0,0,0,0,0,0,0,0,0,0,0,0,0,0,0,0,0,0,0,0,0,0,0,0,0,0,0,0,0,0,0,0,0,0,0,0,0,0,0,0,0,0,0,0,0,0,0,0,0,0,0,0,0,0,0,0,0,0,0,0,0,0,0],"sum_hessian":[4.8082223E4,3.2128334E4,1.595389E4,1.6572223E4,1.5556112E4,1.0925278E4,5.0286113E3,1.0790556E4,5.781667E3,8.370278E3,7.1858335E3,7.4550005E3,3.4702778E3,2.8433335E3,2.1852778E3,2.0230557E3,8.7675E3,4.0130557E3,1.7686112E3,2.1744446E3,6.1958335E3,3.8211113E3,3.3647224E3,2.9419446E3,4.5130557E3,1.4511112E3,2.0191667E3,9.9861115E2,1.8447223E3,6.188889E2,1.5663889E3,1.0183334E3,1.0047223E3,3.5605557E3,4.5250003E2,8.108334E2,9.5777783E2,4.6080557E3,1.5877778E3,4.1583334E2,3.4052778E3,2.6758335E3,6.888889E2,4.8805557E2,2.453889E3,2.8011113E3,1.7119446E3,3.6972223E2,1.0813889E3,2.566667E2,1.7625001E3,3.6138892E2,6.372222E2,4.9166668E1,1.7955557E3,3.1E2,3.0888892E2,1.4361112E3,1.3027779E2,1.0144445E3,3.888889E0,9.5611115E2,4.8611115E1,7.138889E1,7.3944446E2,8.705556E2,8.722223E1,3.3255557E3,1.2825001E3,1.0730557E3,5.147222E2,2.1922224E3,1.2130557E3,2.0125001E3,6.633334E2,2.8138892E2,4.0750003E2,1.788889E2,3.091667E2,1.2127778E3,1.5883334E3,2.6805557E2,1.4438889E3,3.3444446E2,3.527778E1,1.9333334E2,8.880556E2,2.2194446E2,3.4722225E1,8.7111115E2,8.913889E2,5.791667E2,5.8055557E1,1.7855557E3,1E1,7.6111115E1,2.338889E2,8.8444446E2,5.516667E2,8.666667E1,4.3611115E1,8.7527783E2,8.0833336E1,5.3611115E1,3.2719446E3,1.1419445E3,1.4055556E2,9.188889E2,1.5416667E2,2.17E3,2.2222223E1,1.5722223E2,1.0558334E3,4.5000003E2,1.5625001E3,5.4777783E2,1.1555556E2,2.0972223E2,1.9777779E2,3.0055557E2,9.122223E2,1.0980557E3,4.902778E2,1.3333334E1,1.4305557E3,7.3333336E1,1.2000001E2,1.0527779E2,7.8277783E2,1.3888889E1,2.0805557E2,2.5000002E2,6.2111115E2,7.683334E2,1.23055565E2,1.6111113E1,5.630556E2,1E1,2.238889E2,7.233334E2,1.6111111E2,1.0694445E2,4.4472223E2],"tree_param":{"num_deleted":"0","num_feature":"25","num_nodes":"143","size_leaf_vector":"1"}},{"base_weights":[3.8284236E-1,4.6701458E-1,2.8032658E-1,5.911376E-1,4.375527E-1,3.521905E-1,2.132159E-1,3.858036E-1,5.2527076E-1,5.216677E-1,3.9306998E-1,4.419831E-1,3.1046867E-1,2.2613648E-1,3.921509E-2,6.7785203E-1,4.8792937E-1,6.1631733E-1,4.9107862E-1,6.271082E-1,3.7587473E-1,4.5194376E-1,8.370963E-2,4.068469E-1,2.7506086E-1,1.8584147E-1,2.7877998E-1,1.07830726E-1,8.829417E-3,-0E0,6.9291544E-1,3.607379E-1,3.146806E-1,-0E0,6.186641E-1,3.0031043E-1,3.58275E-1,3.733764E-1,-0E0,3.3537444E-1,4.3661273E-1,3.5998887E-1,4.2226002E-1,-0E0,4.131679E-1,3.556491E-1,2.3261926E-1,2.53047E-1,1.5450479E-1,3.0693448E-1,1.6957504E-1,-0E0,1.06745206E-1,-0E0,6.972897E-1,-0E0,3.7974793E-1,6.19929E-1,-0E0,2.1633263E-1,-0E0,3.6361498E-1,2.615351E-1,4.5286956E-1,1.4819673E-1,-0E0,4.269966E-1,-0E0,4.1773838E-1,3.6670426E-1,-0E0,-0E0,2.376486E-1,2.599158E-1,-0E0,9.240347E-2,2.003273E-1,3.3726245E-1,2.1496953E-1,-2.157069E-3,1.9004367E-1,4.1887143E-1,-0E0,-0E0,2.2848482E-1,-0E0,3.6895353E-1,2.4557805E-1,1.826922E-1,1.391949E-1,2.397233E-1,2.813536E-1,1.8506281E-1,1.2446903E-1,-0E0,2.5565502E-1,-0E0,-0E0,2.4969006E-1,2.554916E-1,1.562514E-1,1.5014592E-1,7.166056E-2,1.6104895E-1,2.9760323E-2,6.1388545E-2,-0E0,1.2631424E-1,-0E0,2.490825E-1,1.7433555E-1,7.821541E-3,1.4632384E-1,1.379379E-1,1.0936228E-2],"categories":[],"categories_nodes":[],"categories_segments":[],"categories_sizes":[],"default_left":[0,0,0,0,0,0,0,0,0,0,0,0,1,0,0,0,0,0,0,0,0,0,0,0,0,0,0,0,1,0,0,0,0,0,0,0,0,0,0,0,0,0,0,0,0,0,0,0,0,0,0,0,0,0,1,0,0,0,0,0,0,0,0,0,0,0,0,0,1,0,0,0,0,0,0,0,0,1,0,0,0,0,0,0,0,0,0,0,0,0,0,0,0,0,0,0,0,0,0,0,0,0,0,0,0,0,0,0,0,0,0,0,0,0,0],"id":6,"left_children":[1,3,5,7,9,11,13,-1,15,17,19,21,23,25,27,29,31,33,35,37,39,41,-1,43,45,47,49,-1,51,-1,53,55,-1,-1,57,-1,59,-1,-1,61,63,-1,65,-1,67,69,71,73,75,77,79,-1,-1,-1,81,-1,83,85,-1,-1,-1,87,89,91,93,-1,95,-1,97,99,-1,-1,101,103,-1,105,107,109,111,-1,113,-1,-1,-1,-1,-1,-1,-1,-1,-1,-1,-1,-1,-1,-1,-1,-1,-1,-1,-1,-1,-1,-1,-1,-1,-1,-1,-1,-1,-1,-1,-1,-1,-1,-1],"loss_changes":[5.920801E2,1.2658008E2,1.4526733E2,1.2688232E1,1.0446094E2,4.754663E1,3.3970642E1,0E0,5.055359E0,1.643628E1,6.9394775E1,7.3150635E0,2.7473328E1,2.6905457E1,3.1846328E0,3.3643188E0,4.718445E0,2.7841797E0,5.380371E0,2.2039795E0,3.7465088E1,7.647644E0,0E0,7.6036377E0,1.9572632E1,1.38072815E1,1.4407684E1,0E0,2.6742196E0,0E0,2.485443E0,5.3432007E0,0E0,0E0,2.5405273E0,0E0,2.5894089E0,0E0,0E0,1.6737305E1,2.8212646E1,0E0,6.8032227E0,0E0,6.6022644E0,7.6586914E0,6.2481995E0,3.4724426E0,1.4110886E1,7.659363E0,6.983307E0,0E0,0E0,0E0,2.4601135E0,0E0,2.3888245E0,2.065918E0,0E0,0E0,0E0,1.4380615E1,5.32106E0,1.1452148E1,2.137456E0,0E0,4.9819336E0,0E0,3.9120789E0,8.035004E0,0E0,0E0,4.888092E0,2.6667175E0,0E0,2.8963604E0,7.177887E0,4.706665E0,5.9174805E0,0E0,6.953331E0,0E0,0E0,0E0,0E0,0E0,0E0,0E0,0E0,0E0,0E0,0E0,0E0,0E0,0E0,0E0,0E0,0E0,0E0,0E0,0E0,0E0,0E0,0E0,0E0,0E0,0E0,0E0,0E0,0E0,0E0,0E0,0E0,0E0,0E0],"parents":[2147483647,0,0,1,1,2,2,3,3,4,4,5,5,6,6,8,8,9,9,10,10,11,11,12,12,13,13,14,14,15,15,16,16,17,17,18,18,19,19,20,20,21,21,23,23,24,24,25,25,26,26,28,28,30,30,31,31,34,34,36,36,39,39,40,40,42,42,44,44,45,45,46,46,47,47,48,48,49,49,50,50,54,54,56,56,57,57,61,61,62,62,63,63,64,64,66,66,68,68,69,69,72,72,73,73,75,75,76,76,77,77,78,78,80,80],"right_children":[2,4,6,8,10,12,14,-1,16,18,20,22,24,26,28,30,32,34,36,38,40,42,-1,44,46,48,50,-1,52,-1,54,56,-1,-1,58,-1,60,-1,-1,62,64,-1,66,-1,68,70,72,74,76,78,80,-1,-1,-1,82,-1,84,86,-1,-1,-1,88,90,92,94,-1,96,-1,98,100,-1,-1,102,104,-1,106,108,110,112,-1,114,-1,-1,-1,-1,-1,-1,-1,-1,-1,-1,-1,-1,-1,-1,-1,-1,-1,-1,-1,-1,-1,-1,-1,-1,-1,-1,-1,-1,-1,-1,-1,-1,-1,-1],"split_conditions":[3.2790417E1,3.9335456E-1,2.6108055E0,2.2572245E1,2.198185E0,3.936147E-1,4.8520405E1,3.858036E-1,1.9924418E0,1.7254585E0,2.8961835E0,5.0788834E1,4.2537746E1,1E0,-6.149866E-1,4.944966E0,5.4356136E0,-1.1568844E0,4.249709E-1,5.3212166E1,5.729436E0,1.8133167E0,8.370963E-2,4.9056845E0,2.0878088E0,3.9599818E-1,1E0,1.07830726E-1,7.1357E1,-0E0,-2.170501E-2,8.7527287E-1,3.146806E-1,-0E0,5.8611877E1,3.0031043E-1,4.8547253E1,3.733764E-1,-0E0,4.1209993E-1,4.325025E-1,3.5998887E-1,4.944966E0,-0E0,-2.2139305E-1,2.2752173E0,4.9056845E0,1.6575963E0,5.7552094E0,3.3538263E0,5.167704E0,-0E0,1.06745206E-1,-0E0,8.5162704E1,-0E0,-7.519016E1,-1.3771873E0,-0E0,2.1633263E-1,-0E0,2.217859E1,6.450553E-1,3.1106975E0,1E0,-0E0,9.94358E-2,-0E0,4.973237E-1,4.2953083E1,-0E0,-0E0,4.716027E1,3.498973E0,-0E0,5.137947E1,4.695767E1,4.3331146E1,5.500081E0,-2.157069E-3,3.2387502E0,4.1887143E-1,-0E0,-0E0,2.2848482E-1,-0E0,3.6895353E-1,2.4557805E-1,1.826922E-1,1.391949E-1,2.397233E-1,2.813536E-1,1.8506281E-1,1.2446903E-1,-0E0,2.5565502E-1,-0E0,-0E0,2.4969006E-1,2.554916E-1,1.562514E-1,1.5014592E-1,7.166056E-2,1.6104895E-1,2.9760323E-2,6.1388545E-2,-0E0,1.2631424E-1,-0E0,2.490825E-1,1.7433555E-1,7.821541E-3,1.4632384E-1,1.379379E-1,1.0936228E-2],"split_indices":[6,0,12,6,12,0,6,0,12,12,6,6,7,24,11,4,4,11,0,7,4,12,0,4,12,0,21,0,10,0,1,2,0,0,7,0,7,0,0,0,0,0,4,0,2,3,4,2,4,12,4,0,0,0,10,0,9,2,0,0,0,6,11,12,16,0,1,0,10,6,0,0,6,12,0,7,6,7,4,0,12,0,0,0,0,0,0,0,0,0,0,0,0,0,0,0,0,0,0,0,0,0,0,0,0,0,0,0,0,0,0,0,0,0,0],"split_type":[0,0,0,0,0,0,0,0,0,0,0,0,0,0,0,0,0,0,0,0,0,0,0,0,0,0,0,0,0,0,0,0,0,0,0,0,0,0,0,0,0,0,0,0,0,0,0,0,0,0,0,0,0,0,0,0,0,0,0,0,0,0,0,0,0,0,0,0,0,0,0,0,0,0,0,0,0,0,0,0,0,0,0,0,0,0,0,0,0,0,0,0,0,0,0,0,0,0,0,0,0,0,0,0,0,0,0,0,0,0,0,0,0,0,0],"sum_hessian":[6.964566E4,3.817116E4,3.1474494E4,7.2217944E3,3.0949367E4,1.5105624E4,1.636887E4,3.6907798E3,3.5310146E3,1.0591379E4,2.0357986E4,4.6856724E3,1.0419951E4,1.517906E4,1.1898107E3,6.092842E2,2.9217305E3,2.4619521E3,8.129427E3,1.3302236E3,1.9027764E4,4.497665E3,1.8800755E2,2.6953044E3,7.724647E3,8.733099E3,6.445961E3,1.4099171E2,1.048819E3,1.9577938E1,5.8970624E2,8.103657E2,2.1113647E3,1.1434905E1,2.450517E3,7.2201836E3,9.092433E2,1.3278256E3,2.3979855E0,1.1553652E4,7.474111E3,6.403761E2,3.8572888E3,3.7567146E1,2.6577373E3,2.5572632E3,5.167384E3,2.65118E3,6.081918E3,5.0359165E3,1.4100446E3,9.7245636E2,7.636267E1,2.3748999E0,5.873313E2,4.29182E1,7.674475E2,2.4471016E3,3.4156268E0,8.9799036E2,1.1252897E1,8.229791E3,3.3238618E3,7.036232E3,4.3787888E2,4.798364E1,3.8093052E3,2.0197737E1,2.6375396E3,2.4618245E3,9.543868E1,1.0613967E2,5.061244E3,2.563843E3,8.733707E1,2.6904153E3,3.391503E3,3.683818E3,1.3520984E3,9.587596E1,1.3141686E3,5.782735E2,9.057835E0,4.523898E0,7.629236E2,7.3029537E0,2.4397986E3,4.2105864E3,4.0192043E3,2.8743792E3,4.494826E2,6.0386484E3,9.975838E2,2.6290692E2,1.7497197E2,3.771283E3,3.8022285E1,1.4061959E1,2.6234775E3,1.4440674E3,1.01775714E3,4.388031E3,6.73213E2,2.3821868E3,1.8165625E2,2.4170532E3,2.7336218E2,3.1634873E3,2.2801561E2,1.1655001E3,2.5183179E3,2.291473E2,1.122951E3,1.0028591E3,3.1130954E2],"tree_param":{"num_deleted":"0","num_feature":"25","num_nodes":"115","size_leaf_vector":"1"}},{"base_weights":[-4.137588E-3,1.5067221E-2,-5.0382327E-2,2.9461078E-2,-0E0,-3.35091E-2,-9.794442E-2,-5.003135E-2,3.701051E-2,3.8437045E-3,-3.8030162E-2,-2.6143754E-2,-8.2216285E-2,-0E0,-6.0881477E-2,3.635783E-2,-4.095231E-2,1.8093453E-3,4.579719E-2,-3.028499E-2,1.3115184E-2,-4.064839E-2,-1.7113356E-3,2.0575965E-2,-2.1700453E-2,-2.1272458E-2,4.9636014E-2,-1.2260479E-3,-4.1454606E-2,2.5283962E-2,-1.1324053E-2,-5.801925E-2,-3.9771185E-3,2.7386501E-2,-1.9063456E-2,3.6807645E-2,-0E0,5.4275244E-2,-6.50552E-3,-4.9670376E-2,3.1016896E-2,4.8230807E-3,-4.0066145E-2,-3.730435E-2,-7.501559E-2,-4.5781586E-2,4.546007E-4,-2.0610994E-2,3.486799E-2,3.6678426E-2,9.50713E-3,6.166236E-3,-6.385296E-2,-3.64781E-2,2.1809038E-2,-2.8922364E-2,1.6536852E-2,-4.8388254E-2,-0E0,-3.120849E-4,-4.1158706E-2,-0E0,-5.5730056E-2],"categories":[],"categories_nodes":[],"categories_segments":[],"categories_sizes":[],"default_left":[0,0,0,0,1,0,1,0,0,0,0,0,0,0,0,0,0,0,0,0,0,0,0,0,0,0,0,0,0,0,0,0,0,0,0,0,0,0,0,0,0,0,0,1,0,1,0,0,0,0,0,0,0,0,0,0,0,0,0,0,0,0,0],"id":7,"left_children":[1,3,5,7,9,11,13,15,17,19,-1,21,-1,-1,-1,-1,-1,23,25,27,29,31,33,35,-1,-1,37,-1,-1,39,41,43,-1,-1,45,-1,47,49,51,-1,53,55,57,59,-1,61,-1,-1,-1,-1,-1,-1,-1,-1,-1,-1,-1,-1,-1,-1,-1,-1,-1],"loss_changes":[4.032258E1,6.9315186E0,9.319756E0,9.637707E0,3.936495E0,6.010066E0,2.2129536E0,2.8479302E0,4.1334953E0,4.4061866E0,0E0,2.9176269E0,0E0,0E0,0E0,0E0,0E0,2.1709025E0,3.8404293E0,2.4347982E0,3.6081662E0,2.6713781E0,2.8882997E0,2.4290109E0,0E0,0E0,3.4563541E0,0E0,0E0,4.5045247E0,2.0349653E0,3.2809153E0,0E0,0E0,2.0398817E0,0E0,2.8748517E0,2.2398987E0,2.2230434E0,0E0,3.8624277E0,2.3506477E0,2.2985106E0,2.6361237E0,0E0,2.6817613E0,0E0,0E0,0E0,0E0,0E0,0E0,0E0,0E0,0E0,0E0,0E0,0E0,0E0,0E0,0E0,0E0,0E0],"parents":[2147483647,0,0,1,1,2,2,3,3,4,4,5,5,6,6,7,7,8,8,9,9,11,11,17,17,18,18,19,19,20,20,21,21,22,22,23,23,26,26,29,29,30,30,31,31,34,34,36,36,37,37,38,38,40,40,41,41,42,42,43,43,45,45],"right_children":[2,4,6,8,10,12,14,16,18,20,-1,22,-1,-1,-1,-1,-1,24,26,28,30,32,34,36,-1,-1,38,-1,-1,40,42,44,-1,-1,46,-1,48,50,52,-1,54,56,58,60,-1,62,-1,-1,-1,-1,-1,-1,-1,-1,-1,-1,-1,-1,-1,-1,-1,-1,-1],"split_conditions":[2.0458291E-1,-6.647404E-2,4.282865E1,1.6030501E0,5.3043163E1,6.579943E-1,-6.585288E1,2.8961835E0,1.613193E1,1.067392E1,-3.8030162E-2,1E0,-8.2216285E-2,-0E0,-6.0881477E-2,3.635783E-2,-4.095231E-2,1E0,-5.8539886E0,1E0,3.824704E1,5.8511186E0,-8.832999E-4,5.2044754E0,-2.1700453E-2,-2.1272458E-2,4.734939E1,-1.2260479E-3,-4.1454606E-2,-5.7121888E-2,2.35799E-2,3.2746675E0,-3.9771185E-3,2.7386501E-2,5.635115E-1,3.6807645E-2,-1.6946499E-1,3.834886E1,3.0096085E0,-4.9670376E-2,2.8961835E0,2.486499E0,4.1932846E1,-5.402656E0,-7.501559E-2,-1.2372888E1,4.546007E-4,-2.0610994E-2,3.486799E-2,3.6678426E-2,9.50713E-3,6.166236E-3,-6.385296E-2,-3.64781E-2,2.1809038E-2,-2.8922364E-2,1.6536852E-2,-4.8388254E-2,-0E0,-3.120849E-4,-4.1158706E-2,-0E0,-5.5730056E-2],"split_indices":[13,13,6,12,7,13,9,6,6,5,0,24,0,0,0,0,0,14,5,22,6,4,1,4,0,0,6,0,0,13,1,12,0,0,2,0,13,5,8,0,6,12,6,9,0,9,0,0,0,0,0,0,0,0,0,0,0,0,0,0,0,0,0],"split_type":[0,0,0,0,0,0,0,0,0,0,0,0,0,0,0,0,0,0,0,0,0,0,0,0,0,0,0,0,0,0,0,0,0,0,0,0,0,0,0,0,0,0,0,0,0,0,0,0,0,0,0,0,0,0,0,0,0,0,0,0,0,0,0],"sum_hessian":[4.4970387E4,3.161945E4,1.3350938E4,1.6249809E4,1.5369641E4,1.0028066E4,3.3228723E3,1.2850924E3,1.4964717E4,1.4471542E4,8.98099E2,9.474006E3,5.5406067E2,8.273225E1,3.24014E3,1.0398167E2,1.1811108E3,3.228772E3,1.1735944E4,2.8466123E3,1.162493E4,5.67291E3,3.8010962E3,2.353736E3,8.7503595E2,4.016026E2,1.1334342E4,1.8207919E3,1.0258204E3,8.045758E3,3.5791716E3,3.5450696E3,2.1278403E3,8.47552E2,2.953544E3,8.8306555E2,1.4706705E3,1.0641298E4,6.9304333E2,3.0508685E2,7.740671E3,2.0638176E3,1.5153539E3,2.8483435E3,6.9672614E2,1.477596E3,1.4759481E3,9.981982E2,4.7247238E2,8.662056E3,1.9792429E3,5.1209064E2,1.809527E2,3.3970886E2,7.4009624E3,4.8143936E2,1.5823783E3,7.052892E2,8.100647E2,1.4818678E3,1.3664756E3,8.287242E2,6.4887177E2],"tree_param":{"num_deleted":"0","num_feature":"25","num_nodes":"63","size_leaf_vector":"1"}},{"base_weights":[-4.328884E-2,-1.0413908E-1,-1.5649257E-2,-2.0495053E-1,-8.49437E-2,-8.713649E-2,-9.084612E-3,-2.3404859E-1,-8.489623E-2,-1.686218E-1,-6.5821774E-2,-1.6676168E-1,-4.1091006E-2,-8.688119E-2,-3.3916973E-3,-1.4116703E-1,-0E0,-6.965823E-2,-0E0,-1.8272299E-1,-0E0,-2.0050696E-1,-5.8501184E-2,-0E0,-1.082923E-1,-7.308417E-2,2.4953948E-2,-1.0290402E-1,-0E0,6.177528E-3,-2.6224805E-2,-1.11734174E-1,-0E0,-0E0,-1.28479E-1,-2.9823473E-2,-8.908504E-2,-0E0,-5.7892237E-2,-0E0,7.166634E-2,-7.0887454E-2,-0E0,4.1656606E-2,-2.2868598E-3,-3.999425E-2,4.4380827E-3,-6.7042045E-2,2.6137246E-2,-5.9412383E-2,-0E0,-6.0496493E-3,5.3319257E-2,-2.0291679E-2,1.7906517E-2,-4.973809E-2,1.3664893E-2,-4.6596505E-2,3.3848565E-2,-0E0,8.860873E-2,-9.8654665E-2,8.220999E-3,-0E0,4.156978E-2,-2.5569554E-2,3.9192312E-3,-4.5495175E-2,1.530454E-2,-3.766991E-2,-0E0],"categories":[],"categories_nodes":[],"categories_segments":[],"categories_sizes":[],"default_left":[0,0,0,0,0,0,0,0,1,0,0,0,0,1,0,0,0,0,0,1,0,1,0,0,0,1,0,0,0,0,0,0,0,0,0,0,0,0,0,0,0,0,0,0,0,1,0,0,0,0,0,0,0,0,1,0,0,0,0,0,0,0,0,0,0,0,0,0,0,0,0],"id":8,"left_children":[1,3,5,7,9,11,13,15,17,19,21,23,25,27,29,-1,-1,-1,-1,31,-1,33,35,-1,-1,37,39,41,-1,43,45,-1,-1,-1,-1,47,49,-1,-1,-1,-1,-1,-1,51,53,55,-1,57,59,-1,61,-1,63,65,67,69,-1,-1,-1,-1,-1,-1,-1,-1,-1,-1,-1,-1,-1,-1,-1],"loss_changes":[7.275241E1,2.3187012E1,1.3250523E1,3.780983E0,1.5932823E1,6.6459618E0,1.1446327E1,2.0055466E0,2.2593017E0,3.2369194E0,6.5746384E0,2.0849724E0,3.9608998E0,3.009776E0,5.93656E0,0E0,0E0,0E0,0E0,2.2891006E0,0E0,2.299965E0,6.7270527E0,0E0,0E0,2.1521726E0,2.0082674E0,3.3549232E0,0E0,5.862951E0,4.083876E0,0E0,0E0,0E0,0E0,1.0632455E1,3.6460304E0,0E0,0E0,0E0,0E0,0E0,0E0,2.7133102E0,5.2730393E0,3.9398136E0,0E0,4.6018906E0,4.730968E0,0E0,1.9832938E0,0E0,2.463358E0,5.226016E0,4.3492975E0,3.0255804E0,0E0,0E0,0E0,0E0,0E0,0E0,0E0,0E0,0E0,0E0,0E0,0E0,0E0,0E0,0E0],"parents":[2147483647,0,0,1,1,2,2,3,3,4,4,5,5,6,6,7,7,8,8,9,9,10,10,11,11,12,12,13,13,14,14,19,19,21,21,22,22,25,25,26,26,27,27,29,29,30,30,35,35,36,36,43,43,44,44,45,45,47,47,48,48,50,50,52,52,53,53,54,54,55,55],"right_children":[2,4,6,8,10,12,14,16,18,20,22,24,26,28,30,-1,-1,-1,-1,32,-1,34,36,-1,-1,38,40,42,-1,44,46,-1,-1,-1,-1,48,50,-1,-1,-1,-1,-1,-1,52,54,56,-1,58,60,-1,62,-1,64,66,68,70,-1,-1,-1,-1,-1,-1,-1,-1,-1,-1,-1,-1,-1,-1,-1],"split_conditions":[2.5326412E1,1.9071904E0,1.9271221E0,2.032191E1,3.9425808E-1,3.9438137E-1,-7.9905665E-1,4.156635E1,5.745208E1,3.3702704E-1,-3.038603E0,-2.234033E0,4.2040348E1,9.142722E0,2.7207783E-1,-1.4116703E-1,-0E0,-6.965823E-2,-0E0,1.6182167E1,-0E0,-6.722599E1,-1.2922155E0,-0E0,-1.082923E-1,5.040508E0,3.670424E1,4.638855E1,-0E0,-1.9327674E0,4.018544E-2,-1.11734174E-1,-0E0,-0E0,-1.28479E-1,1E0,2.7335672E0,-0E0,-5.7892237E-2,-0E0,7.166634E-2,-7.0887454E-2,-0E0,2.1516547E0,3.9722626E1,5.2137497E1,4.4380827E-3,4.2971787E-1,4.599155E1,-5.9412383E-2,-2.8329682E-1,-6.0496493E-3,3.2480198E1,4.0331584E-1,1.9986846E0,9.4943374E-1,1.3664893E-2,-4.6596505E-2,3.3848565E-2,-0E0,8.860873E-2,-9.8654665E-2,8.220999E-3,-0E0,4.156978E-2,-2.5569554E-2,3.9192312E-3,-4.5495175E-2,1.530454E-2,-3.766991E-2,-0E0],"split_indices":[6,12,12,6,0,0,11,8,10,13,6,3,6,8,13,0,0,0,0,9,0,8,3,0,0,10,10,6,0,3,1,0,0,0,0,16,3,0,0,0,0,0,0,12,6,7,0,0,7,0,2,0,6,0,10,2,0,0,0,0,0,0,0,0,0,0,0,0,0,0,0],"split_type":[0,0,0,0,0,0,0,0,0,0,0,0,0,0,0,0,0,0,0,0,0,0,0,0,0,0,0,0,0,0,0,0,0,0,0,0,0,0,0,0,0,0,0,0,0,0,0,0,0,0,0,0,0,0,0,0,0,0,0,0,0,0,0,0,0,0,0,0,0,0,0],"sum_hessian":[4.4000176E4,1.3617659E4,3.0382516E4,2.0774033E3,1.1540256E4,2.4123936E3,2.7970123E4,1.5953182E3,4.82085E2,2.0321063E3,9.508149E3,7.922643E2,1.6201294E3,1.7734863E3,2.6196637E4,1.5804725E3,1.4845669E1,4.121716E2,6.991341E1,1.8261937E3,2.0591266E2,4.0453E2,9.10362E3,6.903573E1,7.232285E2,1.1973009E3,4.2282843E2,1.5458738E3,2.2761256E2,1.8142408E4,8.054228E3,1.7850864E3,4.1107285E1,9.505305E0,3.950247E2,4.883488E3,4.220132E3,3.0251764E2,8.947833E2,2.754868E2,1.4734167E2,1.3809111E3,1.6496268E2,3.7255059E3,1.4416902E4,5.936792E3,2.1174363E3,3.043888E3,1.8395999E3,3.705614E3,5.14518E2,5.1991534E2,3.2055906E3,7.894807E3,6.5220947E3,5.2868706E3,6.499216E2,2.8666707E3,1.772172E2,1.5794822E3,2.6011765E2,5.969768E1,4.548203E2,8.4860486E2,2.3569856E3,4.4814385E3,3.413369E3,3.935605E2,6.1285347E3,3.9958235E3,1.2910469E3],"tree_param":{"num_deleted":"0","num_feature":"25","num_nodes":"71","size_leaf_vector":"1"}},{"base_weights":[-1.6166514E-1,-2.4609105E-1,-1.12726666E-1,-2.90079E-1,-1.6419843E-1,-1.6466917E-1,-8.0873534E-2,-1.5979412E-1,-3.0372062E-1,-0E0,-1.7391703E-1,-1.8691745E-1,-1.0013542E-1,-7.720936E-2,-1.3609284E-1,-0E0,-1.056111E-1,-2.0543306E-1,-1.5658434E-1,-2.4354564E-1,-1.4440012E-1,-3.2537367E-2,-1.9929744E-1,-1.0838312E-1,2.8704138E-2,-9.879431E-2,-6.038163E-2,-1.4933066E-1,-0E0,-1.2516412E-1,-1.0987358E-1,-2.0159113E-1,-0E0,-1.1765565E-1,-0E0,-1.2170362E-1,-3.705984E-2,-0E0,-6.6023275E-2,-0E0,-1.1637266E-1,-0E0,-1.2068144E-1,-1.4761384E-1,-5.5636756E-2,-1.393476E-1,-5.485542E-2,-0E0,-4.3653615E-2,-0E0,-7.209148E-2,-0E0,-9.323952E-2,-0E0,-7.3329516E-2,-6.2163737E-2,-1.1752012E-1,-0E0,-5.2091803E-2],"categories":[],"categories_nodes":[],"categories_segments":[],"categories_sizes":[],"default_left":[0,0,0,0,0,0,0,0,0,0,0,0,0,0,0,0,0,0,0,0,0,0,0,0,0,0,1,0,0,0,0,0,0,0,0,0,0,0,0,0,1,0,0,0,0,0,1,0,0,0,0,0,0,0,0,0,0,0,0],"id":9,"left_children":[1,3,5,7,9,11,13,15,17,-1,19,21,23,25,-1,-1,-1,-1,-1,27,29,-1,31,33,-1,35,37,-1,-1,-1,39,41,-1,43,-1,45,-1,-1,47,-1,49,-1,-1,51,53,55,57,-1,-1,-1,-1,-1,-1,-1,-1,-1,-1,-1,-1],"loss_changes":[1.6566333E2,4.88031E1,4.048294E1,1.1883301E1,9.589493E0,1.0883728E1,5.5125275E0,3.295004E0,7.459656E0,0E0,6.0683594E0,8.935043E0,3.9162006E0,4.0974884E0,0E0,0E0,0E0,0E0,0E0,2.483612E0,4.9150696E0,0E0,2.795105E0,3.6261215E0,0E0,3.6118622E0,2.7753983E0,0E0,0E0,0E0,2.5105095E0,2.4084167E0,0E0,2.3556557E0,0E0,2.5512924E0,0E0,0E0,3.7991753E0,0E0,2.4069405E0,0E0,0E0,2.711979E0,4.024539E0,2.7204857E0,2.620987E0,0E0,0E0,0E0,0E0,0E0,0E0,0E0,0E0,0E0,0E0,0E0,0E0],"parents":[2147483647,0,0,1,1,2,2,3,3,4,4,5,5,6,6,7,7,8,8,10,10,11,11,12,12,13,13,19,19,20,20,22,22,23,23,25,25,26,26,30,30,31,31,33,33,35,35,38,38,40,40,43,43,44,44,45,45,46,46],"right_children":[2,4,6,8,10,12,14,16,18,-1,20,22,24,26,-1,-1,-1,-1,-1,28,30,-1,32,34,-1,36,38,-1,-1,-1,40,42,-1,44,-1,46,-1,-1,48,-1,50,-1,-1,52,54,56,58,-1,-1,-1,-1,-1,-1,-1,-1,-1,-1,-1,-1],"split_conditions":[2.8043108E1,7.4839495E-2,1.3353157E-2,2.1275068E1,-1.0340333E1,4.319323E1,9.876099E-1,5.139022E0,-1.766794E-1,-0E0,3.9730406E-1,5.139022E0,3.2292248E1,3.846685E1,-1.3609284E-1,-0E0,-1.056111E-1,-2.0543306E-1,-1.5658434E-1,3.5234954E0,1.5384242E1,-3.2537367E-2,4.284921E-1,2.595498E0,2.8704138E-2,4.0319663E-1,2.617614E0,-1.4933066E-1,-0E0,-1.2516412E-1,4.747926E0,-2.170501E-2,-0E0,4.0102068E-1,-0E0,3.893825E-1,-3.705984E-2,-0E0,5.4144874E0,-0E0,8.594871E-1,-0E0,-1.2068144E-1,4.342766E1,5.8670545E0,5.8078527E0,5.106429E0,-0E0,-4.3653615E-2,-0E0,-7.209148E-2,-0E0,-9.323952E-2,-0E0,-7.3329516E-2,-6.2163737E-2,-1.1752012E-1,-0E0,-5.2091803E-2],"split_indices":[6,13,13,7,5,6,11,4,13,0,0,4,5,6,0,0,0,0,0,12,6,0,0,12,0,0,10,0,0,0,4,1,0,0,0,13,0,0,4,0,10,0,0,6,4,4,10,0,0,0,0,0,0,0,0,0,0,0,0],"split_type":[0,0,0,0,0,0,0,0,0,0,0,0,0,0,0,0,0,0,0,0,0,0,0,0,0,0,0,0,0,0,0,0,0,0,0,0,0,0,0,0,0,0,0,0,0,0,0,0,0,0,0,0,0,0,0,0,0,0,0],"sum_hessian":[4.105361E4,1.4973309E4,2.6080299E4,9.643352E3,5.329957E3,9.775166E3,1.6305134E4,9.9728015E2,8.646071E3,2.6296732E2,5.0669897E3,7.1362446E3,2.638921E3,1.599407E4,3.110629E2,9.037888E1,9.0690125E2,4.036662E3,4.6094097E3,1.3839952E3,3.6829944E3,6.8786273E2,6.448382E3,2.5689558E3,6.996516E1,6.7158267E3,9.278244E3,1.3359098E3,4.8085358E1,1.1403888E3,2.5426055E3,6.371055E3,7.732661E1,2.4405923E3,1.2836351E2,3.9311702E3,2.7846565E3,8.826533E2,8.395591E3,9.165079E1,2.4509546E3,4.838157E1,6.322674E3,1.5238536E3,9.167387E2,2.9790308E3,9.521392E2,9.2738885E2,7.4682017E3,3.7948967E1,2.4130059E3,6.906191E1,1.4547917E3,4.741219E2,4.426168E2,2.0003646E3,9.786662E2,2.4512811E2,7.070111E2],"tree_param":{"num_deleted":"0","num_feature":"25","num_nodes":"59","size_leaf_vector":"1"}},{"base_weights":[-2.9259512E-1,-3.5110512E-1,-2.3141511E-1,-2.5093642E-1,-3.0902803E-1,-1.8083568E-1,-2.079862E-1,-3.3194983E-1,-2.2942008E-1,-2.2274947E-1,-9.801235E-2,-1.414631E-1,-3.4408468E-1,-0E0,-1.3873582E-1,-1.3506757E-1,-1.0831886E-1,-2.2928295E-1,-3.081052E-1,-8.719409E-2,-0E0,-0E0,-1.8412988E-1],"categories":[],"categories_nodes":[],"categories_segments":[],"categories_sizes":[],"default_left":[0,0,0,0,0,0,0,0,0,0,0,0,0,0,0,0,0,0,1,0,0,0,0],"id":10,"left_children":[1,3,5,-1,7,-1,9,11,13,15,-1,-1,17,-1,-1,-1,19,-1,21,-1,-1,-1,-1],"loss_changes":[1.3011694E2,4.980127E1,2.6353516E1,0E0,1.6042236E1,0E0,4.7301636E0,3.9698486E0,3.12529E0,2.0180054E0,0E0,0E0,4.2509766E0,0E0,0E0,0E0,2.3450613E0,0E0,3.6387024E0,0E0,0E0,0E0,0E0],"parents":[2147483647,0,0,1,1,2,2,4,4,6,6,7,7,8,8,9,9,12,12,16,16,18,18],"right_children":[2,4,6,-1,8,-1,10,12,14,16,-1,-1,18,-1,-1,-1,20,-1,22,-1,-1,-1,-1],"split_conditions":[3.413956E1,-1.0787525E-1,-1.0166597E-1,-2.5093642E-1,2.9247418E-1,-1.8083568E-1,4.470108E1,4.9149194E-1,-1.3771873E0,2.2083569E0,-9.801235E-2,-1.414631E-1,2.1559721E1,-0E0,-1.3873582E-1,-1.3506757E-1,4.1116902E-1,-2.2928295E-1,-8.129709E1,-8.719409E-2,-0E0,-0E0,-1.8412988E-1],"split_indices":[6,13,13,0,13,0,6,5,2,3,0,0,6,0,0,0,0,0,8,0,0,0,0],"split_type":[0,0,0,0,0,0,0,0,0,0,0,0,0,0,0,0,0,0,0,0,0,0,0],"sum_hessian":[3.8241332E4,1.9438426E4,1.8802904E4,7.072339E3,1.2366088E4,4.4242837E3,1.437862E4,9.4777705E3,2.8883174E3,1.0486921E4,3.891699E3,1.2070485E3,8.270722E3,4.820538E1,2.8401118E3,9.970171E3,5.1674994E2,3.6347449E3,4.635977E3,3.856525E2,1.3109749E2,2.4158344E1,4.611819E3],"tree_param":{"num_deleted":"0","num_feature":"25","num_nodes":"23","size_leaf_vector":"1"}},{"base_weights":[-1.6043927E-1,-2.8137234E-1,-2.5336133E-2,-2.1876292E-1,-3.7273318E-1,-8.841221E-2,6.796834E-2,-2.8053087E-1,-1.3774747E-1,-4.0924674E-1,-2.7793163E-1,-4.9196243E-2,-2.2271132E-1,-0E0,1.2781087E-1,-3.32152E-1,-2.0428456E-1,-2.5310338E-1,-9.134881E-2,-2.610212E-1,-3.3574536E-1,-3.1197688E-1,-1.1429489E-1,-1.3022391E-1,3.503919E-2,-1.5043688E-1,-1.0783792E-3,-1.8715642E-2,2.130774E-1,1.5558532E-1,-0E0,-3.6212596E-1,-1.3869701E-1,-2.5161412E-1,-1.261264E-1,-1.8161589E-1,-1.3823517E-1,-1.6197868E-1,-4.060336E-2,-2.3842748E-1,-1.5032257E-1,-0E0,-1.8714683E-1,-1.4945227E-1,4.2553353E-3,-1.6659962E-1,-3.884275E-2,6.6053523E-3,1.4061204E-1,3.4517244E-2,-9.229447E-2,-0E0,2.5096685E-1,2.1164554E-1,8.809689E-2,-7.427777E-2,8.0866516E-2,-0E0,-3.664662E-1,-3.0627635E-1,-1.4784129E-1,-0E0,-1.4196673E-1,-1.712108E-1,-0E0,-1.1332135E-1,-0E0,-8.601528E-2,9.310639E-3,-1.2922129E-1,-0E0,-1.7185566E-1,-0E0,-0E0,-1.4574774E-1,-2.9020196E-2,8.525488E-2,1.5860406E-1,-0E0,7.681843E-2,-6.645064E-2,-1.6208285E-1,-1.579066E-2,-0E0,2.990902E-1,-0E0,2.1943283E-1,-0E0,1.23147264E-1,-0E0,-7.059501E-2,-0E0,9.4262585E-2,-0E0,-2.1882138E-1,-0E0,-1.8469475E-1,-1.0591948E-1,-0E0,-9.0544276E-2,-0E0,-1.32189E-1,-0E0,-6.234992E-2,2.1094069E-2,-1.1550942E-1,-3.9580483E-2,1.7597655E-2,-5.154293E-2,-1.1036219E-1,-0E0,-3.857165E-2,3.0973658E-2,-0E0,6.9825724E-2,1.00493915E-1,-0E0,8.511396E-2,-0E0,-8.531833E-2,-0E0,-1.0489399E-1,-0E0,-5.403796E-2,6.2806415E-3,-0E0,1.9771501E-1,-0E0,1.3495986E-1,-0E0,9.126754E-2],"categories":[],"categories_nodes":[],"categories_segments":[],"categories_sizes":[],"default_left":[0,0,0,0,0,0,0,0,0,0,0,0,0,0,1,0,0,0,0,0,0,0,1,0,0,0,0,0,0,0,0,0,0,0,0,0,0,0,0,0,0,0,0,1,0,0,0,0,1,0,0,0,0,1,0,0,0,0,0,0,1,0,0,0,0,0,0,0,0,0,0,0,0,0,0,0,0,0,0,0,0,0,0,0,0,0,1,0,0,0,0,0,0,0,0,0,0,0,0,0,0,0,0,0,0,0,0,0,0,0,0,0,0,0,0,0,0,0,0,0,0,0,0,0,0,0,0,0,0,0,0],"id":11,"left_children":[1,3,5,7,9,11,13,15,17,19,21,23,25,27,29,31,33,35,37,-1,39,41,43,45,47,-1,-1,49,51,53,55,57,-1,59,61,-1,63,65,67,-1,-1,-1,-1,69,-1,71,73,75,77,79,81,-1,83,85,87,89,91,-1,93,95,97,-1,99,101,-1,-1,-1,103,-1,-1,-1,105,-1,107,109,111,113,115,-1,117,119,121,123,-1,125,-1,127,-1,129,-1,-1,-1,-1,-1,-1,-1,-1,-1,-1,-1,-1,-1,-1,-1,-1,-1,-1,-1,-1,-1,-1,-1,-1,-1,-1,-1,-1,-1,-1,-1,-1,-1,-1,-1,-1,-1,-1,-1,-1,-1,-1],"loss_changes":[6.72723E2,1.1774048E2,1.1557563E2,6.0437744E1,2.2206177E1,5.9002686E1,3.0764252E1,2.2548218E1,2.6827011E1,4.5634766E0,9.430466E0,6.3652283E1,1.4937302E1,1.6702251E1,1.4975388E1,5.6052856E0,7.0705795E0,4.527359E0,1.2734585E1,0E0,2.9522095E0,2.1819763E0,3.6551847E0,1.3557236E1,1.1788313E1,0E0,0E0,1.4013662E1,3.355935E0,9.514641E0,4.3822784E0,2.852356E0,0E0,5.122368E0,2.8622665E0,0E0,2.3780193E0,8.925236E0,7.1837993E0,0E0,0E0,0E0,0E0,3.279685E0,0E0,4.5929337E0,5.981559E0,1.0658781E1,3.0693169E0,8.296346E0,6.2296963E0,0E0,4.287962E0,2.8474426E0,6.2064533E0,2.3406637E0,2.5945964E0,0E0,2.1412659E0,1.9978027E0,4.595742E0,0E0,2.3407612E0,3.1301546E0,0E0,0E0,0E0,4.2215624E0,0E0,0E0,0E0,4.95755E0,0E0,2.7766476E0,3.5132456E0,7.123459E0,3.7864113E0,2.0638409E0,0E0,6.4057913E0,3.0711136E0,2.643404E0,2.4475913E0,0E0,3.3329506E0,0E0,3.10141E0,0E0,4.2392006E0,0E0,0E0,0E0,0E0,0E0,0E0,0E0,0E0,0E0,0E0,0E0,0E0,0E0,0E0,0E0,0E0,0E0,0E0,0E0,0E0,0E0,0E0,0E0,0E0,0E0,0E0,0E0,0E0,0E0,0E0,0E0,0E0,0E0,0E0,0E0,0E0,0E0,0E0,0E0,0E0,0E0,0E0],"parents":[2147483647,0,0,1,1,2,2,3,3,4,4,5,5,6,6,7,7,8,8,9,9,10,10,11,11,12,12,13,13,14,14,15,15,16,16,17,17,18,18,20,20,21,21,22,22,23,23,24,24,27,27,28,28,29,29,30,30,31,31,33,33,34,34,36,36,37,37,38,38,43,43,45,45,46,46,47,47,48,48,49,49,50,50,52,52,53,53,54,54,55,55,56,56,58,58,59,59,60,60,62,62,63,63,67,67,71,71,73,73,74,74,75,75,76,76,77,77,79,79,80,80,81,81,82,82,84,84,86,86,88,88],"right_children":[2,4,6,8,10,12,14,16,18,20,22,24,26,28,30,32,34,36,38,-1,40,42,44,46,48,-1,-1,50,52,54,56,58,-1,60,62,-1,64,66,68,-1,-1,-1,-1,70,-1,72,74,76,78,80,82,-1,84,86,88,90,92,-1,94,96,98,-1,100,102,-1,-1,-1,104,-1,-1,-1,106,-1,108,110,112,114,116,-1,118,120,122,124,-1,126,-1,128,-1,130,-1,-1,-1,-1,-1,-1,-1,-1,-1,-1,-1,-1,-1,-1,-1,-1,-1,-1,-1,-1,-1,-1,-1,-1,-1,-1,-1,-1,-1,-1,-1,-1,-1,-1,-1,-1,-1,-1,-1,-1,-1,-1],"split_conditions":[2.6599553E0,3.08269E1,3.1023965E0,4.393283E1,-4.1334633E-2,3.4152184E1,4.507342E1,2.3541865E0,-2.2331084E-1,1.0117218E0,1.0848373E0,4.411425E1,1.0310743E0,6.848941E-1,3.4844776E1,4.1634694E-1,4.082804E-1,4.0148208E-1,3.9611715E-1,-2.610212E-1,2.0257733E0,-7.25408E1,6.25872E-2,4.109842E-1,5.1501183E1,-1.5043688E-1,-1.0783792E-3,1E0,-4.2652958E1,1E0,4.0000165E-1,4.747926E0,-1.3869701E-1,1.0117218E0,2.3881314E0,-1.8161589E-1,2.0572286E0,5.288607E1,4.8547253E1,-2.3842748E-1,-1.5032257E-1,-0E0,-1.8714683E-1,5.0279686E1,4.2553353E-3,1.7722062E0,1E0,1E0,1.761569E1,2.4230875E1,4.2729452E-1,-0E0,-3.3036247E-1,4.5317593E1,4.0102324E-1,-7.248259E-1,4.8835903E1,-0E0,-3.1921697E0,-1.0670351E0,3.794842E0,-0E0,6.3813252E0,1.5398277E0,-0E0,-1.1332135E-1,-0E0,4.1665536E-1,9.310639E-3,-1.2922129E-1,-0E0,3.0500928E-1,-0E0,2.1111132E1,5.9963524E1,4.0500548E-1,3.9438137E-1,4.332957E-1,-0E0,1E0,4.1399273E-1,4.3093395E-1,3.9599818E-1,-0E0,-6.6105133E-1,-0E0,1.4314939E0,-0E0,3.6029348E-1,-0E0,-7.059501E-2,-0E0,9.4262585E-2,-0E0,-2.1882138E-1,-0E0,-1.8469475E-1,-1.0591948E-1,-0E0,-9.0544276E-2,-0E0,-1.32189E-1,-0E0,-6.234992E-2,2.1094069E-2,-1.1550942E-1,-3.9580483E-2,1.7597655E-2,-5.154293E-2,-1.1036219E-1,-0E0,-3.857165E-2,3.0973658E-2,-0E0,6.9825724E-2,1.00493915E-1,-0E0,8.511396E-2,-0E0,-8.531833E-2,-0E0,-1.0489399E-1,-0E0,-5.403796E-2,6.2806415E-3,-0E0,1.9771501E-1,-0E0,1.3495986E-1,-0E0,9.126754E-2],"split_indices":[12,5,12,7,13,5,7,12,13,2,2,7,2,13,5,0,0,0,0,0,12,9,1,0,7,0,0,24,8,24,0,4,0,2,12,0,12,7,7,0,0,0,0,7,0,2,24,22,8,5,2,0,2,7,13,11,7,0,3,11,9,0,4,2,0,0,0,0,0,0,0,13,0,5,10,0,0,13,0,16,13,0,0,0,11,0,10,0,2,0,0,0,0,0,0,0,0,0,0,0,0,0,0,0,0,0,0,0,0,0,0,0,0,0,0,0,0,0,0,0,0,0,0,0,0,0,0,0,0,0,0],"split_type":[0,0,0,0,0,0,0,0,0,0,0,0,0,0,0,0,0,0,0,0,0,0,0,0,0,0,0,0,0,0,0,0,0,0,0,0,0,0,0,0,0,0,0,0,0,0,0,0,0,0,0,0,0,0,0,0,0,0,0,0,0,0,0,0,0,0,0,0,0,0,0,0,0,0,0,0,0,0,0,0,0,0,0,0,0,0,0,0,0,0,0,0,0,0,0,0,0,0,0,0,0,0,0,0,0,0,0,0,0,0,0,0,0,0,0,0,0,0,0,0,0,0,0,0,0,0,0,0,0,0,0],"sum_hessian":[4.136528E4,2.1781438E4,1.9583842E4,1.3010108E4,8.771329E3,1.1751755E4,7.8320874E3,7.296394E3,5.713715E3,6.231559E3,2.53977E3,9.165335E3,2.5864202E3,3.740294E3,4.0917935E3,4.251323E3,3.0450708E3,1.5630402E3,4.150675E3,4.2738125E3,1.9577466E3,2.0428705E3,4.9689957E2,4.7323296E3,4.4330054E3,2.2280635E3,3.5835663E2,3.407667E3,3.326268E2,3.3770432E3,7.1475024E2,3.1599856E3,1.0913374E3,1.8010757E3,1.2439951E3,9.981591E2,5.64881E2,1.6411632E3,2.5095115E3,9.9895026E2,9.587963E2,2.0607044E1,2.0222634E3,4.5044238E2,4.6457195E1,3.2979424E3,1.434387E3,3.5777656E3,8.552395E2,1.8975931E3,1.5100739E3,4.205386E1,2.9057294E2,1.7498168E3,1.6272264E3,3.902659E2,3.2448434E2,5.337772E1,3.106608E3,1.102409E3,6.986666E2,1.2197431E2,1.1220209E3,4.4627087E2,1.18610085E2,1.4239968E3,2.1716638E2,1.4890211E3,1.02049036E3,2.7683334E2,1.7360904E2,3.2542747E3,4.3667908E1,1.0591808E3,3.7520615E2,2.3748699E3,1.2028959E3,7.923212E2,6.291829E1,1.4117003E3,4.858929E2,7.1311597E2,7.969579E2,4.067956E1,2.4989339E2,6.3475773E1,1.686341E3,3.8955234E2,1.2376741E3,7.793756E1,3.1232834E2,1.440174E2,1.8046695E2,2.0578981E1,3.0860288E3,1.3786442E1,1.0886226E3,6.2121674E2,7.744993E1,1.0714291E3,5.0591763E1,3.232962E2,1.2297469E2,1.3628951E3,1.2612606E2,2.588139E3,6.6613574E2,7.932779E2,2.659029E2,3.2881326E2,4.6392883E1,1.7363439E3,6.3852606E2,3.0154874E2,9.0134717E2,7.663781E2,2.5943127E1,7.104727E2,7.0122754E2,2.455476E2,2.403453E2,6.8324786E2,2.9868132E1,3.039422E2,4.9301566E2,2.0060053E1,2.2983333E2,5.6020943E1,1.6303201E3,2.6748917E2,9.701849E2],"tree_param":{"num_deleted":"0","num_feature":"25","num_nodes":"131","size_leaf_vector":"1"}},{"base_weights":[2.0886476E-1,2.4987626E-1,1.4578792E-1,2.858878E-1,2.0218574E-1,3.296156E-1,1.377459E-1,3.3252776E-1,2.4239618E-1,1.7099257E-1,2.586807E-1,3.5043597E-1,2.9172666E-2,1.2574257E-1,2.6723257E-1,3.668228E-1,2.7795348E-1,3.281276E-1,2.1534923E-1,2.9377604E-1,1.5553704E-1,2.2691344E-1,3.39472E-1,-0E0,2.1368323E-1,1.481705E-1,7.775366E-2,4.352628E-1,7.449125E-2,3.8709703E-1,2.0646499E-1,2.104249E-1,4.9746734E-1,6.517779E-2,3.4260246E-1,3.3214733E-1,2.0299135E-1,1.7818178E-1,-0E0,1.6949269E-1,5.344548E-2,2.5869358E-1,1.5350927E-1,-0E0,2.0314729E-1,1.1920109E-1,2.024511E-1,3.656986E-2,1.2837738E-1,-0E0,4.477003E-1,1.287583E-1,-0E0,9.819835E-2,3.9890483E-1,2.2010542E-1,1.0450872E-1,3.8769343E-1,1.3092E-1,2.9831484E-1,-0E0,-0E0,2.0513362E-1,-0E0,2.026294E-1,1.670191E-1,2.4144161E-1,2.4333177E-2,1.8236297E-1,1.7609721E-1,2.9578282E-2,2.916473E-1,1.6439995E-1,2.606292E-1,1.0928301E-1,2.2576386E-1,1.02365784E-1,2.9898092E-1,1.7809884E-1,-3.6209993E-2,1.5614544E-1,3.5861155E-1,3.2293428E-2,-0E0,4.5268175E-1,1.598534E-1,-0E0,1.015212E-1,-0E0,2.1770684E-1,2.9423365E-1,5.086759E-3,1.7778017E-1,2.4048957E-1,-0E0,1.7542516E-1,1.9975148E-2,1.3099267E-2,1.0393768E-1,1.4969428E-1,3.713442E-2,-0E0,7.135473E-2,9.9673875E-2,1.8455532E-1,4.864249E-2,-3.9461683E-2,1.7691967E-1,-0E0,1.07087314E-1,-0E0,5.5276316E-2,2.500182E-1,4.9374867E-3,9.024734E-2,7.8434795E-2,1.9053859E-1,4.0827096E-2,8.212399E-2,1.8872522E-1,-0E0,2.0117784E-1,9.6755005E-2,4.584803E-2,-2.8013375E-2,9.940189E-2,-2.1891488E-2,2.167504E-1,-0E0,8.210487E-2,-6.4208396E-3,2.734279E-1,-0E0,1.1688727E-1,-0E0],"categories":[],"categories_nodes":[],"categories_segments":[],"categories_sizes":[],"default_left":[0,0,0,0,0,0,0,0,0,0,0,0,0,0,0,0,0,0,0,0,0,0,0,0,0,0,0,0,0,0,0,0,0,0,1,0,0,0,0,0,0,0,0,0,0,0,0,0,0,0,0,0,0,0,0,0,0,0,0,0,0,0,0,0,0,0,0,0,0,0,0,0,0,0,0,0,0,0,0,0,0,0,0,0,0,0,0,0,0,0,0,0,0,0,0,0,0,0,0,0,0,0,0,0,0,0,0,0,0,0,0,0,0,0,0,0,0,0,0,0,0,0,0,0,0,0,0,0,0,0,0,0,0,0,0],"id":12,"left_children":[1,3,5,7,9,11,13,15,17,19,21,23,-1,25,27,29,31,33,35,37,39,41,43,-1,-1,45,47,49,51,53,55,57,59,-1,61,63,65,-1,-1,67,69,71,73,-1,-1,75,77,79,81,-1,83,85,-1,87,89,-1,91,93,95,-1,-1,-1,-1,-1,-1,97,99,101,103,-1,105,107,109,111,113,115,117,119,121,123,125,127,129,-1,131,133,-1,-1,-1,-1,-1,-1,-1,-1,-1,-1,-1,-1,-1,-1,-1,-1,-1,-1,-1,-1,-1,-1,-1,-1,-1,-1,-1,-1,-1,-1,-1,-1,-1,-1,-1,-1,-1,-1,-1,-1,-1,-1,-1,-1,-1,-1,-1,-1,-1],"loss_changes":[1.9079443E2,7.27478E1,3.8859802E1,4.5715088E1,2.9986206E1,2.6278076E0,4.017157E1,1.5444702E1,2.5058167E1,1.936728E1,1.1114105E1,3.046875E0,0E0,2.5883606E1,7.053641E1,1.7243164E1,6.451712E1,4.8461E0,8.823456E0,2.134552E0,1.4040619E1,7.1777954E0,2.4740753E0,0E0,0E0,2.4400757E1,1.6072098E1,6.13501E0,4.6552043E0,1.6726074E1,9.949177E0,4.7824585E1,2.0158997E0,0E0,2.4666748E0,2.930046E0,8.5278015E0,0E0,0E0,1.6601868E1,5.172292E0,5.4643707E0,3.7199287E0,0E0,0E0,1.7441238E1,8.772171E0,4.3454468E1,7.8117584E1,0E0,2.9121857E0,3.5400915E0,0E0,3.3473122E0,8.773682E0,0E0,8.237804E0,4.692871E0,3.9448277E1,0E0,0E0,0E0,0E0,0E0,0E0,3.8529358E0,5.087677E0,2.2307186E0,1.1583679E1,0E0,7.2872195E0,2.8572998E0,3.5085716E0,5.2512302E0,3.73067E0,8.358566E0,1.0133232E1,4.9150467E0,6.2721405E0,3.4107857E0,5.5394783E0,2.526474E0,1.3532774E1,0E0,2.0362244E0,2.596405E0,0E0,0E0,0E0,0E0,0E0,0E0,0E0,0E0,0E0,0E0,0E0,0E0,0E0,0E0,0E0,0E0,0E0,0E0,0E0,0E0,0E0,0E0,0E0,0E0,0E0,0E0,0E0,0E0,0E0,0E0,0E0,0E0,0E0,0E0,0E0,0E0,0E0,0E0,0E0,0E0,0E0,0E0,0E0,0E0,0E0,0E0,0E0,0E0,0E0],"parents":[2147483647,0,0,1,1,2,2,3,3,4,4,5,5,6,6,7,7,8,8,9,9,10,10,11,11,13,13,14,14,15,15,16,16,17,17,18,18,19,19,20,20,21,21,22,22,25,25,26,26,27,27,28,28,29,29,30,30,31,31,32,32,34,34,35,35,36,36,39,39,40,40,41,41,42,42,45,45,46,46,47,47,48,48,50,50,51,51,53,53,54,54,56,56,57,57,58,58,65,65,66,66,67,67,68,68,70,70,71,71,72,72,73,73,74,74,75,75,76,76,77,77,78,78,79,79,80,80,81,81,82,82,84,84,85,85],"right_children":[2,4,6,8,10,12,14,16,18,20,22,24,-1,26,28,30,32,34,36,38,40,42,44,-1,-1,46,48,50,52,54,56,58,60,-1,62,64,66,-1,-1,68,70,72,74,-1,-1,76,78,80,82,-1,84,86,-1,88,90,-1,92,94,96,-1,-1,-1,-1,-1,-1,98,100,102,104,-1,106,108,110,112,114,116,118,120,122,124,126,128,130,-1,132,134,-1,-1,-1,-1,-1,-1,-1,-1,-1,-1,-1,-1,-1,-1,-1,-1,-1,-1,-1,-1,-1,-1,-1,-1,-1,-1,-1,-1,-1,-1,-1,-1,-1,-1,-1,-1,-1,-1,-1,-1,-1,-1,-1,-1,-1,-1,-1,-1,-1],"split_conditions":[3.5119446E1,1.3353157E-2,1.708398E0,4.0288067E-1,1E0,-4.1163582E-1,6.796198E-1,1E0,9.493822E0,-8.125339E-1,5.8670545E0,4.9149194E-1,2.9172666E-2,2.9232666E0,1E0,1.4959918E0,-8.7025034E-1,-9.456768E0,1.6490959E0,5.578648E-1,9.868744E-1,3.0500928E-1,4.973237E-1,-0E0,2.1368323E-1,1E0,1E0,-2.4104393E0,3.9966398E-1,2.840368E0,4.2236412E1,3.775219E1,3.7827686E1,6.517779E-2,-7.661044E1,-3.849908E-1,5.652113E0,1.7818178E-1,-0E0,-5.8539886E0,0E0,1E0,-4.319189E-1,-0E0,2.0314729E-1,8.28652E0,3.8816234E-1,3.2555178E-2,-3.080889E-1,-0E0,3.5261158E1,5.137947E1,-0E0,4.184667E1,1.9152637E-1,2.2010542E-1,3.9910704E-1,7.476489E-1,-3.2528594E-1,2.9831484E-1,-0E0,-0E0,2.0513362E-1,-0E0,2.026294E-1,-2.5696948E0,4.325025E-1,4.491814E-2,6.6834706E-1,1.7609721E-1,4.0842083E-1,5.839329E0,1.4603103E0,1E0,-1.7836137E0,1E0,5.7667055E0,4.944559E1,3.91435E-1,-9.523144E-1,5.1400635E1,1.6395069E0,-2.5750019E-2,-0E0,5.556748E1,2.9940548E0,-0E0,1.015212E-1,-0E0,2.1770684E-1,2.9423365E-1,5.086759E-3,1.7778017E-1,2.4048957E-1,-0E0,1.7542516E-1,1.9975148E-2,1.3099267E-2,1.0393768E-1,1.4969428E-1,3.713442E-2,-0E0,7.135473E-2,9.9673875E-2,1.8455532E-1,4.864249E-2,-3.9461683E-2,1.7691967E-1,-0E0,1.07087314E-1,-0E0,5.5276316E-2,2.500182E-1,4.9374867E-3,9.024734E-2,7.8434795E-2,1.9053859E-1,4.0827096E-2,8.212399E-2,1.8872522E-1,-0E0,2.0117784E-1,9.6755005E-2,4.584803E-2,-2.8013375E-2,9.940189E-2,-2.1891488E-2,2.167504E-1,-0E0,8.210487E-2,-6.4208396E-3,2.734279E-1,-0E0,1.1688727E-1,-0E0],"split_indices":[6,13,12,0,24,13,11,16,6,11,4,5,0,12,16,3,3,5,12,13,2,13,10,0,0,24,16,3,0,5,7,7,8,0,8,2,4,0,0,5,6,21,11,0,0,5,0,11,11,0,6,7,0,10,11,0,11,11,11,0,0,0,0,0,0,3,0,1,11,0,0,4,2,16,3,16,4,6,2,11,6,2,11,0,7,12,0,0,0,0,0,0,0,0,0,0,0,0,0,0,0,0,0,0,0,0,0,0,0,0,0,0,0,0,0,0,0,0,0,0,0,0,0,0,0,0,0,0,0,0,0,0,0,0,0],"split_type":[0,0,0,0,0,0,0,0,0,0,0,0,0,0,0,0,0,0,0,0,0,0,0,0,0,0,0,0,0,0,0,0,0,0,0,0,0,0,0,0,0,0,0,0,0,0,0,0,0,0,0,0,0,0,0,0,0,0,0,0,0,0,0,0,0,0,0,0,0,0,0,0,0,0,0,0,0,0,0,0,0,0,0,0,0,0,0,0,0,0,0,0,0,0,0,0,0,0,0,0,0,0,0,0,0,0,0,0,0,0,0,0,0,0,0,0,0,0,0,0,0,0,0,0,0,0,0,0,0,0,0,0,0,0,0],"sum_hessian":[7.5468305E4,4.561702E4,2.9851287E4,2.5840928E4,1.9776094E4,1.1818629E3,2.8669424E4,1.2324788E4,1.351614E4,1.288332E4,6.892774E3,1.0634692E3,1.1839365E2,2.6327088E4,2.3423367E3,7.419864E3,4.9049243E3,3.125171E3,1.0390969E4,1.3469576E3,1.1536362E4,5.0645093E3,1.8282643E3,3.2518414E1,1.0309508E3,1.7780908E4,8.546179E3,1.2164674E3,1.1258691E3,6.5180874E3,9.017768E2,3.8007036E3,1.1042206E3,2.4391002E2,2.8812607E3,8.9136566E2,9.499603E3,1.3135756E3,3.338213E1,1.0053872E4,1.4824902E3,3.4193943E3,1.6451152E3,8.238558E0,1.8200258E3,1.173745E4,6.0434595E3,4.8346455E3,3.7115337E3,3.6528828E1,1.1799386E3,6.5171234E2,4.741569E2,2.939228E2,6.2241646E3,2.97096E2,6.046808E2,1.125477E3,2.6752266E3,1.0898654E3,1.4355288E1,2.8670605E1,2.8525903E3,2.2717573E1,8.6864813E2,5.0728076E3,4.426795E3,8.869801E2,9.166892E3,8.430563E1,1.3981846E3,2.4380105E3,9.8138354E2,3.9902722E2,1.246088E3,1.5016757E3,1.0235774E4,1.1109025E3,4.9325566E3,2.9549685E3,1.8796768E3,1.053704E3,2.6578296E3,1.1809323E1,1.1681293E3,5.582434E2,9.3468895E1,2.0539156E2,8.853124E1,4.784405E3,1.4397595E3,4.4738065E2,1.5730016E2,1.0585573E3,6.69198E1,9.471004E2,1.7281261E3,3.375883E2,4.735219E3,4.1177744E3,3.0902042E2,7.047684E2,1.822117E2,8.331701E3,8.3519086E2,9.7609033E2,4.2209424E2,2.366408E3,7.160262E1,9.2135315E2,6.0030388E1,2.3398195E2,1.6504529E2,4.4646042E2,7.9962756E2,8.231146E2,6.785611E2,5.4571562E3,4.7786177E3,1.0300707E3,8.083189E1,3.478892E2,4.5846675E3,1.7212378E2,2.7828447E3,1.8278967E3,5.178008E1,1.0350336E3,1.867047E1,8.326679E2,1.8251617E3,1.1375502E3,3.0579075E1,4.3185187E2,1.2639155E2],"tree_param":{"num_deleted":"0","num_feature":"25","num_nodes":"135","size_leaf_vector":"1"}},{"base_weights":[1.1242571E-2,2.3335198E-2,-4.4226713E-2,4.1777343E-2,6.055709E-3,-3.682391E-2,-9.14187E-2,-0E0,4.7157414E-2,-5.5489723E-2,1.2437828E-2,-6.166866E-2,-4.56657E-3,-3.076255E-2,7.171575E-2,5.533438E-2,4.4923504E-3,-6.563335E-2,-4.8318864E-3,1.7868686E-2,-4.9026288E-2,-7.061783E-2,-0E0,2.12832E-2,-3.7935685E-2,-0E0,-4.065979E-2,7.004966E-2,-0E0,6.166408E-2,4.3369224E-3,2.360602E-2,-2.9104875E-2,-0E0,-1.12094104E-1,-2.425536E-2,-9.429485E-2,6.334979E-2,-1.19067775E-2,-3.9583035E-2,4.654037E-3,-1.2672845E-2,6.425216E-2,-3.7479717E-2,2.794292E-2,3.4568578E-2,-2.7637262E-4,-3.889781E-2,8.821406E-3,-1.4326933E-1,-0E0,-0E0,-1.047791E-1,-7.510097E-3,-1.212333E-1,9.019122E-2,-5.653199E-3,4.016453E-2,-0E0,3.938063E-2,-1.947275E-2,-1.6750024E-3,2.478829E-2,6.2427986E-2,-4.524219E-3,-1.0471311E-1,-0E0,-0E0,-9.8331094E-2,-0E0,-7.7981874E-2,6.497058E-2,-0E0],"categories":[],"categories_nodes":[],"categories_segments":[],"categories_sizes":[],"default_left":[0,0,0,0,0,0,0,0,0,1,0,0,0,1,0,1,0,0,0,0,0,0,0,0,0,0,0,0,0,0,0,0,0,0,1,0,0,0,0,0,0,0,1,0,0,1,0,0,0,1,0,0,0,0,0,0,0,0,0,0,0,0,0,0,0,0,0,0,0,0,0,0,0],"id":13,"left_children":[1,3,5,7,9,11,-1,13,15,17,19,21,23,25,27,29,-1,-1,-1,31,33,35,-1,37,39,-1,-1,-1,-1,41,43,45,47,-1,49,51,53,55,-1,-1,-1,-1,57,-1,59,61,-1,-1,63,65,-1,-1,67,-1,69,71,-1,-1,-1,-1,-1,-1,-1,-1,-1,-1,-1,-1,-1,-1,-1,-1,-1],"loss_changes":[2.9195478E1,1.1018568E1,4.2099857E0,3.4726658E0,7.006467E0,5.1637707E0,0E0,5.0956774E0,4.2133026E0,3.0029073E0,5.4724336E0,2.0463295E0,3.090336E0,2.3162735E0,2.1839314E0,3.2653923E0,0E0,0E0,0E0,4.2876835E0,3.8021662E0,2.495102E0,0E0,3.471721E0,2.7925305E0,0E0,0E0,0E0,0E0,2.7637596E0,2.109371E0,4.195961E0,2.7497864E0,0E0,3.1751356E0,2.9823701E0,3.2315216E0,2.7761626E0,0E0,0E0,0E0,0E0,2.8141403E0,0E0,3.3213618E0,3.1752243E0,0E0,0E0,2.0249257E0,2.919753E0,0E0,0E0,2.5206935E0,0E0,2.4537907E0,2.4130354E0,0E0,0E0,0E0,0E0,0E0,0E0,0E0,0E0,0E0,0E0,0E0,0E0,0E0,0E0,0E0,0E0,0E0],"parents":[2147483647,0,0,1,1,2,2,3,3,4,4,5,5,7,7,8,8,9,9,10,10,11,11,12,12,13,13,14,14,15,15,19,19,20,20,21,21,23,23,24,24,29,29,30,30,31,31,32,32,34,34,35,35,36,36,37,37,42,42,44,44,45,45,48,48,49,49,52,52,54,54,55,55],"right_children":[2,4,6,8,10,12,-1,14,16,18,20,22,24,26,28,30,-1,-1,-1,32,34,36,-1,38,40,-1,-1,-1,-1,42,44,46,48,-1,50,52,54,56,-1,-1,-1,-1,58,-1,60,62,-1,-1,64,66,-1,-1,68,-1,70,72,-1,-1,-1,-1,-1,-1,-1,-1,-1,-1,-1,-1,-1,-1,-1,-1,-1],"split_conditions":[3.2304156E-1,-4.1334633E-2,1.3622091E0,-6.061195E-1,-7.8570807E-1,1E0,-9.14187E-2,1E0,4.745019E-1,9.092337E0,5.2397514E1,3.2894282E0,2.3945475E1,-1.0295496E1,4.0426192E-1,5.075132E1,4.4923504E-3,-6.563335E-2,-4.8318864E-3,4.191062E-1,1.1060381E0,4.2831417E1,-0E0,5.8711658E0,4.2377384E1,-0E0,-4.065979E-2,7.004966E-2,-0E0,-6.3787305E-1,5.137947E1,3.995263E1,3.790095E1,-0E0,8.707987E0,4.1420943E-1,3.1371586E0,4.1013315E-1,-1.19067775E-2,-3.9583035E-2,4.654037E-3,-1.2672845E-2,7.730639E1,-3.7479717E-2,1.5114528E0,-2.7864554E-3,-2.7637262E-4,-3.889781E-2,6.2478084E-2,5.9263363E1,-0E0,-0E0,5.6440883E0,-7.510097E-3,-2.6196733E-1,3.7485545E0,-5.653199E-3,4.016453E-2,-0E0,3.938063E-2,-1.947275E-2,-1.6750024E-3,2.478829E-2,6.2427986E-2,-4.524219E-3,-1.0471311E-1,-0E0,-0E0,-9.8331094E-2,-0E0,-7.7981874E-2,6.497058E-2,-0E0],"split_indices":[13,13,2,11,11,24,0,16,11,10,7,9,10,9,0,7,0,0,0,0,2,7,0,4,6,0,0,0,0,13,7,6,7,0,8,0,12,0,0,0,0,0,10,0,2,1,0,0,2,10,0,0,4,0,2,12,0,0,0,0,0,0,0,0,0,0,0,0,0,0,0,0,0],"split_type":[0,0,0,0,0,0,0,0,0,0,0,0,0,0,0,0,0,0,0,0,0,0,0,0,0,0,0,0,0,0,0,0,0,0,0,0,0,0,0,0,0,0,0,0,0,0,0,0,0,0,0,0,0,0,0,0,0,0,0,0,0,0,0,0,0,0,0,0,0,0,0,0,0],"sum_hessian":[4.3828027E4,3.614222E4,7.6858096E3,1.7184514E4,1.8957703E4,7.30049E3,3.8531897E2,2.1377393E3,1.5046774E4,1.6210131E3,1.733669E4,3.9366443E3,3.3638462E3,1.4184965E3,7.192428E2,1.2249441E4,2.7973333E3,6.4194055E2,9.790725E2,1.6091107E4,1.2455826E3,3.4103416E3,5.2630273E2,1.7209658E3,1.6428804E3,6.4575085E2,7.7274554E2,4.1687845E2,3.0236435E2,1.0713129E4,1.536312E3,1.4541713E4,1.5493949E3,7.119064E2,5.336762E2,1.30805E3,2.1022915E3,9.758492E2,7.4511664E2,1.1468009E3,4.9607944E2,1.9996754E2,1.0513162E4,2.796693E2,1.2566427E3,1.02868545E4,4.254858E3,9.2752826E2,6.2186664E2,4.779307E2,5.5745552E1,9.7471606E2,3.3333392E2,6.2097565E2,1.4813158E3,8.163457E2,1.5950343E2,1.0094536E4,4.1862527E2,8.7478516E2,3.818575E2,1.4255793E3,8.861275E3,1.7625244E2,4.4561423E2,4.060809E2,7.184977E1,1.13428894E2,2.1990501E2,7.884795E1,1.4024679E3,7.529396E2,6.340614E1],"tree_param":{"num_deleted":"0","num_feature":"25","num_nodes":"73","size_leaf_vector":"1"}},{"base_weights":[-1.2660114E-2,1.6763E-3,-4.4249296E-2,-4.3513265E-2,7.359185E-3,-1.20756015E-1,-3.1435337E-2,-6.0080573E-2,8.965148E-4,1.0775462E-2,-4.9735557E-2,-1.2123098E-1,-8.299576E-2,-7.413424E-2,-1.3951917E-2,-7.144741E-2,-0E0,-6.863781E-2,1.402911E-2,-5.891652E-2,-0E0,-0E0,-8.358395E-2,-1.1483443E-4,-1.1749523E-1,-0E0,-8.5691616E-2,-0E0,-5.6128524E-2,-8.716639E-3,2.42214E-2,-0E0,-9.2596784E-2,-2.0619435E-2,3.293768E-2,-8.0084026E-2,-0E0,-5.9102144E-2,-0E0,-4.513738E-2,3.2344998E-3,4.883185E-2,3.292899E-3,-7.582342E-2,-4.45999E-2,-4.626689E-2,1.6038883E-2,1.3926835E-3,9.519199E-2,-0E0,-5.3534873E-2,1.1461816E-2,-2.0938031E-2,3.8720246E-2,-4.123342E-3,1.7266907E-2,-3.2754913E-3,-4.6368282E-2,-0E0,-5.8225825E-2,2.2225574E-2,5.8183E-2,-7.2069734E-2,-2.3027338E-2,1.794225E-2,1.2312261E-1,1.5460874E-2],"categories":[],"categories_nodes":[],"categories_segments":[],"categories_sizes":[],"default_left":[0,0,0,0,0,1,0,1,0,0,0,0,0,1,0,0,0,0,0,0,0,0,0,0,0,0,0,0,0,0,0,0,0,0,0,0,0,0,0,0,0,0,0,0,0,0,0,1,0,0,0,0,0,0,0,0,0,0,0,0,0,0,0,0,0,0,0],"id":14,"left_children":[1,3,5,7,9,11,13,15,-1,17,-1,-1,19,21,23,25,-1,27,29,-1,-1,-1,31,33,35,-1,37,-1,-1,39,41,-1,43,45,47,-1,-1,-1,-1,49,51,53,55,-1,57,59,61,63,65,-1,-1,-1,-1,-1,-1,-1,-1,-1,-1,-1,-1,-1,-1,-1,-1,-1,-1],"loss_changes":[1.9534473E1,7.0147367E0,1.1499918E1,2.8578901E0,7.270486E0,2.524189E0,7.726512E0,2.1428823E0,0E0,5.887537E0,0E0,0E0,2.815421E0,2.5536785E0,1.0822004E1,2.1194668E0,0E0,2.1726546E0,5.7535253E0,0E0,0E0,0E0,2.1802387E0,4.9719186E0,2.8124046E0,0E0,2.0869694E0,0E0,0E0,3.5512335E0,8.194672E0,0E0,2.5318546E0,4.872354E0,4.265801E0,0E0,0E0,0E0,0E0,4.554905E0,3.0431526E0,7.53442E0,2.3860843E0,0E0,2.3972573E0,1.3753909E1,2.0493319E1,2.126137E0,3.6595511E0,0E0,0E0,0E0,0E0,0E0,0E0,0E0,0E0,0E0,0E0,0E0,0E0,0E0,0E0,0E0,0E0,0E0,0E0],"parents":[2147483647,0,0,1,1,2,2,3,3,4,4,5,5,6,6,7,7,9,9,12,12,13,13,14,14,15,15,17,17,18,18,22,22,23,23,24,24,26,26,29,29,30,30,32,32,33,33,34,34,39,39,40,40,41,41,42,42,44,44,45,45,46,46,47,47,48,48],"right_children":[2,4,6,8,10,12,14,16,-1,18,-1,-1,20,22,24,26,-1,28,30,-1,-1,-1,32,34,36,-1,38,-1,-1,40,42,-1,44,46,48,-1,-1,-1,-1,50,52,54,56,-1,58,60,62,64,66,-1,-1,-1,-1,-1,-1,-1,-1,-1,-1,-1,-1,-1,-1,-1,-1,-1,-1],"split_conditions":[3.1563835E1,-6.243561E-1,1.9271221E0,4.868508E1,9.252033E-1,4.1846817E1,-4.801878E-1,5.723592E-2,8.965148E-4,1.708398E0,-4.9735557E-2,-1.2123098E-1,2.1776521E0,-4.0534264E-3,6.6834706E-1,-2.5007902E-3,-0E0,4.9149194E-1,1.1160193E1,-5.891652E-2,-0E0,-0E0,-4.9211285E1,1E0,6.191953E0,-0E0,1.7279614E0,-0E0,-5.6128524E-2,3.9788198E-1,6.8735786E-2,-0E0,4.0091208E-1,1E0,4.148537E1,-8.0084026E-2,-0E0,-5.9102144E-2,-0E0,1E0,6.445924E-1,4.0588704E-1,3.9450917E-1,-7.582342E-2,3.252231E1,-7.928125E-1,5.450308E-1,3.6304295E1,3.9671287E-1,-0E0,-5.3534873E-2,1.1461816E-2,-2.0938031E-2,3.8720246E-2,-4.123342E-3,1.7266907E-2,-3.2754913E-3,-4.6368282E-2,-0E0,-5.8225825E-2,2.2225574E-2,5.8183E-2,-7.2069734E-2,-2.3027338E-2,1.794225E-2,1.2312261E-1,1.5460874E-2],"split_indices":[5,11,12,7,11,7,11,1,0,12,0,0,3,1,11,1,0,5,5,0,0,0,8,22,4,0,3,0,0,0,13,0,0,16,10,0,0,0,0,16,3,11,0,0,10,3,3,5,0,0,0,0,0,0,0,0,0,0,0,0,0,0,0,0,0,0,0],"split_type":[0,0,0,0,0,0,0,0,0,0,0,0,0,0,0,0,0,0,0,0,0,0,0,0,0,0,0,0,0,0,0,0,0,0,0,0,0,0,0,0,0,0,0,0,0,0,0,0,0,0,0,0,0,0,0,0,0,0,0,0,0,0,0,0,0,0,0],"sum_hessian":[4.2142316E4,2.8765328E4,1.3376987E4,3.001456E3,2.5763871E4,1.7914137E3,1.1585574E4,2.361465E3,6.399909E2,2.4951049E4,8.128233E2,4.5964893E2,1.3317648E3,3.1838174E3,8.401757E3,2.087027E3,2.7443796E2,8.486874E2,2.4102361E4,1.214425E3,1.1733967E2,3.155768E2,2.8682405E3,7.5081494E3,8.936075E2,3.502449E2,1.7367821E3,1.6265085E2,6.860365E2,7.141561E3,1.69608E4,2.7854828E2,2.5896921E3,4.830657E3,2.677492E3,8.3019604E2,6.3411446E1,1.4947975E3,2.4198466E2,1.9742279E3,5.1673335E3,7.559984E3,9.400816E3,1.3610612E3,1.228631E3,3.0084E3,1.8222573E3,1.8944016E3,7.830905E2,9.2629333E2,1.0479346E3,3.840002E3,1.3273314E3,5.9861157E3,1.5738685E3,2.690052E3,6.710764E3,7.874715E2,4.411595E2,1.934234E3,1.074166E3,1.1906558E3,6.3160156E2,6.3882385E2,1.2555778E3,2.3420668E2,5.4888385E2],"tree_param":{"num_deleted":"0","num_feature":"25","num_nodes":"67","size_leaf_vector":"1"}},{"base_weights":[-1.078269E-1,-1.7316402E-1,-7.433992E-2,-2.154731E-1,-1.3117434E-1,-5.967883E-2,-1.3211109E-1,-2.3877178E-1,-1.27752E-1,-1.3444014E-1,-1.08958595E-1,-7.684091E-2,-3.259617E-2,-1.4679341E-1,-1.9815614E-2,-0E0,-2.4395731E-1,-1.3806666E-1,-0E0,-7.921226E-2,-6.038924E-2,-5.38248E-2,-1.1389092E-1,-0E0,-4.276713E-2,-1.5120871E-1,-0E0,-0E0,-2.4759437E-1,-9.136584E-2,-0E0,-1.0287062E-1,-0E0,-8.5664645E-2,-3.083944E-2,-8.3048776E-2,-1.7593455E-1,4.9469754E-2,-2.9349424E-2,-6.165837E-2,-1.7070867E-2,-8.370911E-3,-9.436685E-2,-1.4855269E-1,-0E0,-1.4788713E-1,-0E0,8.783519E-2,-4.72736E-2,-1.1721732E-1,-2.9930249E-2,1.0677044E-3,-5.157294E-2,-1.0080648E-1,-1.611799E-2,-0E0,-1.14984386E-1,-0E0,5.2463897E-2,-3.860723E-2,1.8196512E-2,-1.297755E-1,-3.923415E-2,-4.0625166E-2,1.0233294E-2,-0E0,-1.0318327E-1,-0E0,8.506764E-2,-8.106852E-2,-0E0,-5.6906186E-2,-0E0,-3.5380572E-2,1.1428106E-2,-0E0,-6.350597E-2,-3.999888E-2,2.1104002E-2,-8.5274264E-2,-0E0,-5.59624E-2,-8.115818E-3,-0E0,-4.0978074E-2],"categories":[],"categories_nodes":[],"categories_segments":[],"categories_sizes":[],"default_left":[0,0,1,0,0,0,0,0,1,0,0,0,1,0,0,0,0,0,0,0,0,0,0,0,0,0,0,0,0,0,0,0,0,0,0,0,0,0,0,0,0,0,0,0,0,0,0,0,0,0,0,0,0,0,1,0,0,0,0,0,0,0,0,0,0,0,0,0,0,0,0,0,0,0,0,0,0,0,0,0,0,0,0,0,0],"id":15,"left_children":[1,3,5,7,9,11,13,15,17,-1,19,21,23,25,-1,-1,27,29,-1,-1,31,33,35,37,39,41,-1,-1,43,-1,-1,45,47,49,51,53,55,57,59,61,63,-1,-1,-1,-1,65,-1,67,-1,69,71,-1,73,75,77,-1,-1,-1,-1,-1,-1,79,81,83,-1,-1,-1,-1,-1,-1,-1,-1,-1,-1,-1,-1,-1,-1,-1,-1,-1,-1,-1,-1,-1],"loss_changes":[7.8467926E1,1.8261597E1,1.8803741E1,8.302795E0,9.826439E0,8.046898E0,5.087425E0,3.8407898E0,2.6073532E0,0E0,4.2008553E0,8.332527E0,2.3908548E0,2.004036E0,0E0,0E0,3.912262E0,2.137432E0,0E0,0E0,5.3290005E0,4.266472E0,5.535309E0,2.8451862E0,2.0418901E0,2.393776E0,0E0,0E0,3.6174927E0,0E0,0E0,5.3181944E0,5.4966393E0,3.635868E0,3.61582E0,2.3905678E0,2.2728004E0,2.0398285E0,3.2688007E0,3.0375843E0,2.4763558E0,0E0,0E0,0E0,0E0,3.3725681E0,0E0,2.9725866E0,0E0,3.1231842E0,2.431621E0,0E0,2.1334472E0,2.2046604E0,2.4026942E0,0E0,0E0,0E0,0E0,0E0,0E0,2.1172915E0,2.4007995E0,2.4828508E0,0E0,0E0,0E0,0E0,0E0,0E0,0E0,0E0,0E0,0E0,0E0,0E0,0E0,0E0,0E0,0E0,0E0,0E0,0E0,0E0,0E0],"parents":[2147483647,0,0,1,1,2,2,3,3,4,4,5,5,6,6,7,7,8,8,10,10,11,11,12,12,13,13,16,16,17,17,20,20,21,21,22,22,23,23,24,24,25,25,28,28,31,31,32,32,33,33,34,34,35,35,36,36,37,37,38,38,39,39,40,40,45,45,47,47,49,49,50,50,52,52,53,53,54,54,61,61,62,62,63,63],"right_children":[2,4,6,8,10,12,14,16,18,-1,20,22,24,26,-1,-1,28,30,-1,-1,32,34,36,38,40,42,-1,-1,44,-1,-1,46,48,50,52,54,56,58,60,62,64,-1,-1,-1,-1,66,-1,68,-1,70,72,-1,74,76,78,-1,-1,-1,-1,-1,-1,80,82,84,-1,-1,-1,-1,-1,-1,-1,-1,-1,-1,-1,-1,-1,-1,-1,-1,-1,-1,-1,-1,-1],"split_conditions":[2.3939142E0,9.302595E-1,3.5003223E1,4.1578454E-1,-4.1163582E-1,4.562805E1,1.024466E0,-8.666953E0,4.8547253E1,-1.3444014E-1,4.8012047E1,1E0,1.5779651E1,5.458152E-1,-1.9815614E-2,-0E0,-7.117601E1,4.3681392E-1,-0E0,-7.921226E-2,1E0,1.3460486E-1,-6.4862555E-1,1.5749507E-1,2.4876511E-1,-2.429112E0,-0E0,-0E0,2.904142E0,-9.136584E-2,-0E0,-7.0294255E-1,-1.4093666E0,8.0299926E-1,-1.6866444E0,1E0,-2.894632E-3,2.5255964E0,1.3369771E1,3.902414E-1,2.6888748E1,-8.370911E-3,-9.436685E-2,-1.4855269E-1,-0E0,-2.687863E-3,-0E0,0E0,-4.72736E-2,4.2183343E-1,-2.4653685E1,1.0677044E-3,2.4447985E0,-1.0340333E1,-1.6834866E0,-0E0,-1.14984386E-1,-0E0,5.2463897E-2,-3.860723E-2,1.8196512E-2,3.399117E1,7.2500527E-1,3.9551714E-1,1.0233294E-2,-0E0,-1.0318327E-1,-0E0,8.506764E-2,-8.106852E-2,-0E0,-5.6906186E-2,-0E0,-3.5380572E-2,1.1428106E-2,-0E0,-6.350597E-2,-3.999888E-2,2.1104002E-2,-8.5274264E-2,-0E0,-5.59624E-2,-8.115818E-3,-0E0,-4.0978074E-2],"split_indices":[12,2,5,0,13,7,2,5,7,0,7,24,5,13,0,0,8,0,0,0,16,13,3,13,13,3,0,0,3,0,0,3,3,2,3,21,1,12,5,0,5,0,0,0,0,1,0,1,0,0,9,0,3,5,9,0,0,0,0,0,0,5,2,0,0,0,0,0,0,0,0,0,0,0,0,0,0,0,0,0,0,0,0,0,0],"split_type":[0,0,0,0,0,0,0,0,0,0,0,0,0,0,0,0,0,0,0,0,0,0,0,0,0,0,0,0,0,0,0,0,0,0,0,0,0,0,0,0,0,0,0,0,0,0,0,0,0,0,0,0,0,0,0,0,0,0,0,0,0,0,0,0,0,0,0,0,0,0,0,0,0,0,0,0,0,0,0,0,0,0,0,0,0],"sum_hessian":[3.7088465E4,1.244936E4,2.4639104E4,6.0589297E3,6.3904307E3,1.9810459E4,4.8286436E3,4.6812456E3,1.3776842E3,1.1037595E3,5.286671E3,1.1880176E4,7.9302827E3,4.1076885E3,7.209552E2,1.3273244E2,4.548513E3,1.3150271E3,6.26571E1,3.3617085E3,1.9249626E3,7.515232E3,4.3649443E3,2.0200122E3,5.9102705E3,3.9584402E3,1.4924832E2,6.909073E1,4.4794224E3,1.1466759E3,1.6835126E2,1.1611222E3,7.638405E2,2.950118E3,4.5651143E3,3.0418987E3,1.3230453E3,6.783403E2,1.3416719E3,3.164785E3,2.7454858E3,2.8545807E2,3.6729822E3,4.4424707E3,3.6951744E1,8.0040155E2,3.6072058E2,3.841398E2,3.7970074E2,1.7578107E3,1.1923071E3,1.5809314E3,2.9841829E3,2.2772068E3,7.646921E2,1.7254518E2,1.1505001E3,2.107641E2,4.675762E2,9.499567E2,3.9171515E2,6.579447E2,2.50684E3,1.8073926E3,9.380933E2,1.118478E2,6.885538E2,1.0062253E2,2.8351727E2,1.4601125E3,2.9769818E2,3.7280603E2,8.195011E2,2.814039E3,1.7014377E2,6.3637432E1,2.2135693E3,4.839455E2,2.8074658E2,6.3794556E2,1.9999184E1,6.579006E2,1.8489396E3,6.661978E2,1.1411947E3],"tree_param":{"num_deleted":"0","num_feature":"25","num_nodes":"85","size_leaf_vector":"1"}},{"base_weights":[-2.2651266E-1,-3.1383184E-1,-1.9121419E-1,-3.403523E-1,-2.012619E-1,-1.7591064E-1,-1.7460553E-1,-2.3943906E-1,-3.6199403E-1,-2.6600061E-2,-1.3793224E-1,-2.0791103E-1,-1.49388E-1,-0E0,-2.4901664E-1,-2.1534257E-1,-0E0,-2.3053381E-1,-1.5553322E-1,-1.7740217E-1,-1.3048154E-1,-0E0,-1.5135828E-1,-2.3257807E-1,-0E0,-1.6291828E-1,-0E0,-2.0505516E-1,-6.5487154E-2,-1.3566871E-1,-1.0085835E-3,-1.3979933E-1,-0E0,-0E0,-1.000547E-1,-1.2344623E-1,-0E0,-0E0,-8.337594E-2],"categories":[],"categories_nodes":[],"categories_segments":[],"categories_sizes":[],"default_left":[0,0,0,0,0,0,0,0,0,0,0,0,1,0,0,0,0,0,0,0,0,0,0,0,0,0,0,0,0,0,0,0,0,0,0,0,0,0,0],"id":16,"left_children":[1,3,5,7,9,-1,11,13,15,-1,-1,17,19,-1,21,-1,-1,23,25,27,29,-1,-1,31,-1,33,-1,35,-1,37,-1,-1,-1,-1,-1,-1,-1,-1,-1],"loss_changes":[9.345703E1,2.1117737E1,3.4852356E1,8.968872E0,5.9924393E0,0E0,1.2795288E1,2.2470627E0,2.3197021E0,0E0,0E0,5.6261597E0,2.7206726E0,0E0,2.475891E0,0E0,0E0,3.260437E0,3.6084824E0,4.7143555E0,3.3593369E0,0E0,0E0,2.439087E0,0E0,2.853531E0,0E0,2.1516724E0,0E0,3.3703995E0,0E0,0E0,0E0,0E0,0E0,0E0,0E0,0E0,0E0],"parents":[2147483647,0,0,1,1,2,2,3,3,4,4,6,6,7,7,8,8,11,11,12,12,14,14,17,17,18,18,19,19,20,20,23,23,25,25,27,27,29,29],"right_children":[2,4,6,8,10,-1,12,14,16,-1,-1,18,20,-1,22,-1,-1,24,26,28,30,-1,-1,32,-1,34,-1,36,-1,38,-1,-1,-1,-1,-1,-1,-1,-1,-1],"split_conditions":[2.4937536E1,2.8582428E0,-2.2331084E-1,1.1160193E1,1.2325413E0,-1.7591064E-1,3.7404034E1,-1.0370929E0,3.728503E-1,-2.6600061E-2,-1.3793224E-1,2.9580572E0,1.5234851E1,-0E0,-6.799563E1,-2.1534257E-1,-0E0,3.780659E-1,2.6049216E0,1E0,4.982747E1,-0E0,-1.5135828E-1,8.37867E1,-0E0,-2.8742414E0,-0E0,2.3983283E0,-6.5487154E-2,-2.5159674E0,-1.0085835E-3,-1.3979933E-1,-0E0,-0E0,-1.000547E-1,-1.2344623E-1,-0E0,-0E0,-8.337594E-2],"split_indices":[6,12,13,5,5,0,6,2,13,0,0,12,5,0,9,0,0,13,3,22,6,0,0,10,0,3,0,3,0,3,0,0,0,0,0,0,0,0,0],"split_type":[0,0,0,0,0,0,0,0,0,0,0,0,0,0,0,0,0,0,0,0,0,0,0,0,0,0,0,0,0,0,0,0,0,0,0,0,0,0,0],"sum_hessian":[3.219648E4,9.163183E3,2.3033297E4,7.3263975E3,1.8367854E3,3.0364175E3,1.9996879E4,1.3978959E3,5.9285015E3,3.638208E2,1.4729646E3,8.41046E3,1.158642E4,6.989598E1,1.3279999E3,5.921022E3,7.479703E0,5.7132266E3,2.6972336E3,4.416113E3,7.1703066E3,2.3670128E1,1.3043297E3,5.673354E3,3.9872543E1,2.5934094E3,1.0382418E2,3.0039097E3,1.4122032E3,6.8142773E3,3.560293E2,5.577053E3,9.6300606E1,7.0556206E1,2.5228533E3,2.9702239E3,3.3685966E1,2.861145E2,6.5281626E3],"tree_param":{"num_deleted":"0","num_feature":"25","num_nodes":"39","size_leaf_vector":"1"}},{"base_weights":[-1.1102074E-1,-2.0669866E-1,-1.9333961E-3,-3.1792873E-1,-1.3501167E-1,-9.1461375E-2,4.3837167E-2,-1.8142153E-1,-3.457658E-1,-2.296319E-1,-9.5892325E-2,-1.1632954E-1,2.589125E-2,-5.9918105E-3,8.007435E-2,-0E0,-1.14208646E-1,-2.2830738E-1,-2.5573805E-1,-2.602983E-1,-1.288124E-1,-1.205328E-1,2.638725E-3,-1.8285748E-1,-7.76495E-2,5.139954E-2,-7.2101285E-3,-4.1757938E-2,5.4782666E-2,2.1883547E-2,1.1233141E-1,-1.5461923E-1,-0E0,-2.632746E-1,-0E0,-1.1168788E-1,-0E0,-1.7698619E-1,-6.753081E-2,-9.6397195E-3,9.548127E-2,-2.0111659E-1,-0E0,-3.2871813E-2,-1.5882342E-1,-7.418693E-2,7.253893E-2,-0E0,1.0809574E-1,-3.7842855E-2,8.5427076E-2,9.678949E-2,2.807931E-1,-0E0,-1.5876314E-1,-2.7099602E-2,-2.0021147E-1,-8.430968E-2,4.1758627E-2,1.3013541E-2,-4.2653307E-2,1.4220956E-1,-0E0,-0E0,-1.2436943E-1,-0E0,-8.559535E-2,-0E0,-1.1030339E-1,-1.1053671E-1,-0E0,-0E0,7.260279E-2,-0E0,1.2508036E-1,-7.2370544E-2,1.667561E-2,1.6720556E-2,1.2492425E-1,7.359993E-2,1.7827658E-1,-0E0,3.2223538E-1,-1.6327062E-1,-9.643854E-2,-5.887347E-2,5.8341404E-5,6.0561303E-2,-1.5255524E-2,1.082785E-1,-0E0,-2.998046E-2,3.602884E-2,3.2668635E-2,-6.9787115E-2,-7.241963E-2,5.1648887E-3,-0E0,9.1049775E-2,-0E0,-5.9329573E-2,6.583303E-2,-9.678126E-3,9.107488E-2,-0E0,2.2406828E-2,8.462753E-2,1.1505559E-1,-0E0,1.9995865E-1,-0E0],"categories":[],"categories_nodes":[],"categories_segments":[],"categories_sizes":[],"default_left":[0,0,0,0,0,0,0,0,0,0,0,0,0,0,0,0,0,0,0,0,0,0,0,0,0,0,0,0,0,0,0,0,0,0,0,0,0,0,0,0,0,0,0,0,0,1,0,0,0,0,0,0,0,0,0,0,0,0,0,0,0,0,0,0,0,0,0,0,0,1,0,0,0,0,0,0,0,0,0,0,0,0,1,0,0,0,0,0,0,0,0,0,0,0,0,0,0,0,0,0,0,0,0,0,0,0,0,0,0,0,0],"id":17,"left_children":[1,3,5,7,9,11,13,15,17,19,21,23,25,27,29,-1,-1,-1,31,33,35,37,39,41,43,-1,-1,45,47,49,51,-1,-1,53,-1,-1,-1,55,57,59,61,63,-1,65,67,69,71,-1,73,75,77,79,81,-1,-1,-1,83,85,87,-1,-1,89,-1,-1,-1,91,93,-1,-1,95,-1,-1,-1,-1,97,99,-1,101,103,105,107,-1,109,-1,-1,-1,-1,-1,-1,-1,-1,-1,-1,-1,-1,-1,-1,-1,-1,-1,-1,-1,-1,-1,-1,-1,-1,-1,-1,-1,-1],"loss_changes":[3.8856342E2,1.5351477E2,7.24604E1,2.3321655E1,4.1450607E1,1.8534039E1,2.1621923E1,2.6040497E0,1.4639709E1,6.3832703E0,2.2364235E1,1.0125084E1,3.0633922E0,1.0203371E1,1.1350647E1,0E0,0E0,0E0,1.9906616E0,2.12323E0,7.4088774E0,1.8426552E1,2.8026226E0,4.597885E0,9.95484E0,0E0,0E0,1.1561743E1,5.0769763E0,1.0216817E1,6.970974E0,0E0,0E0,2.1371765E0,0E0,0E0,0E0,7.4526596E0,7.342064E0,3.2437072E0,2.5619657E0,2.0807457E0,0E0,3.6856532E0,5.9435863E0,6.2872705E0,2.307162E0,0E0,2.1820412E0,3.2982483E0,2.0970898E0,4.7572136E0,3.3117256E0,0E0,0E0,0E0,2.7856903E0,5.215967E0,2.533642E0,0E0,0E0,2.0511942E0,0E0,0E0,0E0,4.3002663E0,4.4453444E0,0E0,0E0,3.4293728E0,0E0,0E0,0E0,0E0,1.9960546E0,2.2922807E0,0E0,2.8398802E0,3.298894E0,5.9970093E0,2.5848694E0,0E0,2.0474758E0,0E0,0E0,0E0,0E0,0E0,0E0,0E0,0E0,0E0,0E0,0E0,0E0,0E0,0E0,0E0,0E0,0E0,0E0,0E0,0E0,0E0,0E0,0E0,0E0,0E0,0E0,0E0,0E0],"parents":[2147483647,0,0,1,1,2,2,3,3,4,4,5,5,6,6,7,7,8,8,9,9,10,10,11,11,12,12,13,13,14,14,18,18,19,19,20,20,21,21,22,22,23,23,24,24,27,27,28,28,29,29,30,30,33,33,37,37,38,38,39,39,40,40,41,41,43,43,44,44,45,45,46,46,48,48,49,49,50,50,51,51,52,52,56,56,57,57,58,58,61,61,65,65,66,66,69,69,74,74,75,75,77,77,78,78,79,79,80,80,82,82],"right_children":[2,4,6,8,10,12,14,16,18,20,22,24,26,28,30,-1,-1,-1,32,34,36,38,40,42,44,-1,-1,46,48,50,52,-1,-1,54,-1,-1,-1,56,58,60,62,64,-1,66,68,70,72,-1,74,76,78,80,82,-1,-1,-1,84,86,88,-1,-1,90,-1,-1,-1,92,94,-1,-1,96,-1,-1,-1,-1,98,100,-1,102,104,106,108,-1,110,-1,-1,-1,-1,-1,-1,-1,-1,-1,-1,-1,-1,-1,-1,-1,-1,-1,-1,-1,-1,-1,-1,-1,-1,-1,-1,-1,-1],"split_conditions":[2.716056E0,2.7280447E1,3.3412544E1,4.290695E0,2.1516547E0,3.312061E0,3.0308545E0,-1.6280035E1,2.4332101E0,4.3551487E1,4.513253E1,3.9932242E-1,1E0,1E0,3.9671287E-1,-0E0,-1.14208646E-1,-2.2830738E-1,4.344353E-1,4.2971787E-1,4.0331584E-1,3.9955747E-1,5.4540993E1,1.1201173E0,7.230924E-1,5.139954E-2,-7.2101285E-3,1E0,4.149353E1,4.226779E1,1.273485E0,-1.5461923E-1,-0E0,-2.7475066E0,-0E0,-1.1168788E-1,-0E0,5.3126245E0,1.5114528E0,5.927688E0,3.1927704E1,-1.0670351E0,-0E0,1E0,2.407102E1,4.8835903E1,4.0276875E1,-0E0,4.4500946E1,1.0056914E0,1.6154789E1,3.550643E0,3.070354E0,-0E0,-1.5876314E-1,-2.7099602E-2,3.4985878E1,4.1796342E-1,1E0,1.3013541E-2,-4.2653307E-2,4.788877E-2,-0E0,-0E0,-1.2436943E-1,2.414774E1,-8.265096E-1,-0E0,-1.1030339E-1,7.730639E1,-0E0,-0E0,7.260279E-2,-0E0,6.217218E-1,3.457557E-1,1.667561E-2,-7.92775E-2,3.9489955E-1,1E0,2.0093806E0,-0E0,2.5187338E1,-1.6327062E-1,-9.643854E-2,-5.887347E-2,5.8341404E-5,6.0561303E-2,-1.5255524E-2,1.082785E-1,-0E0,-2.998046E-2,3.602884E-2,3.2668635E-2,-6.9787115E-2,-7.241963E-2,5.1648887E-3,-0E0,9.1049775E-2,-0E0,-5.9329573E-2,6.583303E-2,-9.678126E-3,9.107488E-2,-0E0,2.2406828E-2,8.462753E-2,1.1505559E-1,-0E0,1.9995865E-1,-0E0],"split_indices":[12,6,6,5,12,12,12,5,12,6,6,0,24,22,0,0,0,0,0,0,0,0,7,2,3,0,0,21,6,6,2,0,0,3,0,0,0,4,2,4,5,11,0,18,7,7,6,0,7,2,5,12,12,0,0,0,6,0,19,0,0,1,0,0,0,6,11,0,0,10,0,0,0,0,2,2,0,11,0,22,3,0,9,0,0,0,0,0,0,0,0,0,0,0,0,0,0,0,0,0,0,0,0,0,0,0,0,0,0,0,0],"split_type":[0,0,0,0,0,0,0,0,0,0,0,0,0,0,0,0,0,0,0,0,0,0,0,0,0,0,0,0,0,0,0,0,0,0,0,0,0,0,0,0,0,0,0,0,0,0,0,0,0,0,0,0,0,0,0,0,0,0,0,0,0,0,0,0,0,0,0,0,0,0,0,0,0,0,0,0,0,0,0,0,0,0,0,0,0,0,0,0,0,0,0,0,0,0,0,0,0,0,0,0,0,0,0,0,0,0,0,0,0,0,0],"sum_hessian":[3.74287E4,1.9884658E4,1.7544041E4,7.723937E3,1.2160721E4,6.009206E3,1.1534836E4,1.3831593E3,6.340778E3,3.466316E3,8.694405E3,5.0319473E3,9.772587E2,4.7384067E3,6.7964287E3,8.389755E1,1.2992617E3,4.328475E3,2.0123027E3,2.5676687E3,8.986474E2,7.038279E3,1.6561259E3,1.7385747E3,3.2933728E3,4.7788654E2,4.993722E2,3.0928496E3,1.645557E3,2.5446309E3,4.251798E3,1.9688961E3,4.34066E1,2.5403745E3,2.729404E1,6.2579144E2,2.7285596E2,3.3027004E3,3.7355786E3,1.3703851E3,2.8574075E2,1.5493527E3,1.8922205E2,2.213486E3,1.0798867E3,2.4828745E3,6.09975E2,7.95014E2,8.505431E2,1.2288557E3,1.3157753E3,3.962234E3,2.8956403E2,4.9084198E1,2.4912905E3,5.6781024E2,2.7348901E3,3.3229895E3,4.125892E2,8.0161725E2,5.687679E2,2.5061047E2,3.5130264E1,7.4952805E1,1.4743999E3,1.3915557E3,8.2193036E2,1.2119566E2,9.58691E2,1.6280886E3,8.54786E2,2.469331E2,3.6304187E2,7.8086006E1,7.724571E2,9.0988495E2,3.189708E2,5.814172E2,7.343581E2,3.1973884E3,7.6484534E2,3.993704E1,2.4962698E2,8.056079E2,1.9292822E3,2.9292039E3,3.9378552E2,2.9727197E2,1.15317215E2,2.1049586E2,4.0114613E1,7.777851E2,6.137706E2,9.0541374E1,7.31389E2,1.5650417E3,6.304682E1,1.7688678E2,5.955703E2,2.0756265E2,7.0232227E2,2.2759271E2,3.5382446E2,6.24031E2,1.1032704E2,2.2123489E3,9.8503973E2,7.1452747E2,5.0317886E1,2.4573145E2,3.8955326E0],"tree_param":{"num_deleted":"0","num_feature":"25","num_nodes":"111","size_leaf_vector":"1"}},{"base_weights":[1.1899696E-1,2.0540242E-1,1.0484026E-1,2.5426057E-1,1.6502464E-1,1.571667E-1,8.8978626E-2,2.1204484E-1,1.9193545E-1,2.6520965E-1,1.3288558E-1,2.6807773E-1,1.419047E-1,8.447467E-2,2.509346E-1,2.6021138E-1,1.2358654E-1,-0E0,2.7949378E-1,9.7527005E-2,1.9626716E-1,2.761956E-1,-0E0,1.4663321E-1,-2.5614262E-2,1.06804475E-1,5.3633112E-2,3.3315006E-1,1.4358835E-1,-0E0,2.7642885E-1,2.0782039E-1,4.090635E-3,-0E0,2.8809488E-1,1.2479841E-1,6.3379346E-3,-0E0,2.0594253E-1,-0E0,1.6610512E-1,1.6998714E-1,9.380254E-2,1.1711161E-1,6.831639E-3,1.3413157E-2,7.676165E-2,2.0465045E-1,-0E0,8.2441285E-2,3.340975E-1,-0E0,1.6739023E-1,2.3497267E-1,-0E0,-0E0,1.7442855E-1,1.3454045E-1,-1.1783261E-3,1.5782966E-1,1.3187407E-1,1.9650452E-1,1.3137151E-1,1.0045444E-1,-0E0,2.864194E-1,1.1181545E-1,-2.1457411E-2,2.681459E-2,1.11866385E-1,-1.0798769E-2,1.07900165E-1,2.2063177E-2,1.291038E-1,-0E0,-0E0,2.2091304E-1,1.5731904E-1,-0E0,8.844783E-2,8.715434E-3,9.050886E-2,-0E0,1.20598696E-1,2.1401655E-3,8.617126E-2,1.1026514E-2,2.309935E-2,6.8925045E-2,1.8212835E-1,-0E0,7.3046565E-2,2.4573836E-2,3.9402045E-2,-0E0,2.657757E-2,1.2844749E-1,2.1736199E-2,-3.559913E-2,6.70255E-2,-0E0,-4.2242203E-3,4.8511703E-2,-0E0,9.672354E-2],"categories":[],"categories_nodes":[],"categories_segments":[],"categories_sizes":[],"default_left":[0,0,0,0,0,0,0,0,0,0,0,0,0,0,0,0,0,0,0,0,1,0,0,0,0,0,0,0,0,0,0,0,0,0,0,0,0,0,0,0,0,0,0,0,0,0,1,0,0,0,0,0,0,0,0,0,0,0,0,0,0,0,0,0,0,1,0,0,0,0,0,0,0,0,0,0,0,0,0,0,0,0,0,0,0,0,0,0,0,0,0,0,0,0,0,0,0,0,0,0,0,0,0,0,0],"id":18,"left_children":[1,3,5,7,9,11,13,15,-1,17,19,21,23,25,27,29,31,-1,33,35,37,39,-1,41,-1,43,45,47,49,-1,51,53,-1,-1,55,57,-1,-1,59,-1,-1,61,63,65,67,69,71,-1,-1,73,75,-1,-1,77,-1,-1,-1,79,-1,-1,81,83,85,87,-1,89,91,-1,93,95,97,99,101,103,-1,-1,-1,-1,-1,-1,-1,-1,-1,-1,-1,-1,-1,-1,-1,-1,-1,-1,-1,-1,-1,-1,-1,-1,-1,-1,-1,-1,-1,-1,-1],"loss_changes":[9.101062E1,1.6467712E1,5.2466553E1,7.601776E0,1.4949722E1,2.1271027E1,3.363794E1,8.733414E0,0E0,6.12381E0,7.212532E0,3.6665726E0,1.299057E1,3.2615753E1,6.2232437E0,7.9489136E0,9.258305E0,0E0,3.9035034E0,5.955557E0,3.6549225E0,2.2252655E0,0E0,1.3471497E1,0E0,2.8291626E1,1.8729073E1,3.934639E0,2.8852005E0,0E0,2.842682E0,4.1694927E0,0E0,0E0,3.3138275E0,4.2021637E0,0E0,0E0,2.188404E0,0E0,0E0,5.6152954E0,3.2498055E0,1.8816284E1,2.3058546E0,1.9896835E1,2.1215363E1,0E0,0E0,2.9659224E0,2.0181332E0,0E0,0E0,2.536213E0,0E0,0E0,0E0,2.0723534E0,0E0,0E0,2.4720917E0,4.493332E0,4.289749E0,2.1994705E0,0E0,4.696892E0,1.8200256E1,0E0,2.808343E0,8.723173E0,1.4866074E1,3.7837982E0,9.392369E0,2.5967507E0,0E0,0E0,0E0,0E0,0E0,0E0,0E0,0E0,0E0,0E0,0E0,0E0,0E0,0E0,0E0,0E0,0E0,0E0,0E0,0E0,0E0,0E0,0E0,0E0,0E0,0E0,0E0,0E0,0E0,0E0,0E0],"parents":[2147483647,0,0,1,1,2,2,3,3,4,4,5,5,6,6,7,7,9,9,10,10,11,11,12,12,13,13,14,14,15,15,16,16,18,18,19,19,20,20,21,21,23,23,25,25,26,26,27,27,28,28,30,30,31,31,34,34,35,35,38,38,41,41,42,42,43,43,44,44,45,45,46,46,49,49,50,50,53,53,57,57,60,60,61,61,62,62,63,63,65,65,66,66,68,68,69,69,70,70,71,71,72,72,73,73],"right_children":[2,4,6,8,10,12,14,16,-1,18,20,22,24,26,28,30,32,-1,34,36,38,40,-1,42,-1,44,46,48,50,-1,52,54,-1,-1,56,58,-1,-1,60,-1,-1,62,64,66,68,70,72,-1,-1,74,76,-1,-1,78,-1,-1,-1,80,-1,-1,82,84,86,88,-1,90,92,-1,94,96,98,100,102,104,-1,-1,-1,-1,-1,-1,-1,-1,-1,-1,-1,-1,-1,-1,-1,-1,-1,-1,-1,-1,-1,-1,-1,-1,-1,-1,-1,-1,-1,-1,-1],"split_conditions":[1.3515907E1,4.048782E-1,-1.8403307E-1,-1.3914646E0,0E0,3.877035E-1,9.558698E-1,1E0,1.9193545E-1,-1.0340333E1,1.2644044E0,5.0788834E1,2.666841E0,4.0298036E-1,1E0,-1.0670351E0,-1.6239445E-1,-0E0,-1.0030861E0,4.2235863E-1,-1.0340333E1,2.340829E1,-0E0,3.7404034E1,-2.5614262E-2,4.6217083E1,-1.452087E0,3.176557E1,1.2396047E0,-0E0,1.5234851E1,4.8981815E1,4.090635E-3,-0E0,4.051339E-1,1.3248272E0,6.3379346E-3,-0E0,3.8542252E-2,-0E0,1.6610512E-1,1.974826E0,5.4825214E1,3.7921143E-1,-1.5735896E0,-5.6375396E-1,4.537733E1,2.0465045E-1,-0E0,4.0886045E-1,2.3365922E0,-0E0,1.6739023E-1,2.7390337E0,-0E0,-0E0,1.7442855E-1,1E0,-1.1783261E-3,1.5782966E-1,6.3237877E1,1.7988105E0,1.3434001E0,-1.7750834E0,-0E0,7.0576294E1,1E0,-2.1457411E-2,4.8257885E1,1E0,1E0,4.325025E-1,1E0,-4.326431E1,-0E0,-0E0,2.2091304E-1,1.5731904E-1,-0E0,8.844783E-2,8.715434E-3,9.050886E-2,-0E0,1.20598696E-1,2.1401655E-3,8.617126E-2,1.1026514E-2,2.309935E-2,6.8925045E-2,1.8212835E-1,-0E0,7.3046565E-2,2.4573836E-2,3.9402045E-2,-0E0,2.657757E-2,1.2844749E-1,2.1736199E-2,-3.559913E-2,6.70255E-2,-0E0,-4.2242203E-3,4.8511703E-2,-0E0,9.672354E-2],"split_indices":[6,0,13,3,6,0,11,16,0,5,3,6,3,0,16,11,11,0,11,0,5,7,0,6,0,6,3,8,11,0,5,7,0,0,0,2,0,0,2,0,0,12,7,0,3,11,7,0,0,0,12,0,0,12,0,0,0,21,0,0,10,2,2,3,0,10,21,0,6,16,16,0,16,8,0,0,0,0,0,0,0,0,0,0,0,0,0,0,0,0,0,0,0,0,0,0,0,0,0,0,0,0,0,0,0],"split_type":[0,0,0,0,0,0,0,0,0,0,0,0,0,0,0,0,0,0,0,0,0,0,0,0,0,0,0,0,0,0,0,0,0,0,0,0,0,0,0,0,0,0,0,0,0,0,0,0,0,0,0,0,0,0,0,0,0,0,0,0,0,0,0,0,0,0,0,0,0,0,0,0,0,0,0,0,0,0,0,0,0,0,0,0,0,0,0,0,0,0,0,0,0,0,0,0,0,0,0,0,0,0,0,0,0],"sum_hessian":[7.71988E4,1.0746965E4,6.6451836E4,4.724497E3,6.022468E3,1.5286195E4,5.1165637E4,3.0485713E3,1.6759255E3,1.368173E3,4.654295E3,1.7484591E3,1.3537736E4,4.9857125E4,1.3085109E3,1.8862037E3,1.1623676E3,5.8765972E1,1.309407E3,3.1078472E3,1.5464478E3,1.694739E3,5.3720192E1,1.3257261E4,2.8047617E2,2.8710074E4,2.114705E4,6.753162E2,6.331947E2,1.1181323E2,1.7743905E3,6.190768E2,5.432907E2,3.0509665E1,1.2788973E3,2.2707139E3,8.371333E2,5.6533314E1,1.4899144E3,1.5396199E1,1.6793428E3,9.04259E3,4.214671E3,2.5930666E4,2.7794092E3,7.890756E3,1.3256295E4,6.6315204E2,1.216418E1,5.3047815E2,1.0271655E2,3.379889E1,1.7405917E3,5.578503E2,6.1226494E1,1.1475313E1,1.267422E3,2.1846638E3,8.60501E1,7.3288257E2,7.5703186E2,5.179238E3,3.8633516E3,3.9958855E3,2.1878545E2,7.124208E2,2.5218244E4,7.1400616E2,2.065403E3,1.6362719E3,6.2544844E3,8.320233E3,4.9360615E3,3.8898993E2,1.414882E2,7.082483E0,9.563407E1,4.727468E2,8.5103485E1,1.8698447E3,3.1481906E2,6.704282E2,8.660362E1,4.9537607E3,2.2547687E2,3.3576997E3,5.0565182E2,9.5190625E2,3.0439792E3,6.696274E2,4.2793404E1,2.161415E4,3.604094E3,9.6706104E2,1.0983419E3,1.0651147E3,5.7115704E2,3.0771284E3,3.1773557E3,7.894324E3,4.2590936E2,3.2025037E3,1.733558E3,5.0275867E1,3.3871405E2],"tree_param":{"num_deleted":"0","num_feature":"25","num_nodes":"105","size_leaf_vector":"1"}},{"base_weights":[1.8010525E-2,5.07303E-2,-4.4093572E-4,6.657905E-2,2.8931908E-2,2.8816981E-2,-1.2644036E-2,8.6418375E-2,3.3750888E-2,9.148725E-3,6.68667E-2,-3.838442E-2,3.876577E-2,-7.0413765E-3,-4.651388E-2,-0E0,9.590252E-2,5.0327938E-2,-2.4940502E-3,-2.900249E-3,2.351519E-2,9.707271E-2,-0E0,-6.317735E-2,-0E0,-1.7357696E-2,4.6999205E-2,-3.3572167E-3,-7.666708E-2,-0E0,1.07222065E-1,7.0484154E-2,-0E0,-0E0,1.239808E-1,5.5462946E-3,6.388094E-2,-1.5209626E-2,1.488866E-2,-0E0,1.1611075E-1,-0E0,5.632733E-2,1.4236154E-1,-0E0,8.0357015E-2,-0E0,1.1387467E-3,-4.0371682E-2,2.6820645E-2,-2.3410803E-2,-0E0,7.523044E-2,-0E0,9.784597E-2,5.059818E-2,-0E0,2.9521666E-2,-5.6747075E-2,-6.4384835E-3,1.9273859E-2,-8.092524E-3,-4.5429457E-2,2.1680128E-2,-2.9628852E-2],"categories":[],"categories_nodes":[],"categories_segments":[],"categories_sizes":[],"default_left":[0,0,0,0,0,0,0,0,0,1,0,0,0,0,0,0,0,1,0,0,0,0,0,0,0,0,0,0,0,0,0,0,0,0,1,0,1,0,0,0,0,0,