{"learner":{"attributes":{"scikit_learn":"{\"_estimator_type\": \"classifier\"}"},"feature_names":["pitcherHand_L","pitcherHand_R","hitterHand_L","hitterHand_R","balls_before_pitch_0","balls_before_pitch_1","balls_before_pitch_2","balls_before_pitch_3","strikes_before_pitch_0","strikes_before_pitch_1","strikes_before_pitch_2","pX","pZ","sz_z"],"feature_types":["i","i","i","i","i","i","i","i","i","i","i","float","float","float"],"gradient_booster":{"model":{"gbtree_model_param":{"num_parallel_tree":"1","num_trees":"100"},"iteration_indptr":[0,1,2,3,4,5,6,7,8,9,10,11,12,13,14,15,16,17,18,19,20,21,22,23,24,25,26,27,28,29,30,31,32,33,34,35,36,37,38,39,40,41,42,43,44,45,46,47,48,49,50,51,52,53,54,55,56,57,58,59,60,61,62,63,64,65,66,67,68,69,70,71,72,73,74,75,76,77,78,79,80,81,82,83,84,85,86,87,88,89,90,91,92,93,94,95,96,97,98,99,100],"tree_info":[0,0,0,0,0,0,0,0,0,0,0,0,0,0,0,0,0,0,0,0,0,0,0,0,0,0,0,0,0,0,0,0,0,0,0,0,0,0,0,0,0,0,0,0,0,0,0,0,0,0,0,0,0,0,0,0,0,0,0,0,0,0,0,0,0,0,0,0,0,0,0,0,0,0,0,0,0,0,0,0,0,0,0,0,0,0,0,0,0,0,0,0,0,0,0,0,0,0,0,0],"trees":[{"base_weights":[-0E0,2.0077878E-1,-3.5073596E-1,2.8575197E-1,6.782481E-2,-2.1318911E-1,-6.089846E-1,-2.7655745E-1,3.19581E-1,8.8553905E-2,-1.4690511E-1,-1.4372058E-1,-3.2350433E-1,-4.9168336E-1,-7.29792E-1,-4.5275423E-1,-4.8751373E-2,3.5842463E-1,-4.1398965E-2,1.3773137E-1,9.0675745E-3,-2.514895E-1,-5.609508E-3,-1.627857E-1,-0E0,-6.214761E-2,-3.3999103E-1,-6.363723E-2,-5.048957E-1,-0E0,-4.5642626E-1,-2.9486376E-1,-0E0,-1.4668305E-1,-0E0,3.9894003E-1,2.6730445E-1,9.2902415E-2,-2.2910298E-1,-1.2875038E-1,1.5449634E-1,-1.2819018E-2,1.6030309E-1,-1.667782E-1,-0E0,3.615967E-2,-8.663333E-2,-1.8913005E-1,-6.767749E-2,2.5373433E-2,-9.05143E-2,-2.2500877E-1,-8.9603364E-2,-3.1620395E-1,-0E0,-1.6564545E-1,1.7790524E-2,1.9395791E-1,4.2410856E-1,2.9097682E-1,1.6396843E-1,-3.1964578E-2,7.092347E-2,-5.8191374E-2,-3.7528297E-1,-1.5976602E-1,-2.0513548E-4,1.9077928E-1,9.944663E-2,2.9095985E-2,-7.828321E-2,2.0145231E-1,-0E0,-1.260812E-1,-2.1630536E-1,-4.1516036E-2,-1.3722274E-1,-7.187347E-2,3.9933614E-2,-1.3345641E-2,1.5402211E-1,2.8005818E-1,1.4804415E-1,2.2430533E-1,1.1377857E-1,7.683622E-3,2.0510311E-1,-0E0,-7.775389E-2,-3.2223648E-1,-6.968696E-2,2.4089325E-2,-1.0020687E-1,2.0342162E-1,2.6226826E-2,-4.6821546E-2,1.3224497E-1,1.0059226E-1,-6.7888424E-2,-1.5633091E-1,3.920584E-2,-0E0,1.4481096E-1,-1.4396027E-2,-9.852388E-2,-7.224623E-2,-1.4769955E-1,-1.19757354E-1,-2.7352476E-3],"categories":[],"categories_nodes":[],"categories_segments":[],"categories_sizes":[],"default_left":[0,0,0,0,0,0,0,0,0,0,0,0,0,0,0,0,0,0,0,0,0,0,0,0,0,0,0,0,0,0,0,0,0,0,0,0,0,0,0,0,0,0,0,0,0,0,0,0,0,0,0,0,0,0,0,0,0,0,0,0,0,0,0,0,0,0,0,0,0,0,0,0,0,0,0,0,0,0,0,0,0,0,0,0,0,0,0,0,0,0,0,0,0,0,0,0,0,0,0,0,0,0,0,0,0,0,0,0,0],"id":0,"left_children":[1,3,5,7,9,11,13,15,17,19,21,23,25,27,29,31,33,35,37,39,41,43,45,47,49,-1,51,-1,53,-1,-1,-1,-1,55,-1,57,59,61,63,65,67,69,71,-1,-1,-1,-1,73,75,77,-1,-1,-1,-1,-1,-1,-1,79,81,83,85,-1,-1,87,89,-1,91,93,95,97,99,101,-1,103,105,107,-1,-1,-1,-1,-1,-1,-1,-1,-1,-1,-1,-1,-1,-1,-1,-1,-1,-1,-1,-1,-1,-1,-1,-1,-1,-1,-1,-1,-1,-1,-1,-1,-1],"loss_changes":[6.1706865E3,6.223616E2,1.1113518E3,6.5173804E2,9.746727E1,1.5014081E2,1.1090381E2,6.841916E1,4.5495874E2,7.609987E1,2.3869652E1,3.4959747E1,2.015747E1,1.7167847E1,4.168457E0,6.4962006E0,6.566717E0,8.88396E1,8.277603E1,5.6688965E1,2.8456076E1,4.055908E0,9.7959795E0,2.3985138E1,6.966296E0,0E0,1.7927917E1,0E0,5.012451E0,0E0,0E0,0E0,0E0,1.275128E1,0E0,8.650952E1,1.2145752E1,6.8631973E0,2.6171951E1,7.718214E0,1.7391632E1,1.9725817E1,5.5917797E0,0E0,0E0,0E0,0E0,7.913727E0,6.2273893E0,7.494007E0,0E0,0E0,0E0,0E0,0E0,0E0,0E0,3.073423E1,6.195874E1,4.1219055E1,4.475197E1,0E0,0E0,3.637469E0,1.1433594E1,0E0,5.3610983E0,1.2931807E2,1.0022145E2,7.6532906E1,7.297043E1,6.906704E0,0E0,6.817692E0,4.668152E0,1.0967309E1,0E0,0E0,0E0,0E0,0E0,0E0,0E0,0E0,0E0,0E0,0E0,0E0,0E0,0E0,0E0,0E0,0E0,0E0,0E0,0E0,0E0,0E0,0E0,0E0,0E0,0E0,0E0,0E0,0E0,0E0,0E0,0E0,0E0],"parents":[2147483647,0,0,1,1,2,2,3,3,4,4,5,5,6,6,7,7,8,8,9,9,10,10,11,11,12,12,13,13,14,14,15,15,16,16,17,17,18,18,19,19,20,20,21,21,22,22,23,23,24,24,26,26,28,28,33,33,35,35,36,36,37,37,38,38,39,39,40,40,41,41,42,42,47,47,48,48,49,49,57,57,58,58,59,59,60,60,63,63,64,64,66,66,67,67,68,68,69,69,70,70,71,71,73,73,74,74,75,75],"right_children":[2,4,6,8,10,12,14,16,18,20,22,24,26,28,30,32,34,36,38,40,42,44,46,48,50,-1,52,-1,54,-1,-1,-1,-1,56,-1,58,60,62,64,66,68,70,72,-1,-1,-1,-1,74,76,78,-1,-1,-1,-1,-1,-1,-1,80,82,84,86,-1,-1,88,90,-1,92,94,96,98,100,102,-1,104,106,108,-1,-1,-1,-1,-1,-1,-1,-1,-1,-1,-1,-1,-1,-1,-1,-1,-1,-1,-1,-1,-1,-1,-1,-1,-1,-1,-1,-1,-1,-1,-1,-1,-1],"split_conditions":[2.8536758E0,2.481856E0,3.304622E0,-8.801651E-1,7.240927E-1,3.1057956E0,3.5230598E0,-1.0253246E0,6.8521804E-1,2.707348E0,1E0,1E0,2.5239044E-1,3.2054013E-1,3.3721232E-1,2.4520688E0,-2.3250301E-1,2.2804828E0,8.919242E-1,-9.5464206E-1,1E0,2.5239044E-1,9.680466E-1,1E0,5.3246003E-1,-6.214761E-2,1E0,-6.363723E-2,8.254957E-1,-0E0,-4.5642626E-1,-2.9486376E-1,-0E0,1E0,-0E0,-5.7628846E-1,3.088295E-1,-5.055363E-1,1E0,-1.1643988E0,1E0,1E0,2.0982513E-1,-1.667782E-1,-0E0,3.615967E-2,-8.663333E-2,2.9341717E0,7.106334E-1,-7.3091346E-1,-9.05143E-2,-2.2500877E-1,-8.9603364E-2,-3.1620395E-1,-0E0,-1.6564545E-1,1.7790524E-2,1.737597E0,4.5713934E-1,1E0,1E0,-3.1964578E-2,7.092347E-2,2.2104785E0,2.2104785E0,-1.5976602E-1,1E0,-7.1361594E-2,-1.8750906E-1,-1.2063443E-1,-9.877296E-2,-8.478186E-1,-0E0,-3.6012897E-1,2.1359812E-1,-6.8863285E-1,-1.3722274E-1,-7.187347E-2,3.9933614E-2,-1.3345641E-2,1.5402211E-1,2.8005818E-1,1.4804415E-1,2.2430533E-1,1.1377857E-1,7.683622E-3,2.0510311E-1,-0E0,-7.775389E-2,-3.2223648E-1,-6.968696E-2,2.4089325E-2,-1.0020687E-1,2.0342162E-1,2.6226826E-2,-4.6821546E-2,1.3224497E-1,1.0059226E-1,-6.7888424E-2,-1.5633091E-1,3.920584E-2,-0E0,1.4481096E-1,-1.4396027E-2,-9.852388E-2,-7.224623E-2,-1.4769955E-1,-1.19757354E-1,-2.7352476E-3],"split_indices":[12,12,12,11,11,12,12,11,11,12,2,7,13,13,13,12,13,12,11,11,7,13,11,6,11,0,7,0,13,0,0,0,0,2,0,11,11,13,2,11,2,2,11,0,0,0,0,12,11,11,0,0,0,0,0,0,0,12,11,2,2,0,0,12,12,0,2,11,11,11,11,11,0,11,13,11,0,0,0,0,0,0,0,0,0,0,0,0,0,0,0,0,0,0,0,0,0,0,0,0,0,0,0,0,0,0,0,0,0],"split_type":[0,0,0,0,0,0,0,0,0,0,0,0,0,0,0,0,0,0,0,0,0,0,0,0,0,0,0,0,0,0,0,0,0,0,0,0,0,0,0,0,0,0,0,0,0,0,0,0,0,0,0,0,0,0,0,0,0,0,0,0,0,0,0,0,0,0,0,0,0,0,0,0,0,0,0,0,0,0,0,0,0,0,0,0,0,0,0,0,0,0,0,0,0,0,0,0,0,0,0,0,0,0,0,0,0,0,0,0,0],"sum_hessian":[8.745801E4,5.562082E4,3.1837188E4,3.381144E4,2.1809377E4,2.0899523E4,1.0937664E4,1.8630114E3,3.194843E4,1.99939E4,1.8154779E3,1.3013207E4,7.886317E3,5.803059E3,5.1346045E3,9.715731E2,8.9143823E2,2.8883396E4,3.0650344E3,1.2199415E4,7.7944854E3,9.4793085E2,8.675471E2,1.1446595E4,1.5666119E3,6.400835E2,7.2462334E3,2.493638E2,5.5536953E3,1.2692169E1,5.1219126E3,9.1557825E2,5.5994865E1,3.3820898E2,5.5322925E2,1.9704967E4,9.17843E3,1.7607274E3,1.304307E3,6.388392E2,1.1560575E4,6.7793604E3,1.0151247E3,8.88203E2,5.9727856E1,5.375507E2,3.299964E2,8.780492E3,2.666102E3,1.352587E3,2.1402481E2,6.4354277E3,8.1080566E2,5.535777E3,1.7918356E1,2.3119658E2,1.07012405E2,2.2915588E3,1.7413408E4,7.2382695E3,1.9401599E3,1.1472726E2,1.6460001E3,6.9707385E2,6.072332E2,2.2447719E2,4.14362E2,6.690764E3,4.869811E3,4.015205E3,2.7641555E3,7.5356647E2,2.6155823E2,2.939606E3,5.8408867E3,2.4408784E3,2.2522379E2,1.7445511E2,1.178132E3,4.0266528E2,1.8888934E3,1.5227119E4,2.1862883E3,4.2523745E3,2.985895E3,1.0994902E3,8.4066956E2,3.680729E2,3.2900095E2,3.118292E2,2.9540402E2,3.0162567E2,1.1273633E2,3.4062297E3,3.2845344E3,1.8645045E3,3.0053066E3,2.1011763E3,1.9140289E3,1.2682214E3,1.495934E3,7.5157555E1,6.784089E2,8.3643884E2,2.1031672E3,1.1915707E3,4.649316E3,3.409465E2,2.099932E3],"tree_param":{"num_deleted":"0","num_feature":"14","num_nodes":"109","size_leaf_vector":"1"}},{"base_weights":[-5.1418087E-3,8.266721E-2,-1.3519633E-1,1.0440736E-1,1.41397165E-2,-6.715621E-2,-2.4829493E-1,-1.4489008E-1,1.11760095E-1,-0E0,6.026281E-2,-4.0905096E-2,-1.0752502E-1,-2.1325484E-1,-2.7028784E-1,-1.5156232E-1,-3.6368854E-2,1.4020781E-1,8.1640474E-2,3.992969E-2,-8.59591E-3,-6.8859677E-3,-7.5605385E-2,-7.9735756E-2,-9.684271E-2,-2.6270255E-1,-1.5050486E-1,-0E0,1.427145E-1,6.6381074E-2,1.644315E-1,1.2906421E-2,-2.5575768E-2,2.899663E-2,-3.0669853E-2,-1.0015704E-2,-5.5994034E-2,-0E0,-5.3630225E-2,-1.9744918E-1,-1.9166233E-1,-0E0,-1.01506546E-1,1.6177224E-1,6.976992E-2,8.6116925E-2,2.4585042E-2,4.942887E-3,1.1287525E-1,-0E0,3.3004247E-2,5.2004486E-2,-0E0,1.7630847E-3,-4.867026E-2,-1.3506535E-1,-2.3424232E-2,5.5582076E-2,1.09457985E-1,4.349241E-2,8.063715E-2,2.8939202E-2,-1.2421757E-3,-3.8338949E-3,-5.6881182E-2],"categories":[],"categories_nodes":[],"categories_segments":[],"categories_sizes":[],"default_left":[0,0,0,0,0,0,0,0,0,0,0,0,0,0,0,0,0,0,0,0,0,0,0,0,0,0,0,0,0,0,0,0,0,0,0,0,0,0,0,0,0,0,0,0,0,0,0,0,0,0,0,0,0,0,0,0,0,0,0,0,0,0,0,0,0],"id":1,"left_children":[1,3,5,7,9,11,13,15,17,19,-1,21,23,25,-1,-1,-1,27,29,-1,31,33,35,37,-1,39,41,-1,43,45,47,49,-1,51,53,-1,-1,-1,-1,55,-1,-1,-1,57,-1,59,61,-1,-1,-1,-1,-1,-1,-1,63,-1,-1,-1,-1,-1,-1,-1,-1,-1,-1],"loss_changes":[9.901076E2,7.501584E1,2.6315308E2,7.221924E1,1.3869303E1,2.074546E1,6.7631836E1,3.5917206E0,2.8323914E1,6.6212616E0,0E0,1.486664E1,6.612053E0,2.5403046E1,0E0,0E0,0E0,6.8287354E0,1.9535141E1,0E0,7.178268E0,6.2535377E0,3.7742424E0,3.3126297E0,0E0,5.197693E0,1.0230515E1,0E0,5.5891113E0,1.1541702E1,4.022911E0,3.6782537E0,0E0,3.5079648E0,3.507678E0,0E0,0E0,0E0,0E0,3.9223175E0,0E0,0E0,0E0,5.8582764E0,0E0,3.900734E0,3.9052956E0,0E0,0E0,0E0,0E0,0E0,0E0,0E0,4.4562945E0,0E0,0E0,0E0,0E0,0E0,0E0,0E0,0E0,0E0,0E0],"parents":[2147483647,0,0,1,1,2,2,3,3,4,4,5,5,6,6,7,7,8,8,9,9,11,11,12,12,13,13,17,17,18,18,20,20,21,21,22,22,23,23,25,25,26,26,28,28,29,29,30,30,31,31,33,33,34,34,39,39,43,43,45,45,46,46,54,54],"right_children":[2,4,6,8,10,12,14,16,18,20,-1,22,24,26,-1,-1,-1,28,30,-1,32,34,36,38,-1,40,42,-1,44,46,48,50,-1,52,54,-1,-1,-1,-1,56,-1,-1,-1,58,-1,60,62,-1,-1,-1,-1,-1,-1,-1,64,-1,-1,-1,-1,-1,-1,-1,-1,-1,-1],"split_conditions":[2.7826092E0,2.569438E0,3.2282794E0,-5.9690976E-1,1E0,1E0,3.7324903E0,1.2439401E0,2.2249095E0,4.6143807E-3,6.026281E-2,1E0,1E0,1E0,-2.7028784E-1,-1.5156232E-1,-3.6368854E-2,-5.675917E-1,1E0,3.992969E-2,1E0,2.2756416E-1,2.872038E0,1.0437222E-1,-9.684271E-2,3.369613E0,3.4167394E-1,-0E0,1E0,1E0,-1.5189303E-1,1E0,-2.5575768E-2,2.8356762E0,2.9607813E0,-1.0015704E-2,-5.5994034E-2,-0E0,-5.3630225E-2,1E0,-1.9166233E-1,-0E0,-1.01506546E-1,-4.129808E-1,6.976992E-2,1E0,1E0,4.942887E-3,1.1287525E-1,-0E0,3.3004247E-2,5.2004486E-2,-0E0,1.7630847E-3,1E0,-1.3506535E-1,-2.3424232E-2,5.5582076E-2,1.09457985E-1,4.349241E-2,8.063715E-2,2.8939202E-2,-1.2421757E-3,-3.8338949E-3,-5.6881182E-2],"split_indices":[12,12,12,13,7,4,12,12,12,13,0,5,9,10,0,0,0,13,7,0,4,13,12,13,0,12,13,0,2,9,13,8,0,12,12,0,0,0,0,6,0,0,0,13,0,6,2,0,0,0,0,0,0,0,2,0,0,0,0,0,0,0,0,0,0],"split_type":[0,0,0,0,0,0,0,0,0,0,0,0,0,0,0,0,0,0,0,0,0,0,0,0,0,0,0,0,0,0,0,0,0,0,0,0,0,0,0,0,0,0,0,0,0,0,0,0,0,0,0,0,0,0,0,0,0,0,0,0,0,0,0,0,0],"sum_hessian":[8.648361E4,5.157237E4,3.491124E4,3.895252E4,1.2619851E4,2.1955605E4,1.2955632E4,1.016767E3,3.7935754E4,1.0933231E4,1.6866187E3,1.3624079E4,8.331526E3,1.1093007E4,1.8626248E3,3.3188855E2,6.848785E2,1.9109229E4,1.8826525E4,1.3704169E3,9.562814E3,7.147213E3,6.4768667E3,5.589043E3,2.7424832E3,5.9362935E3,5.1567134E3,3.3267255E2,1.8776555E4,1.6164924E4,2.6616023E3,5.4886016E3,4.074213E3,2.5855815E3,4.5616313E3,1.4781903E3,4.9986763E3,3.370847E2,5.2519585E3,2.7044912E3,3.2318022E3,3.6352795E2,4.793185E3,1.1119827E4,7.656728E3,1.0677969E4,5.4869546E3,3.5151453E2,2.310088E3,3.915169E3,1.5734327E3,7.5387195E2,1.8317095E3,1.3184951E3,3.2431362E3,2.3092E3,3.9529126E2,2.01573E3,9.104097E3,8.1253955E3,2.5525735E3,3.3026384E3,2.1843162E3,1.8427262E3,1.4004102E3],"tree_param":{"num_deleted":"0","num_feature":"14","num_nodes":"65","size_leaf_vector":"1"}},{"base_weights":[-1.6518903E-3,2.0238869E-2,-9.510634E-2,-1.841932E-1,2.9990807E-2,-2.130149E-1,-7.681387E-2,-3.9705634E-1,-1.2379338E-1,3.7107125E-2,-1.745114E-1,-6.07155E-2,-1.9479673E-1,-6.5749794E-2,-1.4563975E-1,-2.6433596E-1,-0E0,-2.1535534E-1,-7.583577E-2,4.8603658E-2,-3.6206074E-2,-9.777631E-2,-2.523889E-2,-1.852236E-1,-0E0,-0E0,-2.5377437E-1,6.900546E-2,1.8187242E-2,-9.048825E-2,2.457201E-2,1.3480875E-2,-6.388536E-2,1.2192197E-2,-1.5345694E-1,1.4889984E-2,-6.051766E-2,-0E0,-1.6954818E-1,-2.1199832E-2,8.0079876E-2,4.8063442E-2,-2.1260893E-2,1.1109513E-1,-1.4754118E-1,-1.7943344E-1,8.4569566E-2,2.3698175E-2,-2.9514717E-2,-0E0,-1.0635224E-1,-9.170296E-2,5.219754E-3,4.289532E-2,8.6718194E-2,7.2594695E-2,-3.4594856E-2,-1.06261805E-1,4.0385276E-2,9.848472E-2,-0E0,-6.256694E-2,-1.5122677E-1,-0E0,6.279292E-2,-4.8419215E-2,8.462234E-3],"categories":[],"categories_nodes":[],"categories_segments":[],"categories_sizes":[],"default_left":[0,0,0,0,0,0,0,0,0,0,0,0,0,0,0,0,0,0,0,0,0,0,0,0,0,0,0,0,0,0,0,0,0,0,0,0,0,0,0,0,0,0,0,0,0,0,0,0,0,0,0,0,0,0,0,0,0,0,0,0,0,0,0,0,0,0,0],"id":2,"left_children":[1,3,5,7,9,11,13,15,17,19,-1,-1,-1,21,-1,-1,-1,23,25,27,29,31,33,-1,-1,35,37,39,41,43,45,-1,-1,47,49,-1,-1,-1,-1,51,53,55,57,59,61,-1,63,-1,65,-1,-1,-1,-1,-1,-1,-1,-1,-1,-1,-1,-1,-1,-1,-1,-1,-1,-1],"loss_changes":[1.7691493E2,1.3656322E2,2.980693E1,2.8282852E1,1.4344446E2,1.503746E1,1.9322388E1,3.4113693E0,5.6608963E0,5.5166977E1,0E0,0E0,0E0,1.5703899E1,0E0,0E0,0E0,1.4644829E1,2.5066383E1,3.3610077E1,2.981962E1,5.447647E0,3.28193E1,0E0,0E0,3.7054636E0,4.200184E0,3.4461334E1,2.7676003E1,5.622616E1,7.3954414E1,0E0,0E0,5.4763165E0,3.9396286E0,0E0,0E0,0E0,0E0,1.5468962E1,1.6149734E1,9.583676E1,1.2757765E2,5.5664854E0,9.908424E0,0E0,6.245411E0,0E0,4.545939E0,0E0,0E0,0E0,0E0,0E0,0E0,0E0,0E0,0E0,0E0,0E0,0E0,0E0,0E0,0E0,0E0,0E0,0E0],"parents":[2147483647,0,0,1,1,2,2,3,3,4,4,5,5,6,6,7,7,8,8,9,9,13,13,17,17,18,18,19,19,20,20,21,21,22,22,25,25,26,26,27,27,28,28,29,29,30,30,33,33,34,34,39,39,40,40,41,41,42,42,43,43,44,44,46,46,48,48],"right_children":[2,4,6,8,10,12,14,16,18,20,-1,-1,-1,22,-1,-1,-1,24,26,28,30,32,34,-1,-1,36,38,40,42,44,46,-1,-1,48,50,-1,-1,-1,-1,52,54,56,58,60,62,-1,64,-1,66,-1,-1,-1,-1,-1,-1,-1,-1,-1,-1,-1,-1,-1,-1,-1,-1,-1,-1],"split_conditions":[3.128398E0,-9.5464206E-1,-6.5746456E-1,-1.2829075E0,1.0325298E0,4.7841376E-1,3.8655758E0,2.9935029E0,2.2534852E0,5.505513E-1,-1.745114E-1,-6.07155E-2,-1.9479673E-1,1E0,-1.4563975E-1,-2.6433596E-1,-0E0,1E0,1E0,2.6037211E0,1E0,2.2387336E-1,4.1885892E-1,-1.852236E-1,-0E0,1E0,-1.6882867E-1,-6.5746456E-1,1E0,2.0903637E0,1.97484E0,1.3480875E-2,-6.388536E-2,5.6044316E-1,3.2054013E-1,1.4889984E-2,-6.051766E-2,-0E0,-1.6954818E-1,1.9410887E0,1E0,-1.1818629E-2,-2.3901038E-1,1E0,2.8119047E0,-1.7943344E-1,-1.8576567E-1,2.3698175E-2,-2.2946708E-2,-0E0,-1.0635224E-1,-9.170296E-2,5.219754E-3,4.289532E-2,8.6718194E-2,7.2594695E-2,-3.4594856E-2,-1.06261805E-1,4.0385276E-2,9.848472E-2,-0E0,-6.256694E-2,-1.5122677E-1,-0E0,6.279292E-2,-4.8419215E-2,8.462234E-3],"split_indices":[12,11,11,11,11,13,12,12,12,11,0,0,0,10,0,0,0,2,2,12,2,13,11,0,0,6,13,11,2,12,12,0,0,13,13,0,0,0,0,12,7,11,11,4,12,0,13,0,11,0,0,0,0,0,0,0,0,0,0,0,0,0,0,0,0,0,0],"split_type":[0,0,0,0,0,0,0,0,0,0,0,0,0,0,0,0,0,0,0,0,0,0,0,0,0,0,0,0,0,0,0,0,0,0,0,0,0,0,0,0,0,0,0,0,0,0,0,0,0,0,0,0,0,0,0,0,0,0,0,0,0,0,0,0,0,0,0],"sum_hessian":[8.577368E4,6.940893E4,1.6364746E4,3.0287117E3,6.638022E4,1.9800808E3,1.4384665E4,5.226674E2,2.5060442E3,6.500032E4,1.3799012E3,1.0518109E3,9.282699E2,1.3624036E4,7.606286E2,4.6958267E2,5.3084763E1,6.6322034E2,1.8428239E3,5.6391312E4,8.609007E3,7.3393203E3,6.2847163E3,4.807863E2,1.8243405E2,1.3560597E3,4.8676413E2,3.3394508E4,2.2996807E4,4.661773E3,3.9472336E3,1.3698557E2,7.2023345E3,4.823572E3,1.4611448E3,1.1069249E3,2.4913475E2,1.4322049E1,4.7244208E2,3.4927732E3,2.9901732E4,1.3298063E4,9.698742E3,9.536881E2,3.7080847E3,5.503543E2,3.3968794E3,3.2125122E3,1.6110593E3,1.5410307E2,1.3070416E3,7.080869E2,2.7846865E3,2.5416383E4,4.48535E3,8.0975854E3,5.2004785E3,3.5874924E3,6.11125E3,6.593075E2,2.943806E2,2.6821372E3,1.0259474E3,4.0075064E2,2.9961287E3,9.0185406E2,7.0920526E2],"tree_param":{"num_deleted":"0","num_feature":"14","num_nodes":"67","size_leaf_vector":"1"}},{"base_weights":[-4.2131636E-3,4.7876095E-4,-1.12523966E-1,-9.26714E-2,4.4396254E-3,-4.6415415E-2,-1.1789451E-1,1.0357403E-2,-6.713465E-2,4.762201E-2,1.5119057E-3,1.9979721E-2,-7.712865E-2,-4.6833392E-2,7.428987E-2,-6.2175975E-3,3.1932876E-2,-8.598861E-2,-0E0,-1.1729243E-1,6.74567E-2,1.1422142E-1,1.3910588E-2,-1.3276392E-2,2.7222933E-2,-3.861853E-2,4.9629036E-2,-6.909497E-2,-3.0852238E-2,-1.3721153E-1,2.9625172E-2,1.274311E-1,-8.751944E-3,-1.5851269E-2,7.546205E-2,-7.0072144E-2,2.7846728E-2,-1.7573554E-2,2.4295019E-3,2.9180143E-2,-1.3057892E-2,2.1075465E-2,-9.783216E-2,3.7707705E-2,-0E0,1.6213132E-3,-4.8803777E-2],"categories":[],"categories_nodes":[],"categories_segments":[],"categories_sizes":[],"default_left":[0,0,0,0,0,0,0,0,0,0,0,0,0,0,0,0,0,0,0,0,0,0,0,0,0,0,0,0,0,0,0,0,0,0,0,0,0,0,0,0,0,0,0,0,0,0,0],"id":3,"left_children":[1,3,5,-1,7,-1,-1,9,11,13,15,-1,17,19,21,23,25,27,-1,29,31,33,35,37,39,41,43,-1,45,-1,-1,-1,-1,-1,-1,-1,-1,-1,-1,-1,-1,-1,-1,-1,-1,-1,-1],"loss_changes":[4.5020115E1,4.5981403E1,5.6345444E0,0E0,3.292126E1,0E0,0E0,2.358007E1,6.7147636E0,3.5512947E1,1.4536432E1,0E0,4.444832E0,2.5210384E1,2.429486E1,1.1041302E1,1.6024323E1,4.444477E0,0E0,3.6234734E1,1.5309875E1,7.6748734E0,1.7117855E1,1.0522179E1,7.928542E0,2.2722668E1,5.4781494E0,0E0,4.1090164E0,0E0,0E0,0E0,0E0,0E0,0E0,0E0,0E0,0E0,0E0,0E0,0E0,0E0,0E0,0E0,0E0,0E0,0E0],"parents":[2147483647,0,0,1,1,2,2,4,4,7,7,8,8,9,9,10,10,12,12,13,13,14,14,15,15,16,16,17,17,19,19,20,20,21,21,22,22,23,23,24,24,25,25,26,26,28,28],"right_children":[2,4,6,-1,8,-1,-1,10,12,14,16,-1,18,20,22,24,26,28,-1,30,32,34,36,38,40,42,44,-1,46,-1,-1,-1,-1,-1,-1,-1,-1,-1,-1,-1,-1,-1,-1,-1,-1,-1,-1],"split_conditions":[8.7133116E-1,-1.0846292E0,1.1246287E0,-9.26714E-2,3.4327145E0,-4.6415415E-2,-1.1789451E-1,2.0990453E0,4.2693734E-1,-4.3981332E-1,1E0,1.9979721E-2,1E0,1E0,1.8626718E-1,1E0,-5.201538E-1,1E0,-0E0,-2.9794872E-1,1.8223128E0,-6.963172E-1,-5.055363E-1,1E0,2.705009E-1,1E0,3.3290356E-1,-6.909497E-2,6.235191E-1,-1.3721153E-1,2.9625172E-2,1.274311E-1,-8.751944E-3,-1.5851269E-2,7.546205E-2,-7.0072144E-2,2.7846728E-2,-1.7573554E-2,2.4295019E-3,2.9180143E-2,-1.3057892E-2,2.1075465E-2,-9.783216E-2,3.7707705E-2,-0E0,1.6213132E-3,-4.8803777E-2],"split_indices":[11,11,11,0,12,0,0,12,13,11,6,0,7,2,11,7,11,5,0,13,12,13,13,8,11,2,13,0,13,0,0,0,0,0,0,0,0,0,0,0,0,0,0,0,0,0,0],"split_type":[0,0,0,0,0,0,0,0,0,0,0,0,0,0,0,0,0,0,0,0,0,0,0,0,0,0,0,0,0,0,0,0,0,0,0,0,0,0,0,0,0,0,0,0,0,0,0],"sum_hessian":[8.512794E4,8.152793E4,3.6000056E3,1.9420608E3,7.9585875E4,2.6310327E3,9.6897296E2,7.376419E4,5.821681E3,1.3756095E4,6.0008094E4,3.777737E2,5.443907E3,2.88986E3,1.0866234E4,4.749491E4,1.2513184E4,4.9666133E3,4.7729416E2,1.8695284E3,1.0203316E3,6.348275E3,4.5179595E3,3.963205E4,7.8628604E3,2.3180613E3,1.0195123E4,3.186484E3,1.7801294E3,1.1945731E3,6.749553E2,4.0993805E2,6.1039355E2,1.7543062E2,6.172844E3,7.482212E2,3.7697383E3,2.1685752E4,1.7946299E4,5.822104E3,2.0407562E3,1.3893816E3,9.286797E2,8.357899E3,1.8372229E3,8.9401587E2,8.8611346E2],"tree_param":{"num_deleted":"0","num_feature":"14","num_nodes":"47","size_leaf_vector":"1"}},{"base_weights":[-3.745301E-3,-1.2224904E-1,-2.6984033E-3,3.873649E-3,-2.0310644E-2,5.268326E-3,-1.2551214E-1,-5.9474096E-2,-9.838265E-3,-3.7881695E-2,7.1056043E-3,-1.0100025E-1,-0E0,9.663858E-3,-1.8536139E-1,-3.2614954E-2,1.576713E-2,1.3861025E-2,-5.510925E-3,3.533209E-2,-9.9976264E-2,-2.160506E-1,7.945234E-3,5.0012204E-3,-1.0721043E-1,-5.3742968E-2,6.3999064E-2,5.970208E-3,5.1244717E-2,2.7327582E-3,-3.4859605E-2,6.36981E-2,5.6436134E-4,-0E0,-2.3738545E-1,1.5769318E-2,-3.398021E-2,-1.695252E-1,-0E0,-8.0125816E-2,-0E0,1.0285293E-1,-0E0,-4.2415485E-2,5.132185E-3,-1.2235746E-2,3.566148E-2,1.9871568E-2,-4.532012E-2,-0E0,-1.5386817E-1,-0E0,-8.3785765E-2,-5.603358E-2,-1.6054665E-1,-2.0136122E-2,-9.363279E-2,2.2042565E-2,8.662891E-2,1.6406465E-2,-4.1931227E-2],"categories":[],"categories_nodes":[],"categories_segments":[],"categories_sizes":[],"default_left":[0,0,0,0,0,0,0,0,0,0,0,0,0,0,0,0,0,0,0,0,0,0,0,0,0,0,0,0,0,0,0,0,0,0,0,0,0,0,0,0,0,0,0,0,0,0,0,0,0,0,0,0,0,0,0,0,0,0,0,0,0],"id":4,"left_children":[1,-1,3,5,7,9,11,13,15,-1,17,-1,-1,19,21,23,25,27,29,31,-1,33,-1,35,37,39,41,43,45,-1,47,-1,-1,-1,49,-1,51,53,-1,55,-1,57,59,-1,-1,-1,-1,-1,-1,-1,-1,-1,-1,-1,-1,-1,-1,-1,-1,-1,-1],"loss_changes":[1.3998552E1,0E0,1.0053355E1,9.223073E0,8.591142E0,6.5532327E0,3.3527613E0,4.3426834E1,1.1407398E1,0E0,5.183076E0,0E0,0E0,1.1591194E1,1.3873314E1,3.0855778E1,2.9583946E1,1.0721951E1,6.260287E0,4.7243524E0,0E0,6.2899475E0,0E0,5.3504868E0,2.2319847E1,4.100175E0,1.1806242E1,4.6110263E0,3.3768024E0,0E0,1.4439457E1,0E0,0E0,0E0,3.9438171E0,0E0,6.490102E0,8.576683E0,0E0,4.2138815E0,0E0,4.659561E0,3.4785213E0,0E0,0E0,0E0,0E0,0E0,0E0,0E0,0E0,0E0,0E0,0E0,0E0,0E0,0E0,0E0,0E0,0E0,0E0],"parents":[2147483647,0,0,2,2,3,3,4,4,5,5,6,6,7,7,8,8,10,10,13,13,14,14,15,15,16,16,17,17,18,18,19,19,21,21,23,23,24,24,25,25,26,26,27,27,28,28,30,30,34,34,36,36,37,37,39,39,41,41,42,42],"right_children":[2,-1,4,6,8,10,12,14,16,-1,18,-1,-1,20,22,24,26,28,30,32,-1,34,-1,36,38,40,42,44,46,-1,48,-1,-1,-1,50,-1,52,54,-1,56,-1,58,60,-1,-1,-1,-1,-1,-1,-1,-1,-1,-1,-1,-1,-1,-1,-1,-1,-1,-1],"split_conditions":[-1.3928654E0,-1.2224904E-1,2.9669533E0,1.1915033E0,-4.971123E-1,-5.675917E-1,2.776868E0,1E0,1E0,-3.7881695E-2,1E0,-1.0100025E-1,-0E0,3.621969E0,3.6717243E0,2.58313E-1,-6.429208E-3,1.6936852E-1,2.6726134E0,3.0087844E-1,-9.9976264E-2,-9.98902E-1,7.945234E-3,1E0,3.304622E0,3.346821E0,3.294277E0,-1.0534986E0,-9.3418133E-1,2.7327582E-3,-3.1039405E-1,6.36981E-2,5.6436134E-4,-0E0,1.6604659E-1,1.5769318E-2,3.4606733E0,1E0,-0E0,1E0,-0E0,3.0836496E0,6.402633E-1,-4.2415485E-2,5.132185E-3,-1.2235746E-2,3.566148E-2,1.9871568E-2,-4.532012E-2,-0E0,-1.5386817E-1,-0E0,-8.3785765E-2,-5.603358E-2,-1.6054665E-1,-2.0136122E-2,-9.363279E-2,2.2042565E-2,8.662891E-2,1.6406465E-2,-4.1931227E-2],"split_indices":[11,0,12,11,11,13,12,2,2,0,9,0,0,12,12,11,11,13,12,13,0,11,0,9,12,12,12,11,11,0,11,0,0,0,13,0,12,0,0,9,0,12,11,0,0,0,0,0,0,0,0,0,0,0,0,0,0,0,0,0,0],"split_type":[0,0,0,0,0,0,0,0,0,0,0,0,0,0,0,0,0,0,0,0,0,0,0,0,0,0,0,0,0,0,0,0,0,0,0,0,0,0,0,0,0,0,0,0,0,0,0,0,0,0,0,0,0,0,0,0,0,0,0,0,0],"sum_hessian":[8.486056E4,3.0634357E2,8.455422E4,6.0984543E4,2.356968E4,6.052127E4,4.6327417E2,4.5912812E3,1.8978398E4,1.350111E3,5.9171156E4,3.7747614E2,8.579804E1,2.9288767E3,1.6624047E3,1.0350233E4,8.628165E3,3.932363E4,1.984753E4,2.6733892E3,2.5548744E2,1.5006449E3,1.6175977E2,6.789579E3,3.5606538E3,3.400784E3,5.2273813E3,3.2879105E4,6.4445244E3,1.4501463E4,5.3460654E3,7.091822E2,1.964207E3,1.5863231E2,1.3420126E3,4.74326E3,2.0463192E3,2.156568E3,1.4040857E3,2.1281074E3,1.2726765E3,3.0948792E3,2.1325022E3,7.072529E2,3.2171852E4,2.815237E2,6.1630005E3,1.789504E3,3.5565613E3,3.79483E1,1.3040643E3,1.6238634E3,4.2245584E2,1.2989083E3,8.576597E2,1.457053E3,6.7105444E2,1.2736298E3,1.8212493E3,1.7080336E3,4.244685E2],"tree_param":{"num_deleted":"0","num_feature":"14","num_nodes":"61","size_leaf_vector":"1"}},{"base_weights":[-0E0,-3.6478758E-2,2.2316254E-3,-1.1490343E-1,-1.8117614E-2,1.0006634E-2,-1.0781402E-2,-1.3425177E-1,3.8179897E-2,-0E0,-1.4333794E-1,1.1431577E-2,-1.471897E-1,1.22042205E-2,-1.6038679E-2,3.0805578E-2,-9.428759E-2,-1.1929716E-1,-0E0,1.0396498E-2,-1.2406667E-2,-1.2746939E-1,-0E0,9.98503E-3,-2.6909087E-2,6.613617E-2,-4.8582166E-2,-0E0,-8.17434E-2,8.994453E-2,-1.2088354E-1,-6.258313E-2,1.5452056E-2,8.713384E-2,-2.9486746E-2,1.0392326E-1,-0E0,-1.6169786E-1,-0E0,-3.9262842E-2,-9.859117E-2,-7.94151E-3,1.0248486E-1,7.349084E-2,-2.0247228E-3,7.9128854E-2,1.9332506E-2,-1.1811013E-1,-0E0,-2.8907737E-2,4.610874E-2,1.8014846E-2,-6.824067E-2,-2.2232283E-2,1.4592977E-2,7.174803E-2,-0E0],"categories":[],"categories_nodes":[],"categories_segments":[],"categories_sizes":[],"default_left":[0,0,0,0,0,0,0,0,0,0,0,0,0,0,0,0,0,0,0,0,0,0,0,0,0,0,0,0,0,0,0,0,0,0,0,0,0,0,0,0,0,0,0,0,0,0,0,0,0,0,0,0,0,0,0,0,0],"id":5,"left_children":[1,3,5,7,9,11,13,-1,-1,15,17,19,21,-1,23,25,27,-1,-1,-1,-1,-1,-1,29,31,33,-1,-1,-1,35,37,39,41,43,-1,45,-1,47,-1,49,51,53,55,-1,-1,-1,-1,-1,-1,-1,-1,-1,-1,-1,-1,-1,-1],"loss_changes":[7.3780723E0,5.3622417E0,8.049E0,1.784708E1,8.167606E0,9.376506E0,4.604539E0,0E0,0E0,1.3027525E1,3.2242632E0,8.204113E0,3.6187916E0,0E0,7.4206047E0,1.1842003E1,5.032525E0,0E0,0E0,0E0,0E0,0E0,0E0,7.4370995E1,2.8360893E1,6.711893E0,0E0,0E0,0E0,5.7068863E0,1.0841373E1,6.094097E0,1.8208603E1,7.8538265E0,0E0,3.80064E0,0E0,8.570473E0,0E0,5.0284586E0,6.4852448E0,5.7913513E0,4.152796E0,0E0,0E0,0E0,0E0,0E0,0E0,0E0,0E0,0E0,0E0,0E0,0E0,0E0,0E0],"parents":[2147483647,0,0,1,1,2,2,3,3,4,4,5,5,6,6,9,9,10,10,11,11,12,12,14,14,15,15,16,16,23,23,24,24,25,25,29,29,30,30,31,31,32,32,33,33,35,35,37,37,39,39,40,40,41,41,42,42],"right_children":[2,4,6,8,10,12,14,-1,-1,16,18,20,22,-1,24,26,28,-1,-1,-1,-1,-1,-1,30,32,34,-1,-1,-1,36,38,40,42,44,-1,46,-1,48,-1,50,52,54,56,-1,-1,-1,-1,-1,-1,-1,-1,-1,-1,-1,-1,-1,-1],"split_conditions":[-8.6455923E-1,2.1079054E0,1E0,1E0,3.369613E0,3.937727E0,2.0356977E0,-1.3425177E-1,3.8179897E-2,1E0,1E0,5.878602E-1,2.2189505E-1,1.22042205E-2,-2.9840347E-1,1E0,-1.1212555E0,-1.1929716E-1,-0E0,1.0396498E-2,-1.2406667E-2,-1.2746939E-1,-0E0,1E0,1E0,1E0,-4.8582166E-2,-0E0,-8.17434E-2,3.2652736E0,-4.128475E-1,1E0,1E0,1E0,-2.9486746E-2,1E0,-0E0,3.274888E0,-0E0,9.3991435E-1,-2.506353E-1,2.58313E-1,3.5781116E0,7.349084E-2,-2.0247228E-3,7.9128854E-2,1.9332506E-2,-1.1811013E-1,-0E0,-2.8907737E-2,4.610874E-2,1.8014846E-2,-6.824067E-2,-2.2232283E-2,1.4592977E-2,7.174803E-2,-0E0],"split_indices":[11,12,4,2,12,12,12,0,0,2,2,11,11,0,11,0,11,0,0,0,0,0,0,2,2,7,0,0,0,12,11,0,0,6,0,0,0,12,0,11,11,11,12,0,0,0,0,0,0,0,0,0,0,0,0,0,0],"split_type":[0,0,0,0,0,0,0,0,0,0,0,0,0,0,0,0,0,0,0,0,0,0,0,0,0,0,0,0,0,0,0,0,0,0,0,0,0,0,0,0,0,0,0,0,0,0,0,0,0,0,0,0,0,0,0,0,0],"sum_hessian":[8.46925E4,5.173034E3,7.951947E4,7.4954834E2,4.423486E3,5.05263E4,2.8993164E4,5.228421E2,2.2670622E2,4.0276995E3,3.9578635E2,5.0236695E4,2.896047E2,3.8223547E3,2.517081E4,2.9596938E3,1.0680056E3,2.7868265E2,1.171037E2,4.3501637E4,6.735059E3,2.0185583E2,8.774887E1,7.002467E3,1.8168344E4,2.361595E3,5.98099E2,2.5639996E2,8.1160565E2,4.433693E3,2.568774E3,1.0040033E4,8.12831E3,2.1210393E3,2.4055559E2,3.8311045E3,6.0258826E2,1.8178416E3,7.509323E2,6.4453804E3,3.5946528E3,6.3202104E3,1.8080997E3,1.6945759E3,4.2646344E2,2.7160103E3,1.1150941E3,1.5469735E3,2.70868E2,6.2357983E3,2.095818E2,1.5866423E2,3.4359885E3,3.6098267E3,2.7103835E3,1.7365326E3,7.15671E1],"tree_param":{"num_deleted":"0","num_feature":"14","num_nodes":"57","size_leaf_vector":"1"}},{"base_weights":[-4.920679E-4,-8.930757E-2,7.179347E-4,-1.1763463E-1,-0E0,6.2450287E-3,-6.432922E-3,-1.1381873E-1,-1.059734E-2,1.4810942E-2,-5.032027E-3,-2.015586E-2,1.2554268E-2,3.818116E-2,-5.1705167E-3,-2.8922219E-2,1.6654538E-2,-3.0242529E-2,3.2169132E-3,2.4864033E-2,-1.5649753E-2,-1.0136104E-1,5.1197257E-2,4.5826107E-2,-2.5895337E-2,7.687545E-2,-5.939627E-2,-9.724523E-2,3.3916056E-2,-2.3320233E-2,1.1248515E-3,-2.0397441E-4,5.1653773E-2,2.6194455E-2,-4.5645755E-2,-1.4861256E-1,-0E0,7.944507E-2,-1.1547159E-2,-4.7425415E-2,5.43801E-3,6.3510805E-2,-5.0650234E-4,-7.5599805E-2,1.915562E-2,1.640423E-2,-1.1566537E-1,3.0188167E-2,-2.579014E-2,-2.7347485E-2,3.097849E-2,1.7780105E-2,9.676553E-2,-6.965866E-3,-6.1822746E-2,-1.1722636E-1,-0E0,-0E0,5.7380833E-2,7.7677444E-3,-3.418313E-2,-3.5321303E-2,5.97844E-2,-6.1892364E-2,-1.8035326E-2,-4.6348125E-2,2.6234087E-2,8.095315E-2,-0E0],"categories":[],"categories_nodes":[],"categories_segments":[],"categories_sizes":[],"default_left":[0,0,0,0,0,0,0,0,0,0,0,0,0,0,0,0,0,0,0,0,0,0,0,0,0,0,0,0,0,0,0,0,0,0,0,0,0,0,0,0,0,0,0,0,0,0,0,0,0,0,0,0,0,0,0,0,0,0,0,0,0,0,0,0,0,0,0,0,0],"id":6,"left_children":[1,3,5,7,-1,9,11,-1,-1,13,15,17,19,21,23,25,27,29,-1,31,33,35,37,-1,39,41,43,45,47,-1,49,-1,51,-1,53,55,-1,57,59,61,-1,-1,-1,63,-1,-1,-1,-1,65,-1,-1,-1,67,-1,-1,-1,-1,-1,-1,-1,-1,-1,-1,-1,-1,-1,-1,-1,-1],"loss_changes":[1.0459539E1,4.197053E0,3.2967257E0,3.604557E0,0E0,4.8204556E0,9.304381E0,0E0,0E0,1.3706554E1,1.0652655E1,5.73779E0,5.1485777E0,2.391E1,2.3733398E1,3.2120296E1,1.9447231E1,3.9984198E0,0E0,7.799857E0,7.151512E0,6.3950415E0,2.3060356E1,0E0,9.584394E0,5.694312E0,1.2350573E1,1.6422432E1,8.272885E0,0E0,5.747358E0,0E0,3.448143E0,0E0,3.4891253E0,3.269352E0,0E0,7.729412E0,4.577559E0,9.898439E0,0E0,0E0,0E0,5.3489494E0,0E0,0E0,0E0,0E0,6.0182667E0,0E0,0E0,0E0,4.8845253E0,0E0,0E0,0E0,0E0,0E0,0E0,0E0,0E0,0E0,0E0,0E0,0E0,0E0,0E0,0E0,0E0],"parents":[2147483647,0,0,1,1,2,2,3,3,5,5,6,6,9,9,10,10,11,11,12,12,13,13,14,14,15,15,16,16,17,17,19,19,20,20,21,21,22,22,24,24,25,25,26,26,27,27,28,28,30,30,32,32,34,34,35,35,37,37,38,38,39,39,43,43,48,48,52,52],"right_children":[2,4,6,8,-1,10,12,-1,-1,14,16,18,20,22,24,26,28,30,-1,32,34,36,38,-1,40,42,44,46,48,-1,50,-1,52,-1,54,56,-1,58,60,62,-1,-1,-1,64,-1,-1,-1,-1,66,-1,-1,-1,68,-1,-1,-1,-1,-1,-1,-1,-1,-1,-1,-1,-1,-1,-1,-1,-1],"split_conditions":[-1.1643988E0,1E0,2.7470353E0,2.6784337E0,-0E0,1E0,1E0,-1.1381873E-1,-1.059734E-2,-8.7799706E-2,4.3492713E-3,3.2466161E0,1E0,1.6967199E0,1.9527458E0,1.9858173E0,1.8064333E0,4.895801E-1,3.2169132E-3,-3.926005E-2,-2.623846E-1,-2.623846E-1,1E0,4.5826107E-2,1E0,1E0,2.6608107E0,2.4590023E-1,7.3768425E-1,-2.3320233E-2,1E0,-2.0397441E-4,3.3579388E0,2.6194455E-2,3.3579388E0,1E0,-0E0,1.9858173E0,2.4396904E0,1.0325298E0,5.43801E-3,6.3510805E-2,-5.0650234E-4,1E0,1.915562E-2,1.640423E-2,-1.1566537E-1,3.0188167E-2,1E0,-2.7347485E-2,3.097849E-2,1.7780105E-2,1E0,-6.965866E-3,-6.1822746E-2,-1.1722636E-1,-0E0,-0E0,5.7380833E-2,7.7677444E-3,-3.418313E-2,-3.5321303E-2,5.97844E-2,-6.1892364E-2,-1.8035326E-2,-4.6348125E-2,2.6234087E-2,8.095315E-2,-0E0],"split_indices":[11,2,12,12,0,2,10,0,0,11,11,12,0,12,12,12,12,11,0,11,11,11,0,0,8,0,12,11,11,0,2,0,12,0,12,0,0,12,12,11,0,0,0,8,0,0,0,0,0,0,0,0,4,0,0,0,0,0,0,0,0,0,0,0,0,0,0,0,0],"split_type":[0,0,0,0,0,0,0,0,0,0,0,0,0,0,0,0,0,0,0,0,0,0,0,0,0,0,0,0,0,0,0,0,0,0,0,0,0,0,0,0,0,0,0,0,0,0,0,0,0,0,0,0,0,0,0,0,0,0,0,0,0,0,0,0,0,0,0,0,0],"sum_hessian":[8.457136E4,1.2349888E3,8.333637E4,9.8394366E2,2.5104512E2,4.8219574E4,3.5116793E4,4.6983725E2,5.141064E2,2.8163482E4,2.0056094E4,2.0850285E4,1.4266507E4,1.3303762E4,1.485972E4,9.867916E3,1.0188178E4,1.5331609E4,5.518677E3,1.0316266E4,3.9502407E3,9.919432E2,1.2311819E4,2.9075396E3,1.195218E4,2.0691619E3,7.798754E3,1.1790431E3,9.009135E3,1.2882787E4,2.4488228E3,5.059301E3,5.256965E3,1.167408E3,2.7828328E3,7.116402E2,2.8030295E2,8.644707E3,3.6671118E3,7.6245527E3,4.3276274E3,1.6995588E3,3.6960294E2,6.7641274E3,1.0346262E3,4.3972998E2,7.393132E2,7.4718564E3,1.5372781E3,1.1107703E3,1.3380525E3,3.7770664E3,1.4798986E3,1.9193763E3,8.634564E2,5.1078784E2,2.0085239E2,1.2924396E3,7.3522676E3,2.163616E3,1.5034958E3,7.3085356E3,3.1601712E2,4.2231816E3,2.5409458E3,1.0243658E3,5.1291223E2,1.0815966E3,3.9830197E2],"tree_param":{"num_deleted":"0","num_feature":"14","num_nodes":"69","size_leaf_vector":"1"}},{"base_weights":[-7.0029625E-4,-0E0,-1.1874447E-1,-0E0,-1.3114697E-1],"categories":[],"categories_nodes":[],"categories_segments":[],"categories_sizes":[],"default_left":[0,0,0,0,0],"id":7,"left_children":[1,-1,3,-1,-1],"loss_changes":[5.34524E0,0E0,5.5768375E0,0E0,0E0],"parents":[2147483647,0,0,2,2],"right_children":[2,-1,4,-1,-1],"split_conditions":[1.2965676E0,-0E0,1E0,-0E0,-1.3114697E-1],"split_indices":[11,0,2,0,0],"split_type":[0,0,0,0,0],"sum_hessian":[8.445026E4,8.414182E4,3.084349E2,1.3367761E2,1.7475728E2],"tree_param":{"num_deleted":"0","num_feature":"14","num_nodes":"5","size_leaf_vector":"1"}},{"base_weights":[3.0234293E-4,1.3668755E-3,-3.9968517E-2,-5.5415224E-2,1.4344966E-3,-5.9552144E-2,-0E0],"categories":[],"categories_nodes":[],"categories_segments":[],"categories_sizes":[],"default_left":[0,0,0,0,0,0,0],"id":8,"left_children":[1,3,-1,5,-1,-1,-1],"loss_changes":[4.828696E0,3.603824E0,0E0,3.2142959E0,0E0,0E0,0E0],"parents":[2147483647,0,0,1,1,3,3],"right_children":[2,4,-1,6,-1,-1,-1],"split_conditions":[7.4861366E-1,-5.9690976E-1,-3.9968517E-2,1E0,1.4344966E-3,-5.9552144E-2,-0E0],"split_indices":[13,13,0,10,0,0,0],"split_type":[0,0,0,0,0,0,0],"sum_hessian":[8.4366984E4,8.3299016E4,1.0679724E3,1.0090328E3,8.228998E4,6.447624E2,3.642704E2],"tree_param":{"num_deleted":"0","num_feature":"14","num_nodes":"7","size_leaf_vector":"1"}},{"base_weights":[-4.626866E-4,-5.347803E-3,1.1934761E-2,4.2202277E-3,-1.6829442E-2,-0E0,4.0436316E-2,1.580097E-2,-1.9209513E-2,-5.37042E-2,-4.099144E-3,8.0290595E-3,-4.02667E-2,-1.9703506E-2,6.0697768E-2,-4.3683957E-2,2.5961442E-2,-3.7274994E-2,2.4426922E-3,1.855935E-2,-6.9399275E-2,-6.4607395E-4,-9.271704E-2,1.6416509E-2,-9.936685E-2,7.2477564E-2,-2.3329986E-2,-5.900105E-2,5.850041E-3,3.21158E-2,-2.7630452E-2,2.0829115E-2,-4.9849592E-2,7.415917E-2,-4.0385984E-2,2.5604973E-2,-8.035078E-2,-8.801786E-3,2.2902107E-2,-7.567975E-2,-0E0,1.739499E-2,1.21920876E-1,5.150216E-2,1.3711575E-2,-5.926958E-2,-0E0,-1.0853302E-2,1.0656E-1,-6.760205E-2,2.984737E-3,-6.260593E-2,2.2617646E-2,-5.2924592E-2,3.611065E-4,-1.6047291E-3,4.081178E-2,4.128666E-2,1.1064727E-1,-1.0963538E-2,4.1801628E-2,-5.052821E-3,2.0321717E-2,-2.7792113E-2,-1.1720715E-1,3.7942987E-2,-2.23007E-3,-0E0,6.929944E-2],"categories":[],"categories_nodes":[],"categories_segments":[],"categories_sizes":[],"default_left":[0,0,0,0,0,0,0,0,0,0,0,0,0,0,0,0,0,0,0,0,0,0,0,0,0,0,0,0,0,0,0,0,0,0,0,0,0,0,0,0,0,0,0,0,0,0,0,0,0,0,0,0,0,0,0,0,0,0,0,0,0,0,0,0,0,0,0,0,0],"id":9,"left_children":[1,3,5,7,9,11,13,15,17,19,21,-1,23,-1,25,27,29,31,-1,33,35,37,-1,-1,39,41,-1,-1,-1,43,45,47,49,-1,51,-1,53,-1,55,-1,-1,-1,57,59,61,-1,-1,-1,-1,63,-1,-1,-1,-1,-1,-1,65,67,-1,-1,-1,-1,-1,-1,-1,-1,-1,-1,-1],"loss_changes":[5.019241E0,6.957924E0,8.026202E0,8.8947115E0,1.2575181E1,8.548925E0,1.0673314E1,1.3404659E1,4.8980036E0,8.8736515E0,8.54446E0,0E0,1.7149736E1,0E0,7.1915493E0,9.701273E0,6.557514E0,5.0951004E0,0E0,8.305455E0,8.082243E0,6.669796E0,0E0,0E0,5.2060623E0,8.816824E0,0E0,0E0,0E0,5.284731E0,3.3345895E0,8.003754E0,6.2094107E0,0E0,4.3618736E0,0E0,3.3047867E0,0E0,3.9680805E0,0E0,0E0,0E0,6.1907806E0,9.621883E0,4.3465114E0,0E0,0E0,0E0,0E0,7.6947765E0,0E0,0E0,0E0,0E0,0E0,0E0,5.060652E0,3.8402002E0,0E0,0E0,0E0,0E0,0E0,0E0,0E0,0E0,0E0,0E0,0E0],"parents":[2147483647,0,0,1,1,2,2,3,3,4,4,5,5,6,6,7,7,8,8,9,9,10,10,12,12,14,14,15,15,16,16,17,17,19,19,20,20,21,21,24,24,25,25,29,29,30,30,31,31,32,32,34,34,36,36,38,38,42,42,43,43,44,44,49,49,56,56,57,57],"right_children":[2,4,6,8,10,12,14,16,18,20,22,-1,24,-1,26,28,30,32,-1,34,36,38,-1,-1,40,42,-1,-1,-1,44,46,48,50,-1,52,-1,54,-1,56,-1,-1,-1,58,60,62,-1,-1,-1,-1,64,-1,-1,-1,-1,-1,-1,66,68,-1,-1,-1,-1,-1,-1,-1,-1,-1,-1,-1],"split_conditions":[1E0,1E0,1E0,1.6842325E-1,-3.865438E-1,3.6189646E-1,-2.0839855E-1,-2.7438655E-1,5.2308184E-1,-8.9685166E-1,1.0744921E0,8.0290595E-3,2.5524223E0,-1.9703506E-2,3.4067008E0,-2.623846E-1,3.3939416E0,2.0058568E0,2.4426922E-3,2.5638096E0,-3.680979E-1,1E0,-9.271704E-2,1.6416509E-2,3.346821E0,2.8290418E-1,-2.3329986E-2,-5.900105E-2,5.850041E-3,-3.9943758E-1,-5.849914E-1,4.2651787E-1,3.5470647E-1,7.415917E-2,3.1929004E0,2.5604973E-2,3.769777E0,-8.801786E-3,4.3492713E-3,-7.567975E-2,-0E0,1.739499E-2,1.0437222E-1,-1.2852591E-1,-1.5400864E-1,-5.926958E-2,-0E0,-1.0853302E-2,1.0656E-1,4.7325665E-1,2.984737E-3,-6.260593E-2,2.2617646E-2,-5.2924592E-2,3.611065E-4,-1.6047291E-3,1E0,1E0,1.1064727E-1,-1.0963538E-2,4.1801628E-2,-5.052821E-3,2.0321717E-2,-2.7792113E-2,-1.1720715E-1,3.7942987E-2,-2.23007E-3,-0E0,6.929944E-2],"split_indices":[0,2,2,11,11,11,13,13,11,11,11,0,12,0,12,11,12,12,0,12,13,10,0,0,12,11,0,0,0,11,11,11,13,0,12,0,12,0,11,0,0,0,13,13,11,0,0,0,0,11,0,0,0,0,0,0,7,9,0,0,0,0,0,0,0,0,0,0,0],"split_type":[0,0,0,0,0,0,0,0,0,0,0,0,0,0,0,0,0,0,0,0,0,0,0,0,0,0,0,0,0,0,0,0,0,0,0,0,0,0,0,0,0,0,0,0,0,0,0,0,0,0,0,0,0,0,0,0,0,0,0,0,0,0,0,0,0,0,0,0,0],"sum_hessian":[8.439282E4,6.145539E4,2.293743E4,3.2818125E4,2.8637264E4,1.6097753E4,6.839677E3,2.241654E4,1.0401585E4,6.979393E3,2.1657871E4,1.2145778E4,3.9519746E3,1.3268121E3,5.5128647E3,3.014746E3,1.9401793E4,6.186347E3,4.2152373E3,1.0686726E3,5.9107207E3,2.1328064E4,3.2980627E2,1.7557758E3,2.196199E3,5.0784307E3,4.3443414E2,1.6577189E3,1.3570272E3,1.7686326E4,1.7154668E3,8.7510114E2,5.311246E3,4.643365E2,6.043362E2,3.8877213E2,5.521948E3,1.4005913E4,7.3221523E3,1.8050995E3,3.910995E2,2.893233E3,2.1851978E3,8.143165E3,9.543162E3,4.477279E2,1.2677389E3,6.676385E2,2.0746263E2,4.2072715E3,1.1039746E3,4.386768E2,1.656594E2,5.4111113E3,1.10837166E2,2.6954038E3,4.6267485E3,1.0544517E3,1.1307462E3,1.3067765E3,6.836388E3,4.066315E3,5.476847E3,3.721146E3,4.861256E2,3.4101865E3,1.2165621E3,6.6049884E2,3.9395282E2],"tree_param":{"num_deleted":"0","num_feature":"14","num_nodes":"69","size_leaf_vector":"1"}},{"base_weights":[-2.4120754E-3,-3.5704892E-2,-1.1643252E-4,-4.1390702E-2,7.600763E-3],"categories":[],"categories_nodes":[],"categories_segments":[],"categories_sizes":[],"default_left":[0,0,0,0,0],"id":10,"left_children":[1,3,-1,-1,-1],"loss_changes":[5.6991277E0,8.001827E0,0E0,0E0,0E0],"parents":[2147483647,0,0,1,1],"right_children":[2,4,-1,-1,-1],"split_conditions":[-8.801651E-1,1E0,-1.1643252E-4,-4.1390702E-2,7.600763E-3],"split_indices":[11,9,0,0,0],"split_type":[0,0,0,0,0],"sum_hessian":[8.4276984E4,4.779661E3,7.949732E4,3.0939072E3,1.6857539E3],"tree_param":{"num_deleted":"0","num_feature":"14","num_nodes":"5","size_leaf_vector":"1"}},{"base_weights":[2.025853E-3],"categories":[],"categories_nodes":[],"categories_segments":[],"categories_sizes":[],"default_left":[0],"id":11,"left_children":[-1],"loss_changes":[0E0],"parents":[2147483647],"right_children":[-1],"split_conditions":[1.2645137E-3],"split_indices":[0],"split_type":[0],"sum_hessian":[8.426291E4],"tree_param":{"num_deleted":"0","num_feature":"14","num_nodes":"1","size_leaf_vector":"1"}},{"base_weights":[-1.1319832E-3],"categories":[],"categories_nodes":[],"categories_segments":[],"categories_sizes":[],"default_left":[0],"id":12,"left_children":[-1],"loss_changes":[0E0],"parents":[2147483647],"right_children":[-1],"split_conditions":[-7.065707E-4],"split_indices":[0],"split_type":[0],"sum_hessian":[8.4460695E4],"tree_param":{"num_deleted":"0","num_feature":"14","num_nodes":"1","size_leaf_vector":"1"}},{"base_weights":[1.3408309E-3,-5.922983E-2,1.2119851E-3],"categories":[],"categories_nodes":[],"categories_segments":[],"categories_sizes":[],"default_left":[0,0,0],"id":13,"left_children":[1,-1,-1],"loss_changes":[3.4684498E0,0E0,0E0],"parents":[2147483647,0,0],"right_children":[2,-1,-1],"split_conditions":[-1.3928654E0,-5.922983E-2,1.2119851E-3],"split_indices":[11,0,0],"split_type":[0,0,0],"sum_hessian":[8.432293E4,2.932422E2,8.402969E4],"tree_param":{"num_deleted":"0","num_feature":"14","num_nodes":"3","size_leaf_vector":"1"}},{"base_weights":[-1.6093251E-3],"categories":[],"categories_nodes":[],"categories_segments":[],"categories_sizes":[],"default_left":[0],"id":14,"left_children":[-1],"loss_changes":[0E0],"parents":[2147483647],"right_children":[-1],"split_conditions":[-1.0045219E-3],"split_indices":[0],"split_type":[0],"sum_hessian":[8.4361945E4],"tree_param":{"num_deleted":"0","num_feature":"14","num_nodes":"1","size_leaf_vector":"1"}},{"base_weights":[-0E0,3.0840877E-3,-1.7532665E-2,6.157198E-4,1.7292775E-2,-8.0887906E-2,-8.79039E-3,9.566288E-3,-3.5896634E-3,-8.112388E-4,-8.0984965E-2,-4.8549077E-4,-3.2349754E-2,-1.2710187E-2,3.967641E-3,6.056003E-3,-2.4471045E-2,2.5518198E-2,-1.8458779E-3,-1.23677E-2,3.2767616E-2,-3.0864412E-3,-4.0814254E-2,4.389649E-2,-6.051333E-4,4.1038215E-2,-6.2591783E-3,-1.8039722E-2,1.0565669E-2,1.1331478E-2,-3.2757983E-2,-1.4800774E-2,4.2128958E-2],"categories":[],"categories_nodes":[],"categories_segments":[],"categories_sizes":[],"default_left":[0,0,0,0,0,0,0,0,0,0,0,0,0,0,0,0,0,0,0,0,0,0,0,0,0,0,0,0,0,0,0,0,0],"id":15,"left_children":[1,3,5,7,-1,9,11,-1,13,-1,-1,-1,-1,15,17,19,21,23,-1,-1,25,27,29,31,-1,-1,-1,-1,-1,-1,-1,-1,-1],"loss_changes":[4.68779E0,3.9077826E0,5.7944145E0,4.241965E0,0E0,3.2642298E0,3.243277E0,0E0,3.6021605E0,0E0,0E0,0E0,0E0,5.5267363E0,4.32462E0,6.2529626E0,4.5928135E0,4.0789104E0,0E0,0E0,7.3891544E0,3.8487172E0,6.198477E0,7.9493294E0,0E0,0E0,0E0,0E0,0E0,0E0,0E0,0E0,0E0],"parents":[2147483647,0,0,1,1,2,2,3,3,5,5,6,6,8,8,13,13,14,14,15,15,16,16,17,17,20,20,21,21,22,22,23,23],"right_children":[2,4,6,8,-1,10,12,-1,14,-1,-1,-1,-1,16,18,20,22,24,-1,-1,26,28,30,32,-1,-1,-1,-1,-1,-1,-1,-1,-1],"split_conditions":[3.963073E-1,3.1641242E-1,4.164806E-1,2.1244705E0,1.7292775E-2,4.0620604E-1,5.412219E-1,9.566288E-3,4.6339877E-2,-8.112388E-4,-8.0984965E-2,-4.8549077E-4,-3.2349754E-2,-2.277203E-1,2.6784337E0,2.365186E0,-8.060864E-2,1E0,-1.8458779E-3,-1.23677E-2,-5.3029056E-3,2.2605484E0,2.3201132E0,-4.8267102E-1,-6.051333E-4,4.1038215E-2,-6.2591783E-3,-1.8039722E-2,1.0565669E-2,1.1331478E-2,-3.2757983E-2,-1.4800774E-2,4.2128958E-2],"split_indices":[13,13,13,12,0,13,11,0,13,0,0,0,0,11,12,12,13,4,0,0,13,12,12,11,0,0,0,0,0,0,0,0,0],"split_type":[0,0,0,0,0,0,0,0,0,0,0,0,0,0,0,0,0,0,0,0,0,0,0,0,0,0,0,0,0,0,0,0,0],"sum_hessian":[8.435942E4,7.1394336E4,1.2965084E4,6.5523332E4,5.8710083E3,1.2857943E3,1.167929E4,1.5334654E4,5.0188676E4,6.371839E2,6.486104E2,1.0209634E4,1.469656E3,2.3638822E4,2.6549854E4,8.618599E3,1.5020225E4,6.9469927E3,1.9602861E4,4.0963315E3,4.522267E3,6.9508633E3,8.069361E3,4.4145005E3,2.5324924E3,2.7341106E3,1.7881564E3,3.3557834E3,3.5950798E3,1.108983E3,6.960378E3,9.739537E2,3.4405466E3],"tree_param":{"num_deleted":"0","num_feature":"14","num_nodes":"33","size_leaf_vector":"1"}},{"base_weights":[-1.1998154E-3,-9.43677E-3,1.4414567E-3,2.1008234E-2,-8.6860877E-4,7.7255787E-3,1.0532597E-1,-0E0,8.1212655E-2],"categories":[],"categories_nodes":[],"categories_segments":[],"categories_sizes":[],"default_left":[0,0,0,0,0,0,0,0,0],"id":16,"left_children":[1,-1,3,5,-1,-1,7,-1,-1],"loss_changes":[3.3119721E0,0E0,4.184985E0,5.0468826E0,0E0,0E0,3.2433147E0,0E0,0E0],"parents":[2147483647,0,0,2,2,3,3,6,6],"right_children":[2,-1,4,6,-1,-1,8,-1,-1],"split_conditions":[-2.2268812E-1,-9.43677E-3,2.307327E0,2.2940052E0,-8.6860877E-4,7.7255787E-3,-8.1877416E-1,-0E0,8.1212655E-2],"split_indices":[13,0,12,12,0,0,11,0,0],"split_type":[0,0,0,0,0,0,0,0,0],"sum_hessian":[8.426861E4,1.4311082E4,6.995753E4,9.472716E3,6.0484812E4,8.834593E3,6.381225E2,5.3722633E1,5.8439984E2],"tree_param":{"num_deleted":"0","num_feature":"14","num_nodes":"9","size_leaf_vector":"1"}},{"base_weights":[2.4974805E-3],"categories":[],"categories_nodes":[],"categories_segments":[],"categories_sizes":[],"default_left":[0],"id":17,"left_children":[-1],"loss_changes":[0E0],"parents":[2147483647],"right_children":[-1],"split_conditions":[1.5588981E-3],"split_indices":[0],"split_type":[0],"sum_hessian":[8.4116875E4],"tree_param":{"num_deleted":"0","num_feature":"14","num_nodes":"1","size_leaf_vector":"1"}},{"base_weights":[-1.4539012E-3],"categories":[],"categories_nodes":[],"categories_segments":[],"categories_sizes":[],"default_left":[0],"id":18,"left_children":[-1],"loss_changes":[0E0],"parents":[2147483647],"right_children":[-1],"split_conditions":[-9.0750813E-4],"split_indices":[0],"split_type":[0],"sum_hessian":[8.4264734E4],"tree_param":{"num_deleted":"0","num_feature":"14","num_nodes":"1","size_leaf_vector":"1"}},{"base_weights":[-1.3192915E-3],"categories":[],"categories_nodes":[],"categories_segments":[],"categories_sizes":[],"default_left":[0],"id":19,"left_children":[-1],"loss_changes":[0E0],"parents":[2147483647],"right_children":[-1],"split_conditions":[-8.2348636E-4],"split_indices":[0],"split_type":[0],"sum_hessian":[8.4329586E4],"tree_param":{"num_deleted":"0","num_feature":"14","num_nodes":"1","size_leaf_vector":"1"}},{"base_weights":[2.9483388E-4],"categories":[],"categories_nodes":[],"categories_segments":[],"categories_sizes":[],"default_left":[0],"id":20,"left_children":[-1],"loss_changes":[0E0],"parents":[2147483647],"right_children":[-1],"split_conditions":[1.8403186E-4],"split_indices":[0],"split_type":[0],"sum_hessian":[8.419366E4],"tree_param":{"num_deleted":"0","num_feature":"14","num_nodes":"1","size_leaf_vector":"1"}},{"base_weights":[1.7148398E-3],"categories":[],"categories_nodes":[],"categories_segments":[],"categories_sizes":[],"default_left":[0],"id":21,"left_children":[-1],"loss_changes":[0E0],"parents":[2147483647],"right_children":[-1],"split_conditions":[1.070383E-3],"split_indices":[0],"split_type":[0],"sum_hessian":[8.423604E4],"tree_param":{"num_deleted":"0","num_feature":"14","num_nodes":"1","size_leaf_vector":"1"}},{"base_weights":[-2.4380091E-4],"categories":[],"categories_nodes":[],"categories_segments":[],"categories_sizes":[],"default_left":[0],"id":22,"left_children":[-1],"loss_changes":[0E0],"parents":[2147483647],"right_children":[-1],"split_conditions":[-1.5217767E-4],"split_indices":[0],"split_type":[0],"sum_hessian":[8.434689E4],"tree_param":{"num_deleted":"0","num_feature":"14","num_nodes":"1","size_leaf_vector":"1"}},{"base_weights":[-9.110925E-4],"categories":[],"categories_nodes":[],"categories_segments":[],"categories_sizes":[],"default_left":[0],"id":23,"left_children":[-1],"loss_changes":[0E0],"parents":[2147483647],"right_children":[-1],"split_conditions":[-5.686933E-4],"split_indices":[0],"split_type":[0],"sum_hessian":[8.429065E4],"tree_param":{"num_deleted":"0","num_feature":"14","num_nodes":"1","size_leaf_vector":"1"}},{"base_weights":[1.329339E-4],"categories":[],"categories_nodes":[],"categories_segments":[],"categories_sizes":[],"default_left":[0],"id":24,"left_children":[-1],"loss_changes":[0E0],"parents":[2147483647],"right_children":[-1],"split_conditions":[8.2975785E-5],"split_indices":[0],"split_type":[0],"sum_hessian":[8.428861E4],"tree_param":{"num_deleted":"0","num_feature":"14","num_nodes":"1","size_leaf_vector":"1"}},{"base_weights":[1.6814461E-3],"categories":[],"categories_nodes":[],"categories_segments":[],"categories_sizes":[],"default_left":[0],"id":25,"left_children":[-1],"loss_changes":[0E0],"parents":[2147483647],"right_children":[-1],"split_conditions":[1.049539E-3],"split_indices":[0],"split_type":[0],"sum_hessian":[8.424092E4],"tree_param":{"num_deleted":"0","num_feature":"14","num_nodes":"1","size_leaf_vector":"1"}},{"base_weights":[-4.3666802E-4],"categories":[],"categories_nodes":[],"categories_segments":[],"categories_sizes":[],"default_left":[0],"id":26,"left_children":[-1],"loss_changes":[0E0],"parents":[2147483647],"right_children":[-1],"split_conditions":[-2.7256308E-4],"split_indices":[0],"split_type":[0],"sum_hessian":[8.416314E4],"tree_param":{"num_deleted":"0","num_feature":"14","num_nodes":"1","size_leaf_vector":"1"}},{"base_weights":[-2.072741E-3],"categories":[],"categories_nodes":[],"categories_segments":[],"categories_sizes":[],"default_left":[0],"id":27,"left_children":[-1],"loss_changes":[0E0],"parents":[2147483647],"right_children":[-1],"split_conditions":[-1.2937807E-3],"split_indices":[0],"split_type":[0],"sum_hessian":[8.433211E4],"tree_param":{"num_deleted":"0","num_feature":"14","num_nodes":"1","size_leaf_vector":"1"}},{"base_weights":[1.2450473E-3],"categories":[],"categories_nodes":[],"categories_segments":[],"categories_sizes":[],"default_left":[0],"id":28,"left_children":[-1],"loss_changes":[0E0],"parents":[2147483647],"right_children":[-1],"split_conditions":[7.77144E-4],"split_indices":[0],"split_type":[0],"sum_hessian":[8.4190375E4],"tree_param":{"num_deleted":"0","num_feature":"14","num_nodes":"1","size_leaf_vector":"1"}},{"base_weights":[-1.8803437E-3,-2.863589E-3,1.4446397E-2,-2.0661002E-2,2.995658E-2,-3.333116E-2,1.1658511E-2,3.6908742E-2,-2.2667567E-3,4.4411145E-2,-2.9202985E-2,1.085075E-2,-3.3763263E-2],"categories":[],"categories_nodes":[],"categories_segments":[],"categories_sizes":[],"default_left":[0,0,0,0,0,0,0,0,0,0,0,0,0],"id":29,"left_children":[1,-1,3,5,7,-1,9,-1,11,-1,-1,-1,-1],"loss_changes":[3.5824513E0,0E0,6.292591E0,4.0461035E0,8.504471E0,0E0,5.565788E0,0E0,4.373633E0,0E0,0E0,0E0,0E0],"parents":[2147483647,0,0,2,2,3,3,4,4,6,6,8,8],"right_children":[2,-1,4,6,8,-1,10,-1,12,-1,-1,-1,-1],"split_conditions":[1E0,-2.863589E-3,-3.4744015E-1,1E0,1E0,-3.333116E-2,2.7130525E0,3.6908742E-2,3.54948E-1,4.4411145E-2,-2.9202985E-2,1.085075E-2,-3.3763263E-2],"split_indices":[7,0,11,2,2,0,12,0,11,0,0,0,0],"split_type":[0,0,0,0,0,0,0,0,0,0,0,0,0],"sum_hessian":[8.428241E4,7.314522E4,1.11371875E4,3.1022505E3,8.034937E3,1.75297E3,1.3492805E3,4.4344546E3,3.6004827E3,7.90724E2,5.585566E2,2.431559E3,1.1689236E3],"tree_param":{"num_deleted":"0","num_feature":"14","num_nodes":"13","size_leaf_vector":"1"}},{"base_weights":[6.80091E-5],"categories":[],"categories_nodes":[],"categories_segments":[],"categories_sizes":[],"default_left":[0],"id":30,"left_children":[-1],"loss_changes":[0E0],"parents":[2147483647],"right_children":[-1],"split_conditions":[4.2450487E-5],"split_indices":[0],"split_type":[0],"sum_hessian":[8.425417E4],"tree_param":{"num_deleted":"0","num_feature":"14","num_nodes":"1","size_leaf_vector":"1"}},{"base_weights":[1.6459619E-4],"categories":[],"categories_nodes":[],"categories_segments":[],"categories_sizes":[],"default_left":[0],"id":31,"left_children":[-1],"loss_changes":[0E0],"parents":[2147483647],"right_children":[-1],"split_conditions":[1.0273902E-4],"split_indices":[0],"split_type":[0],"sum_hessian":[8.426032E4],"tree_param":{"num_deleted":"0","num_feature":"14","num_nodes":"1","size_leaf_vector":"1"}},{"base_weights":[5.670791E-4],"categories":[],"categories_nodes":[],"categories_segments":[],"categories_sizes":[],"default_left":[0],"id":32,"left_children":[-1],"loss_changes":[0E0],"parents":[2147483647],"right_children":[-1],"split_conditions":[3.5396416E-4],"split_indices":[0],"split_type":[0],"sum_hessian":[8.4213695E4],"tree_param":{"num_deleted":"0","num_feature":"14","num_nodes":"1","size_leaf_vector":"1"}},{"base_weights":[1.5335232E-3],"categories":[],"categories_nodes":[],"categories_segments":[],"categories_sizes":[],"default_left":[0],"id":33,"left_children":[-1],"loss_changes":[0E0],"parents":[2147483647],"right_children":[-1],"split_conditions":[9.5720723E-4],"split_indices":[0],"split_type":[0],"sum_hessian":[8.425744E4],"tree_param":{"num_deleted":"0","num_feature":"14","num_nodes":"1","size_leaf_vector":"1"}},{"base_weights":[-7.0533174E-6],"categories":[],"categories_nodes":[],"categories_segments":[],"categories_sizes":[],"default_left":[0],"id":34,"left_children":[-1],"loss_changes":[0E0],"parents":[2147483647],"right_children":[-1],"split_conditions":[-4.4025983E-6],"split_indices":[0],"split_type":[0],"sum_hessian":[8.427211E4],"tree_param":{"num_deleted":"0","num_feature":"14","num_nodes":"1","size_leaf_vector":"1"}},{"base_weights":[-1.4083949E-3],"categories":[],"categories_nodes":[],"categories_segments":[],"categories_sizes":[],"default_left":[0],"id":35,"left_children":[-1],"loss_changes":[0E0],"parents":[2147483647],"right_children":[-1],"split_conditions":[-8.791036E-4],"split_indices":[0],"split_type":[0],"sum_hessian":[8.429378E4],"tree_param":{"num_deleted":"0","num_feature":"14","num_nodes":"1","size_leaf_vector":"1"}},{"base_weights":[3.290602E-4],"categories":[],"categories_nodes":[],"categories_segments":[],"categories_sizes":[],"default_left":[0],"id":36,"left_children":[-1],"loss_changes":[0E0],"parents":[2147483647],"right_children":[-1],"split_conditions":[2.0539552E-4],"split_indices":[0],"split_type":[0],"sum_hessian":[8.4203984E4],"tree_param":{"num_deleted":"0","num_feature":"14","num_nodes":"1","size_leaf_vector":"1"}},{"base_weights":[-1.3378017E-3],"categories":[],"categories_nodes":[],"categories_segments":[],"categories_sizes":[],"default_left":[0],"id":37,"left_children":[-1],"loss_changes":[0E0],"parents":[2147483647],"right_children":[-1],"split_conditions":[-8.350402E-4],"split_indices":[0],"split_type":[0],"sum_hessian":[8.414481E4],"tree_param":{"num_deleted":"0","num_feature":"14","num_nodes":"1","size_leaf_vector":"1"}},{"base_weights":[-2.3016308E-3],"categories":[],"categories_nodes":[],"categories_segments":[],"categories_sizes":[],"default_left":[0],"id":38,"left_children":[-1],"loss_changes":[0E0],"parents":[2147483647],"right_children":[-1],"split_conditions":[-1.436651E-3],"split_indices":[0],"split_type":[0],"sum_hessian":[8.430317E4],"tree_param":{"num_deleted":"0","num_feature":"14","num_nodes":"1","size_leaf_vector":"1"}},{"base_weights":[2.275007E-3],"categories":[],"categories_nodes":[],"categories_segments":[],"categories_sizes":[],"default_left":[0],"id":39,"left_children":[-1],"loss_changes":[0E0],"parents":[2147483647],"right_children":[-1],"split_conditions":[1.4200328E-3],"split_indices":[0],"split_type":[0],"sum_hessian":[8.428161E4],"tree_param":{"num_deleted":"0","num_feature":"14","num_nodes":"1","size_leaf_vector":"1"}},{"base_weights":[3.2799842E-4],"categories":[],"categories_nodes":[],"categories_segments":[],"categories_sizes":[],"default_left":[0],"id":40,"left_children":[-1],"loss_changes":[0E0],"parents":[2147483647],"right_children":[-1],"split_conditions":[2.0473277E-4],"split_indices":[0],"split_type":[0],"sum_hessian":[8.433503E4],"tree_param":{"num_deleted":"0","num_feature":"14","num_nodes":"1","size_leaf_vector":"1"}},{"base_weights":[3.2072404E-4],"categories":[],"categories_nodes":[],"categories_segments":[],"categories_sizes":[],"default_left":[0],"id":41,"left_children":[-1],"loss_changes":[0E0],"parents":[2147483647],"right_children":[-1],"split_conditions":[2.001922E-4],"split_indices":[0],"split_type":[0],"sum_hessian":[8.430813E4],"tree_param":{"num_deleted":"0","num_feature":"14","num_nodes":"1","size_leaf_vector":"1"}},{"base_weights":[1.8617538E-3],"categories":[],"categories_nodes":[],"categories_segments":[],"categories_sizes":[],"default_left":[0],"id":42,"left_children":[-1],"loss_changes":[0E0],"parents":[2147483647],"right_children":[-1],"split_conditions":[1.1620849E-3],"split_indices":[0],"split_type":[0],"sum_hessian":[8.431623E4],"tree_param":{"num_deleted":"0","num_feature":"14","num_nodes":"1","size_leaf_vector":"1"}},{"base_weights":[-3.0646456E-4],"categories":[],"categories_nodes":[],"categories_segments":[],"categories_sizes":[],"default_left":[0],"id":43,"left_children":[-1],"loss_changes":[0E0],"parents":[2147483647],"right_children":[-1],"split_conditions":[-1.9129159E-4],"split_indices":[0],"split_type":[0],"sum_hessian":[8.436996E4],"tree_param":{"num_deleted":"0","num_feature":"14","num_nodes":"1","size_leaf_vector":"1"}},{"base_weights":[-0E0],"categories":[],"categories_nodes":[],"categories_segments":[],"categories_sizes":[],"default_left":[0],"id":44,"left_children":[-1],"loss_changes":[0E0],"parents":[2147483647],"right_children":[-1],"split_conditions":[-0E0],"split_indices":[0],"split_type":[0],"sum_hessian":[8.42562E4],"tree_param":{"num_deleted":"0","num_feature":"14","num_nodes":"1","size_leaf_vector":"1"}},{"base_weights":[-6.038289E-4],"categories":[],"categories_nodes":[],"categories_segments":[],"categories_sizes":[],"default_left":[0],"id":45,"left_children":[-1],"loss_changes":[0E0],"parents":[2147483647],"right_children":[-1],"split_conditions":[-3.7690296E-4],"split_indices":[0],"split_type":[0],"sum_hessian":[8.422965E4],"tree_param":{"num_deleted":"0","num_feature":"14","num_nodes":"1","size_leaf_vector":"1"}},{"base_weights":[-1.7520166E-3],"categories":[],"categories_nodes":[],"categories_segments":[],"categories_sizes":[],"default_left":[0],"id":46,"left_children":[-1],"loss_changes":[0E0],"parents":[2147483647],"right_children":[-1],"split_conditions":[-1.0935883E-3],"split_indices":[0],"split_type":[0],"sum_hessian":[8.43443E4],"tree_param":{"num_deleted":"0","num_feature":"14","num_nodes":"1","size_leaf_vector":"1"}},{"base_weights":[1.9194074E-4],"categories":[],"categories_nodes":[],"categories_segments":[],"categories_sizes":[],"default_left":[0],"id":47,"left_children":[-1],"loss_changes":[0E0],"parents":[2147483647],"right_children":[-1],"split_conditions":[1.1980716E-4],"split_indices":[0],"split_type":[0],"sum_hessian":[8.421654E4],"tree_param":{"num_deleted":"0","num_feature":"14","num_nodes":"1","size_leaf_vector":"1"}},{"base_weights":[1.8344064E-3],"categories":[],"categories_nodes":[],"categories_segments":[],"categories_sizes":[],"default_left":[0],"id":48,"left_children":[-1],"loss_changes":[0E0],"parents":[2147483647],"right_children":[-1],"split_conditions":[1.145015E-3],"split_indices":[0],"split_type":[0],"sum_hessian":[8.422159E4],"tree_param":{"num_deleted":"0","num_feature":"14","num_nodes":"1","size_leaf_vector":"1"}},{"base_weights":[-1.106975E-3],"categories":[],"categories_nodes":[],"categories_segments":[],"categories_sizes":[],"default_left":[0],"id":49,"left_children":[-1],"loss_changes":[0E0],"parents":[2147483647],"right_children":[-1],"split_conditions":[-6.9096085E-4],"split_indices":[0],"split_type":[0],"sum_hessian":[8.423756E4],"tree_param":{"num_deleted":"0","num_feature":"14","num_nodes":"1","size_leaf_vector":"1"}},{"base_weights":[-1.2056319E-3],"categories":[],"categories_nodes":[],"categories_segments":[],"categories_sizes":[],"default_left":[0],"id":50,"left_children":[-1],"loss_changes":[0E0],"parents":[2147483647],"right_children":[-1],"split_conditions":[-7.525413E-4],"split_indices":[0],"split_type":[0],"sum_hessian":[8.4233664E4],"tree_param":{"num_deleted":"0","num_feature":"14","num_nodes":"1","size_leaf_vector":"1"}},{"base_weights":[1.3507735E-3],"categories":[],"categories_nodes":[],"categories_segments":[],"categories_sizes":[],"default_left":[0],"id":51,"left_children":[-1],"loss_changes":[0E0],"parents":[2147483647],"right_children":[-1],"split_conditions":[8.4313704E-4],"split_indices":[0],"split_type":[0],"sum_hessian":[8.425549E4],"tree_param":{"num_deleted":"0","num_feature":"14","num_nodes":"1","size_leaf_vector":"1"}},{"base_weights":[1.9002655E-3],"categories":[],"categories_nodes":[],"categories_segments":[],"categories_sizes":[],"default_left":[0],"id":52,"left_children":[-1],"loss_changes":[0E0],"parents":[2147483647],"right_children":[-1],"split_conditions":[1.1861235E-3],"split_indices":[0],"split_type":[0],"sum_hessian":[8.421139E4],"tree_param":{"num_deleted":"0","num_feature":"14","num_nodes":"1","size_leaf_vector":"1"}},{"base_weights":[-1.2429963E-3],"categories":[],"categories_nodes":[],"categories_segments":[],"categories_sizes":[],"default_left":[0],"id":53,"left_children":[-1],"loss_changes":[0E0],"parents":[2147483647],"right_children":[-1],"split_conditions":[-7.7586377E-4],"split_indices":[0],"split_type":[0],"sum_hessian":[8.419187E4],"tree_param":{"num_deleted":"0","num_feature":"14","num_nodes":"1","size_leaf_vector":"1"}},{"base_weights":[1.5736966E-3],"categories":[],"categories_nodes":[],"categories_segments":[],"categories_sizes":[],"default_left":[0],"id":54,"left_children":[-1],"loss_changes":[0E0],"parents":[2147483647],"right_children":[-1],"split_conditions":[9.82283E-4],"split_indices":[0],"split_type":[0],"sum_hessian":[8.436011E4],"tree_param":{"num_deleted":"0","num_feature":"14","num_nodes":"1","size_leaf_vector":"1"}},{"base_weights":[-7.528233E-4],"categories":[],"categories_nodes":[],"categories_segments":[],"categories_sizes":[],"default_left":[0],"id":55,"left_children":[-1],"loss_changes":[0E0],"parents":[2147483647],"right_children":[-1],"split_conditions":[-4.6990352E-4],"split_indices":[0],"split_type":[0],"sum_hessian":[8.420256E4],"tree_param":{"num_deleted":"0","num_feature":"14","num_nodes":"1","size_leaf_vector":"1"}},{"base_weights":[-3.7403067E-4],"categories":[],"categories_nodes":[],"categories_segments":[],"categories_sizes":[],"default_left":[0],"id":56,"left_children":[-1],"loss_changes":[0E0],"parents":[2147483647],"right_children":[-1],"split_conditions":[-2.3346557E-4],"split_indices":[0],"split_type":[0],"sum_hessian":[8.433243E4],"tree_param":{"num_deleted":"0","num_feature":"14","num_nodes":"1","size_leaf_vector":"1"}},{"base_weights":[-1.0561603E-5],"categories":[],"categories_nodes":[],"categories_segments":[],"categories_sizes":[],"default_left":[0],"id":57,"left_children":[-1],"loss_changes":[0E0],"parents":[2147483647],"right_children":[-1],"split_conditions":[-6.5924287E-6],"split_indices":[0],"split_type":[0],"sum_hessian":[8.415136E4],"tree_param":{"num_deleted":"0","num_feature":"14","num_nodes":"1","size_leaf_vector":"1"}},{"base_weights":[1.978577E-3],"categories":[],"categories_nodes":[],"categories_segments":[],"categories_sizes":[],"default_left":[0],"id":58,"left_children":[-1],"loss_changes":[0E0],"parents":[2147483647],"right_children":[-1],"split_conditions":[1.2350047E-3],"split_indices":[0],"split_type":[0],"sum_hessian":[8.4227625E4],"tree_param":{"num_deleted":"0","num_feature":"14","num_nodes":"1","size_leaf_vector":"1"}},{"base_weights":[-9.198055E-4],"categories":[],"categories_nodes":[],"categories_segments":[],"categories_sizes":[],"default_left":[0],"id":59,"left_children":[-1],"loss_changes":[0E0],"parents":[2147483647],"right_children":[-1],"split_conditions":[-5.7413185E-4],"split_indices":[0],"split_type":[0],"sum_hessian":[8.415883E4],"tree_param":{"num_deleted":"0","num_feature":"14","num_nodes":"1","size_leaf_vector":"1"}},{"base_weights":[-9.3195913E-4],"categories":[],"categories_nodes":[],"categories_segments":[],"categories_sizes":[],"default_left":[0],"id":60,"left_children":[-1],"loss_changes":[0E0],"parents":[2147483647],"right_children":[-1],"split_conditions":[-5.81718E-4],"split_indices":[0],"split_type":[0],"sum_hessian":[8.4159164E4],"tree_param":{"num_deleted":"0","num_feature":"14","num_nodes":"1","size_leaf_vector":"1"}},{"base_weights":[-0E0],"categories":[],"categories_nodes":[],"categories_segments":[],"categories_sizes":[],"default_left":[0],"id":61,"left_children":[-1],"loss_changes":[0E0],"parents":[2147483647],"right_children":[-1],"split_conditions":[-0E0],"split_indices":[0],"split_type":[0],"sum_hessian":[8.4280586E4],"tree_param":{"num_deleted":"0","num_feature":"14","num_nodes":"1","size_leaf_vector":"1"}},{"base_weights":[-3.3084357E-3],"categories":[],"categories_nodes":[],"categories_segments":[],"categories_sizes":[],"default_left":[0],"id":62,"left_children":[-1],"loss_changes":[0E0],"parents":[2147483647],"right_children":[-1],"split_conditions":[-2.0650867E-3],"split_indices":[0],"split_type":[0],"sum_hessian":[8.419757E4],"tree_param":{"num_deleted":"0","num_feature":"14","num_nodes":"1","size_leaf_vector":"1"}},{"base_weights":[2.4259947E-3],"categories":[],"categories_nodes":[],"categories_segments":[],"categories_sizes":[],"default_left":[0],"id":63,"left_children":[-1],"loss_changes":[0E0],"parents":[2147483647],"right_children":[-1],"split_conditions":[1.5142775E-3],"split_indices":[0],"split_type":[0],"sum_hessian":[8.423557E4],"tree_param":{"num_deleted":"0","num_feature":"14","num_nodes":"1","size_leaf_vector":"1"}},{"base_weights":[8.8333164E-4],"categories":[],"categories_nodes":[],"categories_segments":[],"categories_sizes":[],"default_left":[0],"id":64,"left_children":[-1],"loss_changes":[0E0],"parents":[2147483647],"right_children":[-1],"split_conditions":[5.5136526E-4],"split_indices":[0],"split_type":[0],"sum_hessian":[8.4267195E4],"tree_param":{"num_deleted":"0","num_feature":"14","num_nodes":"1","size_leaf_vector":"1"}},{"base_weights":[-2.5538502E-3],"categories":[],"categories_nodes":[],"categories_segments":[],"categories_sizes":[],"default_left":[0],"id":65,"left_children":[-1],"loss_changes":[0E0],"parents":[2147483647],"right_children":[-1],"split_conditions":[-1.5940834E-3],"split_indices":[0],"split_type":[0],"sum_hessian":[8.424345E4],"tree_param":{"num_deleted":"0","num_feature":"14","num_nodes":"1","size_leaf_vector":"1"}},{"base_weights":[2.6287332E-3],"categories":[],"categories_nodes":[],"categories_segments":[],"categories_sizes":[],"default_left":[0],"id":66,"left_children":[-1],"loss_changes":[0E0],"parents":[2147483647],"right_children":[-1],"split_conditions":[1.6408245E-3],"split_indices":[0],"split_type":[0],"sum_hessian":[8.4349766E4],"tree_param":{"num_deleted":"0","num_feature":"14","num_nodes":"1","size_leaf_vector":"1"}},{"base_weights":[-2.8296662E-3],"categories":[],"categories_nodes":[],"categories_segments":[],"categories_sizes":[],"default_left":[0],"id":67,"left_children":[-1],"loss_changes":[0E0],"parents":[2147483647],"right_children":[-1],"split_conditions":[-1.7662445E-3],"split_indices":[0],"split_type":[0],"sum_hessian":[8.426603E4],"tree_param":{"num_deleted":"0","num_feature":"14","num_nodes":"1","size_leaf_vector":"1"}},{"base_weights":[1.0907281E-3],"categories":[],"categories_nodes":[],"categories_segments":[],"categories_sizes":[],"default_left":[0],"id":68,"left_children":[-1],"loss_changes":[0E0],"parents":[2147483647],"right_children":[-1],"split_conditions":[6.8081974E-4],"split_indices":[0],"split_type":[0],"sum_hessian":[8.430871E4],"tree_param":{"num_deleted":"0","num_feature":"14","num_nodes":"1","size_leaf_vector":"1"}},{"base_weights":[1.475344E-3,-5.7617564E-2,1.3217872E-3],"categories":[],"categories_nodes":[],"categories_segments":[],"categories_sizes":[],"default_left":[0,0,0],"id":69,"left_children":[1,-1,-1],"loss_changes":[3.7108898E0,0E0,0E0],"parents":[2147483647,0,0],"right_children":[2,-1,-1],"split_conditions":[-6.963172E-1,-5.7617564E-2,1.3217872E-3],"split_indices":[13,0,0],"split_type":[0,0,0],"sum_hessian":[8.4253305E4,3.3925888E2,8.391405E4],"tree_param":{"num_deleted":"0","num_feature":"14","num_nodes":"3","size_leaf_vector":"1"}},{"base_weights":[1.3663614E-4],"categories":[],"categories_nodes":[],"categories_segments":[],"categories_sizes":[],"default_left":[0],"id":70,"left_children":[-1],"loss_changes":[0E0],"parents":[2147483647],"right_children":[-1],"split_conditions":[8.528668E-5],"split_indices":[0],"split_type":[0],"sum_hessian":[8.428578E4],"tree_param":{"num_deleted":"0","num_feature":"14","num_nodes":"1","size_leaf_vector":"1"}},{"base_weights":[-5.915267E-4],"categories":[],"categories_nodes":[],"categories_segments":[],"categories_sizes":[],"default_left":[0],"id":71,"left_children":[-1],"loss_changes":[0E0],"parents":[2147483647],"right_children":[-1],"split_conditions":[-3.6922403E-4],"split_indices":[0],"split_type":[0],"sum_hessian":[8.418559E4],"tree_param":{"num_deleted":"0","num_feature":"14","num_nodes":"1","size_leaf_vector":"1"}},{"base_weights":[-8.0289865E-5],"categories":[],"categories_nodes":[],"categories_segments":[],"categories_sizes":[],"default_left":[0],"id":72,"left_children":[-1],"loss_changes":[0E0],"parents":[2147483647],"right_children":[-1],"split_conditions":[-5.0115996E-5],"split_indices":[0],"split_type":[0],"sum_hessian":[8.422046E4],"tree_param":{"num_deleted":"0","num_feature":"14","num_nodes":"1","size_leaf_vector":"1"}},{"base_weights":[-1.2068289E-3],"categories":[],"categories_nodes":[],"categories_segments":[],"categories_sizes":[],"default_left":[0],"id":73,"left_children":[-1],"loss_changes":[0E0],"parents":[2147483647],"right_children":[-1],"split_conditions":[-7.5328845E-4],"split_indices":[0],"split_type":[0],"sum_hessian":[8.420255E4],"tree_param":{"num_deleted":"0","num_feature":"14","num_nodes":"1","size_leaf_vector":"1"}},{"base_weights":[1.3692445E-3],"categories":[],"categories_nodes":[],"categories_segments":[],"categories_sizes":[],"default_left":[0],"id":74,"left_children":[-1],"loss_changes":[0E0],"parents":[2147483647],"right_children":[-1],"split_conditions":[8.546664E-4],"split_indices":[0],"split_type":[0],"sum_hessian":[8.433348E4],"tree_param":{"num_deleted":"0","num_feature":"14","num_nodes":"1","size_leaf_vector":"1"}},{"base_weights":[-2.516253E-3],"categories":[],"categories_nodes":[],"categories_segments":[],"categories_sizes":[],"default_left":[0],"id":75,"left_children":[-1],"loss_changes":[0E0],"parents":[2147483647],"right_children":[-1],"split_conditions":[-1.5706157E-3],"split_indices":[0],"split_type":[0],"sum_hessian":[8.4266484E4],"tree_param":{"num_deleted":"0","num_feature":"14","num_nodes":"1","size_leaf_vector":"1"}},{"base_weights":[4.9956114E-4],"categories":[],"categories_nodes":[],"categories_segments":[],"categories_sizes":[],"default_left":[0],"id":76,"left_children":[-1],"loss_changes":[0E0],"parents":[2147483647],"right_children":[-1],"split_conditions":[3.1182021E-4],"split_indices":[0],"split_type":[0],"sum_hessian":[8.420609E4],"tree_param":{"num_deleted":"0","num_feature":"14","num_nodes":"1","size_leaf_vector":"1"}},{"base_weights":[-0E0],"categories":[],"categories_nodes":[],"categories_segments":[],"categories_sizes":[],"default_left":[0],"id":77,"left_children":[-1],"loss_changes":[0E0],"parents":[2147483647],"right_children":[-1],"split_conditions":[-0E0],"split_indices":[0],"split_type":[0],"sum_hessian":[8.428452E4],"tree_param":{"num_deleted":"0","num_feature":"14","num_nodes":"1","size_leaf_vector":"1"}},{"base_weights":[-0E0],"categories":[],"categories_nodes":[],"categories_segments":[],"categories_sizes":[],"default_left":[0],"id":78,"left_children":[-1],"loss_changes":[0E0],"parents":[2147483647],"right_children":[-1],"split_conditions":[-0E0],"split_indices":[0],"split_type":[0],"sum_hessian":[8.416859E4],"tree_param":{"num_deleted":"0","num_feature":"14","num_nodes":"1","size_leaf_vector":"1"}},{"base_weights":[-2.5372885E-4],"categories":[],"categories_nodes":[],"categories_segments":[],"categories_sizes":[],"default_left":[0],"id":79,"left_children":[-1],"loss_changes":[0E0],"parents":[2147483647],"right_children":[-1],"split_conditions":[-1.5837458E-4],"split_indices":[0],"split_type":[0],"sum_hessian":[8.42228E4],"tree_param":{"num_deleted":"0","num_feature":"14","num_nodes":"1","size_leaf_vector":"1"}},{"base_weights":[1.7037786E-3],"categories":[],"categories_nodes":[],"categories_segments":[],"categories_sizes":[],"default_left":[0],"id":80,"left_children":[-1],"loss_changes":[0E0],"parents":[2147483647],"right_children":[-1],"split_conditions":[1.0634786E-3],"split_indices":[0],"split_type":[0],"sum_hessian":[8.430618E4],"tree_param":{"num_deleted":"0","num_feature":"14","num_nodes":"1","size_leaf_vector":"1"}},{"base_weights":[1.2751326E-3],"categories":[],"categories_nodes":[],"categories_segments":[],"categories_sizes":[],"default_left":[0],"id":81,"left_children":[-1],"loss_changes":[0E0],"parents":[2147483647],"right_children":[-1],"split_conditions":[7.959229E-4],"split_indices":[0],"split_type":[0],"sum_hessian":[8.431601E4],"tree_param":{"num_deleted":"0","num_feature":"14","num_nodes":"1","size_leaf_vector":"1"}},{"base_weights":[-4.8921676E-4],"categories":[],"categories_nodes":[],"categories_segments":[],"categories_sizes":[],"default_left":[0],"id":82,"left_children":[-1],"loss_changes":[0E0],"parents":[2147483647],"right_children":[-1],"split_conditions":[-3.0536338E-4],"split_indices":[0],"split_type":[0],"sum_hessian":[8.428319E4],"tree_param":{"num_deleted":"0","num_feature":"14","num_nodes":"1","size_leaf_vector":"1"}},{"base_weights":[-0E0],"categories":[],"categories_nodes":[],"categories_segments":[],"categories_sizes":[],"default_left":[0],"id":83,"left_children":[-1],"loss_changes":[0E0],"parents":[2147483647],"right_children":[-1],"split_conditions":[-0E0],"split_indices":[0],"split_type":[0],"sum_hessian":[8.424931E4],"tree_param":{"num_deleted":"0","num_feature":"14","num_nodes":"1","size_leaf_vector":"1"}},{"base_weights":[-2.3090036E-3],"categories":[],"categories_nodes":[],"categories_segments":[],"categories_sizes":[],"default_left":[0],"id":84,"left_children":[-1],"loss_changes":[0E0],"parents":[2147483647],"right_children":[-1],"split_conditions":[-1.441253E-3],"split_indices":[0],"split_type":[0],"sum_hessian":[8.423415E4],"tree_param":{"num_deleted":"0","num_feature":"14","num_nodes":"1","size_leaf_vector":"1"}},{"base_weights":[1.03188E-5],"categories":[],"categories_nodes":[],"categories_segments":[],"categories_sizes":[],"default_left":[0],"id":85,"left_children":[-1],"loss_changes":[0E0],"parents":[2147483647],"right_children":[-1],"split_conditions":[6.4408746E-6],"split_indices":[0],"split_type":[0],"sum_hessian":[8.429475E4],"tree_param":{"num_deleted":"0","num_feature":"14","num_nodes":"1","size_leaf_vector":"1"}},{"base_weights":[3.1416144E-3],"categories":[],"categories_nodes":[],"categories_segments":[],"categories_sizes":[],"default_left":[0],"id":86,"left_children":[-1],"loss_changes":[0E0],"parents":[2147483647],"right_children":[-1],"split_conditions":[1.960959E-3],"split_indices":[0],"split_type":[0],"sum_hessian":[8.4209234E4],"tree_param":{"num_deleted":"0","num_feature":"14","num_nodes":"1","size_leaf_vector":"1"}},{"base_weights":[5.9875083E-4],"categories":[],"categories_nodes":[],"categories_segments":[],"categories_sizes":[],"default_left":[0],"id":87,"left_children":[-1],"loss_changes":[0E0],"parents":[2147483647],"right_children":[-1],"split_conditions":[3.7373326E-4],"split_indices":[0],"split_type":[0],"sum_hessian":[8.4227445E4],"tree_param":{"num_deleted":"0","num_feature":"14","num_nodes":"1","size_leaf_vector":"1"}},{"base_weights":[-2.171219E-3],"categories":[],"categories_nodes":[],"categories_segments":[],"categories_sizes":[],"default_left":[0],"id":88,"left_children":[-1],"loss_changes":[0E0],"parents":[2147483647],"right_children":[-1],"split_conditions":[-1.3552496E-3],"split_indices":[0],"split_type":[0],"sum_hessian":[8.424939E4],"tree_param":{"num_deleted":"0","num_feature":"14","num_nodes":"1","size_leaf_vector":"1"}},{"base_weights":[-2.0190724E-3],"categories":[],"categories_nodes":[],"categories_segments":[],"categories_sizes":[],"default_left":[0],"id":89,"left_children":[-1],"loss_changes":[0E0],"parents":[2147483647],"right_children":[-1],"split_conditions":[-1.2602814E-3],"split_indices":[0],"split_type":[0],"sum_hessian":[8.424024E4],"tree_param":{"num_deleted":"0","num_feature":"14","num_nodes":"1","size_leaf_vector":"1"}},{"base_weights":[-0E0],"categories":[],"categories_nodes":[],"categories_segments":[],"categories_sizes":[],"default_left":[0],"id":90,"left_children":[-1],"loss_changes":[0E0],"parents":[2147483647],"right_children":[-1],"split_conditions":[-0E0],"split_indices":[0],"split_type":[0],"sum_hessian":[8.4268086E4],"tree_param":{"num_deleted":"0","num_feature":"14","num_nodes":"1","size_leaf_vector":"1"}},{"base_weights":[1.8165328E-3],"categories":[],"categories_nodes":[],"categories_segments":[],"categories_sizes":[],"default_left":[0],"id":91,"left_children":[-1],"loss_changes":[0E0],"parents":[2147483647],"right_children":[-1],"split_conditions":[1.1338586E-3],"split_indices":[0],"split_type":[0],"sum_hessian":[8.432497E4],"tree_param":{"num_deleted":"0","num_feature":"14","num_nodes":"1","size_leaf_vector":"1"}},{"base_weights":[7.166962E-5],"categories":[],"categories_nodes":[],"categories_segments":[],"categories_sizes":[],"default_left":[0],"id":92,"left_children":[-1],"loss_changes":[0E0],"parents":[2147483647],"right_children":[-1],"split_conditions":[4.473534E-5],"split_indices":[0],"split_type":[0],"sum_hessian":[8.42283E4],"tree_param":{"num_deleted":"0","num_feature":"14","num_nodes":"1","size_leaf_vector":"1"}},{"base_weights":[-7.0623023E-4],"categories":[],"categories_nodes":[],"categories_segments":[],"categories_sizes":[],"default_left":[0],"id":93,"left_children":[-1],"loss_changes":[0E0],"parents":[2147483647],"right_children":[-1],"split_conditions":[-4.4082064E-4],"split_indices":[0],"split_type":[0],"sum_hessian":[8.4316305E4],"tree_param":{"num_deleted":"0","num_feature":"14","num_nodes":"1","size_leaf_vector":"1"}},{"base_weights":[6.4007944E-4],"categories":[],"categories_nodes":[],"categories_segments":[],"categories_sizes":[],"default_left":[0],"id":94,"left_children":[-1],"loss_changes":[0E0],"parents":[2147483647],"right_children":[-1],"split_conditions":[3.995301E-4],"split_indices":[0],"split_type":[0],"sum_hessian":[8.431305E4],"tree_param":{"num_deleted":"0","num_feature":"14","num_nodes":"1","size_leaf_vector":"1"}},{"base_weights":[5.018619E-4],"categories":[],"categories_nodes":[],"categories_segments":[],"categories_sizes":[],"default_left":[0],"id":95,"left_children":[-1],"loss_changes":[0E0],"parents":[2147483647],"right_children":[-1],"split_conditions":[3.1325634E-4],"split_indices":[0],"split_type":[0],"sum_hessian":[8.426345E4],"tree_param":{"num_deleted":"0","num_feature":"14","num_nodes":"1","size_leaf_vector":"1"}},{"base_weights":[1.6572698E-3],"categories":[],"categories_nodes":[],"categories_segments":[],"categories_sizes":[],"default_left":[0],"id":96,"left_children":[-1],"loss_changes":[0E0],"parents":[2147483647],"right_children":[-1],"split_conditions":[1.0344484E-3],"split_indices":[0],"split_type":[0],"sum_hessian":[8.431535E4],"tree_param":{"num_deleted":"0","num_feature":"14","num_nodes":"1","size_leaf_vector":"1"}},{"base_weights":[-4.583749E-4],"categories":[],"categories_nodes":[],"categories_segments":[],"categories_sizes":[],"default_left":[0],"id":97,"left_children":[-1],"loss_changes":[0E0],"parents":[2147483647],"right_children":[-1],"split_conditions":[-2.8611225E-4],"split_indices":[0],"split_type":[0],"sum_hessian":[8.425474E4],"tree_param":{"num_deleted":"0","num_feature":"14","num_nodes":"1","size_leaf_vector":"1"}},{"base_weights":[-9.628551E-4],"categories":[],"categories_nodes":[],"categories_segments":[],"categories_sizes":[],"default_left":[0],"id":98,"left_children":[-1],"loss_changes":[0E0],"parents":[2147483647],"right_children":[-1],"split_conditions":[-6.010029E-4],"split_indices":[0],"split_type":[0],"sum_hessian":[8.4207695E4],"tree_param":{"num_deleted":"0","num_feature":"14","num_nodes":"1","size_leaf_vector":"1"}},{"base_weights":[1.5096899E-4],"categories":[],"categories_nodes":[],"categories_segments":[],"categories_sizes":[],"default_left":[0],"id":99,"left_children":[-1],"loss_changes":[0E0],"parents":[2147483647],"right_children":[-1],"split_conditions":[9.423308E-5],"split_indices":[0],"split_type":[0],"sum_hessian":[8.4321875E4],"tree_param":{"num_deleted":"0","num_feature":"14","num_nodes":"1","size_leaf_vector":"1"}}]},"name":"gbtree"},"learner_model_param":{"base_score":"4.663258E-1","boost_from_average":"1","num_class":"0","num_feature":"14","num_target":"1"},"objective":{"name":"binary:logistic","reg_loss_param":{"scale_pos_weight":"1"}}},"version":[2,1,4]}