{"learner":{"attributes":{"scikit_learn":"{\"_estimator_type\": \"classifier\"}"},"feature_names":["velo","velo_diff","extension","extension_ratio","x0_ratio","z0_ratio","spin_rate","adj_spin_dir","HB_acc","IVB_acc","Break_acc","pitcherHand_L","pitcherHand_R"],"feature_types":["float","float","float","float","float","float","float","float","float","float","float","i","i"],"gradient_booster":{"model":{"gbtree_model_param":{"num_parallel_tree":"1","num_trees":"100"},"iteration_indptr":[0,1,2,3,4,5,6,7,8,9,10,11,12,13,14,15,16,17,18,19,20,21,22,23,24,25,26,27,28,29,30,31,32,33,34,35,36,37,38,39,40,41,42,43,44,45,46,47,48,49,50,51,52,53,54,55,56,57,58,59,60,61,62,63,64,65,66,67,68,69,70,71,72,73,74,75,76,77,78,79,80,81,82,83,84,85,86,87,88,89,90,91,92,93,94,95,96,97,98,99,100],"tree_info":[0,0,0,0,0,0,0,0,0,0,0,0,0,0,0,0,0,0,0,0,0,0,0,0,0,0,0,0,0,0,0,0,0,0,0,0,0,0,0,0,0,0,0,0,0,0,0,0,0,0,0,0,0,0,0,0,0,0,0,0,0,0,0,0,0,0,0,0,0,0,0,0,0,0,0,0,0,0,0,0,0,0,0,0,0,0,0,0,0,0,0,0,0,0,0,0,0,0,0,0],"trees":[{"base_weights":[-0E0,2.0589446E-1,-2.0012006E-1,2.940641E-1,8.7437935E-2,-9.4514966E-2,-3.5029677E-1,1.21005274E-1,3.2937536E-1,-1.3260342E-1,1.6344729E-1,-1.1031763E-2,-1.6179138E-1,-3.0122274E-1,-1.1502146E-1,-3.0040888E-2,1.4661887E-1,2.6982722E-1,3.6465308E-1,-2.5922278E-1,-5.117399E-2,-3.1323319E-3,1.7931676E-1,4.7891214E-2,-8.097372E-2,-5.312985E-2,-1.9691478E-1,-3.8621244E-1,-2.4386722E-1,2.8311256E-2,-2.2996044E-2,1.079107E-2,1.8946855E-1,3.2065746E-1,1.409289E-1,7.9763E-2,1.9340026E-1,-6.1612863E-2,-0E0,3.1998192E-3,-2.0885636E-1,5.682673E-2,2.0454904E-1,8.532941E-2,-1.0804181E-2,-3.7737858E-2,-1.7304499E-2,-2.9748868E-2,-9.021078E-3,-6.2336795E-2,-1.6578834E-1,-2.644118E-1,-9.364747E-2,-4.949013E-2,-3.1095544E-1,9.844225E-3,2.31581E-1,-0E0,6.8638824E-2,-3.937724E-2,1.8151775E-1,-1.36704445E-2,4.579952E-2,-5.4769278E-2,-0E0,-2.8949952E-2,1.9803308E-2,5.2171655E-2,1.5002517E-1,-8.115596E-3,1.1528957E-1,1.3030521E-2,-1.07255615E-2,2.4303705E-2,-1.3105752E-2,1.4457607E-2,-2.0181988E-1,-9.2844054E-2,-1.5775543E-1,8.833311E-3,-2.5582287E-2,-2.0635329E-1,-7.445852E-2,2.4600157E-1,-1.3038447E-2,7.562574E-3,4.5350794E-2,1.0570573E-2,4.271404E-2,3.527577E-2,5.146082E-2,-2.2839911E-1,-9.048606E-2,9.860216E-3,-4.114763E-2,-6.760233E-2,-2.7934998E-2,-5.2891765E-3,5.4678448E-2,-9.360812E-3,2.8182024E-2,-2.421037E-1,-1.0294709E-2,-0E0,-3.141859E-2,-1.4719698E-1,-5.7540413E-2,-4.097648E-2,6.956699E-4],"categories":[],"categories_nodes":[],"categories_segments":[],"categories_sizes":[],"default_left":[0,0,1,1,0,1,0,1,0,0,0,0,0,0,0,0,0,0,0,0,0,0,0,0,0,0,0,0,0,0,0,0,0,0,1,0,1,0,0,0,0,0,0,0,0,0,0,0,0,0,0,0,0,0,0,0,0,0,0,0,0,0,0,0,0,0,0,0,0,0,0,0,0,0,0,0,1,0,0,0,0,0,0,0,0,0,0,0,0,0,0,0,0,0,0,0,0,0,0,0,0,0,0,0,0,0,0,0,0],"id":0,"left_children":[1,3,5,7,9,11,13,15,17,19,21,23,25,27,-1,29,31,33,35,37,39,-1,41,43,45,47,49,51,53,-1,-1,-1,55,57,59,-1,61,-1,-1,-1,63,65,67,69,-1,-1,71,-1,73,-1,75,77,-1,79,81,-1,83,-1,-1,-1,85,-1,-1,-1,-1,-1,-1,-1,87,-1,89,-1,-1,-1,-1,-1,91,-1,93,-1,-1,95,-1,97,-1,-1,-1,-1,-1,-1,99,101,103,-1,-1,-1,-1,-1,-1,-1,-1,105,-1,-1,-1,107,-1,-1,-1],"loss_changes":[3.5531724E3,4.3913025E2,6.875929E2,1.4210449E2,3.075266E2,1.434313E2,1.5622241E2,1.7749199E1,3.0176758E1,4.513755E1,4.010614E1,4.8522537E1,5.159857E1,5.950708E1,0E0,9.19283E0,1.2531288E1,4.448712E1,2.2954102E1,1.4604828E1,3.3081436E1,0E0,3.59834E1,2.4036562E1,3.2300495E1,1.2917875E1,2.6108734E1,2.7733337E1,1.1309741E2,0E0,0E0,0E0,1.187973E1,9.0720825E0,3.4266567E1,0E0,1.0022453E1,0E0,0E0,0E0,9.591579E0,1.7428604E1,1.9070312E1,1.8247128E1,0E0,0E0,9.324638E0,0E0,1.7179506E1,0E0,7.2786224E1,3.0275131E1,0E0,1.7038868E1,2.0775879E1,0E0,1.03695755E1,0E0,0E0,0E0,8.463875E0,0E0,0E0,0E0,0E0,0E0,0E0,0E0,2.3352722E1,0E0,1.0555122E1,0E0,0E0,0E0,0E0,0E0,1.7613556E1,0E0,1.3271412E1,0E0,0E0,1.1871407E1,0E0,9.449516E0,0E0,0E0,0E0,0E0,0E0,0E0,1.6283867E1,1.1089691E1,8.742773E0,0E0,0E0,0E0,0E0,0E0,0E0,0E0,0E0,1.0012024E1,0E0,0E0,0E0,1.2862095E1,0E0,0E0,0E0],"parents":[2147483647,0,0,1,1,2,2,3,3,4,4,5,5,6,6,7,7,8,8,9,9,10,10,11,11,12,12,13,13,15,15,16,16,17,17,18,18,19,19,20,20,22,22,23,23,24,24,25,25,26,26,27,27,28,28,32,32,33,33,34,34,36,36,40,40,41,41,42,42,43,43,46,46,48,48,50,50,51,51,53,53,54,54,56,56,60,60,68,68,70,70,76,76,78,78,81,81,83,83,90,90,91,91,92,92,101,101,105,105],"right_children":[2,4,6,8,10,12,14,16,18,20,22,24,26,28,-1,30,32,34,36,38,40,-1,42,44,46,48,50,52,54,-1,-1,-1,56,58,60,-1,62,-1,-1,-1,64,66,68,70,-1,-1,72,-1,74,-1,76,78,-1,80,82,-1,84,-1,-1,-1,86,-1,-1,-1,-1,-1,-1,-1,88,-1,90,-1,-1,-1,-1,-1,92,-1,94,-1,-1,96,-1,98,-1,-1,-1,-1,-1,-1,100,102,104,-1,-1,-1,-1,-1,-1,-1,-1,106,-1,-1,-1,108,-1,-1,-1],"split_conditions":[8.620204E1,6.0664677E1,1.2134316E2,6.489517E0,1.33E2,1.1007991E2,1.2472524E2,1.54E2,8.5422605E-1,1.24E2,8.290833E-1,9.39E1,9.3E1,1.44E2,-1.1502146E-1,8.47E1,-2.4738861E1,4.3855022E1,1.243513E2,8.8938814E-1,8.076578E1,-3.1323319E-3,1.4879757E1,2.342E3,1.47E2,1.44E2,1.4E2,1.005536E2,1.10485054E2,2.8311256E-2,-2.2996044E-2,1.079107E-2,1E0,4.8151104E1,1.12E2,7.9763E-2,5.664015E0,-6.1612863E-2,-0E0,3.1998192E-3,8.9781713E-1,8.769187E-1,7.62574E1,1.43E2,-1.0804181E-2,-3.7737858E-2,2.214E3,-2.9748868E-2,1.0338167E2,-6.2336795E-2,9.786198E1,1.31E2,-9.364747E-2,1.02873085E2,9.44E1,9.844225E-3,6.1369358E1,-0E0,6.8638824E-2,-3.937724E-2,1E0,-1.36704445E-2,4.579952E-2,-5.4769278E-2,-0E0,-2.8949952E-2,1.9803308E-2,5.2171655E-2,1.42E2,-8.115596E-3,9.646943E1,1.3030521E-2,-1.07255615E-2,2.4303705E-2,-1.3105752E-2,1.4457607E-2,6.888095E0,-9.2844054E-2,9.29E1,8.833311E-3,-2.5582287E-2,1.51E2,-7.445852E-2,8.130256E-1,-1.3038447E-2,7.562574E-3,4.5350794E-2,1.0570573E-2,4.271404E-2,3.527577E-2,1.55E2,5.8380814E1,9.5E1,9.860216E-3,-4.114763E-2,-6.760233E-2,-2.7934998E-2,-5.2891765E-3,5.4678448E-2,-9.360812E-3,2.8182024E-2,9.42E1,-1.0294709E-2,-0E0,-3.141859E-2,4.8266697E1,-5.7540413E-2,-4.097648E-2,6.956699E-4],"split_indices":[9,9,10,8,7,10,9,7,5,7,5,0,0,7,0,0,8,9,10,5,9,0,8,6,7,7,7,9,9,0,0,0,12,10,7,0,2,0,0,0,5,5,9,7,0,0,6,0,9,0,9,7,0,9,0,0,10,0,0,0,12,0,0,0,0,0,0,0,7,0,9,0,0,0,0,0,2,0,0,0,0,7,0,5,0,0,0,0,0,0,7,8,0,0,0,0,0,0,0,0,0,0,0,0,0,8,0,0,0],"split_type":[0,0,0,0,0,0,0,0,0,0,0,0,0,0,0,0,0,0,0,0,0,0,0,0,0,0,0,0,0,0,0,0,0,0,0,0,0,0,0,0,0,0,0,0,0,0,0,0,0,0,0,0,0,0,0,0,0,0,0,0,0,0,0,0,0,0,0,0,0,0,0,0,0,0,0,0,0,0,0,0,0,0,0,0,0,0,0,0,0,0,0,0,0,0,0,0,0,0,0,0,0,0,0,0,0,0,0,0,0],"sum_hessian":[8.609024E4,4.243664E4,4.3653598E4,2.4229352E4,1.8207291E4,2.5729766E4,1.7923832E4,4.197624E3,2.0031727E4,4.634384E3,1.3572906E4,1.1571276E4,1.4158488E4,1.4539502E4,3.3843296E3,5.624373E2,3.6351865E3,7.7666123E3,1.2265115E4,1.7146873E3,2.9196968E3,1.0688798E3,1.2504026E4,6.231855E3,5.3394214E3,3.5572915E3,1.0601196E4,5.6370654E3,8.902437E3,1.3463654E2,4.2780078E2,1.2343757E3,2.400811E3,5.449669E3,2.316943E3,1.1124811E4,1.1403043E3,1.4897123E3,2.2497493E2,2.0650906E3,8.546061E2,2.2288445E3,1.0275183E4,4.59133E3,1.6405251E3,1.9916752E3,3.3477463E3,1.0698752E3,2.4874163E3,2.307486E3,8.293711E3,2.0342312E3,3.602834E3,2.3463093E3,6.5561274E3,6.246538E2,1.7761571E3,1.3165015E2,5.318019E3,2.0481677E2,2.1121262E3,6.221652E1,1.0780878E3,6.6198376E2,1.9262233E2,2.9540402E2,1.9334404E3,5.459375E3,4.815807E3,8.3842975E2,3.7529004E3,9.1259186E2,2.4351545E3,6.7641797E2,1.8109984E3,1.0661422E3,7.2275684E3,6.495404E2,1.3846908E3,1.0016859E3,1.3446234E3,2.112624E3,4.4435034E3,1.7296191E3,4.6537956E1,4.7782285E2,1.6343035E3,1.7833743E3,3.032433E3,1.9217438E3,1.8311565E3,5.7167026E3,1.5108658E3,1.8366316E2,1.2010276E3,6.81893E2,1.430731E3,5.823466E1,1.6713845E3,8.195159E2,1.01164056E3,5.2468433E3,4.6985913E2,6.1494806E2,8.9591785E2,1.4904589E3,3.7563845E3,1.1527476E3,3.3771124E2],"tree_param":{"num_deleted":"0","num_feature":"13","num_nodes":"109","size_leaf_vector":"1"}},{"base_weights":[-8.737175E-4,1.3623396E-1,-1.9628304E-1,2.1970373E-1,2.582814E-2,-1.3299179E-1,-3.411231E-1,1.0206542E-1,2.5193706E-1,-1.3499236E-1,8.633683E-2,-2.3768052E-1,-4.7008503E-2,-2.6219407E-1,-4.0558946E-1,1.0099165E-1,8.508562E-2,2.868203E-1,1.9754781E-1,-1.8133582E-1,-5.6664483E-3,1.9081708E-2,1.2570463E-1,-3.2435054E-1,-1.8590455E-1,2.4590731E-6,-1.3092844E-1,-7.545181E-2,-3.6489002E-2,-1.01281844E-1,-3.331322E-1,-8.567461E-2,1.11122444E-1,2.9357904E-1,1.1146027E-2,-0E0,5.1124208E-2,-6.424431E-2,-1.3662599E-1,9.200104E-3,-3.3384223E-2,-5.1757134E-2,6.3420825E-2,1.4149469E-1,-0E0,-5.237747E-2,-8.4328555E-2,-1.04276426E-1,-5.0928857E-2,-3.2639395E-2,8.1190854E-2,-4.3472584E-2,-1.8047895E-2,-0E0,-7.2396174E-2,2.126685E-2,-3.8006864E-2,9.941102E-3,1.4759657E-1,6.279964E-2,8.423974E-2,-7.025874E-3,-4.3308083E-2,-4.4229295E-2,-3.1402814E-3,-3.742993E-3,2.3582976E-2,1.7195271E-1,7.304749E-2,2.6056452E-3,-2.7395269E-2,-1.9485708E-3,-2.7721042E-2,-1.9219903E-2,1.06206134E-1,7.4003213E-3,3.7298594E-2,4.7112018E-2,-2.8343989E-2,2.141621E-2,4.4377737E-2,-3.0419277E-2,1.8714422E-2,1.8406251E-1,8.349295E-3,5.0863907E-2,-0E0],"categories":[],"categories_nodes":[],"categories_segments":[],"categories_sizes":[],"default_left":[0,0,0,1,0,1,0,0,0,0,0,0,0,0,0,0,1,0,1,0,0,0,0,0,0,0,0,0,0,0,0,0,0,0,0,0,0,0,0,0,0,1,1,0,0,0,0,0,0,0,0,0,0,0,0,0,0,0,0,0,0,0,0,0,0,0,0,0,0,0,0,0,0,0,0,0,0,0,0,0,0,0,0,0,0,0,0],"id":1,"left_children":[1,3,5,7,9,11,13,15,17,19,21,23,25,27,29,-1,31,33,35,37,39,41,43,45,47,49,51,-1,-1,-1,53,55,57,59,-1,-1,-1,-1,61,-1,-1,63,65,67,-1,-1,-1,69,-1,71,73,-1,-1,-1,-1,-1,-1,-1,75,-1,77,-1,-1,-1,-1,-1,-1,79,81,-1,-1,-1,-1,-1,83,-1,-1,-1,-1,-1,-1,-1,-1,85,-1,-1,-1],"loss_changes":[2.3102605E3,4.6434607E2,3.19104E2,1.0453491E2,2.1380426E2,2.2119089E2,4.172473E1,3.3600555E1,3.480432E1,3.434005E1,4.1081543E1,4.180371E1,5.549965E1,3.5036194E1,1.4001587E1,0E0,2.8447266E1,1.7417114E1,8.35094E1,1.7857529E1,1.4308067E1,1.9391907E1,2.0038605E1,1.1000458E1,2.8949478E1,2.4057205E1,1.3604515E1,0E0,0E0,0E0,1.4931641E1,1.6606348E1,1.0640244E1,1.0793823E1,0E0,0E0,0E0,0E0,2.1997593E1,0E0,0E0,1.1508833E1,1.6141556E1,1.5736618E1,0E0,0E0,0E0,1.0694935E1,0E0,1.344659E1,1.2186325E1,0E0,0E0,0E0,0E0,0E0,0E0,0E0,9.24617E0,0E0,1.7761158E1,0E0,0E0,0E0,0E0,0E0,0E0,1.2652344E1,1.0864451E1,0E0,0E0,0E0,0E0,0E0,9.978291E0,0E0,0E0,0E0,0E0,0E0,0E0,0E0,0E0,1.0304905E1,0E0,0E0,0E0],"parents":[2147483647,0,0,1,1,2,2,3,3,4,4,5,5,6,6,7,7,8,8,9,9,10,10,11,11,12,12,13,13,14,14,16,16,17,17,18,18,19,19,20,20,21,21,22,22,23,23,24,24,25,25,26,26,30,30,31,31,32,32,33,33,38,38,41,41,42,42,43,43,47,47,49,49,50,50,58,58,60,60,67,67,68,68,74,74,83,83],"right_children":[2,4,6,8,10,12,14,16,18,20,22,24,26,28,30,-1,32,34,36,38,40,42,44,46,48,50,52,-1,-1,-1,54,56,58,60,-1,-1,-1,-1,62,-1,-1,64,66,68,-1,-1,-1,70,-1,72,74,-1,-1,-1,-1,-1,-1,-1,76,-1,78,-1,-1,-1,-1,-1,-1,80,82,-1,-1,-1,-1,-1,84,-1,-1,-1,-1,-1,-1,-1,-1,86,-1,-1,-1],"split_conditions":[9.386891E1,6.7740005E1,1.1455687E2,3.970385E1,1.35E2,1.47E2,1.2059003E2,1.791E3,4.8164158E1,8.908593E-1,-2.6024476E-1,1.39E2,1.0794842E2,1.52E2,1.55E2,1.0099165E-1,1.42E2,1.2562866E2,1.26E2,1.23E2,2.312E3,8.8330793E-1,3.2955775E-1,1.01318436E2,1.0209139E2,1.58E2,-2.3769443E-1,-7.545181E-2,-3.6489002E-2,-1.01281844E-1,9.17E1,1.9867533E1,-1.8658392E1,5.29671E-1,1.1146027E-2,-0E0,5.1124208E-2,-6.424431E-2,8.076578E1,9.200104E-3,-3.3384223E-2,1.972488E1,1.0175059E0,2.311E3,-0E0,-5.237747E-2,-8.4328555E-2,9.23E1,-5.0928857E-2,2.411E3,9.758878E-1,-4.3472584E-2,-1.8047895E-2,-0E0,-7.2396174E-2,2.126685E-2,-3.8006864E-2,9.941102E-3,8.8178045E-1,6.279964E-2,1.5704403E1,-7.025874E-3,-4.3308083E-2,-4.4229295E-2,-3.1402814E-3,-3.742993E-3,2.3582976E-2,1.45E2,8.290833E-1,2.6056452E-3,-2.7395269E-2,-1.9485708E-3,-2.7721042E-2,-1.9219903E-2,1.0080267E2,7.4003213E-3,3.7298594E-2,4.7112018E-2,-2.8343989E-2,2.141621E-2,4.4377737E-2,-3.0419277E-2,1.8714422E-2,9.52E1,8.349295E-3,5.0863907E-2,-0E0],"split_indices":[9,9,9,8,7,7,9,6,9,5,4,7,9,7,7,0,7,8,7,7,6,5,4,9,9,7,4,0,0,0,0,9,8,4,0,0,0,0,9,0,0,8,3,6,0,0,0,0,0,6,3,0,0,0,0,0,0,0,5,0,9,0,0,0,0,0,0,7,5,0,0,0,0,0,9,0,0,0,0,0,0,0,0,0,0,0,0],"split_type":[0,0,0,0,0,0,0,0,0,0,0,0,0,0,0,0,0,0,0,0,0,0,0,0,0,0,0,0,0,0,0,0,0,0,0,0,0,0,0,0,0,0,0,0,0,0,0,0,0,0,0,0,0,0,0,0,0,0,0,0,0,0,0,0,0,0,0,0,0,0,0,0,0,0,0,0,0,0,0,0,0,0,0,0,0,0,0],"sum_hessian":[8.606769E4,5.0568395E4,3.5499293E4,2.8716041E4,2.1852355E4,2.4837963E4,1.066133E4,6.292843E3,2.2423197E4,5.9145283E3,1.5937826E4,1.1102267E4,1.3735697E4,5.011671E3,5.649659E3,1.6552077E2,6.1273223E3,1.3386104E4,9.037095E3,4.288284E3,1.6262444E3,5.9976084E3,9.940218E3,3.953679E3,7.1485874E3,8.790151E3,4.9455454E3,2.2353584E3,2.7763125E3,2.4869326E3,3.1627266E3,7.4902136E2,5.378301E3,1.2959327E4,4.2677618E2,1.7148013E3,7.322293E3,9.7349133E2,3.3147927E3,1.2297561E3,3.9648837E2,2.2361667E3,3.7614417E3,8.83118E3,1.1090383E3,2.219849E3,1.73383E3,3.074272E3,4.0743154E3,6.2313467E3,2.5588052E3,1.6719385E3,3.273607E3,9.399757E1,3.068729E3,2.2387538E2,5.2514594E2,2.0958743E3,3.2824265E3,1.2547852E4,4.114755E2,1.4259618E3,1.8888308E3,3.1611987E2,1.9200468E3,1.371537E3,2.3899045E3,5.9570234E3,2.8741562E3,5.1741187E2,2.55686E3,5.174207E3,1.0571396E3,2.5973752E2,2.2990676E3,7.830039E2,2.4994226E3,2.7170193E2,1.3977357E2,2.3177505E3,3.6392727E3,1.2509003E2,2.7490664E3,9.45326E2,1.3537416E3,6.898531E2,2.5547287E2],"tree_param":{"num_deleted":"0","num_feature":"13","num_nodes":"87","size_leaf_vector":"1"}},{"base_weights":[8.667139E-5,1.20429374E-1,-1.4392212E-1,1.7499886E-1,3.3193525E-2,-7.9269506E-2,-2.4572143E-1,8.053519E-2,2.0088597E-1,-9.868011E-2,8.712975E-2,1.2074856E-2,-1.1699452E-1,-2.2643866E-1,-1.0107289E-1,-6.46667E-3,9.9296965E-2,2.1543105E-1,2.0191537E-2,-2.0283008E-1,-3.9095443E-2,-4.5919186E-3,1.07200265E-1,-4.0616754E-2,6.55583E-2,-1.7858224E-1,-7.5872876E-2,-2.0241316E-1,-3.1256238E-1,4.098815E-2,-2.0751083E-2,6.4905467E-3,2.9528784E-2,2.2730976E-1,9.0872176E-2,-1.1497638E-1,-6.2435523E-2,2.4801996E-3,-2.2540996E-2,3.94021E-2,1.2464836E-1,-6.4745196E-3,-2.84532E-2,-3.9892294E-3,1.062196E-1,-1.9995423E-2,-4.4704527E-2,-2.7312484E-2,-3.338891E-2,-2.469556E-1,-1.3600552E-1,-0E0,-6.900147E-2,-1.99626E-2,4.8663687E-2,3.9277326E-2,-1.8331371E-3,-3.7983008E-2,-0E0,-6.778316E-3,1.0190785E-1,5.3663753E-2,3.1167846E-2,-1.6940393E-2,8.546222E-3,1.3664171E-1,-9.3735335E-4,-1.7524313E-2,3.1013705E-3,-2.0272614E-1,-6.658284E-2,-2.3676802E-3,-3.9128177E-2,2.888753E-2,-4.4222735E-2,-3.570606E-2,4.5687605E-2,2.9972987E-2,-1.2309817E-2,1.0182947E-1,-6.5084295E-3,3.3685654E-2,-1.0978618E-2,7.1819653E-3,-3.2142453E-2,-4.9868718E-2,-7.0104636E-2,3.8597737E-2,-7.182557E-3,3.0831082E-2,-2.084891E-3,-3.6138017E-2,4.0835235E-3],"categories":[],"categories_nodes":[],"categories_segments":[],"categories_sizes":[],"default_left":[0,0,1,1,0,0,0,1,0,0,0,0,1,0,0,0,0,0,0,0,0,0,1,0,1,0,0,0,0,0,0,0,0,0,0,1,0,0,0,0,1,0,0,0,0,0,0,0,0,0,0,0,0,0,0,0,0,0,0,0,0,0,0,0,0,0,0,0,0,1,0,0,0,0,0,0,0,0,0,0,0,0,0,0,0,0,0,0,0,0,0,0,0],"id":2,"left_children":[1,3,5,7,9,11,13,15,17,19,21,23,25,27,-1,29,31,33,-1,35,37,-1,39,41,43,45,47,49,51,-1,-1,-1,-1,53,55,57,-1,-1,-1,59,61,63,-1,-1,65,-1,-1,67,-1,69,71,-1,-1,73,-1,-1,75,-1,-1,-1,77,79,-1,-1,-1,81,-1,-1,83,85,-1,-1,-1,-1,-1,-1,87,-1,-1,89,-1,-1,-1,-1,-1,-1,91,-1,-1,-1,-1,-1,-1],"loss_changes":[1.4919965E3,2.2137885E2,2.5383295E2,6.7059875E1,1.3001994E2,8.399721E1,5.545587E1,1.1188465E1,3.03031E1,3.027581E1,2.928415E1,2.0257082E1,4.040999E1,2.0699158E1,0E0,2.1626984E1,1.3431343E1,2.5055359E1,0E0,9.743027E0,1.299477E1,0E0,1.1435516E1,1.0246772E1,1.320993E1,1.5442398E1,4.05662E1,2.8133331E1,1.3501495E1,0E0,0E0,0E0,0E0,2.2346985E1,1.8318336E1,8.429963E0,0E0,0E0,0E0,1.1806152E1,1.2540695E1,1.0111324E1,0E0,0E0,9.514824E0,0E0,0E0,1.2206644E1,0E0,1.1932068E1,2.8422638E1,0E0,0E0,1.3547814E1,0E0,0E0,9.461878E0,0E0,0E0,0E0,1.0400191E1,1.0480927E1,0E0,0E0,0E0,1.05896225E1,0E0,0E0,2.0685724E1,1.650055E1,0E0,0E0,0E0,0E0,0E0,0E0,1.0391574E1,0E0,0E0,9.203121E0,0E0,0E0,0E0,0E0,0E0,0E0,1.1078926E1,0E0,0E0,0E0,0E0,0E0,0E0],"parents":[2147483647,0,0,1,1,2,2,3,3,4,4,5,5,6,6,7,7,8,8,9,9,10,10,11,11,12,12,13,13,15,15,16,16,17,17,19,19,20,20,22,22,23,23,24,24,25,25,26,26,27,27,28,28,33,33,34,34,35,35,39,39,40,40,41,41,44,44,47,47,49,49,50,50,53,53,56,56,60,60,61,61,65,65,68,68,69,69,76,76,79,79,86,86],"right_children":[2,4,6,8,10,12,14,16,18,20,22,24,26,28,-1,30,32,34,-1,36,38,-1,40,42,44,46,48,50,52,-1,-1,-1,-1,54,56,58,-1,-1,-1,60,62,64,-1,-1,66,-1,-1,68,-1,70,72,-1,-1,74,-1,-1,76,-1,-1,-1,78,80,-1,-1,-1,82,-1,-1,84,86,-1,-1,-1,-1,-1,-1,88,-1,-1,90,-1,-1,-1,-1,-1,-1,92,-1,-1,-1,-1,-1,-1],"split_conditions":[9.0536255E1,6.7740005E1,1.22982925E2,3.970385E1,1.35E2,9.3E1,1.3243187E2,1.46E2,1.22982925E2,1.26E2,-3.436064E-1,1.52E2,1.47E2,1.1945273E-1,-1.0107289E-1,8.47E1,-1.8658392E1,3.9619792E-1,2.0191537E-2,7.9022095E1,8.2410934E1,-4.5919186E-3,2.516447E1,1.0390614E2,6.2326593E0,9.589715E1,1.093501E2,-2.1307468E-1,2.7475338E1,4.098815E-2,-2.0751083E-2,6.4905467E-3,2.9528784E-2,-5.337524E-1,3.0564014E1,-6.5E-1,-6.2435523E-2,2.4801996E-3,-2.2540996E-2,-1.6873589E-1,1.0024494E0,1.0257988E0,-2.84532E-2,-3.9892294E-3,1.1165225E2,-1.9995423E-2,-4.4704527E-2,-2.5747657E-1,-3.338891E-2,1.1791724E2,1.13878E2,-0E0,-6.900147E-2,1.5704403E1,4.8663687E-2,3.9277326E-2,1.11E2,-3.7983008E-2,-0E0,-6.778316E-3,3.3426952E-1,6.12879E0,3.1167846E-2,-1.6940393E-2,8.546222E-3,3.0052966E-1,-9.3735335E-4,-1.7524313E-2,2.2833753E-1,1.49E2,-6.658284E-2,-2.3676802E-3,-3.9128177E-2,2.888753E-2,-4.4222735E-2,-3.570606E-2,9.07E1,2.9972987E-2,-1.2309817E-2,9.52E1,-6.5084295E-3,3.3685654E-2,-1.0978618E-2,7.1819653E-3,-3.2142453E-2,-4.9868718E-2,6.561855E0,3.8597737E-2,-7.182557E-3,3.0831082E-2,-2.084891E-3,-3.6138017E-2,4.0835235E-3],"split_indices":[9,9,10,8,7,0,9,7,10,7,4,7,7,4,0,0,8,4,0,9,9,0,8,9,2,9,9,4,8,0,0,0,0,4,9,1,0,0,0,4,3,3,0,0,9,0,0,4,0,9,9,0,0,9,0,0,7,0,0,0,4,2,0,0,0,4,0,0,4,7,0,0,0,0,0,0,0,0,0,0,0,0,0,0,0,0,2,0,0,0,0,0,0],"split_type":[0,0,0,0,0,0,0,0,0,0,0,0,0,0,0,0,0,0,0,0,0,0,0,0,0,0,0,0,0,0,0,0,0,0,0,0,0,0,0,0,0,0,0,0,0,0,0,0,0,0,0,0,0,0,0,0,0,0,0,0,0,0,0,0,0,0,0,0,0,0,0,0,0,0,0,0,0,0,0,0,0,0,0,0,0,0,0,0,0,0,0,0,0],"sum_hessian":[8.595788E4,4.6862707E4,3.909518E4,2.872919E4,1.8133518E4,2.4035377E4,1.5059804E4,6.3083433E3,2.2420846E4,5.204217E3,1.29293E4,6.978758E3,1.705662E4,1.4083336E4,9.764676E2,1.0533232E3,5.2550195E3,1.95523E4,2.8685461E3,1.783019E3,3.421198E3,1.9485522E3,1.0980747E4,3.4503088E3,3.5284492E3,6.6562886E3,1.040033E4,1.1271239E4,2.812097E3,2.7906778E2,7.742555E2,2.102006E3,3.1530137E3,1.7738354E4,1.813947E3,1.0507262E3,7.3229285E2,1.9288573E3,1.4923407E3,2.3874739E3,8.593273E3,2.655322E3,7.949867E2,1.0955024E3,2.4329468E3,2.0947534E3,4.561535E3,6.6888267E3,3.711503E3,6.5584575E3,4.7127817E3,1.5394962E2,2.6581472E3,2.899351E2,1.7448418E4,8.9509E2,9.18857E2,6.381494E2,4.125768E2,1.0696957E3,1.3177782E3,2.305801E3,6.287472E3,1.0765712E3,1.578751E3,1.9507222E3,4.8222458E2,2.394852E3,4.2939746E3,4.2673447E3,2.291113E3,1.4279749E3,3.284807E3,1.4724718E2,1.4268791E2,1.9768402E2,7.21173E2,1.0952654E3,2.2251285E2,1.5195125E3,7.862887E2,1.7780966E3,1.7262561E2,3.669508E3,6.244665E2,3.2854492E3,9.818955E2,2.6575125E2,4.5542172E2,1.1163823E3,4.031302E2,4.686153E2,5.1328015E2],"tree_param":{"num_deleted":"0","num_feature":"13","num_nodes":"93","size_leaf_vector":"1"}},{"base_weights":[-2.8343443E-3,1.0579023E-1,-1.0966677E-1,1.5815848E-1,5.2508302E-2,-6.862083E-2,-2.2108495E-1,7.743496E-2,1.8525298E-1,-7.620463E-2,8.8390075E-2,-1.6464895E-1,-2.5918473E-2,-1.7530005E-1,-6.436162E-2,6.41097E-2,1.3289879E-2,4.484349E-2,1.4191546E-1,-3.0205043E-2,-5.632954E-3,4.174451E-3,1.0427109E-1,-6.0440145E-2,-1.3668294E-1,2.1161718E-2,-7.335825E-2,-5.1245276E-2,-1.2475327E-1,1.543509E-1,9.478882E-4,6.1965704E-2,-1.6405419E-2,1.3580075E-1,6.6592254E-2,-5.477407E-2,-3.906976E-2,7.3040396E-2,-1.3220316E-2,-1.2167129E-1,-3.0820562E-2,-1.5529042E-1,-2.9363716E-3,-2.1173076E-3,1.628391E-1,2.245855E-2,-1.7448444E-2,3.0686213E-2,-3.910477E-4,4.092611E-3,1.0581487E-1,6.5460717E-3,-1.7885307E-2,2.6406962E-2,2.988842E-2,-7.926228E-3,1.6037412E-2,-1.456145E-1,-5.042473E-3,5.6305854E-3,-1.3371879E-2,-0E0,-3.730099E-2,3.555807E-2,-7.2710398E-3,2.5772119E-2,-5.0346726E-3,1.394412E-2,-1.782893E-2,-1.65824E-1,-0E0,1.489608E-2,-2.2609118E-2,5.167298E-3,-3.701293E-2],"categories":[],"categories_nodes":[],"categories_segments":[],"categories_sizes":[],"default_left":[0,0,0,1,1,0,0,0,0,0,0,0,0,0,0,0,0,0,0,0,0,0,0,0,0,0,1,0,0,0,0,0,0,1,0,0,0,1,0,1,0,0,0,0,0,0,0,0,0,0,1,0,0,0,0,0,0,1,0,0,0,0,0,0,0,0,0,0,0,1,0,0,0,0,0],"id":3,"left_children":[1,3,5,7,9,11,13,15,17,19,21,23,25,27,-1,-1,-1,-1,29,-1,-1,31,33,-1,35,37,39,-1,41,43,-1,45,-1,47,49,51,-1,53,55,57,59,61,-1,-1,63,-1,-1,-1,-1,-1,65,-1,-1,67,-1,-1,-1,69,71,-1,-1,-1,-1,-1,-1,-1,-1,-1,-1,73,-1,-1,-1,-1,-1],"loss_changes":[9.966421E2,1.1647101E2,1.9481E2,4.3599792E1,9.882315E1,1.2869235E2,3.777661E1,1.3596283E1,1.4596741E1,1.3860779E1,2.1474518E1,2.7401306E1,5.0035553E1,2.2008026E1,0E0,0E0,0E0,0E0,1.0000549E1,0E0,0E0,1.3574505E1,1.4373535E1,0E0,3.030458E1,2.033702E1,2.143217E1,0E0,1.4409447E1,9.701538E0,0E0,1.2239744E1,0E0,1.183934E1,1.11036625E1,9.049956E0,0E0,1.3055477E1,1.4535851E1,1.3024582E1,1.2001095E1,1.1714653E1,0E0,0E0,9.025589E0,0E0,0E0,0E0,0E0,0E0,8.732643E0,0E0,0E0,1.3033222E1,0E0,0E0,0E0,1.2165161E1,8.648857E0,0E0,0E0,0E0,0E0,0E0,0E0,0E0,0E0,0E0,0E0,8.884979E0,0E0,0E0,0E0,0E0,0E0],"parents":[2147483647,0,0,1,1,2,2,3,3,4,4,5,5,6,6,7,7,8,8,9,9,10,10,11,11,12,12,13,13,18,18,21,21,22,22,24,24,25,25,26,26,28,28,29,29,31,31,33,33,34,34,35,35,37,37,38,38,39,39,40,40,41,41,44,44,50,50,53,53,57,57,58,58,69,69],"right_children":[2,4,6,8,10,12,14,16,18,20,22,24,26,28,-1,-1,-1,-1,30,-1,-1,32,34,-1,36,38,40,-1,42,44,-1,46,-1,48,50,52,-1,54,56,58,60,62,-1,-1,64,-1,-1,-1,-1,-1,66,-1,-1,68,-1,-1,-1,70,72,-1,-1,-1,-1,-1,-1,-1,-1,-1,-1,74,-1,-1,-1,-1,-1],"split_conditions":[8.620204E1,5.5683834E1,1.13548294E2,7.244388E1,1.31E2,1.42E2,1.335258E2,8.8349193E-1,1.0193144E2,1.23E2,-3.3622485E-1,1.31E2,1.0209139E2,1.54E2,-6.436162E-2,6.41097E-2,1.3289879E-2,4.484349E-2,1.41E2,-3.0205043E-2,-5.632954E-3,7.7183174E1,2.236E3,-6.0440145E-2,9.503955E1,2.222E3,1.51E2,-5.1245276E-2,3.8864117E1,-4.598621E-1,9.478882E-4,2.362E3,-1.6405419E-2,1.2860513E2,6.412894E0,2.161E3,-3.906976E-2,6.6758957E0,6.222077E1,6.894827E0,9.33E1,9.25E1,-2.9363716E-3,-2.1173076E-3,5.29671E-1,2.245855E-2,-1.7448444E-2,3.0686213E-2,-3.910477E-4,4.092611E-3,7.147099E0,6.5460717E-3,-1.7885307E-2,9.5E1,2.988842E-2,-7.926228E-3,1.6037412E-2,7.020177E1,7.1020555E0,5.6305854E-3,-1.3371879E-2,-0E0,-3.730099E-2,3.555807E-2,-7.2710398E-3,2.5772119E-2,-5.0346726E-3,1.394412E-2,-1.782893E-2,2.044E3,-0E0,1.489608E-2,-2.2609118E-2,5.167298E-3,-3.701293E-2],"split_indices":[9,9,9,10,7,7,10,3,8,7,4,7,9,7,0,0,0,0,7,0,0,9,6,0,9,6,7,0,8,4,0,6,0,10,2,6,0,2,8,2,0,0,0,0,4,0,0,0,0,0,2,0,0,0,0,0,0,8,2,0,0,0,0,0,0,0,0,0,0,6,0,0,0,0,0],"split_type":[0,0,0,0,0,0,0,0,0,0,0,0,0,0,0,0,0,0,0,0,0,0,0,0,0,0,0,0,0,0,0,0,0,0,0,0,0,0,0,0,0,0,0,0,0,0,0,0,0,0,0,0,0,0,0,0,0,0,0,0,0,0,0,0,0,0,0,0,0,0,0,0,0,0,0],"sum_hessian":[8.5736586E4,4.247569E4,4.32609E4,2.127587E4,2.1199822E4,3.175074E4,1.1510156E4,5.4890786E3,1.5786791E4,4.556324E3,1.6643498E4,9.653358E3,2.209738E4,7.703556E3,3.8066003E3,2.0045679E2,5.2886216E3,9.2476E3,6.5391914E3,1.7952549E3,2.7610693E3,2.7333286E3,1.391017E4,1.6079618E3,8.045397E3,1.1027818E4,1.10695625E4,3.0766985E3,4.626858E3,5.936016E3,6.0317554E2,1.6726619E3,1.0606667E3,7.357736E3,6.5524346E3,3.148251E3,4.897146E3,4.454095E3,6.5737236E3,5.033965E3,6.0355977E3,3.5487324E3,1.0781252E3,2.4537749E2,5.6906387E3,1.3319075E3,3.4075436E2,6.8873765E3,4.7035928E2,3.1174893E3,3.4349453E3,7.559993E2,2.3922517E3,2.7911116E3,1.6629835E3,5.261651E3,1.3120726E3,4.1059463E3,9.2801874E2,2.111506E3,3.9240916E3,4.873437E2,3.061389E3,5.554066E3,1.3657278E2,3.0936843E3,3.412608E2,2.126023E3,6.650885E2,3.5920537E3,5.138924E2,5.021824E2,4.2583636E2,1.4502103E2,3.4470327E3],"tree_param":{"num_deleted":"0","num_feature":"13","num_nodes":"75","size_leaf_vector":"1"}},{"base_weights":[-3.1902997E-3,7.5469755E-2,-9.1341E-2,1.15989245E-1,2.9145831E-2,-5.155185E-2,-1.6451924E-1,5.7789087E-2,1.3518181E-1,-2.3092275E-2,5.5893824E-2,2.692715E-2,-7.077956E-2,-8.94899E-2,-1.932805E-1,5.6212135E-2,9.80443E-3,1.03908315E-1,1.7080574E-1,-0E0,7.689148E-2,5.0677635E-2,-1.8917294E-2,-1.15807384E-1,-4.8711237E-2,-4.720008E-3,-2.6623398E-2,-1.4584953E-1,-5.0317362E-2,2.3008162E-2,-1.2047889E-2,4.4930886E-2,1.1028818E-1,-1.4740231E-2,4.5863993E-2,-4.4672064E-2,8.683635E-2,-2.5495159E-2,1.3032213E-2,-2.3491623E-2,-1.3562198E-1,-2.4483591E-2,-2.6342675E-2,-1.146632E-1,-5.8134697E-2,2.784351E-2,-0E0,1.3865808E-2,-2.2277877E-2,5.70077E-3,-3.5715953E-2,1.0447029E-1,5.4649836E-3,-2.552975E-2,1.5435376E-2,-3.7122272E-2,-1.5719382E-2,5.441482E-3,-5.357211E-2,-3.2621697E-2,-0E0,1.2081869E-1,6.545274E-3,-9.1894224E-2,-8.071752E-4,1.3865566E-1,8.603982E-3,7.5226175E-3,-2.4583278E-2,-1.6686961E-2,1.4450368E-1,3.5145637E-2,1.2740482E-2],"categories":[],"categories_nodes":[],"categories_segments":[],"categories_sizes":[],"default_left":[0,0,0,0,0,0,0,0,0,0,0,0,0,1,0,0,0,0,0,1,0,0,0,1,0,0,0,0,0,0,0,0,0,0,1,1,0,0,0,0,0,0,0,0,0,0,0,0,0,0,0,1,0,0,0,0,0,0,1,0,0,0,0,0,0,0,0,0,0,0,0,0,0],"id":4,"left_children":[1,3,5,7,9,11,13,15,17,-1,19,21,23,25,27,-1,-1,29,31,33,35,37,-1,39,41,-1,-1,43,-1,-1,-1,-1,45,-1,47,49,51,-1,-1,53,55,57,-1,59,-1,-1,-1,-1,-1,-1,-1,61,-1,-1,-1,-1,-1,-1,63,-1,-1,65,-1,67,-1,69,-1,-1,-1,-1,71,-1,-1],"loss_changes":[5.94426E2,8.354944E1,1.1550964E2,2.4757355E1,7.931952E1,4.029493E1,2.7071869E1,1.1005533E1,1.6521759E1,0E0,2.1022015E1,1.4380505E1,1.9462746E1,8.972176E0,1.6730438E1,0E0,0E0,9.986504E0,1.711322E1,1.6279554E1,1.638144E1,8.730663E0,0E0,1.1024727E1,2.5652714E1,0E0,0E0,1.6185616E1,0E0,0E0,0E0,0E0,8.807507E0,0E0,9.618643E0,1.0243825E1,1.1798622E1,0E0,0E0,1.4025547E1,1.0965843E1,1.6763025E1,0E0,2.1892403E1,0E0,0E0,0E0,0E0,0E0,0E0,0E0,9.665039E0,0E0,0E0,0E0,0E0,0E0,0E0,1.3007832E1,0E0,0E0,8.834251E0,0E0,1.3829273E1,0E0,8.998596E0,0E0,0E0,0E0,0E0,8.865433E0,0E0,0E0],"parents":[2147483647,0,0,1,1,2,2,3,3,4,4,5,5,6,6,7,7,8,8,10,10,11,11,12,12,13,13,14,14,17,17,18,18,19,19,20,20,21,21,23,23,24,24,27,27,32,32,34,34,35,35,36,36,39,39,40,40,41,41,43,43,51,51,58,58,61,61,63,63,65,65,70,70],"right_children":[2,4,6,8,10,12,14,16,18,-1,20,22,24,26,28,-1,-1,30,32,34,36,38,-1,40,42,-1,-1,44,-1,-1,-1,-1,46,-1,48,50,52,-1,-1,54,56,58,-1,60,-1,-1,-1,-1,-1,-1,-1,62,-1,-1,-1,-1,-1,-1,64,-1,-1,66,-1,68,-1,70,-1,-1,-1,-1,72,-1,-1],"split_conditions":[8.8918884E1,6.0101994E1,1.1105354E2,7.244388E1,8.290833E-1,9.24E1,9.42E1,5.396259E0,8.8250864E-1,-2.3092275E-2,8.8330793E-1,3.0862665E-1,-2.8682485E-1,-6.114286E0,1.1965452E2,5.6212135E-2,9.80443E-3,5.731338E-1,1.0771991E2,1.0223702E0,-3.7469304E-1,8.290833E-1,-1.8917294E-2,2.205E3,2.114744E-1,-4.720008E-3,-2.6623398E-2,1.3063593E-1,-5.0317362E-2,2.3008162E-2,-1.2047889E-2,4.4930886E-2,2.6283395E-1,-1.4740231E-2,1.2714287E2,2.272E3,2.2833753E-1,-2.5495159E-2,1.3032213E-2,6.6030974E0,9.0495795E-1,9.839461E1,-2.6342675E-2,-1.6678344E-1,-5.8134697E-2,2.784351E-2,-0E0,1.3865808E-2,-2.2277877E-2,5.70077E-3,-3.5715953E-2,2.385E3,5.4649836E-3,-2.552975E-2,1.5435376E-2,-3.7122272E-2,-1.5719382E-2,5.441482E-3,6.574103E0,-3.2621697E-2,-0E0,1.2187274E2,6.545274E-3,1.0771991E2,-8.071752E-4,6.4825386E1,8.603982E-3,7.5226175E-3,-2.4583278E-2,-1.6686961E-2,9.52E1,3.5145637E-2,1.2740482E-2],"split_indices":[9,9,9,10,5,0,0,2,5,0,5,4,4,1,9,0,0,4,10,3,4,5,0,6,4,0,0,4,0,0,0,0,4,0,10,6,4,0,0,2,5,9,0,4,0,0,0,0,0,0,0,6,0,0,0,0,0,0,2,0,0,10,0,10,0,10,0,0,0,0,0,0,0],"split_type":[0,0,0,0,0,0,0,0,0,0,0,0,0,0,0,0,0,0,0,0,0,0,0,0,0,0,0,0,0,0,0,0,0,0,0,0,0,0,0,0,0,0,0,0,0,0,0,0,0,0,0,0,0,0,0,0,0,0,0,0,0,0,0,0,0,0,0,0,0,0,0,0,0],"sum_hessian":[8.556555E4,4.5175375E4,4.039017E4,2.3949402E4,2.1225973E4,2.631289E4,1.4077284E4,6.112072E3,1.783733E4,3.3378245E3,1.7888148E4,5.0922285E3,2.1220662E4,4.0584688E3,1.0018815E4,1.8663266E2,5.925439E3,9.765965E3,8.0713647E3,4.9141753E3,1.2973974E4,4.323082E3,7.6914655E2,6.762219E3,1.4458442E4,1.5702853E3,2.4881833E3,5.1922827E3,4.8265327E3,9.499124E3,2.6684116E2,4.521443E3,3.5499219E3,1.9195524E3,2.994623E3,9.025055E2,1.2071468E4,1.8335472E2,4.1397275E3,1.2926534E3,5.469566E3,1.1142155E4,3.3162869E3,4.352478E3,8.3980444E2,2.9298838E3,6.2003815E2,2.7245256E3,2.7009744E2,5.7020734E2,3.3229816E2,9.217125E3,2.854343E3,6.736634E2,6.1899005E2,3.0960598E3,2.3735059E3,3.9808003E3,7.161355E3,3.2401985E3,1.1122795E3,7.410182E3,1.8069427E3,3.920918E3,3.240437E3,5.932966E3,1.4772164E3,5.9131384E2,3.3296042E3,9.621004E1,5.836756E3,4.4497153E3,1.3870405E3],"tree_param":{"num_deleted":"0","num_feature":"13","num_nodes":"73","size_leaf_vector":"1"}},{"base_weights":[-6.004316E-4,7.072105E-2,-6.380279E-2,2.557106E-2,4.97533E-2,-2.0140562E-2,-1.1384255E-1,-1.844337E-2,6.497398E-2,-6.697778E-2,6.9335336E-3,-8.542575E-2,-4.1591026E-2,-4.1864533E-3,7.821631E-2,-2.1935944E-3,-1.06099434E-1,5.8369588E-2,-4.1552518E-2,-3.3682927E-2,-5.6280028E-2,1.9719182E-2,9.8350525E-2,-1.7492875E-2,-4.317541E-2,7.581936E-2,-4.6079294E-3,-1.2547226E-2,7.1594384E-3,-9.441753E-2,-1.8637996E-2,1.4544525E-2,-2.3130164E-3,8.120319E-3,2.2957023E-2,2.0487245E-2,1.447673E-3,-1.13143384E-1,-0E0,-2.2866577E-2,4.867707E-3,-1.2816661E-2,-1.6417877E-1,-3.8215332E-3,1.794932E-2,-6.811132E-3,-4.3529194E-2],"categories":[],"categories_nodes":[],"categories_segments":[],"categories_sizes":[],"default_left":[0,0,0,0,0,1,0,0,0,0,0,0,0,0,1,0,0,0,1,0,1,0,0,0,0,0,0,0,0,1,0,0,0,0,0,0,0,0,0,0,0,0,0,0,0,0,0],"id":5,"left_children":[1,3,5,-1,7,9,11,-1,13,15,17,19,-1,-1,21,-1,23,25,27,-1,29,31,33,-1,-1,35,-1,-1,-1,37,39,-1,-1,-1,-1,-1,-1,41,-1,-1,43,-1,45,-1,-1,-1,-1],"loss_changes":[3.8552124E2,4.125769E1,9.7994064E1,0E0,6.0347763E1,3.1470798E1,4.705484E1,0E0,2.9728775E1,1.9036575E1,3.879827E1,3.2565727E1,0E0,0E0,2.546521E1,0E0,8.422367E0,1.11920395E1,1.1268852E1,0E0,1.5750347E1,9.596247E0,9.514511E0,0E0,0E0,8.664822E0,0E0,0E0,0E0,1.0529285E1,1.37439575E1,0E0,0E0,0E0,0E0,0E0,0E0,1.0205357E1,0E0,0E0,9.609261E0,0E0,1.0711086E1,0E0,0E0,0E0,0E0],"parents":[2147483647,0,0,1,1,2,2,4,4,5,5,6,6,8,8,9,9,10,10,11,11,14,14,16,16,17,17,18,18,20,20,21,21,22,22,25,25,29,29,30,30,37,37,40,40,42,42],"right_children":[2,4,6,-1,8,10,12,-1,14,16,18,20,-1,-1,22,-1,24,26,28,-1,30,32,34,-1,-1,36,-1,-1,-1,38,40,-1,-1,-1,-1,-1,-1,42,-1,-1,44,-1,46,-1,-1,-1,-1],"split_conditions":[8.353817E1,3.77783E1,9.49E1,2.557106E-2,1.23E2,1.46E2,1.1750007E2,-1.844337E-2,-5.970905E-1,9.386891E1,1.04687904E2,1.4E2,-4.1591026E-2,-4.1864533E-3,1.34E2,-2.1935944E-3,1.1019233E2,2.3785579E-1,1.0989553E0,-3.3682927E-2,6.574103E0,5.6818283E1,-3.3622485E-1,-1.7492875E-2,-4.317541E-2,2.354E3,-4.6079294E-3,-1.2547226E-2,7.1594384E-3,1.58E2,-3.2432264E-1,1.4544525E-2,-2.3130164E-3,8.120319E-3,2.2957023E-2,2.0487245E-2,1.447673E-3,1.0524487E2,-0E0,-2.2866577E-2,6.578802E1,-1.2816661E-2,6.170826E0,-3.8215332E-3,1.794932E-2,-6.811132E-3,-4.3529194E-2],"split_indices":[9,9,0,0,7,7,9,0,8,9,9,7,0,0,7,0,9,4,3,0,2,9,4,0,0,6,0,0,0,7,4,0,0,0,0,0,0,9,0,0,8,0,2,0,0,0,0],"split_type":[0,0,0,0,0,0,0,0,0,0,0,0,0,0,0,0,0,0,0,0,0,0,0,0,0,0,0,0,0,0,0,0,0,0,0,0,0,0,0,0,0,0,0,0,0,0,0],"sum_hessian":[8.539329E4,4.005742E4,4.5335867E4,1.1436934E4,2.862049E4,2.4348312E4,2.0987553E4,2.7640457E3,2.5856443E4,8.986087E3,1.5362225E4,1.5878046E4,5.1095073E3,3.403101E3,2.2453344E4,3.7948455E3,5.1912417E3,7.5256587E3,7.8365664E3,4.273087E3,1.1604959E4,5.885529E3,1.6567814E4,4.39899E3,7.922515E2,6.266119E3,1.2595394E3,6.4096597E3,1.4269067E3,5.6071807E3,5.9977783E3,2.315066E3,3.5704626E3,2.7534841E3,1.381433E4,4.650012E3,1.6161073E3,4.7053857E3,9.01795E2,1.253109E3,4.7446694E3,2.4836423E3,2.2217432E3,3.6570322E3,1.0876371E3,6.254359E2,1.5963074E3],"tree_param":{"num_deleted":"0","num_feature":"13","num_nodes":"47","size_leaf_vector":"1"}},{"base_weights":[-1.6234246E-4,6.756262E-2,-4.8370894E-2,2.0506566E-2,4.91493E-2,-3.380906E-2,-1.5082125E-1,-2.3291806E-2,6.009092E-2,-6.9858514E-2,1.9600759E-4,-1.2547676E-1,-5.5175792E-2,7.2102738E-3,7.219601E-2,-4.3790568E-2,-1.265688E-1,4.0770717E-2,-2.7719533E-2,-3.2250676E-2,-1.0174238E-2,3.4783036E-2,-1.7207263E-2,1.1038866E-1,4.7350813E-2,-1.16498195E-1,-1.2394345E-2,-4.414239E-2,-1.9385304E-2,2.0208733E-2,1.8527838E-3,-7.740839E-2,-2.4197414E-3,-1.2650033E-2,6.744922E-2,2.912824E-2,1.1229621E-2,1.3946759E-2,2.0105695E-2,-7.992457E-3,-3.3592004E-2,-1.4335729E-2,4.313066E-3,-1.9640248E-2,1.7153777E-2,4.2580026E-3,3.2858316E-2,-9.160908E-3,1.1228722E-2],"categories":[],"categories_nodes":[],"categories_segments":[],"categories_sizes":[],"default_left":[0,0,0,0,1,0,0,0,0,0,0,1,0,0,0,0,0,0,1,0,0,0,0,0,0,0,1,0,0,0,0,0,0,0,0,0,0,0,0,0,0,0,0,0,0,0,0,0,0],"id":6,"left_children":[1,3,5,-1,7,9,11,-1,13,15,17,19,-1,21,23,25,27,29,31,-1,-1,33,-1,35,37,39,41,-1,-1,-1,-1,43,-1,-1,45,-1,-1,47,-1,-1,-1,-1,-1,-1,-1,-1,-1,-1,-1],"loss_changes":[2.7867056E2,1.8194199E1,7.2712036E1,0E0,3.9189285E1,5.436001E1,1.2000565E1,0E0,1.2771545E1,2.9932259E1,2.5724636E1,9.166695E0,0E0,9.943622E0,1.4466957E1,3.2852417E1,1.5171097E1,1.5674785E1,9.925666E0,0E0,0E0,1.0462859E1,0E0,8.469475E0,1.60726E1,1.3061989E1,1.991456E1,0E0,0E0,0E0,0E0,8.721422E0,0E0,0E0,8.975516E0,0E0,0E0,1.4848573E1,0E0,0E0,0E0,0E0,0E0,0E0,0E0,0E0,0E0,0E0,0E0],"parents":[2147483647,0,0,1,1,2,2,4,4,5,5,6,6,8,8,9,9,10,10,11,11,13,13,14,14,15,15,16,16,17,17,18,18,21,21,23,23,24,24,25,25,26,26,31,31,34,34,37,37],"right_children":[2,4,6,-1,8,10,12,-1,14,16,18,20,-1,22,24,26,28,30,32,-1,-1,34,-1,36,38,40,42,-1,-1,-1,-1,44,-1,-1,46,-1,-1,48,-1,-1,-1,-1,-1,-1,-1,-1,-1,-1,-1],"split_conditions":[7.76473E1,4.122624E1,1.1965452E2,2.0506566E-2,1.18E2,1.47E2,1.3243187E2,-2.3291806E-2,7.244388E1,1.01841576E2,1.0080267E2,6.802956E0,-5.5175792E-2,1E0,9.29E1,1.34E2,1.39E2,2.195E3,6.237953E0,-3.2250676E-2,-1.0174238E-2,1.5E2,-1.7207263E-2,6.7740005E1,9.55E1,2.245E3,5.386919E1,-4.414239E-2,-1.9385304E-2,2.0208733E-2,1.8527838E-3,1.3022644E2,-2.4197414E-3,-1.2650033E-2,-5.970905E-1,2.912824E-2,1.1229621E-2,1.36E2,2.0105695E-2,-7.992457E-3,-3.3592004E-2,-1.4335729E-2,4.313066E-3,-1.9640248E-2,1.7153777E-2,4.2580026E-3,3.2858316E-2,-9.160908E-3,1.1228722E-2],"split_indices":[9,9,9,0,7,7,9,0,10,9,9,2,0,11,0,7,7,6,2,0,0,7,0,9,0,6,8,0,0,0,0,10,0,0,8,0,0,7,0,0,0,0,0,0,0,0,0,0,0],"split_type":[0,0,0,0,0,0,0,0,0,0,0,0,0,0,0,0,0,0,0,0,0,0,0,0,0,0,0,0,0,0,0,0,0,0,0,0,0,0,0,0,0,0,0,0,0,0,0,0,0],"sum_hessian":[8.525492E4,3.5371875E4,4.9883047E4,1.3126808E4,2.2245066E4,4.3826055E4,6.056993E3,1.3346365E3,2.091043E4,2.1348578E4,2.2477477E4,5.1218945E3,9.350987E2,4.037049E3,1.687338E4,1.4807714E4,6.5408647E3,9.262385E3,1.3215092E4,3.6206885E3,1.5012058E3,3.184632E3,8.524171E2,6.428309E3,1.0445072E4,4.3316587E3,1.0476055E4,1.7207429E3,4.8201216E3,3.2391135E3,6.0232705E3,3.0613406E3,1.0153751E4,7.374682E2,2.4471638E3,4.12438E3,2.303929E3,6.33431E3,4.1107617E3,1.6604263E3,2.6712327E3,3.9433037E3,6.532751E3,2.8501885E3,2.1115192E2,1.7158774E3,7.312863E2,2.4955737E3,3.8387366E3],"tree_param":{"num_deleted":"0","num_feature":"13","num_nodes":"49","size_leaf_vector":"1"}},{"base_weights":[-1.1597737E-3,3.2248735E-2,-5.951393E-2,6.2036946E-2,7.0511987E-3,-5.389777E-2,-4.606037E-2,3.1668663E-3,7.5728424E-2,-2.0963993E-2,2.3224143E-2,-8.374048E-2,-2.230852E-2,6.030461E-3,-7.9987235E-2,3.0215792E-3,8.520633E-2,-3.6167346E-2,3.8522992E-2,-5.499451E-2,-2.5093809E-2,-4.632136E-2,2.2562455E-2,1.5005932E-2,-2.7022978E-2,1.9410623E-2,6.308836E-4,1.365229E-2,-5.6499586E-2,-4.9049653E-2,4.677555E-2,2.0928169E-2,-6.358617E-2,-1.8529985E-2,-8.264547E-3,1.4534093E-2,-1.6148053E-2,2.346859E-2,-2.0187538E-2,-3.2392142E-3,-2.6496181E-2,-2.7533323E-2,2.6358587E-3,3.2703016E-2,2.4928953E-2,-3.499056E-2,-1.0480007E-2,-2.2850946E-2,5.9491955E-3,1.1930425E-3,-2.9702593E-2,-1.3103241E-2,8.993381E-3,1.1929321E-2,-5.9706713E-3],"categories":[],"categories_nodes":[],"categories_segments":[],"categories_sizes":[],"default_left":[0,0,0,0,0,0,0,1,1,0,0,0,1,0,0,0,0,0,1,0,0,0,0,0,0,0,0,0,0,0,0,0,0,0,0,0,0,0,0,0,0,0,0,0,0,0,0,0,0,0,0,0,0,0,0],"id":7,"left_children":[1,3,5,7,9,11,-1,13,15,-1,17,19,21,-1,23,-1,25,27,29,31,-1,33,35,-1,-1,-1,37,-1,39,41,43,-1,45,-1,47,-1,49,-1,-1,-1,-1,-1,-1,51,-1,-1,-1,-1,53,-1,-1,-1,-1,-1,-1],"loss_changes":[1.6642744E2,4.0059635E1,2.4975868E1,1.923722E1,5.068712E1,2.7516182E1,0E0,1.0046736E1,1.0693481E1,0E0,2.3553535E1,1.4013016E1,1.6318703E1,0E0,9.129255E0,0E0,9.832695E0,1.0931814E1,1.506995E1,1.1862036E1,0E0,1.4923719E1,9.771572E0,0E0,0E0,0E0,1.7243544E1,0E0,1.1487739E1,9.815725E0,1.778228E1,0E0,9.552811E0,0E0,8.495122E0,0E0,8.712299E0,0E0,0E0,0E0,0E0,0E0,0E0,1.5579735E1,0E0,0E0,0E0,0E0,8.537144E0,0E0,0E0,0E0,0E0,0E0,0E0],"parents":[2147483647,0,0,1,1,2,2,3,3,4,4,5,5,7,7,8,8,10,10,11,11,12,12,14,14,16,16,17,17,18,18,19,19,21,21,22,22,26,26,28,28,29,29,30,30,32,32,34,34,36,36,43,43,48,48],"right_children":[2,4,6,8,10,12,-1,14,16,-1,18,20,22,-1,24,-1,26,28,30,32,-1,34,36,-1,-1,-1,38,-1,40,42,44,-1,46,-1,48,-1,50,-1,-1,-1,-1,-1,-1,52,-1,-1,-1,-1,54,-1,-1,-1,-1,-1,-1],"split_conditions":[9.7023346E1,6.1209946E1,1.3243187E2,-3.436064E-1,8.258844E-1,1.51E2,-4.606037E-2,2.348E3,-5.350556E0,-2.0963993E-2,1.35E2,1.08222565E2,4.090342E1,6.030461E-3,1.5704403E1,3.0215792E-3,4.2669025E-1,9.22E1,-2.4048474E0,9.1E1,-2.5093809E-2,1.59E2,9.48E1,1.5005932E-2,-2.7022978E-2,1.9410623E-2,2.674754E1,1.365229E-2,2.314E3,-1.7259803E-1,1.56E2,2.0928169E-2,1.34E2,-1.8529985E-2,-2.8825313E-1,1.4534093E-2,1E0,2.346859E-2,-2.0187538E-2,-3.2392142E-3,-2.6496181E-2,-2.7533323E-2,2.6358587E-3,2.516447E1,2.4928953E-2,-3.499056E-2,-1.0480007E-2,-2.2850946E-2,1.1165225E2,1.1930425E-3,-2.9702593E-2,-1.3103241E-2,8.993381E-3,1.1929321E-2,-5.9706713E-3],"split_indices":[9,9,9,4,5,7,0,6,8,0,7,9,8,0,9,0,4,0,8,0,0,7,0,0,0,0,9,0,6,4,7,0,7,0,4,0,11,0,0,0,0,0,0,8,0,0,0,0,9,0,0,0,0,0,0],"split_type":[0,0,0,0,0,0,0,0,0,0,0,0,0,0,0,0,0,0,0,0,0,0,0,0,0,0,0,0,0,0,0,0,0,0,0,0,0,0,0,0,0,0,0,0,0,0,0,0,0,0,0,0,0,0,0],"sum_hessian":[8.511571E4,5.406226E4,3.105345E4,2.4583574E4,2.9478686E4,3.0140762E4,9.126879E2,4.7633555E3,1.9820219E4,3.7591094E3,2.5719576E4,1.5310144E4,1.4830618E4,3.751064E3,1.0122917E3,2.7880725E3,1.7032146E4,5.1431035E3,2.0576475E4,8.720201E3,6.5899424E3,9.77294E3,5.0576777E3,1.9934857E2,8.129431E2,1.5586531E4,1.4456155E3,7.692332E2,4.37387E3,1.6596267E3,1.8916848E4,3.705483E2,8.349652E3,4.503116E3,5.269824E3,2.3580981E3,2.6995796E3,7.0534375E2,7.402718E2,2.8796328E3,1.4942374E3,7.308031E2,9.288236E2,1.6003884E4,2.9129626E3,8.13369E2,7.5362837E3,6.6103705E2,4.608787E3,2.3045923E3,3.949874E2,1.4337185E3,1.4570166E4,1.9316144E3,2.6771729E3],"tree_param":{"num_deleted":"0","num_feature":"13","num_nodes":"55","size_leaf_vector":"1"}},{"base_weights":[4.416527E-4,2.0675238E-2,-2.8091324E-2,2.1544902E-3,4.3503284E-2,-4.9565066E-2,2.0251779E-2,3.0607361E-2,-3.4014434E-3,4.8532367E-2,-1.6890671E-2,-7.784674E-2,-2.0955093E-2,-3.3191763E-2,2.790418E-2,-4.5991067E-2,1.027364E-2,-0E0,5.9774373E-2,-1.0468079E-1,-4.1444976E-2,3.1834394E-3,-1.5481386E-2,4.2599615E-2,-9.384051E-3,-1.4623821E-1,-6.313209E-3,3.006157E-2,-3.7258195E-3,7.941022E-2,-3.0054888E-2,7.640619E-2,3.925055E-3,-2.5111945E-2,-3.3664316E-4,3.445359E-3,-7.588047E-2,-3.3333458E-2,1.0717384E-2,-5.797212E-3,5.6964554E-2,4.001937E-3,-4.1097604E-2,9.263449E-3,-4.610608E-3,2.7407598E-2,-1.3512766E-2,-1.8702248E-2,3.7156537E-3,1.7154984E-2,-1.2664651E-2,-3.2902513E-2,-4.258593E-3,8.290878E-3,-1.381841E-2,1.5319727E-2,-2.2537992E-3],"categories":[],"categories_nodes":[],"categories_segments":[],"categories_sizes":[],"default_left":[0,0,1,1,0,0,0,0,0,0,0,1,0,0,0,0,0,0,0,0,0,0,0,0,0,0,0,0,0,1,0,0,0,0,0,0,1,0,0,0,0,0,0,0,0,0,0,0,0,0,0,0,0,0,0,0,0],"id":8,"left_children":[1,3,5,7,9,11,13,-1,15,17,-1,19,21,-1,23,25,27,29,31,33,35,37,-1,39,-1,41,-1,43,-1,45,47,49,-1,-1,-1,-1,51,53,-1,-1,55,-1,-1,-1,-1,-1,-1,-1,-1,-1,-1,-1,-1,-1,-1,-1,-1],"loss_changes":[4.905981E1,2.0749111E1,3.6780525E1,2.3379148E1,1.3859627E1,1.8903484E1,1.3971606E1,0E0,1.5932913E1,1.1973457E1,0E0,1.0399513E1,1.638042E1,0E0,1.1229229E1,8.93499E0,1.13498535E1,9.525632E0,1.1083679E1,9.57679E0,1.1304211E1,1.5087811E1,0E0,9.204077E0,0E0,8.441166E0,0E0,9.072019E0,0E0,9.072678E0,9.172722E0,9.511787E0,0E0,0E0,0E0,0E0,1.40351925E1,1.1673304E1,0E0,0E0,8.594212E0,0E0,0E0,0E0,0E0,0E0,0E0,0E0,0E0,0E0,0E0,0E0,0E0,0E0,0E0,0E0,0E0],"parents":[2147483647,0,0,1,1,2,2,3,3,4,4,5,5,6,6,8,8,9,9,11,11,12,12,14,14,15,15,16,16,17,17,18,18,19,19,20,20,21,21,23,23,25,25,27,27,29,29,30,30,31,31,36,36,37,37,40,40],"right_children":[2,4,6,8,10,12,14,-1,16,18,-1,20,22,-1,24,26,28,30,32,34,36,38,-1,40,-1,42,-1,44,-1,46,48,50,-1,-1,-1,-1,52,54,-1,-1,56,-1,-1,-1,-1,-1,-1,-1,-1,-1,-1,-1,-1,-1,-1,-1,-1],"split_conditions":[9.46E1,6.2966785E1,8.325156E1,1.934E3,4.986096E-1,-2.2634035E-1,1.1E2,3.0607361E-2,1.45E2,-3.4171325E-1,-1.6890671E-2,5.7243053E1,1E0,-3.3191763E-2,9.8E1,2.3889923E1,2.342E3,9.16E1,2.5066885E-1,1.61E2,9.57E1,-1.5818368E-1,-1.5481386E-2,9.5466965E-1,-9.384051E-3,7.482041E-1,-6.313209E-3,2.1756484E-1,-3.7258195E-3,1.44E2,8.5887825E1,1.1577041E2,3.925055E-3,-2.5111945E-2,-3.3664316E-4,3.445359E-3,1.0284281E0,2.254E3,1.0717384E-2,-5.797212E-3,1.1945273E-1,4.001937E-3,-4.1097604E-2,9.263449E-3,-4.610608E-3,2.7407598E-2,-1.3512766E-2,-1.8702248E-2,3.7156537E-3,1.7154984E-2,-1.2664651E-2,-3.2902513E-2,-4.258593E-3,8.290878E-3,-1.381841E-2,1.5319727E-2,-2.2537992E-3],"split_indices":[0,8,8,6,4,4,7,0,7,4,0,8,11,0,0,8,6,0,4,7,0,4,0,3,0,5,0,4,0,7,8,8,0,0,0,0,3,6,0,0,4,0,0,0,0,0,0,0,0,0,0,0,0,0,0,0,0],"split_type":[0,0,0,0,0,0,0,0,0,0,0,0,0,0,0,0,0,0,0,0,0,0,0,0,0,0,0,0,0,0,0,0,0,0,0,0,0,0,0,0,0,0,0,0,0,0,0,0,0,0,0,0,0,0,0,0,0],"sum_hessian":[8.493416E4,4.9866703E4,3.5067457E4,2.7763697E4,2.2103006E4,2.439267E4,1.0674787E4,1.01817664E3,2.6745521E4,2.1344387E4,7.5861926E2,1.2066649E4,1.23260205E4,3.3860513E2,1.0336182E4,6.598424E3,2.0147098E4,3.9470757E3,1.739731E4,6.74451E3,5.3221396E3,8.404952E3,3.9210684E3,8.711252E3,1.6249304E3,7.5514764E2,5.8432764E3,1.197086E4,8.1762363E3,1.00714105E3,2.9399346E3,1.2202621E4,5.1946895E3,5.811075E3,9.3343445E2,1.9147109E3,3.4074287E3,4.6885356E3,3.7164167E3,1.3753231E3,7.3359287E3,1.4814348E2,6.0700415E2,9.547518E3,2.4233428E3,7.8771844E2,2.1942262E2,1.3597563E3,1.5801783E3,1.182589E4,3.7673093E2,1.2765721E3,2.1308567E3,1.3680403E3,3.3204956E3,6.019229E3,1.3166997E3],"tree_param":{"num_deleted":"0","num_feature":"13","num_nodes":"57","size_leaf_vector":"1"}},{"base_weights":[-3.0598156E-5,3.875731E-2,-2.7782977E-2,-6.2497E-3,5.0723866E-2,-1.8696578E-2,-1.1819776E-1,-1.00099035E-1,9.797593E-3,1.14747295E-2,-3.570262E-2,-1.3236508E-1,-1.072915E-2,-3.6995895E-2,-7.187931E-2,-0E0,-3.8623426E-2,-6.3697554E-2,6.3425764E-3,1.8225487E-2,-2.1663878E-2,-1.6030814E-2,-4.5723833E-2,-3.4121618E-2,1.1456992E-2,-3.005474E-2,-3.2292914E-3,1.5436642E-2,-3.5108134E-2,7.5475094E-3,-4.260268E-2,1.77889E-2,-2.3077244E-2,-5.498518E-2,8.265536E-4,9.706307E-3,-1.6658598E-3,-3.0641295E-2,-8.52797E-2,5.742963E-2,-1.4801648E-2,-2.1216558E-2,-1.2218673E-2,-3.3491198E-2,-1.2875069E-2,9.694388E-2,-1.723547E-2,-1.0816561E-2,1.9244969E-2,1.3406385E-3,3.7745375E-2,-5.4141455E-3,7.9977E-2,2.8621785E-2,-4.9350865E-4],"categories":[],"categories_nodes":[],"categories_segments":[],"categories_sizes":[],"default_left":[0,0,0,0,0,0,1,0,0,0,0,1,1,0,0,0,0,0,0,0,0,0,0,0,0,0,0,0,0,0,1,0,0,0,0,0,0,1,1,0,0,0,0,0,0,0,0,0,1,0,0,0,0,0,0],"id":9,"left_children":[1,3,5,7,9,11,13,15,17,-1,19,21,23,-1,25,-1,-1,27,-1,-1,-1,-1,-1,29,31,-1,-1,-1,-1,-1,33,35,-1,37,39,-1,-1,41,43,45,-1,-1,47,-1,-1,49,-1,-1,51,-1,-1,-1,53,-1,-1],"loss_changes":[9.148374E1,1.9416191E1,3.96026E1,1.1853201E1,9.910927E0,3.9829124E1,9.113953E0,8.867227E0,9.297482E0,0E0,1.0613259E1,1.0371838E1,2.2264606E1,0E0,9.366132E0,0E0,0E0,2.017724E1,0E0,0E0,0E0,0E0,0E0,1.2574293E1,1.6101868E1,0E0,0E0,0E0,0E0,0E0,1.0515297E1,1.5522438E1,0E0,9.772507E0,1.6720913E1,0E0,0E0,9.964661E0,8.911243E0,1.3832878E1,0E0,0E0,8.803215E0,0E0,0E0,1.2985579E1,0E0,0E0,1.0827324E1,0E0,0E0,0E0,8.915689E0,0E0,0E0],"parents":[2147483647,0,0,1,1,2,2,3,3,4,4,5,5,6,6,7,7,8,8,10,10,11,11,12,12,14,14,17,17,23,23,24,24,30,30,31,31,33,33,34,34,37,37,38,38,39,39,42,42,45,45,48,48,52,52],"right_children":[2,4,6,8,10,12,14,16,18,-1,20,22,24,-1,26,-1,-1,28,-1,-1,-1,-1,-1,30,32,-1,-1,-1,-1,-1,34,36,-1,38,40,-1,-1,42,44,46,-1,-1,48,-1,-1,50,-1,-1,52,-1,-1,-1,54,-1,-1],"split_conditions":[7.76473E1,-3.3447576E-1,1.2220045E2,9.483067E-1,4.76696E-1,8.258844E-1,6.5293565E0,4.1918373E1,7.8036124E-1,1.14747295E-2,1.4167732E1,7.532385E1,6.49235E0,-3.6995895E-2,1.55E2,-0E0,-3.8623426E-2,5.788928E0,6.3425764E-3,1.8225487E-2,-2.1663878E-2,-1.6030814E-2,-4.5723833E-2,9.13E1,3.591301E-1,-3.005474E-2,-3.2292914E-3,1.5436642E-2,-3.5108134E-2,7.5475094E-3,1.55E2,9.46E1,-2.3077244E-2,1.01318436E2,9.7602934E-1,9.706307E-3,-1.6658598E-3,4.050984E1,1.41E2,2.5172357E-2,-1.4801648E-2,-2.1216558E-2,-2.4625845E-1,-3.3491198E-2,-1.2875069E-2,6.2638893E0,-1.723547E-2,-1.0816561E-2,1.42E2,1.3406385E-3,3.7745375E-2,-5.4141455E-3,6.896054E1,2.8621785E-2,-4.9350865E-4],"split_indices":[9,4,9,3,4,5,2,9,5,0,9,8,2,0,7,0,0,9,0,0,0,0,0,0,4,0,0,0,0,0,7,0,0,9,5,0,0,8,7,4,0,0,4,0,0,2,0,0,7,0,0,0,8,0,0],"split_type":[0,0,0,0,0,0,0,0,0,0,0,0,0,0,0,0,0,0,0,0,0,0,0,0,0,0,0,0,0,0,0,0,0,0,0,0,0,0,0,0,0,0,0,0,0,0,0,0,0,0,0,0,0,0,0],"sum_hessian":[8.492189E4,3.528922E4,4.963267E4,7.2816997E3,2.8007518E4,4.5257953E4,4.374721E3,1.0795449E3,6.202155E3,2.689105E4,1.1164674E3,2.8264407E3,4.243151E4,1.7754542E3,2.5992668E3,5.493412E2,5.302037E2,1.2325067E3,4.969648E3,3.481433E2,7.683241E2,1.8465062E3,9.799346E2,2.0807346E4,2.1624166E4,1.0382943E3,1.5609724E3,5.0664172E2,7.25865E2,2.1209514E3,1.8686393E4,2.0672316E4,9.518508E2,1.4666117E4,4.0202766E3,9.930395E3,1.0741921E4,8.355428E3,6.310689E3,2.3111921E3,1.7090846E3,1.5763682E3,6.7790596E3,1.3569294E3,4.95376E3,1.8621472E3,4.490449E2,3.1030452E3,3.6760144E3,9.7250903E2,8.896381E2,2.0601912E3,1.6158231E3,9.871E2,6.2872314E2],"tree_param":{"num_deleted":"0","num_feature":"13","num_nodes":"55","size_leaf_vector":"1"}},{"base_weights":[-4.2802216E-3,2.2933587E-2,-3.151404E-2,1.1794321E-2,1.0284438E-2,-1.748977E-2,-6.9936454E-2,-1.6252458E-2,1.9957997E-2,-3.1817935E-2,1.37520395E-2,-2.5084493E-1,-6.2565595E-2,-3.3458453E-2,2.7070727E-2,-1.21166315E-2,-1.0089165E-2,-6.3105545E-4,1.4436768E-2,-6.975529E-2,2.4187495E-3,-5.4861758E-2,-5.2012645E-2,-1.8719977E-2,6.015278E-3,-4.0554963E-3,3.4396905E-2,-1.9794533E-2,1.9434314E-3,-3.5980854E-2,-2.4525989E-2,7.972082E-3,-2.1197189E-2,-8.154425E-3,5.676972E-3,-6.0904674E-2,1.2317684E-2,-7.7574505E-3,-1.9122414E-2,-1.830322E-2,3.035153E-2,1.3318182E-2,-2.4877379E-2],"categories":[],"categories_nodes":[],"categories_segments":[],"categories_sizes":[],"default_left":[0,0,1,0,0,1,0,0,1,0,0,0,0,0,1,0,0,0,0,0,0,0,0,0,0,0,0,0,1,0,0,0,0,0,0,0,0,0,0,0,1,0,0],"id":10,"left_children":[1,3,5,-1,7,9,11,-1,13,15,17,19,21,23,25,-1,27,-1,-1,-1,-1,29,-1,-1,-1,-1,31,-1,33,35,-1,-1,-1,-1,-1,37,-1,39,-1,-1,41,-1,-1],"loss_changes":[6.3006638E1,1.7259674E1,2.217352E1,0E0,2.5920033E1,1.424825E1,1.136689E1,0E0,1.0654493E1,1.1681162E1,9.540253E0,1.0787544E1,1.2227959E1,1.1721222E1,8.623945E0,0E0,1.2989313E1,0E0,0E0,0E0,0E0,1.0925018E1,0E0,0E0,0E0,0E0,1.0336502E1,0E0,1.0809516E1,1.9944569E1,0E0,0E0,0E0,0E0,0E0,9.937788E0,0E0,8.516144E0,0E0,0E0,8.718395E0,0E0,0E0],"parents":[2147483647,0,0,1,1,2,2,4,4,5,5,6,6,8,8,9,9,10,10,11,11,12,12,13,13,14,14,16,16,21,21,26,26,28,28,29,29,35,35,37,37,40,40],"right_children":[2,4,6,-1,8,10,12,-1,14,16,18,20,22,24,26,-1,28,-1,-1,-1,-1,30,-1,-1,-1,-1,32,-1,34,36,-1,-1,-1,-1,-1,38,-1,40,-1,-1,42,-1,-1],"split_conditions":[8.620204E1,3.77783E1,1.26468956E2,1.1794321E-2,8.044812E-1,1.0808333E0,1.28E2,-1.6252458E-2,9.4660324E-1,1.48E2,5.681667E1,9.1814053E-1,1.3820567E2,9.422591E-1,2.5050716E0,-1.21166315E-2,9.961211E0,-6.3105545E-4,1.4436768E-2,-6.975529E-2,2.4187495E-3,1E0,-5.2012645E-2,-1.8719977E-2,6.015278E-3,-4.0554963E-3,9.89E1,-1.9794533E-2,-6.5529413E0,-1.5587887E-1,-2.4525989E-2,7.972082E-3,-2.1197189E-2,-8.154425E-3,5.676972E-3,1.1290443E2,1.2317684E-2,1.0264744E0,-1.9122414E-2,-1.830322E-2,6.139535E-1,1.3318182E-2,-2.4877379E-2],"split_indices":[9,9,10,0,5,3,7,0,3,7,8,5,9,5,8,0,8,0,0,0,0,11,0,0,0,0,0,0,1,4,0,0,0,0,0,9,0,3,0,0,1,0,0],"split_type":[0,0,0,0,0,0,0,0,0,0,0,0,0,0,0,0,0,0,0,0,0,0,0,0,0,0,0,0,0,0,0,0,0,0,0,0,0,0,0,0,0,0,0],"sum_hessian":[8.478067E4,4.2267656E4,4.2513016E4,1.1402293E4,3.0865361E4,3.1371197E4,1.114182E4,2.9343953E3,2.7930967E4,2.1678508E4,9.692689E3,3.014665E2,1.0840354E4,3.1213264E3,2.480964E4,9.664907E3,1.2013601E4,7.3736616E3,2.319028E3,2.3806252E2,6.3403984E1,1.0537895E4,3.024598E2,1.6948826E3,1.4264437E3,3.2211628E3,2.1588477E4,1.521196E3,1.0492404E4,8.262874E3,2.2750198E3,2.1136566E4,4.5191003E2,3.8632705E3,6.629134E3,6.6269604E3,1.6359142E3,2.5296667E3,4.0972935E3,8.564398E2,1.673227E3,1.4456193E3,2.2760783E2],"tree_param":{"num_deleted":"0","num_feature":"13","num_nodes":"43","size_leaf_vector":"1"}},{"base_weights":[1.0856875E-3,1.615229E-2,-3.2273702E-2,-6.2755803E-3,3.1497132E-2,-2.1823503E-2,-2.2217082E-2,5.4946507E-4,-1.8962363E-2,4.8495162E-2,6.1744642E-3,-2.5298847E-3,-1.7987376E-2,-1.780773E-2,8.6675845E-3,-1.40906E-2,-1.1204386E-3],"categories":[],"categories_nodes":[],"categories_segments":[],"categories_sizes":[],"default_left":[0,0,0,0,0,0,0,0,0,0,0,0,0,0,0,0,0],"id":11,"left_children":[1,3,5,7,9,-1,11,13,-1,-1,-1,-1,-1,15,-1,-1,-1],"loss_changes":[4.2532383E1,2.0388103E1,1.7778675E1,1.4292978E1,1.1940975E1,0E0,1.4132746E1,1.6606836E1,0E0,0E0,0E0,0E0,0E0,8.635965E0,0E0,0E0,0E0],"parents":[2147483647,0,0,1,1,2,2,3,3,4,4,6,6,7,7,13,13],"right_children":[2,4,6,8,10,-1,12,14,-1,-1,-1,-1,-1,16,-1,-1,-1],"split_conditions":[1.0080267E2,8.8250864E-1,1.41E2,1.2738265E2,8.26E1,-2.1823503E-2,1.2472524E2,9.243738E1,-1.8962363E-2,4.8495162E-2,6.1744642E-3,-2.5298847E-3,-1.7987376E-2,6.193965E0,8.6675845E-3,-1.40906E-2,-1.1204386E-3],"split_indices":[9,5,7,10,0,0,9,8,0,0,0,0,0,2,0,0,0],"split_type":[0,0,0,0,0,0,0,0,0,0,0,0,0,0,0,0,0],"sum_hessian":[8.472731E4,5.8553836E4,2.6173475E4,2.3596785E4,3.495705E4,3.039544E3,2.313393E4,2.1805488E4,1.7912974E3,2.3808246E2,3.471897E4,2.0123832E4,3.0100981E3,1.4929804E4,6.8756846E3,2.8207388E3,1.2109065E4],"tree_param":{"num_deleted":"0","num_feature":"13","num_nodes":"17","size_leaf_vector":"1"}},{"base_weights":[-1.4743198E-3,1.3339542E-2,-2.7178884E-2,1.6814072E-2,-1.1411211E-2,-3.7377714E-3,-4.9514312E-2,-1.1617728E-2,2.363807E-2,1.4734024E-3,-1.2510881E-2,-2.0208027E-2,-3.354344E-2,-2.8354838E-2,1.02552455E-2,4.0559284E-2,2.3186125E-3,-1.0797939E-2,6.402762E-3,9.440475E-3,-4.644313E-2,-8.600581E-3,9.933225E-3,-2.164457E-2,-1.2714603E-2,-1.3990551E-2,9.505093E-3],"categories":[],"categories_nodes":[],"categories_segments":[],"categories_sizes":[],"default_left":[0,0,0,0,0,0,0,1,0,0,0,0,1,0,0,0,0,0,0,0,0,0,0,0,1,0,0],"id":12,"left_children":[1,3,5,7,-1,9,11,13,15,-1,-1,-1,17,19,-1,21,-1,-1,-1,-1,23,-1,-1,-1,25,-1,-1],"loss_changes":[3.2473206E1,1.2415138E1,1.5939659E1,1.0062188E1,0E0,9.766589E0,1.058387E1,9.811288E0,8.423065E0,0E0,0E0,0E0,1.4098567E1,1.0489774E1,0E0,9.84178E0,0E0,0E0,0E0,0E0,1.1174339E1,0E0,0E0,0E0,1.3410686E1,0E0,0E0],"parents":[2147483647,0,0,1,1,2,2,3,3,5,5,6,6,7,7,8,8,12,12,13,13,15,15,20,20,24,24],"right_children":[2,4,6,8,-1,10,12,14,16,-1,-1,-1,18,20,-1,22,-1,-1,-1,-1,24,-1,-1,-1,26,-1,-1],"split_conditions":[9.674201E1,4.2669025E-1,9.49E1,-3.436064E-1,-1.1411211E-2,2.3785579E-1,-2.9108816E-1,6.7764587E0,9.29E1,1.4734024E-3,-1.2510881E-2,-2.0208027E-2,6.881454E0,2.5719543E1,1.02552455E-2,-2.2499231E1,2.3186125E-3,-1.0797939E-2,6.402762E-3,9.440475E-3,8.57338E-1,-8.600581E-3,9.933225E-3,-2.164457E-2,1.0175059E0,-1.3990551E-2,9.505093E-3],"split_indices":[9,4,0,4,0,4,4,2,0,0,0,0,2,9,0,8,0,0,0,0,5,0,0,0,3,0,0],"split_type":[0,0,0,0,0,0,0,0,0,0,0,0,0,0,0,0,0,0,0,0,0,0,0,0,0,0,0],"sum_hessian":[8.485451E4,5.365956E4,3.1194951E4,5.1202543E4,2.457015E3,1.5432951E4,1.5762001E4,9.678505E3,4.152404E4,1.2876602E4,2.556349E3,3.7935208E3,1.196848E4,7.712476E3,1.9660286E3,1.7379076E4,2.4144963E4,9.458979E3,2.5095012E3,1.4188124E3,6.2936636E3,1.2178208E3,1.6161255E4,2.20514E3,4.088524E3,2.1826458E3,1.905878E3],"tree_param":{"num_deleted":"0","num_feature":"13","num_nodes":"27","size_leaf_vector":"1"}},{"base_weights":[9.2022953E-4,6.464028E-3,-2.8007168E-2,-1.0255979E-2,1.44922165E-2,-1.7530303E-2,-9.942222E-3,-2.6743114E-3,-8.017977E-2,3.5563563E-3,3.466498E-2,-6.508423E-4,-3.8473327E-2,-1.4032143E-2,8.843761E-4,-2.6573585E-2,-0E0,3.815785E-2,3.299284E-4,5.94603E-2,1.1979304E-3,7.547277E-2,-8.942243E-3,1.3785479E-2,-6.205309E-3,1.7269794E-2,-1.7728083E-2],"categories":[],"categories_nodes":[],"categories_segments":[],"categories_sizes":[],"default_left":[0,0,0,1,1,0,0,0,0,0,1,0,0,0,0,0,0,0,0,0,0,0,0,0,0,0,0],"id":13,"left_children":[1,3,5,7,9,-1,11,13,15,17,19,-1,-1,-1,-1,-1,-1,-1,-1,21,23,25,-1,-1,-1,-1,-1],"loss_changes":[1.3437492E1,9.630337E0,1.2670773E1,1.1471586E1,1.0412242E1,0E0,1.0731722E1,9.724295E0,8.518223E0,9.806638E0,1.3479876E1,0E0,0E0,0E0,0E0,0E0,0E0,0E0,0E0,1.606232E1,1.50473385E1,9.58918E0,0E0,0E0,0E0,0E0,0E0],"parents":[2147483647,0,0,1,1,2,2,3,3,4,4,6,6,7,7,8,8,9,9,10,10,19,19,20,20,21,21],"right_children":[2,4,6,8,10,-1,12,14,16,18,20,-1,-1,-1,-1,-1,-1,-1,-1,22,24,26,-1,-1,-1,-1,-1],"split_conditions":[1.11349594E2,8.734448E-1,1.48E2,1.26911476E2,6.578277E0,-1.7530303E-2,1.3820567E2,2.5770845E1,1.1577041E2,8.26E1,2.254E3,-6.508423E-4,-3.8473327E-2,-1.4032143E-2,8.843761E-4,-2.6573585E-2,-0E0,3.815785E-2,3.299284E-4,1.0098358E2,9.0239084E-1,1.0084178E0,-8.942243E-3,1.3785479E-2,-6.205309E-3,1.7269794E-2,-1.7728083E-2],"split_indices":[9,5,7,10,2,0,9,8,8,0,6,0,0,0,0,0,0,0,0,8,5,5,0,0,0,0,0],"split_type":[0,0,0,0,0,0,0,0,0,0,0,0,0,0,0,0,0,0,0,0,0,0,0,0,0,0,0],"sum_hessian":[8.469139E4,7.134526E4,1.3346138E4,2.2820867E4,4.8524387E4,3.1049355E3,1.0241202E4,2.0757059E4,2.063809E3,3.177308E4,1.6751309E4,9.966559E3,2.746435E2,2.0609822E3,1.8696076E4,1.3150831E3,7.487258E2,2.3433969E2,3.153874E4,9.455642E3,7.2956665E3,8.256104E3,1.1995386E3,2.4122363E3,4.88343E3,7.998292E3,2.578116E2],"tree_param":{"num_deleted":"0","num_feature":"13","num_nodes":"27","size_leaf_vector":"1"}},{"base_weights":[-2.668684E-3,1.2642325E-2,-1.7123919E-2,-1.2556721E-3,3.4662638E-2,-4.827102E-2,-1.0239128E-2,3.743788E-2,-4.220747E-3,3.9800502E-2,-1.834388E-2,6.24551E-3,-1.3830685E-2,4.4005588E-4,-8.964445E-3,-2.4524111E-2,1.423582E-2,1.8698929E-2,1.5517732E-2,-9.862423E-3,1.3175256E-3,-2.4157825E-3,1.0063529E-2,6.754597E-3,-1.0281766E-2],"categories":[],"categories_nodes":[],"categories_segments":[],"categories_sizes":[],"default_left":[1,0,0,0,0,0,0,0,1,0,0,0,0,0,0,0,0,1,0,0,0,0,0,0,0],"id":14,"left_children":[1,3,5,7,9,11,13,-1,15,17,-1,-1,-1,-1,-1,19,21,23,-1,-1,-1,-1,-1,-1,-1],"loss_changes":[1.8810633E1,1.2794398E1,8.918406E0,1.1982025E1,9.952629E0,1.1055952E1,1.4850198E1,0E0,9.346194E0,1.03637905E1,0E0,0E0,0E0,0E0,0E0,8.629691E0,1.1407054E1,8.965809E0,0E0,0E0,0E0,0E0,0E0,0E0,0E0],"parents":[2147483647,0,0,1,1,2,2,3,3,4,4,5,5,6,6,8,8,9,9,15,15,16,16,17,17],"right_children":[2,4,6,8,10,12,14,-1,16,18,-1,-1,-1,-1,-1,20,22,24,-1,-1,-1,-1,-1,-1,-1],"split_conditions":[1.1077077E2,6.0284878E1,-3.2432264E-1,1.791E3,4.986096E-1,2.152E3,1.3063593E-1,3.743788E-2,1.52E2,-1.7259803E-1,-1.834388E-2,6.24551E-3,-1.3830685E-2,4.4005588E-4,-8.964445E-3,-2.0563339E-1,9.961211E0,1.47E2,1.5517732E-2,-9.862423E-3,1.3175256E-3,-2.4157825E-3,1.0063529E-2,6.754597E-3,-1.0281766E-2],"split_indices":[10,8,4,6,4,6,4,0,7,4,0,0,0,0,0,4,8,7,0,0,0,0,0,0,0],"split_type":[0,0,0,0,0,0,0,0,0,0,0,0,0,0,0,0,0,0,0,0,0,0,0,0,0],"sum_hessian":[8.4690195E4,4.0868766E4,4.3821434E4,2.4878682E4,1.5990082E4,7.648437E3,3.6172996E4,2.9180582E2,2.4586877E4,1.5452513E4,5.3756866E2,1.3195054E3,6.3289316E3,2.6090955E4,1.0082041E4,1.189863E4,1.2688247E4,9.762359E3,5.690154E3,7.0038394E3,4.89479E3,7.090166E3,5.598081E3,8.268008E3,1.4943519E3],"tree_param":{"num_deleted":"0","num_feature":"13","num_nodes":"25","size_leaf_vector":"1"}},{"base_weights":[-9.44128E-4,6.6931187E-3,-6.540085E-3,7.866758E-3,2.458937E-4,-1.0424307E-2,1.424547E-3],"categories":[],"categories_nodes":[],"categories_segments":[],"categories_sizes":[],"default_left":[0,0,0,0,0,0,0],"id":15,"left_children":[1,3,-1,-1,5,-1,-1],"loss_changes":[1.977232E1,1.3109842E1,0E0,0E0,1.801943E1,0E0,0E0],"parents":[2147483647,0,0,1,1,4,4],"right_children":[2,4,-1,-1,6,-1,-1],"split_conditions":[1.0794842E2,3.77783E1,-6.540085E-3,7.866758E-3,8.258844E-1,-1.0424307E-2,1.424547E-3],"split_indices":[9,9,0,0,5,0,0],"split_type":[0,0,0,0,0,0,0],"sum_hessian":[8.468467E4,6.744097E4,1.7243705E4,1.1403169E4,5.6037797E4,6.2994487E3,4.9738348E4],"tree_param":{"num_deleted":"0","num_feature":"13","num_nodes":"7","size_leaf_vector":"1"}},{"base_weights":[-1.5019684E-3,1.5853709E-2,-1.1233447E-2,-4.426643E-3,4.946812E-3,-1.5813569E-2,-7.3279124E-3,-1.1484761E-3,-4.785518E-2,-1.8180132E-2,1.502422E-2,-0E0,-1.6365591E-2,-3.7375666E-2,1.5667917E-2,3.9785444E-3,-1.7391125E-2,-2.2828724E-2,-9.634748E-2,-6.795577E-3,3.8524486E-2,-1.1300713E-2,6.5544044E-4,-3.2320596E-2,-6.502284E-3,3.1224169E-2,4.556992E-3],"categories":[],"categories_nodes":[],"categories_segments":[],"categories_sizes":[],"default_left":[0,1,0,0,0,0,0,1,0,0,0,0,0,0,1,0,0,0,0,0,0,0,0,0,0,0,0],"id":16,"left_children":[1,3,5,-1,-1,-1,7,9,11,13,15,-1,-1,17,19,-1,-1,21,23,-1,25,-1,-1,-1,-1,-1,-1],"loss_changes":[1.4274394E1,8.660105E0,1.2981262E1,0E0,0E0,0E0,1.2543161E1,1.2451914E1,9.599401E0,1.4641804E1,8.443884E0,0E0,0E0,1.1209841E1,8.858897E0,0E0,0E0,9.835236E0,8.419233E0,0E0,8.6696615E0,0E0,0E0,0E0,0E0,0E0,0E0],"parents":[2147483647,0,0,1,1,2,2,6,6,7,7,8,8,9,9,10,10,13,13,14,14,17,17,18,18,20,20],"right_children":[2,4,6,-1,-1,-1,8,10,12,14,16,-1,-1,18,20,-1,-1,22,24,-1,26,-1,-1,-1,-1,-1,-1],"split_conditions":[9.3E1,2.5050716E0,-4.0446416E-1,-4.426643E-3,4.946812E-3,-1.5813569E-2,2.5066885E-1,5.9907963E1,6.3320336E0,-1.7633462E-1,9.95E1,-0E0,-1.6365591E-2,9.69E1,-7.9E0,3.9785444E-3,-1.7391125E-2,1.5E2,1.0558981E0,-6.795577E-3,8.965277E-1,-1.1300713E-2,6.5544044E-4,-3.2320596E-2,-6.502284E-3,3.1224169E-2,4.556992E-3],"split_indices":[0,8,4,0,0,0,4,8,2,4,0,0,0,0,1,0,0,7,3,0,5,0,0,0,0,0,0],"split_type":[0,0,0,0,0,0,0,0,0,0,0,0,0,0,0,0,0,0,0,0,0,0,0,0,0,0,0],"sum_hessian":[8.458219E4,3.0081838E4,5.4500348E4,5.003271E3,2.5078568E4,2.937571E3,5.1562773E4,4.4972902E4,6.589871E3,2.213644E4,2.2836465E4,2.5762463E3,4.0136245E3,1.4268623E4,7.867817E3,2.2086344E4,7.501199E2,1.1632036E4,2.6365867E3,2.4157708E3,5.452046E3,5.4000234E3,6.232013E3,1.2848374E3,1.3517491E3,5.844862E2,4.86756E3],"tree_param":{"num_deleted":"0","num_feature":"13","num_nodes":"27","size_leaf_vector":"1"}},{"base_weights":[2.5875373E-3,3.8629686E-3,-6.6565727E-3,-5.345133E-3,-3.7262645E-2,-1.5423558E-2,-4.779558E-4],"categories":[],"categories_nodes":[],"categories_segments":[],"categories_sizes":[],"default_left":[0,0,0,0,0,0,0],"id":17,"left_children":[1,-1,3,5,-1,-1,-1],"loss_changes":[1.2457096E1,0E0,1.0393054E1,1.0428323E1,0E0,0E0,0E0],"parents":[2147483647,0,0,2,2,3,3],"right_children":[2,-1,4,6,-1,-1,-1],"split_conditions":[7.240801E1,3.8629686E-3,1.3820567E2,8.089663E-1,-3.7262645E-2,-1.5423558E-2,-4.779558E-4],"split_indices":[9,0,9,5,0,0,0],"split_type":[0,0,0,0,0,0,0],"sum_hessian":[8.4401234E4,3.1410895E4,5.299034E4,5.2706066E4,2.8427383E2,2.088303E3,5.061776E4],"tree_param":{"num_deleted":"0","num_feature":"13","num_nodes":"7","size_leaf_vector":"1"}},{"base_weights":[-1.2996225E-3,8.4129424E-4,-1.0436019E-2,5.996549E-3,-2.022122E-2,-2.9846902E-3,3.301401E-2,-1.9837903E-2,-2.4850857E-3,-1.6925065E-2,9.682186E-3,2.7398092E-3,1.1962504E-2,-7.5343455E-4,-5.907015E-2,-3.072057E-2,4.63646E-3,1.47622805E-2,-2.682061E-3,-1.7601853E-2,1.6242773E-3,-1.3348109E-2,1.3763258E-2],"categories":[],"categories_nodes":[],"categories_segments":[],"categories_sizes":[],"default_left":[0,0,0,0,0,0,0,0,0,0,0,0,0,0,1,0,0,0,0,0,0,0,0],"id":18,"left_children":[1,3,-1,5,7,9,11,-1,-1,13,15,17,-1,-1,19,21,-1,-1,-1,-1,-1,-1,-1],"loss_changes":[9.159518E0,8.685397E0,0E0,1.6105759E1,8.818843E0,8.705701E0,1.1533361E1,0E0,0E0,1.2759949E1,1.2711266E1,8.420676E0,0E0,0E0,9.810295E0,1.8811167E1,0E0,0E0,0E0,0E0,0E0,0E0,0E0],"parents":[2147483647,0,0,1,1,3,3,4,4,5,5,6,6,9,9,10,10,11,11,14,14,15,15],"right_children":[2,4,-1,6,8,10,12,-1,-1,14,16,18,-1,-1,20,22,-1,-1,-1,-1,-1,-1,-1],"split_conditions":[2.597E3,2.2833753E-1,-1.0436019E-2,-1.6873589E-1,1.4879757E1,6.49235E0,6.3599157E0,-1.9837903E-2,-2.4850857E-3,9.59E1,3.6729137E1,9.429223E-1,1.1962504E-2,-7.5343455E-4,9.95894E1,1.66E2,4.63646E-3,1.47622805E-2,-2.682061E-3,-1.7601853E-2,1.6242773E-3,-1.3348109E-2,1.3763258E-2],"split_indices":[6,4,0,4,8,2,2,0,0,0,8,3,0,0,8,7,0,0,0,0,0,0,0],"split_type":[0,0,0,0,0,0,0,0,0,0,0,0,0,0,0,0,0,0,0,0,0,0,0],"sum_hessian":[8.4528305E4,8.086319E4,3.665115E3,6.53032E4,1.555999E4,4.8841184E4,1.6462014E4,1.4063483E3,1.4153643E4,2.3534797E4,2.5306389E4,7.4592393E3,9.002775E3,1.807893E4,5.4558667E3,5.7750835E3,1.9531305E4,1.4394587E3,6.019781E3,4.0501523E3,1.4057145E3,4.3836685E3,1.3914153E3],"tree_param":{"num_deleted":"0","num_feature":"13","num_nodes":"23","size_leaf_vector":"1"}},{"base_weights":[-1.9324083E-3,3.2905722E-5,-1.529271E-2,-1.2098864E-2,1.8339566E-3,-2.7957033E-2,1.4807258E-2,-1.752264E-2,-3.7522528E-3,-1.3232308E-2,2.4855364E-2,-7.784324E-3,4.0433995E-2,5.8193505E-2,-2.9846162E-3,1.4840639E-2,-1.8295612E-2],"categories":[],"categories_nodes":[],"categories_segments":[],"categories_sizes":[],"default_left":[0,1,0,0,0,1,0,0,0,0,1,0,1,0,0,0,0],"id":19,"left_children":[1,3,-1,5,-1,7,9,-1,-1,-1,11,-1,13,15,-1,-1,-1],"loss_changes":[1.2374713E1,8.678671E0,0E0,1.46637535E1,0E0,1.120602E1,9.588403E0,0E0,0E0,0E0,1.0949536E1,0E0,9.2275915E0,1.3043028E1,0E0,0E0,0E0],"parents":[2147483647,0,0,1,1,3,3,5,5,6,6,10,10,12,12,13,13],"right_children":[2,4,-1,6,-1,8,10,-1,-1,-1,12,-1,14,16,-1,-1,-1],"split_conditions":[9.89E1,5.0862698E1,-1.529271E-2,1.59E2,1.8339566E-3,1.6561995E1,-2.707395E1,-1.752264E-2,-3.7522528E-3,-1.3232308E-2,6.135245E0,-7.784324E-3,1.1993454E2,3.0052966E-1,-2.9846162E-3,1.4840639E-2,-1.8295612E-2],"split_indices":[0,8,0,7,0,8,8,0,0,0,2,0,10,4,0,0,0],"split_type":[0,0,0,0,0,0,0,0,0,0,0,0,0,0,0,0,0],"sum_hessian":[8.4575195E4,8.225822E4,2.3169734E3,3.3983574E4,4.8274645E4,2.156304E4,1.2420536E4,3.1098354E3,1.8453203E4,1.2869429E3,1.1133594E4,2.115964E3,9.01763E3,6.910899E3,2.1067305E3,6.4459414E3,4.6495782E2],"tree_param":{"num_deleted":"0","num_feature":"13","num_nodes":"17","size_leaf_vector":"1"}},{"base_weights":[5.8927404E-4,1.8175731E-3,-2.9309938E-2,7.467239E-4,-1.2475948E-2],"categories":[],"categories_nodes":[],"categories_segments":[],"categories_sizes":[],"default_left":[0,0,0,0,0],"id":20,"left_children":[1,3,-1,-1,-1],"loss_changes":[1.3493937E1,8.526592E0,0E0,0E0,0E0],"parents":[2147483647,0,0,1,1],"right_children":[2,4,-1,-1,-1],"split_conditions":[1.4793187E2,9.89E1,-2.9309938E-2,7.467239E-4,-1.2475948E-2],"split_indices":[10,0,0,0,0],"split_type":[0,0,0,0,0],"sum_hessian":[8.4406914E4,8.3800086E4,6.0682947E2,8.167487E4,2.1252158E3],"tree_param":{"num_deleted":"0","num_feature":"13","num_nodes":"5","size_leaf_vector":"1"}},{"base_weights":[4.3449752E-4],"categories":[],"categories_nodes":[],"categories_segments":[],"categories_sizes":[],"default_left":[0],"id":21,"left_children":[-1],"loss_changes":[0E0],"parents":[2147483647],"right_children":[-1],"split_conditions":[9.116609E-5],"split_indices":[0],"split_type":[0],"sum_hessian":[8.442767E4],"tree_param":{"num_deleted":"0","num_feature":"13","num_nodes":"1","size_leaf_vector":"1"}},{"base_weights":[-3.257572E-4,-5.2975874E-2,3.7233165E-4,-2.9604489E-3,-2.7937071E-2],"categories":[],"categories_nodes":[],"categories_segments":[],"categories_sizes":[],"default_left":[0,0,0,0,0],"id":22,"left_children":[1,3,-1,-1,-1],"loss_changes":[9.76641E0,9.279985E0,0E0,0E0,0E0],"parents":[2147483647,0,0,1,1],"right_children":[2,4,-1,-1,-1],"split_conditions":[7.757731E-1,1.25E2,3.7233165E-4,-2.9604489E-3,-2.7937071E-2],"split_indices":[5,7,0,0,0],"split_type":[0,0,0,0,0],"sum_hessian":[8.455732E4,3.319974E3,8.123734E4,2.3588516E3,9.611224E2],"tree_param":{"num_deleted":"0","num_feature":"13","num_nodes":"5","size_leaf_vector":"1"}},{"base_weights":[-1.580507E-3],"categories":[],"categories_nodes":[],"categories_segments":[],"categories_sizes":[],"default_left":[0],"id":23,"left_children":[-1],"loss_changes":[0E0],"parents":[2147483647],"right_children":[-1],"split_conditions":[-3.3162133E-4],"split_indices":[0],"split_type":[0],"sum_hessian":[8.4515375E4],"tree_param":{"num_deleted":"0","num_feature":"13","num_nodes":"1","size_leaf_vector":"1"}},{"base_weights":[-2.8440435E-4,3.1130947E-3,-1.7078399E-3],"categories":[],"categories_nodes":[],"categories_segments":[],"categories_sizes":[],"default_left":[0,0,0],"id":24,"left_children":[1,-1,-1],"loss_changes":[1.0006546E1,0E0,0E0],"parents":[2147483647,0,0],"right_children":[2,-1,-1],"split_conditions":[6.7740005E1,3.1130947E-3,-1.7078399E-3],"split_indices":[9,0,0],"split_type":[0,0,0],"sum_hessian":[8.454033E4,2.85394E4,5.6000926E4],"tree_param":{"num_deleted":"0","num_feature":"13","num_nodes":"3","size_leaf_vector":"1"}},{"base_weights":[7.1544584E-4],"categories":[],"categories_nodes":[],"categories_segments":[],"categories_sizes":[],"default_left":[0],"id":25,"left_children":[-1],"loss_changes":[0E0],"parents":[2147483647],"right_children":[-1],"split_conditions":[1.5011455E-4],"split_indices":[0],"split_type":[0],"sum_hessian":[8.441722E4],"tree_param":{"num_deleted":"0","num_feature":"13","num_nodes":"1","size_leaf_vector":"1"}},{"base_weights":[2.893193E-4],"categories":[],"categories_nodes":[],"categories_segments":[],"categories_sizes":[],"default_left":[0],"id":26,"left_children":[-1],"loss_changes":[0E0],"parents":[2147483647],"right_children":[-1],"split_conditions":[6.0704853E-5],"split_indices":[0],"split_type":[0],"sum_hessian":[8.434997E4],"tree_param":{"num_deleted":"0","num_feature":"13","num_nodes":"1","size_leaf_vector":"1"}},{"base_weights":[-2.002166E-3],"categories":[],"categories_nodes":[],"categories_segments":[],"categories_sizes":[],"default_left":[0],"id":27,"left_children":[-1],"loss_changes":[0E0],"parents":[2147483647],"right_children":[-1],"split_conditions":[-4.2009362E-4],"split_indices":[0],"split_type":[0],"sum_hessian":[8.449944E4],"tree_param":{"num_deleted":"0","num_feature":"13","num_nodes":"1","size_leaf_vector":"1"}},{"base_weights":[1.8702904E-3],"categories":[],"categories_nodes":[],"categories_segments":[],"categories_sizes":[],"default_left":[0],"id":28,"left_children":[-1],"loss_changes":[0E0],"parents":[2147483647],"right_children":[-1],"split_conditions":[3.9242356E-4],"split_indices":[0],"split_type":[0],"sum_hessian":[8.437937E4],"tree_param":{"num_deleted":"0","num_feature":"13","num_nodes":"1","size_leaf_vector":"1"}},{"base_weights":[-1.8276484E-3],"categories":[],"categories_nodes":[],"categories_segments":[],"categories_sizes":[],"default_left":[0],"id":29,"left_children":[-1],"loss_changes":[0E0],"parents":[2147483647],"right_children":[-1],"split_conditions":[-3.8347644E-4],"split_indices":[0],"split_type":[0],"sum_hessian":[8.44602E4],"tree_param":{"num_deleted":"0","num_feature":"13","num_nodes":"1","size_leaf_vector":"1"}},{"base_weights":[-1.4894458E-3],"categories":[],"categories_nodes":[],"categories_segments":[],"categories_sizes":[],"default_left":[0],"id":30,"left_children":[-1],"loss_changes":[0E0],"parents":[2147483647],"right_children":[-1],"split_conditions":[-3.125149E-4],"split_indices":[0],"split_type":[0],"sum_hessian":[8.445792E4],"tree_param":{"num_deleted":"0","num_feature":"13","num_nodes":"1","size_leaf_vector":"1"}},{"base_weights":[3.668428E-4],"categories":[],"categories_nodes":[],"categories_segments":[],"categories_sizes":[],"default_left":[0],"id":31,"left_children":[-1],"loss_changes":[0E0],"parents":[2147483647],"right_children":[-1],"split_conditions":[7.6970806E-5],"split_indices":[0],"split_type":[0],"sum_hessian":[8.44628E4],"tree_param":{"num_deleted":"0","num_feature":"13","num_nodes":"1","size_leaf_vector":"1"}},{"base_weights":[3.4017616E-4,9.607594E-3,-3.8187776E-4],"categories":[],"categories_nodes":[],"categories_segments":[],"categories_sizes":[],"default_left":[0,0,0],"id":32,"left_children":[1,-1,-1],"loss_changes":[8.649082E0,0E0,0E0],"parents":[2147483647,0,0],"right_children":[2,-1,-1],"split_conditions":[-1.42E1,9.607594E-3,-3.8187776E-4],"split_indices":[1,0,0],"split_type":[0,0,0],"sum_hessian":[8.4450586E4,3.930435E3,8.052015E4],"tree_param":{"num_deleted":"0","num_feature":"13","num_nodes":"3","size_leaf_vector":"1"}},{"base_weights":[2.3473485E-3],"categories":[],"categories_nodes":[],"categories_segments":[],"categories_sizes":[],"default_left":[0],"id":33,"left_children":[-1],"loss_changes":[0E0],"parents":[2147483647],"right_children":[-1],"split_conditions":[4.925197E-4],"split_indices":[0],"split_type":[0],"sum_hessian":[8.445835E4],"tree_param":{"num_deleted":"0","num_feature":"13","num_nodes":"1","size_leaf_vector":"1"}},{"base_weights":[-3.125898E-4],"categories":[],"categories_nodes":[],"categories_segments":[],"categories_sizes":[],"default_left":[0],"id":34,"left_children":[-1],"loss_changes":[0E0],"parents":[2147483647],"right_children":[-1],"split_conditions":[-6.558746E-5],"split_indices":[0],"split_type":[0],"sum_hessian":[8.449734E4],"tree_param":{"num_deleted":"0","num_feature":"13","num_nodes":"1","size_leaf_vector":"1"}},{"base_weights":[-1.9525625E-3],"categories":[],"categories_nodes":[],"categories_segments":[],"categories_sizes":[],"default_left":[0],"id":35,"left_children":[-1],"loss_changes":[0E0],"parents":[2147483647],"right_children":[-1],"split_conditions":[-4.0968586E-4],"split_indices":[0],"split_type":[0],"sum_hessian":[8.447762E4],"tree_param":{"num_deleted":"0","num_feature":"13","num_nodes":"1","size_leaf_vector":"1"}},{"base_weights":[9.0795074E-4],"categories":[],"categories_nodes":[],"categories_segments":[],"categories_sizes":[],"default_left":[0],"id":36,"left_children":[-1],"loss_changes":[0E0],"parents":[2147483647],"right_children":[-1],"split_conditions":[1.9050585E-4],"split_indices":[0],"split_type":[0],"sum_hessian":[8.445564E4],"tree_param":{"num_deleted":"0","num_feature":"13","num_nodes":"1","size_leaf_vector":"1"}},{"base_weights":[-7.591728E-4],"categories":[],"categories_nodes":[],"categories_segments":[],"categories_sizes":[],"default_left":[0],"id":37,"left_children":[-1],"loss_changes":[0E0],"parents":[2147483647],"right_children":[-1],"split_conditions":[-1.5928932E-4],"split_indices":[0],"split_type":[0],"sum_hessian":[8.435084E4],"tree_param":{"num_deleted":"0","num_feature":"13","num_nodes":"1","size_leaf_vector":"1"}},{"base_weights":[-3.9779074E-3,-1.6614147E-2,4.790798E-3,2.275965E-2,-3.931219E-3,1.5963034E-3,-1.5702793E-2],"categories":[],"categories_nodes":[],"categories_segments":[],"categories_sizes":[],"default_left":[0,0,0,0,0,0,0],"id":38,"left_children":[1,3,5,-1,-1,-1,-1],"loss_changes":[9.471665E0,8.743104E0,1.0647469E1,0E0,0E0,0E0,0E0],"parents":[2147483647,0,0,1,1,2,2],"right_children":[2,4,6,-1,-1,-1,-1],"split_conditions":[6.3911853E0,1.827E3,4.3625194E-1,2.275965E-2,-3.931219E-3,1.5963034E-3,-1.5702793E-2],"split_indices":[2,6,4,0,0,0,0],"split_type":[0,0,0,0,0,0,0],"sum_hessian":[8.452167E4,3.4964742E4,4.9556926E4,4.6147043E2,3.4503273E4,4.8021543E4,1.5353848E3],"tree_param":{"num_deleted":"0","num_feature":"13","num_nodes":"7","size_leaf_vector":"1"}},{"base_weights":[5.261398E-4],"categories":[],"categories_nodes":[],"categories_segments":[],"categories_sizes":[],"default_left":[0],"id":39,"left_children":[-1],"loss_changes":[0E0],"parents":[2147483647],"right_children":[-1],"split_conditions":[1.1039444E-4],"split_indices":[0],"split_type":[0],"sum_hessian":[8.4505734E4],"tree_param":{"num_deleted":"0","num_feature":"13","num_nodes":"1","size_leaf_vector":"1"}},{"base_weights":[7.542155E-4],"categories":[],"categories_nodes":[],"categories_segments":[],"categories_sizes":[],"default_left":[0],"id":40,"left_children":[-1],"loss_changes":[0E0],"parents":[2147483647],"right_children":[-1],"split_conditions":[1.5824918E-4],"split_indices":[0],"split_type":[0],"sum_hessian":[8.456898E4],"tree_param":{"num_deleted":"0","num_feature":"13","num_nodes":"1","size_leaf_vector":"1"}},{"base_weights":[1.2913738E-4],"categories":[],"categories_nodes":[],"categories_segments":[],"categories_sizes":[],"default_left":[0],"id":41,"left_children":[-1],"loss_changes":[0E0],"parents":[2147483647],"right_children":[-1],"split_conditions":[2.7095552E-5],"split_indices":[0],"split_type":[0],"sum_hessian":[8.452011E4],"tree_param":{"num_deleted":"0","num_feature":"13","num_nodes":"1","size_leaf_vector":"1"}},{"base_weights":[2.2741184E-3],"categories":[],"categories_nodes":[],"categories_segments":[],"categories_sizes":[],"default_left":[0],"id":42,"left_children":[-1],"loss_changes":[0E0],"parents":[2147483647],"right_children":[-1],"split_conditions":[4.7715456E-4],"split_indices":[0],"split_type":[0],"sum_hessian":[8.454972E4],"tree_param":{"num_deleted":"0","num_feature":"13","num_nodes":"1","size_leaf_vector":"1"}},{"base_weights":[-1.7204064E-4,-2.1832578E-2,4.483809E-3,-2.6926051E-3,-1.1981155E-2,1.2274399E-2,-1.543913E-2,-4.069358E-2,4.922766E-3,8.5270946E-4,8.143564E-3,1.6852211E-2,-2.0230409E-2,-8.8419265E-4,-2.2942781E-2,-6.360865E-2,-1.5076399E-3,-3.1599642E-3,-2.7980095E-2],"categories":[],"categories_nodes":[],"categories_segments":[],"categories_sizes":[],"default_left":[0,1,0,1,0,0,0,0,0,0,0,0,1,0,0,1,0,0,0],"id":43,"left_children":[1,3,5,7,-1,9,11,13,-1,-1,-1,-1,15,-1,-1,17,-1,-1,-1],"loss_changes":[8.680947E0,9.840723E0,1.0767496E1,1.0271736E1,0E0,1.0600513E1,8.487454E0,9.790884E0,0E0,0E0,0E0,0E0,9.874044E0,0E0,0E0,1.2663897E1,0E0,0E0,0E0],"parents":[2147483647,0,0,1,1,2,2,3,3,5,5,6,6,7,7,12,12,15,15],"right_children":[2,4,6,8,-1,10,12,14,-1,-1,-1,-1,16,-1,-1,18,-1,-1,-1],"split_conditions":[-3.327167E-1,2.348E3,1.6880816E-1,6.3820558E0,-1.1981155E-2,-1.5094367E-1,1.0411944E1,7.946747E1,4.922766E-3,8.5270946E-4,8.143564E-3,1.6852211E-2,2.101E3,-8.8419265E-4,-2.2942781E-2,1.0866558E2,-1.5076399E-3,-3.1599642E-3,-2.7980095E-2],"split_indices":[4,6,4,2,0,4,9,9,0,0,0,0,6,0,0,10,0,0,0],"split_type":[0,0,0,0,0,0,0,0,0,0,0,0,0,0,0,0,0,0,0],"sum_hessian":[8.45892E4,1.5216209E4,6.937299E4,1.0057788E4,5.1584204E3,5.0174125E4,1.919887E4,4.2061465E3,5.8516416E3,3.8607816E4,1.1566308E4,7.828354E2,1.8416033E4,2.871099E3,1.3350475E3,4.0543508E3,1.4361683E4,2.5082783E3,1.5460728E3],"tree_param":{"num_deleted":"0","num_feature":"13","num_nodes":"19","size_leaf_vector":"1"}},{"base_weights":[-2.5848363E-4],"categories":[],"categories_nodes":[],"categories_segments":[],"categories_sizes":[],"default_left":[0],"id":44,"left_children":[-1],"loss_changes":[0E0],"parents":[2147483647],"right_children":[-1],"split_conditions":[-5.423493E-5],"split_indices":[0],"split_type":[0],"sum_hessian":[8.4428555E4],"tree_param":{"num_deleted":"0","num_feature":"13","num_nodes":"1","size_leaf_vector":"1"}},{"base_weights":[4.87904E-5],"categories":[],"categories_nodes":[],"categories_segments":[],"categories_sizes":[],"default_left":[0],"id":45,"left_children":[-1],"loss_changes":[0E0],"parents":[2147483647],"right_children":[-1],"split_conditions":[1.0237181E-5],"split_indices":[0],"split_type":[0],"sum_hessian":[8.440714E4],"tree_param":{"num_deleted":"0","num_feature":"13","num_nodes":"1","size_leaf_vector":"1"}},{"base_weights":[-2.20249E-3],"categories":[],"categories_nodes":[],"categories_segments":[],"categories_sizes":[],"default_left":[0],"id":46,"left_children":[-1],"loss_changes":[0E0],"parents":[2147483647],"right_children":[-1],"split_conditions":[-4.6212555E-4],"split_indices":[0],"split_type":[0],"sum_hessian":[8.456755E4],"tree_param":{"num_deleted":"0","num_feature":"13","num_nodes":"1","size_leaf_vector":"1"}},{"base_weights":[8.277886E-5],"categories":[],"categories_nodes":[],"categories_segments":[],"categories_sizes":[],"default_left":[0],"id":47,"left_children":[-1],"loss_changes":[0E0],"parents":[2147483647],"right_children":[-1],"split_conditions":[1.7368626E-5],"split_indices":[0],"split_type":[0],"sum_hessian":[8.43977E4],"tree_param":{"num_deleted":"0","num_feature":"13","num_nodes":"1","size_leaf_vector":"1"}},{"base_weights":[1.0751236E-3,1.4912201E-3,-3.9154664E-3],"categories":[],"categories_nodes":[],"categories_segments":[],"categories_sizes":[],"default_left":[0,0,0],"id":48,"left_children":[1,-1,-1],"loss_changes":[9.984542E0,0E0,0E0],"parents":[2147483647,0,0],"right_children":[2,-1,-1],"split_conditions":[1.0604665E2,1.4912201E-3,-3.9154664E-3],"split_indices":[9,0,0],"split_type":[0,0,0],"sum_hessian":[8.447725E4,6.5041613E4,1.9435639E4],"tree_param":{"num_deleted":"0","num_feature":"13","num_nodes":"3","size_leaf_vector":"1"}},{"base_weights":[-0E0],"categories":[],"categories_nodes":[],"categories_segments":[],"categories_sizes":[],"default_left":[0],"id":49,"left_children":[-1],"loss_changes":[0E0],"parents":[2147483647],"right_children":[-1],"split_conditions":[-0E0],"split_indices":[0],"split_type":[0],"sum_hessian":[8.440239E4],"tree_param":{"num_deleted":"0","num_feature":"13","num_nodes":"1","size_leaf_vector":"1"}},{"base_weights":[-4.7724092E-4,-5.69882E-4,9.735814E-3],"categories":[],"categories_nodes":[],"categories_segments":[],"categories_sizes":[],"default_left":[1,0,0],"id":50,"left_children":[1,-1,-1],"loss_changes":[8.535175E0,0E0,0E0],"parents":[2147483647,0,0],"right_children":[2,-1,-1],"split_conditions":[1.5375E0,-5.69882E-4,9.735814E-3],"split_indices":[1,0,0],"split_type":[0,0,0],"sum_hessian":[8.442878E4,8.08047E4,3.6240823E3],"tree_param":{"num_deleted":"0","num_feature":"13","num_nodes":"3","size_leaf_vector":"1"}},{"base_weights":[-3.9796018E-5],"categories":[],"categories_nodes":[],"categories_segments":[],"categories_sizes":[],"default_left":[0],"id":51,"left_children":[-1],"loss_changes":[0E0],"parents":[2147483647],"right_children":[-1],"split_conditions":[-8.349984E-6],"split_indices":[0],"split_type":[0],"sum_hessian":[8.4457305E4],"tree_param":{"num_deleted":"0","num_feature":"13","num_nodes":"1","size_leaf_vector":"1"}},{"base_weights":[1.8526057E-3],"categories":[],"categories_nodes":[],"categories_segments":[],"categories_sizes":[],"default_left":[0],"id":52,"left_children":[-1],"loss_changes":[0E0],"parents":[2147483647],"right_children":[-1],"split_conditions":[3.8871297E-4],"split_indices":[0],"split_type":[0],"sum_hessian":[8.441768E4],"tree_param":{"num_deleted":"0","num_feature":"13","num_nodes":"1","size_leaf_vector":"1"}},{"base_weights":[-1.12016E-3],"categories":[],"categories_nodes":[],"categories_segments":[],"categories_sizes":[],"default_left":[0],"id":53,"left_children":[-1],"loss_changes":[0E0],"parents":[2147483647],"right_children":[-1],"split_conditions":[-2.350315E-4],"split_indices":[0],"split_type":[0],"sum_hessian":[8.440134E4],"tree_param":{"num_deleted":"0","num_feature":"13","num_nodes":"1","size_leaf_vector":"1"}},{"base_weights":[2.39018E-3],"categories":[],"categories_nodes":[],"categories_segments":[],"categories_sizes":[],"default_left":[0],"id":54,"left_children":[-1],"loss_changes":[0E0],"parents":[2147483647],"right_children":[-1],"split_conditions":[5.0150655E-4],"split_indices":[0],"split_type":[0],"sum_hessian":[8.457895E4],"tree_param":{"num_deleted":"0","num_feature":"13","num_nodes":"1","size_leaf_vector":"1"}},{"base_weights":[-5.4618315E-4],"categories":[],"categories_nodes":[],"categories_segments":[],"categories_sizes":[],"default_left":[0],"id":55,"left_children":[-1],"loss_changes":[0E0],"parents":[2147483647],"right_children":[-1],"split_conditions":[-1.1459992E-4],"split_indices":[0],"split_type":[0],"sum_hessian":[8.43862E4],"tree_param":{"num_deleted":"0","num_feature":"13","num_nodes":"1","size_leaf_vector":"1"}},{"base_weights":[-2.744619E-4],"categories":[],"categories_nodes":[],"categories_segments":[],"categories_sizes":[],"default_left":[0],"id":56,"left_children":[-1],"loss_changes":[0E0],"parents":[2147483647],"right_children":[-1],"split_conditions":[-5.758748E-5],"split_indices":[0],"split_type":[0],"sum_hessian":[8.45259E4],"tree_param":{"num_deleted":"0","num_feature":"13","num_nodes":"1","size_leaf_vector":"1"}},{"base_weights":[3.2361734E-4],"categories":[],"categories_nodes":[],"categories_segments":[],"categories_sizes":[],"default_left":[0],"id":57,"left_children":[-1],"loss_changes":[0E0],"parents":[2147483647],"right_children":[-1],"split_conditions":[6.790125E-5],"split_indices":[0],"split_type":[0],"sum_hessian":[8.431632E4],"tree_param":{"num_deleted":"0","num_feature":"13","num_nodes":"1","size_leaf_vector":"1"}},{"base_weights":[1.596401E-3],"categories":[],"categories_nodes":[],"categories_segments":[],"categories_sizes":[],"default_left":[0],"id":58,"left_children":[-1],"loss_changes":[0E0],"parents":[2147483647],"right_children":[-1],"split_conditions":[3.349562E-4],"split_indices":[0],"split_type":[0],"sum_hessian":[8.442342E4],"tree_param":{"num_deleted":"0","num_feature":"13","num_nodes":"1","size_leaf_vector":"1"}},{"base_weights":[-0E0],"categories":[],"categories_nodes":[],"categories_segments":[],"categories_sizes":[],"default_left":[0],"id":59,"left_children":[-1],"loss_changes":[0E0],"parents":[2147483647],"right_children":[-1],"split_conditions":[-0E0],"split_indices":[0],"split_type":[0],"sum_hessian":[8.430377E4],"tree_param":{"num_deleted":"0","num_feature":"13","num_nodes":"1","size_leaf_vector":"1"}},{"base_weights":[1.4370205E-4],"categories":[],"categories_nodes":[],"categories_segments":[],"categories_sizes":[],"default_left":[0],"id":60,"left_children":[-1],"loss_changes":[0E0],"parents":[2147483647],"right_children":[-1],"split_conditions":[3.0151505E-5],"split_indices":[0],"split_type":[0],"sum_hessian":[8.4309414E4],"tree_param":{"num_deleted":"0","num_feature":"13","num_nodes":"1","size_leaf_vector":"1"}},{"base_weights":[-0E0],"categories":[],"categories_nodes":[],"categories_segments":[],"categories_sizes":[],"default_left":[0],"id":61,"left_children":[-1],"loss_changes":[0E0],"parents":[2147483647],"right_children":[-1],"split_conditions":[-0E0],"split_indices":[0],"split_type":[0],"sum_hessian":[8.4472734E4],"tree_param":{"num_deleted":"0","num_feature":"13","num_nodes":"1","size_leaf_vector":"1"}},{"base_weights":[-3.7805508E-3],"categories":[],"categories_nodes":[],"categories_segments":[],"categories_sizes":[],"default_left":[0],"id":62,"left_children":[-1],"loss_changes":[0E0],"parents":[2147483647],"right_children":[-1],"split_conditions":[-7.932336E-4],"split_indices":[0],"split_type":[0],"sum_hessian":[8.440707E4],"tree_param":{"num_deleted":"0","num_feature":"13","num_nodes":"1","size_leaf_vector":"1"}},{"base_weights":[6.479139E-4],"categories":[],"categories_nodes":[],"categories_segments":[],"categories_sizes":[],"default_left":[0],"id":63,"left_children":[-1],"loss_changes":[0E0],"parents":[2147483647],"right_children":[-1],"split_conditions":[1.3594503E-4],"split_indices":[0],"split_type":[0],"sum_hessian":[8.444946E4],"tree_param":{"num_deleted":"0","num_feature":"13","num_nodes":"1","size_leaf_vector":"1"}},{"base_weights":[1.2438459E-3],"categories":[],"categories_nodes":[],"categories_segments":[],"categories_sizes":[],"default_left":[0],"id":64,"left_children":[-1],"loss_changes":[0E0],"parents":[2147483647],"right_children":[-1],"split_conditions":[2.6098324E-4],"split_indices":[0],"split_type":[0],"sum_hessian":[8.445532E4],"tree_param":{"num_deleted":"0","num_feature":"13","num_nodes":"1","size_leaf_vector":"1"}},{"base_weights":[-2.2604668E-3],"categories":[],"categories_nodes":[],"categories_segments":[],"categories_sizes":[],"default_left":[0],"id":65,"left_children":[-1],"loss_changes":[0E0],"parents":[2147483647],"right_children":[-1],"split_conditions":[-4.742902E-4],"split_indices":[0],"split_type":[0],"sum_hessian":[8.445515E4],"tree_param":{"num_deleted":"0","num_feature":"13","num_nodes":"1","size_leaf_vector":"1"}},{"base_weights":[1.280157E-3,4.2615365E-4,-3.2343607E-2],"categories":[],"categories_nodes":[],"categories_segments":[],"categories_sizes":[],"default_left":[0,0,0],"id":66,"left_children":[1,-1,-1],"loss_changes":[8.704039E0,0E0,0E0],"parents":[2147483647,0,0],"right_children":[2,-1,-1],"split_conditions":[1.3820567E2,4.2615365E-4,-3.2343607E-2],"split_indices":[9,0,0],"split_type":[0,0,0],"sum_hessian":[8.4528E4,8.424249E4,2.8550806E2],"tree_param":{"num_deleted":"0","num_feature":"13","num_nodes":"3","size_leaf_vector":"1"}},{"base_weights":[-2.412777E-3],"categories":[],"categories_nodes":[],"categories_segments":[],"categories_sizes":[],"default_left":[0],"id":67,"left_children":[-1],"loss_changes":[0E0],"parents":[2147483647],"right_children":[-1],"split_conditions":[-5.0624786E-4],"split_indices":[0],"split_type":[0],"sum_hessian":[8.443578E4],"tree_param":{"num_deleted":"0","num_feature":"13","num_nodes":"1","size_leaf_vector":"1"}},{"base_weights":[2.3069691E-4],"categories":[],"categories_nodes":[],"categories_segments":[],"categories_sizes":[],"default_left":[0],"id":68,"left_children":[-1],"loss_changes":[0E0],"parents":[2147483647],"right_children":[-1],"split_conditions":[4.840473E-5],"split_indices":[0],"split_type":[0],"sum_hessian":[8.450775E4],"tree_param":{"num_deleted":"0","num_feature":"13","num_nodes":"1","size_leaf_vector":"1"}},{"base_weights":[8.357413E-4],"categories":[],"categories_nodes":[],"categories_segments":[],"categories_sizes":[],"default_left":[0],"id":69,"left_children":[-1],"loss_changes":[0E0],"parents":[2147483647],"right_children":[-1],"split_conditions":[1.7535489E-4],"split_indices":[0],"split_type":[0],"sum_hessian":[8.4449055E4],"tree_param":{"num_deleted":"0","num_feature":"13","num_nodes":"1","size_leaf_vector":"1"}},{"base_weights":[1.188922E-3],"categories":[],"categories_nodes":[],"categories_segments":[],"categories_sizes":[],"default_left":[0],"id":70,"left_children":[-1],"loss_changes":[0E0],"parents":[2147483647],"right_children":[-1],"split_conditions":[2.4945912E-4],"split_indices":[0],"split_type":[0],"sum_hessian":[8.445738E4],"tree_param":{"num_deleted":"0","num_feature":"13","num_nodes":"1","size_leaf_vector":"1"}},{"base_weights":[-3.007502E-4],"categories":[],"categories_nodes":[],"categories_segments":[],"categories_sizes":[],"default_left":[0],"id":71,"left_children":[-1],"loss_changes":[0E0],"parents":[2147483647],"right_children":[-1],"split_conditions":[-6.310328E-5],"split_indices":[0],"split_type":[0],"sum_hessian":[8.4367734E4],"tree_param":{"num_deleted":"0","num_feature":"13","num_nodes":"1","size_leaf_vector":"1"}},{"base_weights":[-0E0],"categories":[],"categories_nodes":[],"categories_segments":[],"categories_sizes":[],"default_left":[0],"id":72,"left_children":[-1],"loss_changes":[0E0],"parents":[2147483647],"right_children":[-1],"split_conditions":[-0E0],"split_indices":[0],"split_type":[0],"sum_hessian":[8.439333E4],"tree_param":{"num_deleted":"0","num_feature":"13","num_nodes":"1","size_leaf_vector":"1"}},{"base_weights":[-1.0644242E-3],"categories":[],"categories_nodes":[],"categories_segments":[],"categories_sizes":[],"default_left":[0],"id":73,"left_children":[-1],"loss_changes":[0E0],"parents":[2147483647],"right_children":[-1],"split_conditions":[-2.2333703E-4],"split_indices":[0],"split_type":[0],"sum_hessian":[8.440821E4],"tree_param":{"num_deleted":"0","num_feature":"13","num_nodes":"1","size_leaf_vector":"1"}},{"base_weights":[2.9337456E-4],"categories":[],"categories_nodes":[],"categories_segments":[],"categories_sizes":[],"default_left":[0],"id":74,"left_children":[-1],"loss_changes":[0E0],"parents":[2147483647],"right_children":[-1],"split_conditions":[6.155573E-5],"split_indices":[0],"split_type":[0],"sum_hessian":[8.453243E4],"tree_param":{"num_deleted":"0","num_feature":"13","num_nodes":"1","size_leaf_vector":"1"}},{"base_weights":[-1.4690867E-3,-7.2717585E-4,1.1745128E-2],"categories":[],"categories_nodes":[],"categories_segments":[],"categories_sizes":[],"default_left":[1,0,0],"id":75,"left_children":[1,-1,-1],"loss_changes":[9.297546E0,0E0,0E0],"parents":[2147483647,0,0],"right_children":[2,-1,-1],"split_conditions":[1.1609126E0,-7.2717585E-4,1.1745128E-2],"split_indices":[3,0,0],"split_type":[0,0,0],"sum_hessian":[8.4454625E4,8.18151E4,2.6395266E3],"tree_param":{"num_deleted":"0","num_feature":"13","num_nodes":"3","size_leaf_vector":"1"}},{"base_weights":[-9.388304E-4,2.2067463E-4,-1.1764422E-2],"categories":[],"categories_nodes":[],"categories_segments":[],"categories_sizes":[],"default_left":[0,0,0],"id":76,"left_children":[1,-1,-1],"loss_changes":[9.704035E0,0E0,0E0],"parents":[2147483647,0,0],"right_children":[2,-1,-1],"split_conditions":[1.2472524E2,2.2067463E-4,-1.1764422E-2],"split_indices":[9,0,0],"split_type":[0,0,0],"sum_hessian":[8.438703E4,8.1377234E4,3.0097952E3],"tree_param":{"num_deleted":"0","num_feature":"13","num_nodes":"3","size_leaf_vector":"1"}},{"base_weights":[2.8409823E-4],"categories":[],"categories_nodes":[],"categories_segments":[],"categories_sizes":[],"default_left":[0],"id":77,"left_children":[-1],"loss_changes":[0E0],"parents":[2147483647],"right_children":[-1],"split_conditions":[5.9609374E-5],"split_indices":[0],"split_type":[0],"sum_hessian":[8.44804E4],"tree_param":{"num_deleted":"0","num_feature":"13","num_nodes":"1","size_leaf_vector":"1"}},{"base_weights":[-6.116792E-4],"categories":[],"categories_nodes":[],"categories_segments":[],"categories_sizes":[],"default_left":[0],"id":78,"left_children":[-1],"loss_changes":[0E0],"parents":[2147483647],"right_children":[-1],"split_conditions":[-1.2834228E-4],"split_indices":[0],"split_type":[0],"sum_hessian":[8.434004E4],"tree_param":{"num_deleted":"0","num_feature":"13","num_nodes":"1","size_leaf_vector":"1"}},{"base_weights":[-8.006004E-4],"categories":[],"categories_nodes":[],"categories_segments":[],"categories_sizes":[],"default_left":[0],"id":79,"left_children":[-1],"loss_changes":[0E0],"parents":[2147483647],"right_children":[-1],"split_conditions":[-1.6798165E-4],"split_indices":[0],"split_type":[0],"sum_hessian":[8.4387086E4],"tree_param":{"num_deleted":"0","num_feature":"13","num_nodes":"1","size_leaf_vector":"1"}},{"base_weights":[1.8199845E-3],"categories":[],"categories_nodes":[],"categories_segments":[],"categories_sizes":[],"default_left":[0],"id":80,"left_children":[-1],"loss_changes":[0E0],"parents":[2147483647],"right_children":[-1],"split_conditions":[3.818684E-4],"split_indices":[0],"split_type":[0],"sum_hessian":[8.449921E4],"tree_param":{"num_deleted":"0","num_feature":"13","num_nodes":"1","size_leaf_vector":"1"}},{"base_weights":[1.3681678E-3],"categories":[],"categories_nodes":[],"categories_segments":[],"categories_sizes":[],"default_left":[0],"id":81,"left_children":[-1],"loss_changes":[0E0],"parents":[2147483647],"right_children":[-1],"split_conditions":[2.870684E-4],"split_indices":[0],"split_type":[0],"sum_hessian":[8.448568E4],"tree_param":{"num_deleted":"0","num_feature":"13","num_nodes":"1","size_leaf_vector":"1"}},{"base_weights":[4.3318118E-4],"categories":[],"categories_nodes":[],"categories_segments":[],"categories_sizes":[],"default_left":[0],"id":82,"left_children":[-1],"loss_changes":[0E0],"parents":[2147483647],"right_children":[-1],"split_conditions":[9.0889895E-5],"split_indices":[0],"split_type":[0],"sum_hessian":[8.446573E4],"tree_param":{"num_deleted":"0","num_feature":"13","num_nodes":"1","size_leaf_vector":"1"}},{"base_weights":[-0E0],"categories":[],"categories_nodes":[],"categories_segments":[],"categories_sizes":[],"default_left":[0],"id":83,"left_children":[-1],"loss_changes":[0E0],"parents":[2147483647],"right_children":[-1],"split_conditions":[-0E0],"split_indices":[0],"split_type":[0],"sum_hessian":[8.4430516E4],"tree_param":{"num_deleted":"0","num_feature":"13","num_nodes":"1","size_leaf_vector":"1"}},{"base_weights":[-2.3679843E-3],"categories":[],"categories_nodes":[],"categories_segments":[],"categories_sizes":[],"default_left":[0],"id":84,"left_children":[-1],"loss_changes":[0E0],"parents":[2147483647],"right_children":[-1],"split_conditions":[-4.968495E-4],"split_indices":[0],"split_type":[0],"sum_hessian":[8.440779E4],"tree_param":{"num_deleted":"0","num_feature":"13","num_nodes":"1","size_leaf_vector":"1"}},{"base_weights":[2.1026155E-5],"categories":[],"categories_nodes":[],"categories_segments":[],"categories_sizes":[],"default_left":[0],"id":85,"left_children":[-1],"loss_changes":[0E0],"parents":[2147483647],"right_children":[-1],"split_conditions":[4.411699E-6],"split_indices":[0],"split_type":[0],"sum_hessian":[8.444927E4],"tree_param":{"num_deleted":"0","num_feature":"13","num_nodes":"1","size_leaf_vector":"1"}},{"base_weights":[2.7399994E-3],"categories":[],"categories_nodes":[],"categories_segments":[],"categories_sizes":[],"default_left":[0],"id":86,"left_children":[-1],"loss_changes":[0E0],"parents":[2147483647],"right_children":[-1],"split_conditions":[5.7490554E-4],"split_indices":[0],"split_type":[0],"sum_hessian":[8.439833E4],"tree_param":{"num_deleted":"0","num_feature":"13","num_nodes":"1","size_leaf_vector":"1"}},{"base_weights":[1.3108195E-3],"categories":[],"categories_nodes":[],"categories_segments":[],"categories_sizes":[],"default_left":[0],"id":87,"left_children":[-1],"loss_changes":[0E0],"parents":[2147483647],"right_children":[-1],"split_conditions":[2.7503562E-4],"split_indices":[0],"split_type":[0],"sum_hessian":[8.441871E4],"tree_param":{"num_deleted":"0","num_feature":"13","num_nodes":"1","size_leaf_vector":"1"}},{"base_weights":[-1.5032431E-3],"categories":[],"categories_nodes":[],"categories_segments":[],"categories_sizes":[],"default_left":[0],"id":88,"left_children":[-1],"loss_changes":[0E0],"parents":[2147483647],"right_children":[-1],"split_conditions":[-3.1540985E-4],"split_indices":[0],"split_type":[0],"sum_hessian":[8.443353E4],"tree_param":{"num_deleted":"0","num_feature":"13","num_nodes":"1","size_leaf_vector":"1"}},{"base_weights":[-2.4474433E-3],"categories":[],"categories_nodes":[],"categories_segments":[],"categories_sizes":[],"default_left":[0],"id":89,"left_children":[-1],"loss_changes":[0E0],"parents":[2147483647],"right_children":[-1],"split_conditions":[-5.1352155E-4],"split_indices":[0],"split_type":[0],"sum_hessian":[8.442305E4],"tree_param":{"num_deleted":"0","num_feature":"13","num_nodes":"1","size_leaf_vector":"1"}},{"base_weights":[-5.9302093E-4],"categories":[],"categories_nodes":[],"categories_segments":[],"categories_sizes":[],"default_left":[0],"id":90,"left_children":[-1],"loss_changes":[0E0],"parents":[2147483647],"right_children":[-1],"split_conditions":[-1.244274E-4],"split_indices":[0],"split_type":[0],"sum_hessian":[8.44528E4],"tree_param":{"num_deleted":"0","num_feature":"13","num_nodes":"1","size_leaf_vector":"1"}},{"base_weights":[1.4904903E-3],"categories":[],"categories_nodes":[],"categories_segments":[],"categories_sizes":[],"default_left":[0],"id":91,"left_children":[-1],"loss_changes":[0E0],"parents":[2147483647],"right_children":[-1],"split_conditions":[3.1273405E-4],"split_indices":[0],"split_type":[0],"sum_hessian":[8.448894E4],"tree_param":{"num_deleted":"0","num_feature":"13","num_nodes":"1","size_leaf_vector":"1"}},{"base_weights":[9.52363E-4],"categories":[],"categories_nodes":[],"categories_segments":[],"categories_sizes":[],"default_left":[0],"id":92,"left_children":[-1],"loss_changes":[0E0],"parents":[2147483647],"right_children":[-1],"split_conditions":[1.9982441E-4],"split_indices":[0],"split_type":[0],"sum_hessian":[8.441155E4],"tree_param":{"num_deleted":"0","num_feature":"13","num_nodes":"1","size_leaf_vector":"1"}},{"base_weights":[-2.6497804E-4],"categories":[],"categories_nodes":[],"categories_segments":[],"categories_sizes":[],"default_left":[0],"id":93,"left_children":[-1],"loss_changes":[0E0],"parents":[2147483647],"right_children":[-1],"split_conditions":[-5.5597582E-5],"split_indices":[0],"split_type":[0],"sum_hessian":[8.447677E4],"tree_param":{"num_deleted":"0","num_feature":"13","num_nodes":"1","size_leaf_vector":"1"}},{"base_weights":[3.1761956E-4,1.901259E-2,-1.4782029E-4],"categories":[],"categories_nodes":[],"categories_segments":[],"categories_sizes":[],"default_left":[0,0,0],"id":94,"left_children":[1,-1,-1],"loss_changes":[8.5111885E0,0E0,0E0],"parents":[2147483647,0,0],"right_children":[2,-1,-1],"split_conditions":[8.57E1,1.901259E-2,-1.4782029E-4],"split_indices":[0,0,0],"split_type":[0,0,0],"sum_hessian":[8.4460734E4,9.605706E2,8.350016E4],"tree_param":{"num_deleted":"0","num_feature":"13","num_nodes":"3","size_leaf_vector":"1"}},{"base_weights":[3.8765263E-4],"categories":[],"categories_nodes":[],"categories_segments":[],"categories_sizes":[],"default_left":[0],"id":95,"left_children":[-1],"loss_changes":[0E0],"parents":[2147483647],"right_children":[-1],"split_conditions":[8.1337115E-5],"split_indices":[0],"split_type":[0],"sum_hessian":[8.444614E4],"tree_param":{"num_deleted":"0","num_feature":"13","num_nodes":"1","size_leaf_vector":"1"}},{"base_weights":[8.329474E-5],"categories":[],"categories_nodes":[],"categories_segments":[],"categories_sizes":[],"default_left":[0],"id":96,"left_children":[-1],"loss_changes":[0E0],"parents":[2147483647],"right_children":[-1],"split_conditions":[1.7476868E-5],"split_indices":[0],"split_type":[0],"sum_hessian":[8.448418E4],"tree_param":{"num_deleted":"0","num_feature":"13","num_nodes":"1","size_leaf_vector":"1"}},{"base_weights":[4.6053765E-4],"categories":[],"categories_nodes":[],"categories_segments":[],"categories_sizes":[],"default_left":[0],"id":97,"left_children":[-1],"loss_changes":[0E0],"parents":[2147483647],"right_children":[-1],"split_conditions":[9.662982E-5],"split_indices":[0],"split_type":[0],"sum_hessian":[8.442095E4],"tree_param":{"num_deleted":"0","num_feature":"13","num_nodes":"1","size_leaf_vector":"1"}},{"base_weights":[-1.9920844E-4],"categories":[],"categories_nodes":[],"categories_segments":[],"categories_sizes":[],"default_left":[0],"id":98,"left_children":[-1],"loss_changes":[0E0],"parents":[2147483647],"right_children":[-1],"split_conditions":[-4.1797834E-5],"split_indices":[0],"split_type":[0],"sum_hessian":[8.437151E4],"tree_param":{"num_deleted":"0","num_feature":"13","num_nodes":"1","size_leaf_vector":"1"}},{"base_weights":[9.4432815E-4],"categories":[],"categories_nodes":[],"categories_segments":[],"categories_sizes":[],"default_left":[0],"id":99,"left_children":[-1],"loss_changes":[0E0],"parents":[2147483647],"right_children":[-1],"split_conditions":[1.9813854E-4],"split_indices":[0],"split_type":[0],"sum_hessian":[8.446934E4],"tree_param":{"num_deleted":"0","num_feature":"13","num_nodes":"1","size_leaf_vector":"1"}}]},"name":"gbtree"},"learner_model_param":{"base_score":"4.663258E-1","boost_from_average":"1","num_class":"0","num_feature":"13","num_target":"1"},"objective":{"name":"binary:logistic","reg_loss_param":{"scale_pos_weight":"1"}}},"version":[2,1,4]}